aret1240	0.17971961200237274	-0.0014225887134671211	-0.20191439986228943	-0.13639235496520996	-0.3188188672065735	-0.016856834292411804	0.21995730698108673	-0.05008145049214363	-0.06607126444578171	0.10328659415245056	0.3727235496044159	-0.3047165870666504	-0.020079609006643295	-0.024053772911429405	-0.02861413173377514	0.06326840817928314	0.02853522077202797	0.12296910583972931	-0.0019125259714201093	0.3326384723186493	0.2821604609489441	0.11472421139478683	-0.12497874349355698	0.21731306612491608	0.06565233319997787	0.022658750414848328	0.01908917725086212	-0.016891242936253548	0.014664465561509132	0.13910536468029022	-0.06883709877729416	-0.13990101218223572	-0.3713851571083069	-0.003184122499078512	-0.2161998450756073	-0.02625305950641632	-0.009602205827832222	0.02874641679227352	-0.028652643784880638	0.03841911256313324	0.013601979240775108	0.001152360811829567	-0.005322915501892567	-0.10529863089323044	0.06539908796548843	0.020727716386318207	-0.05758943408727646	0.01719261333346367	-0.030726807191967964	0.11147284507751465	0.2448277771472931	-0.00373709574341774	-0.14071007072925568	0.21516263484954834	0.17171210050582886	-0.06383330374956131	0.02870607189834118	-0.19664010405540466	-0.2632831633090973	-0.38633018732070923	0.07628042250871658	-0.13103461265563965	0.296937495470047	0.09998913109302521	-0.12957018613815308	0.15837159752845764	0.006241411902010441	0.1761830896139145	-0.014431534335017204	0.04025346040725708	-0.17284870147705078	-0.10757286101579666	0.005815241020172834	0.013332775793969631	-0.1458788812160492	0.07114116847515106	-0.2681981325149536	0.027257559821009636	-0.0379958376288414	-0.13307350873947144	-0.009643285535275936	0.4347718060016632	0.22481109201908112	0.2921368479728699	-0.08472926169633865	0.0644875019788742	0.01639878936111927	-0.0362466536462307	0.017070602625608444	-0.029231136664748192	0.02113708294928074	-0.17403645813465118	0.38061967492103577	-0.004234061576426029	0.279073029756546	0.16468565165996552	-0.034632422029972076	-0.0018007759936153889	0.01951274462044239	-0.03010345995426178	0.0077610621228814125	0.0022461633197963238	-0.18754659593105316	-0.14909455180168152	0.2041052132844925	-0.34794774651527405	-0.016216397285461426	-0.052464645355939865	-0.15887056291103363	-0.10087162256240845	0.43078556656837463	0.01077626459300518	-0.0036932562943547964	-0.26087069511413574	0.12615041434764862	0.01945931278169155	0.05893826484680176	-0.027122806757688522	0.012768958695232868	-0.2805544435977936	-0.004809196572750807	-0.021889716386795044	0.02782590314745903	-0.03449007123708725	0.0007863878854550421	0.02009943313896656	0.014847816899418831	0.0028530105482786894
assa1263	0.03877292573451996	-0.008308486081659794	-0.12587879598140717	0.029869096353650093	-0.22911697626113892	-0.0036700107157230377	0.1259387731552124	-0.015389607287943363	-0.18021906912326813	0.043203629553318024	-0.03101375512778759	0.08604303002357483	0.0056053525768220425	-0.00883624516427517	0.008838662877678871	0.09133601933717728	-0.016799071803689003	-0.07616070657968521	0.0037546721287071705	0.019359251484274864	0.08937109261751175	-0.0033638225868344307	0.012376430444419384	-0.014509775675833225	-0.1978367567062378	-0.005085714627057314	-0.004687528125941753	-0.010344208218157291	0.0005375457112677395	-0.018109703436493874	-0.002568557858467102	0.006962846964597702	0.16904427111148834	-0.003295687260106206	-0.02887442149221897	-0.012632854282855988	0.0033557855058461428	-0.01584504544734955	0.01426886860281229	-0.08255470544099808	0.01177762821316719	0.0016967246774584055	-0.004339848645031452	0.06020691990852356	0.07361114025115967	0.00976590346544981	-0.11590312421321869	-2.43901158683002e-05	0.10661161690950394	-0.13673847913742065	0.11455105990171432	-0.01323467493057251	0.03291410207748413	0.18871797621250153	0.1494935154914856	-0.05026621371507645	-0.015431716106832027	0.022109178826212883	-0.026462053880095482	0.16860449314117432	-0.005423333961516619	-0.021576907485723495	-0.038538333028554916	0.013834246434271336	-0.0756542980670929	0.00202333671040833	-0.07339920103549957	0.006451822351664305	-0.006716302130371332	-0.011951363645493984	-0.010026718489825726	-0.013566681183874607	-0.005432589445263147	-0.00961841456592083	-0.12142334133386612	0.0865209773182869	0.027694908902049065	0.028550948947668076	0.15251196920871735	0.03625452518463135	-0.0036873361095786095	-0.07890252768993378	0.040994491428136826	0.0862627848982811	0.08770632743835449	0.04899321869015694	-0.04906487092375755	-0.015547473914921284	-0.0023948773741722107	-0.002112586749717593	0.009565264917910099	0.06443214416503906	0.013546526432037354	0.007961004041135311	-0.03493642061948776	0.04690152034163475	0.05460815131664276	-0.018524838611483574	0.0011556274257600307	-0.07334741950035095	-0.0026863578241318464	0.0010798980947583914	0.03322320431470871	0.08753135800361633	-0.12698067724704742	-0.0665556788444519	0.008813619613647461	0.008936266414821148	0.026542101055383682	0.10983933508396149	-0.05989820137619972	0.006931417156010866	0.004562339745461941	0.023528849706053734	-0.017113089561462402	0.013042076490819454	-0.026701385155320168	-0.09409570693969727	0.0675385519862175	0.0638754591345787	0.00881931371986866	-0.002018918748944998	-0.08454383164644241	-0.23033368587493896	-0.019967095926404	-0.17532384395599365	-0.0035953326150774956	-0.016935015097260475
bagh1251	0.03285457193851471	0.0032386179082095623	-0.06544163078069687	-0.012054800987243652	0.0008813351159915328	0.004151835106313229	-0.08584960550069809	0.0020995766390115023	0.08517839759588242	0.0364077091217041	0.09762008488178253	0.033779822289943695	0.1540200263261795	0.006465219892561436	-0.011186047457158566	-0.08685138821601868	-0.020281294360756874	-0.08989319205284119	-0.013358394615352154	-0.07110963761806488	0.20567850768566132	-0.1995818018913269	0.05064119026064873	-0.17893218994140625	0.21575626730918884	-0.006106489337980747	0.01824171282351017	-0.006454166956245899	-0.01605888642370701	-0.17993690073490143	-0.006571772508323193	0.11098142713308334	0.20242370665073395	-0.020491505041718483	-0.024375678971409798	-0.011957886628806591	0.021811101585626602	-0.002027033129706979	-0.21406392753124237	0.12164508551359177	-0.006855793297290802	-0.03276059404015541	-0.00848505087196827	-0.008543502539396286	-0.128806009888649	0.004831273574382067	-0.23844532668590546	0.007773539517074823	-0.05807969719171524	0.06674898415803909	-0.04344634711742401	0.030480073764920235	0.028453078120946884	0.18067166209220886	-0.0036940593272447586	0.04293057695031166	0.00969776138663292	0.04148700460791588	0.039474256336688995	0.36200079321861267	0.08419652283191681	0.002037552883848548	0.16145578026771545	-0.07521777600049973	0.11882784217596054	0.08929494023323059	0.009286198765039444	-0.03475439175963402	-0.0031897276639938354	-0.027873745188117027	-0.031594417989254	-0.018741166219115257	0.004537593573331833	0.010979988612234592	0.03600192070007324	0.0916532576084137	0.016556335613131523	0.06010826677083969	0.13851958513259888	0.00797818973660469	-0.0058584799990057945	0.07652632892131805	-0.10235609859228134	0.1215396299958229	0.09598270803689957	-0.07731828838586807	0.07147550582885742	-0.02866014651954174	-0.024455783888697624	0.004596089478582144	-0.017308322712779045	0.00329378480091691	0.1803533434867859	-0.011580230668187141	-0.11234302073717117	0.12420064955949783	-0.23805773258209229	-0.008506915532052517	0.014817588962614536	0.15025664865970612	0.0032032765448093414	0.015835482627153397	-0.0016710045747458935	0.06505181640386581	-0.1311786025762558	-0.06946245580911636	-0.012399011291563511	-0.0028798270504921675	0.12460224330425262	-0.03128509595990181	-0.01593717373907566	0.016258981078863144	0.01348803285509348	0.1780857890844345	-0.10812091082334518	0.00629942212253809	0.01632070168852806	0.10238811373710632	0.07225293666124344	-0.06392943114042282	-0.019082920625805855	-0.0035646979231387377	0.08130241185426712	0.2732546627521515	0.03570909425616264	-0.22283916175365448	-0.003971234429627657	-0.018786707893013954
beng1280	-0.016242897137999535	0.002626636531203985	0.014494745060801506	0.008418096229434013	-0.039647772908210754	-0.0030750520527362823	-0.0329342857003212	-0.010153474286198616	-0.0895882397890091	0.10823893547058105	-0.011423547752201557	0.06852661818265915	-0.003582051955163479	0.0063453237526118755	0.006513739004731178	0.059381816536188126	0.09739716351032257	0.05994582548737526	-0.0026732769329100847	0.09276334941387177	-0.06037821248173714	-0.13307872414588928	0.04238828271627426	-0.0004542728129308671	-0.0987919420003891	-0.0004815231659449637	-0.0030238230247050524	0.004749624524265528	-0.026048747822642326	-0.11622875928878784	-0.009899821132421494	-0.06993713974952698	0.024742774665355682	0.0056395684368908405	-0.011019366793334484	0.011225171387195587	-0.013081653043627739	0.0048165088519454	0.07153358310461044	-0.031872719526290894	0.0012435567332431674	0.002938133431598544	0.008404823020100594	-0.10125276446342468	-0.0970386415719986	0.00012348598102107644	-0.10626918077468872	0.016626276075839996	0.1367078274488449	-0.10069546848535538	0.08999575674533844	0.0032155707012861967	0.007053181063383818	0.17756356298923492	0.05327340215444565	0.011343381367623806	-0.012540021911263466	0.1405055820941925	0.018569085747003555	0.14882269501686096	-0.03978097438812256	-0.0024287616834044456	0.0780600905418396	-0.004145799670368433	0.013865536078810692	-0.045412592589855194	0.11443042010068893	0.04032076522707939	0.009485708549618721	0.08456728607416153	0.027251455932855606	-0.017635280266404152	0.009504614397883415	0.013797937892377377	-0.043015286326408386	-0.025750907137989998	-0.022783124819397926	-0.043074458837509155	0.07336720824241638	0.005827999673783779	0.01263729389756918	-0.07682441920042038	0.17065879702568054	0.10545330494642258	-0.19894205033779144	0.0405598022043705	0.07441587001085281	0.0009762480622157454	0.012329776771366596	-0.001463479595258832	0.013180572539567947	-0.02852049097418785	-0.19642606377601624	-0.015853678807616234	0.014666716568171978	0.010627122595906258	-0.10452890396118164	0.020216699689626694	-0.006865758914500475	0.06399156898260117	0.004687172826379538	-0.006846115458756685	0.009409102611243725	-0.004123132675886154	0.05441776663064957	-0.16013455390930176	-0.003545754123479128	-0.0026423861272633076	-0.07364431023597717	-0.013892647810280323	-0.16091161966323853	-0.003321070456877351	-0.011451822705566883	-0.1316988319158554	-0.03770313784480095	0.003462345339357853	0.0025064460933208466	-0.00905225146561861	-0.0564379058778286	0.14542043209075928	-0.017433177679777145	-0.0013619057135656476	0.08585011214017868	0.05560922622680664	-0.04961885139346123	0.09987493604421616	-0.0033519009593874216	0.008672758936882019
bhad1241	0.01431393064558506	-0.012197574600577354	-0.22019292414188385	-0.02103123441338539	0.07037874311208725	0.0045762755908071995	-0.09740922600030899	-0.032211560755968094	-0.05532079190015793	-0.001163763809017837	-0.0802173763513565	-0.1274903267621994	-0.007497979328036308	0.014316343702375889	0.0028732321225106716	-0.08420047163963318	-0.030010957270860672	-0.003995597828179598	0.0033705236855894327	-0.0380522720515728	-0.03257609158754349	-0.10665909200906754	0.1070663183927536	0.09119019657373428	0.03653430938720703	0.014059600420296192	-0.006882255431264639	-0.0026154527440667152	0.037080831825733185	-0.18812412023544312	-0.04744395241141319	0.07881982624530792	0.07602637261152267	-0.01145364623516798	0.08568841964006424	0.004023695830255747	-0.0029462347738444805	-0.000450101651949808	0.13630925118923187	-0.17809875309467316	0.003459534840658307	0.0029781016055494547	0.020345190539956093	0.05935952812433243	-0.09993882477283478	-0.01627582125365734	0.045963503420352936	-0.00946434959769249	-0.3313915431499481	-0.12893058359622955	-0.16714830696582794	-0.06114230304956436	0.0691835805773735	-0.18035070598125458	-0.04047701135277748	0.024274151772260666	-0.004184911958873272	-0.17747503519058228	-0.06402579694986343	-0.08809681981801987	-0.09644617885351181	-0.02975553460419178	0.27015915513038635	0.2033465951681137	-0.054563406854867935	0.06911438703536987	-0.1098889485001564	-0.0694570392370224	0.002145054517313838	-0.01972060650587082	-0.030707841739058495	-0.060555048286914825	0.003949212841689587	-0.009306509047746658	0.24185238778591156	-0.039479661732912064	-0.00761695671826601	-0.01781044714152813	0.16829253733158112	-0.026110365986824036	0.01605711318552494	0.11672059446573257	0.07084854692220688	0.04270121827721596	-0.09988686442375183	-0.07739944010972977	-0.04444817826151848	0.015075907111167908	0.02074204385280609	-0.1285618394613266	0.014260217547416687	0.034012362360954285	-0.08846503496170044	0.016352122649550438	-0.004304842557758093	-0.04061771556735039	-0.32347163558006287	0.006555891130119562	-0.0016482557402923703	-0.23241588473320007	-0.006758685689419508	-0.018499059602618217	0.06753814220428467	-0.1238413080573082	0.09069772064685822	-0.30600303411483765	0.003404957242310047	-0.004115595482289791	-0.0332886166870594	0.14304552972316742	0.06446583569049835	-0.013213285245001316	0.007255429867655039	0.2168051153421402	0.14537277817726135	-0.009317419491708279	-0.00018700421787798405	0.14673350751399994	-0.07177040725946426	0.11470182240009308	0.014673780649900436	0.0062783509492874146	-0.15007971227169037	-0.10907625406980515	-0.05567771568894386	0.05947287753224373	0.0032449536956846714	0.015340123325586319
bhal1244	0.03289979323744774	0.0064640408381819725	-0.06539764255285263	0.050785742700099945	-0.008163954131305218	-0.00011119518603663892	-0.04720021039247513	0.01636466197669506	-0.0733988955616951	0.08999763429164886	-0.09413988143205643	0.18522337079048157	0.06966222077608109	-0.0142871318385005	-0.039476945996284485	0.1095263734459877	-0.03877193480730057	-0.020261559635400772	-0.006743224337697029	0.11160050332546234	-0.11059029400348663	-0.31411224603652954	-0.05477419123053551	0.11959441751241684	-0.11302898824214935	0.010447045788168907	0.006002074107527733	0.029386604204773903	-0.03178658336400986	-0.1104569211602211	-0.12215182930231094	-0.010116446763277054	0.15281891822814941	0.03557866811752319	-0.10278138518333435	0.0011784621747210622	-0.006517166271805763	0.015584767796099186	0.11929848790168762	0.1316191852092743	0.0015091855311766267	-0.0028739222325384617	0.005299353506416082	-0.030538959428668022	0.06868068128824234	0.012414872646331787	0.12682080268859863	0.013567495159804821	-0.07460510730743408	-0.13553433120250702	-0.06774580478668213	-0.017776360735297203	-0.022308994084596634	-0.07581247389316559	0.03328212350606918	-0.05267975479364395	0.00792685430496931	-0.13106612861156464	-0.1103595569729805	-0.22895798087120056	-0.09691354632377625	-0.03835916146636009	0.02363351173698902	-0.11991048604249954	0.14168579876422882	0.010171454399824142	0.0060274344868958	0.026927869766950607	-0.005591362714767456	-0.04249920696020126	-0.00012162799248471856	0.09900662302970886	0.0005901305703446269	0.00106379808858037	0.1087573766708374	-0.1286802887916565	0.05007711797952652	-0.007727350108325481	-0.1637812852859497	-0.05362030863761902	0.00849784817546606	0.16096074879169464	0.1116877943277359	-0.09485670924186707	0.07322017848491669	0.050207044929265976	-0.18771615624427795	-0.009612941183149815	-0.013321956619620323	-0.017303509637713432	-0.04372807964682579	0.02303692139685154	-0.024065101519227028	-0.002045050263404846	-0.10243625193834305	0.14600495994091034	-0.2365364134311676	0.016455596312880516	-0.02599974535405636	0.06059100478887558	0.004179979674518108	0.009056190960109234	-0.0030384573619812727	-0.22199741005897522	0.19937650859355927	-0.06621479988098145	0.007743108086287975	-0.006430973298847675	0.19401012361049652	-0.08636092394590378	-0.06299931555986404	-0.005317503586411476	0.0032441564835608006	0.3572774827480316	-0.010808844119310379	-0.010421056300401688	0.02544480934739113	0.02103833481669426	-0.19411277770996094	-0.14653994143009186	0.002668508794158697	-0.02598293498158455	-0.14993096888065338	-0.3046398162841797	0.10563504695892334	-0.05618387833237648	0.015209240838885307	-0.007117674686014652
bhoj1244	-0.0798526257276535	0.026966050267219543	0.13971027731895447	-0.08389865607023239	-0.14358824491500854	-0.012122130021452904	-0.09827602654695511	0.016365492716431618	-0.037564750760793686	-0.14974026381969452	-0.035611726343631744	0.19905130565166473	-0.21973446011543274	-0.01755843125283718	0.03513852506875992	0.024727515876293182	-0.03734927996993065	-0.1168302595615387	0.002089271554723382	-0.03422482684254646	-0.25174176692962646	-0.13105708360671997	0.16776186227798462	-0.18523664772510529	-0.3478121757507324	-0.0035643752198666334	0.0026041048113256693	-0.003782690968364477	0.07063139230012894	-0.06931637972593307	0.19270439445972443	0.19859498739242554	0.07211387157440186	-0.025366365909576416	0.1372983157634735	0.013796960934996605	0.006297959480434656	0.014170178212225437	-0.1872621327638626	0.18559862673282623	0.0032674886751919985	-0.03030817024409771	-0.01293425913900137	0.05310343578457832	-0.06143508478999138	0.005533692426979542	0.0872051939368248	-0.002333324868232012	0.031173061579465866	-0.008883788250386715	0.06782908737659454	-0.044769544154405594	-0.06949370354413986	0.3525780737400055	0.012003361247479916	0.025157378986477852	0.02669946476817131	0.23401495814323425	-0.08150756359100342	0.06338280439376831	0.17680785059928894	-0.04660279303789139	0.26237305998802185	-0.026636958122253418	0.12176494300365448	-0.06367316097021103	-0.027113931253552437	-0.04969097673892975	0.00465986505150795	0.007564058993011713	-0.011820094659924507	-0.012213028036057949	-0.0032503276597708464	-0.005066882353276014	0.09410015493631363	-0.21141044795513153	-0.1600511074066162	0.1397438496351242	0.10626138746738434	-0.046464018523693085	-0.021433724090456963	-0.02444848231971264	-0.16785244643688202	-0.06417155265808105	-0.025985654443502426	-0.0715467557311058	-0.11738339066505432	0.009750723838806152	-0.009009995497763157	0.12817667424678802	-0.014081244356930256	0.05467613786458969	0.1779203861951828	0.017388280481100082	0.050749994814395905	-0.002015458419919014	-0.04202941805124283	0.0019343348685652018	0.009952925145626068	-0.16943295300006866	-0.0031393212266266346	0.021880866959691048	0.0463547445833683	0.012389159761369228	0.1443585753440857	0.04199349880218506	0.007928774692118168	-0.0029534799978137016	-0.08595810830593109	-0.08343011140823364	-0.0410856194794178	-0.014179802499711514	-0.004410728812217712	-0.012838739901781082	-0.07836823910474777	-0.004767208825796843	0.0015126646030694246	0.16522374749183655	0.28416481614112854	-0.18084464967250824	0.0012471636291593313	0.004132900852710009	-0.0032331973779946566	-0.0491325706243515	0.08504859358072281	-0.010460269637405872	0.004323795437812805	0.004066369496285915
braj1242	0.12246596813201904	0.03147704899311066	0.14188328385353088	-0.14000830054283142	-0.44595950841903687	0.008710736408829689	-0.101592518389225	0.0032005917746573687	0.08666400611400604	-0.07981731742620468	-0.18352341651916504	-0.1193828210234642	0.25650736689567566	-0.04061190411448479	-0.07491260021924973	-0.07299929857254028	-0.030301187187433243	0.01525155920535326	0.003165797796100378	0.29126277565956116	0.37553122639656067	-0.14045029878616333	0.08507338911294937	-0.0007151122554205358	-0.016786765307188034	0.04424212500452995	0.056095708161592484	-0.06997959315776825	0.09532012045383453	0.22053739428520203	-0.1217767521739006	0.16823145747184753	0.12716233730316162	-0.14487186074256897	-0.06383897364139557	-0.15108349919319153	-0.053657252341508865	0.0088126752525568	-0.003862344427034259	-0.03529438003897667	0.04014134407043457	-0.0665835365653038	0.06274721771478653	-0.3700299859046936	0.0682775229215622	0.06811045855283737	-0.2347230762243271	-0.011014744639396667	0.06090442091226578	0.04991830885410309	-0.021507684141397476	-0.06667554378509521	0.1467503011226654	0.024728601798415184	-0.05174405127763748	-0.21330633759498596	-0.008870077319443226	-0.0845143124461174	0.026918571442365646	0.2314966768026352	-0.1769435852766037	0.11492987722158432	-0.06259560585021973	0.006869439035654068	-0.30242806673049927	0.08239734172821045	0.03006407432258129	-0.41108259558677673	-0.0010546378325670958	-0.19768564403057098	-0.16453856229782104	-0.030520599335432053	-0.002527952892705798	-0.0023621765431016684	-0.078585684299469	-0.09779506921768188	-0.2101455181837082	0.19495539367198944	0.07857679575681686	-0.3418562412261963	0.04369089752435684	0.1393301784992218	0.2538420557975769	-0.49632522463798523	-0.04009479284286499	-0.2223193645477295	-0.17373085021972656	-0.032875996083021164	-0.0006088931113481522	-0.08846447616815567	0.042123183608055115	-0.12968404591083527	0.3139323592185974	0.035039059817790985	-0.05519390478730202	-0.11200154572725296	-0.08006445318460464	0.012762749567627907	0.025088422000408173	-0.08914808183908463	0.02675287239253521	0.005079234950244427	-0.182163268327713	-0.043180957436561584	0.30378422141075134	0.0684918537735939	0.010979307815432549	-0.1359681338071823	-0.09905698150396347	0.2232239693403244	-0.3329518139362335	0.0464332140982151	0.043160174041986465	0.07247522473335266	-0.2287425845861435	0.0023924398701637983	-0.09944310784339905	0.028660129755735397	0.16922801733016968	-0.3026908338069916	-0.024095354601740837	-0.041082803159952164	0.32270151376724243	-0.00047476915642619133	-0.16615188121795654	0.056011177599430084	0.04989016056060791	0.006872315425425768
cham1307	0.21338647603988647	-0.03556457534432411	0.03858457878232002	0.08022942394018173	0.008435872383415699	0.044056668877601624	0.04058370366692543	0.015980148687958717	0.36266279220581055	-0.4471471309661865	-0.16714733839035034	-0.27068570256233215	0.04518427327275276	-0.01417936384677887	-0.05156195908784866	-0.17748858034610748	-0.04040699452161789	-0.24192801117897034	-0.0339929424226284	-0.13859452307224274	0.0686943456530571	-0.045749448239803314	-0.15904244780540466	0.004397286567837	0.025086097419261932	0.006240776740014553	-0.017199330031871796	0.011108415201306343	-0.11273033916950226	0.3773459494113922	0.19609642028808594	-0.11027076095342636	0.18080735206604004	0.09264153242111206	0.32131943106651306	-0.2306293398141861	0.02227882668375969	0.029683414846658707	0.31306591629981995	0.009361674077808857	0.04919074848294258	-0.014164143241941929	-0.001988370670005679	-0.09038211405277252	0.05454224720597267	-0.017702246084809303	-0.12878254055976868	0.0037126068491488695	-0.5987049341201782	-0.1750902533531189	-0.23681488633155823	0.33041951060295105	-0.1811843365430832	0.15632420778274536	0.053651146590709686	0.2977374792098999	0.07735198736190796	-0.07361404597759247	-0.13159029185771942	-0.1162886843085289	0.09942729771137238	-0.19277040660381317	0.015061403624713421	-0.030820902436971664	-0.26145055890083313	0.040251582860946655	0.25034624338150024	0.2220899760723114	-0.17459872364997864	0.17957277595996857	0.07783948630094528	-0.1441754698753357	0.002072322415187955	0.00010351806122343987	-0.1262074112892151	0.08864118158817291	-0.28132617473602295	-0.24687792360782623	0.14233647286891937	-0.0010478491894900799	0.057027217000722885	-0.06656990945339203	-0.10628627240657806	-0.1943615823984146	0.01960636116564274	0.3114915192127228	-0.15345434844493866	-0.0019456713926047087	-0.01385070662945509	0.07830294966697693	-0.011189408600330353	-0.1273665726184845	0.007488340139389038	-0.0027910873759537935	-0.3216494917869568	-0.27234014868736267	-0.10503410547971725	-0.026530971750617027	0.0049451859667897224	0.1263512521982193	-0.0382341630756855	-0.003943548072129488	-0.23705284297466278	-0.17897987365722656	-0.34485411643981934	-0.07025590538978577	0.014673085883259773	0.06241035461425781	-0.029376447200775146	-0.028733650222420692	-0.2081250250339508	0.004196140915155411	0.053022243082523346	0.07408373802900314	-0.1023004949092865	-0.007761054672300816	0.010605059564113617	-0.10869026929140091	0.08245711028575897	-0.023399213328957558	0.02044573985040188	9.575230069458485e-05	-0.21159295737743378	0.04978249594569206	0.07343804091215134	0.07134304195642471	-0.011667754501104355	0.011284803040325642
chur1258	-0.2698459029197693	0.03007219173014164	0.03853024169802666	-0.10292717814445496	0.07233438640832901	-0.04612630605697632	0.03372843563556671	-0.030716219916939735	0.18791620433330536	-0.18137390911579132	-0.23908528685569763	0.20002450048923492	-0.09220470488071442	-0.016660235822200775	0.09162846952676773	-0.01402371097356081	-0.18457305431365967	0.10027365386486053	0.04035935550928116	-0.23682904243469238	0.238060861825943	-0.17800715565681458	-0.11517010629177094	-0.07988956570625305	0.2411946952342987	0.023128105327486992	-0.006321508903056383	-0.11598320305347443	-0.026649415493011475	-0.12032834440469742	0.34390076994895935	0.20559445023536682	-0.16623857617378235	-0.08282379060983658	0.29100024700164795	-0.0477040559053421	-0.031727686524391174	-0.015903575345873833	0.17460757493972778	-0.15635037422180176	0.04161282256245613	0.0010468452237546444	0.024859730154275894	0.033210914582014084	0.049669668078422546	0.005072563886642456	0.09662436693906784	-0.015483028255403042	-0.09781437367200851	0.04035428166389465	-0.37497678399086	0.041415125131607056	0.09356699138879776	0.19664303958415985	-0.41259709000587463	-0.1049962043762207	-0.012745118699967861	-0.25886955857276917	-0.010722998529672623	0.08282706141471863	-0.030431974679231644	0.07184892892837524	-0.14902783930301666	0.062002986669540405	0.25048160552978516	-0.1495409607887268	-0.09074443578720093	0.22259806096553802	-0.016864633187651634	0.19205257296562195	0.05521554872393608	0.11264658719301224	-0.01147251296788454	0.009383347816765308	-0.1727881133556366	0.3414817750453949	-0.17528976500034332	0.009909780696034431	-0.18733203411102295	0.07342825084924698	-0.0023383928928524256	0.1362328976392746	0.1610957384109497	0.006721895188093185	-0.23606672883033752	0.0791328102350235	-0.20434989035129547	-0.006430316250771284	0.04455646872520447	-0.06955324858427048	-0.1516895741224289	-0.0973316878080368	-0.27256232500076294	0.023271873593330383	-0.1953258514404297	0.21982252597808838	-0.2541237473487854	-0.003374288557097316	-0.03940443694591522	0.10692539066076279	0.007766855880618095	-0.035839539021253586	0.03541276976466179	0.003533019917085767	-0.06365592777729034	-0.17210610210895538	-0.015829356387257576	-0.08367639780044556	-0.28474685549736023	-0.025262927636504173	0.31777772307395935	0.01174724381417036	0.0026581627316772938	0.32677948474884033	-0.05020808055996895	-0.02431420050561428	-0.09597057849168777	-0.06330344080924988	0.0068978359922766685	-0.03227990120649338	-0.022991281002759933	0.008711119182407856	-0.08104414492845535	-0.18216577172279358	-0.19347596168518066	0.2626257538795471	0.015545888803899288	0.03080061264336109
dame1241	-0.04304922744631767	-0.009667029604315758	-0.16341708600521088	-0.03569098189473152	-0.11699928343296051	0.009637245908379555	-0.07239928096532822	0.009971139021217823	-0.4517880082130432	-0.19120997190475464	0.030024453997612	-0.09775113314390182	0.044736895710229874	-0.02437836490571499	-0.009971301071345806	-0.07928013801574707	-0.19148802757263184	-0.014833268709480762	0.002472867025062442	-0.15594546496868134	0.0498008131980896	0.15200690925121307	0.06779013574123383	0.22802560031414032	0.010980146005749702	0.0033556018024683	0.009750992059707642	0.0007505315006710589	0.0020468784496188164	-0.16958406567573547	0.021778853610157967	-0.12008745223283768	-0.05683945119380951	0.010872950777411461	0.016611935570836067	-0.004056958947330713	-0.016467006877064705	-0.010256361216306686	-0.0097615672275424	-0.0959228053689003	0.00996594037860632	-0.001631896011531353	0.008680306375026703	0.21597832441329956	0.23324763774871826	0.005119424778968096	0.13996505737304688	-0.010399422608315945	-0.10076296329498291	0.3338583707809448	0.08483797311782837	0.006872934754937887	0.019747601822018623	-0.007668434642255306	-0.14158695936203003	-0.09336988627910614	0.0044208187609910965	0.06771192699670792	-0.09403431415557861	-0.32068324089050293	0.16188138723373413	0.056415267288684845	0.15812960267066956	0.004606676287949085	0.21206948161125183	0.1202700063586235	-0.3084220886230469	0.08920808881521225	0.005167755298316479	0.02158999629318714	-0.0707232803106308	-0.12831221520900726	-0.005340500734746456	0.011386497877538204	-0.2718137502670288	0.12760618329048157	0.2752707600593567	0.08469439297914505	-0.2155214548110962	-0.04719549044966698	-0.01324070617556572	-0.07182715088129044	0.0425809770822525	-0.0848923847079277	-0.007998807355761528	0.032876964658498764	0.3512800335884094	0.013056999072432518	-0.0068626729771494865	0.12751415371894836	0.05919446423649788	0.13781701028347015	-0.03830888122320175	0.03583342209458351	-0.12370413541793823	-0.1571219265460968	-0.15555447340011597	-0.013953066430985928	-0.03012625128030777	0.1201433390378952	-0.012377622537314892	-0.02456267923116684	0.07999660074710846	-0.04404548928141594	-0.1799039989709854	0.03219270333647728	0.007934091612696648	-0.05751945450901985	0.05904000252485275	0.12090949714183807	-0.14461590349674225	-0.014108454808592796	-0.005233259871602058	-0.1318599432706833	-0.10331062227487564	-0.006416173651814461	-0.021125895902514458	-0.0819622129201889	0.02991941198706627	-0.06632451713085175	0.027535125613212585	0.00021444406593218446	0.05088210850954056	0.03888797014951706	-0.05028580501675606	0.1948181688785553	-0.001535098534077406	-0.013546178117394447
dhiv1236	0.01941678300499916	-0.0034569210838526487	0.013281077146530151	-0.020672902464866638	0.11379995197057724	0.0049198768101632595	-0.11489463597536087	0.0062787579372525215	-0.43917474150657654	0.16583997011184692	0.08000440895557404	-0.06899438798427582	-0.018591763451695442	-0.0033442776184529066	0.10212142020463943	0.03203797712922096	0.14612838625907898	0.0894412249326706	-0.02171356789767742	-0.20764096081256866	0.2155863642692566	0.07968931645154953	-0.07719548791646957	-0.22268229722976685	-0.2934153378009796	-0.004840909503400326	0.005736601073294878	0.018867306411266327	0.01818276382982731	-0.11035632342100143	-0.05634297803044319	0.05239957571029663	-0.22519885003566742	0.008153397589921951	-0.028154786676168442	0.011796935461461544	0.007047755643725395	0.005747461691498756	0.09441060572862625	0.05987871438264847	0.015180778689682484	-0.01163503434509039	0.010748169384896755	-0.20659032464027405	0.06682859361171722	0.012842935509979725	-0.16207653284072876	0.016286151483654976	0.06676861643791199	-0.29854366183280945	0.00316344085149467	-0.061457499861717224	0.0368044413626194	-0.15563984215259552	-0.19451281428337097	-0.0475858636200428	-0.014335986226797104	-0.2906552851200104	0.12573537230491638	0.10341206192970276	0.15082533657550812	-0.016389131546020508	0.09356347471475601	-0.07681348919868469	0.07912245392799377	-0.04555970057845116	-0.004790133330971003	-0.012893822975456715	0.01969788409769535	-0.013523869216442108	-0.01775471679866314	0.029421241953969002	-0.012588811106979847	0.0051618292927742004	-0.023320456966757774	-0.12985369563102722	0.0867081731557846	-0.09327707439661026	-0.09399106353521347	0.0682121217250824	0.004591096192598343	0.03603750839829445	-0.2422318309545517	-0.22774839401245117	-0.21730251610279083	0.014840413816273212	-0.3995750844478607	-0.0039012881461530924	0.01804361119866371	-0.1333438754081726	-0.01573328487575054	-0.09122087806463242	-0.020680749788880348	-0.021678168326616287	0.003345268312841654	0.1253197342157364	0.1360786259174347	0.008853202685713768	-0.025153078138828278	-0.08276396244764328	0.0002329626149730757	0.01698991097509861	0.0014540557749569416	-0.2294432371854782	-0.20728054642677307	-0.3402988016605377	0.0031090385746210814	0.022844774648547173	0.00935128703713417	-0.010737568140029907	-0.09419534355401993	0.0011362716322764754	0.0013489563716575503	-0.3188018798828125	0.09115856140851974	-0.014818422496318817	-0.004162496887147427	-0.13325868546962738	-0.23147672414779663	-0.044855568557977676	-0.0019044160144403577	0.009052964858710766	-0.22626079618930817	0.008608256466686726	-0.021642478182911873	-0.13211606442928314	0.014158861711621284	0.013919669203460217
doma1260	-0.03275151550769806	-0.0001918207562994212	0.14362774789333344	0.15218372642993927	0.01593717932701111	0.021125786006450653	-0.0738927572965622	-0.026783471927046776	-0.3006521165370941	0.059303008019924164	-0.00116275146137923	0.028161244466900826	0.357561320066452	0.022034356370568275	0.02685309574007988	-0.014926278032362461	0.34589797258377075	-0.058215897530317307	-0.00042417531949467957	0.32134631276130676	-0.16626086831092834	0.055214107036590576	-0.37262430787086487	-0.1691819280385971	0.24840213358402252	0.005147870164364576	-0.0453716479241848	-0.04612351208925247	0.05279919505119324	0.28849565982818604	0.09474309533834457	-0.09166239202022552	0.25498291850090027	-0.015030404552817345	0.048891566693782806	-0.03175860270857811	-0.009401774033904076	-0.025371452793478966	-0.3233715295791626	-0.05331825837492943	0.011172729544341564	-0.008964797481894493	0.019336896017193794	0.06243516132235527	-0.08084597438573837	0.015833523124456406	0.11710693687200546	0.010862914845347404	-0.21773619949817657	0.0067221191711723804	0.44318270683288574	-0.007942881435155869	0.13325074315071106	0.09798505157232285	-0.22393736243247986	0.09118427336215973	-0.0020611039362847805	-0.00862094946205616	0.1801033616065979	-0.28153568506240845	-0.3196428418159485	-0.1482294648885727	0.29138892889022827	0.20852266252040863	-0.12902997434139252	-0.029702704399824142	-0.18846623599529266	0.14850299060344696	0.009970481507480145	0.1477811187505722	0.06944775581359863	0.0794282853603363	-0.026468945667147636	-0.018620900809764862	-0.0532526969909668	0.28457263112068176	-0.3151797652244568	-0.1649082601070404	-0.14055350422859192	-0.0016942534130066633	-0.04812745377421379	0.06109218671917915	-0.27523335814476013	-0.23810994625091553	0.15318843722343445	-0.2127503901720047	-0.04331856220960617	0.001099244225770235	0.022067148238420486	0.17321057617664337	0.022128062322735786	-0.16242602467536926	-0.09911415725946426	0.011852414347231388	0.13710787892341614	-0.06351181864738464	0.16140761971473694	-0.012928773649036884	-0.050854623317718506	0.2739018201828003	0.015978863462805748	-0.005186652299016714	0.11681652814149857	-0.21721696853637695	0.3682957887649536	-0.03195985406637192	-0.005016447976231575	0.059160422533750534	-0.05880874767899513	0.22093327343463898	0.006856298074126244	0.005073949694633484	-0.033246174454689026	-0.05163469538092613	-0.007305913604795933	0.010705221444368362	0.006548824720084667	-0.21090997755527496	-0.029576048254966736	-0.10374177247285843	-0.009656151756644249	0.020505396649241447	0.18237389624118805	-0.165371373295784	-0.11016236245632172	0.01990358904004097	-0.0034205238334834576	-0.008507861755788326
gang1265	0.053435325622558594	-0.018588144332170486	-0.1690467894077301	-0.029104182496666908	-0.2397230565547943	0.011783340014517307	0.032452866435050964	-0.013982574455440044	0.007830535061657429	-0.13014273345470428	-0.05673637613654137	0.0615510530769825	-0.12065897136926651	0.01584920473396778	0.005774573888629675	0.20807015895843506	0.06880544126033783	0.2348206490278244	-0.0014566760510206223	-0.1368243247270584	-0.1083606705069542	0.007714393083006144	0.22333955764770508	-0.32543089985847473	0.0877482071518898	-0.0014876079512760043	0.004967506974935532	-0.04104690998792648	0.0063086012378335	0.1358807235956192	-0.09206901490688324	0.09668727219104767	0.10656008124351501	-0.001945754629559815	0.040527310222387314	-0.01758679561316967	0.012510684318840504	0.016949938610196114	-0.04369453713297844	-0.06322317570447922	-0.01261576171964407	0.0074025229550898075	0.005078988615423441	0.03368278965353966	0.019256392493844032	-0.009012764319777489	-0.010302248410880566	0.008472573012113571	0.11684311926364899	0.09547767043113708	-0.08786538988351822	-0.10700225085020065	-0.04280330613255501	-0.04960951581597328	-0.18652525544166565	-0.1262078583240509	0.0035271274391561747	0.1953427940607071	-0.10245916247367859	0.39815911650657654	-0.009013750590384007	0.06006918475031853	0.2990524470806122	0.1511038988828659	-0.060486458241939545	0.08268236368894577	-0.08257011324167252	0.0320466123521328	-0.023813806474208832	-0.07317109405994415	-0.11763300001621246	0.14410123229026794	-0.0068495492450892925	-0.004300138913094997	0.23380176723003387	0.22914151847362518	0.017593391239643097	-0.11960235983133316	0.1284293681383133	-0.187565416097641	0.027584295719861984	-0.1933332085609436	-0.18344387412071228	-0.04234253242611885	0.06546131521463394	0.11341383308172226	-0.07847394049167633	-0.005531074479222298	0.004282599780708551	-0.028779834508895874	-0.0567319430410862	0.05794873833656311	-0.11624620854854584	0.0016562847886234522	0.05683170258998871	-0.13712939620018005	-0.04755221679806709	0.00011862789688166231	-0.040797460824251175	0.23798850178718567	-0.0072498619556427	0.0017705772770568728	0.0520915761590004	0.09224709123373032	0.09960639476776123	-0.17056012153625488	-0.016218481585383415	-0.11855016648769379	0.030187366530299187	-0.21782492101192474	0.05710090696811676	-0.017125388607382774	0.008204124867916107	-0.07270597666501999	0.023709075525403023	-0.00993149634450674	0.08352310955524445	0.030782155692577362	0.054927971214056015	-0.2573695182800293	0.005569100379943848	-0.0005790458526462317	-0.06101284176111221	0.04530201852321625	0.09384173154830933	-0.08868566900491714	-0.011009794659912586	-0.010192406363785267
garh1243	-0.014506942592561245	0.028317349031567574	-0.025528574362397194	0.005061478819698095	0.17732441425323486	0.00282897031866014	0.13074643909931183	-0.02786845527589321	0.1271265745162964	0.05959324911236763	0.2437065690755844	-0.03222726285457611	0.1283283233642578	0.029218634590506554	-0.14611369371414185	-0.1036759689450264	0.13786713778972626	0.2266363501548767	0.00013769531506113708	-0.15096163749694824	-0.07491563260555267	-0.2676422595977783	-0.20251263678073883	0.08724682778120041	-0.23081374168395996	-0.005918641574680805	-0.026204518973827362	-0.010808105580508709	0.03808248043060303	-0.025951026007533073	0.12113281339406967	-0.0986437276005745	-0.09916619211435318	-0.03833793103694916	0.10513679683208466	-0.030321208760142326	0.00399996992200613	-0.0033048910554498434	-0.1569073498249054	-0.22757311165332794	-0.021347850561141968	0.02273094654083252	0.02332921139895916	0.022997189313173294	0.1566077470779419	0.003777821082621813	-0.10348100960254669	0.0067343395203351974	-0.1469268649816513	-0.15141449868679047	-0.12810419499874115	0.12611985206604004	-0.03458109870553017	0.06650032848119736	0.0751081332564354	0.04762730374932289	-0.010629034601151943	-0.06135144084692001	0.08210624754428864	-0.1916278451681137	-0.20072166621685028	-0.017115715891122818	-0.1094466969370842	0.10181969404220581	0.09670795500278473	0.05999027565121651	0.28112784028053284	-0.16740970313549042	-0.015493771992623806	-0.01121261715888977	0.10889572650194168	0.06667783111333847	0.004061033483594656	-0.019905928522348404	-0.02117900922894478	0.10020831227302551	0.07161446660757065	0.06918055564165115	-0.052096378058195114	0.07035358250141144	0.005436212755739689	-0.12878242135047913	-0.03983037918806076	0.0380607545375824	-0.0514889732003212	-0.02888629212975502	0.13597676157951355	0.02397833950817585	-0.0013976377667859197	0.12380686402320862	-0.05573936179280281	-0.06775517761707306	-0.15810434520244598	-0.010068745352327824	0.01171857863664627	-0.23089903593063354	0.1671450436115265	0.008100633509457111	0.03718321770429611	-0.001762378728017211	0.011623309925198555	0.015234819613397121	-0.06214847043156624	-0.2923418879508972	-0.15464605391025543	-0.13087013363838196	-0.0014534525107592344	-0.059869591146707535	0.07561826705932617	-0.29924142360687256	-0.16236817836761475	-0.009654958732426167	-0.032358113676309586	-0.01234115194529295	-0.25434911251068115	0.019852254539728165	0.02414543554186821	0.22245505452156067	0.09907231479883194	-0.2924250066280365	-0.02263830602169037	0.03048912063241005	0.06071694940328598	-0.08313652127981186	0.01552034355700016	-0.21014046669006348	-0.0014937231317162514	-0.003669531550258398
gawa1247	-0.05859850347042084	0.008679109625518322	-0.07437747716903687	-0.004260271787643433	-0.18871736526489258	-0.008917847648262978	0.0905839130282402	0.01007342990487814	-0.00622935825958848	-0.02381753921508789	-0.09583944827318192	-0.014083239249885082	0.016949566081166267	0.011295073665678501	0.12008015811443329	0.05368499085307121	-0.03992272540926933	-0.14684908092021942	0.0010873581049963832	0.044666893780231476	-0.015902243554592133	0.0466001033782959	-0.009154514409601688	0.24972081184387207	0.2830553352832794	-0.004654575139284134	0.02540554478764534	-0.00666339136660099	0.003594041336327791	-0.09300889819860458	0.02942870557308197	-0.1349055916070938	0.006044887937605381	0.007988499477505684	-0.037874527275562286	0.006577524356544018	0.0057547735050320625	0.002598479390144348	-0.06148611381649971	-0.0061358800157904625	-0.006014806218445301	-0.003294040448963642	0.008675037883222103	0.13893482089042664	-0.18145321309566498	-0.00130283588077873	-0.06977042555809021	0.001204553060233593	-0.2465522438287735	0.1360633224248886	0.1456645429134369	-0.09501000493764877	0.17915073037147522	0.12496163696050644	-0.025136426091194153	-0.01087951846420765	-0.018473491072654724	-0.1276196986436844	0.1301204115152359	-0.3037398159503937	0.04079897329211235	0.038474295288324356	-0.3727181553840637	-0.11273492872714996	-0.16062277555465698	-0.11803263425827026	-0.2768939733505249	0.06611128896474838	0.008741061203181744	-0.07166513800621033	-0.003828347660601139	0.020451925694942474	-0.0037637408822774887	0.02849368192255497	-0.17272092401981354	-0.19538438320159912	-0.12103893607854843	-0.08814482390880585	0.11461903154850006	0.09171243757009506	0.001881628530099988	0.18308529257774353	-0.1287447214126587	0.16864202916622162	-0.19725686311721802	-0.12660636007785797	0.10685700178146362	0.0010996003402397037	-0.007015452720224857	-0.006819891277700663	-0.0009864700259640813	-0.10986146330833435	0.12104865908622742	0.0021595978178083897	-0.14611731469631195	-0.005633179098367691	-0.1807217001914978	0.008989679627120495	-0.020099351182579994	0.006149905733764172	-0.002672778209671378	0.0024812272749841213	0.06543540209531784	0.1773277372121811	0.1236649602651596	-0.029423033818602562	-0.022908786311745644	0.04087032750248909	-0.12963242828845978	-0.36336082220077515	-0.15375036001205444	0.0036431022454053164	-0.001381993293762207	-0.40499910712242126	0.03534574434161186	0.015616475604474545	-0.026448829099535942	-0.15665331482887268	0.09412424266338348	-0.048869699239730835	-0.015039166435599327	0.008876774460077286	-0.1685105264186859	-0.12215493619441986	0.13061822950839996	-0.2088899165391922	-0.0019132427405565977	0.005357364192605019
guja1252	-0.0025987320113927126	0.0009835262317210436	-0.058541685342788696	-0.007411396596580744	0.22456778585910797	-0.0024359419476240873	0.02473347634077072	-0.0014636132400482893	0.05848512426018715	0.07869303226470947	0.025698432698845863	-0.0687214583158493	-0.0046533443965017796	0.006607938092201948	-0.00020237454737070948	-0.015484895557165146	-0.048422738909721375	0.03421114757657051	-0.018039369955658913	0.013147956691682339	-0.0339331328868866	0.03539162874221802	0.0291803739964962	-0.057123634964227676	0.13785874843597412	0.004900780506432056	0.0024953593965619802	0.004401896148920059	0.0005017748335376382	-0.07181932032108307	-0.003506953362375498	0.011665555648505688	-0.17058299481868744	0.0023599383421242237	-0.021083315834403038	0.0073644439689815044	0.01486695371568203	-0.008535152301192284	0.04047581925988197	-0.04267046973109245	0.01347488071769476	-0.014481847174465656	-0.007412374019622803	-0.022935792803764343	0.014897125773131847	-0.0023859853390604258	0.0778995230793953	0.007770692463964224	0.0019013506826013327	-0.05564842000603676	0.034507911652326584	-0.010639253072440624	-0.024158896878361702	0.05903453007340431	0.005572198890149593	-0.015286930836737156	0.00524931913241744	0.05935558304190636	-0.020991507917642593	0.07560363411903381	0.06643743813037872	-0.003153079655021429	-0.14480841159820557	-0.04865879938006401	-0.015933796763420105	-0.002771287690848112	0.018531853333115578	0.007822930812835693	-0.007131770718842745	-0.029366284608840942	0.013747508637607098	-0.003824413288384676	-0.008987342938780785	-0.001752263866364956	0.10966672748327255	0.01509262714534998	-0.016077805310487747	0.0055825370363891125	-0.009741343557834625	-0.006900109350681305	0.015325772576034069	-0.07143933326005936	0.07273053377866745	-0.056773841381073	0.15845854580402374	0.027302570641040802	0.11524151265621185	0.0045117042027413845	0.004647958092391491	0.07894768565893173	-0.0008696723962202668	-0.008906876668334007	0.01589399017393589	-0.015444425866007805	-0.005237152334302664	0.068726547062397	-0.08798637986183167	0.0024233025033026934	-0.01214565895497799	-0.18575170636177063	-0.011025719344615936	0.013129467144608498	-0.0009872382506728172	-0.139871284365654	-0.05473954230546951	0.08130891621112823	0.010450930334627628	-0.006832555402070284	-0.016360817477107048	0.063053198158741	0.01591499149799347	-0.018189014866948128	-0.00885490421205759	-0.17365007102489471	-0.007112081162631512	0.004540153779089451	0.015606137923896313	-0.029993822798132896	0.005447774659842253	-0.07322544604539871	0.024268493056297302	0.01019199751317501	0.06376536935567856	-0.1154671385884285	-0.010735167190432549	0.06850377470254898	-0.00035189781920053065	-0.018485084176063538
hind1269	0.006878215819597244	-0.0027248894330114126	-0.0018293034518137574	0.0014313810970634222	-0.019980095326900482	0.006785986945033073	-0.0075476691126823425	0.0076598539017140865	0.01923125982284546	-0.03793465346097946	0.032809920608997345	0.062306638807058334	0.0097584817558527	-0.009502870962023735	-0.008836108259856701	-0.013531412929296494	-0.039534762501716614	-0.029659880325198174	0.001863938057795167	0.009885896928608418	-0.028495239093899727	-0.0006599171902053058	0.027370091527700424	-0.04815398529171944	0.024397017434239388	-0.006185570731759071	0.0006017304258421063	-0.003842215519398451	0.00997891090810299	0.0012170654954388738	0.013260179199278355	-0.033798713237047195	-0.03731219470500946	0.0021607966627925634	-0.014091486111283302	-0.004291040822863579	-0.009119394235312939	0.008538193069398403	-0.08428844809532166	-0.0042443471029400826	-0.0015229654964059591	-0.0005334863672032952	0.005231523886322975	0.06639065593481064	-0.04069763049483299	-0.011223312467336655	-0.07851466536521912	0.0004529223369900137	-0.10680047422647476	-0.16804824769496918	-0.029404837638139725	0.0074613820761442184	-0.013644459657371044	0.0919698104262352	0.004646385554224253	0.02014128491282463	-0.004385705105960369	-0.05093000456690788	-0.007530988659709692	0.2527558505535126	-0.023283667862415314	0.01638142205774784	0.057258669286966324	0.03153835982084274	0.029352646321058273	0.013214566744863987	-0.016401829198002815	-0.01998971216380596	0.0016840777825564146	-0.011625089682638645	-0.0166716817766428	-0.011406099423766136	0.007679136469960213	0.0004954776959493756	-0.053682878613471985	-0.03537017107009888	-0.018955662846565247	0.022790195420384407	-0.013852335512638092	-0.022397711873054504	0.00333115691319108	0.04890056326985359	-0.04135077819228172	0.014358777552843094	-0.048899952322244644	-0.029929526150226593	0.050259485840797424	0.0013440269976854324	-0.00459879357367754	-0.032608531415462494	0.0061091347597539425	0.005107141565531492	0.018664449453353882	-0.004661269020289183	0.05156627297401428	-0.007062529679387808	0.12514728307724	0.008942201733589172	-0.0007539985235780478	0.12173778563737869	0.002459063893184066	-0.006098724901676178	-0.006090603768825531	-0.03531897813081741	-0.006459637079387903	0.07127119600772858	0.002062364248558879	-0.0075414483435451984	0.05131607875227928	0.05964791774749756	-0.011182913556694984	-0.0023671432863920927	0.00567527674138546	0.04079819843173027	0.004119588062167168	-0.0032091906759887934	0.007565624080598354	0.06526064872741699	-0.0490226075053215	0.037992626428604126	-0.006088195368647575	-0.012973667122423649	-0.03502329811453819	-0.06332125514745712	0.0015131124528124928	0.11400092393159866	0.0068938410840928555	0.007486244663596153
indu1241	-0.08441510051488876	-0.006898229941725731	0.042086001485586166	0.0025729720946401358	-0.4132331907749176	0.008122291415929794	0.323262095451355	0.009476730599999428	0.15637445449829102	0.23351934552192688	-0.021781794726848602	0.023935580626130104	0.0687771663069725	-0.018161067739129066	0.09062157571315765	-0.016630005091428757	-0.04793081805109978	0.21091656386852264	0.00713553698733449	-0.00044019598863087595	0.035494495183229446	0.17015135288238525	0.001959023531526327	0.11201239377260208	-0.03707791492342949	0.011192746460437775	-0.029032113030552864	-0.01573517546057701	0.1050264835357666	-0.3502107560634613	-0.14973312616348267	0.1422308087348938	0.22945427894592285	0.010231220163404942	-0.08033564686775208	-0.05259939655661583	-0.01366135012358427	-0.013129627332091331	-0.29946011304855347	-0.3181365430355072	-0.005839163903146982	-0.010977370664477348	0.01570005714893341	0.28483787178993225	0.004491629544645548	0.03149747848510742	0.4170495271682739	-0.004289659671485424	-0.18945840001106262	0.006571876350790262	0.13134966790676117	0.2054508924484253	-0.028186148032546043	-0.008958151564002037	0.26496702432632446	-0.02582479827105999	0.016798721626400948	0.0818009153008461	0.2697296142578125	0.0446476973593235	-0.1470034420490265	0.007737090811133385	0.06583622843027115	-0.19100670516490936	0.17871220409870148	-0.01432520616799593	-0.06861824542284012	0.09174308180809021	-0.008514867164194584	0.03767717629671097	0.15170824527740479	-0.08657145500183105	0.0024767834693193436	-0.009017367847263813	-0.08062712848186493	-0.3110737204551697	-0.34171608090400696	0.017218798398971558	-0.222884863615036	-0.11174371093511581	-0.008723911829292774	-0.41827529668807983	-0.3481774628162384	0.04125591740012169	-0.21301482617855072	0.27572670578956604	-0.20187954604625702	-0.011666813865303993	0.02490426041185856	-0.06055327504873276	0.03894444555044174	-0.15335150063037872	-0.2295016050338745	0.03554919734597206	-0.1937400996685028	-0.044085338711738586	-0.22774814069271088	-0.023039640858769417	-0.05171288922429085	0.1218484565615654	0.0026233578100800514	0.003996090032160282	-0.22503742575645447	-0.07469465583562851	0.2369198054075241	0.002191683277487755	0.005305815488100052	0.17396855354309082	-0.0787058174610138	0.2686600983142853	0.1986858993768692	-0.009710613638162613	0.01764599047601223	-0.22394587099552155	-0.05519142001867294	-0.02808232232928276	-0.04433430731296539	0.0004499104106798768	-0.055474456399679184	-0.16622138023376465	-0.01939884014427662	-0.003970365505665541	-0.09741484373807907	0.26888197660446167	-0.30607399344444275	-0.12685543298721313	0.0006699012592434883	-0.016513805836439133
jaun1243	0.12634947896003723	0.008886567316949368	-0.31757333874702454	-0.02267494797706604	-0.12034424394369125	-0.04639584571123123	-0.025750862434506416	0.07574135810136795	0.22706486284732819	0.04357125982642174	-0.08651424199342728	-0.03984813019633293	0.009253280237317085	-0.019201748073101044	0.24402311444282532	0.3110183775424957	0.07133757323026657	-0.24679678678512573	0.024169515818357468	0.04842834174633026	0.1573990136384964	-0.14968127012252808	0.12397830933332443	0.08615367859601974	0.1537604182958603	-0.01471461821347475	0.015442311763763428	-0.020737824961543083	0.2483353167772293	0.07157020270824432	-0.016161244362592697	0.4230418801307678	-0.20111562311649323	0.04545828327536583	-0.046012792736291885	-0.039512746036052704	-0.00538058765232563	0.020111607387661934	-0.02149791084229946	-0.04904551059007645	0.0027185874059796333	-0.005561835132539272	-0.02440398558974266	-0.12912973761558533	-0.0665244534611702	0.0025971888098865747	-0.08725012838840485	-0.0034942275378853083	0.20944243669509888	0.008477590046823025	-0.2574022710323334	0.07215271145105362	0.13884325325489044	0.08962268382310867	-0.3292900621891022	0.14470787346363068	-0.01198829896748066	0.05709170550107956	0.119906947016716	-0.22042779624462128	-0.1166069433093071	0.07909081131219864	0.14109618961811066	0.3494626581668854	-0.20035967230796814	-0.022115977481007576	0.37343040108680725	-0.024639444425702095	0.04936787486076355	-0.09855639189481735	0.03929606080055237	0.028231803327798843	0.013243166729807854	0.010828204452991486	-0.15933512151241302	0.08719360828399658	0.060500726103782654	-0.007727010175585747	-0.10055947303771973	0.0010408122325316072	-0.050291839987039566	0.216361865401268	-0.026356767863035202	0.0046896254643797874	-0.04475123807787895	0.021613746881484985	0.05442139878869057	-0.013359981589019299	-0.012945960275828838	0.0017976787639781833	0.15566642582416534	0.017983227968215942	-0.46853822469711304	0.022387856617569923	0.34440675377845764	0.34781908988952637	0.007715000305324793	-0.020568888634443283	-0.013114560395479202	0.3871386647224426	-0.007163283880800009	-0.01571883261203766	-0.10391305387020111	-0.025789668783545494	-0.03419704735279083	0.14979511499404907	0.012585136108100414	0.15588892996311188	0.24789340794086456	0.15931010246276855	0.22153398394584656	-0.005833507515490055	-0.005806550849229097	-0.17061911523342133	0.08766019344329834	-0.0005737239844165742	-0.07257535308599472	0.06350421905517578	0.3653396666049957	-0.07892128080129623	0.010220251977443695	-0.00936102494597435	-0.036567263305187225	-0.19968627393245697	-0.005528363864868879	-0.12635383009910583	0.018012400716543198	-0.008729580789804459
kach1277	0.031271692365407944	0.017815105617046356	-0.14294543862342834	0.01614805869758129	0.10638763755559921	-0.000756378925871104	0.07465127110481262	-0.03731468692421913	0.10838177055120468	0.06586751341819763	0.07937455922365189	-0.09665454924106598	0.02471674047410488	0.007775165606290102	0.08616973459720612	0.0004001206252723932	-0.10545145720243454	-0.0721479058265686	0.00845429114997387	-0.2209833860397339	0.12041828036308289	-0.3533819019794464	0.052513692528009415	0.09478206187486649	-0.12450630962848663	-0.010215556249022484	0.01292375847697258	0.0067661358043551445	-0.02223893254995346	-0.06350640952587128	0.058232381939888	0.021209854632616043	-0.05061310902237892	0.014004501514136791	-0.030106620863080025	0.007902968674898148	-0.004112865775823593	-0.006901423912495375	0.059345509856939316	-0.14196382462978363	-0.009602549485862255	0.02775483950972557	0.0031441370956599712	-0.09058031439781189	-0.27916136384010315	0.018024824559688568	0.35980117321014404	-0.010235387831926346	0.19161874055862427	-0.09846638143062592	-0.0756767988204956	-0.04910781979560852	0.008870663121342659	-0.006271251477301121	0.12750039994716644	-0.044867582619190216	-0.009429401718080044	-0.22204066812992096	-0.07392261922359467	-0.11360655725002289	0.02903880923986435	-0.02895263209939003	0.05904005467891693	0.2737407088279724	0.1952148675918579	-0.032214805483818054	-0.024440769106149673	0.05920540168881416	-0.006548298988491297	-0.11787423491477966	-0.03295436501502991	0.013067986816167831	0.003171136137098074	-0.00610344810411334	0.1524452120065689	0.32608118653297424	-0.3814980685710907	-0.13421595096588135	0.019229019060730934	-0.005569423548877239	0.00028400844894349575	-0.05962737649679184	-0.0418265238404274	-0.2505326569080353	-0.109815314412117	-0.056919850409030914	0.06699609756469727	0.010604103095829487	0.00672925217077136	-0.0820140540599823	0.0009069855441339314	0.015651268884539604	0.09872449934482574	0.008114063180983067	-0.09189094603061676	-0.04193738475441933	0.16956031322479248	-0.002263148780912161	-0.005010569933801889	0.18959851562976837	-0.007550376001745462	-0.006266361568123102	0.14062558114528656	-0.10188128799200058	-0.04434719681739807	0.42881470918655396	0.0004078786005266011	-0.023069098591804504	-0.024543197825551033	0.008699143305420876	-0.07053464651107788	0.0001396690058754757	-0.0018625997472554445	0.05055828392505646	-0.00014616368571296334	0.02538084052503109	0.008068512193858624	-0.1727987676858902	-0.02460230328142643	0.07873310893774033	-0.0007675545057281852	0.0096963569521904	0.11764424294233322	0.17161925137043	-0.003568895161151886	-0.1545509696006775	-0.006044117268174887	-0.008807305246591568
kala1372	0.08967839181423187	-0.0010000551119446754	-0.036081235855817795	0.07930029183626175	-0.49557510018348694	0.0016977691557258368	-0.228468656539917	-0.03852100297808647	-0.024796897545456886	-0.32418692111968994	0.3462119400501251	-0.028408076614141464	0.18852095305919647	0.019837314262986183	-0.07661915570497513	-0.19096361100673676	0.05610436946153641	-0.15706957876682281	0.008750389330089092	-0.06200604885816574	-0.018954889848828316	0.1210634633898735	-0.25215333700180054	-0.09978534281253815	-0.07300051301717758	0.008492104709148407	-0.013566664420068264	-0.0254853256046772	-0.0745634064078331	-0.2809494435787201	0.0523584745824337	-0.12625904381275177	-0.18285982310771942	-0.020452259108424187	-0.06415288150310516	-0.016857825219631195	-0.000253675680141896	-0.006705376785248518	0.006198656279593706	0.23776355385780334	0.012634255923330784	0.01984425261616707	0.01997961662709713	0.30312883853912354	0.20277957618236542	-0.005868337582796812	0.052138473838567734	0.003952572122216225	0.0032169881742447615	0.3010285794734955	0.17111925780773163	-0.010241986252367496	0.06350740790367126	0.019455989822745323	-0.0737549364566803	-0.06974553316831589	-0.0099726477637887	-0.13187910616397858	-0.03174079582095146	-0.21708941459655762	0.16347014904022217	0.044536955654621124	-0.047149986028671265	-0.3400194048881531	-0.17802178859710693	-0.03717911243438721	-0.06275273114442825	0.007749399170279503	0.012800868600606918	0.0628417357802391	0.014822197146713734	0.12574827671051025	0.01518951915204525	-0.014914331957697868	0.01949983462691307	0.04422985017299652	-0.09805236756801605	0.01994369551539421	0.060253240168094635	-0.11924860626459122	0.021329427137970924	0.0384664461016655	0.14422091841697693	-0.10017244517803192	0.14193850755691528	-0.03460381180047989	0.015193252824246883	-0.008847521618008614	0.022347690537571907	-0.03582271561026573	-0.03501896560192108	0.30280718207359314	-0.15378358960151672	0.0007803613552823663	0.01819334179162979	0.024525508284568787	-0.2099539041519165	0.01710435189306736	0.043526504188776016	0.013437774032354355	0.0074220881797373295	-0.012359606102108955	-0.054832573980093	-0.01638118363916874	0.06216194108128548	0.3952844440937042	-0.007569130975753069	0.03480667993426323	-0.04856136068701744	0.2267465442419052	0.31398606300354004	0.0002317374019185081	-0.0014044464332982898	-0.45801013708114624	-0.20906038582324982	0.012799706310033798	-0.0068830884993076324	0.054455745965242386	-0.16251973807811737	0.10443558543920517	-0.0006520151509903371	0.023372111842036247	0.0279685091227293	-0.09403101354837418	0.03713201731443405	-0.03957488760352135	0.009029963053762913	0.01608077622950077
kala1373	-0.03665808588266373	0.016968848183751106	0.04627770185470581	0.03422492370009422	0.08328104764223099	0.009714786894619465	-0.006136057432740927	0.01779419742524624	0.1289389431476593	-0.06730763614177704	0.08822456002235413	0.054729361087083817	0.051732853055000305	-0.00886449683457613	-0.0976036861538887	0.0651564672589302	-0.11534591764211655	-0.12930041551589966	-0.005347577389329672	-0.004902473650872707	0.05738576874136925	-0.05265113711357117	-0.049487918615341187	-0.05523703992366791	0.07306819409132004	-0.013443984091281891	-0.0034953164868056774	-0.015291976742446423	0.05910755693912506	0.2354246824979782	-0.0720653161406517	-0.1900666356086731	-0.07754386216402054	-0.003072897670790553	-0.22547248005867004	-0.038924869149923325	0.006837587337940931	0.018126338720321655	0.2179705947637558	0.17051516473293304	0.0036620849277824163	-0.006330930627882481	-0.01654127612709999	0.5647562742233276	-0.02004515565931797	-0.01830458641052246	0.17234168946743011	-0.0015940197044983506	0.015672631561756134	0.043069396167993546	0.1220780536532402	-0.0880165696144104	-0.1094018816947937	0.13142825663089752	-0.24026121199131012	0.1353466808795929	0.0004704374587163329	-0.21347129344940186	-0.1660403609275818	-0.21615584194660187	0.04083986580371857	-0.023231608793139458	-0.03518378362059593	-0.36878201365470886	0.051987629383802414	0.00034563825465738773	-0.30713728070259094	0.06560513377189636	-0.02059934101998806	0.07597579061985016	0.022130340337753296	0.09507904946804047	0.0017685805214568973	-0.007415774744004011	-0.34138166904449463	0.0939987525343895	-0.25707554817199707	-0.025181258097290993	-0.2836802005767822	-0.0279777180403471	0.012044399976730347	-0.14825880527496338	-0.17528028786182404	-0.1310492902994156	-0.29953259229660034	-0.023845212534070015	0.0372953899204731	0.02380717732012272	-0.01935853250324726	0.0025428372900933027	0.031224852427840233	0.012490028515458107	-0.09654341638088226	-0.042884089052677155	0.3755912780761719	0.012874539010226727	-0.1797792762517929	-0.002680231351405382	-0.016057364642620087	-0.15574970841407776	8.708276436664164e-05	0.012621701695024967	-0.09041530638933182	-0.14788241684436798	-0.1297883540391922	-0.49679726362228394	0.003596898168325424	-0.09033573418855667	0.13119536638259888	0.1460399031639099	-0.03500578552484512	0.015465195290744305	0.026407891884446144	0.01662740297615528	-0.16632811725139618	0.0008630221127532423	-0.006077486090362072	0.11390085518360138	0.22774869203567505	0.2041400820016861	0.011639297939836979	-0.01306608971208334	0.1960432529449463	0.019717028364539146	0.06342972069978714	-0.1869376003742218	0.017074113711714745	-0.007170892786234617
kash1277	0.01396983116865158	-0.005587751045823097	-0.016315490007400513	0.02333713136613369	-0.08944492042064667	0.001706248614937067	-0.03695332258939743	0.00577022647485137	0.10781971365213394	0.08014307171106339	-0.011158555746078491	-0.09518228471279144	-0.010855342261493206	-0.009653516113758087	-0.016021108254790306	0.02626791223883629	0.022651683539152145	0.05056377127766609	0.0050737494602799416	-0.07765446603298187	-0.04752824455499649	0.15188269317150116	0.08635914325714111	0.05570775642991066	0.11064371466636658	-0.004541290923953056	0.0115418191999197	-0.0012643670197576284	-0.005988467950373888	-0.1362706571817398	-0.014237790368497372	-0.02722224034368992	0.04014968127012253	0.02108081243932247	0.021326297894120216	-0.0009095670538954437	0.010144326835870743	0.007767773699015379	-0.015667833387851715	0.05820789560675621	-0.005543611943721771	0.00012639391934499145	-0.018479693681001663	-0.13515566289424896	0.09011907875537872	-0.0005214209668338299	0.04376962408423424	-0.0016261792043223977	-0.1159093976020813	0.32969406247138977	-0.08594061434268951	0.042761143296957016	-0.015399554744362831	-0.09840405732393265	0.04020819440484047	0.0020899311639368534	0.008908666670322418	-0.020999087020754814	-0.06459610164165497	0.054372772574424744	-0.01856428198516369	0.0047927722334861755	-0.02850133553147316	-0.018903210759162903	0.07143289595842361	-0.009252422489225864	0.2871376574039459	0.007037742994725704	-0.00807894952595234	0.01082849781960249	0.007865448482334614	0.015620755963027477	0.004996682051569223	0.0043770563788712025	-0.06557098776102066	0.13265806436538696	-0.04886920005083084	0.005092196632176638	-0.17366276681423187	-0.011631484143435955	0.0010535900946706533	-0.008590955287218094	-0.0863419622182846	-0.34137850999832153	-0.13132061064243317	0.05525770038366318	0.08976183831691742	-0.0032008548732846975	-0.004075951874256134	0.04164500907063484	0.00928619783371687	-0.010298862121999264	-0.005605377722531557	0.007513950578868389	0.11201631277799606	-0.03406288102269173	0.14756980538368225	-0.004700050223618746	0.005159805063158274	-0.2637246549129486	0.000878110877238214	-0.00855624582618475	-0.026914456859230995	0.04922500625252724	0.125178724527359	-0.06773221492767334	-0.008158260956406593	0.019487299025058746	0.016908131539821625	0.034689296036958694	-0.11487239599227905	-0.00459555396810174	0.013552503660321236	0.2674168050289154	0.010698623955249786	-0.013473405502736568	0.003575661452487111	-0.0398297980427742	-0.14303012192249298	0.000982234487310052	0.012799657881259918	-0.005155275110155344	-0.14516709744930267	-0.13616447150707245	-0.0022608295548707247	-0.12495288997888565	0.005880007985979319	0.00771618727594614
khet1238	-0.107589490711689	0.0059187207370996475	0.2624960243701935	-0.10000038146972656	0.19909679889678955	0.01170152984559536	-0.32113078236579895	-0.0474727600812912	-0.06876371800899506	-0.04615303874015808	-0.28041335940361023	0.0691339299082756	0.016639839857816696	0.0150331761687994	-0.022703738883137703	-0.1658661961555481	-0.06213758885860443	0.41669830679893494	0.01720033586025238	-0.3376212418079376	-0.3544691503047943	0.13145585358142853	0.13764940202236176	-0.1610768884420395	-0.07273589074611664	-0.022464606910943985	0.026491690427064896	-0.019626036286354065	-0.014923490583896637	0.0959247574210167	-0.45034974813461304	-0.05793146416544914	-0.017414560541510582	0.07071160525083542	-0.0785326138138771	-0.02963677980005741	0.004669685382395983	-0.001174634206108749	0.13037420809268951	0.0704566091299057	-0.018268346786499023	0.03781859204173088	-0.020903274416923523	0.12085948139429092	-0.27050718665122986	-0.020439105108380318	-0.06944624334573746	-0.004388764966279268	0.08120620250701904	0.24164745211601257	0.0308065228164196	-0.08051944524049759	0.10672443360090256	-0.04942500591278076	-0.22191476821899414	-0.02844160608947277	0.07916314154863358	-0.14124250411987305	0.2706080973148346	0.08645601570606232	0.008368616923689842	0.02613574080169201	0.09263567626476288	0.07817687839269638	-0.1898972988128662	0.18596062064170837	0.17149513959884644	0.01957038603723049	0.04500263184309006	-0.1416119784116745	0.07184349745512009	-0.05074138566851616	0.030739806592464447	0.015888607129454613	-0.0914679616689682	0.21766836941242218	-0.12710073590278625	-0.2928246855735779	-0.05012102052569389	-0.06593304872512817	-0.04195502772927284	0.18918666243553162	0.19905126094818115	0.371859073638916	-0.07247430086135864	-0.06709197163581848	-0.025064876303076744	-0.00919230468571186	0.024859072640538216	-0.0059259007684886456	0.1408328264951706	-0.49616122245788574	0.049792781472206116	-0.030962305143475533	-0.03625495359301567	0.42482900619506836	-0.12057147920131683	0.003654684405773878	0.09582439810037613	-0.35099154710769653	0.007910476997494698	-0.006762182805687189	-0.3523346185684204	-0.04663093760609627	-0.08052811771631241	0.22952181100845337	0.011551988311111927	0.22868163883686066	0.14785543084144592	-0.09421471506357193	0.24767646193504333	-0.03133227303624153	0.0032744184136390686	0.31102243065834045	-0.18102635443210602	-0.07432862371206284	-0.112214095890522	-0.029433198273181915	-0.23458127677440643	-0.1207146868109703	0.015694715082645416	0.011871910654008389	-0.18788652122020721	0.06181029975414276	-0.20489393174648285	-0.3472369611263275	-0.015272766351699829	-0.015087396837770939
khow1242	-0.07891732454299927	0.007046972867101431	0.027765506878495216	0.01586122252047062	-0.5775940418243408	-0.010357489809393883	-0.06453250348567963	0.005019592586904764	0.1644982248544693	0.07505153864622116	0.15486827492713928	-0.2781980335712433	0.03613198176026344	0.008257216773927212	-0.07009484618902206	-0.13788484036922455	-0.13719283044338226	0.14889711141586304	-0.007943528704345226	-0.019969552755355835	-0.15348340570926666	-0.010861958377063274	-0.07077471166849136	0.05194641649723053	0.17558936774730682	0.011552315205335617	-0.004992702975869179	-0.028864536434412003	-0.0028343198355287313	0.15775932371616364	0.13506034016609192	0.09545964002609253	0.11483653634786606	-0.024629516527056694	-0.028874246403574944	0.009120052680373192	-0.007898412644863129	0.0060867322608828545	0.03867161273956299	-0.018758298829197884	-0.001440620282664895	-0.00013493269216269255	0.006315845996141434	-0.047541312873363495	-0.08815900981426239	-0.0038420476485043764	-0.056867461651563644	-0.012709066271781921	0.2173507660627365	-0.10980749875307083	0.06481711566448212	0.030646730214357376	-0.10467883199453354	-0.2369636595249176	-0.04675815999507904	0.06869223713874817	0.006404263898730278	-0.07369767874479294	0.09272564947605133	-0.32337304949760437	0.03963622450828552	0.08742406964302063	0.08906620740890503	-0.2018665075302124	0.1411927193403244	-0.011604375205934048	-0.10764525830745697	0.0944395363330841	-0.007025505416095257	0.07584809511899948	-0.016987573355436325	-0.03858330473303795	0.012622316367924213	-0.00549947889521718	0.11823209375143051	-0.00950614269822836	-0.012859509326517582	-0.033474456518888474	-0.2619679272174835	-0.05279627814888954	-0.004615387879312038	-0.05872447416186333	0.16781039535999298	-0.12594778835773468	0.1653403639793396	-0.04104959964752197	-0.19203168153762817	0.0119331618770957	-0.013713022693991661	0.19268928468227386	0.012300887145102024	-0.10077126324176788	0.08397699147462845	0.008417840115725994	-0.0935458317399025	-0.1097068041563034	0.16230477392673492	-0.012462761253118515	0.02973460592329502	0.10524100810289383	-0.00455325935035944	-0.008136813528835773	-0.059277478605508804	0.2667164206504822	-0.32210731506347656	-0.14989550411701202	0.010598707012832165	-0.008258101530373096	0.0867600366473198	0.07580111920833588	0.03276798874139786	-0.009350360371172428	-0.018332550302147865	-0.2803255617618561	0.05971910059452057	0.012395881116390228	-0.0039619579911231995	-0.11185318976640701	-0.20724287629127502	0.15036539733409882	0.0069168065674602985	0.004277725704014301	0.1767178177833557	-0.3720884621143341	0.0064911264926195145	-0.07781261205673218	0.004105444997549057	0.002826536539942026
kohi1248	-0.044690825045108795	0.026111910119652748	0.19953112304210663	0.2176879644393921	-0.00523362634703517	0.012408223934471607	0.38912224769592285	-0.01648438535630703	-0.038365330547094345	0.5232468247413635	-0.040906552225351334	0.12716521322727203	-0.1078193411231041	-0.020586172118782997	0.1706884205341339	0.13084113597869873	-0.06560414284467697	0.16749000549316406	-0.009272154420614243	-0.24514847993850708	-0.2466803342103958	-0.028027858585119247	-0.0018306461861357093	0.13115662336349487	-0.04503632336854935	0.012458236888051033	-0.00037168513517826796	-0.045245636254549026	0.03464832529425621	-0.10843627154827118	-0.12402249872684479	0.01846637763082981	0.0015357705997303128	0.030547969043254852	-0.04326044023036957	0.0027040967252105474	0.001847903011366725	0.007482349406927824	-0.3098357915878296	0.3007424473762512	0.028550798073410988	-0.01753748208284378	0.02311309240758419	0.06701431423425674	0.037855032831430435	0.0007934248424135149	-0.3799021542072296	-0.0011937953531742096	0.08643776923418045	0.45204347372055054	-0.18114279210567474	0.20117129385471344	-0.21705490350723267	-0.13161888718605042	-0.23078012466430664	0.04756755009293556	0.0178277175873518	-0.27745744585990906	0.1442999243736267	-0.27321532368659973	0.2157871425151825	-0.2856346070766449	0.21196164190769196	0.08981560170650482	-0.03495802730321884	-0.05521203577518463	-0.08810560405254364	-0.17035464942455292	0.0003674560575746	-0.10048189014196396	-0.13019207119941711	-0.15739254653453827	0.012972093187272549	-0.004563802387565374	-0.24637654423713684	0.08743331581354141	-0.35175415873527527	-0.1460099220275879	0.3844353258609772	0.27987250685691833	-0.08405378460884094	-0.08702009916305542	0.4400162100791931	-0.18553784489631653	0.22212058305740356	0.027288876473903656	0.002702775178477168	-0.018559934571385384	-0.0007187097216956317	-0.35374778509140015	0.18640683591365814	-0.12922321259975433	0.09130705147981644	-0.034323036670684814	0.030397990718483925	-0.1895887404680252	0.13326483964920044	0.016137046739459038	0.04893643409013748	0.5210870504379272	0.03181684762239456	-0.02526969090104103	0.20436973869800568	-0.01866636425256729	0.021984361112117767	-0.23975136876106262	-0.02490571141242981	0.04872238636016846	-0.06838635355234146	0.4050690531730652	-0.21044504642486572	0.0326213575899601	0.027596622705459595	0.03936683014035225	-0.10532019287347794	0.026787031441926956	-0.04309166967868805	0.176991805434227	-0.05460342392325401	0.14549565315246582	-0.018221477046608925	-0.019967366009950638	-0.013186651282012463	-0.04487122222781181	-0.21503524482250214	-0.14138999581336975	0.03754277899861336	0.035330306738615036
konk1267	0.019979184493422508	0.004483431577682495	0.14637234807014465	0.025540241971611977	0.26596179604530334	0.01520752813667059	-0.09175414592027664	0.01905888505280018	-0.2971418499946594	0.16487747430801392	0.17512398958206177	0.08484267443418503	0.06486257910728455	0.002483211923390627	-0.036550991237163544	-0.03949884697794914	0.031280774623155594	0.0664665624499321	-0.007210982963442802	-0.09366795420646667	-0.01039794646203518	-0.16454464197158813	0.09609704464673996	0.19659335911273956	0.20236341655254364	-0.01208446640521288	0.003182646119967103	0.006960695143789053	-0.014464848674833775	-0.17950351536273956	0.06307199597358704	-0.10583741962909698	-0.06621472537517548	0.009626817889511585	-0.049011360853910446	-0.018069960176944733	0.0010963904205709696	0.013649461790919304	0.25948479771614075	-0.020417163148522377	-0.007913658395409584	-0.004630053415894508	-0.004187486600130796	-0.15384671092033386	-0.01976059004664421	-0.007178278639912605	-0.4100816249847412	-0.0029187214095145464	0.05288967862725258	0.05462878197431564	-0.07239965349435806	-0.033999137580394745	-0.06093696504831314	-0.11601326614618301	0.18318824470043182	-0.027942262589931488	-0.014110314659774303	0.2201351821422577	0.06686660647392273	-0.2549660801887512	0.017714623361825943	0.021088000386953354	-0.24076829850673676	-0.02341318503022194	-0.10444682091474533	0.027514643967151642	-0.22507339715957642	-0.04580387845635414	0.008449736982584	0.09267528355121613	0.03233075886964798	0.013941439799964428	0.03738659247756004	0.0060654436238110065	0.12366924434900284	0.08332346379756927	-0.1710565835237503	0.008431618101894855	0.18460053205490112	-0.040238767862319946	0.01443155575543642	-0.06862076371908188	-0.10346796363592148	0.11437152326107025	-0.22708800435066223	-0.009263673797249794	-0.26963862776756287	-0.01386258751153946	0.0024403012357652187	-0.1811610609292984	-0.03840439021587372	0.0970267653465271	0.0006725650164298713	-0.012016836553812027	-0.10706161707639694	0.0010476757306605577	0.25236305594444275	0.0036845416761934757	-0.023910243064165115	0.07497952878475189	-0.0007764410111121833	0.007596052251756191	-0.023210609331727028	0.06005145236849785	-0.039585236459970474	0.19144663214683533	-0.018656523898243904	-0.04389413446187973	0.004818634130060673	0.1904032826423645	0.25012582540512085	0.02378610335290432	0.028772756457328796	-0.09560485184192657	-0.10402172803878784	-0.011476102285087109	-0.006348214577883482	0.11078659445047379	0.29266512393951416	-0.19894787669181824	-0.009945495054125786	-0.0003327823942527175	0.0038515222258865833	-0.1317582130432129	0.05236059054732323	0.24365851283073425	0.0059242998249828815	0.013400780968368053
kuma1273	-0.0080044474452734	0.0052215405739843845	0.10955601185560226	0.0020195874385535717	0.15742293000221252	-0.01072849240154028	0.08496115356683731	-0.012957938015460968	0.025125764310359955	-0.09799296408891678	0.07721138745546341	-0.16805654764175415	-0.0052176774479448795	0.006155502051115036	-0.02638288401067257	0.05495297908782959	0.056632149964571	0.02408975549042225	0.0005244414787739515	0.02792399935424328	0.11685574799776077	-0.07172305881977081	-0.0471937470138073	0.06108315661549568	-0.037663377821445465	7.467533578164876e-05	0.0032560143154114485	-0.0020572482608258724	0.008113725110888481	0.1279035061597824	0.03049228899180889	0.06394609063863754	-0.03532840311527252	-0.016583867371082306	0.010619550943374634	0.011146573349833488	-0.00781676173210144	-0.020425792783498764	-0.17858146131038666	0.06551725417375565	0.0001247857289854437	-0.0038282969035208225	-0.009598209522664547	0.008869464509189129	-0.003196780802682042	0.010465753264725208	0.0029559179674834013	-0.005647886544466019	0.18282340466976166	0.17812147736549377	0.11572887003421783	-0.0034807780757546425	-0.03982958942651749	0.12484996765851974	0.09229045361280441	0.01351164747029543	-0.009861529804766178	-0.020270688459277153	-0.028237922117114067	-0.008918647654354572	-0.03649619221687317	0.008893775753676891	-0.023009246215224266	0.10659781098365784	-0.034073684364557266	0.0029705092310905457	-0.04676591232419014	-0.02131631225347519	0.0008484952850267291	0.017140738666057587	-0.010193642228841782	0.015705915167927742	0.005697410088032484	0.010905624367296696	0.007690759375691414	-0.06638214737176895	-0.018976878374814987	0.005441285204142332	-0.04786200448870659	-0.0194440558552742	0.0024727480486035347	-0.08697087317705154	-0.025386890396475792	0.011867588385939598	0.003556294832378626	0.003174144309014082	0.1416379064321518	-0.012278038077056408	0.019732197746634483	0.056161146610975266	-0.007129484321922064	-0.009535557590425014	-0.10416639596223831	-0.002148417290300131	-0.09014104306697845	-0.03572102636098862	-0.10225281864404678	-0.010502318851649761	0.00862125027924776	0.10859307646751404	-0.0044378614984452724	0.0038145058788359165	-0.0015254947356879711	0.0145042072981596	0.002936344360932708	0.057385172694921494	0.011432026512920856	0.004475691821426153	0.03325047716498375	-0.07898733019828796	-0.11708063632249832	0.008793462067842484	0.0008625053451396525	0.019792670384049416	0.05867547169327736	-0.0024126204662024975	-0.0026001494843512774	0.09733078628778458	-0.09809722006320953	0.00047901534708216786	-0.008005386218428612	0.005466347094625235	-0.0889790877699852	-0.07270807772874832	-0.021930191665887833	0.008579735644161701	-0.0071447063237428665	-0.016991185024380684
kura1247	-0.1241844967007637	0.015439154580235481	0.37433576583862305	-0.16068725287914276	-0.07229044288396835	0.003955543506890535	0.23590119183063507	0.044618554413318634	-0.1611391305923462	0.19527597725391388	0.11509644240140915	-0.1705993115901947	0.29441627860069275	0.01877782866358757	-0.1597653031349182	-0.046987589448690414	0.21993131935596466	-0.2788339853286743	-0.017138008028268814	-0.3880223333835602	0.15332698822021484	-0.07125652581453323	0.10896208137273788	0.33546900749206543	0.12085368484258652	-0.005288132466375828	-0.016039913520216942	-0.04721703380346298	-0.009963850490748882	0.1116451546549797	0.33866044878959656	-0.3089239299297333	-0.03562223166227341	0.028056906536221504	0.22758156061172485	-0.050421055406332016	0.031007584184408188	0.044315677136182785	0.26501497626304626	-0.10043888539075851	-0.017377983778715134	0.01762912981212139	0.004121776670217514	0.08120451867580414	-0.04971078783273697	-0.00772154051810503	-0.04375069960951805	0.014452056959271431	0.08529824763536453	0.35972973704338074	0.7027207612991333	0.2403508871793747	-0.1426660418510437	-0.2121027112007141	-0.19460968673229218	-0.07521327584981918	0.008205589838325977	-0.011796445585787296	0.030474353581666946	-0.1760159730911255	0.3485976755619049	0.23214411735534668	-0.0039712898433208466	0.1942795366048813	0.09062647819519043	0.2887352705001831	0.07279577106237411	-0.11667128652334213	-0.05920260772109032	-0.21938523650169373	-0.129667729139328	-0.13556651771068573	0.003618139075115323	-0.03214457258582115	-0.35901328921318054	-0.07646653056144714	-0.06487923115491867	0.16899742186069489	0.03915597125887871	-0.1644270122051239	-0.028780117630958557	0.2711724042892456	-0.315155565738678	0.33818989992141724	-0.01980455033481121	-0.21752621233463287	-0.3199172019958496	0.007870879024267197	0.0004900696221739054	0.20432765781879425	-0.16258811950683594	-0.01764579489827156	0.10079970210790634	-0.01672186516225338	0.4555979371070862	-0.07037020474672318	-0.1399444192647934	0.0047275712713599205	0.09104877710342407	-0.0028339726850390434	-0.004508477170020342	0.030425764620304108	0.166945680975914	0.12398815155029297	0.5319228172302246	-0.2663179039955139	0.007389124948531389	0.017520252615213394	0.17553940415382385	0.11511644721031189	0.20021560788154602	-0.03616693243384361	-0.015888310968875885	-0.23266565799713135	-0.24020074307918549	0.022465093061327934	0.055562302470207214	-0.031321603804826736	-0.20245516300201416	-0.10736968368291855	-0.02203606441617012	0.0049259173683822155	-0.04355429485440254	-0.20536908507347107	-0.05024157091975212	-0.1963697373867035	0.028282342478632927	0.009262846782803535
laur1248	0.11754880845546722	0.01094779185950756	-0.08970577269792557	0.0317620113492012	-0.22728955745697021	-0.00673426128923893	0.020099839195609093	-0.02078547514975071	-0.2929326593875885	-0.37562689185142517	-0.07841873914003372	-0.0545838363468647	-0.2834084630012512	0.0041154520586133	-0.05916424095630646	0.019464105367660522	-0.10077177733182907	0.002872699638828635	0.016705356538295746	-0.5022721886634827	-0.05449756979942322	-0.02223081886768341	0.25394007563591003	0.07253458350896835	0.09581207484006882	0.0040643648244440556	-0.013452695682644844	0.009682833217084408	-0.02463758923113346	0.016072046011686325	-0.0414099358022213	0.1276979148387909	0.19039013981819153	-0.035222720354795456	0.1841491460800171	0.0034263101406395435	0.0035484167747199535	-0.025381039828062057	-0.014168777503073215	0.3202190399169922	-0.0004488565609790385	0.013134293258190155	0.014256244525313377	-0.048744745552539825	-0.06375359743833542	-0.006115490570664406	0.04550118371844292	-0.02560555934906006	-0.36341455578804016	-0.08642326295375824	-0.05416063219308853	-0.10885556042194366	-0.1944269835948944	-0.10623252391815186	-0.005030158441513777	0.08624086529016495	-0.03404582291841507	0.01508935634046793	0.12300010770559311	-0.30854037404060364	-0.03174201771616936	-0.1492176502943039	-0.023101747035980225	-0.010158059187233448	0.13499698042869568	-0.033488016575574875	-0.03530826419591904	-0.184882253408432	-0.06104322895407677	0.1934960037469864	0.04165186360478401	0.22213062644004822	0.01681075431406498	0.01857532188296318	-0.12732163071632385	0.16313806176185608	-0.037696316838264465	-0.16287913918495178	-0.25394362211227417	-0.09706810116767883	0.053080372512340546	0.12074243277311325	0.1964554339647293	0.4616093039512634	0.0614304319024086	0.2021562159061432	-0.13442109525203705	-0.011504597961902618	0.009569728747010231	-0.059665367007255554	-0.16831058263778687	-0.2870255410671234	0.13806980848312378	-0.006825198885053396	0.3372690677642822	0.0989176481962204	-0.041601601988077164	0.018865497782826424	-0.03064274974167347	0.10517861694097519	0.00960223563015461	-0.007865467108786106	-0.2561336159706116	-0.19487722218036652	0.3962758183479309	0.04856184870004654	-0.01462529506534338	-0.02832217700779438	0.02115275152027607	0.1072702407836914	-0.20504087209701538	0.025270165875554085	-0.011656247079372406	-0.3088113069534302	-0.0034103291109204292	0.03926274552941322	0.017502468079328537	-0.08700799942016602	-0.14856085181236267	0.2660745084285736	-0.03986344113945961	0.014809579588472843	0.15020783245563507	0.12046905606985092	0.02752542309463024	-0.1812218278646469	-0.013811023905873299	0.0036562627647072077
loma1235	0.2678210139274597	-0.016235942021012306	0.3665809631347656	0.05566093325614929	-0.18322055041790009	-0.024434909224510193	0.19987481832504272	0.09413965791463852	0.1931767612695694	0.054301660507917404	0.6173556447029114	-0.34438639879226685	-0.27724868059158325	-0.03855898603796959	-0.12007524073123932	-0.2253839373588562	-0.18174736201763153	-0.06631167978048325	0.003990390338003635	-0.005418410990387201	-0.6453725695610046	0.1931990087032318	0.06095680594444275	0.08308153599500656	-0.1879855841398239	0.002304389839991927	-0.011591249145567417	0.16172973811626434	-0.28791582584381104	-0.04388344660401344	0.13704486191272736	-0.15362294018268585	-0.09838708490133286	-0.02937348373234272	-0.26557570695877075	0.12474651634693146	0.006293955259025097	-0.00893748551607132	0.0452551543712616	-0.12093482911586761	0.012334912084043026	0.002957338700070977	0.00020384651725180447	-0.3928484320640564	-0.36303985118865967	-0.010059785097837448	0.21205955743789673	-0.008261453360319138	-0.3586297333240509	-0.3716168701648712	0.1874864399433136	-0.2892058789730072	0.31055185198783875	-0.2433048039674759	-0.1253664195537567	0.061600543558597565	-0.06563416123390198	-0.13587577641010284	-0.24931922554969788	0.19367766380310059	0.15718691051006317	0.23284128308296204	0.19004490971565247	-0.04948209971189499	-0.22586458921432495	-0.1553831547498703	-0.31717976927757263	0.1195196807384491	0.06854766607284546	0.3578488230705261	0.07021098583936691	-0.3179238438606262	-0.03869541734457016	-0.018756357952952385	-0.1402607560157776	0.47367942333221436	0.4748079478740692	0.19342392683029175	-0.04891456291079521	0.05425513535737991	0.08341462165117264	-0.4688379764556885	0.3001945912837982	0.07892753928899765	0.17904838919639587	0.09231435507535934	-0.5075666308403015	0.0014792918227612972	-0.024544786661863327	-0.004800823051482439	0.12389729917049408	0.2782391309738159	0.04075847193598747	0.011576232500374317	0.1368425339460373	0.24268250167369843	-0.37724998593330383	-0.0148751400411129	-0.0049368818290531635	0.06878762692213058	-0.001578355091623962	-0.027024978771805763	-0.0010241110576316714	-0.2340596467256546	0.31746625900268555	-0.23713284730911255	0.007526664063334465	0.16164050996303558	-0.014619573019444942	-0.1375051736831665	-0.09137115627527237	0.037797655910253525	0.019126886501908302	0.06864803284406662	-0.29883790016174316	0.004434905480593443	-0.10082366317510605	0.0647534653544426	-0.43065816164016724	-0.12269079685211182	0.0022598151117563248	-0.03160925582051277	-0.22413606941699982	0.11974553018808365	0.3855132758617401	0.12020248174667358	0.03271994739770889	0.016040267422795296
maha1287	0.04366442188620567	-0.03688594698905945	0.2580079138278961	-0.03321788087487221	0.0774783194065094	0.0067521147429943085	-0.049767397344112396	0.005964318290352821	0.2342648059129715	-0.008078331127762794	0.05515085160732269	-0.009178630076348782	0.014915406703948975	-0.005365207325667143	-0.009475918486714363	0.12947233021259308	0.03343098610639572	-0.010023008100688457	-0.019072270020842552	-0.2688359022140503	-0.21552371978759766	-0.34102141857147217	-0.10936131328344345	0.13303185999393463	-0.12910161912441254	-0.000755218556150794	0.035439278930425644	0.004683215171098709	0.035694919526576996	-0.04704807698726654	-0.007175501435995102	0.08925434201955795	-0.1376725137233734	0.03183344006538391	-0.05922475829720497	-0.008324196562170982	-0.009530743584036827	-0.0043151844292879105	-0.2667948007583618	-0.37756264209747314	0.0002192996471421793	-0.00219645700417459	-0.018666120246052742	-0.09016121923923492	0.14750982820987701	-0.007722907699644566	-0.1863948106765747	-0.0004370092647150159	-0.2826823592185974	0.11274778842926025	0.2517859637737274	0.015486551448702812	0.053281351923942566	-0.05088554322719574	-0.12855258584022522	-0.06700684130191803	0.0007969104335643351	0.13598820567131042	-0.014494714327156544	-0.2566887140274048	-0.27746644616127014	0.15016873180866241	0.08099068701267242	0.044974856078624725	-0.21166813373565674	-0.03931621462106705	0.09525161236524582	0.017961520701646805	-0.019621510058641434	0.14998939633369446	-0.06679971516132355	-0.035892147570848465	-0.0004481634241528809	0.015689831227064133	-0.0011754079023376107	0.06632189452648163	-0.02024693973362446	-0.04261438921093941	0.014467809349298477	0.11371748149394989	0.0011950501939281821	0.34658128023147583	0.07097076624631882	-0.30311593413352966	-0.1271304041147232	0.014151589944958687	0.031418852508068085	-0.019521545618772507	-0.019505778327584267	0.010754999704658985	-0.0034274726640433073	0.07157857716083527	-0.007390913553535938	-0.0009930171072483063	-0.29150572419166565	0.11413943767547607	-0.19855856895446777	-0.019179346039891243	-0.005371913313865662	0.022074654698371887	-0.005906101781874895	0.01093860249966383	-0.04203590378165245	-0.18109074234962463	-0.13069331645965576	-0.025282198563218117	-0.008278817869722843	0.07076452672481537	-0.04203822836279869	0.3014738857746124	0.2046538144350052	0.014458375051617622	0.04103343188762665	0.008169734850525856	0.09382849931716919	-0.010379948653280735	-0.03212686628103256	-0.042556121945381165	-0.19136594235897064	0.12403719872236252	-0.0011551035568118095	-0.02169951982796192	0.3371388912200928	-0.06033111363649368	0.18737883865833282	-0.09369739145040512	-0.013845650479197502	-0.018862014636397362
maha1305	0.002378815319389105	0.013688060455024242	-0.0033106415066868067	0.0030142897740006447	-0.12104577571153641	0.008107902482151985	-0.05939324572682381	0.008126746863126755	0.0580129437148571	0.005412404891103506	-0.010411174036562443	0.05278274416923523	0.010478243231773376	-0.005228573922067881	-0.006428729742765427	-0.0069457730278372765	-0.012480692937970161	-0.009441114030778408	0.0029416626784950495	-0.02474045939743519	0.02654162421822548	0.09315381944179535	0.03954330086708069	-0.11471904069185257	-0.05098140239715576	0.007516258861869574	-0.0014737823512405157	0.00785902515053749	0.005017115268856287	0.07640136778354645	-0.005952810402959585	0.007301120553165674	0.010495651513338089	-0.006328708957880735	0.007061859592795372	-0.007133096922188997	-0.010887017473578453	0.0008148461929522455	0.07937997579574585	0.0013059371849521995	-0.0008236514986492693	0.008096134290099144	0.015736104920506477	-0.003588862717151642	-0.035263609141111374	0.017841612920165062	0.11562405526638031	-0.0020072583574801683	0.03150499239563942	0.03178039565682411	-0.12214325368404388	0.005429693032056093	0.009851764887571335	-0.07879342883825302	0.04605689272284508	-0.0053980378434062	0.01262904517352581	0.18637168407440186	-0.009778806939721107	-0.16506348550319672	0.025805285200476646	-0.0012306349817663431	-0.24767975509166718	0.007133861538022757	0.030442018061876297	0.019090037792921066	0.01855510286986828	-0.014785352163016796	-0.0022624291013926268	-0.00725303590297699	0.004505145829170942	0.005592724308371544	-0.0062220958061516285	-0.002123255981132388	0.016669822856783867	-0.07019691914319992	0.06598174571990967	0.02392546273767948	0.07962087541818619	-0.005583131220191717	0.009318468160927296	0.06163790449500084	-0.04022670164704323	0.1170489564538002	0.08565305173397064	-0.001756870187819004	-0.08219089359045029	0.012106270529329777	0.0027822908014059067	-0.0007415335276164114	-0.015773789957165718	0.013434967026114464	0.03446367383003235	0.014183255843818188	-0.03548559546470642	0.022800706326961517	0.1568288654088974	-0.001249164342880249	0.003741309978067875	0.02797449752688408	-0.004442043602466583	-4.6937173465266824e-05	0.002693493152037263	-0.021122662350535393	-0.017779819667339325	-0.07305184006690979	0.012279142625629902	-0.004127142485231161	0.02278222143650055	-0.027302904054522514	0.07064590603113174	0.00404015276581049	0.001235826639458537	0.10407290607690811	-0.006459727883338928	0.0019102109363302588	-0.012021426111459732	-0.011231206357479095	-0.019561951979994774	0.006848620716482401	0.0043129948899149895	0.009473387151956558	-0.03572944551706314	0.31852591037750244	0.0019615094643086195	0.17575594782829285	0.009608150459825993	-0.0026380005292594433
mait1250	0.02682420238852501	-0.0045144944451749325	0.20027805864810944	0.016519391909241676	-0.01584736816585064	0.0057595036923885345	0.042119935154914856	0.009206937626004219	-0.03434271365404129	-0.0887758880853653	-0.13068921864032745	-0.14991401135921478	-0.0029060165397822857	0.0024122754111886024	-0.023644104599952698	0.05885641649365425	0.03173735737800598	-0.08706563711166382	-0.018483487889170647	-0.049252599477767944	-0.03295289725065231	0.030756767839193344	-0.18275456130504608	-0.002609983552247286	0.1290380209684372	-0.012076359242200851	-0.008820254355669022	0.007266351953148842	-0.00805463083088398	-0.15590040385723114	-0.09351912885904312	0.09255854785442352	0.051421791315078735	0.04488278552889824	-0.08072110265493393	-0.0057091363705694675	0.01484717894345522	0.010345201939344406	-0.1077902764081955	-0.02929583564400673	-0.0006512681138701737	0.004796982742846012	-0.009228666312992573	0.14340713620185852	0.1637757420539856	-0.014060154557228088	-0.07530346512794495	-0.0016728440532460809	0.17643579840660095	-0.14551235735416412	-0.08903990685939789	-0.04457871615886688	0.0758005678653717	-0.07296828925609589	0.0707806944847107	-0.05978089198470116	-0.010316434316337109	0.19578486680984497	-0.01539652980864048	0.30921196937561035	0.07013680040836334	-0.06154605373740196	0.28494054079055786	-0.07135683298110962	-0.039120204746723175	-0.022795042023062706	-0.042705241590738297	-0.0022434350103139877	-0.004446540959179401	-0.06290888786315918	0.023739656433463097	0.0646091103553772	0.010508131235837936	0.0016967894043773413	0.03393861651420593	0.06316529959440231	-0.1274811029434204	-0.00068860367173329	0.06077176332473755	0.024923864752054214	-0.016369255259633064	0.031024012714624405	0.05059538036584854	0.03781483694911003	0.09910127520561218	-0.04686817526817322	0.13404425978660583	0.007028414402157068	0.008990606293082237	0.1872187703847885	-0.007415663916617632	0.15845760703086853	0.05717082321643829	-0.018126005306839943	-0.039855048060417175	0.07215740531682968	0.033779025077819824	0.011839216575026512	-0.0014235428534448147	0.10098660737276077	0.0057166884653270245	0.009392541833221912	0.06008392572402954	0.016457397490739822	0.23115597665309906	-0.16795039176940918	-0.003038563998416066	0.03508405014872551	0.001494398107752204	0.025132445618510246	-0.04472809284925461	0.0009728746372275054	-0.0018197428435087204	0.1302964985370636	-0.036891546100378036	-0.012426909990608692	0.006963703781366348	-0.06623731553554535	0.17265094816684723	-0.17994245886802673	0.0036063313018530607	-0.0016080747591331601	0.051164716482162476	0.15261691808700562	0.09200378507375717	-0.2153778374195099	0.01001709420233965	0.007068024016916752
mara1378	-0.0035204458981752396	0.008984243497252464	-0.01777656376361847	-0.01570054702460766	0.20982307195663452	-0.0027806709986180067	0.02862977795302868	0.0038560605607926846	-0.026849135756492615	-0.03470752760767937	-0.031343329697847366	-0.012867134995758533	-0.042848389595746994	0.0066849845461547375	-0.004031851422041655	-0.030565006658434868	0.022701770067214966	0.006632109638303518	-0.0021420149132609367	0.031427983194589615	-0.03508592024445534	-0.05950114130973816	-0.07333578169345856	0.06425677984952927	0.08571252226829529	-0.007205345202237368	-0.005251157097518444	0.01289389468729496	-0.013698473572731018	-0.1029708981513977	-0.015823913738131523	0.01938525214791298	0.11198380589485168	-0.0009993230924010277	0.02981363795697689	0.009844622574746609	-0.0038842796348035336	0.0026752357371151447	-0.0951240286231041	0.042558420449495316	-0.008838582783937454	0.018174944445490837	0.00010086087422678247	0.041125115007162094	0.04592200368642807	0.003683357499539852	-0.11626739054918289	0.012133030220866203	0.04567985236644745	-0.27336934208869934	-0.037390779703855515	0.015204844996333122	0.0031741163693368435	-0.016451803967356682	0.02040812186896801	0.005900755058974028	0.002852454548701644	0.11093443632125854	-0.0017747489036992192	-0.08377920091152191	-0.00876592006534338	0.005905609577894211	-0.2108290195465088	0.026255778968334198	-0.005578270647674799	0.008615494705736637	0.09495706111192703	0.017784053459763527	0.00536864111199975	0.00811152346432209	0.005116334650665522	0.002240275265648961	-0.008775408379733562	-0.006836600136011839	-0.036555223166942596	0.05077465623617172	0.04991782084107399	0.010485379956662655	0.03449216112494469	-0.011377512477338314	-0.008413980714976788	-0.062209781259298325	-0.019328687340021133	-0.14369578659534454	-0.035249076783657074	0.006662577856332064	-0.04436066001653671	0.004171977750957012	0.005796323996037245	0.03318459540605545	0.005176415201276541	-0.02024742402136326	0.06992358714342117	-0.013139110989868641	0.10907045751810074	-0.038732822984457016	-0.12376780062913895	0.0021766037680208683	0.006387650500983	-0.05428657308220863	0.01515178568661213	0.01956108585000038	-0.009654958732426167	0.09562879800796509	0.032270122319459915	0.13242991268634796	-0.0020204917527735233	0.0049767885357141495	0.01632077433168888	-0.006228829268366098	0.13863207399845123	0.01096089743077755	-0.009035470895469189	-0.05991658195853233	0.009409552440047264	0.008136059157550335	0.020848477259278297	0.046493999660015106	-0.04410337284207344	-0.01981668546795845	-0.014626014977693558	0.00608130544424057	-0.006547285709530115	0.11453443765640259	-0.00606177281588316	0.11475320905447006	0.005639508366584778	0.004467519000172615
marw1260	0.08204863220453262	-0.01193241123110056	0.1647060066461563	-0.11609640717506409	0.16541139781475067	-0.029725253582000732	-0.2824840247631073	-0.21671630442142487	0.021605363115668297	0.43001240491867065	-0.4849833548069	-0.20262959599494934	-0.16981522738933563	0.0678233876824379	-0.13175684213638306	-0.03176916390657425	-0.14125266671180725	0.026242822408676147	0.009684966877102852	0.08191576600074768	0.10772841423749924	-0.060673344880342484	0.2998577654361725	0.05810299143195152	0.02431347593665123	-0.00027877825777977705	-0.029049064964056015	0.055447857826948166	-0.27559223771095276	0.15941908955574036	0.1329515427350998	0.30814996361732483	-0.12941564619541168	-0.006356542464345694	-0.1965060532093048	-0.04029398038983345	0.015744706615805626	0.06709419190883636	0.024241439998149872	-0.310133159160614	-0.02552413009107113	-0.02124297432601452	0.0028198680374771357	0.32693448662757874	0.09029689431190491	-0.04158550128340721	0.12228760868310928	0.05616264417767525	-0.17457209527492523	-0.050189487636089325	-0.16133229434490204	0.008526919409632683	0.25597620010375977	0.09137189388275146	0.11893738061189651	-0.15889820456504822	0.012492947280406952	0.1349543035030365	-0.23764760792255402	-0.1025262326002121	-0.06774906814098358	0.04636396840214729	0.3157191574573517	-0.027781832963228226	-0.44629859924316406	-0.041628506034612656	0.31631192564964294	-0.4143177270889282	0.024904092773795128	0.04410599544644356	-0.059815965592861176	0.009977546520531178	-0.004738956689834595	-0.002424850594252348	-0.18398186564445496	0.10381585359573364	-0.24749471247196198	0.13292856514453888	-0.04059791564941406	0.13879841566085815	0.0152226397767663	-0.2812139093875885	0.008398809470236301	-0.06847815960645676	0.2618861794471741	-0.24000988900661469	-0.39249929785728455	0.028586767613887787	0.01500554010272026	0.2728743255138397	-0.10032175481319427	-0.23369553685188293	-0.14588113129138947	-0.03445332124829292	0.20361724495887756	-0.11351077258586884	-0.12186995893716812	0.0482693649828434	-0.01841854304075241	0.3612011969089508	0.019662732258439064	0.015793979167938232	-0.06467584520578384	-0.004878252279013395	-0.29809096455574036	0.3908156454563141	0.004220759030431509	-0.00033052818616852164	-0.244299054145813	-0.20000439882278442	-0.24106799066066742	-0.028354594483971596	-0.036212146282196045	-0.04420442879199982	-0.03667665272951126	0.039085838943719864	0.010088859125971794	0.004833861719816923	0.1303004026412964	-0.07606882601976395	-0.024087168276309967	0.0009333482594229281	-0.05504680424928665	0.10786808282136917	0.022402390837669373	-0.021107304841279984	0.01737687550485134	0.04497098550200462
