aret1240	0.394648939371109	-0.1255916804075241	0.10532256960868835	-0.21540981531143188	-0.04818000644445419	-0.5107192993164062	-0.07151590287685394	-0.36474767327308655	-0.1683119386434555	-0.09093277901411057	-0.1421898454427719	0.10541148483753204	-0.0482332706451416	0.08344285935163498	0.13107295334339142	0.045866332948207855	-0.21804913878440857	0.28298282623291016	-0.1654849350452423	-0.10964246839284897	-0.28955787420272827	-0.1336529701948166	0.43878358602523804	-0.3122099041938782	0.10394881665706635	0.09244175255298615	0.24497081339359283	0.19182848930358887	-0.14407509565353394	-0.00959558505564928	0.10542327165603638	-0.14939218759536743	0.26547983288764954	-0.02152179926633835	0.08126020431518555	-0.07807198911905289	0.078608438372612	0.031526751816272736	0.48041388392448425	-0.3334784209728241	-0.15139032900333405	0.11234691739082336	0.20151078701019287	-0.18877458572387695	-0.09056345373392105	-0.2199351191520691	-0.01898861676454544	0.06949137151241302	-0.11247780919075012	-0.2476845383644104	0.3515870273113251	-0.09843450784683228	0.06593015789985657	-0.27075889706611633	0.5406350493431091	-0.07034940272569656	-0.39975860714912415	0.1104438528418541	0.31235694885253906	0.13164617121219635	0.3724891245365143	0.0968727096915245	0.20466409623622894	0.022846030071377754	-0.023932768031954765	-0.2711320221424103	0.22640934586524963	-0.30183103680610657	0.17079667747020721	-0.014808626845479012	0.3577998876571655	0.16762381792068481	-0.21965621411800385	-0.06957656145095825	-0.19161468744277954	-0.2751789689064026	-0.14099879562854767	0.04969518631696701	-0.3805871307849884	-0.08768825232982635	0.35048481822013855	-0.05089115723967552	0.18891862034797668	0.15836745500564575	0.25260838866233826	0.3004894256591797	-0.24198481440544128	-0.2547159790992737	-0.22969259321689606	0.08934500068426132	0.015187260694801807	0.0894736796617508	-0.19662488996982574	0.14666160941123962	-0.10536448657512665	0.08271662890911102	0.4084457755088806	0.19828984141349792	-0.186416357755661	-0.250186949968338	-0.10761994123458862	-0.2493380308151245	0.08366264402866364	-0.1011940985918045	-0.04342176020145416	0.024140335619449615	-0.02533160336315632	-0.14194516837596893	0.20157989859580994	-0.032082200050354004	0.2892038822174072	0.17370212078094482	0.25772738456726074	0.030032914131879807	-0.05471555143594742	-0.3278188407421112	-0.17872776091098785	-0.16094551980495453	-0.11774780601263046	-0.07159363478422165	0.063247911632061	-0.21633069217205048	-0.33350393176078796	-0.19666850566864014	0.18938449025154114	-0.45044416189193726	-0.17043118178844452	-0.012155447155237198
assa1263	0.0662984773516655	-0.01422765664756298	0.15351369976997375	0.22505608201026917	0.23212246596813202	0.06087719276547432	-0.023764105513691902	0.25292423367500305	-0.15326207876205444	0.09532050043344498	0.04694180563092232	0.04477247595787048	0.22049757838249207	-0.21417079865932465	-0.04347563534975052	-0.08794426918029785	-0.012793882749974728	-0.14739295840263367	0.027089187875390053	-0.1143786609172821	0.14726318418979645	-0.08697468042373657	-0.1447763741016388	-0.011180519126355648	-0.1366407424211502	-0.09897669404745102	-0.1538877785205841	-0.21099792420864105	0.17741119861602783	0.1633361577987671	-0.09793395549058914	-0.21121200919151306	0.26334306597709656	-0.053173258900642395	-0.10624834150075912	0.16466124355793	0.08086690306663513	0.0149936992675066	-0.09579426050186157	-0.08328688889741898	-0.27102339267730713	-0.0851573571562767	0.09912265837192535	-0.1537395715713501	-0.19162893295288086	0.08985888212919235	-0.07732755690813065	0.22380869090557098	0.08617208153009415	-0.08052819222211838	0.03652115538716316	-0.1402050405740738	0.11315643042325974	0.11105082184076309	-0.04376041516661644	0.12137139588594437	0.1648142784833908	-0.015743166208267212	-0.0923781618475914	0.011132411658763885	-0.09974747896194458	0.11042741686105728	0.15366226434707642	0.01261313445866108	-0.17891868948936462	0.2193446010351181	0.14140361547470093	-0.011663754470646381	-0.24208186566829681	0.23957329988479614	-0.07824970781803131	0.15295419096946716	-0.022921670228242874	-0.31341299414634705	0.11031262576580048	-0.31161820888519287	0.02889133431017399	0.008200114592909813	-0.05670681223273277	-0.03443294018507004	0.08213984221220016	0.18756654858589172	-0.1730567067861557	0.0722758024930954	0.1499362587928772	-0.13670508563518524	-0.3229275047779083	0.24800734221935272	-0.07272899150848389	0.13642103970050812	-0.12888070940971375	-0.24292771518230438	0.01654829829931259	0.046080391854047775	0.1457740068435669	-0.04791764169931412	-0.02381162717938423	-0.07976124435663223	0.0018786158179864287	-0.0395394042134285	-0.14387069642543793	0.15703916549682617	-0.02937415800988674	0.20066209137439728	0.042322684079408646	0.06531631201505661	-0.10908912122249603	-0.0569232702255249	0.048330917954444885	0.07334622740745544	-0.10659279674291611	0.1365310102701187	0.07751314342021942	-0.1331022083759308	-0.10134710371494293	0.0001763830950949341	-0.037824973464012146	0.1199786365032196	0.0588265061378479	-0.13859346508979797	-0.10705167800188065	0.0310595091432333	-0.23903968930244446	0.05393323302268982	0.10701216757297516	0.3009796440601349	0.06438478082418442	0.12462905794382095
bagh1251	-0.057614460587501526	-0.03507538139820099	0.05134747922420502	-0.22216537594795227	0.13252954185009003	-0.1641910821199417	-0.1171984001994133	-0.15906324982643127	0.12701334059238434	0.05807920917868614	0.20787781476974487	-0.15266893804073334	0.29822129011154175	0.14803162217140198	0.09840879589319229	-0.15519826114177704	0.09475130587816238	-0.06657298654317856	0.09311147034168243	0.26552900671958923	0.0025040186010301113	-0.029343120753765106	0.18327395617961884	0.2115064412355423	-0.2162579745054245	0.28995567560195923	0.10257533192634583	0.14531151950359344	0.07582000643014908	-0.12969915568828583	0.04524269700050354	0.17491628229618073	0.15828895568847656	-0.279819130897522	-0.0047302087768912315	-0.03399309143424034	0.15855258703231812	-0.04661508649587631	-0.07049733400344849	0.2000178098678589	-0.28920069336891174	-0.02785053662955761	-0.09860286861658096	0.13344600796699524	0.15232867002487183	0.010182434692978859	0.05047902092337608	0.12227663397789001	-0.029352039098739624	-0.09362392872571945	0.08479634672403336	-0.12951359152793884	-0.3124273419380188	-0.16157282888889313	-0.1517031341791153	0.16681091487407684	0.17697055637836456	-0.16110830008983612	0.035515233874320984	0.012478816322982311	-0.05784756317734718	0.05284563824534416	0.0397033616900444	-0.30881673097610474	0.3620482385158539	-0.15858376026153564	0.05097511038184166	-0.03591158986091614	-0.14287318289279938	-0.11783146113157272	-0.26690950989723206	0.08829473704099655	0.13237978518009186	0.15814648568630219	0.0006935985293239355	0.035617511719465256	-0.06362581253051758	0.09207169711589813	-0.1250983029603958	-0.14351986348628998	-0.08757656067609787	0.1645488739013672	0.017256712540984154	0.23333622515201569	0.2398490160703659	-0.09700018167495728	0.06493712961673737	-0.07230103760957718	0.22693347930908203	0.18237406015396118	-0.10526664555072784	-0.2909895181655884	0.005736377090215683	-0.044506870210170746	-0.1546759009361267	-0.06493572145700455	0.04507260397076607	0.30164390802383423	0.20409879088401794	0.029003074392676353	-0.014819728210568428	0.10421879589557648	0.06663757562637329	0.026206156238913536	0.0390939824283123	0.029759826138615608	-0.13135550916194916	0.0015576856676489115	-0.008528842590749264	-0.21388541162014008	0.11178199201822281	0.0010050327982753515	-0.0750073567032814	-0.061843764036893845	0.16273489594459534	-0.16885018348693848	-0.16068215668201447	-0.20635704696178436	0.12393851578235626	-0.0763881728053093	-0.2434999644756317	-0.0077835689298808575	-0.2928906977176666	0.11929012835025787	-0.04808337241411209	-0.19246365129947662	-0.016924329102039337	0.11158830672502518
beng1280	-0.014504057355225086	-0.01334376446902752	-0.08089093863964081	0.038883358240127563	-0.12141446769237518	0.08011128008365631	0.028867026790976524	-0.013546084053814411	-0.19993481040000916	0.01886199787259102	0.2119852602481842	-0.13631513714790344	-0.0038267518393695354	0.022023161873221397	-0.1452263593673706	0.02798168919980526	-0.05572124198079109	-0.06439325958490372	0.1872643083333969	0.08054103702306747	0.006450084503740072	-0.04631291702389717	-0.10551287978887558	0.03141938894987106	0.10400577634572983	0.09667467325925827	-0.06978749483823776	0.13213026523590088	0.22297805547714233	0.2611456513404846	-0.1411893367767334	-0.13111916184425354	-0.0051922849379479885	0.0597141832113266	0.12346336990594864	-0.05603761598467827	0.036721765995025635	-0.2628496587276459	-0.20761027932167053	-0.12681595981121063	-0.05413411930203438	-0.08366960287094116	-0.1834447830915451	0.1657910794019699	0.06381924450397491	0.10709287226200104	0.112777478992939	0.21705745160579681	0.1508633941411972	-0.11423122137784958	0.16337724030017853	0.2669649124145508	0.04620909318327904	-0.20789723098278046	-0.10882604122161865	-0.12648318707942963	-0.11444416642189026	-0.08286162465810776	0.024997204542160034	0.1196688786149025	0.08143750578165054	-0.10043579339981079	-0.09287102520465851	-0.04723600298166275	0.0778435468673706	0.12042547017335892	-0.001427522744052112	-0.17201219499111176	0.0679330825805664	0.1625874936580658	-0.1203223317861557	-0.12478504329919815	-0.029138557612895966	-0.04782990366220474	-0.04264824837446213	-0.23575802147388458	0.03384651988744736	0.07689648866653442	0.04310023784637451	-0.14151392877101898	0.047263115644454956	0.09305519610643387	0.08129405975341797	0.1395334005355835	-0.10227502137422562	0.029792366549372673	-0.14813673496246338	0.19677181541919708	-0.13146457076072693	0.01947803981602192	-0.28997594118118286	-0.0812743529677391	0.23319478332996368	-0.1732759028673172	0.020139744505286217	0.0271187424659729	0.15630565583705902	0.019087618216872215	-0.20819738507270813	0.034160315990448	-0.05739016458392143	-0.02967413142323494	-0.11419091373682022	0.09879707545042038	0.01430284883826971	-0.10499689728021622	0.15202388167381287	0.0780271515250206	-0.02212330885231495	0.06357240676879883	0.04584694653749466	0.18663232028484344	0.26223984360694885	-0.02944248914718628	0.06544702500104904	0.006636722479015589	-0.10297667235136032	-0.030456382781267166	-0.016058912500739098	0.07486332207918167	0.13672073185443878	0.08728646486997604	-0.10717276483774185	-0.10051365196704865	-0.01129179634153843	0.10495202988386154	0.07043753564357758	0.07561362534761429
bhad1241	0.06082721799612045	0.02360670454800129	0.06488484889268875	0.13194449245929718	0.3230602741241455	0.039719246327877045	0.3872717618942261	0.10426408052444458	-0.09550581127405167	-0.09277024865150452	-0.09397868067026138	-0.08687558025121689	-0.05884210392832756	-0.16063427925109863	0.10781501978635788	0.2882482707500458	-0.07046381384134293	-0.4593910276889801	-0.1255870908498764	0.0866386741399765	-0.009270306676626205	0.1430463343858719	0.17888382077217102	-0.03879343718290329	0.13277402520179749	0.1968773901462555	0.020007412880659103	-0.03782021626830101	-0.3275690972805023	-0.06516988575458527	-0.17137101292610168	0.06765396893024445	0.13835498690605164	0.18390727043151855	0.2600383460521698	-0.12472540140151978	0.18120703101158142	0.07400310784578323	0.08200262486934662	0.20299026370048523	0.43335041403770447	0.19647176563739777	0.047581568360328674	-0.09676738828420639	0.03815261647105217	-0.08442401140928268	0.3265467882156372	-0.02164805494248867	0.045110177248716354	0.44884443283081055	0.25674498081207275	0.16651137173175812	0.09285584092140198	-0.27396106719970703	-0.0545208603143692	0.041297607123851776	0.01870293729007244	0.2038700431585312	0.22183550894260406	0.13063471019268036	0.24643652141094208	0.08898448199033737	0.22641423344612122	0.10954972356557846	0.07688319683074951	0.09219180792570114	-0.05106985569000244	-0.04523850977420807	0.16289974749088287	0.2436935305595398	-0.10624871402978897	-0.35463452339172363	0.11924267560243607	-0.20731179416179657	0.008072873577475548	0.19401712715625763	-0.1444348692893982	-0.05593855306506157	-0.10380120575428009	0.06308023631572723	0.07923273742198944	0.06997546553611755	0.1358787566423416	0.17348600924015045	0.0804271474480629	0.28896936774253845	-0.09409813582897186	-0.16451415419578552	0.07927616685628891	0.0399046316742897	0.1851816475391388	0.30498918890953064	-0.3056618571281433	-0.05391617864370346	-0.02147958055138588	-0.15612982213497162	0.1547386646270752	0.10785757750272751	-0.08152367174625397	0.07652894407510757	0.25542181730270386	0.33843016624450684	0.10693991929292679	0.014524521306157112	-0.009539581835269928	0.1894109845161438	-0.14680463075637817	0.12135328352451324	0.1413343995809555	-0.029409034177660942	-0.2660967707633972	-0.20755399763584137	-0.1300283521413803	-0.09491331875324249	0.12790346145629883	-0.04805384948849678	0.04979048669338226	-0.13652916252613068	0.14880181849002838	0.21864277124404907	-0.05747338756918907	0.17183592915534973	-0.2319752424955368	-0.20832301676273346	0.09823957085609436	-0.1303214281797409	0.09284813702106476	0.027849500998854637
bhal1244	-0.09847621619701385	-0.24558235704898834	0.11656084656715393	0.19074222445487976	0.080777108669281	-0.26838767528533936	0.002771496307104826	-0.06670821458101273	-0.07452064007520676	0.06504490971565247	-0.2007073014974594	0.04896173253655434	0.30529651045799255	-0.0006856984691694379	-0.07504779100418091	0.16651137173175812	-0.08953145891427994	-0.26767709851264954	0.032551128417253494	0.001549754524603486	0.04950790852308273	0.06630700081586838	-0.13902178406715393	0.12505589425563812	0.11256486177444458	0.1710633486509323	-0.299142450094223	-0.020397651940584183	-0.33601170778274536	-0.06609208136796951	0.14011457562446594	-0.2685275673866272	-0.03320680186152458	0.16057878732681274	0.11442914605140686	-0.19655656814575195	0.07221511751413345	0.25564923882484436	-0.029475614428520203	0.034263547509908676	0.403293639421463	0.11875433474779129	0.2100961059331894	-0.01022537611424923	0.11775028705596924	-0.33482635021209717	0.0883624479174614	0.0009788485476747155	0.059280797839164734	0.16419489681720734	0.33023756742477417	0.2846575379371643	-0.017463020980358124	-0.046180956065654755	-0.26522180438041687	0.014239339157938957	0.23241253197193146	0.29284346103668213	0.23924322426319122	0.06032291427254677	0.2954517900943756	0.3764692544937134	0.018345998600125313	0.0825890451669693	0.054960280656814575	0.05002807080745697	0.17571315169334412	0.24810011684894562	0.24823634326457977	0.23568221926689148	0.10070052742958069	-0.2093546986579895	-0.03433055430650711	0.07327443361282349	0.06188492476940155	0.1230834573507309	0.3101690709590912	-0.20472611486911774	-0.10393834859132767	0.03147808834910393	-0.12357176840305328	0.003973111510276794	-0.015343790873885155	-0.049405645579099655	-0.14083531498908997	-0.11905965209007263	0.2776259481906891	-0.03759099543094635	-0.10303919017314911	0.12738776206970215	0.10186251252889633	-0.028763793408870697	-0.13370047509670258	-0.3559347093105316	0.00844571739435196	0.056464049965143204	0.154582217335701	0.13955149054527283	0.08821184933185577	0.17660008370876312	0.2294701784849167	0.08628442138433456	0.14071020483970642	0.007462072651833296	0.025702856481075287	0.21771980822086334	-0.024177012965083122	-0.04361967742443085	0.1792064756155014	0.052086081355810165	0.126397505402565	-0.1659342497587204	-0.15066862106323242	0.04978426918387413	-0.049622997641563416	0.1722945123910904	0.028163932263851166	-0.2024141401052475	0.016127968207001686	-0.2074374556541443	0.09376148134469986	0.19221515953540802	-0.14830081164836884	0.07633907347917557	0.010015529580414295	-0.09486141055822372	-0.23049914836883545	0.22265958786010742
bhoj1244	0.32149481773376465	0.3409845232963562	-0.2767561972141266	-0.1659708172082901	-0.07921088486909866	-0.16026069223880768	-0.15146687626838684	-0.11927513778209686	-0.29576218128204346	0.18497471511363983	0.1831773817539215	-0.18187347054481506	0.04964820295572281	0.21486012637615204	0.07304388284683228	-0.20510448515415192	0.024514248594641685	-0.16052913665771484	0.18343812227249146	0.4209420382976532	-0.09150040149688721	-0.18426890671253204	-0.20583826303482056	0.11889677494764328	-0.27035900950431824	0.23803004622459412	-0.23691271245479584	0.053171105682849884	-0.15105955302715302	-0.07825417816638947	0.039343398064374924	-0.058220893144607544	-0.1879395991563797	-0.1605978012084961	-0.10432325303554535	0.14070604741573334	0.2499937117099762	-0.15842950344085693	-0.005353819113224745	0.029897909611463547	-0.010597661137580872	0.04193459823727608	-0.03341938555240631	-0.24631288647651672	-0.04463572800159454	0.27504128217697144	-0.24381567537784576	0.06047051399946213	0.21490664780139923	0.18525584042072296	-0.19514934718608856	0.17504379153251648	-0.04197979345917702	-0.2041100412607193	0.11042715609073639	0.23477664589881897	0.08576789498329163	0.20593027770519257	0.04158169403672218	0.14195911586284637	-0.3116765320301056	-0.10824532806873322	0.1155102476477623	0.012589657679200172	0.19231551885604858	0.16121625900268555	0.3265584409236908	-0.2401753067970276	-0.37116751074790955	0.036416616290807724	-0.029653621837496758	0.26725783944129944	0.14378288388252258	0.07009585946798325	0.18113988637924194	0.08399481326341629	-0.11735161393880844	0.21745449304580688	0.09729517251253128	0.083772212266922	-0.07418127357959747	0.17369262874126434	-0.10573220252990723	0.15715816617012024	0.12375141680240631	-0.2648269534111023	0.22463908791542053	0.002016209764406085	-0.09887605160474777	0.00903063453733921	0.20263874530792236	0.10815411806106567	-0.07000008970499039	-0.16464298963546753	-0.08439698070287704	-0.1280892938375473	0.1729889214038849	-0.05922415107488632	-0.14431095123291016	-0.13550859689712524	0.14446456730365753	0.32545754313468933	0.10411352664232254	0.1651085913181305	-0.11018440127372742	-0.008454062975943089	-0.1505758911371231	0.2580513656139374	-0.036013707518577576	0.2833033502101898	0.3941608667373657	0.08165699988603592	0.01597576215863228	-0.19286905229091644	0.21144433319568634	0.15268132090568542	-0.1516706496477127	0.05199895426630974	-0.20350328087806702	0.15480385720729828	-0.15969426929950714	-0.10870455205440521	0.14601552486419678	0.12697219848632812	0.23469270765781403	0.22521190345287323	-0.3182898163795471	-0.03598623350262642
braj1242	-0.4817858636379242	0.09724599868059158	-0.626069188117981	0.08099467307329178	0.35683485865592957	0.21278730034828186	-0.18629802763462067	-0.120183564722538	-0.1722695231437683	0.35720521211624146	0.15443240106105804	0.09005233645439148	0.017337411642074585	0.19478358328342438	-0.12708941102027893	0.08569019287824631	0.18721820414066315	0.03662317618727684	-0.045731835067272186	0.3470291197299957	0.2793447971343994	-0.10064529627561569	0.021968292072415352	0.12248564511537552	-0.06979762762784958	0.10296882688999176	0.2099774181842804	-0.05329345166683197	-0.15214522182941437	-0.3102894723415375	0.1272435188293457	-0.48523202538490295	-0.1769169121980667	-0.3060277998447418	-0.04102072864770889	0.07903337478637695	-0.10224159806966782	-0.05867917463183403	0.34623003005981445	-0.1220918670296669	0.18984635174274445	0.0851195901632309	-0.10379649698734283	-0.1907898485660553	-0.32076168060302734	0.004684593062847853	-0.021663129329681396	-0.0713556781411171	-0.3483579754829407	0.30624115467071533	0.03584464639425278	0.08825492858886719	-0.12233716249465942	0.08352743089199066	0.23736675083637238	0.36865103244781494	-0.14668290317058563	-0.14052461087703705	0.22869150340557098	0.07463214546442032	0.29950079321861267	0.11548744142055511	0.2264031618833542	-0.25847744941711426	0.141084685921669	-0.1844472885131836	0.04284258931875229	-0.10417702794075012	-0.17067931592464447	0.2649692893028259	-0.08520945906639099	-0.0309361033141613	0.08794014900922775	0.02343238890171051	-0.08076257258653641	0.24882912635803223	0.2884739935398102	0.3518431782722473	-0.2568024694919586	-0.06530957669019699	0.19464603066444397	0.06955129653215408	-0.043978091329336166	0.16906201839447021	0.004426596686244011	-0.014340882189571857	0.09549138695001602	-0.16525638103485107	0.1849992573261261	0.2634561359882355	-0.014254559762775898	-0.1638394594192505	0.07051026821136475	-0.015946203842759132	0.164046511054039	-0.3850969672203064	-0.014803907833993435	0.11862482875585556	-0.0008515091612935066	-0.35542556643486023	-0.181673064827919	0.6134641766548157	0.11496429890394211	-0.19100241363048553	0.06314567476511002	0.24598149955272675	0.06079075485467911	-0.07121015340089798	0.03403262048959732	-0.36010271310806274	0.21018046140670776	0.10394176095724106	-0.24530480802059174	-0.3093181550502777	0.3305223882198334	0.3922046422958374	-0.33352115750312805	-0.1511085033416748	0.12237325310707092	0.018875254318118095	0.1741490215063095	0.014109612442553043	-0.3566558063030243	0.08572746813297272	0.3201550841331482	-0.2168974131345749	-0.007653930224478245	-0.28722575306892395
cham1307	-0.30711647868156433	-0.16559788584709167	-0.2927386462688446	-0.19623541831970215	-0.4622610807418823	0.16031423211097717	-0.25591760873794556	0.1913614571094513	0.16989238560199738	-0.18947024643421173	-0.22146596014499664	-0.07045987248420715	0.058298371732234955	-0.009007538668811321	0.08620649576187134	-0.2257479578256607	-0.06433809548616409	-0.148443341255188	0.14421381056308746	-0.21806766092777252	0.028876064345240593	-0.09523478150367737	-0.0926092118024826	-0.12333744019269943	-0.005606515798717737	-0.18944406509399414	0.14339658617973328	-0.2503127455711365	-0.011220982298254967	0.2592766582965851	-0.102096788585186	-0.15198160707950592	-0.12656116485595703	0.19717930257320404	-0.1684906929731369	-0.004056993406265974	-0.2493225783109665	0.3069056272506714	-0.28791260719299316	-0.02473047561943531	0.5874849557876587	0.3770615756511688	-0.3236308991909027	0.03025648184120655	0.3364187479019165	0.06087641790509224	0.17939706146717072	-0.005611741449683905	0.19971266388893127	-0.25259384512901306	0.02708858624100685	-0.16445402801036835	0.1793813854455948	0.0012585099320858717	-0.07705217599868774	0.10750783234834671	-0.07215391099452972	0.4204225242137909	0.2687546908855438	-0.4273962378501892	0.2843557298183441	-0.2135387659072876	0.013189854100346565	-0.2587038278579712	0.3589570224285126	-0.1926998347043991	0.12280292063951492	0.18963421881198883	-0.2383195459842682	0.036515384912490845	-0.21958860754966736	0.020161008462309837	-0.16602979600429535	0.04765044525265694	-0.020689014345407486	0.13366462290287018	0.022918248549103737	-0.14807955920696259	-0.086469367146492	0.11068611592054367	-0.13191096484661102	0.25509968400001526	0.007996417582035065	-0.3528898358345032	0.0057242740876972675	0.42411935329437256	0.3320297300815582	-0.06990678608417511	0.1426439881324768	-0.14393438398838043	0.022846302017569542	-0.19889377057552338	-0.5681411623954773	0.13608986139297485	-0.04706066474318504	-0.07931752502918243	-0.10696616768836975	0.4331490397453308	0.07105786353349686	0.23811490833759308	-0.03620365634560585	0.01959836669266224	0.41969943046569824	0.05866511911153793	0.10500966012477875	0.2637540102005005	-0.05769443139433861	-0.09941079467535019	0.05892881751060486	-0.06834118813276291	0.028827039524912834	-0.02967635728418827	0.1051831915974617	-0.1490333378314972	0.1072172224521637	-0.08161870390176773	-0.14559206366539001	0.08027366548776627	-0.0970245823264122	-0.30984970927238464	0.22634387016296387	0.23585830628871918	0.44870564341545105	0.2435341626405716	-0.04681487753987312	0.16310550272464752	-0.09784512966871262	-0.14832256734371185
chur1258	-0.248061403632164	-0.21233290433883667	-0.3243350684642792	0.03562923148274422	0.39164483547210693	-0.14329814910888672	0.12039188295602798	0.05912962555885315	0.403007447719574	-0.1003149226307869	-0.038191307336091995	0.028001010417938232	-0.04035073518753052	0.09385795146226883	0.2270156741142273	0.14076118171215057	-0.30598875880241394	-0.045107871294021606	0.046012766659259796	-0.18280209600925446	-0.2350206822156906	0.12127986550331116	-0.03440486267209053	0.036424219608306885	0.007509789429605007	0.2226940244436264	-0.11011429131031036	-0.14903521537780762	0.10214688628911972	0.10191274434328079	-0.33995261788368225	-0.2366214245557785	-0.07931900024414062	0.332415372133255	0.0007705987663939595	-0.3150555491447449	-0.020801156759262085	-0.1351407766342163	-0.017899924889206886	-0.09050536155700684	0.46755197644233704	0.4519583582878113	-0.10879283398389816	-0.11224476993083954	0.10915403068065643	0.06994106620550156	0.3551276624202728	-0.17822135984897614	-0.2985198199748993	-0.016300348564982414	0.02494739182293415	-0.3267847001552582	-0.010628553107380867	-0.2791978120803833	-0.08970290422439575	0.3564808666706085	-0.14561283588409424	0.15551626682281494	-0.1537759155035019	-0.21846868097782135	0.07152540981769562	-0.23235484957695007	0.22643762826919556	-0.0126133281737566	0.23456139862537384	0.0738743245601654	0.07820620387792587	0.0047963764518499374	0.015832843258976936	-0.14046642184257507	0.030254246667027473	-0.18924275040626526	0.17077025771141052	-0.17064546048641205	0.16515961289405823	0.1799592524766922	-0.24033434689044952	-0.07795079797506332	-0.025109343230724335	-0.17810693383216858	-0.19662006199359894	0.1513252556324005	0.15074481070041656	0.021027063950896263	-0.02011439949274063	0.06298255920410156	0.19750981032848358	-0.046584464609622955	0.3729695975780487	0.0902157872915268	0.005211159586906433	-0.02787494659423828	-0.5766613483428955	0.036368902772665024	-0.08113226294517517	-0.03455835208296776	0.4802652597427368	0.1547686606645584	0.03658677637577057	-0.08375407010316849	-0.08652133494615555	0.22622713446617126	0.40540292859077454	0.09719843417406082	-0.048584338277578354	0.234896719455719	-0.12235511094331741	-0.05286450311541557	0.4687495231628418	0.24251636862754822	0.184390127658844	-0.23198401927947998	0.09076331555843353	-0.003944958560168743	0.017243361100554466	-0.04850352555513382	0.15287935733795166	-0.10696299374103546	0.1432417631149292	0.23011642694473267	0.2893178462982178	-0.300454318523407	0.010919190011918545	-0.12189151346683502	-0.08100976794958115	0.0013070274144411087	0.4107586145401001	0.001286438200622797
dame1241	-0.18290622532367706	0.061832278966903687	0.05757426097989082	-0.14180654287338257	-0.049204446375370026	-0.0039001405239105225	-0.270182341337204	0.08723678439855576	0.11354312300682068	-0.03312820568680763	-0.1796787977218628	-0.2268953025341034	0.03547745570540428	0.1699124127626419	-0.05551007762551308	-0.10230355709791183	0.04567105323076248	0.03528711572289467	0.19787585735321045	-0.0007394218118861318	2.93529883492738e-05	-0.16265982389450073	0.28667953610420227	0.06416817754507065	0.17854417860507965	-0.05124349892139435	-0.42265698313713074	0.2808578908443451	0.1648441106081009	-0.042783260345458984	0.015768444165587425	0.3015183210372925	0.22789344191551208	-0.009330988861620426	-0.030583029612898827	-0.1818268895149231	-0.32042834162712097	-0.17072688043117523	0.10801513493061066	-0.0002639523590914905	-0.11780084669589996	0.06927647441625595	0.22462554275989532	-0.1960614174604416	0.20009249448776245	-0.173241525888443	-0.06761186569929123	-0.22624383866786957	-0.12716031074523926	0.2180515080690384	0.3434866964817047	0.20398911833763123	0.2805078625679016	-0.22566182911396027	0.2851492464542389	0.3029050827026367	-0.2820814251899719	0.032287608832120895	-0.16848841309547424	0.3446475565433502	0.08518119156360626	-0.05837133899331093	-0.1559562087059021	-0.07724186033010483	-0.2728787958621979	0.048318374902009964	0.19716240465641022	0.0791834369301796	-0.2085624784231186	0.1372310370206833	0.23237492144107819	-0.08399464935064316	-0.1330748200416565	0.07196919620037079	-0.1745731383562088	-0.1717103123664856	0.0038207038305699825	-0.25371044874191284	-0.23768319189548492	0.058159392327070236	0.21854302287101746	0.0449565164744854	0.15708079934120178	0.3628162443637848	0.18380919098854065	-0.4185505509376526	-0.056891705840826035	0.07526440918445587	-0.025475667789578438	0.1881929636001587	0.07206206768751144	-0.14228223264217377	-0.009971251711249352	0.37005066871643066	0.060081593692302704	-0.00010139778896700591	0.15175621211528778	0.07786229252815247	-0.022772235795855522	-0.2889823615550995	0.16196168959140778	-0.04918903112411499	-0.06328008323907852	0.312667578458786	-0.0552065446972847	-0.2851327359676361	0.14360707998275757	-0.08853014558553696	-0.29194900393486023	0.24777647852897644	-0.28433874249458313	-0.02288898080587387	-0.1146872416138649	-0.18848197162151337	-0.23851601779460907	0.03496554493904114	0.02276388742029667	0.1506941020488739	0.21299463510513306	0.14502926170825958	-0.4264637529850006	0.020096374675631523	-0.11626557260751724	0.028276512399315834	0.29306551814079285	-0.17559878528118134	-0.38663914799690247	0.22629785537719727
dhiv1236	0.006871555931866169	-0.07016396522521973	0.16131404042243958	-0.09928077459335327	-0.050193317234516144	0.024402199313044548	-0.1094975471496582	0.15201334655284882	0.042888522148132324	-0.12750230729579926	0.24891303479671478	-0.3080640137195587	-0.18828274309635162	-0.206658273935318	-0.36224302649497986	-0.21941938996315002	0.2644173800945282	-0.2487577199935913	-0.17767909169197083	-0.09832896292209625	0.27777886390686035	-0.12219557911157608	0.06354556232690811	-0.4693765938282013	-0.04454740136861801	-0.3250604271888733	-0.2244049608707428	0.1844889521598816	-0.039253443479537964	0.14784853160381317	0.23296888172626495	-0.20774035155773163	0.366204172372818	0.0750906690955162	0.12337218225002289	-0.07387540489435196	-0.20055894553661346	-0.04509242624044418	-0.4046199917793274	-0.22916936874389648	0.12774470448493958	-0.21089957654476166	0.3781926929950714	-0.2922016978263855	-0.23729248344898224	-0.2332494705915451	0.16438539326190948	0.01570519059896469	0.024805644527077675	-0.07069548219442368	-0.3984665274620056	-0.33588963747024536	0.07947695255279541	0.07566062361001968	-0.057154178619384766	0.09894803911447525	0.3070780336856842	-0.23811498284339905	-0.10605595260858536	0.17907899618148804	0.17648084461688995	-0.13073678314685822	-0.3754916489124298	0.13512533903121948	0.15448608994483948	0.38132789731025696	0.20745736360549927	0.2087441235780716	0.02764745242893696	-0.09089037775993347	0.16430319845676422	0.37312766909599304	0.25297823548316956	0.013539658859372139	0.3053016662597656	0.24341276288032532	-0.08077990263700485	-0.10007646679878235	-0.07701510190963745	-0.4727099537849426	0.1910848617553711	0.006613627541810274	-0.1035885289311409	-0.3385491967201233	0.010762881487607956	0.17976564168930054	-0.523219883441925	-0.002526672789826989	0.015098645351827145	-0.12622785568237305	0.2968893051147461	0.4972708225250244	8.67660201038234e-05	-0.03157205507159233	-0.2886139452457428	-0.02208898589015007	-0.25822147727012634	-0.030477192252874374	0.10463756322860718	0.14070731401443481	0.03913251683115959	-0.008425373584032059	0.21627946197986603	0.4454711377620697	-0.11243507266044617	-0.0029236527625471354	-0.026359733194112778	-0.25573232769966125	-0.18571436405181885	-0.06581200659275055	-0.3507688641548157	-0.2305828332901001	0.12843549251556396	-0.022514639422297478	-0.08276314288377762	0.04438763111829758	0.047895923256874084	-0.19618748128414154	0.010457205586135387	-0.21849748492240906	0.2381432056427002	-0.4209323525428772	0.09045586735010147	-0.17964677512645721	0.2686888575553894	-0.13086611032485962	0.05520382523536682	0.1706525832414627
doma1260	-0.027930617332458496	0.06855633109807968	0.12463651597499847	-0.07897975295782089	-0.22761628031730652	-0.19825157523155212	-0.015526332892477512	0.2208484262228012	0.1534845530986786	0.054661646485328674	-0.11035501956939697	0.05783173069357872	-0.17201673984527588	0.34771034121513367	-0.07490650564432144	-0.07044060528278351	0.3931041359901428	0.03420666605234146	0.2704928517341614	-0.3116242587566376	-0.13404718041419983	-0.2216355949640274	0.23039580881595612	-0.4513867199420929	-0.04111730307340622	0.21260106563568115	0.19452232122421265	-0.28418415784835815	0.25122252106666565	-0.020618848502635956	0.3943331241607666	0.09393809735774994	0.5408174395561218	0.2965850234031677	-0.3589054048061371	-0.2439059317111969	-0.009514018893241882	0.0854165330529213	0.3625677525997162	-0.5393427014350891	-0.10390493273735046	0.22996467351913452	0.03882404416799545	-0.12539947032928467	-0.21368664503097534	0.017187561839818954	-0.007827802561223507	-0.13830071687698364	-0.11484955251216888	-0.18165622651576996	-0.1997939497232437	0.12168258428573608	0.3914892375469208	-0.027688318863511086	0.1036267951130867	-0.1828455626964569	0.012211757712066174	-0.2618558406829834	0.1514929085969925	-0.3170223832130432	0.3605233132839203	0.09526879340410233	0.33108970522880554	0.14625869691371918	0.054729312658309937	0.1011369451880455	0.11103451251983643	-0.317733496427536	0.4627605974674225	-0.28827184438705444	-0.095705546438694	0.13651317358016968	0.23633524775505066	-0.38186851143836975	-0.10795725882053375	-0.10609527677297592	-0.14843830466270447	-0.06599109619855881	0.05789661034941673	-0.31684383749961853	0.039264973253011703	-0.09714954346418381	0.05898142233490944	0.027107980102300644	0.10068544000387192	0.14094537496566772	0.022657133638858795	-0.08777125924825668	-0.2914474308490753	0.12206979840993881	-0.30951395630836487	-0.05776669830083847	0.10635819286108017	-0.1451883465051651	-0.2924139201641083	0.09793371707201004	-0.029392458498477936	-0.06482431292533875	0.012468528933823109	-0.06655203551054001	-0.08474772423505783	-0.22217528522014618	0.06013154983520508	0.0396418459713459	0.027997199445962906	-0.2740468978881836	0.07134608924388885	-0.2495533525943756	0.12707379460334778	0.07924311608076096	0.17054718732833862	-0.07834497094154358	-0.08943751454353333	0.035016659647226334	0.24446265399456024	0.10987383127212524	0.3858098089694977	-0.026345204561948776	-0.32850655913352966	-0.1359848529100418	0.015955129638314247	0.1873689889907837	0.032499559223651886	0.022392768412828445	0.2943839132785797	0.13712096214294434	-0.18139363825321198	-0.15572716295719147
gang1265	-0.26136094331741333	0.24945293366909027	0.110721655189991	-0.10242445021867752	-0.14648553729057312	-0.10874168574810028	-0.23179380595684052	0.12475225329399109	-0.06754513829946518	-0.05360765382647514	0.180747851729393	-0.06601167470216751	0.18793964385986328	0.23306860029697418	0.4341426193714142	-0.18205435574054718	0.09633440524339676	0.05889478325843811	0.3364230692386627	0.08833907544612885	-0.1601240634918213	-0.13736708462238312	0.3173743188381195	0.10778561234474182	-0.06270968914031982	0.23592562973499298	-0.12908872961997986	0.00027935777325183153	0.27304607629776	-0.25457948446273804	-0.02595401182770729	-0.07960211485624313	0.0954342782497406	0.06691966205835342	0.08716879785060883	0.08857379108667374	0.21344563364982605	-0.11725796014070511	0.014882195740938187	-0.0286476481705904	0.1791815459728241	-0.14833950996398926	0.2508719563484192	-0.29037946462631226	-0.2165631651878357	0.05448342114686966	0.0851723775267601	0.10434667766094208	-0.009557787328958511	0.14831320941448212	-0.1937737613916397	-0.08858942240476608	0.13991940021514893	0.19233468174934387	0.03346024826169014	0.13283143937587738	-0.007924659177660942	-0.1414230763912201	-0.26720428466796875	-0.1768656224012375	-0.29064834117889404	0.17567642033100128	0.22141125798225403	0.02336786314845085	0.0009525266359560192	-0.05918991565704346	-0.10620459169149399	-0.07640979439020157	-0.2765201926231384	-0.11434225738048553	0.010127348825335503	-0.01890360377728939	-0.04803076758980751	-0.13700707256793976	-0.14072807133197784	-0.07655523717403412	-0.16168202459812164	0.39225515723228455	-0.25064995884895325	-0.09319104254245758	-0.23864199221134186	0.32148632407188416	0.2628045082092285	0.24909399449825287	-0.20439426600933075	-0.17632924020290375	-0.07758832722902298	0.04583088681101799	0.10292725265026093	0.20052364468574524	-0.021948697045445442	-0.2927986979484558	0.007069693878293037	-0.08331423252820969	-0.15408341586589813	-0.10916629433631897	-0.186056450009346	0.21679545938968658	0.04905124008655548	-0.07483820617198944	0.09415224939584732	-0.07509629428386688	0.12152615934610367	0.10922311246395111	-0.05838857591152191	0.43836355209350586	-0.15742430090904236	0.22727644443511963	-0.08657684177160263	-0.30351710319519043	0.19842369854450226	0.18296152353286743	-0.1929996907711029	-0.20815622806549072	-0.04508237540721893	0.1763455718755722	-0.3183170258998871	-0.4030348062515259	-0.08504071831703186	0.05101637914776802	0.13116547465324402	-0.1384221315383911	-0.18836751580238342	-0.02987011708319187	0.02416238933801651	-0.18011263012886047	-0.028711294755339622	-0.004138534888625145
garh1243	-0.20757076144218445	-0.40896353125572205	0.22341996431350708	-0.2442030906677246	0.2421039640903473	0.09954864531755447	-0.1440896987915039	-0.0964985117316246	0.011283516883850098	0.0416296161711216	0.006893702317029238	0.1906071901321411	-0.1648309975862503	-0.08018992841243744	0.23411579430103302	-0.003954744432121515	0.004666194319725037	-0.12969297170639038	0.057911720126867294	0.2681606411933899	-0.164719358086586	-0.2772412598133087	-0.15215106308460236	0.345877081155777	0.30776742100715637	0.0022079984191805124	0.19506336748600006	-0.21339485049247742	0.07983674108982086	-0.18710638582706451	-0.04369720444083214	-0.06300301849842072	0.03876179829239845	0.033925559371709824	-0.2632239758968353	0.11151932179927826	-0.049940355122089386	-0.2654799222946167	0.04419521987438202	0.07847466319799423	0.3140178918838501	0.061514273285865784	-0.09377136826515198	0.02030995860695839	-0.034872300922870636	0.2883451581001282	-0.0015485677868127823	-0.043870553374290466	-0.1884031593799591	0.07774745672941208	0.2273399382829666	-0.2502051591873169	0.15382656455039978	0.3256933093070984	-0.20492300391197205	0.08534768223762512	-0.09470799565315247	0.2075200080871582	-0.00939902663230896	-0.1266818344593048	0.1515955924987793	0.1303085833787918	-0.2700539827346802	0.051154058426618576	-0.03373752906918526	-0.2944912016391754	0.290677011013031	-0.22764897346496582	-0.13602493703365326	-0.06011230871081352	0.040061429142951965	-0.17411404848098755	0.18658307194709778	-0.20706987380981445	-0.004507477395236492	0.36643868684768677	-0.14217865467071533	-0.05399702489376068	0.1831890046596527	0.26555734872817993	-0.14336521923542023	0.07022362947463989	-0.08928486704826355	-0.21620117127895355	0.002178310416638851	0.0660109892487526	-0.007146177347749472	-0.2600207030773163	-0.09794523566961288	-0.30251070857048035	-0.3433716595172882	0.329692006111145	0.3561555743217468	-0.01126366388052702	0.17294183373451233	0.08340609073638916	0.15729638934135437	7.987066055648029e-06	-0.2172425538301468	-0.011147761717438698	0.050259459763765335	-0.2248860001564026	-0.061323948204517365	0.08811657130718231	0.12371642887592316	0.18133535981178284	0.030560212209820747	0.06294670701026917	-0.2458934485912323	-0.11915793269872665	-0.07047125697135925	-0.10717222839593887	-0.3301379978656769	0.15177880227565765	0.1345040500164032	0.01742110215127468	-0.1119316965341568	0.15508542954921722	0.0695122480392456	0.26258522272109985	0.3318682610988617	-0.07226959615945816	0.27601778507232666	-0.2908163070678711	-0.10757118463516235	-0.011451728641986847	-0.04162793233990669	-0.02401787042617798
gawa1247	0.22241686284542084	-0.2302394062280655	0.05444992706179619	0.07411537319421768	0.15270408987998962	0.22782576084136963	0.3701668977737427	-0.015863027423620224	-0.289006769657135	-0.1392912119626999	-0.31732606887817383	0.17041926085948944	-0.08732116222381592	0.1111692488193512	-0.16924843192100525	0.2566315829753876	-0.03911605477333069	-0.1081242635846138	0.023589594289660454	-0.23726330697536469	0.20462384819984436	-0.3325803875923157	-0.10583057999610901	-0.1609714776277542	-0.106571726500988	0.09409917145967484	0.12742897868156433	0.07560615986585617	-0.17797501385211945	-0.16612553596496582	0.2818601131439209	-0.1312362402677536	0.16870033740997314	0.15065348148345947	-0.07416176050901413	-0.003822595812380314	-0.04305122047662735	0.027288302779197693	-0.023802345618605614	0.00426093116402626	-0.022280827164649963	-0.007876891642808914	0.1175306886434555	0.22841519117355347	0.011439230293035507	-0.23091274499893188	-0.2605528235435486	0.09737615287303925	-0.09795524179935455	0.11592695116996765	0.22644318640232086	0.26994794607162476	0.5129537582397461	-0.013081502169370651	0.23817379772663116	0.1744927614927292	-0.30481040477752686	0.08436471223831177	0.21960417926311493	-0.0368325300514698	-0.06415428221225739	-0.29774659872055054	-0.12443938851356506	-0.18648329377174377	-0.12671664357185364	-0.020055005326867104	0.042791739106178284	-0.3532494604587555	-0.28886064887046814	-0.1231774091720581	-0.1372404247522354	-0.20291979610919952	0.147420272231102	0.007801172323524952	0.16184240579605103	-0.2396966516971588	-0.16436782479286194	-0.04239996522665024	-0.34734663367271423	-0.010656120255589485	0.10894225537776947	0.18192285299301147	0.06161070242524147	-0.021121831610798836	-0.007681226823478937	-0.16255152225494385	0.2657313048839569	-0.14141827821731567	-0.17176415026187897	-0.3491973280906677	0.24322648346424103	-0.36210116744041443	-0.43221378326416016	0.12448132038116455	-0.08744821697473526	-0.05605057626962662	-0.05585406348109245	0.14155372977256775	0.015454141423106194	-0.0728040412068367	-0.0095119783654809	0.1220039427280426	-0.03106868453323841	0.2993653416633606	-0.1038513258099556	-0.11245301365852356	0.027043676003813744	-0.018095683306455612	0.0682901069521904	-0.12233926355838776	-0.05504525080323219	0.07301224023103714	-0.05201810970902443	0.08824018388986588	0.10707476735115051	-0.056879010051488876	-0.009953880682587624	0.06466639786958694	0.3398084044456482	-0.1779041737318039	-0.4296712577342987	-0.18035969138145447	0.03171079233288765	-0.029947463423013687	0.12178095430135727	0.02908071130514145	-0.166596457362175	0.4796236753463745
guja1252	-0.01953638531267643	-0.012749538756906986	0.010804743506014347	-0.03910663351416588	0.058656610548496246	0.12436608225107193	0.0684053897857666	0.16029569506645203	-0.024509236216545105	0.04160038381814957	-0.0038436581380665302	-0.0035227348562330008	-0.11850497126579285	0.03275453671813011	-0.10081222653388977	0.09377121925354004	-0.037415485829114914	0.0059998976066708565	-0.052496109157800674	0.18437159061431885	-0.22453179955482483	0.13484656810760498	0.15948082506656647	0.27063050866127014	-0.08894669264554977	-0.1268455535173416	-0.03507940098643303	0.06855430454015732	-0.019685907289385796	-0.03658217191696167	-0.13591109216213226	0.09624229371547699	-0.12328831106424332	0.08340124785900116	-0.04095977172255516	-0.17869932949543	0.14065136015415192	-0.020221397280693054	0.11641630530357361	0.16647693514823914	-0.05787946283817291	-0.09108759462833405	0.017705682665109634	-0.0562230721116066	0.1198032945394516	0.1788172721862793	-0.24450884759426117	-0.037611912935972214	-0.0011412323219701648	0.08554741740226746	-0.004060529638081789	-0.11920418590307236	-0.13426151871681213	0.037007130682468414	-0.039743270725011826	0.08919410407543182	0.01554613746702671	-0.13442455232143402	0.11384259909391403	0.10034825652837753	-0.010934146121144295	-0.0784434899687767	-0.0006204209057614207	0.0035918308421969414	-0.12522965669631958	-0.1371794044971466	-0.08276233822107315	0.10956858098506927	0.07216528803110123	0.04232511296868324	0.1430942267179489	-0.16446252167224884	0.06641951203346252	0.13903559744358063	-0.11216370761394501	0.08892781287431717	0.053941331803798676	0.04005764052271843	0.06313003599643707	-0.011776069179177284	-0.15026740729808807	-0.04370206594467163	0.03816748782992363	0.02449152059853077	-0.19475778937339783	-0.08507495373487473	0.085457943379879	-0.009160506539046764	-0.04560818150639534	0.10777507722377777	0.1884293109178543	0.15606576204299927	0.049487240612506866	0.042673997581005096	0.13465233147144318	0.13967876136302948	0.08973488956689835	-0.12779490649700165	0.08684925734996796	0.001356126507744193	-0.020289745181798935	-0.04731025546789169	-0.058259908109903336	0.05453035607933998	0.0513114407658577	0.1698119044303894	0.0023826209362596273	0.30995601415634155	0.11959148943424225	0.0653274729847908	-0.02732051908969879	0.05818647891283035	0.10637839138507843	0.11679372191429138	-0.12042093276977539	0.040502529591321945	-0.0380549356341362	0.033834055066108704	0.035534586757421494	0.017962636426091194	0.00620645796880126	-0.07168543338775635	0.08594120293855667	-0.058377694338560104	-0.16647957265377045	0.020830098539590836	0.11733956634998322	-0.022092895582318306
hind1269	0.03661841154098511	0.02950606867671013	0.060661736875772476	0.026315070688724518	0.02748686634004116	-0.019696790724992752	0.09717421978712082	-0.06704364717006683	-0.08690252155065536	-0.0009917538845911622	-0.0009198603220283985	0.1325184404850006	-0.07083901017904282	0.09211988002061844	0.06110953167080879	-0.031762294471263885	0.029636265709996223	0.08052048832178116	0.013727201148867607	0.08222674578428268	-0.1167137399315834	-0.0728888064622879	0.04945546016097069	0.00018598946917336434	0.018167342990636826	0.14899131655693054	0.16668911278247833	-0.026140278205275536	-0.04263453930616379	-0.015484892763197422	-0.034581828862428665	0.008499128744006157	-0.12412522733211517	-0.08419504016637802	0.04643884301185608	0.018069440498948097	0.06822707504034042	0.03154559060931206	-0.1628698855638504	0.0749717429280281	0.03785404562950134	-0.06305009126663208	-0.17598049342632294	-0.05990606173872948	0.011330160312354565	-0.01091326866298914	0.11431402713060379	-0.12717688083648682	0.09437848627567291	-0.06938738375902176	-0.0168161541223526	-0.003948177210986614	-0.0909247174859047	-0.08798889070749283	-0.171659916639328	0.05072271078824997	-0.08932085335254669	0.07323295623064041	0.017933037132024765	-0.011302032507956028	-0.09147701412439346	0.04476439207792282	-0.04194873943924904	0.025739256292581558	0.1299264132976532	0.08701776713132858	-0.08565077185630798	-0.1104532778263092	-0.10311219841241837	-0.03749512508511543	-0.03426864743232727	0.0662454143166542	-0.006833972409367561	0.028403984382748604	-0.16283275187015533	0.00551098957657814	0.11240466684103012	-0.054515182971954346	0.0918080061674118	0.09649033099412918	-0.05065456032752991	0.0436982624232769	0.05617402121424675	0.010053425095975399	0.11484373360872269	-0.0024578275624662638	-0.08545679599046707	-0.11736668646335602	0.1776314526796341	0.05169999599456787	-0.07071217894554138	-0.1052045077085495	-0.04260266572237015	0.11967717856168747	0.029112376272678375	0.033642664551734924	-0.12725161015987396	0.16738925874233246	0.0043047103099524975	-0.03305193781852722	-0.04259716346859932	0.10549735277891159	0.05164434015750885	-0.1523406207561493	-0.044115301221609116	0.1263563185930252	0.1511743813753128	0.1659069061279297	-0.09738771617412567	0.09389182925224304	0.05815231427550316	0.17069804668426514	-0.08139089494943619	-0.03153776749968529	0.09691423177719116	-0.0011314748553559184	-0.051074329763650894	-0.036049388349056244	-0.013634300790727139	-0.03751840069890022	0.02352880872786045	0.011635293252766132	0.08702482283115387	0.0816899836063385	0.06416153162717819	-0.03584834560751915	0.020087717100977898	0.056551408022642136
indu1241	-0.24764014780521393	-0.2576439082622528	-0.11275558173656464	0.21611426770687103	0.004370902664959431	0.47222238779067993	-0.32720762491226196	-0.10000051558017731	-0.07439592480659485	0.057410866022109985	-0.2673119306564331	0.07813020050525665	0.2952718138694763	0.2840668857097626	-0.4550803601741791	0.010242321528494358	-0.011096558533608913	-0.24285265803337097	-0.07925033569335938	0.15749488770961761	-0.15297603607177734	-0.3219745457172394	0.009416765533387661	-0.1099167913198471	-0.00427321856841445	0.40036800503730774	-0.31472182273864746	0.06522852182388306	0.2587997615337372	-0.45089736580848694	0.38060203194618225	-0.46557557582855225	0.1336396485567093	-0.06781008094549179	-0.0064210169948637486	-0.011144716292619705	0.3607952296733856	0.10690324008464813	0.21861736476421356	-0.07002115249633789	-0.21758900582790375	0.19352760910987854	-0.08980635553598404	-0.08442822843790054	-0.17088918387889862	-0.30528494715690613	-0.12022639811038971	-0.0505356527864933	-0.04796486720442772	0.07519777864217758	0.11771483719348907	0.33416643738746643	-0.07097674161195755	0.5524081587791443	0.18818916380405426	-0.1496916562318802	0.08094766736030579	0.18759728968143463	0.14823070168495178	0.30825018882751465	-0.03157144784927368	-0.05516434460878372	0.07550039142370224	-0.16654185950756073	0.03885023295879364	0.17189708352088928	-0.0369696207344532	-0.09396933764219284	0.09247636795043945	0.011035218834877014	-0.18914462625980377	0.005324555095285177	-0.2791011333465576	-0.06566565483808517	0.07866235077381134	0.04411176219582558	0.299094557762146	-0.05785205587744713	0.2780144512653351	-0.03371688723564148	0.08201529830694199	-0.4288735091686249	-0.02448589913547039	-0.10717884451150894	0.18455304205417633	0.20001618564128876	0.2170543521642685	0.2833028733730316	0.02820737473666668	-0.16827712953090668	0.24859142303466797	-0.26088377833366394	-0.0024434709921479225	0.08836563676595688	-0.06726633757352829	-0.4069802761077881	0.03448527306318283	-0.0989336371421814	0.0024046534672379494	0.4287292957305908	-0.05514751747250557	-0.28206270933151245	0.3435676395893097	0.18892663717269897	-0.3016696870326996	-0.3459148705005646	-0.05596976727247238	-0.0951421856880188	-0.13952480256557465	0.4609937071800232	-0.4156429171562195	0.31015142798423767	-0.04089111089706421	-0.13599611818790436	0.2795555889606476	-0.2760399878025055	-0.2213946431875229	-0.006110261660069227	-0.22684644162654877	0.10448740422725677	-0.059618912637233734	0.1953178346157074	-0.03684155270457268	-0.06407027691602707	0.48176753520965576	0.4147929251194	-0.0911400243639946	0.2535817623138428
jaun1243	-0.3744659125804901	0.17234782874584198	-0.23689492046833038	0.04459882527589798	0.15002770721912384	0.34444430470466614	0.20677848160266876	0.12883621454238892	-0.06198221817612648	-0.33568376302719116	-0.20605440437793732	0.4927751123905182	-0.063656285405159	0.3368208706378937	-0.05806780606508255	0.1491108387708664	0.22109700739383698	0.05229945853352547	0.30674564838409424	-0.011057225055992603	0.2080346941947937	-0.18413187563419342	-0.06459291279315948	0.2835767865180969	-0.1477973759174347	0.11661197245121002	0.3074192702770233	-0.13338807225227356	0.1559259295463562	-0.20057260990142822	-0.04658031091094017	-0.01632084511220455	-0.015173984691500664	-0.06320425868034363	-0.04757393151521683	-0.12956607341766357	0.11598031967878342	0.018486017361283302	-0.17527426779270172	-0.13875946402549744	0.03270968794822693	0.22253185510635376	-0.21267107129096985	-0.3691199719905853	-0.3405349850654602	0.13346141576766968	-0.2559228539466858	-0.12210144102573395	-0.19861850142478943	0.1453395038843155	0.1476840227842331	-0.08585117757320404	0.09994284808635712	-0.25828444957733154	-0.0012695228215306997	-0.08712578564882278	-0.16475892066955566	-0.10024659335613251	0.2294388711452484	-0.049479126930236816	0.11037374287843704	-0.34111613035202026	0.33786529302597046	0.3232257664203644	-0.22852492332458496	-0.11048806458711624	-0.05166890472173691	0.2909470498561859	-0.24997684359550476	-0.21287627518177032	-0.12729030847549438	-0.04410361126065254	-0.19374877214431763	0.009685992263257504	-0.3015689551830292	-0.05556716397404671	-0.3062441945075989	-0.29066336154937744	0.15986734628677368	-0.4377920627593994	-0.21463187038898468	0.10428754985332489	0.10429982841014862	0.07885357737541199	-0.22342942655086517	0.12080200761556625	0.06540796905755997	0.12173687666654587	0.11114625632762909	0.6248534321784973	-0.2077586054801941	-0.11983396857976913	-0.40090489387512207	0.05260273069143295	-0.17865626513957977	0.0023533026687800884	0.3258388042449951	0.38976436853408813	0.21318712830543518	0.0478639230132103	-0.33229902386665344	0.06285403668880463	0.19701269268989563	-0.2047128528356552	-0.26574233174324036	0.12144187837839127	0.2120654135942459	-0.22777055203914642	0.32084929943084717	-0.2457021325826645	0.18759988248348236	0.13772830367088318	-0.23574429750442505	0.05874535068869591	0.3698996305465698	-0.0184959527105093	-0.13352210819721222	0.17680330574512482	-0.19137193262577057	0.27714547514915466	0.3822031617164612	0.24653111398220062	-0.08409026265144348	-0.10752847045660019	0.062027402222156525	-0.009328377433121204	0.08521546423435211	0.16640688478946686
kach1277	-0.21099451184272766	0.11708790063858032	0.07677602767944336	-0.07269719988107681	-0.23192331194877625	0.03355475515127182	0.1744445264339447	-0.35258281230926514	-0.007075077388435602	-0.18227769434452057	0.04478941857814789	-0.18047355115413666	0.05954623967409134	0.13499745726585388	0.3273000419139862	-0.10335759818553925	0.22696717083454132	0.08189595490694046	-0.14268289506435394	0.039130862802267075	0.14475569128990173	0.19568049907684326	-0.06237008422613144	-0.28416764736175537	-0.023503107950091362	-0.14876189827919006	-0.0253592636436224	-0.12409231066703796	-0.16135142743587494	0.11173662543296814	0.05688843876123428	-0.03950318321585655	-0.18596230447292328	0.00775196123868227	0.13258416950702667	-0.0059568858705461025	0.19387361407279968	0.30718961358070374	0.04927285388112068	0.20603686571121216	-0.02213519811630249	0.27528753876686096	-0.24739202857017517	-0.09762831032276154	-0.026701442897319794	-0.039279431104660034	0.10149932652711868	0.0016030824044719338	-0.14413462579250336	0.16737307608127594	0.3042966425418854	-0.2877596318721771	-0.14763936400413513	0.2616586983203888	0.1643635779619217	-0.11447520554065704	-0.14107227325439453	-0.2152920514345169	-0.23587699234485626	0.08127393573522568	0.30782434344291687	-0.3032270669937134	0.03366740047931671	-0.14340439438819885	0.10626109689474106	0.16389122605323792	0.1315256506204605	0.3810432255268097	-0.13358791172504425	-0.057261355221271515	0.08588214963674545	-0.36176249384880066	-0.22598156332969666	0.3626803457736969	0.13742592930793762	0.20546114444732666	0.282402902841568	-0.2335452139377594	-0.11764193326234818	0.18099351227283478	-0.28873613476753235	-0.058265648782253265	0.30099111795425415	-0.17537391185760498	0.0386517234146595	0.052526574581861496	-0.010139962658286095	-0.18206624686717987	0.1117277666926384	0.3399752080440521	-0.19354616105556488	0.10579781979322433	-0.04228155314922333	-0.11885982006788254	-0.2505819797515869	0.2635895907878876	-0.09995347261428833	-0.1673126369714737	0.11437563598155975	-0.1956752985715866	-0.11235801875591278	-0.09083135426044464	-0.27990061044692993	-0.004151571076363325	0.10361869633197784	0.3204520046710968	0.20480623841285706	-0.2220209389925003	0.26728612184524536	-0.06640397757291794	0.3087710440158844	-0.11001801490783691	-0.11016014963388443	0.08085150271654129	0.001962566515430808	0.02629457600414753	-0.09111234545707703	0.10673105716705322	0.1754225492477417	-0.09273450076580048	-0.0012330474564805627	0.3647319972515106	-0.22258062660694122	0.026194771751761436	0.0029157388489693403	-0.014550779946148396	0.43833786249160767	-0.29175522923469543
kala1372	0.11298547685146332	0.2940608263015747	-0.19202490150928497	0.22019515931606293	-0.21701622009277344	0.05907013267278671	-0.16844765841960907	0.34721893072128296	0.11720824986696243	0.07951300591230392	-0.20719441771507263	0.31309980154037476	0.025592219084501266	0.2657955586910248	-0.043684687465429306	0.15898695588111877	0.1470460593700409	0.03711681440472603	0.1575702577829361	0.011194022372364998	0.3108919560909271	0.031758952885866165	0.24427777528762817	0.019851498305797577	-0.0791497603058815	0.14275148510932922	-0.29518067836761475	-0.12715381383895874	-0.09097688645124435	0.29957157373428345	0.1738278716802597	0.11485603451728821	0.4844166934490204	-0.09045031666755676	-0.33371874690055847	-0.18099534511566162	-0.19521181285381317	0.15506494045257568	0.09034667909145355	-0.12078679352998734	0.11714958399534225	0.2940254509449005	0.13835901021957397	-0.14301571249961853	-0.019639816135168076	-0.08358293771743774	-0.06636638194322586	-0.246156707406044	0.2938448190689087	0.16188207268714905	-0.04657183587551117	-0.07693514972925186	0.10037004947662354	0.13651645183563232	0.2488987296819687	0.24190402030944824	0.08490506559610367	0.05278889834880829	0.03787399083375931	0.1789962649345398	0.056798238307237625	0.1430913209915161	-0.1687404364347458	-0.27245956659317017	-0.34619808197021484	-0.3637559711933136	-0.08843643963336945	-0.029399121180176735	0.11796220391988754	-0.2839546203613281	0.03175736218690872	-0.11409793049097061	-0.18985077738761902	-0.15545816719532013	-0.2566838562488556	-0.4372294843196869	0.1538628339767456	-0.03215282782912254	-0.18419156968593597	-0.3893992304801941	-0.0570700578391552	-0.261777400970459	-0.018513306975364685	0.4961601793766022	0.040215715765953064	0.24580980837345123	0.10549724102020264	-0.16632547974586487	-0.08289308845996857	0.059119049459695816	0.3010575473308563	-0.045388806611299515	-0.2103099524974823	0.019557707011699677	-0.02730410173535347	-0.45674651861190796	0.43696001172065735	0.36828872561454773	0.19004906713962555	-0.25162607431411743	0.19260166585445404	0.2963324785232544	0.27422165870666504	-0.13465502858161926	0.00992477685213089	-0.08916553109884262	-0.0730556771159172	-0.19907143712043762	-0.3623683750629425	-0.09031616896390915	-0.22897936403751373	0.09717919677495956	0.21790987253189087	0.21615448594093323	-0.3346113860607147	0.04983695596456528	-0.25358301401138306	0.053412020206451416	0.06693999469280243	0.16425083577632904	-0.1720636487007141	0.1178920567035675	0.09178377687931061	0.34276434779167175	-0.13697126507759094	0.23217430710792542	0.13259698450565338	0.07027273625135422
kala1373	0.006844279356300831	-0.05524162948131561	0.05267305672168732	-0.052153490483760834	0.13323959708213806	0.12437296658754349	0.060790251940488815	-0.18330493569374084	0.008812971413135529	-0.1949051022529602	-0.12042496353387833	-0.4313027858734131	0.18840338289737701	0.24964813888072968	0.36243104934692383	-0.2553557753562927	0.06561827659606934	0.048376936465501785	-0.22751358151435852	-0.0795629695057869	0.18285726010799408	0.07101194560527802	0.09870339184999466	0.10457286983728409	0.03485127538442612	0.2898699939250946	-0.08695510774850845	0.0885872021317482	-0.08255410194396973	-0.16016998887062073	-0.053213562816381454	0.066789910197258	0.2058974653482437	0.3489533066749573	-0.436273992061615	-0.0266169011592865	0.030519329011440277	-0.030201325193047523	0.22098201513290405	-0.11577179282903671	0.028426578268408775	0.03441688418388367	0.057826410979032516	0.005147884134203196	-0.06395667791366577	0.01125126238912344	-0.06809768080711365	-0.11197441816329956	0.3538113534450531	0.1653103530406952	0.15928806364536285	0.21897955238819122	0.19312278926372528	0.10066213458776474	0.37490323185920715	-0.24964098632335663	-0.27485978603363037	-0.11933714896440506	-0.2933465242385864	0.11655373871326447	0.15153636038303375	0.05510049685835838	0.04403635114431381	-0.0824207216501236	0.13169465959072113	0.24679341912269592	0.19788360595703125	0.22636374831199646	0.12442896515130997	-0.1946178674697876	0.06793442368507385	-0.1763501763343811	-0.13414537906646729	-0.17283807694911957	-0.06326840072870255	-0.2550017535686493	-0.3024322986602783	-0.21339496970176697	-0.16986367106437683	0.077505923807621	-0.31887903809547424	-0.14791880548000336	-0.1358126997947693	-0.21508191525936127	-0.19600103795528412	-0.2850548028945923	-0.09697769582271576	-0.3386310338973999	-0.6005844473838806	0.14782558381557465	-0.11430297046899796	-0.020779985934495926	-0.20127974450588226	0.19390541315078735	0.05506741255521774	-0.24177609384059906	0.11527310311794281	0.16026835143566132	-0.25149020552635193	0.011018113233149052	0.2953684628009796	-0.01653253845870495	0.24227842688560486	0.2024458795785904	-0.49624139070510864	-0.12104224413633347	-0.03848346695303917	0.15339219570159912	-0.32247042655944824	-0.02411396987736225	-0.040727436542510986	0.1453927755355835	0.07564178854227066	0.005989695433527231	0.3140416145324707	0.023005938157439232	0.17112864553928375	-0.002686068182811141	0.1423119455575943	-0.20590752363204956	-0.04606248065829277	-0.03274723142385483	0.30677711963653564	0.12955813109874725	-0.2924320101737976	0.08626794070005417	-0.20118767023086548	0.5642870664596558
kash1277	-0.07114468514919281	-0.1378248780965805	-0.18584690988063812	-0.12908771634101868	-0.24615292251110077	-0.28587010502815247	0.014864635653793812	0.16623257100582123	0.2761456370353699	0.004277526866644621	0.07168202847242355	-0.1883184015750885	0.06868526339530945	-0.07666468620300293	-0.20496654510498047	0.0807926207780838	0.06889081001281738	-0.07941717654466629	-0.22073125839233398	-0.08055613934993744	0.2748241424560547	-0.028693173080682755	0.2034485638141632	0.1997838318347931	0.07984402030706406	0.01497829519212246	0.17639940977096558	-0.14733581244945526	-0.2418009489774704	-0.09183838218450546	-0.06314048916101456	0.09004243463277817	-0.12324182689189911	-0.014186086133122444	-0.04729652404785156	0.14654694497585297	0.05545734614133835	-0.08675792813301086	0.12417823076248169	-0.010926016606390476	-0.18613457679748535	0.08192707598209381	0.1763656884431839	0.06633653491735458	-0.08347786962985992	-0.20896826684474945	0.21044921875	-0.053991008549928665	-0.29244494438171387	-0.08520267903804779	-0.1498241126537323	0.28271761536598206	-0.18054544925689697	0.0410897433757782	-0.014081098139286041	0.0973854586482048	-0.003282767254859209	0.050770919770002365	0.05093209818005562	0.05488713085651398	-0.10038430988788605	0.06037546321749687	0.00933128222823143	-0.06726232171058655	-0.19203582406044006	0.19023869931697845	0.1703454703092575	0.061511896550655365	-0.025552211329340935	-0.0595555379986763	0.03374755382537842	-0.2035437673330307	-0.01985098049044609	0.2532368302345276	0.08761446177959442	-0.07632607221603394	-0.263620525598526	0.07414109259843826	-0.06986084580421448	0.17508737742900848	-0.15171876549720764	0.09028974175453186	-0.13026559352874756	0.17893223464488983	-0.23386789858341217	0.08019138127565384	-0.03532293438911438	0.08627068996429443	0.06471849232912064	-0.05729684606194496	-0.3491937518119812	0.2253335416316986	0.021245885640382767	0.018454747274518013	-0.06461823731660843	-0.25920483469963074	-0.012214034795761108	0.15383322536945343	-0.2723827064037323	-0.033752720803022385	0.13253162801265717	0.042309120297431946	-0.19688710570335388	0.11215150356292725	0.05996376648545265	-0.08318398147821426	-0.11499544233083725	-0.2950930595397949	0.11330331861972809	0.11372308433055878	-0.3500296473503113	-0.2098524272441864	-0.09482455253601074	0.025845706462860107	-0.04845224320888519	0.0006001751171424985	-0.07165004312992096	0.12051963061094284	-0.22629642486572266	0.0788608267903328	0.14265039563179016	-0.06124453619122505	0.08614388853311539	-0.15450139343738556	0.0910140722990036	-0.13474541902542114	-0.08093774318695068	0.12033141404390335
khet1238	-0.12423808127641678	-0.20873211324214935	0.2953878343105316	0.010761592537164688	-0.036109812557697296	0.22050361335277557	-0.22714243829250336	-0.4187377393245697	-0.2811082899570465	-0.40748247504234314	0.1853870004415512	-0.5180191993713379	-0.049975331872701645	0.07912351936101913	0.2966403365135193	0.09253465384244919	0.13909520208835602	0.2203725427389145	0.11181311309337616	0.11891292780637741	0.013630974106490612	0.19387301802635193	-0.006126161199063063	-0.13269120454788208	-0.6039486527442932	0.4302862882614136	-0.19316673278808594	-0.07904261350631714	-0.2757352888584137	-0.21265758574008942	-0.20741057395935059	0.17678290605545044	-0.045984409749507904	0.20624205470085144	-0.1226937472820282	-0.02313002198934555	0.13735327124595642	0.17039862275123596	-0.001742117339745164	0.13236524164676666	0.016026342287659645	0.12149949371814728	0.2227107584476471	-0.1709624081850052	0.022530408576130867	-0.17131447792053223	-0.3071959316730499	0.3032393753528595	0.114444799721241	-0.2947678565979004	-0.11376655846834183	0.1950063854455948	-0.008908000774681568	-0.42506322264671326	-0.11047495156526566	0.10950030386447906	0.16729994118213654	-0.06772515177726746	-0.15038128197193146	0.024141950532794	0.2084837555885315	0.014233017340302467	0.12754738330841064	0.06629201024770737	0.18144123256206512	-0.11771874874830246	-0.09132365882396698	0.2769010066986084	-0.20312878489494324	0.012826058082282543	-0.5076684355735779	-0.12712886929512024	0.33528751134872437	0.16886597871780396	0.06559886038303375	0.054475463926792145	-0.3397442102432251	-0.11405069380998611	0.19062276184558868	-0.31165722012519836	-0.42381587624549866	0.08040269464254379	-0.05093175545334816	0.24766905605793	-0.24422383308410645	0.10340657085180283	0.06297741085290909	0.0015082015888765454	0.12250210344791412	0.13420066237449646	0.09003500640392303	0.20169556140899658	-0.023054784163832664	0.2915138900279999	-0.4566546678543091	0.009849985130131245	0.06434381008148193	-0.007089016493409872	-0.0757683739066124	0.12972182035446167	0.07860875874757767	0.005003488156944513	0.07610968500375748	-0.2287667840719223	-0.04070109874010086	-0.3409442901611328	0.03905757889151573	0.05540452525019646	0.16759620606899261	0.06100648269057274	-0.10628030449151993	-0.5543897151947021	-0.25065329670906067	-0.030611691996455193	0.07727699726819992	-0.05751906335353851	0.11787966638803482	0.23925019800662994	-0.3985338807106018	-0.05553603917360306	-0.08287656307220459	-0.028383439406752586	0.26169276237487793	0.1576623022556305	-0.09813312441110611	0.03059602528810501	0.04530737176537514	0.05443840101361275
khow1242	0.045681726187467575	0.10549522191286087	-0.14241696894168854	-0.1939941644668579	0.11975030601024628	0.17716695368289948	-0.15583691000938416	0.2015567421913147	0.29042187333106995	-0.21509882807731628	-0.047525957226753235	0.1832679659128189	-0.1863415688276291	-0.11281035840511322	0.10247962176799774	0.06007486209273338	0.21343104541301727	0.1557435691356659	-0.1371234655380249	0.13120576739311218	0.3677339553833008	-0.05669499561190605	0.28361621499061584	0.04913578927516937	0.12156011909246445	-0.3113093972206116	0.0425589419901371	0.03818424418568611	-0.4457961320877075	-0.040958330035209656	0.22559775412082672	-0.1930585503578186	0.3801892399787903	-0.0654686838388443	0.07264111936092377	0.1689833402633667	0.1465747058391571	-0.32100340723991394	-0.04065721482038498	-0.10125529766082764	0.4056023061275482	-0.056980714201927185	0.07989222556352615	0.056506432592868805	0.2775688171386719	-0.23441733419895172	-0.2707985043525696	-0.14559847116470337	-0.10670153051614761	0.03156224265694618	-0.20069366693496704	-0.16175629198551178	-0.1873646378517151	-0.009289462119340897	0.2859286963939667	0.32296907901763916	0.03873820602893829	0.02293698489665985	0.2030085027217865	-0.2671360969543457	0.2539975643157959	0.046119507402181625	-0.11666680872440338	0.21629133820533752	-0.2746414840221405	-0.1120937243103981	0.2657415568828583	0.17594245076179504	0.06651386618614197	0.004883832763880491	-0.04943187162280083	0.2358340173959732	0.1321590542793274	-0.21600234508514404	-0.24784551560878754	0.015502569265663624	-0.05412991717457771	-0.23541492223739624	-0.16644205152988434	-0.14063027501106262	0.14991344511508942	-0.31906116008758545	0.024422142654657364	-0.19133177399635315	0.07510629296302795	0.06251028925180435	-0.1284928172826767	-0.1177445501089096	-0.03335822373628616	0.10614416748285294	0.14839889109134674	-0.2541206479072571	-0.3576433062553406	-0.3946065902709961	0.15519499778747559	0.0038671232759952545	-0.015431663021445274	-0.17881880700588226	-0.1009562760591507	-0.04703766480088234	0.177382692694664	0.11517106741666794	0.14977583289146423	-0.024067038670182228	0.21748362481594086	-0.4189220070838928	-0.22855794429779053	-0.3332574665546417	-0.24040831625461578	-0.08156828582286835	0.02315676398575306	0.24710224568843842	0.3690168261528015	0.21891823410987854	-0.34922343492507935	0.010858784429728985	0.25635531544685364	0.047918904572725296	-0.04611479863524437	-0.03015265241265297	-0.1604461669921875	0.27442625164985657	-0.27871960401535034	0.16646285355091095	0.3992981016635895	-0.08974700421094894	-0.3997553586959839	-0.038771823048591614
kohi1248	-0.3656443655490875	0.19746537506580353	-0.07163974642753601	-0.038391027599573135	-0.5193687081336975	-0.10687888413667679	0.05282580852508545	0.07223594933748245	-0.028376871719956398	-0.15559513866901398	-0.11972856521606445	0.28607428073883057	-0.3719457685947418	0.3945002853870392	0.05901963263750076	0.2901183068752289	0.07304728031158447	-0.1789470911026001	-0.13959531486034393	0.055534496903419495	0.3349902033805847	0.3689384460449219	-0.2952977120876312	-0.039963118731975555	0.11783422529697418	0.24771088361740112	0.23112332820892334	-0.17590369284152985	-0.1545918881893158	-0.3460547924041748	0.3649132549762726	-0.0659736767411232	-0.04178127273917198	-0.302327036857605	-0.2154276818037033	-0.3396316468715668	-0.17601782083511353	0.16530713438987732	0.3020515441894531	-0.3736709952354431	0.03918243572115898	0.19096840918064117	0.33688291907310486	-0.5486048460006714	0.033643148839473724	-0.29735150933265686	-0.16851778328418732	-0.24518145620822906	-0.03821331635117531	-0.11168325692415237	0.24818460643291473	-0.32271355390548706	0.3276546001434326	0.2761317491531372	-0.00949668325483799	0.18866534531116486	-0.13358493149280548	-0.1112353578209877	0.27361002564430237	0.23193566501140594	0.222612664103508	0.06452149152755737	-0.3189912438392639	-0.00892178900539875	-0.09371288865804672	0.09137733280658722	-0.20220047235488892	-0.625236451625824	0.05912037193775177	-0.35295921564102173	0.14823096990585327	-0.04281177371740341	-0.3670333921909332	0.12608765065670013	0.12518644332885742	-0.02977057918906212	-0.15555961430072784	-0.40915581583976746	0.20888547599315643	-0.0629296526312828	-0.17200510203838348	-0.1368105560541153	-0.4056262671947479	0.26575416326522827	0.08836594223976135	-0.04949871078133583	0.25607505440711975	0.2164701372385025	-0.47782590985298157	-0.1083303764462471	-0.06141720712184906	0.30246907472610474	-0.1978784203529358	-0.10512595623731613	0.15443086624145508	-0.09635515511035919	0.11117567121982574	-0.05079885572195053	-0.2569276988506317	-0.15094366669654846	0.23752933740615845	-0.24167324602603912	-0.3555367887020111	-0.19779619574546814	0.2760404944419861	0.039590321481227875	-0.18361884355545044	0.4481039047241211	0.3622432351112366	-0.25913259387016296	-0.20343324542045593	-0.11669810861349106	-0.10162092000246048	-0.24901659786701202	0.011910302564501762	-0.27003687620162964	0.3622291386127472	0.3121720850467682	0.1782722920179367	-0.14300023019313812	-0.16005855798721313	0.13635367155075073	-0.37948739528656006	-0.13329149782657623	-0.17709483206272125	0.41689106822013855	-0.3136393129825592	0.01323624700307846
konk1267	0.166367307305336	0.13466279208660126	0.17538698017597198	0.22349289059638977	-0.14414982497692108	-0.128839373588562	2.830283483490348e-05	-0.2563122510910034	0.14002110064029694	-0.012109270319342613	-0.16805119812488556	-0.14600040018558502	-0.352069228887558	0.1271386593580246	-0.1471526026725769	0.3029175102710724	0.0033902719151228666	0.128047376871109	-0.1970423012971878	0.09303081035614014	0.1425810605287552	0.010602506808936596	-0.15983912348747253	-0.02723114937543869	-0.1934283822774887	0.002597457030788064	0.4065387547016144	0.044739603996276855	0.1355922669172287	0.017557166516780853	0.010734489187598228	0.24717721343040466	-0.05309338495135307	-0.06959237903356552	-0.05343925952911377	0.3466964364051819	-0.07167167961597443	-0.05390795320272446	-0.05536385625600815	-0.02652950957417488	-0.16684721410274506	0.187811478972435	0.27850884199142456	0.02559192106127739	-0.2581239640712738	0.20377616584300995	0.11425766348838806	-0.017186421900987625	0.07210872322320938	0.2734833061695099	-0.17055200040340424	0.08443736284971237	0.20906896889209747	-0.3027847707271576	0.1116112694144249	-0.3559006452560425	-0.21871742606163025	0.1920209527015686	-0.08655088394880295	-0.07250267267227173	0.047540828585624695	0.02447197213768959	0.08700793236494064	-0.15224124491214752	-0.23788012564182281	-0.47350069880485535	0.11459636688232422	0.01990504190325737	-0.050925206393003464	0.11062503606081009	-0.24281169474124908	0.015893476083874702	-0.052877794951200485	-0.22566844522953033	0.015057469718158245	0.07772141695022583	0.23472170531749725	-0.13543665409088135	-0.14525701105594635	-0.11077496409416199	0.06801466643810272	0.2954089343547821	-0.017200298607349396	-0.16302920877933502	0.17788124084472656	0.16458426415920258	0.4346323013305664	0.10851680487394333	-0.2516683042049408	0.0051934500224888325	0.32647281885147095	0.44322946667671204	-0.1519426852464676	-0.02524017170071602	0.20559079945087433	0.042178068310022354	0.1947321891784668	-0.1714678555727005	0.3542550206184387	-0.09237483888864517	0.10124035179615021	-0.3099372982978821	-0.30823174118995667	0.3078003227710724	-0.042805016040802	0.23760420083999634	0.006998010445386171	0.0512145571410656	-0.04431946203112602	-0.09593572467565536	0.08924821019172668	0.06626281142234802	-0.10717117786407471	0.03091169148683548	0.19275103509426117	-0.11273141950368881	-0.3109882175922394	-0.02216377668082714	0.16498646140098572	0.1994248628616333	0.2914089262485504	-0.13868246972560883	-0.144811749458313	-0.21528680622577667	-0.06734945625066757	-0.1766182780265808	0.28699547052383423	0.12160802632570267
kuma1273	-0.1282748132944107	0.12651608884334564	-0.14020299911499023	-0.053256239742040634	-0.0049650040455162525	-0.16951802372932434	-0.02692098170518875	-0.19119210541248322	0.06926821917295456	0.12504680454730988	-0.12388329952955246	0.21829356253147125	-0.027553342282772064	-0.1399833858013153	-0.027890753000974655	-0.09241247177124023	0.00998566672205925	-0.1982351541519165	0.15132489800453186	0.07317060977220535	-0.05186498165130615	-0.11322086304426193	-0.22671930491924286	0.11401703953742981	0.023728324100375175	-0.09041320532560349	0.11414948850870132	0.0906679779291153	0.05806606262922287	0.001074872212484479	0.2087319940328598	-0.106288842856884	0.10934329777956009	0.05367115139961243	-0.11675619333982468	0.12352713942527771	0.0042664301581680775	0.013674534857273102	-0.11417149007320404	0.09821189194917679	0.0559709407389164	0.08813809603452682	-0.1656343936920166	0.0026543308049440384	-0.08196932822465897	0.05058423802256584	-0.03856932744383812	-0.02468784525990486	-0.019490333274006844	-0.0678497850894928	0.17578887939453125	-0.108134426176548	0.12810617685317993	0.052449826151132584	-0.05309043824672699	-0.12099434435367584	-4.1365332435816526e-05	0.0716390311717987	0.09423435479402542	-0.017536355182528496	0.025569377467036247	-0.053450241684913635	-0.05047118291258812	-0.10792221128940582	-0.14577455818653107	-0.11887753009796143	-0.012840031646192074	0.22015979886054993	0.10966876894235611	0.028488634154200554	0.04282170161604881	0.052970174700021744	-0.03877691924571991	0.14258375763893127	-0.13574489951133728	0.06909286975860596	0.0969475731253624	0.16188722848892212	0.08835142105817795	0.1497364491224289	0.08768804371356964	0.19666306674480438	0.059121787548065186	0.05475116893649101	-0.170407235622406	-0.09788137674331665	-0.0443032868206501	-0.09643664211034775	-0.25244376063346863	-0.05949760228395462	-0.21582403779029846	0.06260364502668381	-0.01076312456279993	0.17672742903232574	0.026701899245381355	0.05407412722706795	0.005269921850413084	0.18084463477134705	-0.02799455262720585	0.173552468419075	-0.15633001923561096	0.07649597525596619	-0.08774197846651077	-0.1504969447851181	0.006052074022591114	0.18487034738063812	-0.04309737682342529	-0.09446950256824493	0.029040832072496414	-0.05211498588323593	0.1543547511100769	0.01783725619316101	0.08052076399326324	-0.042941316962242126	0.012153340503573418	-0.13030388951301575	0.05200793594121933	0.03478749841451645	0.0409073643386364	0.18809735774993896	-0.1442672461271286	0.006278791930526495	-0.031146779656410217	-0.06320136785507202	0.14242561161518097	0.18012990057468414	-0.11194555461406708	-0.2167084962129593
kura1247	0.11329882591962814	-0.04114389047026634	0.07544106990098953	-0.16841937601566315	-0.0013575698249042034	-0.08887992799282074	-0.013950522057712078	-0.3431941866874695	-0.13813543319702148	-0.26095837354660034	-0.22644206881523132	-0.07340379059314728	0.14651189744472504	0.18015702068805695	-0.18743641674518585	-0.04299952834844589	0.007155121769756079	0.0928713008761406	-0.29538941383361816	-0.2068936675786972	0.16722774505615234	0.12874595820903778	0.14364446699619293	-0.09134669601917267	-0.09634806960821152	0.24076278507709503	0.5277605652809143	0.07745885103940964	-0.07785078883171082	-0.36492323875427246	-0.16560235619544983	-0.15215091407299042	0.19952329993247986	0.15632927417755127	-0.3890606760978699	0.21078026294708252	0.29762959480285645	-0.10231318324804306	0.18144214153289795	-0.1056213527917862	-0.03618977218866348	-0.0576300211250782	-0.2624101936817169	0.04401601478457451	0.31576550006866455	0.2125873565673828	0.0402488186955452	0.08235877752304077	-0.41123276948928833	-0.3525800108909607	-0.06448090076446533	0.26011788845062256	0.5691181421279907	0.30889734625816345	0.05637861043214798	-0.18142321705818176	-0.15243297815322876	-0.009648005478084087	0.1972464770078659	0.19724053144454956	0.32574376463890076	-0.040690191090106964	-0.207808718085289	0.09094952046871185	0.07200948894023895	-0.15716123580932617	0.33213549852371216	-0.07660539448261261	-0.1781560778617859	-0.23418617248535156	0.07627703994512558	0.07867459952831268	-0.14900624752044678	-0.47549399733543396	-0.1950906664133072	-0.162744402885437	-0.07839147001504898	-0.19237878918647766	-0.2130957692861557	0.25521114468574524	0.15012383460998535	0.22375443577766418	0.23222064971923828	-0.06522485613822937	0.4141392409801483	0.2512666881084442	0.16083243489265442	0.15714147686958313	-0.45807984471321106	-0.06867308169603348	0.23140491545200348	-0.08058585226535797	-0.08130775392055511	0.12338051199913025	0.15208710730075836	-0.34208041429519653	0.09708645939826965	0.09644212573766708	-0.30794113874435425	-0.2625540494918823	-0.08690648525953293	0.013259131461381912	-0.26044145226478577	-0.08352743834257126	-0.4444575607776642	-0.3464875817298889	0.06616552174091339	-0.3447403013706207	0.06093859300017357	-0.10178423672914505	0.13028238713741302	0.40777772665023804	0.380931556224823	0.035279035568237305	-0.38229402899742126	-0.3090531527996063	-0.26597291231155396	0.018227890133857727	0.1675504744052887	-0.241054967045784	0.06539309024810791	0.17674174904823303	-0.27977240085601807	-0.233392134308815	0.4298999607563019	-0.09272147715091705	0.06731794029474258	0.10046949982643127
laur1248	0.18781758844852448	0.27448710799217224	0.31766021251678467	0.07408171147108078	0.022621121257543564	-0.028254607692360878	0.06538690626621246	-0.14947311580181122	-0.17376640439033508	-0.2896347939968109	-0.044078536331653595	-0.3728601932525635	-0.33874449133872986	-0.1286497861146927	0.28362932801246643	-0.2038486897945404	0.08980043977499008	0.369419664144516	0.013357247225940228	-0.2506652772426605	0.18533122539520264	-0.4321196377277374	0.3797873258590698	-0.020311128348112106	0.16919369995594025	0.06056245416402817	0.285411536693573	0.11765244603157043	0.06219720467925072	-0.0030447179451584816	0.2919919490814209	-0.08640161156654358	-0.15143835544586182	0.12896160781383514	-0.188834547996521	-0.08270876109600067	0.07084598392248154	-0.09638124704360962	0.23113322257995605	0.2410678267478943	-0.30943161249160767	0.25184011459350586	0.12180167436599731	-0.2755242586135864	0.3239951729774475	-0.04113251715898514	-0.15163902938365936	-0.2240704745054245	0.13814520835876465	-0.11500577628612518	0.4343903362751007	-0.43125131726264954	0.05850742757320404	0.003123171627521515	0.05806673690676689	0.35009732842445374	-0.26479142904281616	0.21809814870357513	0.17428766191005707	0.3409419357776642	-0.24493081867694855	0.4022037088871002	-0.33514875173568726	-0.2227468490600586	-0.16485564410686493	0.07393015921115875	0.10343722254037857	-0.2550542652606964	-0.5053675174713135	-0.12435618788003922	-0.32721054553985596	-0.3234091103076935	-0.13915449380874634	-0.03075656108558178	0.2945094108581543	-0.31158697605133057	-0.005421507637947798	-0.15557797253131866	0.1537306159734726	-0.0716988667845726	-0.052884720265865326	-0.28020235896110535	0.072477325797081	0.12188449501991272	0.22399793565273285	0.24346870183944702	0.14415349066257477	-0.17326971888542175	0.21945692598819733	-0.26798462867736816	0.11621777713298798	-0.0722457692027092	-0.11495717614889145	0.3825696110725403	-0.17996609210968018	0.09314698725938797	0.28752681612968445	-0.2734432518482208	-0.04928234964609146	0.14966124296188354	-0.026848018169403076	-0.33194974064826965	0.4851497709751129	-0.02668440155684948	0.0820416659116745	-0.24090982973575592	-0.2430606335401535	-0.2529314458370209	-0.09128928929567337	0.1416272670030594	-0.04130566492676735	0.11401823163032532	0.19303414225578308	0.010013347491621971	-0.35318395495414734	0.11496790498495102	-0.039451517164707184	-0.14508786797523499	0.02826252020895481	0.2594079375267029	0.01821243017911911	0.08827758580446243	0.31091976165771484	-0.10997270047664642	-0.06896411627531052	0.017085131257772446	0.0006897458806633949	0.0628262311220169
loma1235	0.2586196959018707	0.035298366099596024	0.10587631911039352	0.09645146131515503	-0.2539973556995392	-0.1713016927242279	-0.30967289209365845	0.3833039402961731	-0.14696256816387177	0.4187275767326355	-0.30993178486824036	-0.26591411232948303	0.1886742115020752	-0.33730119466781616	0.08049731701612473	0.07425080239772797	-0.29790881276130676	-0.044844672083854675	0.14501532912254333	0.36048686504364014	-0.22635126113891602	0.37798571586608887	0.38128402829170227	0.0643124133348465	-0.24171777069568634	0.19297176599502563	0.00024700353969819844	0.2140241414308548	-0.2748478055000305	0.37017202377319336	0.1385539174079895	0.7034857273101807	0.17197714745998383	0.18242210149765015	-0.09631849825382233	-0.583230197429657	0.5998615026473999	-0.552097737789154	0.15712487697601318	-0.12297658622264862	0.05042087659239769	-0.03960520401597023	0.2834179401397705	0.03877505660057068	0.40791356563568115	-0.09586603939533234	-0.5980381369590759	-0.0041915904730558395	0.3259288966655731	-0.17496272921562195	0.28438547253608704	-0.19480471312999725	0.021514616906642914	-0.2996920645236969	-0.18310728669166565	-0.1607092171907425	0.04266266152262688	-0.24847984313964844	0.28810691833496094	-0.06483149528503418	0.12804998457431793	0.6505900025367737	0.1304580271244049	-0.128183051943779	-0.3395187556743622	0.270171195268631	0.19055654108524323	0.48090624809265137	0.15635617077350616	0.29366520047187805	-0.3470258414745331	-0.09136833250522614	0.21152348816394806	-0.18836063146591187	-0.4700666666030884	-0.29335418343544006	0.30494141578674316	0.01331888884305954	0.14923377335071564	0.023737916722893715	0.2949974536895752	-0.21134985983371735	-0.013015933334827423	-0.5155235528945923	0.21470551192760468	-0.10996309667825699	-0.13567472994327545	-0.5351526141166687	-0.6914041042327881	-0.04858631640672684	0.29278552532196045	-0.28039124608039856	0.575035035610199	-0.021517060697078705	-0.2063990831375122	-0.587979257106781	-0.021182453259825706	-0.3138752281665802	0.047696370631456375	0.03156805783510208	0.632590115070343	0.04212299734354019	0.11742245405912399	0.3274106979370117	0.11972999572753906	-0.1699051707983017	-0.37431514263153076	-0.3061187267303467	-0.20496200025081635	0.2467193901538849	0.383657306432724	0.1825779527425766	0.19839246571063995	0.08540918678045273	0.18849970400333405	0.06683032959699631	-0.0789511501789093	-0.11558923870325089	0.19006593525409698	-0.6426616311073303	-0.09460382163524628	0.45626065135002136	0.04832053929567337	0.4006790816783905	0.021612567827105522	0.04705952852964401	-0.02490030974149704	0.008686191402375698
maha1287	-0.0320553258061409	0.13042910397052765	-0.07003320753574371	-0.3233725130558014	0.07791852205991745	0.003890029154717922	0.027190029621124268	-0.15482543408870697	0.10948667675256729	0.04075484350323677	-0.4597066640853882	0.39290276169776917	-0.10798205435276031	0.18605577945709229	-0.10106272250413895	0.15779578685760498	0.22588223218917847	-0.28095462918281555	0.1353321075439453	-0.12211963534355164	0.3621881902217865	-0.09499093145132065	-0.09235844016075134	-0.005257136654108763	0.06971613317728043	0.2913045883178711	0.058907002210617065	0.024169325828552246	0.07691735774278641	0.294735312461853	0.3250674605369568	-0.039531998336315155	-0.10544818639755249	0.15620559453964233	0.00784432701766491	-0.2718465328216553	-0.3394883871078491	-0.09217874705791473	0.07623134553432465	0.23896710574626923	0.23431546986103058	0.3752698302268982	-0.12271814793348312	0.10841432958841324	-0.013209101743996143	-0.06920617073774338	-0.08419183641672134	-0.33431684970855713	0.25984761118888855	0.0038304640911519527	-0.035502612590789795	-0.30868691205978394	0.4085351526737213	-0.042553938925266266	-0.3479138910770416	-0.1323714554309845	0.3113412857055664	0.09812508523464203	0.12466368079185486	-0.37191855907440186	0.024260099977254868	0.04812626168131828	-0.25661128759384155	0.06620659679174423	-0.1066817045211792	0.018258312717080116	0.2594073414802551	0.22302241623401642	0.40315231680870056	0.11612552404403687	0.06985615193843842	-0.14484430849552155	0.04564008116722107	-0.344817191362381	-0.18926167488098145	0.35407277941703796	-0.19760996103286743	-0.28161439299583435	-0.18925216794013977	-0.13656170666217804	-0.08751757442951202	-0.1450023502111435	-0.18618445098400116	0.25060132145881653	-0.06720707565546036	0.004176080692559481	0.031019411981105804	-0.16129207611083984	-0.06851688027381897	0.24334339797496796	-0.33829909563064575	-0.026093371212482452	0.3855839669704437	-0.2019702047109604	0.007514942437410355	-0.22840920090675354	-0.08568797260522842	-0.07546740025281906	-0.015098758973181248	-0.17046569287776947	0.2793283760547638	0.00026840143254958093	-0.1745876520872116	0.2058287411928177	0.13843142986297607	0.17695379257202148	-0.22669783234596252	0.06933563202619553	-0.16685447096824646	-0.001486453227698803	0.32452675700187683	-0.08633947372436523	-0.24097679555416107	-0.13139070570468903	-0.1152685135602951	0.016415169462561607	0.242130309343338	-0.194046750664711	-0.02193821780383587	-0.0710730329155922	0.24033012986183167	-0.058309219777584076	-0.14034530520439148	-0.25546616315841675	0.05395978316664696	-0.08915629237890244	0.01591341570019722	-0.18895024061203003
maha1305	0.09513865411281586	-0.10801485180854797	-0.05526366084814072	0.10412623733282089	0.10835807025432587	0.08735664933919907	-0.05309337005019188	0.17084082961082458	0.018690697848796844	-0.04902709275484085	-0.06894601881504059	-0.05305078998208046	-0.08472144603729248	0.05796314403414726	-0.032674990594387054	-0.03373336046934128	-0.10512621700763702	0.030532285571098328	-0.06973328441381454	-0.014903807081282139	-0.1775430589914322	0.12439549714326859	-0.01386310812085867	-0.10599400103092194	0.12991733849048615	-0.13898608088493347	0.0038937674835324287	0.02686481364071369	0.1962081789970398	-0.08888900279998779	-0.18078644573688507	-0.050724998116493225	0.23687495291233063	-0.13635815680027008	-0.02300264500081539	0.14991812407970428	0.013438745401799679	0.014828820712864399	0.1691526472568512	0.10236825048923492	-0.0982094258069992	-0.12169351428747177	-0.17597879469394684	0.24473580718040466	-0.005262776277959347	0.0853598341345787	0.06247708201408386	0.1361326426267624	0.14938810467720032	-0.13195933401584625	-0.27011609077453613	0.03524861857295036	-0.2028462141752243	-0.1160779520869255	0.15854783356189728	-0.15601958334445953	0.07084812968969345	-0.021084634587168694	-0.05643734708428383	-0.039420235902071	-0.010282076895236969	-0.04626337066292763	0.1413424164056778	0.1604539453983307	-0.04624400660395622	-0.14284862577915192	-0.1919788420200348	0.004866552539169788	-0.0327608585357666	0.1606917381286621	0.09934680908918381	0.020773278549313545	0.006728941109031439	-0.021200353279709816	0.1913750320672989	0.11874239891767502	0.1139492467045784	0.1305704563856125	0.11039416491985321	-0.07007505744695663	-0.07318828254938126	-0.038866136223077774	-0.13437111675739288	-0.21482762694358826	0.15817716717720032	-0.01230965368449688	0.019818535074591637	0.2619571089744568	-0.07457233220338821	-0.16620634496212006	-0.042915862053632736	0.11086321622133255	0.12247026711702347	-0.24067318439483643	0.08618269115686417	0.1474006325006485	-0.13122203946113586	-0.11326120048761368	0.3094292879104614	0.0616186298429966	0.08767969161272049	-0.07046173512935638	0.10449253767728806	0.06063345819711685	0.03777381405234337	-0.13605040311813354	0.11696401238441467	0.12042395770549774	-0.009666199795901775	-0.11231055855751038	0.11377422511577606	-0.21592657268047333	0.09396582096815109	0.03295913711190224	-0.06856916844844818	0.09914978593587875	0.0932278260588646	-0.09349491447210312	-0.0025645580608397722	-0.05618331953883171	0.18996354937553406	-0.09991086274385452	0.02708314172923565	0.08072105795145035	-0.10559268295764923	0.06136535480618477	-0.1506178081035614	-0.11142726242542267
mait1250	-0.16942614316940308	0.0742303654551506	-0.051290109753608704	0.13771604001522064	-0.21892663836479187	-0.10033490508794785	-0.02323026955127716	0.12479504197835922	-0.14149296283721924	0.15906094014644623	0.07642897963523865	-0.20110991597175598	-0.15746960043907166	0.18546482920646667	0.16322490572929382	-0.08600759506225586	0.15856783092021942	0.0023202085867524147	-0.03269539028406143	0.04995090141892433	-0.1196400374174118	-0.20302553474903107	-0.07746749371290207	0.20132328569889069	-0.12483671307563782	0.1799205094575882	-0.14480909705162048	-0.11800321191549301	-0.010613568127155304	-0.1465538889169693	-0.27180564403533936	0.17105409502983093	-0.08623699843883514	-0.03836652263998985	-0.06284356117248535	-0.13862212002277374	0.1541549414396286	0.02192612923681736	-0.26060786843299866	0.020041881129145622	-0.296462744474411	0.03502202033996582	-0.2153702825307846	-0.10216204077005386	-0.11721418797969818	-0.13335928320884705	0.03519037738442421	0.09482409805059433	-0.08743316680192947	0.13558369874954224	-0.20921564102172852	-0.1556047797203064	-0.11993682384490967	0.2641375958919525	0.014657248742878437	0.0356159433722496	-0.01728583499789238	-0.1553858518600464	0.08460471034049988	-0.1604360193014145	0.0039389971643686295	-0.20180335640907288	0.08585307747125626	-0.12664230167865753	0.2875733971595764	-0.16491620242595673	0.02387836016714573	0.030106104910373688	-0.08237780630588531	-0.06640607118606567	-0.14222995936870575	-0.025183459743857384	-0.037138789892196655	-0.1696869432926178	-0.2083328664302826	0.0815035030245781	0.183277890086174	0.27751290798187256	-0.12853652238845825	0.028775561600923538	0.016227873042225838	-0.1188076063990593	-0.053662415593862534	0.04392385110259056	-0.061817437410354614	-0.06433133035898209	-0.015303765423595905	-0.17861980199813843	-0.11888578534126282	0.056958600878715515	-0.24075840413570404	-0.29737043380737305	-0.1118556335568428	-0.15581701695919037	-0.12852047383785248	-0.07863584160804749	-0.0723799392580986	0.003998074680566788	-0.11190157383680344	-0.08043175935745239	-0.06267295777797699	-1.796406286302954e-05	-0.046255167573690414	0.20415091514587402	0.0982218012213707	-0.048358362168073654	0.1163097396492958	0.23857592046260834	-0.058920830488204956	-0.03607140854001045	-0.11201167106628418	0.13588020205497742	0.059850435703992844	-0.035525232553482056	0.19581855833530426	-0.19522397220134735	-0.09548702090978622	-0.1945362240076065	0.08134797215461731	0.10855264961719513	0.021431412547826767	0.05596580728888512	-0.12646780908107758	0.1311059147119522	0.07355979830026627	-0.02199837937951088	-0.2683258056640625	0.020175861194729805
mara1378	-0.0378357395529747	-0.03529015928506851	-0.05662740767002106	0.0710955262184143	0.0824086144566536	0.2379913628101349	0.1267096996307373	-0.13565808534622192	-0.03882387652993202	0.11291816085577011	-0.08639668673276901	0.1887720227241516	-0.09674902260303497	-0.05343800038099289	-0.09981728345155716	0.06468953937292099	-0.1447056382894516	0.1117667555809021	0.04546043649315834	0.07302309572696686	0.012719770893454552	-0.06597457081079483	0.0984211415052414	0.06549624353647232	-0.10770300030708313	0.06418901681900024	0.24108141660690308	-0.04150138795375824	0.14852938055992126	0.1685848832130432	0.046007249504327774	-0.029160285368561745	-0.1527625024318695	0.13588781654834747	0.13359348475933075	-0.09839828312397003	0.0670011043548584	0.04715914651751518	-0.026812955737113953	-0.05285501107573509	0.08249818533658981	-0.25614026188850403	-0.04815656691789627	0.12919482588768005	-0.11474353075027466	0.17331458628177643	-0.18365329504013062	-0.009399398230016232	0.048127561807632446	0.040933623909950256	0.11823107302188873	-0.1283116638660431	0.053666964173316956	-0.134100541472435	-0.21042868494987488	-0.08093199878931046	0.10501142591238022	0.04609744995832443	-0.20860722661018372	0.05439308285713196	0.022756900638341904	-0.013542579486966133	0.12781697511672974	-0.054394762963056564	-0.11835523694753647	0.01040246244519949	-0.1572590321302414	0.22534878551959991	-0.061729736626148224	-0.017581267282366753	-0.01716408133506775	0.03550409898161888	-0.07450983673334122	-0.07688730210065842	-0.09608667343854904	-0.031195906922221184	0.09462044388055801	-0.03573578968644142	-0.1467132866382599	0.15956898033618927	0.16259904205799103	0.11176217347383499	-0.005955461412668228	0.1486135721206665	0.031838126480579376	0.06511911004781723	-0.0003298873489256948	-0.13646094501018524	0.25410163402557373	0.034812651574611664	0.11354292929172516	0.11652208864688873	0.04987361282110214	-0.11620577424764633	0.02336503192782402	0.0776316449046135	0.005697294138371944	-0.12068510800600052	0.21960391104221344	0.040904585272073746	0.06091313809156418	0.021222002804279327	0.012682349421083927	0.0729905366897583	0.03810177370905876	-0.12559950351715088	-0.05492187291383743	0.10306461900472641	0.1102907732129097	0.009056882932782173	-0.15302245318889618	-0.07001369446516037	0.04775356128811836	-0.0626627504825592	0.04314609616994858	-0.10187035799026489	-0.17763210833072662	-0.003676749300211668	-0.05920545384287834	-0.11865189671516418	0.008428641594946384	-0.12158796936273575	0.04710344597697258	-0.08138535916805267	-0.123454250395298	0.06939662247896194	0.04607609286904335	-0.06431500613689423
marw1260	-0.31516262888908386	0.2144623100757599	0.15580885112285614	-0.1283402442932129	0.09102059155702591	-0.09002742171287537	-0.20803236961364746	0.2118268758058548	0.22245067358016968	0.16064628958702087	-0.06430824100971222	0.5051229000091553	0.34206467866897583	0.2171076387166977	0.03312130644917488	0.026833074167370796	-0.1670190542936325	-0.018668722361326218	0.21042785048484802	0.2217111736536026	0.18253622949123383	0.0444454662501812	-0.3616459369659424	0.1807727962732315	-0.30838993191719055	-0.1326572448015213	0.33118966221809387	-0.1785888969898224	0.12260071933269501	0.20153827965259552	0.08896957337856293	-0.29889771342277527	-0.009857047349214554	0.022370025515556335	-0.03592845797538757	0.2144630402326584	0.05119429901242256	0.08252084255218506	0.21236580610275269	-0.12918099761009216	0.19751659035682678	0.08529815077781677	0.039108436554670334	0.11888488382101059	0.1372106522321701	0.24613425135612488	-0.1386018693447113	-0.21492616832256317	0.2240683138370514	0.23868289589881897	-0.1041731908917427	-0.49177512526512146	-0.10642587393522263	0.025207644328475	0.02279466576874256	-0.23493707180023193	-0.23260213434696198	0.21959297358989716	-0.058671362698078156	-0.0897195115685463	0.2053188532590866	0.35664379596710205	-0.17035387456417084	0.030930543318390846	0.14182163774967194	-0.09606264531612396	0.20064055919647217	0.05647210776805878	0.0038577818777412176	-0.11166143417358398	0.1858057975769043	0.03550177440047264	-0.10584110766649246	-0.22787877917289734	-0.004421716555953026	-0.17323416471481323	-0.004749975632876158	0.20976094901561737	-0.07095743715763092	0.1418154388666153	-0.3578304052352905	-0.08946841955184937	-0.23239801824092865	-0.04160701856017113	0.06794407218694687	0.22484509646892548	-0.13170646131038666	0.09215935319662094	0.15830348432064056	0.21750427782535553	-0.0796053409576416	0.1580716073513031	0.15426385402679443	0.07301721721887589	0.32451286911964417	-0.02649589627981186	0.12110479176044464	0.04634131118655205	-0.19146478176116943	-0.11797444522380829	-0.43150565028190613	0.21035981178283691	-0.12437628209590912	-0.05864715948700905	0.3113429546356201	0.23449645936489105	0.18088528513908386	0.25940364599227905	-0.027476824820041656	-0.2018323689699173	0.24054548144340515	0.00013901137572247535	0.03547827526926994	-0.048929363489151	0.7474401593208313	-0.06806852668523788	0.056726500391960144	0.35346049070358276	-0.13803856074810028	0.042893245816230774	-0.0074291895143687725	-0.10043690353631973	-0.14010164141654968	-0.14500705897808075	-0.10428068041801453	-0.22300276160240173	0.12282507866621017	-0.14876070618629456
mult1243	-0.33062437176704407	0.43161866068840027	0.39567530155181885	0.2500247061252594	-0.08158235251903534	0.022862974554300308	0.24499398469924927	-0.02333885058760643	-0.02863532304763794	0.07586625218391418	-0.0967206358909607	-0.22204497456550598	-0.09807461500167847	-0.11350994557142258	-0.09847589582204819	-0.06279456615447998	0.378082275390625	0.25641337037086487	0.26511603593826294	-0.018723268061876297	-0.03515343368053436	-0.05281548202037811	-0.09396246820688248	-0.0875072330236435	-0.5053497552871704	-0.1788703352212906	-0.4398197829723358	-0.16052018105983734	-0.13142989575862885	-0.08872853964567184	-0.09182827174663544	0.36870723962783813	0.020626947283744812	0.10387786477804184	-0.2823336720466614	-0.18556514382362366	0.1727720946073532	-0.10243629664182663	0.21217946708202362	-0.1174272671341896	-0.0947142243385315	-0.15707603096961975	0.06758718192577362	0.00349722383543849	0.09558172523975372	0.07220447063446045	0.03225806728005409	-0.03543419763445854	-0.1230216696858406	0.10483570396900177	0.20423917472362518	-0.10608287155628204	-0.0703606978058815	-0.3594379425048828	-0.4294309616088867	0.09855667501688004	0.41793644428253174	0.12269449979066849	-0.28566256165504456	0.08477238565683365	0.01956011727452278	0.3084753453731537	0.09810271114110947	0.29681098461151123	0.22686298191547394	0.12013670802116394	0.16444337368011475	0.30641311407089233	-0.018782172352075577	0.15859249234199524	-0.12751880288124084	-0.03237314522266388	0.10837256908416748	0.05404399335384369	0.29034149646759033	0.42774510383605957	0.17950473725795746	0.23127330839633942	-0.16020286083221436	-0.08219245076179504	-0.2811899185180664	0.07995425164699554	0.17604154348373413	-0.43618443608283997	0.16991479694843292	-0.05326230823993683	-0.15647611021995544	-0.3046431243419647	-0.32119888067245483	-0.32535964250564575	-0.15041986107826233	0.09209229797124863	-0.06666956841945648	-0.254040390253067	0.26590052247047424	-0.2224472165107727	0.15437446534633636	0.028460605069994926	-0.2520023584365845	0.11775729060173035	0.3544897735118866	0.05832440406084061	0.4109542667865753	-0.28219348192214966	-0.3379379212856293	0.06314320862293243	0.2719227373600006	0.11235831677913666	0.35998332500457764	-0.16665448248386383	0.03512861579656601	-0.3423297703266144	-0.08831291645765305	0.0736897811293602	0.2644960284233093	0.05369753763079643	0.261322945356369	0.03718232363462448	-0.17984150350093842	-0.381918340921402	-0.04318971186876297	0.3255908787250519	0.1232989951968193	-0.19246892631053925	-0.2902016043663025	0.13790291547775269	0.14472180604934692	-0.10247485339641571
