aret1240	0.02135024592280388	0.15144725143909454	0.09446609020233154	0.04467907175421715	-0.05722777917981148	0.07110898196697235	0.005140313412994146	0.23981527984142303	0.07913623005151749	0.07103167474269867	-0.12650136649608612	-0.2541559934616089	0.36984896659851074	-0.1422022134065628	-0.1338135004043579	0.2641703486442566	0.2252485603094101	-0.04848107323050499	0.13678233325481415	-0.0029484280385077	-0.05153506621718407	-0.2059253454208374	0.06664250046014786	0.04710427671670914	-0.24278026819229126	0.004272535443305969	-0.23342540860176086	-0.12590165436267853	-0.06262055039405823	-0.20038731396198273	0.02740948088467121	0.039810970425605774	-0.11369985342025757	-0.2896549105644226	0.15644104778766632	-0.12610137462615967	-0.039955638349056244	0.2022627741098404	0.14134742319583893	0.3627060353755951	0.4128723740577698	-0.3381147086620331	0.009092799387872219	0.003476538695394993	0.033683329820632935	0.11650151014328003	0.035343218594789505	0.2579885721206665	-0.09078805148601532	-0.424531489610672	-0.04291670396924019	0.2069416046142578	-0.2327727973461151	-0.03480294719338417	0.12250818312168121	0.0059167989529669285	-0.060772769153118134	0.0009541801991872489	0.009385047480463982	-0.7113549113273621	-0.2443554699420929	-0.3822423219680786	0.20058578252792358	-0.21259109675884247	-0.11461805552244186	0.3529244661331177	0.1546579897403717	-0.011887671425938606	0.19215616583824158	-0.35692673921585083	0.08686057478189468	0.17122036218643188	-0.05556309223175049	-0.08824221044778824	0.034189630299806595	-0.07494212687015533	0.06849200278520584	0.02619251236319542	0.07483050227165222	0.0755700021982193	-0.16969451308250427	0.08502216637134552	0.007826131768524647	0.001359861809760332	0.12337860465049744	-0.2134402096271515	-0.12047384679317474	-0.1864207535982132	0.264872282743454	0.16410332918167114	0.18187905848026276	-0.02079753577709198	0.08591027557849884	-0.09460508078336716	0.05718722566962242	-0.0012455318355932832	0.17801368236541748	-0.11672517657279968	-0.0410037636756897	-0.11095866560935974	0.31676575541496277	-0.21868903934955597	-0.12312290072441101	0.09093881398439407	0.010635181330144405	0.1750650256872177	-0.24632713198661804	-0.10594252496957779	0.18246333301067352	0.46583428978919983	-0.1743568629026413	-0.005472690798342228	-0.3315209448337555	-0.06438203155994415	-0.14914639294147491	-0.0422697439789772	-0.16244588792324066	0.09593267738819122	0.085224948823452	0.09500201046466827	0.02743964083492756	-0.2939620316028595	-0.27219483256340027	-0.11261934041976929	-0.2924582064151764	0.0016438273014500737	-0.5436626076698303	-0.24962234497070312
assa1263	-0.06735347211360931	0.07574626058340073	-0.18059058487415314	-0.015062223188579082	-0.0908353328704834	0.1634667068719864	-0.10673666000366211	-0.06312225759029388	-0.19292326271533966	-0.24691079556941986	0.004687588661909103	0.09917523711919785	0.057381708174943924	0.06520035117864609	0.16189518570899963	-0.1247093603014946	-0.06526309996843338	0.049790676683187485	-0.03256821632385254	-0.1800875961780548	-0.037917740643024445	-0.13541778922080994	0.18297143280506134	-0.1274789273738861	0.03239322826266289	-0.06583188474178314	-0.03853294998407364	-0.016158759593963623	0.041896551847457886	-0.15533216297626495	0.11677736788988113	-0.03350459411740303	0.16369660198688507	0.31702518463134766	-0.08402471244335175	0.12453092634677887	0.0020981559064239264	0.04533585160970688	0.005775219760835171	0.012639923952519894	-0.05562920868396759	0.07271020114421844	0.027591858059167862	-0.13021652400493622	-0.03013906255364418	-0.08219195902347565	-0.1293208748102188	0.11122715473175049	-0.008119344711303711	-0.009064850397408009	-0.03947446122765541	0.032171133905649185	0.022943127900362015	0.011755416169762611	-0.020022379234433174	0.05224763602018356	0.0362519770860672	0.03975827246904373	0.020248418673872948	0.04764631763100624	0.08678969740867615	0.0025246981531381607	0.0767916887998581	0.08968012779951096	-0.016369758173823357	-0.24408763647079468	0.14130474627017975	0.17475217580795288	-0.09765511751174927	-0.027349423617124557	0.03403728827834129	0.23148544132709503	0.09036216884851456	-0.23303864896297455	-0.055846426635980606	-0.24394375085830688	0.0032764896750450134	0.09403353184461594	-0.05378511920571327	0.008803414180874825	-0.10312686860561371	-0.08145657926797867	0.010884609073400497	-0.012804432772099972	0.08299184590578079	0.0979103222489357	0.08285926282405853	0.03275849670171738	-0.022150959819555283	-0.1880674958229065	0.13318872451782227	0.05216892808675766	-0.04297521337866783	0.039920661598443985	-0.04805819317698479	0.08038149029016495	-0.15396364033222198	0.00417392747476697	-0.18665455281734467	0.07713811844587326	-0.07140299677848816	0.10547909140586853	0.040667783468961716	-0.014397500082850456	0.01584598794579506	-0.011965377256274223	-0.17751793563365936	0.00710215512663126	-0.05633337050676346	0.04104526713490486	-0.04617521911859512	0.039705488830804825	-0.08437132835388184	0.0008992727380245924	0.1783752292394638	-0.16306276619434357	-0.2194959819316864	-0.21075478196144104	0.08638346195220947	-0.029591478407382965	0.11627452075481415	-0.12962982058525085	0.022588001564145088	0.048736654222011566	-0.10200614482164383	-0.02913382276892662	0.03652428835630417	-0.11007681488990784
bagh1251	-0.15821747481822968	0.25311270356178284	0.24775643646717072	0.2729758024215698	-0.22490644454956055	0.2138262391090393	-0.058631014078855515	-0.0458955354988575	0.06667075306177139	-0.10340413451194763	0.07272209972143173	0.22436092793941498	0.11353753507137299	-0.09022526443004608	-0.28619083762168884	0.009458208456635475	-0.08804497122764587	0.01683850586414337	0.0743611678481102	0.03411668539047241	-0.07651276886463165	0.06301688402891159	0.09554819762706757	-0.2520505487918854	0.08765396475791931	-0.1378692388534546	0.10020602494478226	-0.03435887396335602	-0.01190818753093481	-0.045062001794576645	0.04439842700958252	-0.016871226951479912	0.13274578750133514	0.13418005406856537	0.31464922428131104	0.1646701544523239	0.027662085369229317	-0.1720062792301178	0.032003361731767654	0.10823269188404083	0.06457328051328659	0.17807765305042267	-0.1680745929479599	-0.14754854142665863	-0.04930251091718674	0.11353582888841629	-0.06367349624633789	0.2675129175186157	-0.024970827624201775	-0.119901642203331	-0.10703197866678238	-0.12268004566431046	-0.019911693409085274	0.014202471822500229	0.15261703729629517	0.12031030654907227	-0.013260121457278728	0.010452351532876492	0.03296497464179993	-0.02111218497157097	-0.13372056186199188	0.10599788278341293	0.02853797934949398	0.0005632730317302048	0.06668297946453094	-0.013023975305259228	-0.3267163932323456	0.12068317085504532	0.07859320938587189	0.0042487503960728645	0.07394695281982422	-0.08538894355297089	0.11053356528282166	0.3100719451904297	-0.024317268282175064	-0.28910478949546814	0.05545696243643761	0.020378926768898964	-0.12210673838853836	-0.0277785062789917	-0.0421491377055645	-0.022230666130781174	0.00989032257348299	-0.16353186964988708	0.10529017448425293	-0.013256784528493881	0.021547427400946617	0.11598294228315353	0.009441797621548176	0.004421748220920563	0.07563097774982452	-0.285123348236084	-0.07816796004772186	-0.04003237560391426	-0.03134240582585335	0.045905616134405136	-0.05210946500301361	-0.016454922035336494	0.016211841255426407	0.15250040590763092	0.20777474343776703	-0.1135084480047226	-0.005350571591407061	0.049836382269859314	-0.023904835805296898	-0.15679095685482025	-0.1505184918642044	-0.01113170012831688	0.0684102401137352	-0.13940651714801788	0.06185693293809891	0.20844505727291107	-0.14489078521728516	0.10590200871229172	-0.030136873945593834	-0.1866537481546402	0.007472727447748184	-0.1095767393708229	-0.11270008236169815	0.012523774988949299	-0.08244292438030243	-0.005530435126274824	0.011950930580496788	-0.11685601621866226	0.10162823647260666	-0.01656637154519558	0.1156662255525589	-0.10833092778921127
beng1280	-0.026873871684074402	0.04065587371587753	0.2792348265647888	0.04235868155956268	-0.030841164290905	-0.06596910208463669	0.0951574444770813	-0.03472726047039032	-0.10233734548091888	-0.21675285696983337	0.05248728394508362	0.0576898567378521	-0.0615299716591835	0.05818267539143562	0.3244132697582245	-0.07236029952764511	0.04544825479388237	-0.06069865822792053	-0.03806883841753006	0.034713614732027054	-0.024579450488090515	-0.11759535223245621	0.01817714050412178	-0.0615888275206089	-0.0812796875834465	0.09845032542943954	0.08776341378688812	0.0115465447306633	0.05816340073943138	-0.15776759386062622	-0.0134424502030015	0.0019112065201625228	-0.14482766389846802	-0.04828108102083206	-0.15159040689468384	0.05085116997361183	0.025224998593330383	0.10873519629240036	0.05335768312215805	0.19595016539096832	-0.047064024955034256	0.04729917645454407	0.17471501231193542	0.17173302173614502	0.028934812173247337	0.08324714750051498	-0.19180776178836823	0.01604393497109413	0.004446875303983688	0.04417520388960838	0.04263624548912048	-0.013147669844329357	0.08047373592853546	0.016245057806372643	-0.28064653277397156	-0.10804478824138641	0.036808762699365616	0.0049459245055913925	0.013894915580749512	0.07132094353437424	0.001801921520382166	-0.13007941842079163	-0.0348619744181633	-0.11603045463562012	-0.038925886154174805	-0.20152126252651215	-0.04234125465154648	-0.03678717091679573	0.05115404352545738	0.009611369110643864	0.012745250947773457	-0.03171170502901077	0.02791931852698326	0.08975910395383835	-0.04450124129652977	0.10260538756847382	0.030398063361644745	-0.14267860352993011	0.024123290553689003	0.010895531624555588	-0.10987670719623566	-0.006257945206016302	0.022325880825519562	0.016989504918456078	-0.017713911831378937	-0.028157895430922508	-0.0796436294913292	-0.13836155831813812	0.043211936950683594	-0.07026328146457672	-0.056352172046899796	-0.16459158062934875	-0.01733049936592579	0.03941693529486656	0.020126337185502052	0.05077708512544632	-0.21770928800106049	0.004484840668737888	-0.248911514878273	0.05185267701745033	-0.11386734992265701	0.010037323459982872	0.09617418795824051	-0.16194406151771545	-0.012800764292478561	0.04357887804508209	-0.0442393459379673	0.010795638896524906	-0.23146909475326538	0.06001221016049385	-0.016889996826648712	0.01743381842970848	-0.027516061440110207	-0.01531089749187231	0.0806383490562439	-0.10657209903001785	0.06569217890501022	0.11195077747106552	0.04003259167075157	0.008588549681007862	0.16319921612739563	-0.06461445242166519	0.010762081481516361	0.13062311708927155	-0.1515396684408188	0.01727929152548313	0.0803699940443039	-0.04501821845769882
bhad1241	-0.04891718924045563	0.2639569044113159	-0.0017011207528412342	0.1313110589981079	0.027760019525885582	0.04242478683590889	-0.022048110142350197	0.09482228010892868	-0.056988317519426346	0.1716916859149933	0.03099231980741024	-0.15899235010147095	-0.09871340543031693	-0.10727953910827637	-0.12529093027114868	0.2870616316795349	-0.12440425902605057	0.059386953711509705	0.010770795866847038	0.3363763988018036	-0.009090735577046871	0.004906475078314543	-0.007571341935545206	-0.09206122905015945	0.21353812515735626	0.07154916971921921	-0.2362665832042694	-0.012537319213151932	-0.09778286516666412	-0.03324185311794281	-0.025719190016388893	0.036001887172460556	0.16949021816253662	-0.08496975153684616	-0.09889376163482666	-0.002304529072716832	-0.04419740289449692	0.18769428133964539	0.14069721102714539	0.16322080790996552	-0.05722017213702202	0.007401939015835524	0.06939294189214706	0.16191163659095764	-0.06711357086896896	-0.16089899837970734	-0.09737971425056458	-0.14086522161960602	0.019688693806529045	-0.12246754765510559	0.22548437118530273	-0.29010507464408875	0.03300962969660759	-0.04598094895482063	0.26834195852279663	0.20471468567848206	0.08212749660015106	0.013525817543268204	0.04008490592241287	-0.13357748091220856	-0.026921560987830162	0.1952359527349472	0.21310459077358246	0.04521569609642029	-0.022070879116654396	0.1878950446844101	0.2847070097923279	0.23785138130187988	-0.16612091660499573	0.06036244332790375	0.021421028301119804	-0.3218766152858734	0.03465823829174042	0.24005207419395447	0.08342494815587997	0.11766048520803452	0.037996113300323486	-0.06057778745889664	0.07912919670343399	0.038913339376449585	-0.02235381491482258	-0.06163343787193298	0.014459576457738876	-0.1138049066066742	-0.009630104526877403	0.11768659949302673	-0.13108716905117035	-0.025611868128180504	-0.11387792974710464	0.2235860526561737	0.001052084262482822	0.06943068653345108	0.048209477216005325	-0.08670774847269058	-0.17381998896598816	0.004388889763504267	0.19823823869228363	-0.08592619746923447	-0.1476084440946579	-0.11110178381204605	-0.10476595908403397	-0.18375110626220703	0.07596573978662491	0.20406454801559448	0.01605350896716118	-0.05270528793334961	-0.04595470800995827	0.0969928503036499	0.077729232609272	0.4048616886138916	0.027228042483329773	-0.3556971848011017	-0.03729823976755142	-0.01890939474105835	-0.028706619516015053	0.3255334496498108	-0.18970517814159393	-0.16117249429225922	-0.057953573763370514	0.01730102114379406	0.2103615701198578	0.019736886024475098	-0.06228591129183769	-0.08135673403739929	0.21844224631786346	-0.0008921936969272792	0.14506568014621735	0.2615116238594055
bhal1244	0.0183845404535532	0.10701000690460205	0.05712072178721428	-0.024766800925135612	0.00822579488158226	-0.0035327416844666004	0.03863498941063881	0.07583613693714142	-0.30216386914253235	0.005557490978389978	0.021465491503477097	0.02025241032242775	-0.013372533023357391	0.03182468190789223	-0.08007275313138962	0.20028986036777496	-0.219563826918602	0.12563422322273254	0.016606420278549194	0.2564181089401245	-0.009277548640966415	-0.042922429740428925	-0.13432244956493378	-0.023694729432463646	0.026141462847590446	0.07103494554758072	-0.13906452059745789	0.0026242497842758894	-0.20521143078804016	-0.1586744487285614	-0.24605651199817657	-0.006889823358505964	0.09682297706604004	0.023494882509112358	-0.3224785029888153	-0.2513268291950226	-0.014336391352117062	0.14751602709293365	0.06971845030784607	-0.02647392451763153	0.15102823078632355	-0.018467295914888382	-0.12447381019592285	-0.05291220545768738	-0.0600312240421772	0.09820137917995453	-0.0030997120775282383	0.20321156084537506	-0.003309948369860649	0.11887427419424057	0.10717399418354034	-0.24429677426815033	-0.15449006855487823	0.03467552736401558	0.18884335458278656	0.19552934169769287	0.24707862734794617	-0.01833275705575943	-0.03762136772274971	-0.0724402591586113	-0.21829140186309814	0.17306414246559143	-0.12859076261520386	-0.053576018661260605	-0.016870949417352676	0.034251779317855835	0.2440103143453598	0.04383179545402527	-0.06606002151966095	-0.17351993918418884	-0.015339509584009647	-0.14498251676559448	-0.07533973455429077	0.11035675555467606	-0.03779866173863411	0.3489897847175598	0.0750780776143074	0.00049565639346838	0.012661833316087723	-0.06295759230852127	0.28900331258773804	0.019431639462709427	0.0067692711018025875	-0.009207405149936676	0.0736566111445427	0.06200122460722923	0.0018473920645192266	-0.10774137079715729	-0.059151120483875275	0.04394763708114624	-0.016753198578953743	0.07909449189901352	-0.12374010682106018	0.00936050433665514	-0.07953229546546936	-0.07979137450456619	0.23654358088970184	0.06295634806156158	0.14678539335727692	-0.14153771102428436	0.04503939673304558	-0.04651988670229912	0.15889088809490204	0.04125864803791046	-0.03271254524588585	0.107932910323143	0.15731777250766754	-0.02791154570877552	0.011033119633793831	0.30842918157577515	0.06244358420372009	0.006944782100617886	-0.11433317512273788	-0.04482215642929077	0.06154979020357132	0.06373510509729385	0.11956992000341415	-0.27257099747657776	0.11721418052911758	-0.0067993039265275	0.2899262309074402	0.014749505557119846	-0.07063165307044983	0.09049614518880844	0.3073252737522125	0.027750739827752113	-0.0919884741306305	0.2678823471069336
bhoj1244	-0.22186389565467834	-0.28288033604621887	0.3336234986782074	0.01786188967525959	0.204790398478508	0.09712448716163635	-0.15194053947925568	0.09624134004116058	0.258371502161026	-0.2041434943675995	-0.07362063229084015	0.053338758647441864	0.08280996233224869	-0.1949215680360794	-0.2409585863351822	-0.294031023979187	0.0040925731882452965	0.022598160430788994	-0.01948438584804535	-0.06522943824529648	0.03585047274827957	-0.23734590411186218	0.023531071841716766	-0.008159083314239979	0.07403393089771271	-0.11538588255643845	-0.11174147576093674	0.0419011265039444	0.1145772710442543	-0.24196363985538483	0.3064339756965637	0.007945415563881397	-0.270985871553421	0.3127463161945343	0.11460200697183609	0.2846544086933136	0.03772708773612976	-0.016866613179445267	-0.06234496831893921	0.11322253197431564	-0.12450531870126724	0.148424431681633	-0.09785517305135727	-0.1604020744562149	0.08601535856723785	0.12669359147548676	-0.22290977835655212	0.2550499439239502	-0.04005757346749306	0.07329771667718887	-0.06296892464160919	0.13846296072006226	0.17576995491981506	0.011103451251983643	0.04389583691954613	0.20964427292346954	0.11793380975723267	-0.04798782989382744	-0.06682264804840088	-0.13085880875587463	0.007586683612316847	0.060137633234262466	0.0947900116443634	-0.13920705020427704	-0.06333225220441818	0.03898115083575249	-0.1382712423801422	-0.05149267986416817	0.12558209896087646	0.08827151358127594	-0.03753896430134773	-0.15663470327854156	-0.04043393209576607	0.03889843821525574	-0.10577961057424545	-0.017177550122141838	-0.09731704741716385	0.1456274837255478	0.11672812700271606	-0.007441673893481493	-0.23733218014240265	0.1089000254869461	-0.023141922429203987	0.16868868470191956	-0.14139382541179657	-0.14896135032176971	0.17443902790546417	-0.1249682754278183	-0.010370847769081593	0.0406034030020237	-0.1841728836297989	-0.12311069667339325	-0.1252165585756302	0.07943957298994064	0.05079835653305054	0.09526360780000687	0.11239005625247955	-0.040021367371082306	0.18643538653850555	0.14984405040740967	0.05858934298157692	-0.03605300188064575	0.12252603471279144	-0.35061436891555786	0.010703121311962605	-0.12924976646900177	-0.1749604195356369	0.12464460730552673	-0.23223768174648285	-0.04103584960103035	0.16151319444179535	0.1934049427509308	-0.04097868874669075	-0.09419671446084976	-0.2206086963415146	-0.15787529945373535	-0.039412304759025574	-0.0005507450550794601	0.16935664415359497	0.08417528867721558	-0.12432672083377838	-0.13068492710590363	0.11609573662281036	0.16571542620658875	0.07868154346942902	0.011679633520543575	-0.0196488369256258	0.05080048739910126
braj1242	0.21713533997535706	-0.16381138563156128	0.11576799303293228	-0.06750895828008652	-0.46122369170188904	-0.06446605920791626	0.23955824971199036	0.07764200121164322	0.003439459716901183	-0.2171337753534317	0.2479875683784485	-0.16227726638317108	0.3510996103286743	-0.11394517123699188	-0.4833793044090271	0.17492783069610596	0.43230772018432617	-0.052906278520822525	0.20114567875862122	0.06331690400838852	-0.11327634006738663	0.007675803732126951	0.2576836347579956	-0.2744846045970917	0.06692153215408325	-0.34905385971069336	-0.21800246834754944	-0.14914074540138245	0.041161470115184784	-0.23635689914226532	-0.0755712166428566	0.09103745222091675	-0.25849053263664246	0.2985393702983856	-0.03553475812077522	-0.002544911578297615	-0.05616035312414169	-0.04518001899123192	0.17183876037597656	0.18301241099834442	0.012721726670861244	0.13251304626464844	-0.37135618925094604	-0.005773404147475958	0.23299813270568848	-0.00209133536554873	-0.07993847876787186	0.14670917391777039	0.012710089795291424	-0.19050538539886475	-0.15994282066822052	-0.2953678071498871	0.041717078536748886	-0.06637316942214966	0.17777669429779053	0.2989506721496582	-0.26149335503578186	0.13682477176189423	-0.09521260112524033	-0.008033228106796741	0.036052435636520386	-0.06439271569252014	0.14912031590938568	-0.09329129755496979	0.1284746527671814	0.03056584671139717	0.061342496424913406	-0.26430875062942505	0.04638223722577095	-0.2040407359600067	0.0621810182929039	-0.2741329073905945	0.23857754468917847	-0.3437540531158447	-0.1604325771331787	0.05785400792956352	0.08842898160219193	-0.14238135516643524	-0.06572253257036209	-0.09473340958356857	-0.010223745368421078	-0.0012919883010908961	0.03094612993299961	0.2138470709323883	-0.006886698305606842	0.14074549078941345	-0.031099587678909302	0.2653065025806427	-0.15583990514278412	0.06843596696853638	0.08492637425661087	0.09512416273355484	0.005569435190409422	-0.02824331261217594	0.03651229292154312	0.15929020941257477	-0.03832526504993439	0.0011956196976825595	-0.062126513570547104	-0.14678767323493958	-0.1045951321721077	-0.23750635981559753	-0.3009583055973053	-0.24274493753910065	-0.011528144590556622	0.061890870332717896	0.0020795275922864676	-0.20946499705314636	-0.18245536088943481	-0.2456909567117691	-0.048399072140455246	0.23830780386924744	-0.27699658274650574	-0.12170331925153732	-0.3244580328464508	0.030908524990081787	0.3633202314376831	0.02565447799861431	-0.04368622973561287	-0.05258321017026901	0.20521104335784912	0.031789980828762054	-0.3033565580844879	-0.12923862040042877	-0.14820261299610138	0.06652334332466125	0.33690571784973145	-0.32689177989959717
cham1307	-0.06462519615888596	0.19790950417518616	0.08814644068479538	0.3594028055667877	0.3690272569656372	-0.28669264912605286	-0.17580951750278473	0.047742050141096115	0.04953794926404953	0.2951001226902008	-0.3187762498855591	-0.014937357045710087	0.29504668712615967	0.06328460574150085	-0.19641166925430298	0.25459495186805725	0.017508603632450104	0.0922427847981453	-0.18765243887901306	0.10409808158874512	-0.03091111034154892	-0.12296778708696365	-0.00921040028333664	0.09478100389242172	0.28031250834465027	-0.11530055105686188	-0.05873149260878563	-0.17790688574314117	-0.03778478130698204	0.15975740551948547	-0.3970000445842743	0.029828500002622604	0.036023788154125214	-0.3023606240749359	0.4046764373779297	0.08839529007673264	-0.01126834936439991	0.2669527232646942	-0.12176614999771118	-0.14641031622886658	0.03162027895450592	-0.06325638294219971	-0.07715076953172684	-0.1456860452890396	-0.30359140038490295	0.061667345464229584	-0.13553309440612793	0.2942911982536316	0.005063366610556841	0.3789207637310028	0.09446609765291214	-0.1501106470823288	0.46976277232170105	0.055317189544439316	0.1229834258556366	0.09000688791275024	0.21245940029621124	0.08582334965467453	0.10305269062519073	0.01371785718947649	0.06319703161716461	-0.03701120987534523	0.16973499953746796	-0.06923249363899231	0.3761994242668152	-0.1628696322441101	0.26884913444519043	-0.07546187192201614	-0.15464314818382263	0.14083066582679749	-0.06968589127063751	-0.2158692181110382	-0.1673291027545929	0.3875444233417511	-0.3343413472175598	0.1746310591697693	0.12529584765434265	-0.19886396825313568	0.12744317948818207	0.2204444855451584	-0.0585910826921463	0.10043659061193466	-0.01691606640815735	0.21016523241996765	-0.0679909884929657	0.07264255732297897	-0.18298356235027313	-0.24584300816059113	0.14518916606903076	0.07826226204633713	0.4961395561695099	0.2245209515094757	-0.19665472209453583	0.035211946815252304	0.11862277239561081	-0.1525215208530426	0.15041033923625946	0.08848248422145844	0.08282698690891266	-0.1169096976518631	-0.37143173813819885	0.12504680454730988	0.004987933207303286	0.03490353748202324	-0.04748726636171341	0.33350637555122375	0.26798176765441895	-0.05261562764644623	-0.14378096163272858	-0.40102073550224304	-0.11198646575212479	-0.2831057012081146	0.15542396903038025	-0.0701877549290657	0.16802719235420227	0.015589200891554356	0.3665432631969452	0.016606418415904045	0.12699387967586517	-0.10491342097520828	-0.2196657806634903	0.07844221591949463	0.4679456353187561	-0.32354938983917236	0.004323014989495277	-0.10153774172067642	0.13525390625	0.26003408432006836
chur1258	0.036606285721063614	0.44331249594688416	0.07528962939977646	0.25244390964508057	0.2722037434577942	-0.4248447120189667	-0.06826849281787872	0.17239806056022644	-0.16957375407218933	0.023758739233016968	0.17954495549201965	0.24606570601463318	-0.207675963640213	0.2106412798166275	-0.06143544986844063	-0.11841601878404617	-0.17025208473205566	-0.04407258704304695	-0.15446048974990845	0.32601398229599	0.08910027891397476	-0.3142453134059906	-0.06756933033466339	-0.03059372864663601	-0.007064587436616421	0.01684192195534706	-0.17830176651477814	0.03385503217577934	-0.14159850776195526	0.2736484706401825	-0.19732287526130676	0.07862880080938339	-0.1471574306488037	0.09153779596090317	0.0824459120631218	-0.26152753829956055	-0.008506312035024166	0.13441234827041626	-0.1188260167837143	0.10195514559745789	0.08645649254322052	-0.07997407019138336	0.024566087871789932	0.03879312053322792	0.14905740320682526	0.02173384092748165	-0.27507713437080383	0.3429825007915497	0.09869442135095596	0.1389688402414322	0.043774835765361786	-0.12734925746917725	0.06993571668863297	-0.0849766656756401	0.1445740908384323	0.13053660094738007	0.18573331832885742	-0.02007156051695347	-0.07032404094934464	0.03084232471883297	0.12263109534978867	0.18766117095947266	0.23610007762908936	-0.06874941289424896	-0.015395957045257092	-0.16767063736915588	0.03707394748926163	-0.10124142467975616	-0.07242836803197861	0.06578083336353302	-0.06929207593202591	0.0839741975069046	-0.3118002712726593	0.37059739232063293	0.17061731219291687	0.0017853181343525648	-0.3323565423488617	-0.053457941859960556	-0.15375222265720367	-0.08392761647701263	0.035104669630527496	-0.12517893314361572	0.018874799832701683	0.018040038645267487	-0.13191471993923187	0.12767310440540314	-0.19610780477523804	0.051015742123126984	0.17483988404273987	0.25515440106391907	-0.0967308059334755	-0.14207354187965393	-0.07043393701314926	-0.12545333802700043	-0.011935783550143242	-0.21853961050510406	-0.04050808772444725	0.09717918932437897	0.32195907831192017	0.021130526438355446	-0.40539753437042236	-0.020636869594454765	0.004907949361950159	0.3613946735858917	0.0225832536816597	0.11625266820192337	0.012495859526097775	-0.1199619397521019	0.09771788120269775	-0.058160193264484406	0.11935237795114517	-0.2573797404766083	-0.0275250393897295	-0.06360505521297455	-0.1565682291984558	-0.21705234050750732	0.22525344789028168	-0.4428419768810272	-0.008529682643711567	-0.022003866732120514	-0.14280594885349274	0.17368705570697784	0.016574352979660034	-0.03191839158535004	0.17347300052642822	0.0016944222152233124	0.30891627073287964	0.07254917919635773
dame1241	-0.06361211091279984	0.08530546724796295	0.10444016754627228	-0.20991702377796173	0.10692515224218369	-0.015711452811956406	0.16607020795345306	0.0274200439453125	-0.12737728655338287	-0.005698156543076038	0.290368914604187	-0.18625760078430176	-0.18378105759620667	0.17294517159461975	-0.2017957717180252	-0.03074578009545803	0.1679242104291916	-0.1621338129043579	-0.062419500201940536	0.14725971221923828	0.028476793318986893	0.046375785022974014	-0.015045958571135998	0.03491952642798424	0.09774915874004364	-0.03611484915018082	0.24330706894397736	-0.0032229283824563026	0.04766326770186424	-0.34212976694107056	-0.15034598112106323	0.027203615754842758	-0.09159164130687714	-0.17653900384902954	-0.029617665335536003	0.1272977590560913	0.02733631618320942	0.3157283365726471	0.02099389024078846	0.19331450760364532	-0.07414260506629944	0.0792260468006134	0.14160746335983276	-0.3325289785861969	0.09151390939950943	-0.3112061321735382	0.03615841269493103	-0.08140018582344055	-0.12446855008602142	-0.1136549562215805	-0.07251416891813278	0.3854037821292877	-0.17039039731025696	-0.027500329539179802	-0.16987110674381256	0.11975951492786407	-0.19649028778076172	-0.06960490345954895	0.011244768276810646	0.04590492323040962	0.07308230549097061	0.06757328659296036	0.008583142422139645	0.12313669174909592	-0.07374697178602219	-0.16406673192977905	-0.3194245994091034	0.14904393255710602	-0.013556495308876038	-0.31580838561058044	-0.016173725947737694	0.026338301599025726	-0.05788632109761238	0.33845433592796326	0.11845998466014862	-0.09297112375497818	0.10463827103376389	-0.046461667865514755	-0.21172137558460236	-0.014908311888575554	-0.0626436322927475	0.1552192121744156	0.005933952052146196	-0.067623071372509	0.04210326075553894	0.36132779717445374	0.09714675694704056	-0.06250059604644775	0.2113049179315567	-0.08905408531427383	0.006507625337690115	-0.2819151282310486	0.10965800285339355	-0.003303080564364791	0.0415801927447319	0.17250123620033264	-0.13024167716503143	-0.03774615377187729	0.3853749632835388	-0.17427603900432587	0.19400736689567566	-0.2665596306324005	-0.06988057494163513	0.1752135157585144	0.012229649350047112	-0.009503745473921299	0.007438125554472208	0.010274047963321209	-0.15553271770477295	0.10961545258760452	0.026969291269779205	-0.006647128611803055	-0.11617209017276764	-0.0008328655385412276	0.09624812006950378	-0.10143691301345825	0.11793012917041779	-0.041012510657310486	-0.056350935250520706	-0.015939606353640556	0.017132079228758812	-0.1048293486237526	-0.05000903457403183	-0.10768570750951767	-0.305436909198761	-0.008802574127912521	-0.0367472842335701	0.08232726156711578
dhiv1236	-0.08641809970140457	-0.004877052269876003	-0.4282679855823517	-0.04698540270328522	-0.23756012320518494	0.07216685265302658	0.017519444227218628	0.13341212272644043	-0.06759379059076309	-0.13902974128723145	0.17047718167304993	0.08043483644723892	-0.19072702527046204	0.13529279828071594	0.1605318933725357	0.11946845054626465	-0.09073787182569504	-0.21545906364917755	0.19236241281032562	-0.2245505452156067	-0.06384771317243576	-0.061281416565179825	0.2519547939300537	-0.039142169058322906	-0.09256605803966522	0.13363388180732727	0.07250527292490005	-0.012117868289351463	-0.1364416778087616	0.1775752753019333	0.09844263643026352	0.006841941736638546	-0.1474374234676361	-0.09302622824907303	0.34648141264915466	0.011662553995847702	-0.027338046580553055	0.24803079664707184	-0.11739373952150345	0.031358007341623306	0.012474256567656994	-0.15311314165592194	-0.016306517645716667	0.12264366447925568	0.09128531813621521	0.2704690098762512	0.015275380574166775	0.2275044023990631	0.060133934020996094	0.1616469919681549	0.051643624901771545	-0.09255343675613403	0.16607019305229187	-0.013437184505164623	-0.09900714457035065	-0.19072921574115753	-0.17445982992649078	0.009256779216229916	0.05588464066386223	-0.2875221371650696	0.1121327131986618	0.050808683037757874	-0.22738851606845856	0.272068053483963	-0.13681451976299286	-0.27395182847976685	-0.05072539299726486	-0.33434098958969116	-0.060297891497612	0.10583619773387909	0.07529126107692719	-0.1507961004972458	0.16595715284347534	-0.30126112699508667	-0.00024357468646485358	0.06604380160570145	0.1740017980337143	0.12673628330230713	-0.4754512906074524	-0.019806992262601852	-0.024241812527179718	0.14127863943576813	0.00472002848982811	0.051433902233839035	-0.05746805667877197	-0.1480698138475418	0.04156198725104332	0.0573466494679451	0.13792750239372253	0.08650047332048416	0.13088442385196686	-0.18382500112056732	-0.031392429023981094	0.06542342901229858	0.1127266213297844	-0.05595294386148453	0.02253800258040428	-0.03751122206449509	0.1802014857530594	-0.22418129444122314	-0.029002977535128593	0.42156216502189636	0.004131592810153961	-0.03592228516936302	0.002602331805974245	-0.15107285976409912	0.25713494420051575	-0.07890477031469345	-0.006535882595926523	0.14791901409626007	0.11019637435674667	-0.14595648646354675	-0.2127527892589569	-0.0679645910859108	0.11896000057458878	0.36341530084609985	-0.08313092589378357	-0.04048695042729378	-0.09929972887039185	-0.01331289205700159	-0.5036934614181519	-0.2023852914571762	-0.03205953910946846	0.15432246029376984	-0.13571420311927795	0.06735320389270782	-0.026287883520126343	0.16674771904945374
doma1260	0.22387079894542694	-0.1934412717819214	0.020615078508853912	0.18241097033023834	0.30703580379486084	-0.13558056950569153	0.2773624062538147	0.32145413756370544	0.044545140117406845	0.09018309414386749	-0.1343374252319336	0.009579336270689964	0.11049041897058487	0.3751303255558014	0.18217000365257263	0.35354575514793396	0.37847331166267395	0.014432348310947418	0.29142653942108154	-0.09642110019922256	-0.04122760519385338	-0.05279723182320595	0.3841865360736847	0.11953704059123993	0.09437738358974457	0.07947108894586563	0.25506091117858887	-0.089319609105587	-0.0162996593862772	0.23829405009746552	-0.2848294675350189	-0.0375860296189785	0.18652527034282684	-0.26787176728248596	0.08117746561765671	-0.3248273730278015	0.060074582695961	0.2081868201494217	0.3667653501033783	0.029244575649499893	-0.24063661694526672	-0.026080794632434845	-0.3723627030849457	0.03939960151910782	0.08672303706407547	-0.05366265028715134	0.03979837894439697	0.3666539490222931	0.2921943664550781	-0.09569677710533142	-0.023699047043919563	0.07181884348392487	-0.19143061339855194	0.052728235721588135	0.11986513435840607	-0.1883590668439865	-0.0033787796273827553	-0.05338830500841141	0.049279626458883286	0.054408084601163864	0.04268581047654152	-0.24727684259414673	0.16089490056037903	0.08790046721696854	0.06439211964607239	0.12232751399278641	-0.3059026598930359	-0.231595978140831	0.007018164731562138	-0.19025442004203796	-0.1109117716550827	0.03266170620918274	0.07699528336524963	-0.14169842004776	0.015288632363080978	-0.008306608535349369	0.18973729014396667	-0.2547965943813324	-0.28062692284584045	0.0625816062092781	-0.15580296516418457	0.02024073339998722	0.00371648371219635	-0.054988447576761246	-0.10763861238956451	-0.34915971755981445	0.1474575698375702	-0.18512342870235443	0.14281021058559418	-0.380288302898407	-0.02540130726993084	-0.2107335776090622	-0.02324492856860161	-0.13199424743652344	-0.09988171607255936	-0.12209063023328781	-0.3588801324367523	-0.10642322152853012	0.14195694029331207	-0.2186671942472458	0.2915939688682556	-0.004260224290192127	0.03579002618789673	0.2908841669559479	0.007464343681931496	0.35078632831573486	0.01501358114182949	-0.1469028890132904	-0.33344388008117676	0.16848844289779663	-0.08629768341779709	0.0829584002494812	0.2645495533943176	-0.19199740886688232	0.12981125712394714	0.13159160315990448	-0.2738538086414337	0.21798770129680634	0.3030843138694763	0.06422645598649979	-0.17041082680225372	0.18213683366775513	-0.004410760942846537	-0.17894704639911652	0.09969376027584076	-0.07633800059556961	-0.07853757590055466	0.17247183620929718
gang1265	0.0821901485323906	-0.007904167287051678	0.029482712969183922	-0.04085562750697136	0.2234453409910202	-0.08236980438232422	0.09733673185110092	-0.2131972461938858	0.0705282911658287	0.056663937866687775	0.12408532202243805	-0.0697116106748581	0.1143089234828949	-0.3736565411090851	0.0006719111115671694	-0.023290520533919334	-0.07962840050458908	0.10260076075792313	-0.14746294915676117	0.12772199511528015	0.1438569724559784	0.2070012390613556	-0.20070376992225647	0.2924683690071106	0.027499984949827194	-0.2996894121170044	-0.02413010224699974	-0.038050275295972824	0.035690709948539734	-0.2902458608150482	0.2394440472126007	0.0006092340918257833	-0.17395667731761932	0.34606170654296875	0.108086958527565	0.23854310810565948	-0.0310223326086998	-0.1525934636592865	0.1174609437584877	-0.11668308079242706	-0.00515281455591321	0.04657141864299774	-0.17473508417606354	0.019965678453445435	-0.014431972056627274	0.25145643949508667	-0.2988813519477844	0.2684415578842163	0.037657927721738815	0.15663699805736542	-0.12350442260503769	-0.16808553040027618	0.0033797817304730415	-0.023354290053248405	-0.023742012679576874	0.26797494292259216	0.027221567928791046	-0.04431697726249695	-0.0660993680357933	-0.042568184435367584	0.2019982486963272	-0.014832016080617905	0.014326599426567554	0.05445127561688423	0.19814561307430267	0.08197616040706635	-0.07045012712478638	-0.052404195070266724	0.26296842098236084	-0.0032087774015963078	-0.15534617006778717	-0.1324175000190735	0.15182197093963623	-0.09625369310379028	0.08915548026561737	-0.22289817035198212	0.02255503088235855	-0.1576809287071228	-0.02804979868233204	-0.08224193006753922	0.006240952294319868	-0.016732409596443176	0.00240308977663517	-0.2195601761341095	-0.13768385350704193	0.22156888246536255	0.0860428661108017	0.11715321987867355	0.034092873334884644	0.25655388832092285	-0.13192963600158691	-0.00920302513986826	0.0013445483054965734	0.05135008692741394	0.05945060774683952	-0.1081235334277153	-0.1120527982711792	0.019720574840903282	0.001402256079018116	0.07591008394956589	0.26957690715789795	0.037995584309101105	-0.08775300532579422	-0.16827787458896637	0.02957899309694767	-0.06727175414562225	-0.5354543924331665	-0.02604808285832405	-0.15230907499790192	-0.455107182264328	0.07232573628425598	-0.14407336711883545	-0.21526050567626953	0.005688801407814026	0.03479955345392227	-0.3154665529727936	-0.17889678478240967	0.015222393907606602	-0.11351513862609863	0.0920998603105545	-0.05231335386633873	-0.10349705070257187	-0.05146487057209015	0.03773902729153633	-0.14435085654258728	-0.025833163410425186	-0.12021021544933319	-0.05243870988488197
garh1243	0.13206541538238525	0.12039808183908463	0.2099606692790985	-0.01593964546918869	0.20708538591861725	-0.15886445343494415	-0.2203269749879837	-0.1531783491373062	-0.2555646002292633	-0.11522041261196136	0.04306623712182045	-0.1664154976606369	0.1432855725288391	0.07130517065525055	0.07880186289548874	0.08542566001415253	-0.12157045304775238	0.008293856866657734	0.058427873998880386	0.22838427126407623	0.02672145701944828	0.29902759194374084	-0.0749039426445961	0.007699598558247089	-0.021316735073924065	-0.17502222955226898	-0.09380463510751724	0.03162010386586189	0.0764177069067955	-0.03630387783050537	-0.3341831564903259	0.011129574850201607	-0.19058175384998322	0.04140699282288551	0.2745082676410675	0.04007125273346901	-0.009739317931234837	-0.39358651638031006	-0.2509509027004242	-0.03722120448946953	0.16254493594169617	0.035071589052677155	-0.28152456879615784	0.16676993668079376	0.07385458797216415	-0.06902138888835907	0.1334228217601776	-0.004682596307247877	-0.030652793124318123	-0.1472564935684204	0.057827144861221313	-0.026274515315890312	0.06893321871757507	-0.06558125466108322	-0.023509329184889793	-0.13548290729522705	0.07778254896402359	-0.030627988278865814	-0.007931527681648731	0.05339481681585312	0.13162265717983246	0.07950617372989655	-0.134513258934021	0.15967677533626556	-0.04818243905901909	-0.05481020733714104	0.005332882050424814	0.11263527721166611	-0.03576956316828728	0.28884658217430115	-0.18441346287727356	-0.1474277377128601	-0.03953496366739273	-0.14242035150527954	-0.020827507600188255	0.26902705430984497	-0.043443094938993454	-0.07901129126548767	0.3384954631328583	0.05228352174162865	0.39693912863731384	-0.007776244543492794	-0.025881513953208923	-0.17861396074295044	0.06754188984632492	-0.08160115033388138	-0.08769889175891876	-0.01993687078356743	0.23090170323848724	-0.15171226859092712	0.21020913124084473	-0.04550832137465477	-0.09048879146575928	0.06281156837940216	-0.030620628967881203	0.050460752099752426	-0.3206641674041748	0.012504277750849724	0.12381557375192642	0.23892877995967865	-0.14434897899627686	0.25617697834968567	0.0302294734865427	-0.024504022672772408	0.023114101961255074	-0.2184809297323227	-0.14903822541236877	0.003296664683148265	0.22017917037010193	0.21408917009830475	-0.07839154452085495	-0.10128851979970932	-0.15427175164222717	0.08012714236974716	0.025410795584321022	0.17275485396385193	-0.11941887438297272	0.10223089158535004	-0.009892558678984642	0.06221085041761398	-0.07423102855682373	0.17185844480991364	-0.05375952273607254	0.2525978684425354	-0.1553877890110016	0.028748830780386925	-0.13754361867904663	-0.29575684666633606
gawa1247	0.18124298751354218	0.1094813421368599	-0.18830765783786774	-0.1174979954957962	-0.005207103677093983	-0.06276416778564453	0.15639656782150269	-0.029059983789920807	0.1830795258283615	0.07573116570711136	-0.11745404452085495	-0.2453228384256363	-0.22566652297973633	-0.14347577095031738	-0.05487426742911339	0.017150497063994408	-0.06401799619197845	0.04763069376349449	0.2828584611415863	0.039830926805734634	-0.0020135126542299986	-0.04270721971988678	-0.03857903182506561	0.11417503654956818	-0.15818139910697937	-0.026593385264277458	0.1888328492641449	0.044555190950632095	-0.07676762342453003	0.13576732575893402	-0.1562516838312149	-0.010420257225632668	-0.10029846429824829	0.041338007897138596	-0.08547913283109665	-0.052551645785570145	-0.000266325194388628	0.12782853841781616	-0.009830568917095661	0.2266930788755417	0.1499859094619751	0.20234210789203644	0.352624773979187	-0.2769806683063507	0.0034857261925935745	-0.231543630361557	0.0448191873729229	0.21935799717903137	0.13571937382221222	-0.2438146471977234	0.1409778892993927	0.22096440196037292	-0.09910797327756882	-0.03142118453979492	0.28912681341171265	0.348712295293808	-0.1545572578907013	0.017593402415513992	-0.08072415739297867	-0.1593104898929596	-0.05381349101662636	0.1439187377691269	0.03154474496841431	0.0579775869846344	0.15850597620010376	0.060557346791028976	0.02844303473830223	0.31008073687553406	0.12843674421310425	-0.21922971308231354	-0.04295111820101738	0.21388809382915497	0.023265324532985687	0.07403114438056946	0.07693762332201004	0.24071742594242096	0.020045660436153412	0.044723037630319595	-0.22940891981124878	0.07293183356523514	-0.20463819801807404	-0.08925288170576096	0.0037245224229991436	-0.048897210508584976	-0.11000149697065353	-0.14649352431297302	-0.21402888000011444	0.07871431112289429	0.20678254961967468	-0.18738386034965515	0.007367416750639677	-0.03977980464696884	-0.1486077755689621	0.059650640934705734	0.06434236466884613	-0.11554854363203049	-0.28601518273353577	0.052230942994356155	0.1291513442993164	0.07013245671987534	0.01413179561495781	0.17074039578437805	0.16231808066368103	-0.010665974579751492	0.009035016410052776	0.12218355387449265	0.11002538353204727	-0.025774484500288963	0.11257555335760117	-0.023770634084939957	-0.047725267708301544	-0.11106154322624207	-0.19634680449962616	-0.1054607480764389	0.17799344658851624	-0.1451895534992218	-0.15525832772254944	0.34729239344596863	-0.0733402669429779	-0.024154165759682655	0.2157953828573227	0.21045644581317902	-0.05800314247608185	0.03696340695023537	-0.1609194427728653	0.01974603720009327	0.12375281751155853	0.18431968986988068
guja1252	-0.06082994118332863	-0.11108805984258652	-0.1999550610780716	0.013257605955004692	0.018803711980581284	0.049294792115688324	-0.06065693497657776	-0.0752774253487587	-0.09481152147054672	0.12331076711416245	0.13297955691814423	0.07231658697128296	-0.1812252551317215	0.04014895111322403	-0.043061185628175735	-0.19578516483306885	-0.040221575647592545	-0.04008447751402855	-0.07226661592721939	0.12330033630132675	-0.019557086750864983	0.14262937009334564	-0.04401508346199989	-0.033626120537519455	-0.05145132541656494	0.017366427928209305	0.005330190993845463	0.002333644311875105	-0.10561942309141159	-0.09601899981498718	0.04316619783639908	-0.02350015379488468	-0.11484263092279434	-0.06934201717376709	-0.1407478004693985	0.0027437754906713963	-0.007633850444108248	-0.16741429269313812	-0.06000771000981331	-0.11096132546663284	0.10492747277021408	0.07014725357294083	-0.06833988428115845	-0.06275463849306107	-0.038169536739587784	0.13740330934524536	0.15834149718284607	-0.14620426297187805	-0.03992900252342224	-0.019904810935258865	-0.04214208573102951	-0.044961486011743546	-0.04650137946009636	0.009753999300301075	-0.0020169236231595278	-0.009849895723164082	-0.0706356093287468	0.010289454832673073	0.0064713964238762856	-0.03856443613767624	0.06245039030909538	-0.12645816802978516	0.09649001806974411	0.10771934688091278	-0.01403815858066082	0.14897429943084717	-0.008288750424981117	0.09788782149553299	0.026850596070289612	0.269849956035614	-0.020511917769908905	0.031144147738814354	0.039204686880111694	0.10968729853630066	0.02688891999423504	-0.01883537322282791	0.009212147444486618	0.10172715038061142	0.09010770171880722	0.013429279439151287	0.04163201525807381	-0.034095730632543564	0.013138767331838608	-0.009743621572852135	-0.014872661791741848	-0.00013312096416484565	-0.09376642107963562	0.14603446424007416	0.07064086943864822	-0.14873835444450378	-0.04170586168766022	-0.03542193025350571	0.005698546767234802	-0.02881346456706524	-0.024729575961828232	0.12261054664850235	0.0805838406085968	-0.005423326976597309	-0.06870581954717636	0.08006398379802704	-0.04761715233325958	-0.11551112681627274	-0.06615763157606125	-0.1852123886346817	0.011459678411483765	-0.03923430293798447	-0.07917001098394394	0.0361575111746788	-0.05405455455183983	0.18314820528030396	-0.02590034157037735	-0.01575050689280033	0.10001862794160843	-0.09498929977416992	-0.051657166332006454	0.044252101331949234	-0.02211683802306652	0.025458043441176414	-0.03713135048747063	0.012955640442669392	-0.10925701260566711	0.03140997886657715	-0.00862598605453968	-0.071522556245327	-0.12978848814964294	-0.016640320420265198	0.08429766446352005	-0.02456074021756649
hind1269	0.028958696871995926	0.01875201053917408	0.1738404482603073	0.05296605825424194	-0.015641948208212852	-0.057502783834934235	-0.047555454075336456	0.04514789953827858	0.045606691390275955	-0.08234363794326782	0.004793188534677029	-0.021222054958343506	-0.056609462946653366	-0.09171316027641296	-0.21427366137504578	-0.026888035237789154	0.05430644005537033	0.04046192765235901	0.07876936346292496	-0.10980198532342911	0.011900493875145912	0.09198267012834549	-0.04814384877681732	-0.02146860398352146	-0.07579632848501205	0.03281562030315399	-0.05770960450172424	0.0048562828451395035	0.10642604529857635	-0.008533772081136703	0.04836330562829971	-0.015704413875937462	0.005435585044324398	0.10508861392736435	0.08588894456624985	-0.06413953751325607	0.001936200074851513	0.06920001655817032	-0.04984964430332184	-0.08091828227043152	0.07485412806272507	-0.008296716958284378	-0.09376658499240875	0.10495715588331223	-0.0018237209878861904	0.11657968163490295	-0.07215125113725662	0.01519330870360136	-0.00990995578467846	0.06664515286684036	-0.01100929919630289	-0.1859898418188095	-0.005942896008491516	0.024084217846393585	0.18085050582885742	-0.1317194253206253	-0.03085901588201523	-0.018311593681573868	-0.026565179228782654	0.10772939771413803	0.045876942574977875	-0.03133641183376312	0.08257289230823517	-0.024153683334589005	0.019029228016734123	-0.08271852135658264	-0.11687780916690826	0.07559250295162201	-0.044164493680000305	-0.03467555716633797	0.030582906678318977	-0.050556730479002	0.040597692131996155	-0.015869274735450745	0.012022723443806171	-0.14019399881362915	-0.060534488409757614	0.040161505341529846	0.15126414597034454	0.05401065945625305	-0.030518723651766777	0.0315016470849514	-0.004923510365188122	-0.006542534567415714	-0.01912306807935238	0.1031397357583046	0.06593823432922363	0.020578037947416306	0.03363760933279991	-0.0228635985404253	-0.052020106464624405	-0.026263803243637085	-0.014423487707972527	-0.005928999278694391	0.014422151260077953	-0.013369165360927582	-0.1006738469004631	-0.00198742700740695	-0.07093256711959839	0.004361024592071772	-0.14965015649795532	-0.0661311075091362	0.1181921437382698	-0.1111806109547615	-0.004788135644048452	0.0710534155368805	0.02434459701180458	0.024456128478050232	0.027436649426817894	-0.05203883349895477	-0.05666656792163849	0.11579128354787827	0.06720395386219025	0.13828708231449127	0.08305858075618744	0.05548122525215149	0.04821358993649483	-0.057360101491212845	0.04237684607505798	-0.02255001664161682	-0.0800415426492691	-0.05986861139535904	-0.0242957454174757	-0.086185023188591	0.02278638631105423	0.008437832817435265	0.09304305911064148	-0.05315931886434555
indu1241	-0.05536212772130966	-0.09288349747657776	0.28114160895347595	-0.030903218314051628	0.05133046209812164	0.24001261591911316	-0.08359372615814209	0.17222929000854492	0.03319895640015602	0.40648871660232544	-0.13134336471557617	-0.18900099396705627	0.08732633292675018	-0.08810029178857803	-0.1483505219221115	0.19976341724395752	0.13301122188568115	-0.08570373803377151	0.08855331689119339	-0.28000640869140625	-0.0450492799282074	0.27928149700164795	-0.207130566239357	-0.29649126529693604	0.1301097273826599	0.003570797387510538	0.0600222572684288	-0.002598702209070325	-0.3205983340740204	-0.040814124047756195	-0.23207531869411469	0.01364609133452177	-0.3153128921985626	-0.20729932188987732	0.3238376975059509	0.4295944571495056	-0.11701782047748566	-0.13053292036056519	-0.04598025232553482	0.08887510746717453	-0.02128193899989128	0.0365111269056797	-0.11866579204797745	0.05791788175702095	-0.021536607295274734	-0.12630125880241394	0.31467771530151367	0.3247361183166504	-0.10796194523572922	-0.028622077777981758	0.10729309171438217	0.3252093493938446	0.05806694179773331	-0.046430155634880066	-0.21126672625541687	0.26579731702804565	0.18714314699172974	0.12228284031152725	0.006333393044769764	0.32955652475357056	0.32160601019859314	-0.06614650785923004	-0.013664023019373417	-0.09869874268770218	0.11270009726285934	0.22846882045269012	0.4910048842430115	-0.07149802893400192	-0.026459885761141777	-0.29272422194480896	-0.0449739545583725	0.2743145823478699	0.07142812013626099	-0.07947894185781479	-0.002720631891861558	0.2427111715078354	-0.00108904589433223	0.025795621797442436	0.002288063056766987	-0.07371159642934799	-0.5903393030166626	-0.048021286725997925	0.014805737882852554	-0.014689108356833458	0.048658955842256546	-0.10828655958175659	0.2241174578666687	0.07786621898412704	-0.004085259512066841	-0.2615973949432373	-0.23885732889175415	-0.37123262882232666	-0.023634331300854683	-0.12139005213975906	-0.21563296020030975	-0.14040187001228333	-0.3474171459674835	-0.09613988548517227	0.2903963327407837	-0.09134181588888168	-0.20654991269111633	-0.31111985445022583	-0.2825869917869568	-0.13162000477313995	-0.038338445127010345	0.1448667198419571	-0.17221787571907043	-0.08576001971960068	-0.40502774715423584	-0.15611179172992706	0.03616279736161232	-0.029285097494721413	0.16282573342323303	0.12913206219673157	-0.07951917499303818	-0.232600599527359	-0.18705809116363525	-0.008404536172747612	-0.22768059372901917	-0.08349664509296417	0.3299809694290161	0.12013338506221771	-0.1230054721236229	0.06824319064617157	0.2543337643146515	0.043717462569475174	-0.268780916929245	0.052615780383348465
jaun1243	0.24012264609336853	0.07700835913419724	0.09675244987010956	0.2632170617580414	0.10391420871019363	-0.3147047758102417	-0.1410592943429947	0.02225344069302082	0.4163631200790405	-0.06101427227258682	0.29854631423950195	-0.32236966490745544	-0.04791973903775215	0.43710964918136597	-0.052810829132795334	0.08754653483629227	0.12260614335536957	0.07884298264980316	0.08434268832206726	0.3194918632507324	-0.05708261579275131	0.3471376597881317	0.29870301485061646	0.14398504793643951	-0.2793711721897125	-0.03943923860788345	0.11398133635520935	0.01604018174111843	0.2269631028175354	-0.12129414081573486	0.2381897121667862	0.012222841382026672	0.002422354184091091	0.09821957349777222	0.21666204929351807	-0.0018946902127936482	0.043751977384090424	0.04589579254388809	-0.15978005528450012	0.12853752076625824	-0.04932155832648277	-0.15871283411979675	-0.09572481364011765	0.0035784903448075056	-0.04492395743727684	0.0303615964949131	-0.01730075106024742	0.18075786530971527	0.1316901445388794	-0.09015307575464249	0.0802353173494339	-0.2406085878610611	-0.058081500232219696	-0.012275964953005314	-0.2093936651945114	0.12002264708280563	0.180874302983284	-0.006386112421751022	0.1360088437795639	0.02052583172917366	0.14803040027618408	0.13639384508132935	0.2094627469778061	-0.4029761254787445	-0.08339382708072662	0.06959079205989838	0.24968785047531128	-0.25209367275238037	-0.12818460166454315	0.09022501856088638	0.04260394349694252	-0.04264172166585922	-0.08139736205339432	-0.05788387730717659	-0.13796700537204742	-0.02430623210966587	0.13569645583629608	-0.07233259826898575	0.21596984565258026	-0.17852115631103516	0.077293261885643	-0.10385185480117798	0.006496346555650234	0.10911297798156738	0.10563740134239197	-0.30804428458213806	0.04921099543571472	0.3192138671875	-0.2702168822288513	-0.014552207663655281	0.2025393396615982	0.06447150558233261	-0.08014414459466934	-0.2588648498058319	0.07587973028421402	-0.09245490282773972	-0.04992583766579628	-0.03139886632561684	0.2164960354566574	0.21001669764518738	-0.026055332273244858	-0.4211243689060211	-0.38972774147987366	0.19589130580425262	-0.017845863476395607	0.3727732300758362	0.12601980566978455	-0.2198498249053955	-0.3374568819999695	-0.1886686086654663	0.00777079351246357	-0.39592689275741577	-0.06928368657827377	0.13438554108142853	0.11299106478691101	-0.08132284134626389	-0.08781038224697113	-0.46140915155410767	-0.07248063385486603	0.00018188125977758318	0.09905799478292465	0.0636809691786766	0.022898627445101738	-0.4495798349380493	-0.12442478537559509	0.026642056182026863	0.4416554272174835	-0.09098628163337708
kach1277	-0.11381739377975464	0.1349347084760666	0.38891249895095825	-0.0712146908044815	0.026262084022164345	-0.2546011507511139	0.021668877452611923	-0.05522889643907547	0.03318575397133827	-0.04316772520542145	0.11828044056892395	0.12035014480352402	0.08124899864196777	-0.03950437530875206	0.06425825506448746	-0.060295864939689636	-0.07335236668586731	0.10948429256677628	-0.1343584507703781	0.057846713811159134	0.007322955410927534	0.19991809129714966	-0.2099267542362213	0.10843591392040253	-0.22980207204818726	-0.07255394756793976	-0.04956202208995819	-0.13156145811080933	0.0397038534283638	0.4390740692615509	-0.28538021445274353	0.019551102072000504	-0.10448970645666122	-0.14387567341327667	-0.11375253647565842	-0.01725495606660843	-0.027500754222273827	0.1532556414604187	0.2647596597671509	0.021686799824237823	-0.07317925989627838	0.06465766578912735	-0.24515925347805023	-0.013854403980076313	0.055134475231170654	-0.20980286598205566	0.3442038893699646	-0.2641397714614868	0.14691735804080963	0.1338902711868286	0.03588476777076721	-0.31145331263542175	0.05315425992012024	-0.02420019917190075	0.3105320930480957	0.0633632019162178	0.06375663727521896	0.04994934797286987	0.0027158050797879696	-0.18359677493572235	0.125768780708313	-0.11970004439353943	0.18664677441120148	0.043282683938741684	0.08971741050481796	0.0705844983458519	-0.11104284226894379	-0.0061541092582046986	0.1465556025505066	0.14956703782081604	-0.028672540560364723	-0.0743095874786377	-0.23717407882213593	-0.11732910573482513	-0.007777142338454723	-0.006400017999112606	0.017833132296800613	0.19492773711681366	0.11920151114463806	-0.05157507210969925	0.17671728134155273	0.10733816027641296	0.012668546289205551	-0.06387951225042343	0.09554800391197205	-0.2687361538410187	-0.365979939699173	0.16189348697662354	-0.04548070207238197	0.2021382600069046	0.04990515857934952	0.3635596036911011	-0.01555634569376707	-0.05172329396009445	-0.10374744981527328	-0.019244566559791565	0.10331538319587708	-0.0005061955307610333	0.23593178391456604	-0.2451716959476471	-0.027546245604753494	-0.022319532930850983	-0.22675269842147827	0.08048659563064575	-0.014448440633714199	0.22829358279705048	-0.15298759937286377	0.0020315709989517927	0.2370307445526123	-0.2108178585767746	-0.07858705520629883	-0.17485478520393372	0.30000975728034973	-0.08707626163959503	0.05446106567978859	-0.2383347749710083	0.20508134365081787	-0.08827830106019974	-0.06561525166034698	0.013634363189339638	-0.09622178971767426	-0.27636024355888367	0.04062017425894737	-0.08603047579526901	0.036917544901371	-0.01582755707204342	0.059998251497745514	0.06463805586099625
kala1372	0.02835606038570404	-0.19157028198242188	0.057660531252622604	-0.01241918932646513	0.3211808502674103	0.3211485743522644	0.0412331148982048	0.025974707677960396	-0.2809162735939026	-0.10340969264507294	-0.02218746393918991	-0.23344817757606506	0.035428546369075775	0.13198430836200714	-0.0878392904996872	-0.09502196311950684	0.024684833362698555	-0.07550773024559021	0.01751740463078022	0.18353848159313202	0.07208620756864548	0.15109001100063324	0.10233583301305771	-0.04855168238282204	0.06416504830121994	0.15428663790225983	0.23423081636428833	-0.06926409155130386	-0.5027125477790833	-0.0820745974779129	0.31119489669799805	-0.011636161245405674	-0.10718218982219696	0.16461491584777832	0.1422506421804428	0.10259421169757843	0.07905687391757965	0.35971203446388245	0.2088773399591446	0.1433592140674591	0.35038504004478455	0.09335291385650635	0.015064488165080547	-0.0050798021256923676	0.05927526205778122	0.23702317476272583	-0.01131135318428278	-0.03145337849855423	-0.004170072264969349	-0.21258370578289032	0.035257738083601	0.11607909947633743	-0.20270031690597534	0.06815584003925323	0.3249469995498657	0.2027927041053772	-0.12449628859758377	-0.0476890504360199	-0.11701994389295578	-0.14310885965824127	0.2992413341999054	-0.15733982622623444	-0.22091682255268097	-0.06846430152654648	-0.06742990761995316	0.12998056411743164	-0.13423848152160645	-0.02352580986917019	0.2692602574825287	-0.39947378635406494	-0.011607315391302109	0.15407563745975494	0.1610822081565857	0.05222895368933678	0.06847129017114639	-0.14304552972316742	0.026113327592611313	-0.2654109299182892	-0.07075729966163635	0.17351631820201874	-0.1490425169467926	-0.10989142954349518	-0.032974325120449066	0.05485725402832031	0.06410367041826248	-0.06837199628353119	-0.10874053090810776	0.11365176737308502	0.03554198145866394	0.22283414006233215	-0.004410077352076769	-0.15811412036418915	0.06226339563727379	-0.03869431093335152	0.01849759742617607	-0.019015131518244743	0.0331566296517849	0.10396761447191238	0.05055845528841019	-0.08254954218864441	-0.027914585545659065	-0.19620126485824585	-0.07225020974874496	0.1345033496618271	0.02396184764802456	-0.1556023806333542	0.37303537130355835	-0.03134655952453613	-0.4354270100593567	0.16191649436950684	-0.06414488703012466	-0.11678650230169296	0.02995680272579193	0.07784333825111389	-0.15947990119457245	-0.2653299570083618	0.038076285272836685	0.20799319446086884	-0.17921043932437897	-0.06317359954118729	0.1851525604724884	0.05683783069252968	0.11829793453216553	0.42024675011634827	-0.14693525433540344	-0.0817224457859993	0.26480042934417725	0.1476389765739441
kala1373	-0.05937900021672249	-0.3010406494140625	-0.0013317579869180918	-0.02705652266740799	0.36388203501701355	0.02283303439617157	0.23637928068637848	0.12018479406833649	0.28052300214767456	-0.3541213870048523	-0.0038388269022107124	0.15305431187152863	-0.005616056267172098	0.23509986698627472	-0.4372541606426239	0.30294084548950195	0.06882262229919434	0.05503445491194725	0.32378143072128296	0.07332321256399155	0.0022566295228898525	-0.06319844722747803	-0.22126267850399017	-0.07952854782342911	-0.0605524443089962	0.05128605663776398	0.03109104372560978	-0.011484353803098202	-0.07074040919542313	-0.08146744966506958	-0.06647031009197235	0.0024552009999752045	-0.22869309782981873	-0.17006656527519226	0.13910804688930511	0.20202520489692688	-0.056144990026950836	-0.022165857255458832	0.23040825128555298	-0.003979137167334557	-0.012331394478678703	-0.24043098092079163	0.2673441767692566	0.04214150086045265	-0.028341863304376602	0.16937071084976196	-0.056596819311380386	-0.2675042152404785	0.020912613719701767	-0.2542254626750946	0.03644317388534546	-0.050381533801555634	-0.13043741881847382	-0.015665121376514435	0.02812081016600132	0.07499068975448608	0.02592664770781994	0.036534328013658524	-0.10277172178030014	0.06584005802869797	0.2361251562833786	0.1532658487558365	-0.3199440538883209	-0.10275104641914368	0.006070930976420641	0.05592929571866989	0.10167401283979416	-0.02412186935544014	0.019475163891911507	-0.23480510711669922	0.012368718162178993	-0.04661136865615845	0.007026579696685076	0.3818022310733795	-0.004631989635527134	0.13701802492141724	-0.10983888804912567	-0.09603842347860336	0.15746915340423584	-0.16321921348571777	-0.18400700390338898	0.2553696632385254	0.03669789060950279	-0.17628903687000275	0.03395351395010948	0.05965933948755264	-0.24881552159786224	0.25061020255088806	0.02983265556395054	-0.41491639614105225	-0.04101480543613434	-0.44816866517066956	-0.049772534519433975	-0.0009638573974370956	0.11013802140951157	-0.18430843949317932	-0.11715126782655716	0.05707476660609245	0.21173037588596344	-0.09772229194641113	-0.06339539587497711	0.0993962362408638	-0.03325587883591652	0.10133584588766098	-0.017238201573491096	-0.02581748180091381	0.02334890142083168	0.014236555434763432	0.009295975789427757	0.21851672232151031	-0.08879905939102173	0.055000465363264084	-0.08145353943109512	-0.14774411916732788	-0.11531535536050797	0.13345974683761597	0.05596477910876274	0.06117573752999306	-0.268380731344223	0.064229816198349	-0.3044823706150055	-0.26976504921913147	0.09990497678518295	0.10120398551225662	0.01640438660979271	-0.05035345256328583	-0.0930996760725975	0.5192301869392395
kash1277	-0.08916574716567993	-0.09974794089794159	-0.13016672432422638	-0.014845823869109154	-0.08406121283769608	-0.14408324658870697	-0.05543159320950508	0.08048409223556519	-0.24288304150104523	-0.08435924351215363	0.23005294799804688	-0.19009707868099213	0.05648155137896538	-0.006298151332885027	-0.2586562931537628	0.12672622501850128	0.005150912795215845	-0.039933398365974426	-0.00743672763928771	-0.2124311774969101	-0.013519257307052612	0.14986099302768707	0.2169065624475479	-0.03004342131316662	0.037619274109601974	0.08720513433218002	-0.07409090548753738	-0.020178215578198433	-0.2877259850502014	-0.025329895317554474	-0.06828267127275467	-0.007108593825250864	0.09855353087186813	0.1768473982810974	0.05785495415329933	-0.08789634704589844	0.015881437808275223	0.03423747420310974	-0.0518931970000267	0.13149569928646088	-0.12978221476078033	0.11882675439119339	0.11067932844161987	-0.20032888650894165	-0.012385104782879353	-0.26562461256980896	-0.10910535603761673	-0.18321338295936584	-0.012564610689878464	0.09308858215808868	0.08033251017332077	-0.006164017133414745	0.07363100349903107	0.01816195249557495	-0.008619439788162708	0.1051807701587677	-0.05781245604157448	0.008217505179345608	0.007294488605111837	0.30453425645828247	0.07401740550994873	0.057001326233148575	0.021151337772607803	-0.14912375807762146	-0.05363887920975685	0.14663290977478027	0.055878374725580215	-0.07926692813634872	0.01795562542974949	0.33987435698509216	0.03781868517398834	-0.2175903469324112	-0.0841086283326149	0.0860939770936966	-0.03155793994665146	-0.0607459619641304	-0.02092009410262108	-0.033044829964637756	0.02157549373805523	0.018223050981760025	0.0988004207611084	0.0661601722240448	0.019068682566285133	-0.009834636002779007	0.030224965885281563	-0.03072720393538475	0.08089067786931992	-0.14090454578399658	-0.011182165704667568	0.12507280707359314	-0.0552765354514122	-0.18811215460300446	0.034077174961566925	-0.02714684046804905	-0.047554291784763336	-0.05951681360602379	-0.05423758924007416	0.004934753756970167	-0.04244893044233322	-0.24218834936618805	0.27130523324012756	0.0839347392320633	0.08144921064376831	0.05559934675693512	-0.01019403338432312	-0.04702451080083847	0.17905014753341675	-0.00651678629219532	0.052704233676195145	-0.13990862667560577	-0.0046312203630805016	-0.2467760294675827	-0.19027575850486755	-0.19738644361495972	0.10898981988430023	-0.005287600215524435	-0.04736477509140968	-0.024391915649175644	0.06160915642976761	-0.021525844931602478	-0.18663638830184937	0.0913836807012558	-0.012256130576133728	0.12895649671554565	-0.08278859406709671	-0.021654633805155754	-0.04495910555124283	-0.10958829522132874
khet1238	-0.003596757771447301	-0.092951700091362	-0.09629160165786743	0.09194507449865341	-0.17572163045406342	-0.1666877120733261	-0.06806635111570358	-0.12074320018291473	0.08600469678640366	-0.0029998139943927526	0.15337859094142914	-0.1713518500328064	-0.25130313634872437	0.3106277287006378	-0.20138069987297058	0.297272264957428	0.10801544785499573	0.06623576581478119	-0.19015422463417053	-0.22784461081027985	0.054942935705184937	0.19843997061252594	-0.22346748411655426	0.18906265497207642	0.3369330167770386	-0.019735759124159813	0.2693139314651489	-0.03325018286705017	-0.4451526403427124	-0.00916451308876276	-0.49346640706062317	-0.07272852212190628	-0.18847531080245972	-0.04818807169795036	0.12989743053913116	0.07227300852537155	-0.11625859886407852	-0.08315820246934891	-0.11094217747449875	-0.14365562796592712	0.06961603462696075	-0.03366762027144432	0.10423290729522705	-0.11112918704748154	-0.27929896116256714	-0.04824557900428772	-0.054200246930122375	0.4720074534416199	0.12245626002550125	0.21501339972019196	-0.023696372285485268	0.01683087833225727	0.13002556562423706	-0.13216914236545563	0.17835074663162231	-0.11722118407487869	0.05766160786151886	0.10340922325849533	-0.162820503115654	-0.03775371238589287	0.26873698830604553	-0.04732964187860489	0.3592481315135956	-0.1180112212896347	0.35051843523979187	-0.3242715299129486	-0.1784583032131195	-0.32946959137916565	-0.1347171813249588	0.12270789593458176	0.024494195356965065	0.08301958441734314	-0.03228243440389633	-0.21802093088626862	-0.18135219812393188	-0.021672561764717102	0.008951499126851559	-0.03734387829899788	-0.10102231055498123	0.14573009312152863	-0.14304834604263306	-0.0796041190624237	0.09611143916845322	0.031122926622629166	-0.1505136936903	0.6779596209526062	-0.3236331641674042	-0.054254788905382156	-0.15812264382839203	0.27057260274887085	0.008499812334775925	-0.03998516872525215	0.1137913167476654	0.07596796751022339	-0.30348384380340576	-0.05338413268327713	0.02010413073003292	-0.055529747158288956	0.09295962750911713	-0.038001690059900284	-0.1694265753030777	0.08948978036642075	-0.25083452463150024	0.19665998220443726	-0.07939361035823822	-0.025572428479790688	-0.10542242228984833	0.125771626830101	0.13269971311092377	-0.04451338201761246	-0.21103981137275696	-0.43646958470344543	0.1164427101612091	0.04761950299143791	0.1566450595855713	0.13086149096488953	-0.011535067111253738	-0.010788152925670147	0.13873445987701416	-0.08492686599493027	-0.12454141676425934	-0.15972915291786194	0.14040394127368927	0.23320741951465607	-0.016535630449652672	-0.030715791508555412	0.17207205295562744	0.10772497206926346
khow1242	0.07607463747262955	-0.1206277459859848	-0.3676334023475647	-0.13746201992034912	0.39762336015701294	0.29319503903388977	0.12326698005199432	-0.10907546430826187	-0.3400782644748688	0.18092377483844757	-0.28892263770103455	0.14351391792297363	-0.015348606742918491	-0.030154643580317497	0.2742330729961395	0.313664048910141	-0.1906593143939972	-0.10519813746213913	0.040083687752485275	-0.1319928914308548	0.019210301339626312	-0.25327467918395996	0.046924371272325516	0.02696625143289566	-0.10205553472042084	0.0628565326333046	0.014735560864210129	0.012506567873060703	-0.25804245471954346	-0.21179500222206116	-0.1775825172662735	0.004614708945155144	-0.07838316261768341	-0.1733882874250412	0.3349039554595947	-0.25808364152908325	0.03168312832713127	0.2906545102596283	-0.12735934555530548	-0.25157058238983154	0.08054494112730026	-0.3739841878414154	-0.30660393834114075	-0.19964763522148132	0.054177407175302505	-0.055027030408382416	0.006229522172361612	0.09487657994031906	-0.038605865091085434	0.12809763848781586	0.02006317302584648	0.254876047372818	-0.10675116628408432	0.008724793791770935	-0.1524801105260849	0.19250701367855072	-0.06861227750778198	-0.017122212797403336	-0.029919492080807686	-0.1206643134355545	-0.01690400019288063	0.019203653559088707	-0.21681514382362366	0.017013492062687874	-0.012043841183185577	0.08913486450910568	0.11741229146718979	0.027052856981754303	-0.004246137570589781	-0.3975825607776642	-0.01569543033838272	0.028129233047366142	0.10522832721471786	0.3157886564731598	-0.07122285664081573	-0.27766087651252747	0.09186755120754242	-0.12521082162857056	0.08205924928188324	-0.04342160373926163	0.008591490797698498	0.12203535437583923	0.01651994325220585	0.12136572599411011	-0.05923781916499138	-0.08065192401409149	0.08061719685792923	0.11058931797742844	0.1617610901594162	0.16810622811317444	-0.008315403945744038	0.13365709781646729	0.01059762854129076	0.03620179742574692	0.01727192848920822	0.018125727772712708	-0.06776242703199387	0.02836153469979763	-0.09640325605869293	-0.09054330736398697	0.17865592241287231	-0.13379672169685364	0.06786974519491196	0.24122866988182068	0.008547513745725155	-0.1453654170036316	0.04847745597362518	0.026497187092900276	-0.03509444743394852	0.14026205241680145	-0.02754301205277443	0.08016511052846909	-0.3049844801425934	-0.21209532022476196	-0.12233050912618637	-0.11844508349895477	0.023147661238908768	0.16791649162769318	0.08923967182636261	0.0047371601685881615	-0.43455350399017334	0.0227558184415102	0.06076046824455261	0.011769677512347698	-0.0544581264257431	-0.04502735659480095	-0.011463022790849209	-0.20679111778736115
kohi1248	0.16773629188537598	-0.21765807271003723	-0.2487117350101471	0.04504229128360748	0.009534605778753757	0.12166433781385422	-0.002804388292133808	0.30360081791877747	-0.033598825335502625	0.07577735185623169	0.1988273710012436	-0.2632243037223816	-0.14468857645988464	0.13524815440177917	0.4627227485179901	0.2857370972633362	0.3772426247596741	-0.09512952715158463	-0.13767214119434357	0.016672100871801376	-0.0009964683558791876	0.18888577818870544	-0.21025174856185913	0.08246594667434692	0.22774170339107513	-0.18422798812389374	-0.13824789226055145	-0.053296882659196854	-0.25541412830352783	0.2391163408756256	0.12149527668952942	-0.04407491907477379	-0.31092923879623413	0.05757744237780571	0.5987969636917114	0.14134858548641205	-0.01307313609868288	0.13879424333572388	0.3794768750667572	0.04690961167216301	0.016613498330116272	-0.08591227233409882	0.2668530344963074	-0.15088269114494324	-0.21567989885807037	-0.23911403119564056	-0.18568533658981323	0.29339632391929626	0.11332617700099945	-0.13128913938999176	-0.09549631923437119	-0.12318146973848343	-0.09353651106357574	0.0016851713880896568	-0.1727021336555481	-0.055981431156396866	0.35663703083992004	0.27532345056533813	-0.10170691460371017	-0.016938593238592148	0.2939867377281189	-0.3048022389411926	0.2483750730752945	-0.1620284467935562	-0.058053381741046906	0.2877752184867859	-0.086283378303051	-0.024422600865364075	-0.05455438792705536	-0.10428650677204132	0.22556369006633759	0.02029460482299328	0.08964557945728302	0.008326292037963867	0.015994735062122345	0.48853799700737	-0.07588495314121246	0.4232994019985199	-0.07184063643217087	0.3446146249771118	0.08092868328094482	0.16381587088108063	-0.002991605782881379	-0.01754774898290634	0.06619981676340103	-0.2173795849084854	-0.04226674512028694	-0.11239125579595566	0.25559961795806885	-0.15553416311740875	0.18103784322738647	0.1090964674949646	0.11182697862386703	0.10108274966478348	-0.009702353738248348	-0.2609379291534424	0.3444814085960388	-0.16229872405529022	-0.2153894454240799	-0.3951662480831146	0.2502638101577759	-0.08029794692993164	-0.31662505865097046	0.4402301609516144	0.00878062378615141	-0.20026162266731262	-0.0037368626799434423	-0.05594996362924576	-0.02766331285238266	0.05581643804907799	-0.02256757579743862	-0.0038264761678874493	0.012692867778241634	0.03225608170032501	-0.23855766654014587	0.13926804065704346	-0.3452054262161255	-0.319853812456131	-0.40268418192863464	-0.03426957130432129	0.06717181205749512	0.12160630524158478	0.056197479367256165	-0.06184941157698631	-0.10187692940235138	-0.03603120520710945	0.19751055538654327	0.3653069734573364
konk1267	0.12881968915462494	-0.009056414477527142	-0.1601465791463852	-0.20254628360271454	-0.05192713811993599	-0.17631468176841736	0.11722585558891296	-0.1262345016002655	0.15706996619701385	0.04093265160918236	0.277391642332077	-0.066462941467762	-0.1473904550075531	0.0419740304350853	0.049171339720487595	-0.1363396942615509	0.04970770701766014	0.004455010872334242	-0.3394046723842621	0.33541953563690186	0.022676726803183556	0.1558312326669693	-0.09369935840368271	0.02291865460574627	0.17212295532226562	0.21482044458389282	0.12999023497104645	-0.02910279855132103	0.02171139046549797	0.06020961329340935	-0.04789620637893677	0.014548187144100666	0.12738065421581268	-0.020673733204603195	0.21316850185394287	-0.02292262576520443	-0.011648032814264297	0.008181250654160976	-0.12076371163129807	-0.2452116459608078	0.0012999264290556312	-0.394000768661499	0.12052833288908005	0.3300507366657257	0.05398304760456085	-0.2093237191438675	0.22699914872646332	0.23587936162948608	-0.018627727404236794	-0.2520377039909363	-0.06815527379512787	-0.2841998338699341	-0.1309821754693985	-0.05148541182279587	0.21599091589450836	0.0437920019030571	-0.036625441163778305	0.02108050137758255	-0.04073913395404816	-0.02086479961872101	0.19782619178295135	-0.18882732093334198	-0.06453947722911835	-0.1123434379696846	-0.21282170712947845	0.01839270442724228	0.18029308319091797	-0.34757548570632935	0.0313710942864418	0.11966215819120407	-0.05531785637140274	0.28358879685401917	-0.06074775010347366	-0.07521162927150726	0.03953566402196884	0.17820198833942413	0.13762761652469635	0.1787005364894867	0.08166904747486115	0.13611863553524017	-0.08191556483507156	-0.0531214103102684	0.006772644352167845	0.10298848897218704	0.03659621998667717	-0.16423127055168152	-0.14877884089946747	-0.284399151802063	0.1345474123954773	0.17389321327209473	-0.09134277701377869	0.11885697394609451	-0.0472102053463459	0.08329155296087265	-0.13427682220935822	0.0808318480849266	0.24274054169654846	0.02104601077735424	0.06318914890289307	0.04472944885492325	-0.3112673759460449	-0.029359444975852966	0.23835362493991852	-0.25866174697875977	0.011958212591707706	-0.10972151160240173	0.24003322422504425	0.016275323927402496	-0.02229190059006214	0.01008372288197279	-0.016567859798669815	0.06612756103277206	0.04392161965370178	-0.03336082771420479	0.07741494476795197	0.018853386864066124	-0.23751424252986908	0.21843141317367554	0.05046948790550232	-0.023375725373625755	0.3329651653766632	-0.11225000023841858	-0.07082832604646683	0.19562041759490967	0.30677640438079834	-0.041848622262477875	0.20532840490341187	-0.209856778383255
kuma1273	-0.08698255568742752	-0.025053774937987328	0.1921107918024063	-0.019385414198040962	-0.05997250974178314	-0.027209656313061714	0.014633893966674805	0.0381559357047081	0.0007139790104702115	0.05754079297184944	0.09045981615781784	-0.06751030683517456	0.152773916721344	0.07317154109477997	0.0944870114326477	0.0090712308883667	0.0042913914658129215	0.031312424689531326	-0.011424238793551922	0.09283916652202606	0.010879927314817905	0.10341499745845795	0.03702423721551895	0.06515680998563766	0.03358927741646767	-0.09313534945249557	-0.06774359941482544	0.0043278103694319725	0.21431048214435577	0.0205741748213768	-0.026640601456165314	0.006646778434514999	0.13678184151649475	0.07817986607551575	-0.11465341597795486	-0.03590061143040657	-0.0037264146376401186	-0.130883127450943	0.010852141305804253	0.07469811290502548	0.07402967661619186	-0.08347392082214355	0.029458489269018173	-0.17397664487361908	-0.02762572094798088	-0.051259007304906845	0.19642460346221924	0.011241829954087734	-0.02054324373602867	-0.012521935626864433	-0.07156489044427872	0.0715370699763298	0.07674894481897354	-0.022158470004796982	0.08698099851608276	0.030100718140602112	-0.008250562474131584	0.005312918685376644	-0.0016226533334702253	0.10501217097043991	-0.09915735572576523	0.0028552659787237644	-0.12250950932502747	-0.15218016505241394	0.06996303051710129	-0.22160671651363373	0.08975038677453995	0.12608687579631805	-0.048813723027706146	0.0376424714922905	-0.030049266293644905	-0.07851043343544006	0.10477367788553238	-0.12504267692565918	-0.015081284567713737	0.017985941842198372	0.006653349846601486	-0.1762518584728241	0.06052383780479431	0.015666477382183075	0.00011460519453976303	0.03215016424655914	-0.00028923284844495356	-0.009031679481267929	-0.043496087193489075	-0.23963414132595062	0.12115046381950378	0.04458451643586159	0.010555085726082325	-0.19638420641422272	-0.014571810141205788	0.04808598384261131	0.016254838556051254	0.02141055092215538	0.013122083619236946	0.04387931153178215	0.057145874947309494	-0.01647866889834404	-0.09853508323431015	0.1761261224746704	-0.059504710137844086	0.12010335177183151	0.032099224627017975	-0.06067847087979317	0.016234280541539192	0.16517262160778046	0.05226755887269974	-0.005597738549113274	0.03010665252804756	0.05188635736703873	0.06328702718019485	0.12576258182525635	0.025030335411429405	0.22331006824970245	-0.05586882308125496	-0.1199522316455841	0.07824943959712982	0.05642557889223099	0.004231358878314495	0.013618286699056625	-0.1527978479862213	0.0318581759929657	-0.05571889877319336	-0.024041563272476196	-0.17563126981258392	0.020856279879808426	-0.01630863919854164	0.136312797665596
kura1247	-0.04117514193058014	0.1568434089422226	0.12452537566423416	-0.22229866683483124	-0.13427868485450745	0.06903546303510666	0.19908420741558075	-0.17745745182037354	0.047299761325120926	-0.1735999584197998	-0.08093894273042679	-0.14673921465873718	-0.03272033855319023	-0.030580440536141396	-0.24100764095783234	-0.1544719636440277	-0.032069116830825806	-0.08399759232997894	-0.07986699789762497	-0.21222634613513947	0.04726174473762512	-0.01419312134385109	0.1374749392271042	0.007305290084332228	-0.22125762701034546	-0.055750153958797455	-0.028460698202252388	0.07395228743553162	0.09092247486114502	-0.06170721724629402	0.22585704922676086	-0.015176930464804173	-0.03303247690200806	-0.18720151484012604	0.450926274061203	-0.04115726426243782	-0.08156201243400574	0.35524100065231323	0.28036513924598694	0.21928854286670685	0.1267729103565216	-0.20852568745613098	0.24862723052501678	-0.37210187315940857	-0.07327102869749069	-0.3802071809768677	-0.2427472472190857	-0.15549682080745697	-0.35575953125953674	0.01331242360174656	0.1494840681552887	0.16829799115657806	0.018187308683991432	0.05738196521997452	-0.2047082781791687	0.17750050127506256	-0.2094036191701889	0.01794600486755371	0.11156531423330307	-0.3834208846092224	-0.11163989454507828	-0.17532309889793396	-0.20316003262996674	-0.389178991317749	-0.05204338580369949	0.3560303747653961	0.13933119177818298	0.22625833749771118	0.002302946290001273	0.0011216459097340703	0.060187432914972305	0.14368213713169098	-0.18360371887683868	-0.1899116188287735	0.1820039302110672	-0.21351595222949982	-0.1105203926563263	0.20092365145683289	0.6488187313079834	-0.006147234700620174	-0.3225965201854706	-0.17562632262706757	-0.0555962435901165	-0.05760298669338226	0.10908001661300659	-0.4629902243614197	-0.18640421330928802	0.0237040426582098	-0.053271323442459106	-0.21592961251735687	-0.20784424245357513	0.17048490047454834	0.06393969058990479	-0.14721834659576416	0.02928810752928257	-0.3333759605884552	-0.221170112490654	-0.03502526879310608	0.1569783091545105	0.1537105143070221	0.06714460253715515	0.016871754080057144	-0.01512601226568222	0.186476930975914	-0.009884276427328587	0.0015674741007387638	-0.29121148586273193	-0.17780427634716034	0.09622923284769058	0.1675577610731125	-0.057213518768548965	-0.06667560338973999	0.056805048137903214	-0.27452459931373596	-0.006919729523360729	-0.24364396929740906	-0.3136816620826721	0.4524925947189331	0.022698331624269485	-0.017160503193736076	0.3781696557998657	-0.3996709883213043	0.055453307926654816	-0.19901108741760254	0.008284672163426876	0.0703936368227005	-0.24063414335250854	0.29366880655288696
laur1248	0.06406302750110626	0.29354313015937805	-0.04926184192299843	0.08641855418682098	0.05544864013791084	0.09545551240444183	-0.08995997160673141	0.1741236448287964	0.3046378195285797	0.16813184320926666	0.14232230186462402	0.15328730642795563	0.1807643473148346	0.06992710381746292	-0.0044739809818565845	-0.05051904916763306	0.15179060399532318	0.17706385254859924	0.18702013790607452	0.004731615539640188	0.08864676207304001	0.09600308537483215	-0.08917471766471863	0.04055679216980934	0.03557611629366875	0.20238730311393738	0.01655668206512928	0.1158856600522995	-0.3682411313056946	0.02293258346617222	0.15129834413528442	-0.006912033539265394	-0.25206461548805237	-0.20125095546245575	0.07084281742572784	0.07949186861515045	-0.03942892327904701	0.04382443055510521	-0.06989332288503647	0.3534289300441742	0.19556908309459686	-0.213240385055542	0.23051875829696655	-0.2320631444454193	-0.021783839911222458	-0.024498870596289635	0.0640183761715889	0.03717599809169769	0.06970900297164917	-0.06385964155197144	0.23016835749149323	0.10116151720285416	-0.1641167253255844	-0.020859207957983017	0.04265623539686203	-0.05056498199701309	0.35615769028663635	0.0010086488910019398	0.06060606241226196	-0.33866065740585327	0.1542513221502304	0.14938436448574066	0.0005494143115356565	0.09385339170694351	0.10690326988697052	-0.07944326102733612	-0.17067751288414001	0.4229026138782501	0.049866918474435806	-0.5626245141029358	0.10744332522153854	0.24126631021499634	0.06885895878076553	-0.20221717655658722	0.03618435189127922	-0.32428354024887085	0.08701381087303162	0.0018685035174712539	0.0642787516117096	0.007367566227912903	-0.11887435615062714	-0.07853437960147858	-0.01005818322300911	-0.10086178779602051	0.13976740837097168	0.04163610190153122	-0.12790857255458832	-0.08491913974285126	0.07429596781730652	0.10412325710058212	-0.17106971144676208	-0.0639742910861969	0.05984891951084137	-0.08442286401987076	0.1314324587583542	-0.19890624284744263	-0.4559847414493561	-0.024450190365314484	0.22004540264606476	-0.1809808611869812	-0.15398375689983368	-0.1407737135887146	0.056549105793237686	0.033517129719257355	0.012331226840615273	-0.03958400711417198	0.022710045799613	-0.004304086789488792	0.07703955471515656	-0.10158773511648178	-0.22123301029205322	-0.5219030380249023	-0.07544300705194473	0.01940888538956642	-0.18981993198394775	0.41833364963531494	-0.17041648924350739	-0.16735059022903442	0.36841151118278503	0.047177743166685104	-0.34172898530960083	-0.030724026262760162	-0.03775446489453316	0.2653201222419739	-0.1706099510192871	0.0953245684504509	-0.31607726216316223	0.14602632820606232
loma1235	0.2793406546115875	-0.21121874451637268	0.2690787613391876	-0.1701599657535553	-0.14736464619636536	0.5308009386062622	0.13389457762241364	0.05322311818599701	-0.2387656569480896	-0.23802506923675537	-0.3477449417114258	-0.0994528979063034	-0.5151064395904541	-0.1567555069923401	0.1634300947189331	-0.09058323502540588	-0.32760724425315857	-0.2765292525291443	-0.2802450358867645	-0.47655048966407776	-0.0826134979724884	-0.04489091411232948	-0.2998136878013611	-0.38610368967056274	0.09453948587179184	-0.08273232728242874	-0.040747858583927155	0.3698010742664337	-0.36525288224220276	0.1555846482515335	0.11357077211141586	-0.020547671243548393	0.09829295426607132	0.05751374736428261	0.30754178762435913	0.38405531644821167	-0.04093843698501587	0.25870436429977417	0.2104044407606125	0.02423788793385029	0.24200807511806488	0.40579670667648315	-0.5456715822219849	0.1151944026350975	-0.06273234635591507	-0.0013891883427277207	0.2504533529281616	0.20889291167259216	-0.07817784696817398	0.02293333038687706	0.11825055629014969	-0.10401613265275955	-0.20530928671360016	-0.06386101990938187	0.2276211529970169	-0.3394482433795929	-0.39027461409568787	0.0776589959859848	-0.07036835700273514	-0.4901973307132721	-0.16419176757335663	0.3084494471549988	0.2709411084651947	0.20472124218940735	0.2256580889225006	0.01030661165714264	-0.16117025911808014	0.3452836573123932	-0.5874627232551575	-0.12755081057548523	-0.1335633546113968	0.11526448279619217	-0.1485334187746048	0.2779858112335205	-0.42012569308280945	-0.04721968621015549	0.28433236479759216	0.2173844575881958	-0.0018086095806211233	-0.04998905956745148	0.2523258924484253	-0.0355735719203949	-0.046150121837854385	-0.10479748994112015	-0.20576949417591095	-0.22654442489147186	-0.05557888001203537	0.38333144783973694	-0.5288801193237305	-0.23101308941841125	0.02672545798122883	-0.19442899525165558	0.4662152826786041	-0.13797907531261444	-0.15419207513332367	0.016730982810258865	0.19085632264614105	-0.03078559599816799	0.2844768762588501	-0.09972087293863297	0.02682812325656414	-0.31627634167671204	-0.050956860184669495	-0.13214778900146484	0.060538098216056824	-0.08259973675012589	-0.15491044521331787	0.11714407056570053	-0.5977653861045837	-0.009818064980208874	-0.06828116625547409	0.28909364342689514	0.2216963768005371	-0.2422357201576233	-0.3831118047237396	0.48704344034194946	0.27828243374824524	-0.00927025731652975	0.19881859421730042	-0.03371115401387215	0.12251723557710648	0.06993916630744934	0.1687919795513153	0.6295968294143677	-0.06435869634151459	0.21748676896095276	-0.5904151201248169	-0.03931233286857605
maha1287	0.0035631866194307804	0.051238685846328735	0.17299722135066986	-0.10699357092380524	0.2213563323020935	0.05264674872159958	0.11165373772382736	0.07023279368877411	0.0739741399884224	0.15445491671562195	-0.0504160113632679	-0.22456972301006317	0.3821372091770172	0.10412514209747314	0.055261898785829544	0.2952115833759308	-0.12335138022899628	-0.06275228410959244	-0.15179884433746338	-0.08663929998874664	-0.04407189041376114	-0.1334875077009201	0.16609767079353333	-0.051468007266521454	0.20793835818767548	-0.20152100920677185	-0.08412647992372513	0.12495864927768707	-0.0048083229921758175	0.13298381865024567	-0.08843372762203217	-0.003358000423759222	-0.026885494589805603	0.13903434574604034	-0.20940837264060974	-0.18416309356689453	-0.017919164150953293	-0.34158268570899963	0.3830506503582001	0.08798687905073166	0.09049727022647858	0.007380233611911535	-0.21820424497127533	-0.2861495912075043	0.10977687686681747	-0.038700610399246216	0.07192780077457428	0.4096575677394867	0.1495089828968048	-0.2457612007856369	0.11218354105949402	-0.031773775815963745	0.09153633564710617	0.008352939039468765	0.12193276733160019	0.03409687429666519	-0.02698066085577011	0.00315930531360209	0.004773186985403299	-0.12549889087677002	-0.13281050324440002	0.23474419116973877	0.10464118421077728	0.0741429254412651	-0.013613429851830006	0.22096377611160278	-0.025240328162908554	0.19078032672405243	-0.19448116421699524	-0.025647606700658798	0.061403244733810425	0.17735537886619568	-0.0389590710401535	-0.3708808124065399	0.02838999405503273	0.25583356618881226	0.10953209549188614	-0.22014035284519196	0.2800441384315491	-0.046457577496767044	0.11083216220140457	-0.2330915331840515	0.0114295594394207	0.10876230895519257	-0.020190604031085968	-0.26883676648139954	0.11391046643257141	-0.15037371218204498	0.04432205110788345	0.23254109919071198	0.062282759696245193	-0.08181258291006088	0.04649876430630684	-0.169352188706398	0.04415932297706604	-0.2773529291152954	0.10934962332248688	0.05683574825525284	0.1947067230939865	0.18734696507453918	0.17261162400245667	0.13049809634685516	-0.3502051532268524	0.17647439241409302	-0.03407721221446991	-0.1903802454471588	-0.08029568940401077	-0.1035604178905487	-0.09257449954748154	0.4686146378517151	0.06595645099878311	0.16988465189933777	0.29638606309890747	-0.08279527723789215	0.1644575595855713	0.3686599135398865	0.27496588230133057	0.4878700375556946	-0.017606325447559357	-0.13593731820583344	-0.07080723345279694	0.13602669537067413	0.09181097894906998	-0.07900207489728928	0.08820566534996033	0.03608296811580658	0.2951820492744446	0.09557303786277771
maha1305	0.02695506066083908	-0.049708470702171326	-0.12633377313613892	0.00803050771355629	-0.18573085963726044	0.017701691016554832	-0.08499275892972946	0.0001923120580613613	0.13801392912864685	-0.023972615599632263	-0.14782679080963135	0.09570746123790741	0.01136358454823494	-0.04149894416332245	0.06611280888319016	-0.09312237054109573	-0.023481346666812897	0.008127931505441666	0.09248445928096771	0.17776012420654297	-0.0033101532608270645	-0.2451472282409668	-0.060117438435554504	0.023647204041481018	0.026780106127262115	-0.03751419484615326	0.026694605126976967	-0.007929540239274502	-0.056013401597738266	0.03966258466243744	0.11146766692399979	-0.0015270593576133251	0.23917071521282196	-0.09517049044370651	-0.059194911271333694	-0.06682708859443665	-0.002706275787204504	-0.15126952528953552	-0.10746551305055618	-0.22436098754405975	-0.0032917126081883907	0.22838537395000458	-0.008398949168622494	0.0634467601776123	-0.004214153625071049	0.012387254275381565	0.05667296424508095	-0.12024354934692383	0.01926136016845703	-0.04727583006024361	-0.044814594089984894	0.14997214078903198	0.04693333059549332	-0.000889320857822895	-0.2585352063179016	-0.10203566402196884	0.10750200599431992	-0.0072356476448476315	-0.025071091949939728	0.03767050802707672	-0.04506264254450798	-0.044838450849056244	-0.04374893382191658	0.13025349378585815	0.0027051265351474285	0.003314700908958912	-0.1111590638756752	-0.19087965786457062	0.04155944660305977	-0.05290794372558594	-0.02811780385673046	0.030267661437392235	0.03288779407739639	-0.1485186368227005	-0.0007678652764298022	0.10596877336502075	-0.05731065943837166	0.062338363379240036	-0.03736421838402748	0.011627942323684692	-0.035020265728235245	0.046910468488931656	0.009479692205786705	-0.03144329786300659	-0.04393583536148071	0.027385976165533066	-0.0022563207894563675	-0.017415715381503105	-0.032533686608076096	0.218674898147583	-0.04553014785051346	0.021165242418646812	0.01908824034035206	-0.011581528931856155	0.007708565331995487	0.02017189934849739	-0.01091848872601986	0.006367347668856382	0.1289919763803482	-0.16362862288951874	-0.11804300546646118	0.10433783382177353	0.008152003400027752	0.04216962680220604	0.0028586029075086117	-0.020156674087047577	-0.017701877281069756	-0.01799844764173031	0.06818252801895142	-0.17293457686901093	0.04940251633524895	0.12595972418785095	0.1368871033191681	-0.07986599206924438	-0.08660124242305756	-0.056443020701408386	-0.10424318164587021	-0.10130125284194946	0.020409811288118362	0.011201806366443634	0.08688346296548843	0.01628592424094677	0.0014178191777318716	-0.04151490330696106	0.1098024845123291	-0.006035566329956055	-0.14887970685958862	-0.07066452503204346
mait1250	-0.20683607459068298	0.17587578296661377	0.2289588302373886	0.01591031439602375	-0.008171375840902328	0.11484497040510178	0.04978830739855766	-0.12897337973117828	-0.07057037204504013	-0.02185610868036747	0.006646002642810345	0.05388958752155304	0.08177544176578522	-0.14116132259368896	0.049285560846328735	-0.11625420302152634	-0.10237669199705124	0.14764024317264557	0.13282881677150726	0.09117167443037033	0.027907762676477432	0.2073124498128891	-0.2001628577709198	0.025547709316015244	0.11260177940130234	-0.09404800832271576	-0.03936257213354111	0.09512409567832947	-0.10982095450162888	-0.05852649733424187	0.10267096757888794	-0.012200054712593555	-0.22150743007659912	0.23762379586696625	0.057477857917547226	-0.09804482758045197	0.0018160865874961019	-0.00651599420234561	0.07853410392999649	0.05058923363685608	-0.11807449907064438	0.0443025566637516	-0.1797853410243988	-0.024471379816532135	0.09076033532619476	0.06586478650569916	-0.07635144889354706	-0.17480915784835815	0.004081458784639835	0.17713944613933563	-0.062124092131853104	-0.11032699793577194	0.0817335844039917	-0.036331672221422195	-0.1442210078239441	0.05434807762503624	0.14506272971630096	-0.031390074640512466	0.048366088420152664	-0.06994810700416565	0.07048138231039047	0.13369382917881012	-0.11798151582479477	0.1557871699333191	0.06636571139097214	-0.0130053935572505	-0.010363447479903698	0.22743801772594452	0.012616154737770557	-0.2032642662525177	-0.005334785673767328	-0.03359515592455864	0.10664751380681992	0.20584845542907715	0.024089612066745758	-0.2956434190273285	0.06953795999288559	-0.1372763216495514	-0.270417183637619	0.039641961455345154	-0.0010204899590462446	-0.04395877569913864	0.004345482215285301	-0.023973770439624786	0.05495103448629379	0.10938318818807602	0.08276990056037903	0.021643247455358505	-0.07886751741170883	-0.06615971773862839	0.038974177092313766	-0.040171075612306595	-0.0904027670621872	-0.05477064475417137	-0.015938816592097282	-0.011450418271124363	0.09398342669010162	-0.07004859298467636	0.18729661405086517	0.24498122930526733	0.16070428490638733	0.11802031844854355	0.02740907296538353	-0.15980154275894165	0.012691127136349678	0.04943550378084183	0.07935693860054016	-0.030304621905088425	-0.0003241324156988412	-0.12483501434326172	0.09466125071048737	0.1554405838251114	0.0918993204832077	-0.022529346868395805	0.09835579991340637	-0.15036432445049286	-0.022409768775105476	0.08181310445070267	-0.014187836088240147	-0.07085660099983215	0.03035648539662361	-0.07719610631465912	-0.06709560751914978	-0.05142468214035034	0.05265025049448013	0.0768270492553711	0.12993963062763214	-0.14732085168361664
mara1378	0.050176914781332016	0.08561594784259796	-0.247467041015625	0.032075248658657074	0.07770591974258423	0.045002859085798264	-0.006920323707163334	-0.011343229562044144	0.06602521985769272	0.047167420387268066	-0.028670789673924446	0.11704150587320328	-0.03676694259047508	-0.025056054815649986	0.0285286046564579	0.10895955562591553	-0.04144192487001419	0.009019513614475727	-0.06022672355175018	-0.065659299492836	0.017580609768629074	-0.016879526898264885	-0.01876581646502018	-0.006399538367986679	-0.046503808349370956	-0.03825573995709419	-0.013243284076452255	0.014759554527699947	0.049989309161901474	-0.043490976095199585	0.1003052145242691	0.005022632423788309	0.11108392477035522	-0.1471296101808548	-0.18727540969848633	0.10476861149072647	0.013668622821569443	-0.09021197259426117	-0.055853307247161865	0.010022943839430809	-0.024121183902025223	-0.1216018944978714	-0.05624336376786232	0.02144625224173069	0.01779836416244507	-0.04916802793741226	0.1661527007818222	0.08776838332414627	0.03609171137213707	0.04938140884041786	0.03869330883026123	-0.173304945230484	0.029914723709225655	0.006108745001256466	0.028712548315525055	0.019942233338952065	-0.09140150249004364	-0.013359646312892437	0.02379295602440834	-0.12804709374904633	0.018110858276486397	0.08679135143756866	0.011871252208948135	-0.041254982352256775	-0.03423908352851868	0.0455697663128376	0.11290773004293442	-0.07495187968015671	-0.003698329208418727	0.20698024332523346	-0.0013332482194527984	0.16801664233207703	-0.03733561187982559	0.05209582298994064	-0.02044493891298771	-0.1616254448890686	-0.05093995854258537	0.050731174647808075	0.1622428596019745	-0.02553180605173111	0.07329096645116806	-0.010091101750731468	-0.021174699068069458	0.02260109782218933	0.04142201691865921	-0.045852139592170715	-0.01989838108420372	-0.03382182493805885	-0.023367656394839287	-0.1303422600030899	0.03439339995384216	-0.14710423350334167	-0.012629751116037369	0.044794414192438126	-0.015508497133851051	-0.032014958560466766	0.13609634339809418	-0.006830670405179262	-0.11317580193281174	0.1656641960144043	-0.1463238149881363	-0.11899833381175995	-0.04177252575755119	-0.19699974358081818	0.001986867981031537	0.05330325663089752	-0.04152946546673775	0.011329103261232376	0.06755183637142181	-0.21728096902370453	-0.0036641964688897133	0.10504179447889328	0.20585335791110992	0.17348651587963104	-0.011533990502357483	0.15254049003124237	0.09006962180137634	0.10868970304727554	0.010651529766619205	-0.013365020044147968	0.2012118250131607	0.001086820149794221	0.035187769681215286	0.06835054606199265	0.04704034700989723	-0.008244774304330349	-0.07026245445013046	-0.19167932868003845
marw1260	-0.15031976997852325	0.06615036725997925	0.10328707098960876	0.28729405999183655	0.1327553689479828	0.08270259201526642	-0.055051494389772415	-0.16209273040294647	0.16836628317832947	-0.29438745975494385	0.11811614781618118	-0.3312617838382721	-0.06622109562158585	0.2445453554391861	0.0406208261847496	0.2993457317352295	0.06344550848007202	-0.2614932358264923	-0.0011582684237509966	0.4177444279193878	-0.15694861114025116	-0.08985397964715958	0.2002357393503189	0.004563839640468359	-0.3183538317680359	-0.4179335832595825	0.1473628133535385	-0.18204501271247864	0.2194220870733261	0.23097267746925354	-0.18321922421455383	0.03049527481198311	0.09291306883096695	-0.06812847405672073	-0.1413826048374176	0.3457389771938324	-0.06530705094337463	-0.08423037081956863	-0.06139839440584183	-0.3619929850101471	-0.2329781949520111	0.08745546638965607	-0.16756045818328857	0.15581990778446198	0.19941392540931702	0.33891716599464417	-0.1431485414505005	0.28810492157936096	-0.10661207139492035	0.27437084913253784	-0.10535585880279541	-0.2528359591960907	0.0349782332777977	0.029692798852920532	-0.07988467812538147	0.11826589703559875	0.37601497769355774	0.07737211138010025	-0.014885533601045609	0.34987959265708923	-0.022710179910063744	0.06284657120704651	-0.09581071883440018	-0.03960547596216202	-0.28893864154815674	0.10460764169692993	0.18761712312698364	0.056066688150167465	0.38630878925323486	0.06365614384412766	-0.009815782308578491	-0.26461341977119446	-0.035698387771844864	-0.08786454796791077	0.0001863110956037417	0.18507015705108643	-0.21506130695343018	-0.25739771127700806	-0.04212166368961334	-0.031147541478276253	0.17778286337852478	0.12009736895561218	-0.05701325088739395	0.315195232629776	-0.012328936718404293	-0.379969984292984	-0.24835796654224396	0.17567160725593567	0.048474013805389404	0.11408916860818863	0.10671387612819672	-0.0461965911090374	0.1289130300283432	-0.38212478160858154	0.13681641221046448	-0.060457076877355576	0.07203017175197601	-0.09747806936502457	-0.1742831915616989	0.06102607771754265	0.07019322365522385	0.008577967062592506	-0.043951112776994705	-0.4469503164291382	-0.04278123378753662	0.07649728655815125	0.3226710557937622	0.21844929456710815	-0.16150125861167908	-0.10007161647081375	0.09566166251897812	-0.28114888072013855	0.2088133692741394	0.1381407529115677	-0.30319517850875854	0.06291559338569641	0.19289715588092804	0.03279346972703934	-0.06406501680612564	0.028100086376070976	-0.17877985537052155	-0.012503639794886112	0.06481915712356567	-0.07192133367061615	-0.11640563607215881	0.16106563806533813	0.3253174126148224	-0.12274396419525146
