aret1240	-0.22525610029697418	0.08943204581737518	-0.03848670423030853	-0.06875336915254593	-0.004528719000518322	0.21551011502742767	-0.3261899948120117	0.13913145661354065	0.1282574087381363	-0.10581962019205093	0.2282632440328598	0.30311402678489685	0.32482290267944336	-0.11135440319776535	0.07179972529411316	0.023182788863778114	-0.3050501346588135	0.2227199673652649	0.08339434117078781	-0.3550548553466797	0.09628868103027344	0.26173534989356995	0.1701742559671402	0.026145638898015022	-0.17123666405677795	0.3788936734199524	-0.01832140050828457	-0.3404051959514618	0.03919537737965584	0.04505624622106552	0.4306882619857788	-0.1510145515203476	-0.048391588032245636	0.3227124512195587	0.10929656028747559	-0.1940355747938156	0.19331173598766327	0.12667548656463623	0.08089190721511841	0.11224187910556793	0.1357279270887375	-0.03590736538171768	0.2248878926038742	0.10647395998239517	0.315333753824234	-0.02997484616935253	0.05588386580348015	-0.2764679491519928	0.1553187519311905	0.009030845947563648	0.3005746603012085	-0.28058716654777527	-0.06869130581617355	0.3660556375980377	0.3233991861343384	0.13224472105503082	-0.017794672399759293	0.567206621170044	-0.05358298122882843	-0.25625213980674744	-0.08767165243625641	-0.028312116861343384	-0.22311106324195862	-0.14220497012138367	-0.23911483585834503	0.08841919898986816	-0.17005464434623718	-0.19881048798561096	-0.030193468555808067	0.04964704066514969	-0.16266341507434845	0.2957684099674225	0.30690711736679077	-0.18287454545497894	-0.1641683578491211	-0.4607827365398407	0.17538869380950928	-0.0032946765422821045	-0.1024775356054306	0.09102047979831696	0.13028031587600708	-0.014918255619704723	-0.1817396879196167	0.3085109293460846	-0.04620888829231262	0.07120481133460999	-0.04004045948386192	0.0935506820678711	-0.10943489521741867	0.09440799802541733	-0.1776132583618164	0.048275917768478394	0.3355036973953247	0.49804064631462097	-0.11560780555009842	-0.22556249797344208	0.2509955167770386	-0.3715377748012543	0.10968203097581863	0.3698152005672455	0.19814056158065796	0.06369723379611969	-0.0021428759209811687	-0.11377137899398804	0.057486679404973984	-0.12224186956882477	0.083580881357193	0.11944632232189178	0.1490485966205597	-0.09573882818222046	-0.2318776249885559	0.1431940495967865	-0.18325242400169373	-0.04464828595519066	0.04113958403468132	-0.4090765416622162	0.12154121696949005	-0.03465455770492554	0.10079821944236755	-0.1918996274471283	-0.08687872439622879	-0.4965324401855469	0.07440469413995743	-0.07004797458648682	0.4095592498779297	-0.04232754185795784	0.19848300516605377	0.4991816282272339
assa1263	-0.16915322840213776	0.0629463642835617	0.10156853497028351	0.07574883848428726	0.1145586296916008	0.05471135303378105	-0.11741891503334045	-0.15369555354118347	0.09202611446380615	0.04022649675607681	0.056065816432237625	-0.17402687668800354	-0.08692866563796997	-0.16538971662521362	0.05799572169780731	0.04390864446759224	-0.049021948128938675	0.16026805341243744	0.011998174712061882	0.08637756109237671	-0.2264937162399292	-0.14544622600078583	0.05146662890911102	-0.019500235095620155	-0.10074230283498764	-0.1085786372423172	-0.2554208040237427	-0.17786599695682526	0.11008955538272858	0.08135229349136353	0.12107392400503159	-0.03688470646739006	0.10123831033706665	-0.08363360166549683	-0.1400213986635208	-0.07927938550710678	-0.06710237264633179	0.19897210597991943	-0.2228134423494339	-0.09137432277202606	0.10823214054107666	0.13596442341804504	0.08414668589830399	-0.0928967148065567	0.18377617001533508	0.1436418741941452	-0.07449685037136078	0.08800090104341507	0.12201100587844849	0.029424181208014488	0.17057886719703674	0.09388352930545807	-0.05470019578933716	-0.18236780166625977	0.22793808579444885	-0.23414456844329834	0.0538276769220829	-0.21476580202579498	-0.0621902160346508	0.17287945747375488	0.05500446632504463	-0.19216175377368927	-0.199118509888649	-0.035689827054739	0.27015987038612366	0.06775349378585815	-0.25069865584373474	0.033907417207956314	-0.22270746529102325	-0.25277119874954224	0.12438495457172394	0.07473128288984299	0.09936462342739105	0.1655624508857727	0.09957120567560196	0.1335442215204239	-0.09415166825056076	0.11988884210586548	-0.10487823188304901	-0.014323771931231022	-0.02727942168712616	0.17281880974769592	0.05680999904870987	0.15837320685386658	0.2117045670747757	-0.09682580828666687	0.21872004866600037	0.014273641631007195	-0.09943828731775284	-0.016534576192498207	-0.044151052832603455	-0.050346389412879944	0.08984474837779999	-0.17017923295497894	0.057789478451013565	-0.09456390142440796	-0.05725817754864693	-0.18762432038784027	0.036287400871515274	-0.12143956124782562	0.18474094569683075	0.1395726203918457	0.1353953629732132	-0.15871182084083557	0.09143810719251633	0.01069096103310585	-0.015964675694704056	-0.10064107179641724	-0.11928297579288483	0.052627235651016235	-0.32478445768356323	0.053812529891729355	0.10094557702541351	-0.21694426238536835	-0.08046961575746536	0.1316494643688202	0.048258692026138306	0.0023417454212903976	0.11890751123428345	0.20715925097465515	0.13219264149665833	0.12646670639514923	0.006205474492162466	-0.02134997397661209	-0.02789783664047718	-0.03675545006990433	0.022564219310879707	-0.24646112322807312
bagh1251	0.05659833177924156	-0.10622195154428482	-0.225193053483963	0.08246015012264252	-0.0016396219143643975	-0.20551346242427826	-0.14745260775089264	0.01949000358581543	0.288106232881546	-0.00901846680790186	0.13990631699562073	-0.023079195991158485	-0.1342851221561432	0.0814078152179718	0.17113496363162994	0.18720193207263947	0.3003740906715393	-0.029414711520075798	0.10188324749469757	0.06849849969148636	-0.11366789788007736	-0.08886066824197769	-0.13338004052639008	-0.033920515328645706	-0.03750806301832199	0.04351111501455307	-0.023364242166280746	0.003941011615097523	0.218157559633255	-0.10022200644016266	-0.2670508623123169	-0.06601759791374207	0.0026794355362653732	-0.0076272753067314625	-0.10054080933332443	0.16497157514095306	-0.09844072163105011	0.1235174685716629	0.10371420532464981	0.1115037053823471	0.04148520901799202	0.26412805914878845	0.10564818978309631	-0.037776850163936615	0.09339845925569534	0.03560096397995949	0.031145161017775536	0.11549916118383408	0.1778283566236496	-0.25904765725135803	0.11533255130052567	-0.008501790463924408	-0.2971230447292328	-0.16200293600559235	0.015422609634697437	0.03232856094837189	-0.11314059793949127	-0.14056682586669922	0.3969862759113312	0.12826326489448547	-0.04679921641945839	-0.3090243339538574	-0.3599420189857483	-0.23003937304019928	0.23076795041561127	-0.12839668989181519	0.09762648493051529	-0.24010364711284637	0.2030833512544632	0.054072048515081406	0.05939752981066704	0.0987781211733818	0.14646175503730774	-0.05685834959149361	0.17148345708847046	0.14411696791648865	0.10575471818447113	0.3872619867324829	0.014809463173151016	-0.03711206465959549	-0.04353967308998108	-0.06322772055864334	0.002344361739233136	0.07026287913322449	0.047674063593149185	0.04146970808506012	0.12185253947973251	0.1065790131688118	-0.22829517722129822	-0.11591444164514542	-0.027736160904169083	0.01515889074653387	-0.020451581105589867	0.09064760059118271	0.12082885205745697	-0.04781946912407875	-0.01588173396885395	0.10842309147119522	0.005166727118194103	0.0898042544722557	0.2614983916282654	-0.18177638947963715	-0.196811243891716	0.06629851460456848	-0.0004079154459759593	-0.14529524743556976	-0.10549730062484741	-0.14995788037776947	0.09347319602966309	-0.06414472311735153	-0.040703464299440384	-0.12403392791748047	0.11964135617017746	-0.07022823393344879	-0.1223565936088562	-0.14439594745635986	-0.22704599797725677	0.3565032482147217	0.03727646544575691	0.12136518210172653	0.295596718788147	0.040399473160505295	0.16092704236507416	-0.14038898050785065	0.04413071647286415	-0.06300756335258484	0.07961418479681015	-0.014712856151163578
beng1280	0.03678015619516373	0.008393021300435066	0.15943259000778198	0.05890749394893646	-0.09028279781341553	0.0309095848351717	-0.038837730884552	-0.031940653920173645	-0.20717255771160126	-0.03455232083797455	-0.2390933334827423	0.12561851739883423	-0.05580940097570419	-0.05894748494029045	-0.21920722723007202	-0.027424441650509834	0.04317951574921608	0.20583859086036682	-0.0208488330245018	0.12712039053440094	0.0558711402118206	0.0595414973795414	0.01638357900083065	0.0540030375123024	-0.21759410202503204	0.15862764418125153	-0.032414864748716354	0.052987899631261826	0.1279337853193283	-0.15000019967556	-0.025839772075414658	-0.033158645033836365	0.03844420984387398	-0.21423766016960144	0.039368536323308945	-0.0003773560165427625	-0.15333613753318787	-0.2064170092344284	0.039155956357717514	-0.007868235930800438	0.15444493293762207	-0.16062666475772858	-0.20511870086193085	0.07948800921440125	-0.0403323657810688	0.10645651072263718	0.07032551616430283	0.046283822506666183	0.10107731819152832	-0.08076288551092148	0.11571650952100754	-0.018874788656830788	-0.1179441586136818	-0.23812443017959595	0.22031445801258087	0.027795840054750443	0.1699071228504181	-0.08932666480541229	-0.003184907604008913	0.11227681487798691	0.24875272810459137	-0.16112707555294037	0.18051481246948242	0.16484259068965912	0.10181500762701035	-0.032822899520397186	0.09714817255735397	0.26605579257011414	-0.1736677885055542	-0.19635339081287384	0.1351441890001297	0.0009697841596789658	0.16919401288032532	-0.17211425304412842	-0.13739199936389923	0.011780296452343464	-0.09447001665830612	-0.12582263350486755	-0.030180728062987328	-0.12028831988573074	0.19837112724781036	-0.12728790938854218	-0.07902335375547409	0.13247047364711761	-0.10837911069393158	0.13808342814445496	-0.051627449691295624	0.09301254153251648	0.05940541252493858	-0.07975683361291885	-0.2854166030883789	-0.026273086667060852	-0.21382619440555573	-0.145571768283844	-0.006129464600235224	-0.11250846087932587	-0.005305609665811062	0.025357507169246674	0.03344795107841492	0.0014701839536428452	0.04275079071521759	0.03759508579969406	0.009052514098584652	-0.019343623891472816	0.012499269098043442	-0.03170618414878845	0.004364388063549995	-0.3083917796611786	0.1504753977060318	0.004487759433686733	-0.17159107327461243	-0.10793303698301315	0.1447792947292328	0.17377310991287231	-0.06566131860017776	0.1685216724872589	0.029129862785339355	0.07478488981723785	0.02362813428044319	0.1535302847623825	-0.05369989946484566	0.023345977067947388	0.12863682210445404	-0.13510191440582275	0.07849065959453583	0.02245745062828064	0.11003326624631882	0.06002376601099968
bhad1241	0.007135271560400724	0.028011929243803024	0.04776845499873161	0.11458246409893036	0.24514760076999664	0.23616422712802887	0.2133554071187973	-0.07695364207029343	0.2101256251335144	-0.1436762809753418	0.1556660234928131	-0.00027788575971499085	0.3955084979534149	-0.3421194851398468	-0.07056079804897308	0.1323457658290863	-0.13634349405765533	0.06055168807506561	-0.12324995547533035	-0.08017753809690475	-0.16762271523475647	0.18689198791980743	0.0657312273979187	-0.1483292132616043	0.13232550024986267	-0.03647880256175995	0.2297995239496231	-0.04962177947163582	-0.04606509581208229	0.04536658525466919	0.3563479781150818	0.04017966240644455	0.07775503396987915	-0.11168836057186127	-0.08674851059913635	0.16242586076259613	-0.08361878246068954	0.27852827310562134	0.38383594155311584	0.043688636273145676	-0.1244581937789917	-0.10479968041181564	-0.06845714896917343	-0.08063607662916183	-0.027279604226350784	0.0006657469784840941	0.10128717124462128	0.06443975865840912	-0.02149740234017372	0.18336445093154907	0.04054184630513191	-0.03288877755403519	0.0014527731109410524	0.022363875061273575	-0.3276739716529846	-0.10689385235309601	0.05894787609577179	-0.14002910256385803	0.0649900883436203	0.11291415244340897	-0.016332512721419334	0.16739587485790253	0.04332801699638367	-0.12113231420516968	-0.2892504930496216	0.05603883042931557	-0.306493878364563	-0.0654950812458992	-0.028375132009387016	0.2307768166065216	-0.12403178215026855	-0.00821912381798029	0.2212407886981964	-0.22112363576889038	-0.08421561866998672	0.06406395137310028	0.08406002819538116	-0.13612283766269684	0.13426770269870758	-0.1370552033185959	-0.07948581874370575	-0.10508628189563751	-0.03145083785057068	-0.23647631704807281	0.11203421652317047	0.21658676862716675	-0.1561535894870758	0.019604355096817017	-0.07426438480615616	0.14144444465637207	-0.39011150598526	-0.21957357227802277	-0.06660138815641403	-0.05956023558974266	-0.041042666882276535	0.4724659323692322	0.15301042795181274	-0.0922028124332428	0.3884095251560211	-0.08333023637533188	0.05331601947546005	-0.016586491838097572	-0.13865557312965393	0.019327668473124504	0.2116539180278778	-0.030365070328116417	-0.12250568717718124	-0.20911464095115662	-0.04230624437332153	0.23128174245357513	0.18846456706523895	-0.13548405468463898	-0.08316706866025925	0.10571067035198212	0.22706319391727448	-0.239976167678833	-0.09906405210494995	0.026842322200536728	0.04016539826989174	0.01988043077290058	-0.1474504917860031	-0.28156590461730957	-0.42377814650535583	0.0225509125739336	-0.13350725173950195	-0.16975359618663788	-0.09538571536540985	0.07935544848442078
bhal1244	0.09584962576627731	0.2655804455280304	0.05982571095228195	-0.09146229177713394	0.158172607421875	0.11280668526887894	0.33959296345710754	-0.009997839108109474	0.05806771665811539	-0.1402689665555954	0.36725398898124695	-0.17998379468917847	0.23097680509090424	-0.3839755058288574	0.1326054483652115	-0.10428214818239212	-0.03851532191038132	-0.10295552760362625	-0.05655834451317787	0.028174854815006256	0.22293278574943542	0.08180861920118332	0.02426675707101822	-0.11827367544174194	0.02052065171301365	0.15045243501663208	-0.015355415642261505	0.07866684347391129	-0.07434344291687012	0.1420995146036148	0.006649360526353121	0.014219037257134914	0.19346414506435394	0.04574603959918022	-0.004167778883129358	0.08711197972297668	-0.00408150115981698	0.06890175491571426	0.15939757227897644	-0.21178431808948517	0.13940885663032532	-0.157546266913414	0.01984657347202301	0.07344507426023483	0.31944674253463745	0.17899967730045319	0.34065282344818115	0.09550152719020844	0.08719776570796967	-0.12104935944080353	-0.1281033754348755	0.025450458750128746	-0.3055601119995117	-0.05313905328512192	-0.08485680818557739	-0.42733004689216614	0.21468213200569153	-0.14546915888786316	0.03494485095143318	-0.15079092979431152	-0.08653979003429413	0.3530188798904419	0.15217377245426178	0.0036731665022671223	0.0033770292066037655	0.0060017406940460205	-0.07538287341594696	-0.1180243268609047	0.1269139051437378	0.24500258266925812	0.015858151018619537	0.08900520205497742	0.06461197882890701	0.032208673655986786	-0.04416469484567642	-0.24815034866333008	0.14778293669223785	-0.33928176760673523	0.021320976316928864	-0.36558330059051514	-0.14289067685604095	0.13086573779582977	-0.07351800799369812	-0.10795015096664429	0.02754017524421215	0.022932855412364006	0.1275896281003952	0.01694289967417717	0.09604592621326447	0.053674209862947464	-0.09017941355705261	-0.3893168568611145	-0.18707065284252167	-0.08274567872285843	0.006312307436019182	0.36290431022644043	-0.04489195719361305	-0.1303095668554306	0.24561242759227753	0.2123950570821762	-0.28412479162216187	-0.047433555126190186	-0.09719491004943848	0.007947102189064026	0.1422315090894699	0.20531803369522095	0.04005296155810356	0.05561959743499756	0.20844867825508118	0.0397355854511261	-0.00467216270044446	0.044482555240392685	-0.011982908472418785	0.24408787488937378	0.027722185477614403	0.021845443174242973	-0.08991341292858124	0.06853481382131577	0.00961952656507492	-0.17098690569400787	-0.10716744512319565	-0.11919824033975601	-0.37165868282318115	-0.004092315677553415	0.20320644974708557	-0.2404588907957077	0.24660710990428925	-0.11886836588382721
bhoj1244	0.027976110577583313	0.001565944985486567	0.01231065671890974	0.15329991281032562	-0.2260126918554306	0.1975148618221283	0.009774880483746529	-0.03309090435504913	0.05588647723197937	0.18106311559677124	0.16796696186065674	0.30668190121650696	-0.09682214260101318	0.11837055534124374	0.07290066033601761	-0.013033263385295868	-0.05445525795221329	0.08506686240434647	-0.09164580702781677	-0.1383834034204483	-0.1014287993311882	0.012398453429341316	0.20730946958065033	-0.031227467581629753	0.2840851843357086	0.19400598108768463	-0.16565538942813873	-0.33283188939094543	0.2813904583454132	0.11818510293960571	-0.07454602420330048	-0.01481752097606659	0.06609415262937546	-0.0515502467751503	0.0738198310136795	0.03642076626420021	0.031473785638809204	-0.10001377761363983	-0.05410933867096901	-0.1258356124162674	-0.3085727095603943	-0.115496426820755	-0.08940289169549942	-0.1707221269607544	0.37207508087158203	-0.11109388619661331	-0.007470669224858284	0.05131281539797783	0.0022701723501086235	-0.17881204187870026	0.47734618186950684	-0.03408614546060562	0.12091261893510818	-0.22803762555122375	-0.1810341477394104	-0.20064054429531097	0.07866384834051132	0.06055610999464989	-0.0935540422797203	0.23758284747600555	0.10530613362789154	-0.12581771612167358	-0.21088311076164246	0.025606978684663773	0.43733686208724976	0.011492371559143066	0.14852094650268555	0.1215527132153511	0.40668874979019165	-0.15210802853107452	0.13360203802585602	-0.016939697787165642	0.08273966610431671	-0.05403482913970947	0.18112438917160034	-0.11386492103338242	-0.2112574577331543	0.36403003334999084	0.12973174452781677	-0.12101169675588608	-0.07706397026777267	-0.21468661725521088	0.0676421970129013	0.13961078226566315	0.17108267545700073	-0.05157073214650154	0.17696158587932587	-0.10991054028272629	0.10416343063116074	-0.11884736269712448	0.13472801446914673	0.07129312306642532	0.22461262345314026	-0.14947791397571564	0.22910745441913605	0.15551523864269257	-0.27139925956726074	0.09426791965961456	0.08534608036279678	0.22720015048980713	-0.1158733069896698	0.07055813074111938	-0.4104706943035126	-0.10824035853147507	0.08911633491516113	-0.06959140300750732	-0.2462102174758911	-0.2770872116088867	0.30870309472084045	-0.13843455910682678	-0.16400636732578278	0.10799821466207504	-0.02163233608007431	0.04042484238743782	-0.2303844839334488	0.19938360154628754	0.029051512479782104	-0.012636941857635975	0.11976258456707001	-0.17292329668998718	-0.04757297411561012	0.2901231646537781	0.21048717200756073	-0.03840726986527443	0.08630966395139694	-0.006670825649052858	-0.3364962339401245	-0.11801744252443314
braj1242	-0.2772163152694702	-0.2409358024597168	-0.5986462235450745	-0.042226824909448624	-0.0211496464908123	0.11864611506462097	-0.05904525890946388	0.02504623308777809	0.04840569570660591	-0.31284093856811523	0.12358930706977844	0.4913453459739685	0.04395478218793869	-0.19423405826091766	-0.4824832081794739	-0.13030630350112915	0.31737378239631653	-0.1000383272767067	0.11230791360139847	0.25386151671409607	-0.17717111110687256	-0.04268103092908859	-0.2514602541923523	0.006773804780095816	0.2565414309501648	-0.1420634686946869	-0.07033859938383102	-0.2985422611236572	-0.12949612736701965	0.2579863369464874	0.1838613748550415	-0.12021153420209885	-0.23147310316562653	0.23037254810333252	0.04975450411438942	0.09328699856996536	-0.10254263132810593	0.011648047715425491	0.125107541680336	0.2072618454694748	-0.29246985912323	0.041435498744249344	0.0532667450606823	0.2728457450866699	-0.08302892744541168	0.22056014835834503	-0.06228898465633392	0.21542932093143463	-0.2103228121995926	0.08094780892133713	0.3196645677089691	-0.179280623793602	-0.303279310464859	0.184894859790802	0.014595295302569866	-0.4238922595977783	0.12537965178489685	0.08295506238937378	0.007875832729041576	-0.02462613768875599	0.05997110903263092	-0.47890880703926086	-0.2636558711528778	0.08714611828327179	0.23468604683876038	-0.4714483618736267	0.28381478786468506	-0.34730613231658936	0.12336183339357376	-0.15447956323623657	0.3530406653881073	0.19631865620613098	-0.03161998465657234	-0.08684532344341278	-0.19417914748191833	0.06866683065891266	-0.11369071155786514	0.21743373572826385	-0.2994922697544098	-0.01131299789994955	-0.12765663862228394	0.09607422351837158	-0.19887050986289978	-0.08246399462223053	0.002242818707600236	-0.5474796295166016	0.09904278814792633	-0.006904966197907925	-0.14697852730751038	-0.09858956187963486	0.20289266109466553	-0.07165903598070145	-0.05202683061361313	0.11109817028045654	-0.06271210312843323	0.03283529728651047	0.3467463552951813	-0.11619861423969269	0.27697327733039856	0.1955382227897644	0.3097933530807495	0.41773727536201477	0.0685381293296814	0.09430208802223206	-0.15749643743038177	-0.38127392530441284	-0.03924652561545372	-0.054719746112823486	0.20611082017421722	-0.4121447503566742	-0.13751527667045593	0.17654277384281158	-0.1316693276166916	-0.04318518564105034	-0.06644739955663681	0.0837341919541359	0.3356173038482666	0.21183013916015625	0.21110455691814423	-0.1946486532688141	0.18373695015907288	0.24892982840538025	0.2620808482170105	0.17397086322307587	-0.22370685636997223	-0.29583436250686646	-0.06298674643039703	-0.09674151241779327
cham1307	-0.04252702370285988	-0.07403167337179184	-0.1693323403596878	0.004801047965884209	0.19294951856136322	0.1259116679430008	0.16173405945301056	-0.015628889203071594	-0.2503091096878052	-0.29147449135780334	-0.1579616218805313	-0.10865265130996704	0.017516670748591423	-0.15768392384052277	0.014177432283759117	0.08927197009325027	0.1785620003938675	-0.17654989659786224	-0.2441059798002243	-0.07415282726287842	0.4465125799179077	0.14930137991905212	0.04335940629243851	-0.14024023711681366	0.2488226592540741	-0.08746307343244553	-0.027782732620835304	0.12936830520629883	0.2421184480190277	-0.01214518677443266	-0.18491129577159882	-0.5074673295021057	0.2621234953403473	-0.05490167438983917	-0.17896738648414612	0.14174160361289978	0.3576790392398834	-0.19604237377643585	0.14558662474155426	0.13600942492485046	0.2520469129085541	-0.091439388692379	-0.11060094833374023	-0.1637745350599289	-0.008525202982127666	-0.029189782217144966	0.25363054871559143	0.022765183821320534	-0.7480157017707825	0.10971888154745102	-0.06880265474319458	0.28165096044540405	-0.01375580858439207	0.11797536164522171	-0.016982533037662506	0.01983007974922657	-0.02055932953953743	-0.031520776450634	0.26818934082984924	0.20469540357589722	-0.2947315275669098	0.08065198361873627	0.41127246618270874	0.06847545504570007	0.21512103080749512	0.10311999171972275	0.028427409008145332	0.020207198336720467	0.05568893626332283	-0.14023077487945557	0.08998702466487885	-0.09005259722471237	0.08558927476406097	-0.11848891526460648	-0.15833355486392975	0.004862343892455101	0.06668347865343094	-0.2144835740327835	0.17146427929401398	0.055551253259181976	0.2883388102054596	-0.06998858600854874	0.1314474493265152	-0.20044490694999695	-0.15775984525680542	-0.38943299651145935	0.462383896112442	0.17664013803005219	0.02404567040503025	0.07890987396240234	0.10364104062318802	-0.126143217086792	0.07179268449544907	-0.1605101078748703	0.03203897923231125	0.5035350918769836	0.1876431703567505	0.17266608774662018	0.1757841855287552	-0.19322830438613892	0.12717656791210175	-0.2488125115633011	-0.07352333515882492	0.30712008476257324	-0.260831743478775	0.3564738929271698	-0.2992943525314331	-0.11009223014116287	0.17696239054203033	-0.29140186309814453	0.4372714161872864	-0.04271524399518967	-0.08382883667945862	-0.14092829823493958	0.33930522203445435	-0.0638122484087944	0.01833190768957138	-0.19671630859375	0.1992320418357849	-0.3926354944705963	-0.046220529824495316	0.017726266756653786	-0.041694507002830505	0.4352162778377533	-0.04702429845929146	0.1280008852481842	0.06935817748308182	-0.15042166411876678
chur1258	0.1463695913553238	-0.06472201645374298	-0.052404846996068954	-0.15167616307735443	-0.05694468691945076	0.13421647250652313	-0.044871095567941666	0.14277242124080658	0.38438743352890015	0.06375206261873245	0.1981867551803589	-0.10785876959562302	0.05589723214507103	0.03916779160499573	0.15688566863536835	0.21279577910900116	0.41177746653556824	0.182185560464859	-0.2802949547767639	-0.13635070621967316	0.4534860849380493	0.11357757449150085	0.21113383769989014	-0.4800732433795929	0.04432150721549988	-0.2039046585559845	-0.06420435756444931	0.1022181436419487	0.1373216211795807	0.03197246044874191	0.23733197152614594	-0.16251705586910248	-0.03942890092730522	-0.16558152437210083	0.007112189196050167	0.01558083388954401	0.051249805837869644	-0.15633539855480194	0.12000978738069534	-0.14702051877975464	0.1773650050163269	-0.16893911361694336	-0.2105080932378769	0.08724649250507355	0.1484190821647644	-0.20413631200790405	0.18406331539154053	0.034270379692316055	-0.4007439613342285	-0.12867167592048645	0.07067152857780457	0.18955007195472717	-0.16804790496826172	0.05788932740688324	-0.25646209716796875	-0.12084297835826874	0.1228114441037178	0.015233946964144707	0.6559439897537231	-0.025433212518692017	-0.004099295474588871	-0.1735665500164032	0.13175801932811737	0.08173035085201263	-0.17757703363895416	0.008364678360521793	-0.42653992772102356	0.04933847859501839	-0.35466673970222473	-0.1700167953968048	-0.5161241888999939	-0.2243117094039917	-0.036632757633924484	-0.2977292239665985	0.1372215300798416	0.3110986351966858	0.2693530321121216	-0.22856980562210083	-0.08698329329490662	0.15383999049663544	0.0912250280380249	-0.2137269228696823	-0.0015527562936767936	-0.09048135578632355	0.01222328282892704	0.059520795941352844	0.27916836738586426	-0.15696726739406586	-0.1036352813243866	0.017903923988342285	-0.18119661509990692	-0.20536981523036957	-0.03091842494904995	-0.17442874610424042	0.10871166735887527	0.25351589918136597	-0.10084915906190872	-0.03468568995594978	0.16446098685264587	-0.0013175065396353602	-0.16069768369197845	-0.38217708468437195	0.05999359115958214	0.04516441375017166	-0.08776277303695679	0.36184942722320557	0.007260531187057495	-0.023397788405418396	-0.05708073452115059	-0.06457013636827469	0.14160694181919098	-0.09440251439809799	-0.2578851878643036	0.02126838080585003	0.04995081201195717	-0.012375280261039734	-0.042965710163116455	0.12828116118907928	0.13563841581344604	0.1263788789510727	-0.16739621758460999	-0.08985624462366104	-0.09134702384471893	0.2694905698299408	0.44652652740478516	-0.12810620665550232	-0.20746435225009918	-0.3207244277000427
dame1241	-0.12022658437490463	0.19113095104694366	-0.08802391588687897	-0.1980532705783844	-0.29624107480049133	-0.2924063801765442	0.0490206778049469	0.21347998082637787	-0.05752967670559883	0.10968222469091415	-0.06793656200170517	0.013196418061852455	0.3618888258934021	0.47773221135139465	0.267660528421402	0.3307378888130188	-0.16507945954799652	0.24483495950698853	0.03826824203133583	-0.08134138584136963	0.22397249937057495	0.3983002305030823	-0.055638473480939865	-0.0418434664607048	-0.3356266915798187	0.13081318140029907	0.10994382202625275	0.1035764068365097	-0.11455627530813217	-0.12374667078256607	0.037140075117349625	-0.21443931758403778	-0.0334184356033802	0.2659459114074707	0.13934840261936188	-0.1627436727285385	0.02562664821743965	-0.23058606684207916	0.1436813324689865	-0.09540040045976639	-0.1156095415353775	-0.046127356588840485	-0.28198060393333435	0.06835877150297165	0.1965647041797638	0.014401975087821484	0.13462872803211212	-0.04215799272060394	-0.04600140452384949	-0.07441351562738419	0.07918234914541245	-0.12456977367401123	0.2848641574382782	-0.05376735329627991	-0.06843993812799454	0.09020029008388519	-0.20401936769485474	0.37241828441619873	-0.07275138050317764	-0.01614302024245262	0.122869573533535	-0.10203267633914948	-0.018741989508271217	0.16293294727802277	0.10035242885351181	0.12360282242298126	-0.26226964592933655	0.12065615504980087	0.10244645178318024	-0.09035474807024002	0.009911659173667431	0.07792472839355469	-0.09691951423883438	0.228071391582489	0.13342854380607605	0.12885716557502747	-0.13796505331993103	0.19381573796272278	0.10483481734991074	0.13226428627967834	-0.3136498034000397	0.13582228124141693	0.3218393325805664	0.30399829149246216	-0.10041409730911255	0.022002073004841805	-0.06039043515920639	-0.05607343092560768	0.26276329159736633	0.0739685669541359	-0.2184896320104599	-0.005700831767171621	0.10602213442325592	0.3052217662334442	-0.13401047885417938	0.21771274507045746	-0.060623690485954285	-0.16264905035495758	-0.022068962454795837	-0.32403072714805603	0.07825202494859695	-0.047819577157497406	-0.08574564009904861	-0.09918311983346939	0.05115911737084389	-0.22844058275222778	-0.09497727453708649	0.04514186829328537	0.003774280659854412	0.009749178774654865	0.12284170091152191	-0.1905437558889389	0.21251751482486725	-0.08275902271270752	0.06361179053783417	0.01116214133799076	0.13946418464183807	0.04962269216775894	-0.0032412416767328978	0.2295466512441635	0.37387529015541077	0.09333325922489166	-0.021196434274315834	-0.001273475936613977	-0.01150128897279501	-0.23097151517868042	0.03585953637957573	0.2426580786705017
dhiv1236	0.15006393194198608	0.20004338026046753	-0.2898831367492676	-0.030186252668499947	0.2565881013870239	0.06969361752271652	0.35845211148262024	0.038812778890132904	0.09627715498209	0.26633983850479126	-0.233880415558815	-0.32288363575935364	0.1025734692811966	0.1740679293870926	0.06230169162154198	-0.2919265925884247	-0.021094990894198418	0.4206647276878357	-0.12269213050603867	-0.1348450481891632	-0.2549324035644531	-0.38628432154655457	-0.19943368434906006	0.10016284883022308	-0.21555499732494354	-0.3936052918434143	-0.2007409781217575	-0.3290981948375702	-0.1654503047466278	0.27716967463493347	-0.13248342275619507	0.009264620020985603	0.10750225931406021	0.12406711280345917	0.25060126185417175	0.06758514791727066	-0.3559213876724243	-0.23384900391101837	-0.23665831983089447	-0.20785479247570038	0.19497071206569672	-0.17982827126979828	0.0659407526254654	0.019497860223054886	0.10970313102006912	-0.11084477603435516	-0.021105647087097168	0.025433700531721115	-0.016805674880743027	0.10421396791934967	-0.1850431263446808	0.02407204546034336	0.30277466773986816	0.3929520547389984	0.2216966450214386	0.11578557640314102	-0.3512028753757477	0.2348703294992447	-0.053719937801361084	0.2788855731487274	0.30331823229789734	0.1160939633846283	-0.10137107968330383	-0.3255959749221802	-0.35714229941368103	0.33893606066703796	0.1375272572040558	-0.013843211345374584	-0.09389152377843857	-0.2345263957977295	0.0771443322300911	-0.15904416143894196	0.011266965419054031	0.1208198294043541	-0.04291544482111931	0.1267896294593811	0.1244431883096695	0.17648455500602722	0.16275984048843384	-0.04151601344347	-0.08219791948795319	0.059873249381780624	0.07897414267063141	0.10881109535694122	0.23213867843151093	-0.1039576530456543	-0.16096384823322296	0.04815896600484848	-0.015021391212940216	-0.1519869863986969	-0.28134167194366455	0.20493604242801666	-0.44816768169403076	-0.030307235196232796	0.08925119787454605	-0.49674609303474426	0.03158881142735481	-0.2199157178401947	-0.12807971239089966	-0.18687041103839874	-0.024302562698721886	0.17180153727531433	0.38031914830207825	-0.029029276221990585	-0.05357852950692177	0.551024854183197	0.13711844384670258	0.1823052018880844	-0.32146307826042175	0.14945925772190094	-0.2918998599052429	0.30922919511795044	-0.09666341543197632	0.09516583383083344	0.0805935263633728	0.08197575807571411	-0.03313562646508217	-0.17519518733024597	0.10007772594690323	-0.17327554523944855	-0.2881874442100525	-0.33409637212753296	0.1229720413684845	-0.12192047387361526	0.27574312686920166	-0.2620692253112793	-0.025758422911167145	-0.029978130012750626
doma1260	0.030710045248270035	-0.031224535778164864	-0.05079491436481476	-0.4067351520061493	0.07608289271593094	0.12760703265666962	0.002111644484102726	0.08827047049999237	-0.3312230408191681	0.08335712552070618	-0.009738493710756302	0.008076086640357971	-0.28597426414489746	-0.24876008927822113	0.01739155501127243	0.03202540799975395	-0.012558088637888432	-0.2174062579870224	0.01875370927155018	0.2081323266029358	-0.01163362618535757	0.28213000297546387	-0.08466102182865143	-0.17538872361183167	0.022487981244921684	0.3188358545303345	0.29007968306541443	-0.3111717998981476	-0.04825510457158089	0.17447811365127563	-0.3971788287162781	-0.16913828253746033	-0.36466145515441895	0.4180242419242859	0.31852439045906067	-0.456327885389328	0.10986370593309402	0.2570558190345764	0.1225779727101326	-0.02880752459168434	0.07351956516504288	-0.018245304003357887	0.11004400998353958	0.1303340047597885	-0.12020503729581833	0.028472837060689926	0.021494287997484207	0.0034576011821627617	-0.41788429021835327	-0.2521047592163086	-0.24610868096351624	0.3030405342578888	0.10336555540561676	0.2614869475364685	0.2628939747810364	0.1840554177761078	0.12096986919641495	0.2901223301887512	-0.028385767713189125	-0.22864432632923126	-0.19187185168266296	0.241526260972023	-0.1393783986568451	-0.45251283049583435	-0.26679861545562744	0.339945524930954	0.07924149185419083	0.17075090110301971	-0.3183786869049072	-0.2281424105167389	0.1670936644077301	0.04290580749511719	-0.2226015031337738	0.19232618808746338	-0.13420335948467255	-0.15064816176891327	0.018159108236432076	-0.280121386051178	0.3258904218673706	0.21546147763729095	0.1368684619665146	0.03566744178533554	0.19082307815551758	-0.130305215716362	-0.259629487991333	-0.3042643964290619	-0.01006848830729723	0.05216148495674133	-0.12449511885643005	-0.0640300065279007	-0.17578254640102386	-0.34745922684669495	-0.07617127895355225	0.5250261425971985	-0.0064435601234436035	-0.05828959122300148	0.1418677568435669	-0.15723545849323273	-0.3825932443141937	-0.003118374152109027	-0.2820311188697815	-0.04895249754190445	-0.20720267295837402	-0.15803423523902893	-0.41709303855895996	0.24258804321289062	-0.04931269958615303	0.43585795164108276	0.132097065448761	-0.12692755460739136	-0.06500950455665588	0.2751160264015198	0.2048005312681198	0.03577356040477753	0.2421042025089264	0.19655141234397888	0.012662149965763092	0.005182582885026932	0.16139456629753113	-0.008610782213509083	0.16914452612400055	-0.10259594768285751	0.22464226186275482	-0.29751265048980713	0.23951315879821777	-0.22607408463954926	-0.0960802212357521	0.33644628524780273
gang1265	-0.06646329909563065	-0.03293268010020256	0.040219180285930634	0.29782217741012573	-0.22795990109443665	0.07677145302295685	-0.054835978895425797	-0.02778918668627739	0.1645943522453308	0.23596669733524323	0.10910741984844208	0.09664981067180634	0.021574046462774277	0.2871699035167694	0.12649641931056976	0.13789017498493195	-0.12394492328166962	-0.12287420779466629	-0.11421086639165878	-0.20104868710041046	-0.1825190782546997	-0.04829173535108566	-0.1936875581741333	-0.1639832854270935	0.17168448865413666	0.1279345005750656	-0.14509035646915436	-0.1859203428030014	-0.19679449498653412	-0.19491727650165558	-0.04948505386710167	-0.15226995944976807	0.1382579654455185	0.1951180249452591	0.11413442343473434	-0.006242144852876663	-0.02023417502641678	0.020954923704266548	-0.14900879561901093	0.005715949460864067	-0.0792231485247612	0.14499115943908691	-0.03351389616727829	-0.10229101777076721	-0.15047991275787354	-0.17347228527069092	0.09132976830005646	0.02465026080608368	-0.27719101309776306	0.1833648383617401	0.27867549657821655	-0.037227481603622437	-0.29615548253059387	-0.26240265369415283	0.1588432788848877	-0.2574048638343811	-0.05470219627022743	0.01306984480470419	0.1319998800754547	0.27185168862342834	-0.07925187051296234	-0.3001497983932495	0.26381492614746094	0.21221019327640533	0.23250700533390045	-0.08101356774568558	-0.2676823139190674	-0.011909117922186852	0.28015512228012085	-0.17547085881233215	0.07603655010461807	-0.15167804062366486	-0.175497367978096	0.12485352903604507	-0.10838617384433746	0.24143631756305695	0.1934438943862915	0.28411564230918884	0.08452825993299484	0.23238523304462433	0.32952359318733215	-0.16739465296268463	-0.21744532883167267	-0.008831784129142761	-0.16140207648277283	0.046512171626091	0.17632457613945007	0.38874077796936035	0.20060572028160095	0.03633185476064682	-0.10671207308769226	0.07404137402772903	0.04259665682911873	0.13439126312732697	0.15813122689723969	0.12617690861225128	0.057727597653865814	0.013757213018834591	0.02649875357747078	0.005274469964206219	0.03526106849312782	0.3852787911891937	-0.399047315120697	-0.12183507531881332	-0.16721941530704498	-0.09386687725782394	-0.10750672966241837	0.07465113699436188	-0.012781821191310883	-0.1325332373380661	0.005115179345011711	0.16433928906917572	-0.12847527861595154	-0.2912731468677521	-0.17154626548290253	-0.08348377048969269	-0.1350201666355133	0.057403091341257095	0.07481669634580612	-0.010583845898509026	0.2669452428817749	0.05898619070649147	0.28881070017814636	-0.30366387963294983	-0.09835515916347504	0.14027336239814758	0.19042223691940308	-0.3230084776878357
garh1243	0.06436377763748169	0.21571044623851776	-0.21742044389247894	0.09708064049482346	0.10485367476940155	0.3112981915473938	-0.20233559608459473	0.39795610308647156	-0.11961138248443604	-0.03870883956551552	-0.002374210860580206	-0.14244556427001953	0.1307152658700943	0.16433538496494293	-0.06447205692529678	0.29259562492370605	0.30337172746658325	-0.10277190059423447	-0.04272208362817764	-0.0822809636592865	0.21581166982650757	0.211199551820755	-0.20015299320220947	0.03547081723809242	0.06866832822561264	0.0932837650179863	-0.07145437598228455	0.3313809633255005	-0.06923454999923706	-0.12032124400138855	-0.06815144419670105	-0.23191939294338226	0.2868841588497162	0.33556032180786133	-0.09294681996107101	0.4206102192401886	-0.2067614197731018	-0.2703815698623657	0.1960674673318863	0.04645752161741257	0.11865630000829697	-0.2077583521604538	0.18132610619068146	-0.22372184693813324	-0.40945833921432495	0.04806402325630188	0.3218703269958496	0.2869662642478943	0.02450457215309143	0.19951294362545013	0.06439489871263504	-0.17015138268470764	0.1672242134809494	-0.24186910688877106	-0.14845119416713715	-0.05578920617699623	0.016697745770215988	-0.06964904814958572	0.10243330895900726	0.13924375176429749	0.2149120271205902	0.1353103667497635	-0.015881411731243134	0.16409793496131897	-0.1374380886554718	0.13327212631702423	-0.08770761638879776	-0.16318000853061676	0.1531580090522766	-0.2902507483959198	-0.134272038936615	-0.08002083003520966	-0.012648438103497028	-0.05320996046066284	-0.19592860341072083	0.2395627200603485	-0.0902186781167984	-0.4199204444885254	-0.10131251066923141	-0.23282071948051453	-0.1007203608751297	-0.2827279567718506	0.04448392614722252	-0.04420031979680061	-0.016692573204636574	0.08896731585264206	-0.004094923846423626	0.07115380465984344	-0.22873534262180328	-0.08705148100852966	-0.0036551340017467737	-0.10283945500850677	0.3789578080177307	-0.11930329352617264	0.004147794563323259	-0.011822565458714962	0.1395689994096756	0.059281639754772186	-0.24277998507022858	0.18192236125469208	0.0716710314154625	-0.125605508685112	0.06079157814383507	0.04290232062339783	-0.04148325324058533	0.03716022148728371	-0.1771591752767563	-0.132850781083107	-0.06571535021066666	-0.2207697480916977	-0.21095743775367737	0.02199721895158291	-0.09091170877218246	0.14643028378486633	-0.04807863384485245	0.01794484443962574	-0.20653009414672852	0.24353888630867004	-0.11542215943336487	-0.22387351095676422	0.045458801090717316	0.1117832213640213	-0.11307667195796967	0.13770970702171326	0.13163408637046814	0.29373419284820557	-0.3706127107143402	-0.09711122512817383
gawa1247	-0.34205055236816406	0.10875287652015686	0.13066516816616058	0.18760676681995392	-0.07957865297794342	-0.12824460864067078	0.0024281078949570656	-0.3296821415424347	-0.14883287250995636	0.08044803142547607	0.07973121106624603	0.30592045187950134	0.36733710765838623	-0.1341061145067215	0.3415450155735016	-0.14524833858013153	0.054141197353601456	0.15136714279651642	0.03396433964371681	0.11845850199460983	-0.19765619933605194	0.05712156370282173	0.07455430179834366	0.21280144155025482	0.018880311399698257	0.24907930195331573	-0.26102936267852783	-0.12735146284103394	-0.20667049288749695	0.3096860945224762	0.1196264997124672	0.10238530486822128	-0.19335246086120605	-0.23502223193645477	-0.20755986869335175	-0.06283862888813019	-0.081281378865242	0.09787046909332275	-0.08005925267934799	0.1731412708759308	-0.18275319039821625	-0.026114605367183685	-0.16817240417003632	-0.06071313098073006	0.33056551218032837	-0.20713475346565247	0.07669701427221298	-0.02867480367422104	-0.14426757395267487	0.05281122773885727	0.31813788414001465	0.17430450022220612	0.2628152370452881	-0.048226065933704376	0.03980857878923416	0.13204476237297058	-0.2095067799091339	0.28568437695503235	-0.36333516240119934	-0.18654081225395203	0.01843251846730709	0.13557173311710358	-0.13200034201145172	-0.2437126338481903	-0.24469615519046783	0.017027106136083603	0.150631844997406	0.19383400678634644	0.2991412580013275	0.25014442205429077	0.0639725774526596	0.09984856098890305	-0.05520540848374367	0.16647255420684814	-0.01820010133087635	-0.1483791619539261	-0.19525815546512604	-0.08997262269258499	-0.004843419883400202	-0.08418948203325272	-0.19119630753993988	-0.18953552842140198	0.32501834630966187	-0.012956195510923862	0.00313502736389637	-0.09282572567462921	0.24484209716320038	-0.16822703182697296	-0.005582349840551615	-0.0703994408249855	-0.2761712968349457	0.1099155843257904	-0.09543924033641815	0.2540387213230133	-0.06233096122741699	-0.017551086843013763	0.22288620471954346	-0.03148140013217926	-0.06680402904748917	-0.18029390275478363	-0.20110630989074707	-0.09919500350952148	-0.040188245475292206	0.20972299575805664	0.12932966649532318	0.19207724928855896	0.17722085118293762	0.04291965812444687	0.21500904858112335	-0.15442955493927002	-0.03894415125250816	-0.4496377110481262	-0.02257451042532921	-0.12233678251504898	0.05212956294417381	-0.18112197518348694	0.003054187633097172	0.16336247324943542	0.028218138962984085	0.15841054916381836	0.28542959690093994	0.07528413087129593	-0.19705131649971008	-0.047250255942344666	-0.24976037442684174	-0.18238787353038788	0.2711809575557709	0.05454999580979347
guja1252	0.04595566913485527	-0.06638779491186142	0.08357569575309753	0.07716919481754303	-0.0884423479437828	0.08731257915496826	-0.23068919777870178	0.08055146783590317	0.18578267097473145	-0.1017848402261734	-0.09738685190677643	-0.016600826755166054	-0.013182015158236027	-0.030417175963521004	-0.1393948644399643	0.07193339616060257	-0.009306799620389938	-0.1756058633327484	0.04412253201007843	-0.12337961792945862	0.02735413983464241	-0.114474356174469	-0.06039302423596382	0.023911219090223312	0.19948169589042664	-0.047142211347818375	-0.033692434430122375	0.13930059969425201	0.1055578738451004	0.06610559672117233	0.05918997526168823	0.08074085414409637	-0.004165286663919687	0.09079857170581818	0.040051981806755066	-0.07479628920555115	-0.017070196568965912	-0.20802989602088928	-0.0480811782181263	-0.0008493576315231621	-0.04658191651105881	-0.0290228184312582	-0.0770433247089386	-0.010674351826310158	-0.19037212431430817	0.0398627370595932	-0.09127028286457062	0.07082390040159225	0.13933955132961273	0.14275793731212616	-0.010295719839632511	-0.09791965782642365	0.011969007551670074	0.10014903545379639	-0.17974242568016052	-0.20280620455741882	0.12619051337242126	-0.08389575779438019	0.11845333129167557	-0.1181865707039833	0.08171267807483673	0.11842707544565201	-0.04044156149029732	0.06409496814012527	-0.15579216182231903	-0.1560983508825302	0.044440630823373795	-0.13366000354290009	0.03970842435956001	0.15355727076530457	-0.13784269988536835	-0.1685493439435959	-0.15930190682411194	0.008472788147628307	0.05571281164884567	-0.03797740489244461	0.11803333461284637	-0.0741288885474205	-0.005788612179458141	0.08668999373912811	-0.18073712289333344	-0.008959132246673107	-0.06293858587741852	0.038426123559474945	0.04554107412695885	0.20295029878616333	-0.21361100673675537	-0.0759437158703804	0.16153483092784882	-0.0066402507945895195	0.02942233718931675	0.2094479203224182	0.03746778517961502	-0.10922086238861084	0.021786736324429512	-0.09970125555992126	-0.05208602175116539	-0.04692615196108818	-0.025167888030409813	0.0966210663318634	-0.05726320669054985	-0.0398920513689518	0.06712181866168976	-0.020216315984725952	0.013103337027132511	-0.24567082524299622	0.027202807366847992	0.050567470490932465	0.1357332020998001	0.03902364522218704	-0.12971670925617218	-0.11208167672157288	0.07583139836788177	0.11315995454788208	0.02137278951704502	0.018355585634708405	0.0023604310117661953	-0.0839567556977272	-0.16175425052642822	-0.07976376265287399	-0.07765227556228638	0.034061770886182785	0.05839189887046814	-0.042361002415418625	0.18251770734786987	0.2119493931531906	-0.00332322483882308	-0.13045139610767365
hind1269	0.06957554817199707	-0.20163603127002716	-0.10252010822296143	0.030419081449508667	0.09076086431741714	0.024823367595672607	-0.05686042457818985	0.08408915251493454	0.09673485159873962	0.1583232879638672	0.10857962816953659	0.0269911028444767	0.06685864180326462	0.10010266304016113	-0.1725851595401764	0.12150624394416809	0.033461831510066986	-0.11768538504838943	0.0612327978014946	-0.08000995963811874	-0.023169297724962234	0.0952787846326828	0.028050612658262253	0.06526266783475876	0.12396971136331558	0.09194575995206833	-0.13935191929340363	0.08036961406469345	-0.027438804507255554	-0.1926017701625824	-0.09294218569993973	0.009419097565114498	0.022381676360964775	0.15937064588069916	-0.11166840046644211	0.12581616640090942	0.004602161236107349	-0.09262990951538086	-0.046939101070165634	0.12227717787027359	-0.052897676825523376	-0.07730291038751602	-0.09969010204076767	-0.06610769033432007	0.014085729606449604	-0.010724897496402264	-0.07915324717760086	-0.016068732365965843	0.001493962830863893	-0.033139992505311966	-0.10682743787765503	0.06436065584421158	-0.05302096903324127	-0.09181331098079681	0.11471835523843765	-0.09675197303295135	0.047440484166145325	-0.18765603005886078	0.11472141742706299	0.05703135207295418	-0.04288453981280327	-0.02336749993264675	-0.004788791760802269	0.12102801352739334	0.21722620725631714	-0.027622070163488388	0.07836315780878067	-0.0758167952299118	-0.032244302332401276	0.02907012216746807	0.055879250168800354	0.04316209256649017	0.1175280511379242	-0.0027824437711387873	0.04114263132214546	0.06270857900381088	-0.04391441494226456	0.13542549312114716	-0.04486534744501114	0.038459714502096176	0.17434750497341156	0.07269612699747086	-0.016289852559566498	-0.03275718912482262	-0.08160104602575302	-0.07695814967155457	-0.061536986380815506	0.0038507548160851	-0.035098351538181305	0.010259636677801609	0.18306756019592285	0.10544976592063904	0.05701864883303642	-0.08264344930648804	-0.02347760647535324	0.023262545466423035	0.0007016759482212365	-0.05737115815281868	-0.046831242740154266	-0.13423655927181244	0.08093490451574326	-0.03586262837052345	-0.09985136985778809	0.08223854750394821	0.008939066901803017	0.15431949496269226	0.06043267995119095	-0.13126015663146973	0.12073253840208054	-0.09948329627513885	-0.045707013458013535	0.05407744646072388	0.045378200709819794	0.06885133683681488	0.04257494956254959	0.013471802696585655	-0.0043166927061975	-0.061536937952041626	0.06538920849561691	0.12437143176794052	-0.07324337959289551	0.03482300415635109	0.11256496608257294	0.048421964049339294	0.1921246200799942	-0.04369278624653816	-0.12455727905035019	0.11408761888742447
indu1241	0.03189840912818909	0.3699937164783478	0.12368738651275635	0.1237722709774971	0.48476263880729675	-0.007993308827280998	-0.23633117973804474	-0.07218527793884277	0.22951751947402954	0.25307151675224304	-0.05611260607838631	0.3662685751914978	0.028518933802843094	0.3269363343715668	0.25903743505477905	0.06104111671447754	-0.03857177868485451	0.17549259960651398	0.2752244472503662	0.1926807463169098	-0.10564476251602173	0.3829021155834198	0.16926372051239014	-0.03217095136642456	-0.1625259667634964	0.03653533384203911	0.08024495840072632	-0.05219638720154762	-0.3110297620296478	0.41033703088760376	0.31273749470710754	0.06234904006123543	-0.18602710962295532	0.10746043920516968	0.06120312213897705	-0.3202122747898102	-0.011880137957632542	0.19250060617923737	0.1289229691028595	0.11507008969783783	0.014457987621426582	0.010178536176681519	-0.2846830487251282	-0.16928231716156006	-0.308358371257782	0.17588484287261963	0.26797229051589966	-0.23587793111801147	-0.1908031702041626	0.18497006595134735	0.17424724996089935	0.27094215154647827	-0.09553322196006775	-0.170022651553154	-0.041264861822128296	-0.15806356072425842	-0.1754322052001953	0.12854360044002533	-0.3971371352672577	0.49173375964164734	0.01879405789077282	0.22333386540412903	0.4676104784011841	-0.1822029948234558	0.20537817478179932	-0.2969416379928589	0.0008245338103733957	-0.22395215928554535	-0.20101460814476013	-0.16878516972064972	0.06363050639629364	0.07821062207221985	-0.07299917936325073	0.4777362048625946	-0.08014868199825287	0.26464614272117615	-0.22734053432941437	-0.019562965258955956	0.46597054600715637	0.1351899355649948	-0.2435954213142395	0.18016327917575836	-0.052576128393411636	0.17817792296409607	-0.08203233778476715	-0.424969881772995	-0.07915826141834259	0.2269081324338913	-0.005735169164836407	0.08170243352651596	-0.5374972224235535	-0.26199090480804443	-0.04065481945872307	0.2454797625541687	0.12646064162254333	0.22431206703186035	0.3883025348186493	-0.042659956961870193	0.22407014667987823	-0.35080283880233765	0.29969996213912964	-0.014079096727073193	0.2522043287754059	0.3612312078475952	0.11078059673309326	0.12785625457763672	-0.18511180579662323	-0.08646603673696518	0.11057772487401962	0.12479013204574585	0.12114644795656204	-0.34517690539360046	0.22317229211330414	-0.13620895147323608	-0.006102103739976883	-0.13305673003196716	0.15264572203159332	0.3180479407310486	0.27936026453971863	-0.4207489788532257	-0.04515693709254265	-0.017881572246551514	0.08128868788480759	0.025766219943761826	-0.3194761872291565	-0.024790188297629356	-0.17534613609313965	-0.17174702882766724
jaun1243	-0.3399578928947449	-0.1472787708044052	-0.16219070553779602	0.09829920530319214	-0.1675020158290863	-0.1972237229347229	-0.1519906371831894	0.28479287028312683	0.15712612867355347	-0.26312634348869324	-0.1234237477183342	0.24643541872501373	0.05103444680571556	-0.02273707650601864	-0.39677512645721436	0.1734686940908432	0.2836543619632721	0.3026905953884125	-0.11063657701015472	0.2811797559261322	-0.06721353530883789	0.2695457935333252	0.10597988218069077	-0.033908624202013016	0.206766739487648	0.010674185119569302	0.05734340101480484	-0.20178666710853577	0.12342087179422379	0.03176506236195564	0.26245352625846863	0.10481031984090805	0.20053701102733612	0.01707884855568409	0.018571453168988228	-0.23443010449409485	0.2843288481235504	-0.28040531277656555	-0.010043773800134659	0.030887531116604805	-0.264016717672348	0.1668819934129715	0.22420145571231842	0.22392898797988892	0.06844370812177658	-0.35039234161376953	0.35529598593711853	-0.2731163203716278	-0.41944101452827454	0.051585257053375244	-0.13519704341888428	0.11671416461467743	-0.26764923334121704	0.1331338733434677	0.165480375289917	-0.15202410519123077	-0.17188066244125366	0.03834633156657219	0.2296319603919983	0.051821231842041016	0.126408189535141	-0.08767138421535492	-0.2314121127128601	-0.14281319081783295	-0.04408901184797287	-0.23350530862808228	0.09675482660531998	-0.4151979684829712	-0.13327725231647491	0.18186356127262115	-0.09395019710063934	-0.01004743855446577	0.21794287860393524	0.21651746332645416	-0.20813944935798645	0.13193972408771515	0.14303430914878845	-0.14318406581878662	0.21536679565906525	0.1493775099515915	0.3599824011325836	-0.24937330186367035	0.040807850658893585	0.04106510803103447	-0.109989233314991	0.10985613614320755	0.08352009207010269	0.21205678582191467	-0.14111097157001495	0.08143401145935059	0.012505878694355488	0.03433376923203468	0.20022287964820862	-0.02293563261628151	-0.2500408887863159	0.08225883543491364	0.3156992793083191	-0.009777014143764973	0.38294151425361633	0.04457899555563927	0.08031946420669556	0.006666121073067188	0.12478139251470566	0.616827666759491	-0.04251772537827492	0.08931156247854233	0.35714560747146606	0.2879120409488678	0.018850473687052727	-0.2937672436237335	0.2015896588563919	0.09069310128688812	-0.32417428493499756	-0.27811524271965027	0.0223067793995142	-0.22303353250026703	0.14379413425922394	0.18714743852615356	0.15203313529491425	-0.001531885121949017	0.005677415523678064	-0.016824480146169662	0.15248490869998932	-0.06994980573654175	0.20857447385787964	-0.30980169773101807	-0.03706638887524605	0.07954186201095581
kach1277	-0.189501091837883	0.02661709301173687	-0.02146151475608349	0.035356950014829636	-0.08409152925014496	0.07764074206352234	0.23096144199371338	0.08834117650985718	-0.056249815970659256	-0.04912325739860535	-0.1495150923728943	0.1125529408454895	0.37417352199554443	-0.2610163986682892	-0.16873003542423248	-0.08314912021160126	0.26185712218284607	-0.02086336724460125	-0.035719770938158035	0.11121512204408646	0.2462555468082428	0.16242274641990662	0.05843949690461159	-0.027602216228842735	0.1494048833847046	-0.13775688409805298	0.1414147913455963	-0.05704088136553764	0.036049213260412216	-0.017961222678422928	-0.34294456243515015	-0.003383032511919737	0.15909430384635925	-0.129985049366951	-0.15518325567245483	-0.019122499972581863	0.08903956413269043	-0.2610945701599121	-0.1256342977285385	-0.1493041068315506	-0.3262675106525421	-0.014159401878714561	0.2594446837902069	0.08847138285636902	-0.3749820291996002	0.02709241956472397	-0.16937755048274994	-0.130807563662529	-0.1296282708644867	-0.23920731246471405	-0.24403807520866394	-0.2752991020679474	0.040233515202999115	0.11245924979448318	-0.40621161460876465	-0.06587877869606018	-0.02232695370912552	-0.08063346892595291	-0.1690838485956192	0.08326248079538345	-0.18025369942188263	0.16423681378364563	-0.14380040764808655	-0.232565239071846	-0.2693420946598053	-0.09994088113307953	0.0495099239051342	0.008552568033337593	-0.2491188645362854	0.11429420858621597	-0.0358487032353878	0.32724708318710327	0.21167714893817902	-0.012677861377596855	-0.22540895640850067	0.20230622589588165	0.1623246967792511	-0.0005967447650618851	0.11078125983476639	0.10811116546392441	0.13246099650859833	-0.03337611258029938	-0.20240518450737	0.049028314650058746	-0.28349849581718445	0.34838423132896423	0.3579174280166626	0.20760200917720795	0.07270559668540955	0.2221197932958603	-0.10735855251550674	-0.13095606863498688	0.1577756553888321	-0.09029137343168259	0.031146394088864326	0.34134554862976074	-0.2508300244808197	0.0294843427836895	0.06735268980264664	-0.31655263900756836	0.036145180463790894	-0.20136171579360962	0.20281733572483063	-0.13040418922901154	-0.3235974907875061	-0.27921828627586365	0.08006563782691956	0.2593075931072235	0.1871458739042282	-0.42961034178733826	0.2638164758682251	-0.07719593495130539	0.34132036566734314	0.06180623918771744	0.10000750422477722	0.14716854691505432	0.029288139194250107	0.12535856664180756	-0.08764700591564178	0.3250417113304138	0.020268043503165245	-0.35999760031700134	-0.02781100384891033	0.021982239559292793	-0.00570232467725873	0.16740845143795013	0.10941550880670547	-0.39110812544822693
kala1372	-0.3292451500892639	-0.09299345314502716	0.007286997977644205	0.0996193140745163	-0.057128194719552994	-0.019253814592957497	-0.34854796528816223	0.1422090381383896	-0.1507883071899414	-0.343149334192276	-0.05168548971414566	-0.04573604092001915	0.04566497355699539	0.13144205510616302	0.16032178699970245	0.11736243218183517	-0.24459296464920044	-0.12209592759609222	-0.13658900558948517	-0.09303241223096848	-0.01001631561666727	0.08288755267858505	-0.301474004983902	-0.09936631470918655	-0.262201189994812	0.22766011953353882	-0.07173817604780197	-0.028878899291157722	0.10336557775735855	-0.02324816770851612	0.07814179360866547	-0.12043091654777527	-0.1229156032204628	-0.15292419493198395	0.24345937371253967	-0.2959531545639038	-0.30184149742126465	-0.022610314190387726	0.26896509528160095	-0.187778502702713	-0.002703238744288683	0.2914581298828125	0.4272655248641968	0.36772990226745605	-0.078133724629879	-0.1530003696680069	0.10242282599210739	-0.02103479951620102	-0.050093840807676315	0.16341498494148254	0.21519900858402252	0.09705695509910583	0.01788722537457943	0.11873737722635269	-0.2516915202140808	0.14117498695850372	0.04919916018843651	0.0748908594250679	0.15700143575668335	0.10303640365600586	0.1804908961057663	-0.13371053338050842	-0.2209186553955078	-0.1547919660806656	0.10905420035123825	-0.14076000452041626	-0.3029710352420807	0.42844024300575256	0.22667163610458374	0.05684441328048706	0.4683557450771332	0.3952501118183136	0.13190984725952148	0.21482016146183014	0.2570834457874298	0.1560743749141693	0.06194641441106796	0.3216235339641571	0.21247775852680206	0.2445453405380249	-0.28520041704177856	-0.1280311942100525	0.02467651292681694	0.17239755392074585	0.08346152305603027	0.2741561532020569	-0.21439799666404724	-0.14194746315479279	0.2133968025445938	-0.0631437599658966	0.05539414659142494	-0.33399251103401184	0.08395824581384659	0.4214179217815399	0.1642305701971054	0.1148967370390892	0.11631475389003754	-0.30438175797462463	-0.30960166454315186	-0.3096280097961426	-0.33212053775787354	-0.06008060649037361	-0.11175961047410965	0.21396172046661377	0.002102765953168273	0.22852283716201782	0.197726309299469	0.12083093822002411	0.09454261511564255	0.17849041521549225	0.22139762341976166	-0.37429824471473694	-0.14519202709197998	0.0507030263543129	-0.047617554664611816	-0.07635149359703064	-0.1038643941283226	-0.2660485804080963	0.23082846403121948	0.10644717514514923	0.3166619539260864	-0.3376818001270294	-0.29239025712013245	-0.016850098967552185	-0.4754767417907715	-0.005362948402762413	0.15046781301498413	0.022424394264817238
kala1373	0.09518153965473175	0.26304495334625244	0.07655114680528641	0.02408858947455883	0.1367093324661255	0.11537206918001175	0.2888517677783966	-0.06663661450147629	-0.356455534696579	-0.0011262369807809591	0.27849334478378296	0.18146535754203796	-0.37464362382888794	0.2190919816493988	-0.11231699585914612	0.05872504785656929	0.05347713083028793	0.04800651594996452	0.14815612137317657	0.0694030150771141	0.06719508767127991	-0.08289066702127457	0.14556577801704407	-0.039659809321165085	-0.06667240709066391	0.1012696623802185	-0.06437069922685623	0.16421057283878326	0.3015836775302887	0.12430243194103241	-0.04412522539496422	-0.04294532164931297	-0.04104498401284218	0.28609615564346313	0.30994048714637756	-0.08796587586402893	0.06412041187286377	0.2737235128879547	0.4366224408149719	-0.09770812839269638	-0.1266787052154541	-0.2194477617740631	-0.359685480594635	0.02592940255999565	0.023523714393377304	0.3124147951602936	0.08814001083374023	0.08994068950414658	-0.1421169489622116	0.08231978863477707	-0.1758558303117752	0.05218185484409332	0.051039379090070724	0.17502941191196442	-0.18586604297161102	0.11552933603525162	0.3093661069869995	0.14966857433319092	-0.20492762327194214	0.12256919592618942	-0.13574863970279694	-0.10075065493583679	-0.009770206175744534	-0.1836070418357849	0.0006358298705890775	-0.13576915860176086	0.07078765332698822	0.16753527522087097	0.08080503344535828	-0.11811883747577667	-0.21888433396816254	0.3060801923274994	0.18693214654922485	0.06972112506628036	0.034661807119846344	-0.22167982161045074	0.24828705191612244	0.3598109185695648	0.10931690037250519	0.06602253764867783	-0.12890411913394928	0.08684270083904266	0.0772748738527298	0.3076919913291931	-0.09038122743368149	0.44035664200782776	0.43168526887893677	0.08294516056776047	-0.034398745745420456	-0.24344706535339355	-0.29862913489341736	-0.007660049945116043	0.03304849565029144	0.2731686532497406	0.16029156744480133	0.16644637286663055	-0.2643112540245056	-0.09988619387149811	-0.18094603717327118	0.01764535717666149	0.08171223849058151	-0.014199065044522285	0.2651911675930023	-0.02608165331184864	0.1189752146601677	-0.007396363653242588	-0.04111209511756897	0.09231951832771301	-0.016920318827033043	-0.002198830945417285	0.30138665437698364	-0.3123471736907959	0.09751640260219574	0.043932657688856125	0.15540851652622223	0.23262983560562134	-0.06404444575309753	-0.29419684410095215	0.40109071135520935	-0.13055288791656494	0.2703573703765869	-0.21611350774765015	0.19921532273292542	0.15034323930740356	0.3395225703716278	-0.2580946981906891	0.06213773414492607	0.1133902370929718
kash1277	-0.16153672337532043	-0.03277080878615379	0.11266692727804184	0.146009162068367	0.0845811516046524	0.22169935703277588	0.1226668730378151	0.011499597690999508	0.01386717427521944	0.1374378353357315	0.08437424153089523	0.12815994024276733	-0.0580940805375576	0.05288517102599144	0.3331174850463867	-0.022664949297904968	0.14982900023460388	0.17376157641410828	-0.003300611162558198	0.05119537562131882	0.17247791588306427	0.19541999697685242	-0.06963516026735306	0.08863602578639984	-0.20414133369922638	-0.07073131203651428	0.15710756182670593	-0.17634235322475433	-0.2993278503417969	-0.28359127044677734	0.03126652166247368	0.005919867195188999	-0.10763373225927353	-0.0899684950709343	0.024141371250152588	0.21607431769371033	-0.06275679916143417	-0.03726962208747864	0.0693197101354599	-0.030788976699113846	-0.23515892028808594	0.1334569901227951	-0.0028091140557080507	0.2581069767475128	-0.21126307547092438	0.17342379689216614	-0.2105579525232315	0.022687016054987907	0.04974587261676788	0.026407888159155846	0.10559356957674026	-0.25157320499420166	0.14595180749893188	0.07855375111103058	0.1431386023759842	-0.1453191190958023	-0.1852896362543106	0.2124445140361786	0.03481711074709892	0.007643155287951231	-0.16780707240104675	0.07079482823610306	-0.004533262923359871	0.06788166612386703	-0.10827243328094482	0.09215913712978363	-0.22633610665798187	-0.10882742702960968	-0.020932458341121674	0.07369089126586914	-0.22015871107578278	-0.033069413155317307	-0.07247282564640045	-0.07987606525421143	0.03172636032104492	0.13512130081653595	0.042065538465976715	0.1747022122144699	-0.05565894395112991	-0.12521643936634064	-0.15743273496627808	0.09875252097845078	0.10080289840698242	0.17981135845184326	-0.2727959454059601	0.0844147577881813	0.15520499646663666	-0.02449052780866623	-0.08878817409276962	-0.14023752510547638	0.3704816401004791	-0.032878607511520386	-0.15630902349948883	-0.017979398369789124	0.02609272487461567	0.0022018614690750837	-0.2061769664287567	0.051678746938705444	0.09798964112997055	0.10009981691837311	0.0004747442726511508	-0.046549901366233826	0.13022884726524353	0.13969779014587402	-0.04630614444613457	0.07038699090480804	-0.05322365090250969	0.01952851563692093	-0.11834689229726791	-0.10165591537952423	0.05963239446282387	0.03484923020005226	-0.08636721223592758	0.2674301564693451	-0.04191064089536667	-0.0783180519938469	-0.00017443597607780248	-0.0016765313921496272	-0.031856197863817215	-0.13468575477600098	-0.12309162318706512	0.07191206514835358	-0.15401186048984528	0.18166980147361755	0.008959497325122356	-0.2065679430961609	0.12909619510173798	-0.03675499185919762
khet1238	-0.13728214800357819	-0.13131208717823029	-0.5016566514968872	0.2617376744747162	0.18772104382514954	-0.3833465576171875	0.47358939051628113	-0.16324710845947266	0.017788510769605637	-0.22831220924854279	-0.08200231194496155	-0.32253342866897583	-0.009578006342053413	0.18583254516124725	0.09011350572109222	0.3684031069278717	0.06373428553342819	0.20317912101745605	0.07808851450681686	-0.12871377170085907	0.057749342173337936	-0.389529287815094	-0.36653998494148254	-0.1385328769683838	-0.022928887978196144	-0.35756516456604004	0.028630923479795456	0.052125781774520874	0.34453049302101135	0.016013842076063156	-0.02057732082903385	-0.10367140918970108	0.03789016604423523	-0.24689097702503204	-0.017126819118857384	0.22171801328659058	0.3481256365776062	0.029004570096731186	0.1835084706544876	0.131612166762352	-0.4595775008201599	-0.13942784070968628	-0.03477867692708969	-0.0009715660125948489	0.05028736591339111	0.02778363600373268	-0.0950830727815628	-0.032435014843940735	-0.3542580306529999	0.10839640349149704	-0.41935330629348755	-0.23814913630485535	0.17268402874469757	0.07758236676454544	-0.2793368995189667	0.19916659593582153	-0.010049565695226192	-0.16637608408927917	0.16936004161834717	0.12131708115339279	0.028820527717471123	-0.13107621669769287	-0.09537854045629501	0.06545080989599228	-0.22914044559001923	0.26150622963905334	0.18975956737995148	-0.03647260740399361	0.3202889561653137	0.0773526206612587	-0.19160400331020355	-0.14375215768814087	0.0755515918135643	-0.1476389318704605	0.0987667441368103	-0.04391660541296005	0.08517029881477356	0.322152316570282	0.2253652662038803	-0.13003720343112946	-0.042649611830711365	-0.14607717096805573	0.08629904687404633	0.0253309179097414	-0.07873670011758804	-0.18872013688087463	0.28683966398239136	0.1509016752243042	0.06608808040618896	0.00922575406730175	-0.12637518346309662	0.021659554913640022	-0.22451001405715942	-0.27449357509613037	0.04056618735194206	0.28055256605148315	-0.08153156191110611	0.021389439702033997	0.0953790619969368	-0.12552092969417572	-0.07223869860172272	-0.13219323754310608	0.10829268395900726	-0.04724259674549103	-0.11857519298791885	-0.08792541921138763	-0.05026593804359436	0.05598941817879677	-0.2663032114505768	0.030102191492915154	0.21704861521720886	0.16157378256320953	-0.1601751297712326	-0.06884680688381195	-0.08232233673334122	-0.056567296385765076	0.1399848461151123	-0.05476278439164162	-0.005211120471358299	0.15772229433059692	0.07390065491199493	-0.048291951417922974	-0.02727753482758999	0.012671507894992828	-0.14712992310523987	-0.10051251202821732	0.04042055457830429	0.15117384493350983
khow1242	0.1857236921787262	0.3368719816207886	0.1480543315410614	0.09829135239124298	-0.29954907298088074	0.13415998220443726	-0.3942824900150299	-0.18492047488689423	-0.11175624281167984	0.12126903235912323	-0.022586949169635773	0.07182209938764572	-0.04724745452404022	0.20574471354484558	0.13120022416114807	-0.24940615892410278	-0.0873805433511734	-0.16546030342578888	-0.018946746364235878	0.05679638311266899	-0.020995724946260452	-0.1470305472612381	-0.09654088318347931	0.21596890687942505	-0.187021866440773	-0.20229864120483398	-0.09321197122335434	-0.4096702039241791	-0.29542917013168335	-0.1283608227968216	0.026921221986413002	0.19244468212127686	0.15601705014705658	0.06900254637002945	0.15619364380836487	-0.018231520429253578	-0.3151348829269409	-0.11129201948642731	0.2651464641094208	-0.11758329719305038	0.19481751322746277	-0.13727042078971863	0.26766011118888855	-0.0029197633266448975	0.4449193477630615	0.04168650507926941	-0.020329128950834274	-0.18600937724113464	0.040408145636320114	-0.11652276664972305	-0.06354338675737381	0.04261942207813263	0.030496476218104362	0.23074714839458466	-0.14597569406032562	-0.15891312062740326	0.3205053210258484	0.3574327528476715	-0.1127794086933136	-0.22463169693946838	0.3477630317211151	0.016247835010290146	-0.20017088949680328	-0.16880446672439575	-0.1504184901714325	-0.10172758251428604	-0.17422984540462494	0.49303266406059265	0.22071105241775513	0.00785577017813921	0.26201748847961426	0.1833600550889969	0.23537415266036987	0.34762758016586304	-0.2057727426290512	-0.1694723218679428	0.15279988944530487	-0.04209940880537033	0.009167556650936604	0.16219909489154816	-0.32964086532592773	0.07052784413099289	0.39747241139411926	0.29067832231521606	0.03372371569275856	-0.1811700016260147	-0.3345794975757599	-0.17332999408245087	0.15907226502895355	0.042308807373046875	0.058221835643053055	-0.35754597187042236	-0.03305579721927643	0.07377342134714127	-0.059925228357315063	-0.08938516676425934	-0.01070886105298996	-0.1900886446237564	0.31505244970321655	-0.1016443744301796	0.11042290180921555	-0.08061598986387253	-0.3049629330635071	-0.23575462400913239	-0.05681270733475685	-0.10217420756816864	0.01596750319004059	0.14457419514656067	-0.014741551131010056	0.08546935021877289	0.19508783519268036	-0.00891907885670662	0.43138495087623596	0.27530667185783386	0.05378398671746254	-0.2525288164615631	0.08314242959022522	-0.07418692857027054	-0.02186727523803711	-0.05177706852555275	-0.028446123003959656	0.18726558983325958	-0.22951367497444153	-0.10604467988014221	-0.10868377983570099	-0.052697326987981796	-0.07408822327852249	0.20251111686229706
kohi1248	-0.06867077201604843	0.025311429053544998	0.11035212874412537	0.08328186720609665	0.2327350378036499	0.018831366673111916	-0.06533436477184296	-0.349694162607193	-0.3563826382160187	0.032554738223552704	0.06748685985803604	-0.058315012603998184	-0.056861650198698044	0.0792502760887146	-0.3774894177913666	-0.08514155447483063	0.08105208724737167	0.24730589985847473	0.21262943744659424	0.0024064751341938972	-0.17354656755924225	0.1303328573703766	0.037854865193367004	0.2860884368419647	0.08819855749607086	-0.03920379653573036	0.4131772518157959	0.29972267150878906	0.023702731356024742	-0.13674578070640564	0.20420271158218384	0.04782447591423988	-0.05998045951128006	-0.247897669672966	0.09066338837146759	-0.20623964071273804	-0.031201455742120743	0.18450143933296204	0.22187446057796478	0.12452605366706848	-0.20572258532047272	0.3420890271663666	0.13586345314979553	0.00910873431712389	-0.19818022847175598	-0.5845187902450562	-0.0132146580144763	-0.2958962321281433	0.3720487058162689	0.0014616982080042362	-0.45967796444892883	-0.34975525736808777	-0.14277248084545135	0.22336778044700623	0.05774722993373871	-0.1986098438501358	-0.01949707232415676	0.19242580235004425	-0.09392639249563217	-0.04181789979338646	0.20192353427410126	-0.07361704856157303	-0.14892062544822693	-0.12079568207263947	-0.315847784280777	-0.07290668040513992	-0.24338845908641815	-0.0550926998257637	0.02763969823718071	0.4723682701587677	0.09411009401082993	0.03325723484158516	-0.08777807652950287	0.34150004386901855	0.23553945124149323	-0.1845313161611557	-0.19594979286193848	0.15223880112171173	0.06976238638162613	-0.11607330292463303	-0.17539671063423157	-0.028439100831747055	0.09517444670200348	0.3026893138885498	-0.2950589060783386	-0.05088738724589348	-0.2851071357727051	-0.25679147243499756	-0.2621847093105316	-0.48294714093208313	0.18827666342258453	-0.09259837865829468	-0.34340256452560425	0.15573109686374664	-0.21796952188014984	0.36179298162460327	0.049006134271621704	0.1585572361946106	-0.16488727927207947	0.2309391349554062	0.27277782559394836	-0.0051888455636799335	0.04346064478158951	0.3365696370601654	0.042837392538785934	0.423677533864975	-0.12999437749385834	-0.041681792587041855	-0.15755046904087067	0.0357452854514122	0.12352341413497925	0.05672435089945793	0.19588737189769745	-0.10199829936027527	0.5712845325469971	-0.25804436206817627	-0.2239455133676529	0.00938376598060131	0.2048032581806183	-0.486594557762146	-0.018654100596904755	-0.5361309051513672	-0.03768104314804077	0.44663360714912415	0.022158915176987648	-0.25739726424217224	-0.017599279060959816	0.1735311597585678
konk1267	-0.25433096289634705	-0.19384701550006866	-0.024515215307474136	0.037065889686346054	-0.1742032766342163	0.18161582946777344	0.3478251099586487	-0.09465796500444412	-0.11272736638784409	-0.05119772255420685	-0.4425983726978302	0.04382549598813057	0.23403792083263397	-0.4135134518146515	-0.11364070326089859	-0.365857869386673	-0.11365773528814316	-0.21760067343711853	-0.21951249241828918	0.148536816239357	0.07238585501909256	0.12275467067956924	0.013616740703582764	-0.02905350551009178	0.10209260880947113	0.13618329167366028	-0.11592579632997513	0.15199875831604004	0.23988711833953857	-0.058477457612752914	0.3423561751842499	-0.11150877922773361	0.43783295154571533	-0.12966026365756989	0.015210454352200031	-0.13492920994758606	0.11303295940160751	0.10332606732845306	-0.1321118175983429	0.1569054275751114	0.1946098953485489	-0.1398015171289444	0.02113068290054798	0.18153440952301025	-0.5464818477630615	-0.036199722439050674	-0.13747462630271912	0.18368501961231232	-0.2520739436149597	-0.22359420359134674	0.00969048123806715	0.025694867596030235	0.2843097746372223	-0.29436174035072327	0.20111094415187836	0.1613098382949829	0.04889262840151787	0.18546512722969055	-0.16064199805259705	-0.22954006493091583	0.19102372229099274	-0.2883118689060211	-0.3550124764442444	-0.11223577708005905	0.016246289014816284	-0.011592899449169636	0.10227246582508087	-0.07799705117940903	-0.20058466494083405	0.1565721035003662	-0.021124303340911865	-0.17409582436084747	0.25316768884658813	0.012962372042238712	-0.49981626868247986	0.20741604268550873	0.05126913636922836	-0.1530737727880478	-0.13319352269172668	-0.011169119738042355	-0.23630981147289276	0.125081866979599	-0.21501928567886353	0.01292948517948389	0.12915663421154022	-0.07246887683868408	-0.11979621648788452	0.07122166454792023	0.20223577320575714	-0.17784427106380463	0.057031624019145966	-0.050338033586740494	0.3480602502822876	0.006734105758368969	0.036122877150774	-0.2712188959121704	0.05279451236128807	-0.03067634627223015	0.05977242812514305	0.2753669023513794	-0.3899235725402832	-0.06698650866746902	0.1779470443725586	-0.2028164118528366	0.08950160443782806	-0.08271278440952301	0.1734471321105957	0.14620055258274078	0.07659544795751572	-0.22627782821655273	-0.019505728036165237	0.0909595638513565	-0.2459971010684967	-0.0021429057233035564	-0.19314466416835785	-0.032763272523880005	-0.00048318621702492237	-0.17010067403316498	-0.03062262199819088	-0.1315411478281021	0.1416606903076172	-0.3099428713321686	-0.023304473608732224	0.01205052062869072	-0.23806634545326233	-0.049381524324417114	-0.18544089794158936	-0.21239981055259705
kuma1273	-0.20725838840007782	-0.06998138129711151	-0.12951326370239258	-0.1312370002269745	0.006627344060689211	-0.17587848007678986	0.057483281940221786	-0.012267636135220528	-0.20461083948612213	-0.11045748740434647	0.03809002786874771	-0.0382704883813858	-0.06857893615961075	-0.09449739754199982	0.012070948258042336	0.06741224229335785	-0.004116637632250786	0.02863226644694805	-0.00369049864821136	0.1681729108095169	-0.008098410442471504	0.0669514462351799	0.1119784340262413	0.02081870660185814	0.020006563514471054	0.021183667704463005	0.1441846340894699	-0.11459524929523468	-0.13025157153606415	-0.016091730445623398	-0.05619262531399727	0.016767624765634537	0.11374814063310623	-0.010556666180491447	0.11432573199272156	-0.06266584247350693	0.0014816971961408854	-0.13714325428009033	-0.11857090890407562	-0.08378918468952179	0.05388868227601051	0.003885228419676423	0.05004405975341797	-0.17639243602752686	-0.07708114385604858	-0.05341111868619919	-0.02428266778588295	0.06294644623994827	0.11843900382518768	0.12165473401546478	0.2573311924934387	0.09226957708597183	0.023654544726014137	0.1083163246512413	0.08398032933473587	0.01607620343565941	0.17221911251544952	-0.11781293898820877	-0.07364780455827713	0.03991362825036049	0.1214212030172348	0.024498779326677322	-0.06543654948472977	0.17140914499759674	0.14887285232543945	0.11289209872484207	-0.07904214411973953	-0.08323539793491364	0.11955974251031876	0.19131740927696228	0.08517365902662277	0.040932923555374146	0.032617632299661636	0.03584923595190048	-0.051506537944078445	-0.09755895286798477	0.0032586671877652407	-0.22540755569934845	-0.033099714666604996	-0.04945685341954231	0.008103019557893276	0.020097307860851288	-0.113141268491745	0.15025724470615387	-0.07007133215665817	0.14577513933181763	0.13972929120063782	-0.16457155346870422	-0.20289640128612518	0.18859033286571503	0.10063493251800537	-0.05185380578041077	0.21168942749500275	-0.025529859587550163	-0.059495437890291214	0.24032405018806458	0.1630924493074417	0.14972315728664398	-0.13946716487407684	0.11041911691427231	0.1937355399131775	-0.04511977732181549	0.035779066383838654	0.08530493080615997	-0.09966772049665451	-0.05419004335999489	-0.008816198445856571	-0.10095754265785217	0.1376897245645523	-0.2671809196472168	-0.08116303384304047	0.0064191194251179695	0.019945276901125908	-0.118166483938694	-0.06102714315056801	-0.03945215418934822	0.057242367416620255	0.16571326553821564	-0.050604358315467834	-0.09539492428302765	-0.056805480271577835	0.11722782254219055	0.05161278694868088	-0.13141535222530365	0.18896456062793732	-0.0014497097581624985	0.08722712099552155	0.15500758588314056
kura1247	-0.142899289727211	0.36754122376441956	-0.10990050435066223	0.19449260830879211	-0.0541640967130661	-0.15032859146595	-0.008891003206372261	-0.02838611975312233	0.0054059443064033985	-0.08122146874666214	-0.09937375038862228	0.3796098828315735	-0.02194524183869362	-0.12468470633029938	-0.018822550773620605	-0.25990402698516846	-0.08042364567518234	0.3462523818016052	-0.09946095943450928	0.07857060432434082	0.1052142009139061	0.28962448239326477	-0.07225318998098373	0.45586836338043213	-0.07345699518918991	0.5450664758682251	0.0873154029250145	-0.22328442335128784	-0.07491045445203781	0.08967160433530807	0.6131241321563721	-0.011776663362979889	-0.2418651431798935	0.21060867607593536	0.047862306237220764	-0.05092879384756088	-0.2516855001449585	0.325288325548172	-0.030676405876874924	-0.13824625313282013	-0.022867798805236816	0.06217117980122566	-0.06199454888701439	-0.07135205715894699	0.0966164618730545	0.03821726143360138	-0.21233448386192322	-0.2006441354751587	-0.3738953769207001	0.03925933316349983	-0.10978993773460388	-0.15918073058128357	0.12903866171836853	0.14007402956485748	0.43624040484428406	0.26675304770469666	0.007336646784096956	0.13550634682178497	-0.2568819522857666	-0.038372550159692764	-0.0212759580463171	0.01223919540643692	0.31583699584007263	-0.21725960075855255	-0.2372002899646759	-0.24830330908298492	0.13395945727825165	-0.16190792620182037	0.18124864995479584	0.19590075314044952	-0.08702270686626434	0.39693886041641235	0.27640020847320557	-0.021652713418006897	-0.35042181611061096	-0.5308480858802795	-0.24302546679973602	0.05339282751083374	0.12489283829927444	-0.08283589035272598	0.08510400354862213	0.41114741563796997	0.46835941076278687	0.37056395411491394	-0.09821592271327972	0.06509030610322952	0.06340620666742325	-0.02877957373857498	-0.31848305463790894	-0.16660089790821075	-0.05057147145271301	-0.2398671954870224	0.030490994453430176	0.30933645367622375	0.3099011182785034	-0.202407568693161	0.1665842980146408	-0.16385571658611298	-0.07305067777633667	0.4636765718460083	-0.2724228799343109	0.07455949485301971	0.22241736948490143	0.08700975775718689	0.1552303284406662	0.3084931969642639	-0.016172027215361595	0.11496257036924362	0.07070035487413406	0.03208982199430466	0.015268242917954922	0.009492471814155579	-0.18986837565898895	-0.34349504113197327	0.09308411926031113	-0.08018972724676132	0.14296482503414154	-0.4230775237083435	0.07563573867082596	0.0696604773402214	0.233563631772995	0.20667755603790283	-0.13891719281673431	-0.06904515624046326	-0.08236432075500488	-0.2529355585575104	-0.04727300629019737	0.161274254322052
laur1248	0.2954699397087097	0.1765705794095993	0.15206967294216156	0.19726349413394928	0.11724318563938141	-0.25608524680137634	0.08402442932128906	0.2986334562301636	0.20551052689552307	0.05366965010762215	0.26794877648353577	-0.06301438063383102	0.44630351662635803	0.19053320586681366	-0.0720258429646492	0.015556280501186848	-0.09964079409837723	0.1362616866827011	0.1705506145954132	0.02597072534263134	0.14097128808498383	0.007929096929728985	-0.15138521790504456	0.14727017283439636	-0.24245238304138184	0.08420734107494354	-0.23474818468093872	-0.019034303724765778	0.04761921614408493	0.32131269574165344	0.11208756268024445	-0.3765910863876343	-0.2716147303581238	-0.2786535620689392	-0.03438431769609451	0.027275515720248222	0.3136953115463257	0.1706760823726654	0.14988698065280914	0.06835779547691345	9.541679173707962e-05	-0.3134811222553253	0.0852297767996788	0.04744724929332733	0.44780486822128296	-0.18259179592132568	0.12157183140516281	0.12543821334838867	0.15089887380599976	-0.14402054250240326	0.06112406402826309	-0.08492666482925415	0.0750691220164299	0.2082197219133377	0.04597201943397522	0.14773397147655487	-0.005923107266426086	0.14625030755996704	-0.34146806597709656	0.12218525260686874	0.22628828883171082	-0.10448114573955536	0.33750835061073303	0.08621050417423248	0.007832000032067299	-0.4372672438621521	0.13929228484630585	0.0376473069190979	0.05187379568815231	-0.14453107118606567	-0.016362247988581657	0.3123700022697449	0.2743905782699585	0.11396946758031845	0.24178403615951538	-0.2632511258125305	0.1944752335548401	0.24810639023780823	-0.1271079033613205	0.30978959798812866	0.140259250998497	0.2108520120382309	0.06939389556646347	0.18481586873531342	0.21573947370052338	-0.12046237289905548	-0.06836508214473724	0.09694124013185501	-0.3797928988933563	-0.03676566109061241	0.0573749914765358	-0.1652185171842575	-0.16531789302825928	-0.02709256298840046	0.39752116799354553	0.03829694166779518	0.2078699767589569	-0.011426753364503384	0.024411020800471306	0.08963305503129959	-0.10003748536109924	-0.18918903172016144	0.008799262344837189	-0.10087335854768753	0.20834235846996307	-0.23575323820114136	0.1887301802635193	-0.12047599256038666	0.17163534462451935	0.049416519701480865	0.20233963429927826	-0.1305159330368042	-0.29636114835739136	-0.21577253937721252	-0.007100491784512997	-0.016534026712179184	0.12849505245685577	0.17389614880084991	-0.21644096076488495	-0.15649697184562683	-0.08701910823583603	-0.011082729324698448	0.15790428221225739	-0.42577648162841797	-0.1856025904417038	-0.17979957163333893	-0.11413273215293884	0.40642011165618896
loma1235	-0.2652531862258911	-0.35467955470085144	-0.013138648122549057	-0.004448567517101765	0.10879721492528915	-0.11276441067457199	0.09699811786413193	-0.12119469791650772	-0.39205285906791687	-0.0925867035984993	0.45908015966415405	-0.14904624223709106	-0.3264898657798767	0.3132127523422241	0.2573634386062622	-0.18364590406417847	-0.04454399645328522	-0.47820886969566345	0.1466895341873169	0.025537068024277687	0.5272924900054932	0.0044951182790100574	-0.44836750626564026	-0.2619571387767792	-0.3996520936489105	-0.2018359750509262	-0.3132649064064026	-0.2892008423805237	-0.28364482522010803	0.3759746849536896	-0.17453840374946594	-0.09313728660345078	0.04856867343187332	-0.10824202746152878	0.4416919946670532	-0.5446292161941528	-0.2758573889732361	-0.025810284540057182	0.16049987077713013	0.045051127672195435	0.1609923392534256	-0.357936829328537	0.09604036808013916	-0.3023941218852997	-0.06482527405023575	0.61886066198349	-0.7689350843429565	0.13390284776687622	0.08558732271194458	-0.0960153341293335	0.1482524275779724	-0.25121498107910156	0.4107656180858612	-0.6700438857078552	0.09914476424455643	0.31994447112083435	0.036289434880018234	0.03458886593580246	0.2754450738430023	-0.29140815138816833	0.030154624953866005	0.07758127152919769	-0.32984644174575806	0.027221236377954483	-0.09928455203771591	-0.13827835023403168	0.5832540392875671	0.12624502182006836	-0.4307905435562134	0.2583949863910675	-0.27799907326698303	-0.09289862960577011	-0.29190486669540405	-0.4410257339477539	0.14105398952960968	-0.3885285258293152	0.1671234369277954	0.22484630346298218	-0.1539706140756607	-0.17548401653766632	-0.7256114482879639	0.7483476400375366	0.1403283327817917	0.10069382190704346	0.04385700449347496	0.439010351896286	-0.5429205298423767	-0.44984540343284607	0.05036511272192001	0.04402954876422882	-0.07208829373121262	-0.13508713245391846	0.28774493932724	0.03727777302265167	0.12074466049671173	-0.051301904022693634	0.007276615127921104	-0.47461315989494324	-0.24282290041446686	0.14882293343544006	0.058830201625823975	0.057457759976387024	-0.4332103729248047	-0.6908519268035889	0.29294103384017944	0.12111464142799377	-0.05546209216117859	-0.00142806360963732	0.09841059893369675	0.4207858443260193	0.41404473781585693	0.22582143545150757	0.704413652420044	-0.09059709310531616	0.21741485595703125	-0.04937265068292618	0.07045522332191467	-0.4183265268802643	-0.3450036942958832	0.10552603751420975	0.29151594638824463	-0.020812928676605225	-0.32160747051239014	0.32321062684059143	-0.28472474217414856	0.07474783807992935	-0.16017445921897888	0.10522070527076721
maha1287	-0.3085140287876129	-0.1974295973777771	-0.1773025542497635	0.09622951596975327	-0.06807909160852432	0.1668807864189148	0.14539159834384918	0.01584336720407009	-0.17943763732910156	-0.13252484798431396	0.16698437929153442	0.29159948229789734	-0.22886638343334198	-0.13177485764026642	-0.016899414360523224	0.22193482518196106	-0.13628606498241425	-0.20548318326473236	-0.12131185829639435	0.019421113654971123	-0.039212070405483246	0.20844140648841858	-0.04725000262260437	0.018324194476008415	0.3078216016292572	0.06257405132055283	0.15797799825668335	0.11564265936613083	-0.2877870202064514	-0.03255129233002663	-0.2341892570257187	0.016740573570132256	0.3429628610610962	-0.2979395091533661	0.2975994944572449	0.18583287298679352	-0.03188590332865715	0.165193110704422	0.2417716383934021	0.21611197292804718	0.3142458200454712	-0.20823964476585388	0.20528535544872284	-0.28291672468185425	0.25891610980033875	-0.13590799272060394	0.13889026641845703	-0.09993793070316315	0.0003983250935561955	0.4622037410736084	-0.012364223599433899	0.053200334310531616	-0.016510898247361183	-0.32868295907974243	-0.2928330600261688	0.06055999919772148	0.19577237963676453	-0.09625665098428726	0.2907605767250061	-0.2636140286922455	-0.0377977192401886	0.012966979295015335	-0.18819567561149597	0.1287219226360321	-0.20929241180419922	0.18064245581626892	0.09538163244724274	0.11926247179508209	-0.14988699555397034	0.35648313164711	-0.06241477280855179	-0.03290882706642151	-0.20762419700622559	0.08650965988636017	-0.020382774993777275	-0.09012157469987869	-0.06478963047266006	-0.13448339700698853	0.16452732682228088	0.19445405900478363	-0.3375014662742615	-0.30744779109954834	0.01195327565073967	-0.029261363670229912	-0.18466772139072418	-0.18782736361026764	0.05910636857151985	0.04185643792152405	-0.026226868852972984	-0.17756590247154236	-0.20333120226860046	-0.5170261859893799	0.36535748839378357	0.1828356385231018	0.04319997876882553	0.02152363583445549	0.2751484811306	0.08735732734203339	-0.24274954199790955	0.33604535460472107	-0.26426011323928833	0.008907746523618698	0.24867762625217438	0.03653313219547272	-0.01254973653703928	-0.12536326050758362	0.08123766630887985	-0.03844646364450455	0.08427422493696213	-0.20506121218204498	-0.22441282868385315	0.22357065975666046	0.5047070980072021	0.22066284716129303	-0.19462591409683228	-0.04170893505215645	-0.009042789228260517	0.14520622789859772	0.0422360934317112	-0.1909283697605133	0.1989857256412506	-0.10199637711048126	0.04958679899573326	0.2796347141265869	-0.3353119492530823	-0.11419796198606491	-0.08078771829605103	-0.15536600351333618
maha1305	0.2329505831003189	0.13416345417499542	0.0476338230073452	-0.16841499507427216	-0.11105822026729584	-0.018480490893125534	0.15493497252464294	0.05992690101265907	0.13786689937114716	0.10612965375185013	0.09244745969772339	-0.004759515635669231	-0.13207224011421204	-0.21401932835578918	-0.009631426073610783	-0.22347742319107056	-0.041877418756484985	-0.11255636066198349	-0.023445241153240204	-0.1508219689130783	0.09680628031492233	-0.001899021677672863	0.030217191204428673	-0.018699228763580322	0.0007592320907860994	-0.10445559769868851	0.217792809009552	0.10354430973529816	0.05953584611415863	-0.03304373472929001	-0.0376972034573555	-0.017149560153484344	-0.08632919937372208	-0.09791778028011322	-0.048928167670965195	0.018310600891709328	-0.11000557988882065	-0.005455551203340292	-0.15251696109771729	0.11186238378286362	0.036975469440221786	0.15390323102474213	-0.05289730429649353	-0.16569824516773224	-0.16998633742332458	-0.037704650312662125	0.03562252223491669	0.048337630927562714	0.04529847949743271	-0.10058961063623428	-0.17255863547325134	0.0991758331656456	-0.2840389013290405	0.1342868059873581	0.1559307724237442	0.04567886143922806	-0.22168277204036713	0.15908777713775635	-0.04174775630235672	-0.12759719789028168	-0.016475094482302666	-0.06306622177362442	-0.07507218420505524	-0.009128358215093613	-0.18086208403110504	0.08565431088209152	0.1116427555680275	-0.04286395013332367	-0.1039929986000061	-0.11977662891149521	0.19797341525554657	-0.0007841391488909721	-0.06934279948472977	0.07710342109203339	-0.16251219809055328	-0.179621621966362	-0.1414192020893097	0.05679402872920036	0.013255427591502666	-0.10784348100423813	-0.013965913094580173	-0.13208317756652832	0.006815899629145861	-0.15702427923679352	0.20349740982055664	-0.02669548988342285	0.10481202602386475	0.12162694334983826	0.12877364456653595	0.11814328283071518	0.12110857665538788	0.03650821000337601	-0.002019458217546344	-0.08962779492139816	-0.052929412573575974	0.012314744293689728	-0.126641646027565	0.14446957409381866	0.006330464966595173	-0.21736428141593933	-0.09267591685056686	0.01959656924009323	-0.09052765369415283	0.06515253335237503	0.04654647782444954	-0.18840450048446655	0.07400567829608917	0.07820862531661987	-0.10568200051784515	0.02968006022274494	0.11432936042547226	-0.04859251528978348	-0.1521388292312622	-0.07800092548131943	-0.02343623898923397	0.06455805152654648	-0.061175502836704254	0.008127391338348389	-0.040309883654117584	0.09671425819396973	-0.1661645919084549	0.07357878237962723	0.09858272969722748	0.11973805725574493	-0.03890165314078331	0.2466762214899063	-0.1651502102613449	0.05137837678194046
mait1250	0.20306779444217682	0.16774025559425354	0.06098480150103569	-0.006093256641179323	-0.031552232801914215	-0.16867484152317047	-0.002897037426009774	-0.2874993681907654	0.017369849607348442	-0.147321417927742	-0.03985438495874405	0.1935095340013504	-0.1885492354631424	0.15562528371810913	0.010388914495706558	-0.013018148951232433	-0.04881986230611801	0.038848161697387695	0.06354024261236191	-0.1384032666683197	-0.16680358350276947	-0.0381467342376709	-0.055740613490343094	0.03946467489004135	-0.03095274418592453	0.09124020487070084	-0.2723976969718933	-0.12440454959869385	0.20408573746681213	-0.1261872947216034	-0.17172107100486755	0.1645524650812149	0.017983736470341682	-0.01784132979810238	0.017329653725028038	-0.052177418023347855	0.1703069508075714	-0.19001832604408264	0.08510342985391617	0.061560265719890594	-0.13409645855426788	0.039084386080503464	-0.11486566811800003	-0.015498681925237179	0.17672181129455566	0.03158650919795036	0.08576376736164093	0.06848236173391342	-0.13438913226127625	-0.038818635046482086	0.010005389340221882	0.10930708795785904	-0.26671016216278076	-0.12521223723888397	0.1459212750196457	0.02842450886964798	0.15030057728290558	-0.08133663982152939	0.27268102765083313	0.27659666538238525	-0.11106719821691513	-0.09054185450077057	-0.08433601260185242	-0.34899014234542847	0.2351635843515396	-0.08109406381845474	-0.10875314474105835	0.05770234391093254	0.0158366821706295	0.061655279248952866	0.2594217360019684	-0.07201623171567917	-0.19224275648593903	0.07778593897819519	0.13191670179367065	0.21660706400871277	0.11116594821214676	0.08355625718832016	-0.00046359736006706953	0.16026784479618073	-0.10723572969436646	0.06545742601156235	-0.17589040100574493	0.028827862814068794	-0.25851333141326904	0.10474877059459686	-0.01579378917813301	0.11186827719211578	-0.05269313231110573	0.08311958611011505	-8.819293725537136e-05	0.058794792741537094	0.22775539755821228	0.0872209370136261	-0.03923122212290764	0.23095974326133728	-0.11016935110092163	-0.08539964258670807	-0.006770497653633356	0.16864700615406036	-0.09557253122329712	0.0784129649400711	-0.27947771549224854	-0.05617230385541916	-0.2487364560365677	-0.005980381276458502	-0.1653113216161728	-0.08701633661985397	0.10582935810089111	0.13755753636360168	-0.3010807931423187	-0.032726358622312546	-0.23659519851207733	0.16562840342521667	-0.019468296319246292	0.11061344295740128	0.01123854797333479	0.19338907301425934	-0.09302512556314468	-0.06301426887512207	0.14780212938785553	-0.12557388842105865	0.20914505422115326	-0.13679639995098114	-0.034941788762807846	0.04640170559287071	0.008302700705826283	-0.13535207509994507
mara1378	-0.13199195265769958	-0.10049557685852051	0.028759056702256203	-0.007417360320687294	-0.021734781563282013	-0.007881777361035347	-0.009107931517064571	0.019309593364596367	0.03107440657913685	-0.10719945281744003	-0.06833042949438095	-0.22436054050922394	-0.14295880496501923	-0.0404050350189209	-0.1097734346985817	-0.12872765958309174	-0.045321326702833176	-0.029558567330241203	0.006108865141868591	0.09985830634832382	0.061522629112005234	0.0864112451672554	0.06754326075315475	0.00947805866599083	0.17017680406570435	0.04244577884674072	-0.17988748848438263	0.008984013460576534	0.05270441621541977	0.04973762482404709	-0.10563173145055771	-0.019208699464797974	0.06304767727851868	0.04619607329368591	-0.05022478103637695	0.07381519675254822	0.0969269722700119	-0.0007403515628539026	-0.11627808213233948	-0.06935536861419678	-0.0561957061290741	0.020109115168452263	0.10043087601661682	-0.15506042540073395	-0.12205414474010468	0.2179005742073059	0.06567484140396118	0.003345922566950321	0.10652340203523636	-0.07314078509807587	-0.09930097311735153	-0.06618993729352951	0.08808047324419022	0.01884121261537075	-0.12134266644716263	-0.06698943674564362	-0.009351424872875214	-0.17604033648967743	0.16936279833316803	-0.13267004489898682	-0.18715466558933258	0.0030443966388702393	0.12145468592643738	-0.15514907240867615	0.07182276993989944	0.0861152783036232	0.2791365087032318	-0.0870245099067688	-0.10238835215568542	0.21871881186962128	-0.19594979286193848	0.022804828360676765	0.1319233477115631	0.11498463898897171	0.05157643184065819	0.11418870836496353	-0.06039252132177353	-0.13281358778476715	0.012167143635451794	0.02628554403781891	0.04528563469648361	0.056737739592790604	-0.13163910806179047	-0.05345466360449791	0.1830134093761444	-0.12632811069488525	-0.18604710698127747	0.012651991099119186	0.02124350145459175	0.10719731450080872	-0.13055768609046936	0.10810164362192154	0.2786085605621338	0.08549419790506363	-0.039784736931324005	-0.15110346674919128	0.11796964704990387	0.07290926575660706	0.08065979182720184	0.15596778690814972	-0.16121533513069153	0.14150941371917725	0.07378962635993958	0.013868681155145168	-0.020302819088101387	0.129161536693573	0.10548865795135498	-0.1545811891555786	-0.071412593126297	0.13851319253444672	0.06577543169260025	-0.16136758029460907	-0.14449967443943024	0.10197041183710098	0.04950588569045067	-0.07752155512571335	0.0635225847363472	-0.17028868198394775	-0.08432670682668686	0.03784763813018799	-0.12035898864269257	0.003962138667702675	0.05085724964737892	-0.008113639429211617	0.0904776081442833	0.19993281364440918	0.060654591768980026	0.06259501725435257
marw1260	-0.17373012006282806	-0.28927168250083923	-0.2797042429447174	-0.3487176299095154	-0.03465941920876503	0.33054548501968384	-0.15556439757347107	-0.21593613922595978	-0.0593857541680336	-0.26079484820365906	-0.22057121992111206	0.5091468691825867	-0.13528208434581757	-0.14437180757522583	0.026609528809785843	-0.08370906114578247	0.14243212342262268	-0.06993933767080307	-0.1778547763824463	-0.3210417628288269	0.04377392679452896	0.16059473156929016	0.0463862344622612	0.1675480753183365	0.2160484492778778	0.01348432619124651	0.02439030632376671	0.01424581091850996	0.13803793489933014	-0.2413235753774643	-0.003910924773663282	-0.061366863548755646	-0.1608406901359558	0.13199593126773834	-0.2925623059272766	-0.5391265153884888	0.517599880695343	-0.09202022850513458	-0.2544611394405365	0.01965738832950592	-0.2662678062915802	0.41021838784217834	0.05202092230319977	-0.3678206503391266	-0.066668801009655	0.02479512244462967	0.010503070428967476	-0.09711747616529465	-0.0123218959197402	0.03307752683758736	0.13216345012187958	0.3863266706466675	0.15643367171287537	-0.23256315290927887	0.18624071776866913	0.0874989852309227	-0.09792451560497284	-0.1357264667749405	0.2287144809961319	0.08134429901838303	0.20852050185203552	-0.10390356928110123	-0.04386625811457634	-0.0781712681055069	-0.22633454203605652	-0.14951162040233612	-0.011420132592320442	-0.3924636244773865	-0.18188999593257904	0.24256719648838043	-0.13249672949314117	0.025230705738067627	0.2200026959180832	0.23361584544181824	0.020765233784914017	0.14699925482273102	-0.005797121673822403	0.04639936238527298	0.24664676189422607	-0.15338213741779327	0.014124064706265926	-0.16959381103515625	-0.3231303095817566	0.03124581277370453	-0.43701186776161194	0.0981227457523346	-0.1456792652606964	-0.2138737142086029	0.019119026139378548	-0.10535591095685959	-0.07308214902877808	-0.022977765649557114	0.14262236654758453	-0.06088727340102196	-0.18956880271434784	-0.0865662544965744	0.2654084265232086	0.11475098133087158	0.19232697784900665	0.4870898425579071	0.2314203828573227	-0.0829976350069046	-0.09138672053813934	-0.23836146295070648	0.10884108394384384	-0.24564574658870697	-0.2708856165409088	0.28709253668785095	0.20217053592205048	-0.19030842185020447	-0.11127541959285736	0.1744995266199112	0.29578593373298645	-0.06169035658240318	-0.0006256732740439475	-0.2783415913581848	-0.012942368164658546	-0.16016273200511932	0.20506736636161804	-0.10658173263072968	-0.2716993987560272	0.24696658551692963	0.10703008621931076	0.3327837884426117	0.26105251908302307	-0.17680072784423828	-0.41774433851242065	0.07268186658620834
mult1243	0.07753971964120865	-0.16559454798698425	-0.15401746332645416	0.11821489781141281	-0.19024266302585602	-0.16807523369789124	0.46199852228164673	-0.2673793435096741	-0.1533982902765274	-0.06452059000730515	-0.022473588585853577	-0.009569233283400536	0.4006804823875427	-0.08514907211065292	-0.14491312205791473	0.07744397222995758	-0.19167758524417877	-0.30007365345954895	-0.0007905366946943104	0.1860683113336563	-0.09112544357776642	-0.3978900909423828	-0.1368575543165207	-0.2683473527431488	0.2296465039253235	-0.38114023208618164	0.0014849752187728882	0.057219330221414566	0.18565450608730316	0.11418091505765915	-0.2779015004634857	0.12658566236495972	0.2314917892217636	-0.18457332253456116	0.09506543725728989	-0.20209510624408722	0.29586997628211975	0.17614863812923431	0.07288813591003418	-0.07967305183410645	0.28766223788261414	-0.09650393575429916	-0.1682363599538803	-0.3956044018268585	0.17892396450042725	0.07994721084833145	-0.027327485382556915	0.1276370882987976	-0.13925273716449738	0.10081885010004044	-0.10391242057085037	-0.20720641314983368	-0.07067864388227463	-0.08704622834920883	-0.45087113976478577	-0.16741357743740082	-0.18587778508663177	0.0992073342204094	0.14633390307426453	-0.0942806750535965	0.036433145403862	0.1330547332763672	0.1932593584060669	0.07887199521064758	-0.19889631867408752	0.09532782435417175	0.3280339241027832	-0.27617478370666504	0.48571884632110596	0.027061080560088158	-0.12329781800508499	-0.1422611027956009	-0.0947544202208519	-0.5104147791862488	0.0481719896197319	0.03043469972908497	-0.21443745493888855	0.2210327535867691	-0.02239006944000721	-0.1713578701019287	0.013998151756823063	0.03312672674655914	-0.21499481797218323	-0.1798514723777771	0.13206331431865692	0.08539287745952606	0.2517310082912445	0.03728770464658737	-0.12583674490451813	0.1862703412771225	-0.18226124346256256	0.15288802981376648	-0.15651816129684448	-0.2831563651561737	0.06615389138460159	-0.05678597837686539	-0.20459161698818207	-0.14181482791900635	0.17907589673995972	-0.14240096509456635	-0.09041436016559601	-0.1497536450624466	0.005981154274195433	0.16251248121261597	-0.19104062020778656	-0.2046106606721878	-0.21729376912117004	0.05642865225672722	-0.23206599056720734	0.03220934793353081	0.2379138320684433	0.2633141279220581	0.3228514492511749	0.0958409309387207	0.07903430610895157	0.031251903623342514	-0.18425524234771729	0.28447768092155457	0.16336748003959656	0.22207170724868774	-0.07196666300296783	-0.29115724563598633	0.1303437501192093	-0.12024800479412079	-0.31801503896713257	-0.06299854815006256	0.08370622992515564	-0.0184522345662117
