aret1240	0.021496333181858063	-0.06259294599294662	-0.1577974408864975	0.05098698288202286	-0.011341914534568787	0.1468440592288971	0.12321927398443222	-0.21351951360702515	-0.12487507611513138	-0.07016874104738235	0.25296467542648315	-0.048432301729917526	-0.2497519552707672	-0.18953156471252441	0.0711572989821434	0.014775905758142471	-0.011695008724927902	0.1789838671684265	0.18275685608386993	0.39003631472587585	-0.2745135724544525	-0.11324895173311234	-0.16154266893863678	0.20186655223369598	-0.19424910843372345	0.27563339471817017	-0.08623258769512177	-0.06745608896017075	0.06941208988428116	-0.1338544636964798	-0.021923203021287918	0.3160257041454315	-0.0871797576546669	-0.11413636058568954	-0.0671309307217598	-0.024194737896323204	0.011128631420433521	0.07745280861854553	0.3177516758441925	-0.04535236954689026	0.04470730572938919	0.04768231883645058	0.06621953845024109	-0.048508964478969574	-0.1503787785768509	-0.11022752523422241	-0.13890551030635834	0.14719845354557037	-0.010461660102009773	-0.12489961087703705	0.07672689110040665	-0.04677131399512291	0.209282785654068	0.1378491371870041	-0.30401644110679626	-0.11966942250728607	0.03753763437271118	0.24474327266216278	0.05404917895793915	0.027312926948070526	-0.3301175534725189	-0.1879901885986328	-0.09967298805713654	-0.23387287557125092	0.08434635400772095	0.16276590526103973	0.17521147429943085	0.22279557585716248	0.25879189372062683	-0.027526356279850006	-0.2249450385570526	0.2642675042152405	-0.08331657946109772	-0.03383888304233551	0.2462894469499588	-0.34242910146713257	0.04670397937297821	-0.2264634668827057	0.11325210332870483	-0.28856390714645386	0.24737189710140228	0.04598225653171539	0.001712758676148951	-0.041141167283058167	-0.023757539689540863	0.13451328873634338	-0.1092412993311882	-0.1910833865404129	-0.20088791847229004	-0.3629319667816162	-0.1785466969013214	0.004310197662562132	-0.08491639792919159	0.4664413630962372	-0.060880567878484726	0.2660234272480011	-0.10426488518714905	-0.05038593336939812	0.09843988716602325	-0.24173881113529205	-0.2545399069786072	-0.14148247241973877	0.20579683780670166	-0.3579232692718506	0.1745552122592926	-0.049203816801309586	0.10077595710754395	0.02642626315355301	-0.040485724806785583	0.003218927653506398	-0.28146252036094666	-0.3702627420425415	0.003368562553077936	0.04093720018863678	0.01606464385986328	0.018287092447280884	-0.209475576877594	0.23701012134552002	0.27215129137039185	-0.2895253896713257	0.15438483655452728	-0.06405673921108246	0.12921907007694244	-0.015488434582948685	0.23190775513648987	-0.13194435834884644	-0.17239134013652802	0.29665061831474304
assa1263	0.11427418887615204	-0.03211614862084389	-0.14847633242607117	0.0778144970536232	-0.010295167565345764	-0.053764667361974716	0.026313675567507744	0.03788105025887489	0.016653234139084816	-0.05377180874347687	-0.10700574517250061	-0.04086754843592644	-0.19540980458259583	-0.11827724426984787	0.00908398162573576	-0.1094110757112503	0.07619386166334152	-0.030519502237439156	-0.06445692479610443	-0.030257023870944977	0.0199145395308733	0.006848643533885479	-0.009301568381488323	0.027709802612662315	0.16064485907554626	0.028874287381768227	-0.05270097777247429	0.06872222572565079	-0.15759843587875366	0.07958558201789856	-0.007741475943475962	-0.009977150708436966	-0.1604011505842209	-0.029627637937664986	-0.0029164834413677454	-0.035019226372241974	-0.05514008179306984	0.017369691282510757	-0.04753808304667473	0.06735009700059891	-0.0004762291209772229	0.04405494034290314	-0.05885910987854004	0.09876026213169098	-0.016721397638320923	0.02188277617096901	-0.07215985655784607	-0.06634553521871567	0.25980648398399353	-0.012828996405005455	-0.002856126055121422	0.014532364904880524	0.07984928041696548	-0.058337122201919556	-0.07797881960868835	0.07990537583827972	0.003003510180860758	-0.03856625780463219	0.14923763275146484	-0.19242842495441437	0.009713845327496529	-0.011841394938528538	0.04481200501322746	0.08218991756439209	0.0006174101727083325	0.05280756205320358	0.024495234712958336	0.1712043732404709	0.05145106092095375	0.1118103638291359	-0.15735796093940735	-0.06131600961089134	-0.01893625222146511	0.09618710726499557	0.041579946875572205	0.14291822910308838	-0.07041209936141968	-0.111554354429245	-0.1114511787891388	-0.009139318950474262	0.19358883798122406	-0.02638758160173893	0.08228881657123566	-0.0035411168355494738	-0.005299217998981476	0.11433829367160797	-0.00026477492065168917	-0.009452471509575844	-0.0671326220035553	0.09848854690790176	-0.03545990586280823	-0.007697927299886942	-0.04074531048536301	-0.11625558137893677	0.0854094922542572	-0.0690024346113205	-0.04546598345041275	0.03246801719069481	0.22622817754745483	-0.016187431290745735	-0.01744745299220085	-0.20202435553073883	0.03711628168821335	0.04454220458865166	-0.06262753158807755	0.008188153617084026	0.05320485681295395	0.06743063032627106	-0.07509112358093262	-0.016964402049779892	0.02766900323331356	-0.038476552814245224	-0.15620596706867218	0.18798397481441498	0.001144914422184229	-0.03227363899350166	-0.07772696763277054	0.03815421462059021	-0.16824305057525635	0.001303657190874219	-0.03440137580037117	0.0022106412798166275	-0.01511760801076889	0.10010027140378952	-0.14038756489753723	-0.018895665183663368	-0.017498452216386795	-0.1090814471244812
bagh1251	-0.17632438242435455	0.05899106711149216	-0.049359507858753204	-0.09459175169467926	-0.03381659463047981	0.04992472752928734	-0.008432329632341862	-0.07320933789014816	-0.03147492930293083	-0.09366694837808609	0.14689984917640686	-0.048729058355093	0.009628014639019966	0.05213947966694832	-0.009776866994798183	-0.006849309429526329	0.1079171746969223	0.05770079791545868	0.2829728126525879	0.14729642868041992	-0.003749609226360917	0.03512505069375038	-0.04496103525161743	-0.059445224702358246	-0.025043435394763947	0.10817774385213852	0.09333351999521255	0.07782953977584839	0.06809095293283463	-0.047973453998565674	-0.15498130023479462	0.12084624171257019	0.016841044649481773	-0.09378960728645325	-0.05801009386777878	0.010822522453963757	-0.05719586834311485	-0.19124799966812134	-0.11092832684516907	0.030914315953850746	0.017042919993400574	0.2888503670692444	-0.060536984354257584	0.03066101111471653	0.041557978838682175	0.0022525531239807606	0.0809950977563858	0.010373554192483425	0.18728218972682953	0.16910222172737122	-0.03769853711128235	-0.18246442079544067	0.07645130902528763	-0.16107052564620972	0.05998913571238518	-0.10308197140693665	-0.07187077403068542	-0.054546985775232315	-0.25373801589012146	-0.0934467762708664	0.17849095165729523	-0.16364316642284393	0.022337976843118668	0.00035425383248366416	-0.03484151512384415	0.061619099229574203	0.14939965307712555	0.0969935804605484	0.0985926166176796	0.06960143893957138	-0.10199841111898422	-0.08266977965831757	-0.003854082664474845	0.011190350167453289	-0.038677945733070374	-0.03410252928733826	-0.009922880679368973	-0.04192277416586876	0.15881949663162231	0.09403929114341736	0.19875864684581757	-0.04529962316155434	0.10992489755153656	0.08915894478559494	0.027636472135782242	0.09061739593744278	-0.052748020738363266	-0.0496048703789711	0.003019594354555011	0.17273876070976257	0.18643778562545776	-0.0008210126543417573	-0.07454662770032883	-0.08762753754854202	0.010427265428006649	0.031860776245594025	-0.021306516602635384	-0.05143003910779953	0.09881134331226349	-0.13280487060546875	0.07725197076797485	0.05347529426217079	0.03780458867549896	0.29159218072891235	0.025397980585694313	0.11907653510570526	-0.06015533581376076	-0.0704202651977539	0.13669659197330475	0.02893832139670849	0.12359333038330078	-0.15571339428424835	0.11072558909654617	0.05216284841299057	-0.10651442408561707	-0.03337343409657478	0.14643023908138275	-0.0946977287530899	-0.20203319191932678	-0.029911456629633904	0.0833132416009903	0.055152587592601776	0.14856350421905518	-0.07318565249443054	0.03772089257836342	0.10995018482208252	0.025886131450533867	0.031458575278520584
beng1280	0.11108405888080597	-0.029778873547911644	-0.06323461979627609	0.023823153227567673	-0.022813301533460617	0.019277101382613182	-0.023470330983400345	-0.05214090272784233	-0.009541556239128113	-0.01898878440260887	-0.12195634096860886	0.0940718725323677	0.07889541983604431	-0.03629991039633751	-0.007998374290764332	-0.03148889169096947	0.01629827730357647	-0.0280656386166811	-0.05217409133911133	-0.1805073618888855	-0.06654234230518341	0.03500647097826004	0.009574822150170803	-0.0039052728097885847	-0.03200586140155792	-0.018707556650042534	-0.02710970677435398	-0.05140461400151253	-0.02092154137790203	-0.04781889170408249	0.08974803984165192	0.2008957862854004	0.01922331005334854	0.0221865177154541	0.03844431787729263	0.06401222944259644	-0.04943952336907387	-0.048718761652708054	-0.03572417423129082	-0.04247139021754265	-0.009571841917932034	-0.041375286877155304	-0.0077776056714355946	0.05798019468784332	0.01429959200322628	0.031137637794017792	0.03993498161435127	0.01601451449096203	0.2017577439546585	-0.037837252020835876	0.0014787092804908752	-0.10120514035224915	0.2537462115287781	-0.04905659332871437	-0.08182977139949799	0.07747308164834976	0.07188890874385834	0.03683178871870041	0.011431646533310413	0.06950176507234573	0.07056745141744614	0.040718697011470795	0.017482992261648178	-0.004802542272955179	0.008593184873461723	-0.03686590492725372	-0.078461654484272	0.08602022379636765	0.016302021220326424	-0.04034377634525299	0.15095236897468567	-0.12785601615905762	-0.005001091863960028	-0.06931396573781967	0.11358720064163208	0.10911168903112411	0.09764710813760757	-0.021636011078953743	-0.04772838205099106	-0.022548360750079155	-0.12123393267393112	0.012997891753911972	0.12105000019073486	-0.072956882417202	0.017352968454360962	-0.11324255913496017	-0.09069119393825531	0.02925298362970352	-0.07579448074102402	-0.12123969942331314	-0.03984260931611061	0.0010885607916861773	-0.12848754227161407	-0.08658543229103088	-0.004457333590835333	0.10034824162721634	0.03837738558650017	-0.008720139972865582	0.23374930024147034	0.04578179493546486	0.07005884498357773	0.026513727381825447	0.046376895159482956	0.055846281349658966	-0.003893499495461583	0.08474443107843399	-0.026736237108707428	-0.16214993596076965	-0.14895060658454895	0.038936689496040344	-0.09257591515779495	-0.039728954434394836	0.07727756351232529	0.11355189234018326	-0.006338866427540779	0.005470129661262035	-0.05738991126418114	-0.02712130919098854	-0.12336821109056473	0.04046293720602989	0.0332101508975029	0.003659079549834132	0.04967578127980232	-0.07784225046634674	-0.02087891474366188	0.031567059457302094	0.06172078475356102	-0.02317650057375431
bhad1241	0.07252195477485657	-0.05344586446881294	-0.11014845967292786	-0.06900232285261154	0.0507507361471653	0.03373146429657936	0.02730434574186802	-0.08025670051574707	0.0170041061937809	0.0467337891459465	-0.1185913234949112	0.10030908137559891	-0.08847013860940933	0.20260514318943024	0.1173681989312172	-0.07680989056825638	-0.10909920185804367	0.09132903069257736	0.16607941687107086	-0.16389890015125275	0.00033339031506329775	-0.0679657906293869	0.05249355360865593	-0.023858046159148216	-0.018041348084807396	-0.12221202254295349	-0.19030499458312988	-0.05554288253188133	-0.07146446406841278	0.10205093771219254	-0.11936754733324051	0.06485071033239365	-0.18036940693855286	0.001968978438526392	0.021145185455679893	-0.06906209886074066	0.12908963859081268	0.2429082989692688	-0.05405019596219063	0.01051003485918045	0.010521678254008293	0.05578533560037613	-0.015365585684776306	-0.14494654536247253	-0.06259937584400177	0.1218700110912323	0.007976820692420006	0.040902089327573776	-0.30550312995910645	0.20175543427467346	0.16530084609985352	-0.08437871187925339	-0.07371879369020462	0.09632902592420578	0.14875257015228271	0.03878793492913246	-0.06158261001110077	0.08612912148237228	0.21668173372745514	0.16410435736179352	0.18892399966716766	-0.0635455846786499	0.048769254237413406	-0.04988640546798706	0.0033184594940394163	0.013461044989526272	0.08028409630060196	-0.20157583057880402	-0.2269277274608612	0.0983392745256424	0.038222458213567734	-0.12324617803096771	0.008864875882863998	-0.04959529638290405	0.019745217636227608	-0.16460494697093964	0.20762842893600464	-0.07786690443754196	-0.07270585000514984	0.05329127237200737	0.21455202996730804	0.13643993437290192	0.1126977950334549	-0.12004304677248001	0.10184641927480698	-0.03743434324860573	-0.21319341659545898	-0.01355647761374712	-0.1204918771982193	0.019700992852449417	0.03646260127425194	-0.010408970527350903	0.002435035305097699	-0.010359084233641624	0.1504523754119873	0.08228648453950882	-0.05064696818590164	-0.014709359966218472	0.11088363826274872	0.09496241807937622	-0.04806719720363617	0.08326208591461182	0.015437270514667034	-0.28742334246635437	-0.0601426362991333	-0.01162008848041296	0.06982939690351486	0.27282795310020447	0.2897263467311859	-0.10381634533405304	-0.09013637155294418	-0.019281573593616486	-0.09995290637016296	-0.09287532418966293	-0.012104217894375324	-0.13342848420143127	-0.10384712368249893	-0.2571578919887543	0.10655316710472107	-0.1707109957933426	-0.17305715382099152	0.02530587837100029	0.019317854195833206	-0.1900380551815033	0.1255413293838501	-0.08885429799556732	-0.004779554903507233	-0.03357221931219101
bhal1244	0.12484671920537949	-0.0399513877928257	-0.09080368280410767	0.08930955082178116	-0.008712098002433777	0.021422969177365303	0.03529214486479759	0.0021111895330250263	-0.09982036054134369	-0.15012042224407196	-0.18576708436012268	-0.10399692505598068	0.15800102055072784	0.002001947956159711	0.06459425389766693	-0.020581552758812904	-0.06067333742976189	-0.12085707485675812	-0.01747516728937626	-0.002061249688267708	-0.1245056539773941	0.12113579362630844	0.02891102060675621	0.02900712937116623	0.01798647828400135	0.1681441366672516	-0.07213012874126434	-0.10150541365146637	-0.14741376042366028	0.08586718142032623	0.13697558641433716	0.04243878647685051	-0.12232565134763718	0.0037261582911014557	-0.041987232863903046	-0.10471922159194946	-0.0041636573150753975	0.21240918338298798	-0.023965833708643913	-0.024852821603417397	-0.000773762003518641	0.14617419242858887	-0.011943073943257332	-0.005310120061039925	-0.0781894251704216	-0.007302844896912575	0.08132508397102356	-0.02708822675049305	-0.2312161922454834	0.051123298704624176	-0.05197764188051224	0.01445982325822115	-0.27665621042251587	-0.01994415372610092	0.11888230592012405	0.12724025547504425	0.22614267468452454	-0.09337858110666275	0.0013607406290248036	0.06524242460727692	0.08152982592582703	-0.09235558658838272	-0.07915382087230682	0.012455488555133343	-0.016306143254041672	0.078362375497818	0.1437510997056961	-0.07982923835515976	-0.10109808295965195	-0.16697010397911072	0.1333254873752594	-0.21574562788009644	-0.021776318550109863	-0.08360131084918976	-0.06479588150978088	0.13420887291431427	-0.08845199644565582	0.031416017562150955	-0.0696665570139885	0.039698366075754166	0.2532362937927246	-0.06203169375658035	-0.0839385986328125	-0.11070210486650467	-0.06487064808607101	0.1305079162120819	-0.16109488904476166	0.005787473171949387	-0.08561672270298004	0.013759654015302658	-0.13561700284481049	-0.01645217277109623	0.10792660713195801	0.13628549873828888	0.15163695812225342	-0.07460978627204895	0.033164408057928085	0.03608633205294609	0.16877298057079315	0.004939141683280468	0.03761084005236626	0.2005753368139267	-0.015183105133473873	0.0021757998038083315	0.09375043958425522	0.1238611564040184	-0.05077703297138214	0.19935929775238037	0.07122247666120529	-0.04822857677936554	-0.19710810482501984	-0.08993852883577347	-0.11361545324325562	-0.044671379029750824	0.11085139214992523	0.12156622856855392	-0.0038756043650209904	-0.028382129967212677	0.26697275042533875	-0.2948859930038452	-0.13971808552742004	0.019465100020170212	-0.02297145687043667	0.02052198350429535	0.08609725534915924	0.005523468367755413	0.1306828111410141	0.16255030035972595
bhoj1244	-0.12385495752096176	0.009009087458252907	-0.03950674831867218	-0.1090230718255043	0.07139680534601212	0.04392745718359947	0.06499142199754715	0.11362730711698532	0.06404867023229599	-0.16543270647525787	0.2398696392774582	-0.08895520120859146	-0.12940306961536407	0.013573107309639454	-0.16957829892635345	-0.006144748535007238	0.12609665095806122	0.04810561612248421	0.0462321899831295	0.22795425355434418	-0.17748814821243286	-0.056402165442705154	0.035387493669986725	0.06236587464809418	0.0358722023665905	-0.0939294621348381	0.2425932139158249	-0.03542381897568703	-0.1714196354150772	0.08218088746070862	-0.04424063861370087	-0.15964660048484802	-0.045162055641412735	0.1881503313779831	0.20240387320518494	-0.11120204627513885	-0.1083289384841919	0.05693346634507179	0.05343181639909744	-0.10273575037717819	-0.03535110503435135	-0.07052821666002274	-0.08163396269083023	-0.09912993758916855	-0.1008102297782898	-0.08145230263471603	0.11655092984437943	0.1218019351363182	0.10163378715515137	0.09228460490703583	0.11609862744808197	0.050057973712682724	0.24122314155101776	-0.022988036274909973	0.06214597821235657	-0.09809896349906921	-0.1273183524608612	-0.04958838224411011	-0.2606952488422394	-0.012301812879741192	0.17974048852920532	-0.002013108693063259	0.08018642663955688	0.0064486609771847725	-0.0299542099237442	0.022452998906373978	-0.18639783561229706	0.2462400197982788	0.042883895337581635	0.03853490576148033	0.19891969859600067	-0.07305742800235748	0.01383005641400814	-0.16764312982559204	-0.15408596396446228	0.2058524489402771	-0.12475904077291489	0.20884768664836884	-0.23216474056243896	0.047870635986328125	0.045307088643312454	0.024270163848996162	0.29089486598968506	0.10925545543432236	-0.11553091555833817	0.07257284969091415	-0.0015702859964221716	-0.0020062264520674944	-0.009835436008870602	0.030423181131482124	-0.010952078737318516	-0.002241886919364333	0.07164882123470306	-0.0045670634135603905	-0.08381260931491852	-0.14762559533119202	-0.06807098537683487	-0.04812585562467575	0.23484879732131958	-0.018571767956018448	0.08002705872058868	-0.013232272118330002	0.06633617728948593	0.040849946439266205	0.09108482301235199	0.02328580804169178	-0.07547752559185028	-0.0715894103050232	0.039151232689619064	0.00025682745035737753	-0.04608353599905968	0.16125856339931488	-0.15671798586845398	0.13747887313365936	-0.1299894154071808	-0.05697429180145264	0.08306225389242172	0.0009081989410333335	0.046036772429943085	0.020113779231905937	0.07502403110265732	-0.06603838503360748	0.09544097632169724	0.0302563589066267	-0.03274298086762428	-0.12648692727088928	-0.1697748601436615	-0.035536989569664
braj1242	-0.08253078907728195	0.1429585963487625	0.31425511837005615	0.21382658183574677	0.024858910590410233	-0.05825304985046387	-0.03236069530248642	0.052176859229803085	-0.242312952876091	-0.004749460145831108	0.07665345072746277	-0.3241516351699829	-0.07366865128278732	-0.027556654065847397	0.07926821708679199	-0.267114520072937	0.20214712619781494	0.04337898641824722	-0.10762438923120499	-0.028038911521434784	0.05392324551939964	-0.02645169571042061	-0.21772070229053497	-0.18353259563446045	-0.14342036843299866	-0.32124537229537964	-0.2744121551513672	-0.01866256445646286	0.20205840468406677	0.027775349095463753	-0.07106981426477432	-0.23091121017932892	0.016325730830430984	0.31134548783302307	-0.051231853663921356	-0.15101557970046997	-0.26721861958503723	-0.11375990509986877	0.1276755928993225	0.11676767468452454	0.05451453849673271	0.10692599415779114	0.05130808800458908	0.19869950413703918	-0.08423486351966858	-0.15881052613258362	0.2008838653564453	0.15167541801929474	0.006899626459926367	-0.31584471464157104	0.15033024549484253	-0.03878339007496834	0.024038828909397125	0.15206380188465118	0.3410157859325409	-0.3766267001628876	-0.17526786029338837	0.024415846914052963	-0.12510280311107635	-0.04064755514264107	0.48757240176200867	0.06008201465010643	-0.050913915038108826	0.022892573848366737	0.10302126407623291	0.017918981611728668	0.09745617210865021	0.1672695279121399	-0.018147209659218788	-0.047514162957668304	-0.14048714935779572	0.18586166203022003	-0.2186645269393921	0.05290696769952774	0.10221795737743378	-0.11943266540765762	-0.26733824610710144	-0.044782087206840515	-0.02598920464515686	0.3335915505886078	0.18730910122394562	-0.07782278954982758	0.242109477519989	0.1343153417110443	-0.2529706656932831	0.06907132267951965	-0.047172389924526215	-0.07745947688817978	-0.4404800832271576	0.19886749982833862	-0.06547204405069351	-0.037848927080631256	0.09518085420131683	0.25251057744026184	-0.24508005380630493	0.0014852015301585197	0.07254596054553986	0.18288497626781464	0.13193446397781372	-0.2593417167663574	0.04697900637984276	-0.14894121885299683	-0.22103965282440186	0.1321246474981308	0.14253754913806915	0.08795477449893951	0.12632159888744354	-0.30904901027679443	0.0125428456813097	0.14199353754520416	-0.0885307565331459	0.19879411160945892	-0.02184903994202614	-0.04331617429852486	-0.049724139273166656	-0.25580015778541565	0.37157493829727173	-0.11805860698223114	-0.07359625399112701	-0.059682246297597885	-0.09853966534137726	-0.1626463532447815	0.1516323834657669	-0.29894131422042847	0.08344612270593643	-0.0858328640460968	-0.021690556779503822	0.058915652334690094
cham1307	0.1878778487443924	-0.18595215678215027	0.19194617867469788	-0.27976158261299133	0.025409527122974396	0.10386193543672562	-0.0018412139033898711	-0.10476300120353699	-0.3526487350463867	-0.022351976484060287	-0.05502162128686905	0.08388063311576843	-0.010778841562569141	0.12159889936447144	-0.46433374285697937	0.2987683415412903	-0.21581105887889862	0.03362590819597244	0.10439448803663254	0.1548878699541092	0.18542388081550598	0.059236861765384674	-0.15227004885673523	0.12387460470199585	0.32022055983543396	0.0358787439763546	0.05214367061853409	-0.2520189881324768	-0.006012100726366043	-0.009617326781153679	0.003256827360019088	-0.02082018181681633	0.13422943651676178	-0.2855217754840851	-0.17366313934326172	0.26864519715309143	-0.17320826649665833	0.25706028938293457	-0.032709527760744095	-0.3415541350841522	-0.11461298912763596	-0.03462272882461548	-0.20044735074043274	-0.18695853650569916	-0.07070859521627426	-0.04369109496474266	0.10019321739673615	0.19801925122737885	0.10706155002117157	-0.18857134878635406	-0.01586001366376877	0.14060989022254944	-0.04552339389920235	0.06736050546169281	0.4283745288848877	0.030302757397294044	0.3232610523700714	0.03652755171060562	0.02308758534491062	-0.28790873289108276	0.29203131794929504	-0.022999584674835205	0.2536092698574066	0.176142618060112	0.14888881146907806	0.03221771866083145	0.18823295831680298	-0.19794359803199768	0.042265404015779495	-0.14449377357959747	0.2724514603614807	-0.08588478714227676	-0.20638860762119293	-0.01074281521141529	0.18866196274757385	0.08256617933511734	0.33029645681381226	0.12422865629196167	0.15805579721927643	-0.1276046633720398	0.32874786853790283	0.15930543839931488	0.18225276470184326	-0.1119808629155159	0.041561469435691833	-0.11369454860687256	0.07589598745107651	-0.10926153510808945	0.44671431183815	-0.016201799735426903	-0.080905020236969	-0.015516330488026142	-0.01430443674325943	0.09275095164775848	-0.0641014501452446	-0.11164596676826477	-0.10217244923114777	0.20192798972129822	-0.13662338256835938	0.053661517798900604	0.30551278591156006	-0.06696309894323349	-0.004862567875534296	-0.021300436928868294	-0.013115781359374523	0.43827906250953674	0.27722370624542236	0.08870724588632584	0.2422996312379837	-0.017081748694181442	-0.2215362936258316	0.21952950954437256	-0.12118653953075409	0.09970163553953171	-0.29247424006462097	0.02278919145464897	-0.19104008376598358	-0.2635204792022705	-0.058996256440877914	0.0650734081864357	0.17941708862781525	-0.17233102023601532	-0.19313402473926544	-0.0370284840464592	0.07360446453094482	0.29420772194862366	-0.14528390765190125	-0.03536641225218773
chur1258	-0.12519051134586334	-0.25333303213119507	-0.14519600570201874	-0.07267140597105026	-0.03764786571264267	0.1786169707775116	-0.19379116594791412	0.021462470293045044	-0.23641881346702576	-0.12358665466308594	-0.1229257807135582	0.10392570495605469	0.02300466038286686	-0.009097945876419544	-0.011140658520162106	0.11223266273736954	-0.015626665204763412	0.09006854146718979	0.10759799182415009	-0.028522886335849762	-0.14466656744480133	0.0604327991604805	0.03591980040073395	-0.11539016664028168	0.08633821457624435	-0.04617607966065407	0.17693419754505157	-0.13580988347530365	-0.19390416145324707	-0.18171043694019318	-0.10800047218799591	0.48417603969573975	0.26779234409332275	-0.1566014140844345	0.14799031615257263	0.03607272356748581	0.04247541353106499	0.04577040672302246	-0.30946049094200134	-0.24506545066833496	0.06708002090454102	0.03793290629982948	0.1458202600479126	-0.13292934000492096	0.19107075035572052	0.1286057084798813	-0.10124634951353073	-0.15414002537727356	-0.21608252823352814	0.26202306151390076	0.223702073097229	0.08649937063455582	-0.21977640688419342	-0.11433016508817673	0.13929028809070587	-0.17546957731246948	0.4481995403766632	-0.012547596357762814	0.23144292831420898	-0.07879333943128586	0.1286763697862625	-0.11079894006252289	-0.17196667194366455	-0.10479342937469482	0.09596993774175644	-0.04007170721888542	-0.01405281201004982	-0.1497163623571396	-0.06656330823898315	-0.07801467925310135	-0.2502770721912384	-0.14713434875011444	-0.15467944741249084	-0.003909203689545393	0.16572709381580353	-0.04280896112322807	-0.0629129558801651	-0.06614174693822861	-0.11087069660425186	-0.2360241413116455	0.3428056836128235	-0.0019017760641872883	-0.08123888075351715	0.07854194194078445	0.10941300541162491	-0.009870420210063457	0.3376665413379669	0.16783083975315094	0.06600524485111237	-0.13876579701900482	-0.04565240070223808	-0.03569940850138664	-0.504338264465332	-0.06250149756669998	-0.18411913514137268	-0.1164427176117897	0.2071940004825592	-0.031966570764780045	0.17125730216503143	-0.033663809299468994	-0.10685672610998154	-0.08865822851657867	0.1750016063451767	0.066796213388443	0.10575862973928452	-0.00412180507555604	-0.01456751860678196	0.06969254463911057	0.0915210172533989	-0.1785009354352951	0.10045906156301498	0.21970252692699432	0.005765726324170828	-0.04554707184433937	-0.1262468546628952	0.0976957306265831	-0.2861553728580475	0.04931870475411415	0.40290480852127075	-0.04304841533303261	0.03367731720209122	0.0700124129652977	-0.0819024071097374	-0.005991235841065645	0.3260820209980011	-0.01391343679279089	-0.07941567897796631	0.17213347554206848
dame1241	0.019079042598605156	-0.04951131343841553	0.07409044355154037	0.05902872979640961	-0.017330311238765717	0.13988205790519714	0.022694718092679977	0.008772516623139381	-0.06187369301915169	0.22683784365653992	-0.16166290640830994	-0.08007322996854782	0.03928516432642937	0.005885477177798748	-0.005367714911699295	0.07150489836931229	0.27862316370010376	-0.12465653568506241	0.05356977880001068	0.06105491518974304	0.06252322345972061	-0.037508487701416016	-0.028988227248191833	0.04316308721899986	0.08844941854476929	0.09060179442167282	-0.12152170389890671	0.03436017036437988	0.004127583000808954	-0.08131007850170135	-0.15938353538513184	0.14616988599300385	-0.09139137715101242	-0.030342398211359978	0.1709546148777008	-0.1941237896680832	0.01354735717177391	0.04360099136829376	-0.1882416009902954	0.15872083604335785	-0.04734548553824425	-0.005825682543218136	-0.013088472187519073	-0.07264125347137451	-0.08043748885393143	0.05869368836283684	-0.12192849069833755	-0.09455274790525436	-0.17968864738941193	-0.04974152892827988	0.09988882392644882	0.040578097105026245	-0.003729462856426835	0.043499890714883804	-0.3156837522983551	0.06197936087846756	-0.2222549468278885	0.24580004811286926	-0.07084829360246658	0.2000739872455597	0.10137728601694107	-0.26237764954566956	0.012863541953265667	0.1478494554758072	-0.015047230757772923	0.10028797388076782	0.0704415887594223	0.13761582970619202	-0.08166119456291199	0.036854930222034454	0.12831836938858032	0.020466431975364685	-0.04116537794470787	-0.15836600959300995	0.21200251579284668	-0.0886174738407135	0.1020398736000061	0.05095252767205238	0.0521995984017849	0.03175990656018257	0.22260546684265137	0.02597755566239357	0.013729442842304707	-0.043415363878011703	-0.12494495511054993	0.01923198066651821	-0.20474430918693542	-0.060446206480264664	0.2498590648174286	-0.2091662883758545	0.05388062447309494	-0.017452813684940338	-0.20444267988204956	0.24058417975902557	-0.11507917195558548	0.08453193306922913	0.013764298520982265	-0.0007128390134312212	-0.32686319947242737	0.2603451609611511	-0.039350781589746475	0.12235012650489807	-0.42425939440727234	-0.1422194391489029	0.08939149975776672	-0.06991201639175415	0.06735178828239441	-0.1262553185224533	-0.330310195684433	-0.04760883003473282	0.0749148353934288	-0.047379616647958755	0.38654014468193054	0.11888501048088074	0.04192176088690758	-0.12360472977161407	-0.10135301947593689	-0.03011985868215561	-0.09482600539922714	-0.10160797089338303	0.08099392056465149	-0.058376673609018326	0.20755267143249512	0.22127066552639008	-0.2809845209121704	0.22567203640937805	0.020919205620884895	-0.0008929031901061535
dhiv1236	-0.16495448350906372	-0.005698913708329201	0.0386970229446888	0.02579621970653534	-0.0718560665845871	-0.024284370243549347	-0.038596756756305695	-0.020116999745368958	-0.05122394487261772	-0.013264497742056847	-0.0924762636423111	0.03279740735888481	0.2764354646205902	0.004959845449775457	0.006690405309200287	0.21096166968345642	-0.1998334676027298	-0.2665727138519287	-0.08622518181800842	0.1067659929394722	0.07183335721492767	0.08583805710077286	0.10064400732517242	0.06763822585344315	-0.18979018926620483	-0.03942727670073509	0.06208787485957146	0.16269244253635406	-0.26254355907440186	0.11190643906593323	-0.04728401079773903	-0.25436773896217346	0.23201917111873627	0.018765635788440704	0.060144245624542236	0.010660534724593163	0.08404504507780075	0.09717259556055069	-0.007486064452677965	0.07035374641418457	0.009883834980428219	-0.027856573462486267	-0.009968106634914875	0.004857021849602461	-0.0792514979839325	-0.06354713439941406	-0.27447277307510376	-0.2067914456129074	0.02359628863632679	-0.061977025121450424	-0.06152062863111496	0.03327545151114464	-0.09488915652036667	0.1384737640619278	0.10690604150295258	0.2488100528717041	-0.002150401007384062	-0.19015081226825714	-0.11721131205558777	-0.18144026398658752	-0.12091972678899765	-0.07018457353115082	-0.0394776426255703	0.0716152936220169	-0.042540665715932846	0.03724079206585884	-0.14945656061172485	0.14168304204940796	0.25372621417045593	0.17830508947372437	-0.10768887400627136	0.0857957974076271	0.02645699493587017	-0.012848643586039543	0.29629623889923096	0.0037844660691916943	0.1456475704908371	-0.23506954312324524	0.1420171856880188	0.13762319087982178	0.34023770689964294	0.20503473281860352	0.1314636915922165	-0.09204800426959991	0.08460995554924011	-0.13266001641750336	-0.008454203605651855	-0.01603587344288826	0.08668525516986847	-0.32552632689476013	0.16651944816112518	-0.0014687544899061322	0.28124332427978516	-0.1633484810590744	-0.11229163408279419	-0.07816866040229797	0.02752598188817501	-0.05084257200360298	0.1751679927110672	0.19176296889781952	-0.01679200865328312	-0.24178077280521393	-0.10925867408514023	-0.027651432901620865	0.026023317128419876	-0.404446005821228	-0.08118316531181335	-0.3032088875770569	0.03556118533015251	0.0220139529556036	0.011548719368875027	-0.067005954682827	0.17749419808387756	-0.11859477311372757	-0.09582825750112534	0.0819098949432373	0.08542051166296005	0.07358161360025406	0.07659909874200821	0.23313310742378235	-0.2745774984359741	0.022156385704874992	0.14769858121871948	-0.16407643258571625	0.17197830975055695	-0.09216748178005219	-0.049247246235609055	-0.0037702752742916346
doma1260	0.10731693357229233	-0.05142845958471298	0.05025370791554451	-0.3422645330429077	-0.27164873480796814	-0.011003599502146244	-0.02139165997505188	0.13639481365680695	-0.12587551772594452	0.06262101233005524	0.08225003629922867	-0.1345827281475067	-0.10822509229183197	-0.21797533333301544	0.20582492649555206	0.09804917871952057	0.08688127249479294	-0.1940731704235077	-0.321809858083725	0.36213231086730957	-0.1498100757598877	-0.13157764077186584	0.08952292799949646	-0.16355755925178528	-0.3702589273452759	-0.1224203035235405	-0.029990077018737793	-0.11815904080867767	0.10551542788743973	-0.1900506168603897	0.12626688182353973	-0.08639626204967499	-0.18937958776950836	0.13708460330963135	-0.060988571494817734	0.23924703896045685	0.060573235154151917	-0.004991013556718826	0.026764215901494026	0.16882017254829407	0.004975851625204086	-0.1243426725268364	-0.09149046242237091	0.013391317799687386	0.032475169748067856	-0.10845715552568436	0.17950579524040222	0.1809145212173462	-0.07227719575166702	-0.2659152150154114	0.037880364805459976	-0.012498436495661736	-0.07086058706045151	0.42220616340637207	-0.1577395796775818	0.1692931354045868	-0.1462586671113968	-0.09103336185216904	0.14803117513656616	-0.14059653878211975	-0.16906537115573883	-0.03911222890019417	0.12022687494754791	-0.2534153461456299	-0.03029222972691059	-0.16622278094291687	-0.17372439801692963	0.1466793566942215	-0.34775152802467346	0.021359289065003395	0.3400154709815979	-0.3502161204814911	-0.07875515520572662	0.1661795973777771	-0.019148249179124832	-0.12387257814407349	0.1961127668619156	-0.12348020076751709	0.05192737653851509	-0.22129160165786743	0.19673189520835876	0.06870180368423462	-0.23161667585372925	-0.24020209908485413	0.09705545008182526	-0.1123749166727066	0.305029034614563	0.10079005360603333	0.05201829597353935	-0.07532884925603867	-0.059570301324129105	0.024654045701026917	0.04372791945934296	0.15414221584796906	-0.11155539751052856	0.5917450189590454	-0.2164948731660843	0.08584229648113251	-0.36403918266296387	-0.09415077418088913	-0.15419548749923706	0.14793460071086884	-0.17256245017051697	-0.05406182259321213	0.03264844790101051	0.12143880128860474	0.18499347567558289	-0.19509027898311615	-0.1601792722940445	0.16634105145931244	-0.36408302187919617	-0.173434779047966	0.21958449482917786	-0.10225876420736313	0.028040625154972076	0.27446237206459045	-0.1631690412759781	0.17050953209400177	0.1461542695760727	-0.060708411037921906	-0.060222651809453964	0.10425285995006561	0.0030498735141009092	-0.2453775256872177	0.004431170877069235	-0.22241179645061493	0.11543595790863037	0.19271497428417206
gang1265	0.04899584874510765	0.1962890475988388	-0.16446948051452637	-0.08051024377346039	0.0958792120218277	-0.14161978662014008	0.09680808335542679	0.17545174062252045	-0.011576598510146141	-0.06044798716902733	-0.1743704229593277	-0.19678469002246857	0.060630761086940765	-0.0004939347854815423	0.06883417069911957	-0.1916995644569397	0.14091914892196655	0.18185600638389587	0.08645559847354889	0.12626242637634277	0.06708595156669617	-0.12657976150512695	-0.0013071701396256685	0.015276267193257809	0.019973408430814743	0.04067222774028778	0.0888017788529396	0.10945571959018707	-0.2744511365890503	0.11943991482257843	-0.25246182084083557	0.051772475242614746	0.04943762347102165	0.21443358063697815	-0.10666581243276596	-0.10819986462593079	-0.05803818628191948	0.08481165766716003	-0.030775990337133408	-0.08855881541967392	0.037586718797683716	0.09832990914583206	0.08039670437574387	0.159762904047966	0.047213904559612274	0.0835108608007431	0.1438521444797516	-0.08850694447755814	0.06414467841386795	-0.10570796579122543	-0.0313846655189991	0.10884710401296616	0.17829835414886475	-0.2116176187992096	0.004717211239039898	-0.047600772231817245	0.015033716335892677	-0.008251877501606941	-0.014789615757763386	0.0338316448032856	-0.10563124716281891	0.10420235246419907	-0.06955897808074951	-0.12136784195899963	0.011341686360538006	-0.06410043686628342	-0.1557265669107437	0.1487414687871933	-0.010282222181558609	0.2436152994632721	-0.10381123423576355	0.026320558041334152	-0.011407344602048397	0.04407830163836479	-0.06201329082250595	0.3237191438674927	0.04438282921910286	0.17491425573825836	-0.15443377196788788	0.06010041758418083	-0.011583587154746056	-0.02973322942852974	-0.047772232443094254	0.29173174500465393	0.0030307727865874767	0.03654901683330536	0.04690379649400711	-0.16687755286693573	0.0331101268529892	0.09246826171875	0.0931781604886055	0.03816835209727287	-0.1695728600025177	0.12199828028678894	0.039962735027074814	0.1512432098388672	-0.0715210884809494	-0.03954324871301651	-0.08896547555923462	0.02245660312473774	-0.09268265962600708	0.07121869176626205	-0.1310337334871292	0.25113996863365173	-0.054268013685941696	0.01343635842204094	0.10447292029857635	-0.14468476176261902	0.2519833743572235	-0.1949446201324463	0.07631214708089828	0.0012806410668417811	0.014542678371071815	-0.12789809703826904	-0.09795206040143967	-0.06230706349015236	-0.13219836354255676	-0.15722455084323883	-0.09103245288133621	-0.14560383558273315	0.14814049005508423	-0.012389350682497025	0.22283296287059784	-0.2786547839641571	0.09111963212490082	-0.062060363590717316	-0.11069530248641968	-0.06352605670690536
garh1243	-0.024689191952347755	-0.019192298874258995	0.3336353302001953	-0.07159584760665894	0.01320960558950901	0.02547416090965271	-0.08894655853509903	0.029795274138450623	-0.17868594825267792	0.10602869838476181	-0.07473821192979813	0.20522278547286987	0.33941325545310974	-0.1369432806968689	-0.20604728162288666	0.05098184943199158	0.08869902789592743	0.15250441431999207	-0.09424910694360733	0.03050733543932438	-0.06240653991699219	-0.12429998815059662	0.04955699294805527	-0.05353615805506706	0.19976581633090973	-0.05930893123149872	-0.25826212763786316	0.016171658411622047	0.2650582492351532	0.018238872289657593	-0.08017934858798981	0.36160171031951904	-0.13927067816257477	-0.025283154100179672	-0.12867328524589539	-0.07512938231229782	-0.006889724172651768	0.0921834260225296	-0.13847686350345612	-0.10389931499958038	0.03850148245692253	0.08300788700580597	-0.014567653648555279	-0.02002706192433834	-0.04977817460894585	-0.08716519176959991	0.020684869959950447	-0.06190840154886246	0.037893202155828476	-0.0620700977742672	0.1478540152311325	0.08452543616294861	-0.17536838352680206	0.24529066681861877	0.17431944608688354	-0.016628386452794075	0.08776554465293884	0.1565159559249878	-0.016561005264520645	0.1353425830602646	-0.05904802680015564	-0.051921285688877106	-0.02177666313946247	-0.1842840164899826	0.013814481906592846	-0.2426922768354416	-0.0696825385093689	0.0686533972620964	-0.09626233577728271	0.11960063874721527	0.0966382548213005	-0.12172535806894302	0.017876556143164635	-0.011396516114473343	-0.35221290588378906	0.22699059545993805	0.03400552272796631	-0.19460898637771606	0.00654132105410099	0.05083577707409859	-0.10489673167467117	0.047806043177843094	0.21208412945270538	-0.09035472571849823	0.1491413116455078	-0.04335424676537514	0.2450382113456726	-0.08294182270765305	0.025968099012970924	-0.06817451864480972	0.15228424966335297	-0.0005841715028509498	-0.042850323021411896	-0.21141931414604187	-0.1347006857395172	-0.13082490861415863	0.10431322455406189	0.03938296437263489	-0.11184336245059967	-0.1084619015455246	-0.05757251754403114	-0.18781821429729462	-0.1468290537595749	0.1941210925579071	-0.002483970485627651	0.002221486298367381	-0.24547797441482544	0.05666162073612213	0.1291881650686264	-0.13301025331020355	-0.07285811752080917	-0.0730259120464325	0.07468143105506897	0.14952579140663147	0.010185320861637592	-0.1556081473827362	0.20307724177837372	0.08948764950037003	0.15336671471595764	-0.19102519750595093	-0.17234785854816437	0.16071046888828278	-0.03915129974484444	0.15255926549434662	-0.0028178927022963762	-0.08949990570545197	0.06961745023727417	-0.0017069731839001179
gawa1247	-0.1896096020936966	-0.08954605460166931	0.040999557822942734	-0.33106550574302673	-0.004385123495012522	-0.0038107498548924923	0.050700411200523376	0.06427793949842453	0.004092127550393343	-0.03378002718091011	0.05235561355948448	0.0427246019244194	-0.0849413350224495	0.033028241246938705	-0.026821207255125046	0.03221976384520531	0.0410892516374588	-0.006760220509022474	-0.06536547094583511	-0.030921192839741707	0.04424147680401802	0.09268670529127121	0.16485576331615448	0.09787103533744812	0.03348158299922943	0.051760125905275345	0.19021569192409515	0.0762626901268959	-0.012662860564887524	0.0001005295489449054	-0.058235298842191696	0.024636581540107727	0.13983125984668732	-0.008738482370972633	0.03540460765361786	-0.10298214107751846	0.1837596297264099	-0.05402160808444023	-0.12424204498529434	-0.013697412796318531	0.02665250189602375	0.05751175433397293	0.08930648118257523	-0.21720601618289948	-0.08256042748689651	0.022726306691765785	0.016654441133141518	-0.011191769503057003	0.03701477125287056	-0.22077085077762604	-0.098691925406456	-0.014012250117957592	-0.14107254147529602	0.08875466138124466	-0.33826643228530884	-0.004161400254815817	-0.05131295323371887	0.1631421446800232	-0.03677303344011307	-0.2805832028388977	-0.23971101641654968	-0.18681271374225616	0.023096846416592598	-0.08671219646930695	-0.012821192853152752	0.19523465633392334	0.1553914099931717	0.010039974004030228	-0.2899688482284546	-0.08283731341362	0.048785947263240814	0.1697317361831665	0.043320417404174805	-0.11060838401317596	0.04118260741233826	0.13169600069522858	0.17303481698036194	0.13651889562606812	-0.14122344553470612	-0.20986239612102509	0.012114426121115685	-0.05636963993310928	-0.06951990723609924	0.16368117928504944	-0.012212761677801609	0.08883488178253174	0.0846499353647232	0.02278684824705124	-0.31696444749832153	-0.2067684829235077	0.0036979771684855223	-0.03324449807405472	-0.06929848343133926	0.19310931861400604	0.027313951402902603	-0.14820879697799683	0.043917372822761536	0.048444341868162155	-0.15051622688770294	-0.18563108146190643	0.22771555185317993	0.05679522454738617	-0.11417384445667267	-0.36368992924690247	0.07682768255472183	0.08449997007846832	0.14537933468818665	-0.052241455763578415	0.04704445227980614	-0.08862969279289246	0.13570888340473175	0.042880140244960785	0.1121455505490303	0.10049682855606079	-0.04885631799697876	0.03950868546962738	0.21730013191699982	-0.01734086498618126	-0.06319443136453629	-0.03359323740005493	-0.24330207705497742	-0.0807754248380661	0.2092566192150116	0.07618611305952072	-0.06595274060964584	-0.03157251328229904	0.18958455324172974	-0.12063789367675781
guja1252	0.059367984533309937	-0.0010771779343485832	0.08658582717180252	0.052211567759513855	0.007215478923171759	-0.027945594862103462	0.006478038616478443	0.04553433880209923	-0.00902421772480011	0.022320710122585297	-0.07885004580020905	-0.036308664828538895	0.06260938197374344	-0.034664131700992584	-0.003925701137632132	0.005410545505583286	0.15157243609428406	-0.015102799981832504	-0.045323166996240616	-0.04717068746685982	0.10990771651268005	-0.01994982361793518	-0.006637481972575188	-0.018641263246536255	0.04577924311161041	0.03506377711892128	-0.006245484109967947	0.05565376579761505	0.03571702539920807	0.0005177926504984498	0.03532271832227707	0.08690742403268814	-0.025147590786218643	0.010863597504794598	0.025963537395000458	-0.0034082005731761456	0.0098339868709445	-0.03560548648238182	0.017582831904292107	0.031114770099520683	-0.003700384870171547	-0.036287449300289154	0.02325834147632122	0.029111521318554878	-0.020236484706401825	-0.040236420929431915	0.03555142134428024	-0.016245432198047638	0.05305635929107666	-0.07157197594642639	-0.003016985720023513	-0.041730400174856186	0.1302933245897293	0.1108870804309845	0.025629913434386253	0.11640036851167679	0.0273860115557909	0.06363289803266525	-0.08148883283138275	0.09334259480237961	0.07971273362636566	-0.05748749151825905	-0.009407109580934048	0.010657208040356636	0.00858845841139555	0.013350321911275387	-0.05409569293260574	-0.09843668341636658	0.036876045167446136	0.011890225112438202	-0.060939520597457886	0.07409756630659103	-0.00654073478654027	-0.0746755301952362	-0.08566070348024368	0.04319314658641815	-0.05813738331198692	0.0014584779273718596	0.055227380245923996	0.04657042771577835	-0.19925114512443542	0.012131324037909508	-0.012292135506868362	-0.0666755884885788	0.041542019695043564	-0.09305806457996368	0.10588239133358002	0.01985868811607361	-0.05513373762369156	0.04606068879365921	0.031961336731910706	-0.0019039784092456102	0.023964839056134224	-0.10379626601934433	-0.04589208588004112	-0.0523231104016304	-0.011534592136740685	0.010632349178195	0.10816513746976852	0.05513172224164009	0.024188246577978134	0.14648213982582092	0.07886091619729996	-0.08462918549776077	-0.0033636766020208597	-0.045658309012651443	0.08258423954248428	0.10281333327293396	0.15919947624206543	-0.013783928006887436	0.026402557268738747	0.023822305724024773	-0.0613652765750885	-0.16408497095108032	-0.003807114902883768	0.07153017818927765	0.05607131868600845	0.10510703921318054	-0.08712257444858551	-0.06004457548260689	0.10344842076301575	-0.00351930339820683	-0.20290647447109222	0.052271343767642975	-0.029212448745965958	-0.02458254061639309	-0.09403665363788605	0.1485424041748047
hind1269	-0.06917593628168106	0.0018529536901041865	0.1363510638475418	0.020241577178239822	0.00439854059368372	0.030586175620555878	-0.010185477323830128	0.041039805859327316	0.008068591356277466	-0.016443252563476562	0.09620597958564758	0.06854245811700821	0.08094198256731033	0.08348178118467331	0.00557017233222723	0.039182957261800766	-0.003185571637004614	0.028647223487496376	-0.0386897474527359	-0.0725843757390976	0.027764199301600456	-0.021162988618016243	-0.012928222306072712	-0.016751496121287346	0.03776045888662338	-0.03923695161938667	0.042544685304164886	-0.05419890955090523	0.0020723920315504074	-0.020894469693303108	-0.023952309042215347	-0.04018910229206085	0.09140137583017349	-0.01157357543706894	-0.018894342705607414	0.014046257361769676	0.0023866768460720778	0.04283491522073746	-0.01740984432399273	-0.0513065904378891	0.006036857143044472	-0.004573520738631487	0.00651698000729084	-0.007765274494886398	0.03356250748038292	-0.04536283016204834	-0.00822506844997406	0.0020441627129912376	0.05258408561348915	-0.0009612846188247204	0.02823713608086109	0.043478600680828094	0.1045103669166565	-0.13740460574626923	0.0979604572057724	-0.012744296342134476	-0.026962997391819954	-0.022720210254192352	-0.0047470685094594955	0.03706194460391998	0.04725964367389679	0.01245142798870802	-0.031680237501859665	-0.038081131875514984	-0.025898756459355354	-0.03396041691303253	0.029999006539583206	0.026360703632235527	-0.0769345685839653	-0.03953006863594055	-0.010694736614823341	-0.04426431655883789	0.01136781182140112	-0.003579365322366357	-0.06320980191230774	0.03738205134868622	0.043919723480939865	-0.053497374057769775	-0.09606419503688812	0.014398924075067043	0.08984512090682983	0.0071036843582987785	-0.07247693091630936	-0.005495055578649044	-0.020900264382362366	0.05541383475065231	-0.007577717769891024	0.0032745306380093098	0.02541370317339897	0.03390553221106529	0.023402640596032143	0.008666254580020905	-0.061792466789484024	-0.018322203308343887	0.025457508862018585	0.05606631189584732	-0.020928751677274704	-0.00780837144702673	0.036520782858133316	0.06062788888812065	-0.04205644503235817	-0.030726555734872818	0.044353071600198746	0.11315827071666718	-0.01640210673213005	-0.025278927758336067	0.062171198427677155	-0.06439068168401718	0.17084065079689026	0.05945666506886482	-0.03129158169031143	-0.0069665261544287205	-0.1595405638217926	-0.05228441208600998	0.005316213238984346	0.06765539944171906	0.041013672947883606	-0.01610073819756508	-0.07504989951848984	-0.05162288248538971	0.1100611761212349	-0.002198895439505577	0.039287686347961426	0.027710862457752228	-0.04819202050566673	0.06847677379846573	0.017454465851187706	-0.0634574219584465
indu1241	0.1636214554309845	-0.11274823546409607	-0.2378285676240921	-0.06035571172833443	0.15564796328544617	-0.007326904684305191	-0.15190806984901428	0.18963976204395294	-0.22853274643421173	0.19379974901676178	0.18736262619495392	0.13534888625144958	-0.268824964761734	-0.20207029581069946	0.028852345421910286	0.030419783666729927	0.13500550389289856	-0.05086267367005348	-0.29428336024284363	0.15586163103580475	-0.2917487621307373	0.031768638640642166	0.1363440603017807	-0.15593136847019196	-0.217206671833992	0.0036718109622597694	0.14447300136089325	-0.2774454355239868	-0.40898147225379944	-0.039222393184900284	-0.04086821898818016	0.13696891069412231	0.04273261874914169	0.21307288110256195	0.11955363303422928	-0.0825057402253151	-0.26936325430870056	-0.02726508304476738	-0.011839278973639011	-0.07374625653028488	-0.005935858469456434	-0.10057193785905838	0.002666991204023361	0.01015846710652113	-0.1964631974697113	0.04696057736873627	0.0944814383983612	0.2253125160932541	-0.032820627093315125	-0.12072884291410446	-0.24867674708366394	0.15816274285316467	-0.12391027063131332	-0.15583649277687073	-0.05146920680999756	0.375013142824173	0.040171559900045395	-0.18117104470729828	0.08805667608976364	0.18259793519973755	-0.040640510618686676	0.06163833662867546	0.18081629276275635	-0.17340530455112457	0.028336407616734505	-0.20630906522274017	0.04863050580024719	0.2861693501472473	-0.25903892517089844	0.19702021777629852	-0.11383259296417236	-0.3487732708454132	0.11714714765548706	0.11235032230615616	0.05411651358008385	-0.32715603709220886	0.20529639720916748	-0.01713883876800537	0.13187344372272491	0.19485631585121155	0.20630963146686554	0.019300976768136024	0.24864916503429413	-0.21751967072486877	-0.1249290406703949	0.19814133644104004	0.14030511677265167	-0.0211352426558733	0.16929714381694794	-0.0145016610622406	0.127241849899292	-0.050167374312877655	-0.23392994701862335	0.08478119224309921	-0.2048921287059784	-0.13368649780750275	0.19131925702095032	-0.16165612637996674	-0.27555686235427856	-0.026123419404029846	0.17514656484127045	0.06285909563302994	0.007332879584282637	-0.39152076840400696	-0.3269799053668976	-0.046187251806259155	0.14264020323753357	-0.12898272275924683	-0.19530238211154938	-0.07825367152690887	0.2854465842247009	-0.03879009932279587	0.08442341536283493	0.14583557844161987	-0.03749941289424896	0.1848766803741455	0.08514626324176788	-0.2144932746887207	-0.1589631736278534	0.10050921142101288	0.012925470247864723	-0.16858920454978943	0.07351560890674591	-0.19919587671756744	0.017063453793525696	-0.12689606845378876	-0.28266364336013794	-0.012032625265419483
jaun1243	-0.017674535512924194	-0.3011750280857086	0.0969763919711113	0.27997028827667236	-0.06891340762376785	0.22840671241283417	-0.1050899401307106	-0.05471456050872803	-0.018398214131593704	0.12092652171850204	-0.06348457932472229	-0.13434374332427979	0.0038771952968090773	-0.16622592508792877	0.08866693824529648	-0.005699368193745613	-0.16894210875034332	-0.14867912232875824	0.07858375459909439	-0.18308109045028687	0.1654747575521469	0.026132460683584213	0.1420716494321823	-0.1930564045906067	-0.25411665439605713	0.20771728456020355	-0.17087125778198242	0.17206241190433502	0.12298399955034256	-0.1978798508644104	0.11295709758996964	0.2570160925388336	0.13663730025291443	0.04451053589582443	-0.1589120477437973	-0.086290143430233	-0.22420372068881989	-0.1089014783501625	-0.002007915871217847	-0.34437400102615356	0.01917821355164051	0.17998692393302917	-0.04366065189242363	-0.052760589867830276	0.04363851994276047	0.04838915169239044	0.1551816761493683	0.2126617282629013	-0.2257588803768158	-0.18372893333435059	-0.16388273239135742	0.21815675497055054	0.3242487609386444	-0.08703268319368362	0.04321559891104698	-0.41103503108024597	-0.0697343721985817	-0.009610237553715706	-0.03659798577427864	-0.10931692272424698	0.053956374526023865	-0.024117132648825645	0.11703741550445557	-0.11303132027387619	0.04271706938743591	0.027952207252383232	-0.06930823624134064	0.04897133633494377	-0.1509554386138916	-0.1034974604845047	0.03164872154593468	-0.07912231981754303	-0.027028338983654976	0.21502244472503662	-0.13278166949748993	0.10016085207462311	-0.14248964190483093	0.11600374430418015	0.06200201064348221	-0.16798211634159088	0.08623507618904114	0.1549786925315857	0.22803710401058197	0.128795325756073	0.09961897879838943	0.2681867182254791	0.14291436970233917	0.013761909678578377	-0.3304448127746582	0.11466355621814728	0.19971732795238495	-0.04032354801893234	-0.20545685291290283	0.36896783113479614	-0.2771140933036804	0.06260800361633301	0.09674236923456192	-0.12158634513616562	-0.16107119619846344	0.020448794588446617	0.10818524658679962	-0.1364586502313614	0.17255839705467224	0.036914508789777756	-0.19456589221954346	-0.20308880507946014	0.3995821475982666	-0.3129623532295227	0.22131399810314178	0.08825197070837021	0.04432149976491928	-0.2938641905784607	-0.3220323920249939	-0.013894373551011086	-0.08562355488538742	-0.031658563762903214	-0.026043234393000603	-0.0009897524723783135	0.23006300628185272	-0.002454392844811082	-0.061623167246580124	0.007367836311459541	0.07811739295721054	-0.08957235515117645	0.13262778520584106	-0.05393379554152489	-0.12472737580537796	-0.2852429151535034
kach1277	-0.10515754669904709	-0.03005264326930046	-0.04110541567206383	0.20178773999214172	-0.07875990867614746	-0.0013292026706039906	0.045166973024606705	0.10254545509815216	0.06432826817035675	-0.08526448160409927	-0.05948512256145477	-0.01151979062706232	0.22763954102993011	-0.07747279852628708	0.08293230086565018	0.19509734213352203	0.1358264684677124	-0.08957751840353012	0.20442281663417816	0.03341436758637428	0.0759367048740387	0.07605395466089249	0.05425902083516121	-0.19455642998218536	0.16596977412700653	0.06538254022598267	-0.08627050369977951	-0.07040318101644516	0.05583753436803818	-0.00239834887906909	0.06852945685386658	0.1335076242685318	-0.1502997726202011	0.056199781596660614	-0.13410866260528564	-0.04515555873513222	0.01792214810848236	0.11342605948448181	-0.09692545980215073	-0.009748304262757301	-0.005126125179231167	0.04872724786400795	-0.08574514091014862	0.05406314507126808	-0.13186104595661163	0.021487219259142876	0.02284139208495617	0.18903490900993347	-0.023787900805473328	-0.10209710896015167	0.17443102598190308	0.0667482540011406	0.013325279578566551	-0.24086163938045502	0.18434633314609528	-0.1355932056903839	0.12277442961931229	-0.21215781569480896	0.12350111454725266	0.031809739768505096	0.16557393968105316	0.08002708852291107	0.13539817929267883	-0.006616292521357536	-0.042711835354566574	-0.148184671998024	-0.09687446802854538	-0.3099308907985687	0.1440380960702896	-0.37508687376976013	-0.12199337780475616	-0.06956443190574646	0.01683017797768116	-0.018917622044682503	0.04458644613623619	-0.04212865233421326	0.02331112138926983	0.07117566466331482	0.061276279389858246	-0.1685604751110077	-0.17446577548980713	0.04636825993657112	0.14730842411518097	0.0009993327548727393	0.0007237736717797816	-0.1597900241613388	0.06484414637088776	0.01547458115965128	-0.15422017872333527	0.12342709302902222	0.04841675981879234	-0.012008820660412312	0.12007150799036026	0.06627600640058517	0.17601953446865082	0.345622718334198	0.007497464306652546	0.0972626805305481	-0.28399088978767395	0.08284945040941238	-0.21056155860424042	0.29591232538223267	-0.12003753334283829	0.15469875931739807	0.04449139162898064	0.23882083594799042	-0.15091107785701752	0.07440050691366196	-0.16994701325893402	-0.20321203768253326	0.041774947196245193	0.1804930567741394	-0.084246926009655	-0.11859130859375	-0.04589230567216873	-0.11606620252132416	-0.130621075630188	0.14872971177101135	0.04679244011640549	-0.0479850098490715	0.19367192685604095	0.01653398387134075	-0.08046160638332367	-0.08197671920061111	0.1224851980805397	0.07615765184164047	-0.2544267177581787	-0.03903122618794441
kala1372	-0.31125131249427795	0.1395270973443985	-0.12094616889953613	0.02055268920958042	0.08328504860401154	-0.08903218060731888	0.10274011641740799	0.14175820350646973	-0.011347843334078789	0.15590548515319824	-0.23799766600131989	-0.07157179713249207	-0.20419365167617798	-0.18343627452850342	-0.021839765831828117	-0.11336537450551987	0.1781652271747589	0.04773862659931183	0.11355321854352951	-0.10564201325178146	-0.2145276814699173	-0.07840598374605179	0.016173623502254486	0.1525689661502838	-0.08401653170585632	-0.0817713588476181	0.03985550254583359	-0.06471219658851624	0.15110379457473755	0.0704072117805481	-0.16848249733448029	0.09988804161548615	0.09806519001722336	0.045041993260383606	0.03910824656486511	-0.07717576622962952	-0.04636549949645996	0.09259641170501709	-0.004557731095701456	-0.0030575033742934465	0.02039606310427189	0.0797729343175888	-0.09607107937335968	0.058185987174510956	0.09310474246740341	-0.0578429214656353	-0.0793459564447403	-0.1496831327676773	-0.08405553549528122	-0.24647925794124603	-0.011383043602108955	-0.14640073478221893	-0.06229579076170921	0.09207182377576828	-0.2542048990726471	-0.12010934948921204	-0.30913999676704407	0.05104624480009079	0.05971659719944	-0.17990761995315552	0.05032948777079582	0.1146765872836113	0.08496023714542389	0.20507220923900604	0.05145799368619919	0.19748403131961823	-0.08152744919061661	-0.15828049182891846	0.05222894996404648	-0.05009983107447624	0.21266832947731018	0.3160592317581177	0.003019173862412572	-0.005001159384846687	0.12512849271297455	-0.24053438007831573	-0.14725261926651	-0.2781250774860382	0.05964228883385658	-0.019722741097211838	0.08445848524570465	-0.013885670341551304	-0.1414758861064911	-0.18320795893669128	-0.12650835514068604	-0.06977187842130661	0.15972641110420227	-0.09415904432535172	-0.05675612390041351	-0.3780767023563385	0.1034303829073906	0.021088775247335434	-0.12287652492523193	0.28984561562538147	-0.12959523499011993	-0.012206973508000374	-0.05577543377876282	-0.05246860161423683	-0.38583266735076904	0.1741408109664917	0.12394875288009644	0.0663178488612175	0.27793169021606445	0.06727129220962524	-0.1478128731250763	0.2261389046907425	-0.008931811898946762	0.20235328376293182	0.012737896293401718	0.01943456381559372	0.1927940845489502	-0.14256422221660614	0.2799759805202484	-0.21694326400756836	0.06131366267800331	-0.07174016535282135	-0.028374511748552322	-0.33606699109077454	0.10252967476844788	0.14953526854515076	0.1259848028421402	-0.13551421463489532	0.20967866480350494	0.2812950611114502	-0.09384424239397049	-0.15411779284477234	0.10588204860687256	-0.08609192073345184
kala1373	-0.26079922914505005	0.15224546194076538	-0.36404716968536377	0.0412173755466938	-0.05279373750090599	0.05781686678528786	-0.030053405091166496	-0.13443297147750854	-0.03156470134854317	-0.06827806681394577	-0.011267258785665035	0.032387759536504745	0.2983322739601135	0.17631490528583527	-0.10198475420475006	0.15668614208698273	0.024359220638871193	-0.003304851008579135	0.0012863900046795607	0.03985690698027611	-0.011953680776059628	-0.03525398299098015	0.029271923005580902	-0.042563509196043015	0.20046967267990112	0.10434699058532715	0.014011843129992485	0.07177960872650146	-0.19816668331623077	0.0042186337523162365	0.09014548361301422	-0.01225866936147213	-0.021890312433242798	-0.06735321879386902	0.032572824507951736	0.08394245058298111	-0.08738090097904205	0.19938772916793823	-0.1413717120885849	-0.008980628103017807	0.019379226490855217	0.08881770819425583	0.14929701387882233	0.01947878859937191	0.1419975608587265	-0.20145398378372192	-0.010350238531827927	0.37258729338645935	0.12062201648950577	-0.15924552083015442	-0.06281512975692749	-0.39663490653038025	0.052377283573150635	-0.15539254248142242	0.04787528142333031	0.10111774504184723	-0.2169981300830841	-0.04389156401157379	0.01257668063044548	0.09330461919307709	0.21929781138896942	-0.11365252733230591	-0.08007100224494934	0.07569122314453125	-0.05028049275279045	0.0790238007903099	-0.06802742183208466	-0.1759394109249115	-0.13987360894680023	-0.005093451589345932	0.3954901695251465	0.2666928172111511	0.04270443692803383	0.0005317127797752619	0.06525465101003647	0.09617743641138077	0.14288178086280823	-0.3200764060020447	-0.055362436920404434	-0.02955106645822525	0.07385630160570145	-0.03854219242930412	-0.21557149291038513	0.16736792027950287	-0.14255961775779724	0.19538691639900208	0.1490800380706787	0.021904779598116875	0.30196335911750793	-0.08352496474981308	0.12404857575893402	0.03311856836080551	-0.10143540054559708	0.3216932713985443	-0.07008656114339828	-0.044219717383384705	-0.035893891006708145	-0.18042686581611633	-0.1494126170873642	-0.037658415734767914	0.06964640319347382	0.09256898611783981	-0.20086637139320374	-0.2430797964334488	0.055616460740566254	0.0883588120341301	0.26864710450172424	0.2106247842311859	-0.22620227932929993	-0.2884521484375	0.054014772176742554	-0.14645494520664215	0.06729824095964432	0.11545712500810623	0.029560759663581848	0.1593969464302063	-0.1306883841753006	0.23538705706596375	0.2658803164958954	0.11814885586500168	-0.11857768893241882	0.03554060310125351	-0.11620312929153442	-0.11353815346956253	-0.054580118507146835	0.03574460372328758	-0.06534479558467865	0.05917485058307648
kash1277	0.053441304713487625	0.022973915562033653	-0.0030173480045050383	0.08613857626914978	0.00158657506108284	-0.054851844906806946	0.012357721105217934	-0.1178622767329216	0.012543939054012299	0.032661959528923035	0.0490892268717289	-0.0771186426281929	0.1425943821668625	-0.07461357861757278	-0.04857218638062477	-0.07175134122371674	0.0952058658003807	0.024442020803689957	-0.022096140310168266	0.0030045812018215656	-0.06842602789402008	0.0014592688530683517	-0.022676844149827957	0.07962514460086823	0.0004306735354475677	0.025981837883591652	-0.10521245002746582	-0.008103338070213795	0.07594677805900574	-0.020148979499936104	-0.055755868554115295	-0.10730872303247452	0.12062659114599228	-0.05264568328857422	0.043465614318847656	0.035866498947143555	0.059338025748729706	0.018586955964565277	0.00847554113715887	0.07725555449724197	0.0033502185251563787	0.02054288238286972	-0.020763201639056206	0.04687659814953804	0.07596440613269806	0.02433924376964569	0.05083198845386505	0.04003676772117615	0.012604859657585621	0.06730917096138	0.026071570813655853	0.08000237494707108	-0.2466779202222824	-0.10964066535234451	-0.14272178709506989	0.12066588550806046	0.028805330395698547	0.08068741858005524	-0.031931664794683456	0.1392270028591156	0.11288613080978394	0.03469826281070709	0.005882399622350931	0.09232901781797409	-0.003775301156565547	0.04971238225698471	-0.020807400345802307	-0.17167648673057556	0.06962906569242477	0.15072105824947357	-0.08527617901563644	-0.16896022856235504	-0.001431732322089374	-0.12356133759021759	0.24618223309516907	-0.07242138683795929	-0.09022624045610428	-0.146471306681633	-0.10445734858512878	-0.07736852020025253	0.05232224613428116	-0.06882735341787338	0.11548466235399246	0.053846631199121475	0.09351232647895813	-0.15377214550971985	-0.11064334213733673	-0.010449342429637909	0.05750288441777229	0.06600433588027954	-0.024713948369026184	0.005288332235068083	-0.012982295826077461	0.026682058349251747	0.1100040003657341	-0.0530695766210556	-0.04139773175120354	-0.010744452476501465	-0.1935187429189682	-0.11330998688936234	-0.0488993339240551	0.165436789393425	0.1548660844564438	-0.04225728660821915	-0.009351473301649094	-0.23030686378479004	-0.04222463443875313	-0.0821523442864418	0.008474661968648434	-0.01424030028283596	0.09086073935031891	0.010105755180120468	0.03880484774708748	0.049859266728162766	-0.019273508340120316	-0.0430486798286438	0.05642560496926308	0.08916690200567245	0.2912023365497589	0.16078069806098938	-0.16214905679225922	0.002591189229860902	0.17533530294895172	-0.03736744821071625	-0.03354038670659065	0.004595018457621336	-0.0842028334736824	-0.1326761245727539
khet1238	0.03316173702478409	-0.05086000636219978	-0.005092428531497717	0.06282271444797516	-0.14588148891925812	-0.04064643010497093	-0.033745914697647095	0.06757781654596329	-0.08473362773656845	0.25555285811424255	-0.053490638732910156	0.06367837637662888	-0.08408866822719574	-0.16499923169612885	0.026844564825296402	0.0071557010523974895	0.046932924538850784	-0.09048424661159515	0.12191030383110046	-0.09661751240491867	-0.13369664549827576	0.0570300929248333	-0.11141278594732285	0.2854576110839844	0.03277885913848877	-0.14667832851409912	0.08817074447870255	-0.11125167459249496	0.038398098200559616	0.07822207361459732	0.19084079563617706	-0.12395557016134262	0.27880623936653137	0.29624107480049133	0.04473485052585602	0.16646133363246918	0.08019120991230011	-0.083938367664814	-0.20782169699668884	0.017971191555261612	-0.09998262673616409	-0.20349672436714172	-0.21676486730575562	0.22941669821739197	-0.10862068831920624	0.19153456389904022	-0.30907753109931946	-0.043401751667261124	-0.08520349115133286	-0.1858392357826233	-0.10742705315351486	-0.3905127942562103	-0.0866033285856247	0.062011804431676865	0.20735974609851837	-0.111787348985672	-0.07399659603834152	-0.014238077215850353	0.2726428210735321	0.30363887548446655	0.06685101240873337	0.18810637295246124	0.12614896893501282	-0.06211181357502937	0.032831672579050064	0.17988204956054688	0.1749199777841568	-0.024016035720705986	-0.16764116287231445	-0.15280309319496155	0.12567131221294403	0.16497758030891418	-0.22390292584896088	-0.20747071504592896	0.37155675888061523	0.17486906051635742	0.10758933424949646	0.0016886335797607899	0.060717783868312836	0.1401451826095581	-0.08418413996696472	0.2042611688375473	0.17751263082027435	0.2504947781562805	-0.20141221582889557	-0.1971486210823059	0.45526358485221863	0.24002470076084137	0.2311505824327469	-0.16861653327941895	0.03364233672618866	-0.07512056082487106	0.048323679715394974	-0.03498907759785652	0.17969098687171936	-0.1760035753250122	0.20504365861415863	0.15006452798843384	-0.009212658740580082	-0.02604905143380165	0.24751226603984833	0.03764374181628227	-0.021337995305657387	0.05372924730181694	0.27224886417388916	-0.02174626663327217	-0.09290561079978943	-0.22257427871227264	0.43058452010154724	0.01209233421832323	-0.021012336015701294	0.0848357155919075	-0.09570082277059555	0.11704801768064499	-0.22217506170272827	-0.3087179362773895	0.044088978320360184	0.20980365574359894	0.32979321479797363	0.2509475350379944	0.1383121907711029	-0.11895867437124252	0.04684978723526001	0.04685948044061661	0.1408904790878296	0.41172415018081665	-0.015934685245156288	-0.35106927156448364
khow1242	-0.14496707916259766	-0.06179661676287651	-0.2203225940465927	-0.1532319337129593	-0.06468057632446289	-0.03800439462065697	-0.03048194944858551	0.06975825130939484	-0.09752266108989716	0.0953354761004448	-0.29490926861763	-0.009156391024589539	0.06879332661628723	0.05369330197572708	-0.07520707696676254	0.06846756488084793	0.08299258351325989	0.0606524795293808	-0.12312939018011093	0.21073536574840546	0.1166970506310463	-0.04691995680332184	0.0015118494629859924	-0.1130889356136322	-0.1289301961660385	0.182645782828331	0.0705544725060463	0.0491950549185276	-0.07256611436605453	0.050007808953523636	0.12231514602899551	-0.23819640278816223	0.10945495218038559	-0.06453495472669601	-0.07058855146169662	-0.040447745472192764	0.08094709366559982	-0.010461842641234398	-0.08432511240243912	-0.11955626308917999	-0.007153769489377737	-0.12011584639549255	0.05192846804857254	-0.01093916967511177	-0.07780952751636505	-0.06819942593574524	-0.2824100852012634	-0.1337503343820572	-0.18449881672859192	-0.057466357946395874	0.06960318237543106	-0.17601385712623596	-0.05349418520927429	0.24458257853984833	-0.35323575139045715	-0.11900900304317474	-0.0074736508540809155	0.19420261681079865	0.04328536614775658	-0.010132595896720886	-0.0404684916138649	0.058754004538059235	-0.009470486082136631	-0.04620223119854927	0.012813422828912735	-0.11428201198577881	0.06842745095491409	0.3279813826084137	-0.17813757061958313	0.12490668147802353	-0.14071917533874512	0.1460033804178238	-0.007408494595438242	0.034623678773641586	-0.053286466747522354	-0.2769641876220703	-0.13116875290870667	-0.11811286956071854	0.05132155865430832	0.07574190944433212	-0.053555671125650406	-0.03953315317630768	-0.13509026169776917	-0.22393101453781128	0.15666601061820984	-0.031900253146886826	-0.4466783106327057	0.01783481240272522	0.0034523692447692156	0.08253207802772522	-0.09565442055463791	0.02781321294605732	0.2760935127735138	0.25572511553764343	0.04531927779316902	-0.011880862526595592	0.09065912663936615	0.05106096714735031	-0.15144911408424377	0.08875592052936554	0.21323491632938385	-0.015560436062514782	-0.0837377980351448	-0.02954287640750408	-0.026679513975977898	0.1597442626953125	-0.059587378054857254	-0.16673453152179718	-0.04334806650876999	0.035356588661670685	0.16244325041770935	-0.10412278771400452	0.07180982083082199	0.02494228444993496	-0.01604287326335907	-0.04074278101325035	-0.1518951803445816	-0.013400767929852009	0.4223577082157135	0.30717670917510986	-0.09990391135215759	-0.03947928175330162	0.14740857481956482	0.18242861330509186	-0.05685246363282204	-0.07270978391170502	0.03216763958334923	0.1821853369474411
kohi1248	-0.1826012134552002	-0.18987631797790527	-0.07470951229333878	-0.1302124261856079	-0.03820160776376724	-0.05386608839035034	0.04586171731352806	-0.018119078129529953	0.05111731216311455	-0.129847452044487	0.051340945065021515	-0.06243981048464775	-0.05376676470041275	-0.09469301998615265	-0.17601630091667175	-0.096371129155159	-0.12691958248615265	-0.033746521919965744	-0.013001149520277977	-0.007374356500804424	0.0900416225194931	-0.24223503470420837	-0.3642631769180298	-0.3692624568939209	-0.0027637421153485775	0.20364339649677277	-0.28631189465522766	0.24100586771965027	0.1175224781036377	0.014499718323349953	0.005910709500312805	0.03286370635032654	-0.17151226103305817	-0.0759795680642128	-0.2588111460208893	-0.07400115579366684	-0.2519729435443878	0.2217925786972046	-0.23158764839172363	0.09481799602508545	0.13124802708625793	0.0446501225233078	-0.044435638934373856	-0.009230869822204113	0.2258417010307312	-0.029618827626109123	0.125806987285614	-0.26002228260040283	-0.1843940019607544	0.05408124253153801	-0.04866497963666916	-0.11455372720956802	-0.14567111432552338	-0.13843515515327454	0.23318372666835785	-0.10685325413942337	-0.030596520751714706	-0.05751253291964531	0.4806021749973297	-0.053600557148456573	0.04435518756508827	0.061600230634212494	-0.19980213046073914	0.1460307538509369	0.01418957021087408	-0.20179903507232666	0.0654163733124733	0.15913952887058258	0.03238913416862488	0.08052071183919907	0.009795872494578362	-0.027037296444177628	0.12092939764261246	0.06804906576871872	0.22901318967342377	-0.31421133875846863	0.1497081071138382	0.1810549944639206	-0.334734708070755	-0.10792697966098785	-0.40178176760673523	0.4483126103878021	0.21874092519283295	0.2041824758052826	0.21551275253295898	0.2563568651676178	0.31519076228141785	-0.20749080181121826	0.18840767443180084	-0.26274317502975464	-0.32067131996154785	-0.009461937472224236	0.07824278622865677	0.13130506873130798	0.13789182901382446	0.05055467039346695	-0.15996697545051575	-0.11486154049634933	-0.15368841588497162	-0.17258358001708984	0.018741369247436523	0.17805036902427673	0.08546168357133865	-0.11286424100399017	-0.015524801798164845	-0.039169810712337494	0.21236471831798553	0.03298959508538246	-0.20681902766227722	0.24383686482906342	0.02150316908955574	0.07937804609537125	0.3193472623825073	-0.025753241032361984	0.0789870172739029	0.15637506544589996	-0.004665448796004057	-0.21089741587638855	0.22573737800121307	0.09429358690977097	-0.19662530720233917	0.1321474313735962	0.4081697165966034	-0.06498945504426956	0.10472652316093445	0.012602615170180798	0.1613384187221527	-0.3586024045944214
konk1267	-0.22467030584812164	-0.024002790451049805	0.2356456071138382	0.024112941697239876	-0.018295863643288612	-0.0022364286705851555	-0.001611136132851243	-0.2817729413509369	0.031228043138980865	0.13492929935455322	0.14612720906734467	-0.12779566645622253	0.11366700381040573	-0.24471548199653625	0.22767241299152374	0.12294653803110123	-0.3119238615036011	-0.1684694141149521	0.06095332279801369	-0.063234843313694	-0.03924454003572464	0.10150499641895294	-0.014929857105016708	-0.12884843349456787	0.05097256973385811	-0.03179451823234558	0.1933843493461609	-0.11184988170862198	-0.14551809430122375	-0.016299763694405556	0.08893473446369171	0.3159809708595276	-0.15970014035701752	0.1797717958688736	-0.04699266329407692	-0.03935929387807846	0.10574650764465332	0.23787352442741394	0.06299722194671631	-0.022447165101766586	-0.038292523473501205	-0.07860289514064789	-0.011914931237697601	0.016287341713905334	0.08364506810903549	-0.05095077306032181	-0.17344960570335388	0.015631992369890213	0.17883510887622833	-0.09386173635721207	-0.012382902204990387	-0.1597459316253662	0.03369446471333504	0.07888072729110718	-0.17773032188415527	-0.1379481554031372	0.05144235119223595	0.04785265028476715	0.08783832937479019	0.03551497310400009	-0.05997561663389206	-0.024852817878127098	-0.062923863530159	-0.06583728641271591	-0.03596627339720726	0.040648914873600006	-0.12919434905052185	-0.10131171345710754	-0.13152025640010834	-0.0160311758518219	-0.11101052165031433	0.17330659925937653	-0.03669489920139313	-0.0034484004136174917	0.08749614655971527	0.09633395820856094	-0.14457915723323822	-0.04289396479725838	-0.061559733003377914	0.0716220885515213	-0.2005678415298462	0.02690606191754341	-0.18499915301799774	-0.20180729031562805	-0.027928529307246208	-0.08322210609912872	0.01876632496714592	0.028030093759298325	-0.13619031012058258	-0.08954627066850662	0.1412896364927292	0.0210639089345932	-0.029136721044778824	0.06936284899711609	-0.1920202225446701	0.08079071342945099	0.08199279755353928	0.05037318170070648	0.0025752957444638014	0.17395621538162231	-0.25538527965545654	-0.009305285289883614	0.23839934170246124	-0.36609572172164917	0.011968820355832577	0.1106937900185585	-0.1998399794101715	0.004367569461464882	0.054496631026268005	-0.23492860794067383	0.011952481232583523	0.3074409067630768	0.12830327451229095	0.005276169627904892	-0.008807809092104435	-0.22046564519405365	-0.02848818525671959	-0.08623040467500687	-0.18880732357501984	-0.23111259937286377	-0.3296639323234558	0.0720038190484047	0.011899839155375957	-0.29154300689697266	-0.07846289128065109	0.03631632402539253	0.012036601081490517	-0.14724841713905334
kuma1273	0.07178337126970291	-0.0035816647578030825	0.12477078288793564	-0.05102924630045891	0.02261371910572052	0.025466030463576317	0.005528511945158243	0.10485664010047913	0.03179406002163887	0.042953889816999435	0.13636940717697144	0.04769451543688774	0.1915639489889145	-0.18029363453388214	-0.0013141436502337456	-0.06937681138515472	-0.07774227857589722	0.015188649296760559	-0.00020274876442272216	-0.024546975269913673	0.058919865638017654	-0.014809215441346169	-0.03445625677704811	-0.023032577708363533	0.05956325680017471	-0.036832500249147415	-0.09582607448101044	0.015009782277047634	0.1424429714679718	-0.0071638706140220165	0.10797637701034546	-0.03384363651275635	-0.06757541745901108	-0.03639499470591545	0.016086256131529808	0.006955874618142843	-0.0702434852719307	-0.09844538569450378	0.010226914659142494	-0.027393775060772896	-0.010087825357913971	0.027300279587507248	0.030582444742321968	-0.03615975007414818	0.004919183906167746	-0.016362834721803665	0.03996206820011139	-0.014684751629829407	0.0678664818406105	0.06717312335968018	-0.009116350673139095	0.045891713351011276	0.07540784776210785	-0.012217525392770767	0.07236640900373459	-0.1706845760345459	0.11132962256669998	-0.026989666745066643	0.02442883886396885	0.013300896622240543	-0.09532757848501205	-0.03780218958854675	0.01432092860341072	0.07324491441249847	0.008021051064133644	0.09175750613212585	0.08709099888801575	0.03174951672554016	0.04403047636151314	-0.11120233684778214	0.008947683498263359	0.0212771724909544	-0.012959079816937447	0.07074945420026779	-0.07046420127153397	-0.08852650225162506	-0.04894339665770531	0.20518329739570618	-0.03739933669567108	-0.06758818030357361	0.16303296387195587	-0.07573887705802917	0.1742839813232422	-0.05781864374876022	-0.07661067694425583	-0.05044224485754967	0.1441642791032791	-0.014504185877740383	-0.038162071257829666	-0.07480377703905106	-0.07384688407182693	-0.007404299918562174	0.1461421102285385	0.07897565513849258	-0.10898780822753906	-0.02677466906607151	-0.02957211621105671	-0.008666861802339554	0.07931755483150482	-0.05421788990497589	0.041886016726493835	-0.03818509727716446	-0.12304753810167313	-0.07139593362808228	-0.036643579602241516	0.14503133296966553	-0.04720807820558548	0.006581226829439402	-0.12585297226905823	-0.02248765341937542	0.043345920741558075	-0.035256605595350266	0.011961111798882484	-0.005389463156461716	0.04894096776843071	-0.0252669807523489	-0.06080062687397003	0.10130349546670914	-0.11442030221223831	0.05275183543562889	-0.024644216522574425	0.021055757999420166	0.1561252474784851	-0.018659265711903572	-0.019584666937589645	-0.06782762706279755	-0.055142998695373535	0.006271170452237129
kura1247	-0.1266535073518753	-0.035766780376434326	-0.29177042841911316	0.07667656987905502	0.1258191615343094	-0.05635900795459747	0.027741508558392525	0.1958388090133667	0.17520636320114136	-0.21019737422466278	0.12434422969818115	0.22559905052185059	-0.07785439491271973	-0.32766252756118774	0.2694079279899597	0.1435466855764389	-0.19461330771446228	-0.005230408627539873	0.23089724779129028	-0.31284573674201965	-0.15280425548553467	-0.0005846288986504078	0.15918248891830444	0.3208023011684418	-0.1096356064081192	-0.07443343847990036	0.1628141552209854	-0.07208643108606339	0.15775878727436066	0.20510809123516083	0.3377867341041565	0.18978294730186462	-0.16694435477256775	0.10375764220952988	-0.1793064922094345	-0.18543684482574463	0.14351309835910797	0.32628336548805237	0.2621946930885315	-0.09078702330589294	-0.09696512669324875	-0.2692425847053528	-0.0988093763589859	0.19423598051071167	0.027081305161118507	-0.1319703757762909	-0.21558290719985962	0.1872183233499527	-0.06358366459608078	-0.3043478727340698	-0.149305060505867	0.007605766411870718	0.0771062821149826	0.21921361982822418	-0.15068529546260834	-0.3304018974304199	-0.3387638032436371	-0.011566597037017345	0.062029510736465454	0.03225042298436165	-0.09241976588964462	0.1343172788619995	-0.23204827308654785	0.03303061053156853	-0.04424476996064186	0.2698269486427307	0.1662965565919876	0.3318871259689331	-0.0689091682434082	-0.000589034694712609	0.05365491285920143	0.023639598861336708	0.0032211614307016134	0.08430706709623337	0.37053364515304565	-0.16817213594913483	0.24254535138607025	-0.06091080233454704	-0.039319880306720734	0.0031906720250844955	-0.2211153507232666	-0.34410396218299866	0.1866605132818222	0.1868283599615097	0.0865146592259407	0.11066646128892899	0.050814349204301834	0.034695371985435486	-0.034932348877191544	0.12893927097320557	0.0007494442397728562	-0.04900851845741272	-0.36428794264793396	0.4259525239467621	-0.24299027025699615	0.13457785546779633	-0.24750185012817383	-0.01565868780016899	-0.23493275046348572	-0.12720946967601776	-0.07315418869256973	-0.05656496807932854	-0.19169698655605316	-0.2561192214488983	-0.06245828792452812	-0.017548272386193275	0.0463736392557621	-0.08977054059505463	-0.16502411663532257	-0.06337558478116989	-0.040482062846422195	-0.03573496639728546	-0.2593669891357422	0.006651352159678936	-0.10430905222892761	-0.06859708577394485	-0.06346666067838669	0.16859124600887299	0.008423786610364914	0.1285153031349182	-0.4029982089996338	0.13175010681152344	0.2064770758152008	0.10647495836019516	-0.09165216237306595	-0.2797365188598633	0.19728057086467743	0.21380464732646942
laur1248	-0.18996216356754303	-0.013363606296479702	0.10728468745946884	0.28451019525527954	0.06103959307074547	0.041670311242341995	-0.0518324188888073	-0.053866881877183914	0.008456071838736534	-0.10898786783218384	-0.058659084141254425	0.20527781546115875	-0.03623221069574356	0.050788864493370056	0.07340608537197113	-0.20476549863815308	-0.08199344575405121	0.011809197254478931	0.1805807650089264	0.2521631419658661	-0.12878365814685822	0.10769706219434738	0.06675651669502258	-0.24291904270648956	-0.0969206839799881	0.10654031485319138	0.1426934450864792	-0.1079808697104454	0.21368709206581116	0.17881952226161957	0.04026345536112785	0.182028129696846	0.08785037696361542	-0.18204618990421295	-0.18191252648830414	0.22303958237171173	-0.32127895951271057	0.2696416676044464	0.03170730173587799	-0.0480642095208168	0.010138409212231636	-0.16200344264507294	-0.10007014870643616	-0.1587837189435959	-0.02375374361872673	0.09248889237642288	0.06889596581459045	0.027731318026781082	-0.4011695086956024	-0.13513191044330597	0.10341072082519531	0.07216505706310272	-0.043197181075811386	0.2405199259519577	-0.11922157555818558	0.10052112489938736	0.04879111424088478	-0.09474705904722214	-0.31860625743865967	0.13167738914489746	-0.06639979779720306	-0.1385943591594696	0.1008058413863182	-0.005952824838459492	-0.05685241147875786	-0.10975484549999237	0.048915524035692215	0.33120134472846985	-0.15374764800071716	0.10224433243274689	-0.2761223614215851	0.47791826725006104	0.07459676265716553	0.28140518069267273	0.3622424006462097	-0.02198835462331772	0.19691917300224304	0.07238441705703735	-0.20670658349990845	-0.2143806666135788	0.08653761446475983	-0.024898158386349678	0.13876453042030334	-0.008803816512227058	0.090582475066185	0.32250791788101196	0.16758854687213898	0.20217730104923248	0.1266692578792572	-0.29333168268203735	0.06916569173336029	0.04229872301220894	-0.04092565178871155	0.1455572098493576	0.22150477766990662	-0.10421845316886902	-0.06473885476589203	-0.0817299336194992	-0.05673147365450859	0.06389398872852325	-0.0883365124464035	0.3101118206977844	-0.16756120324134827	-0.21190820634365082	0.03778963163495064	0.23193493485450745	0.04114783555269241	-0.06885654479265213	0.13911274075508118	-0.0648876205086708	-0.08787944912910461	-0.3000660538673401	0.03645237907767296	0.05667224898934364	-0.12542864680290222	-0.18479624390602112	0.05226956307888031	-0.05252039432525635	0.04539625346660614	0.046457014977931976	0.3132639229297638	0.13287100195884705	-0.3306848704814911	0.140986829996109	0.08089195936918259	-0.2946512997150421	0.12055493146181107	0.07647962123155594
loma1235	0.12379161268472672	0.33661869168281555	-0.18316882848739624	-0.17951485514640808	-0.029898200184106827	-0.052920956164598465	-0.14755754172801971	0.3426274359226227	-0.3265702426433563	-0.08314376324415207	0.06738393008708954	0.1046023741364479	-0.1415506899356842	-0.33836033940315247	-0.3719944953918457	0.11278656125068665	-0.14288100600242615	-0.16087646782398224	0.2764842212200165	0.5218163132667542	-0.06575538963079453	0.06063752993941307	0.022692181169986725	0.0045996373519301414	-0.001801368547603488	0.025836419314146042	0.058292221277952194	0.11765783280134201	0.023975396528840065	0.18451474606990814	0.02123510092496872	-0.22648465633392334	-0.04853495955467224	-0.06138525530695915	0.3186485767364502	0.14983752369880676	0.3218701481819153	-0.2129126638174057	-0.040762826800346375	-0.23697565495967865	-0.034891460090875626	-0.03417957201600075	0.10487602651119232	0.3333139419555664	0.006746327504515648	-0.13090026378631592	0.30863016843795776	-0.0024358737282454967	0.14201363921165466	-0.05640652775764465	-0.03131800889968872	-0.33007755875587463	0.24839673936367035	-0.038041047751903534	-0.21754200756549835	0.19010785222053528	-0.009780201129615307	0.1969156116247177	-0.2669556736946106	0.4712790548801422	-0.19393369555473328	-0.17480157315731049	-0.13737480342388153	-0.0009683615062385798	-0.06411255151033401	-0.12185296416282654	0.21502229571342468	0.1577136069536209	-0.16867028176784515	-0.29008519649505615	0.4621769189834595	0.26126086711883545	0.02919909544289112	-0.26568493247032166	-0.16744431853294373	-0.5388514399528503	-0.27432024478912354	-0.23633618652820587	-0.40292543172836304	0.14665904641151428	-0.0032610357739031315	0.24482564628124237	-0.3260069489479065	-0.4392187297344208	0.2093210369348526	-0.05979745090007782	-0.00848151370882988	0.16380608081817627	-0.040388964116573334	0.1265537589788437	-0.07405569404363632	-0.013660593889653683	0.18898677825927734	-0.3415721654891968	0.32155027985572815	0.1599324643611908	0.0014435718767344952	-0.1377311795949936	-0.03423989564180374	-0.24526506662368774	-0.08324494957923889	0.38105931878089905	0.3264620900154114	0.1661009043455124	-0.22772885859012604	-0.06810183078050613	-0.26700615882873535	0.23024190962314606	-0.19541700184345245	-0.3838535249233246	-0.35202404856681824	-0.004422393627464771	-0.1895129382610321	-0.07064937800168991	-0.010636863298714161	-0.3962623178958893	0.12413665652275085	-0.05097402632236481	0.058351173996925354	-0.1589205414056778	0.15455672144889832	-0.2982853353023529	-0.12011093646287918	0.16251879930496216	-0.22254160046577454	-0.35558077692985535	-0.3671753406524658	-0.020116198807954788
maha1287	-0.21287858486175537	0.0912453755736351	-0.08397532999515533	0.01851465553045273	-0.0881694108247757	-0.03899269551038742	0.040699589997529984	0.06958408653736115	0.08132314682006836	0.17818765342235565	-0.20877334475517273	-0.1959780901670456	0.2952108383178711	0.18351230025291443	-0.04104186221957207	0.06339988857507706	0.029335156083106995	0.1526753306388855	-0.018729904666543007	0.2821755111217499	-0.03024398162961006	0.06922418624162674	-0.05012141913175583	0.12251260876655579	-0.004862221889197826	-0.017740398645401	0.14839909970760345	0.08889150619506836	0.11072289943695068	-0.14893865585327148	0.1761641502380371	0.2219514399766922	-0.15752476453781128	0.12591420114040375	-0.13473400473594666	0.1006162017583847	-0.17019851505756378	-0.12576435506343842	0.07170754671096802	-0.07852376997470856	-0.00206014234572649	-0.1516922116279602	-0.07772122323513031	-0.004435373470187187	0.13233189284801483	0.11171699315309525	0.2013789266347885	0.08303522318601608	0.1755603551864624	0.08026041090488434	0.07897568494081497	-0.14544999599456787	-0.14426608383655548	0.014263847842812538	0.13735565543174744	-0.09182784706354141	0.08989342302083969	-0.12915758788585663	0.28198182582855225	-0.16227105259895325	-0.25279951095581055	0.08729670196771622	0.11243364214897156	0.03884725272655487	-0.024499373510479927	0.1698119342327118	0.006013481877744198	0.07507835328578949	-0.06587689369916916	0.1872687041759491	0.1297750473022461	0.12295225262641907	0.027720771729946136	0.0677632987499237	0.008904657326638699	-0.3590764105319977	-0.22862987220287323	-0.017184698954224586	0.1895671784877777	0.1467123031616211	0.03897268697619438	0.056339483708143234	0.08907214552164078	-0.2513050436973572	0.004569638054817915	0.07986843585968018	0.056860584765672684	0.08752260357141495	-0.1595020443201065	-0.2639550566673279	-0.18427686393260956	-0.011297637596726418	0.059698812663555145	0.04553361237049103	-0.3269179165363312	-0.13310843706130981	0.04383206367492676	-0.06113290786743164	-0.31214797496795654	0.02857613004744053	0.026420362293720245	0.14164620637893677	-0.28105440735816956	0.022898737341165543	0.17571784555912018	-0.008306575007736683	0.21892452239990234	0.12070160359144211	0.1815997213125229	0.025330793112516403	-0.22428005933761597	0.09843636304140091	-0.029281744733452797	-0.20223158597946167	0.02162032201886177	-0.06367558240890503	-0.07598520070314407	0.07481051236391068	0.14285363256931305	-0.26487696170806885	-0.2808319330215454	-0.014299646951258183	0.2047891467809677	0.11099372059106827	-0.08715452253818512	0.10652799904346466	-0.014788019470870495	0.07565201073884964
maha1305	-0.12507037818431854	0.025604335591197014	-0.0034225594718009233	0.0600072480738163	0.00928829237818718	-0.011688340455293655	-0.006252364255487919	0.05490581691265106	0.006982702761888504	0.014580372720956802	0.06508219987154007	0.02671024017035961	-0.275098592042923	0.08833890408277512	0.0011464903363958001	0.022616075351834297	-0.04111737757921219	-0.006315949372947216	-0.030292721465229988	0.0017690735403448343	0.01664557121694088	0.016045724973082542	-0.001290845568291843	0.016041429713368416	0.07361719757318497	0.03058658353984356	0.03381926193833351	0.025303561240434647	0.006010277662426233	-0.05043548718094826	-0.005428269971162081	-0.035944998264312744	0.02146173268556595	-0.01720328815281391	0.018732529133558273	0.01016487181186676	-0.019136743620038033	-0.07627616077661514	0.0002864979032892734	0.03875862434506416	-0.0024202894419431686	0.05138120427727699	-0.021853461861610413	0.0035520114470273256	-0.03103378415107727	-0.0014742705971002579	0.06701883673667908	0.007382967974990606	0.008274083025753498	0.029627962037920952	0.013989003375172615	0.002020860556513071	-0.12250444293022156	0.09677419811487198	0.020388256758451462	0.033686164766550064	0.08725614845752716	-0.08883151412010193	-0.04141302779316902	0.012957008555531502	-0.11347804218530655	0.013064890168607235	0.006376559380441904	0.03882355988025665	0.0008526597521267831	-0.024348188191652298	-0.0898655503988266	-0.021317334845662117	0.07632342725992203	-0.03919314965605736	0.03047735057771206	-0.011519135907292366	0.012840759940445423	0.05292275920510292	-0.051860082894563675	0.025318190455436707	0.06985623389482498	0.1497609168291092	-0.004403979983180761	0.05179573595523834	-0.12887069582939148	0.024779222905635834	-0.12071827799081802	0.10345730185508728	-0.04341770336031914	-0.014024714939296246	-0.15672238171100616	-0.0030407949816435575	0.06267310678958893	0.1335088312625885	0.0024100379087030888	0.003197304904460907	-0.011579833924770355	0.16441610455513	0.014076274819672108	0.07855641841888428	0.020356284454464912	0.008073949255049229	-0.01005624420940876	0.031062092632055283	-0.02669687569141388	-0.09836006164550781	0.042500950396060944	-0.027068817988038063	0.011164016090333462	-0.05271439999341965	-0.06385568529367447	-0.12027927488088608	-0.1735934168100357	-0.020112618803977966	-0.014270818792283535	-0.04526184871792793	0.03625331073999405	0.09277543425559998	0.030501501634716988	-0.01231308188289404	-0.0030609911773353815	-0.032121285796165466	0.007594624534249306	0.0012149354442954063	-0.08449394255876541	0.0019996960181742907	-0.30504366755485535	0.15193632245063782	0.02352212741971016	0.0024397866800427437	0.027192816138267517	0.043160077184438705
mait1250	0.1704258918762207	-0.03612860292196274	-0.07218372821807861	-0.035356711596250534	-0.0011288025416433811	-0.06154690310359001	-0.00885873194783926	0.07764779031276703	-0.024121923372149467	0.021519076079130173	0.03833844140172005	0.06250711530447006	-0.10615064203739166	-0.07832469046115875	-0.04155324399471283	-0.08582589775323868	0.21976812183856964	0.08436525613069534	0.010472415946424007	-0.004064815118908882	-0.16345524787902832	-0.041097477078437805	-0.020376207306981087	-0.01197835709899664	-0.01544012688100338	-0.053755491971969604	0.116617850959301	0.03847556933760643	0.08288069814443588	-0.07366825640201569	-0.05100713297724724	-0.04137760400772095	0.018036238849163055	0.0761386826634407	0.05721082538366318	0.07848690450191498	0.03636680915951729	0.1764020472764969	-0.03279641270637512	-0.02329583652317524	-0.02245747111737728	0.03953804820775986	0.04605650156736374	0.10497583448886871	-0.002835966646671295	-0.020687609910964966	0.014887562021613121	0.060514722019433975	0.1553795039653778	0.09305146336555481	-0.03577299416065216	0.1280905306339264	0.24281631410121918	-0.10598953068256378	0.07011724263429642	-0.00832114927470684	-0.11013926565647125	-0.07629191130399704	-0.0644041895866394	0.024883808568120003	-0.06364431232213974	-0.06842269003391266	0.017388181760907173	-0.006770926993340254	0.032377101480960846	0.0069629536010324955	0.08837872743606567	0.020331338047981262	0.13657288253307343	0.14563564956188202	0.11128842085599899	0.1918800324201584	-0.0010324115864932537	-0.1447354555130005	-0.13854701817035675	-0.041178349405527115	0.043221406638622284	-0.09643756598234177	0.06978756189346313	0.005462234374135733	0.07172314077615738	-0.15824511647224426	0.2633192837238312	0.10855036973953247	-0.023866217583417892	0.1692979484796524	0.08205419033765793	0.07537767291069031	-0.07665068656206131	0.09000174701213837	0.0689018964767456	-0.008322958834469318	0.002240473637357354	-0.0024886562023311853	0.1528683453798294	-0.03820144385099411	0.09522901475429535	-0.003732493845745921	0.0934983342885971	-0.11345993727445602	-0.04723738506436348	-0.007142951712012291	-0.08660154044628143	0.30593812465667725	-0.07391157746315002	0.04501336067914963	-0.05422066152095795	-0.09098246693611145	0.2211972326040268	0.04312590882182121	0.10065165162086487	0.0036708407569676638	0.14680816233158112	0.047737762331962585	0.09844797849655151	0.05208250880241394	-0.1433953195810318	-0.13770562410354614	0.0859876200556755	0.06858402490615845	-0.13107039034366608	-0.06980164349079132	-0.018573226407170296	-0.06878457963466644	0.0989052951335907	-0.07311855256557465	0.041398774832487106	0.13267895579338074
mara1378	-0.024789318442344666	0.017965517938137054	0.11456017941236496	-0.0042996276170015335	-0.029361439868807793	0.0008045532158575952	0.017135128378868103	0.028088288381695747	-0.007458695210516453	0.014348722994327545	0.0979207381606102	-0.05607105791568756	0.12375105917453766	0.07246179133653641	0.00582262733951211	0.01299911830574274	-0.013895300216972828	-0.017133766785264015	-0.002143454970791936	-0.023282164707779884	-0.00748966820538044	-3.249416477046907e-05	0.018289299681782722	0.06773148477077484	0.06457468122243881	-0.007616555783897638	0.08891419321298599	0.009174161590635777	0.047858744859695435	-0.02926032617688179	-0.03684016317129135	0.07507453113794327	-0.08400905877351761	0.009662820026278496	-0.040095288306474686	-0.029761681333184242	0.02944374270737171	-0.05802936851978302	0.06123483180999756	0.027506377547979355	0.011919236741960049	0.03699249029159546	0.004222235642373562	-0.04763820022344589	0.034569088369607925	0.0002122415171470493	-0.0032053757458925247	-0.026997357606887817	-0.03920995071530342	0.016878429800271988	-0.06527979671955109	0.12645629048347473	0.27164939045906067	-0.021777287125587463	0.10728539526462555	-0.06359764188528061	-0.06236405298113823	-0.012280703522264957	0.027265919372439384	0.00878967810422182	-0.10440587997436523	0.01984059251844883	-0.004044420085847378	-0.02675866335630417	0.005228422116488218	-0.02821231447160244	0.020823068916797638	-0.07268165796995163	-0.08705062419176102	0.022304972633719444	-0.013190961442887783	0.12254317104816437	0.0008778671035543084	0.08680832386016846	-0.12120681256055832	-0.017656365409493446	-0.05028955265879631	-0.0657200813293457	0.1276233047246933	0.0045721521601080894	-0.1072346493601799	-0.048638101667165756	-0.1055871844291687	-0.06950102746486664	0.02775617688894272	-0.07227331399917603	-0.050894081592559814	-0.024286527186632156	0.00018071627710014582	-0.11658265441656113	-0.028727369382977486	0.011922137811779976	-0.018721044063568115	-0.17558707296848297	0.021246254444122314	-0.056454189121723175	-0.00835876539349556	0.019262149930000305	0.14813901484012604	-0.10656346380710602	0.032291900366544724	0.11575241386890411	0.02903076633810997	-0.041859254240989685	0.026769185438752174	-0.10976295918226242	0.0071189827285707	0.06866064667701721	-0.10598446428775787	0.06541986018419266	0.08817815780639648	0.019538572058081627	-0.13358952105045319	0.0031162304803729057	-0.008541615679860115	-0.06233280524611473	-0.002543346956372261	-0.0872328132390976	-0.06609220802783966	-0.09478946775197983	-0.024960007518529892	-0.0052467938512563705	-0.19353270530700684	-0.07000548392534256	-0.030720800161361694	-0.03360879048705101	0.06456830352544785	-0.06992840766906738
marw1260	0.11116356402635574	0.05004813149571419	0.2810949683189392	0.17540891468524933	-0.06566373258829117	-0.07225740700960159	-0.07694237679243088	0.17617927491664886	-0.1452282816171646	0.11751947551965714	-0.042292915284633636	-0.056639477610588074	0.1332760900259018	0.19359387457370758	-0.031773634254932404	-0.3718639314174652	-0.27528253197669983	0.0185512937605381	0.19081349670886993	-0.08861937373876572	0.20628990232944489	0.15359261631965637	-0.1022152304649353	0.09707911312580109	0.04134483262896538	-0.16428352892398834	-0.23759670555591583	0.1476258635520935	0.09744676947593689	0.03191496059298515	-0.4656299650669098	0.03629070520401001	0.06117217242717743	0.17819473147392273	-0.15129216015338898	0.08235226571559906	0.34289026260375977	-0.4715820550918579	-0.10557623952627182	0.041302792727947235	0.06432221829891205	-0.247489333152771	0.3318968117237091	0.3828709125518799	0.32223543524742126	-0.21579714119434357	0.3234994113445282	-0.24496011435985565	0.10320165008306503	-0.0825779065489769	0.10685792565345764	0.1133899837732315	-0.04683000221848488	-0.23460237681865692	0.07060787081718445	-0.2602286636829376	0.15490473806858063	-0.06657098233699799	-0.12505891919136047	0.08109591156244278	-0.0031230696476995945	0.01084443274885416	0.009069329127669334	-0.31589028239250183	-0.32853642106056213	-0.15050706267356873	-0.17082060873508453	0.4300508499145508	0.030730513855814934	-0.21090824902057648	-0.10711976885795593	0.2988581955432892	0.029239026829600334	0.1386876404285431	-0.11604968458414078	0.1952982395887375	-0.400862455368042	-0.4722535014152527	-0.1414562463760376	-0.05388731136918068	-0.09155251830816269	0.041966892778873444	0.23712962865829468	0.2327142059803009	-0.13751357793807983	-0.09825097024440765	-0.11722775548696518	0.18337412178516388	-0.0955473780632019	0.24979978799819946	-0.04385771602392197	-0.048470161855220795	-0.16884709894657135	0.10116439312696457	-0.11022977530956268	-0.11471761018037796	-0.3658192455768585	-0.07789373397827148	0.010632331483066082	-0.1440345048904419	0.13293832540512085	-0.049224477261304855	-0.3520526587963104	0.012611365877091885	-0.2760085165500641	0.2192273736000061	0.3461374044418335	0.31715133786201477	-0.18536314368247986	0.08458452671766281	-0.21103435754776	-0.013475229032337666	0.18416079878807068	-0.09024607390165329	-0.4712218642234802	-0.1937207579612732	-0.31331372261047363	-0.06939789652824402	0.08352430909872055	-0.10879091173410416	0.05291182920336723	-0.08296471834182739	0.08404349535703659	-0.02169651724398136	0.06911873072385788	-0.22489680349826813	-0.054634638130664825	0.014592049643397331
