aret1240	0.322908490896225	0.11246811598539352	0.05532288923859596	0.1456243246793747	-0.1459256261587143	0.021576911211013794	-0.1291334629058838	0.24258828163146973	0.14221683144569397	0.11591976135969162	-0.2693421542644501	0.08089946955442429	0.16497033834457397	-0.29280686378479004	-0.09788995236158371	0.39605802297592163	-0.029152223840355873	-0.021924728527665138	0.30536219477653503	-0.21371188759803772	-0.3628765046596527	0.5080077648162842	0.34081852436065674	-0.39251357316970825	-0.16196893155574799	-0.30299532413482666	-0.0462927371263504	-0.03815450891852379	-0.19391275942325592	0.4314921796321869	0.4272153377532959	-0.029661914333701134	0.014025312848389149	-0.09232824295759201	-0.13651396334171295	-0.06740998476743698	0.06744463741779327	-0.14589758217334747	0.035247739404439926	-0.14933092892169952	0.30409640073776245	-0.20095402002334595	-0.07715949416160583	-0.13959583640098572	-0.2243117392063141	-0.16011394560337067	-0.12690545618534088	-0.055121030658483505	-0.2935819625854492	-0.004280366934835911	0.4149359464645386	0.32498863339424133	0.017406266182661057	-0.366023987531662	0.5577998757362366	-0.09216582030057907	-0.3274032473564148	-0.09239532053470612	0.23565591871738434	0.07520905882120132	-0.15163813531398773	-0.245710551738739	0.10935700684785843	0.08629338443279266	-0.2791684567928314	0.09200866520404816	-0.14487698674201965	-0.1190316453576088	-0.23044657707214355	-0.008320731110870838	-0.03621353954076767	0.0923677310347557	0.18364426493644714	-0.008809764869511127	-0.05536987632513046	-0.007717883680015802	0.11250001937150955	-0.24219249188899994	-0.1991017907857895	0.10912183672189713	0.1018131896853447	-0.164256751537323	0.1360982358455658	-0.08534486591815948	0.08409342169761658	-0.2258874922990799	-0.30503135919570923	-0.03910592198371887	-0.08128426223993301	-0.10771133750677109	-0.10048500448465347	0.2467118501663208	0.14403146505355835	-0.09066103398799896	0.03881538286805153	-0.3171415328979492	-0.05551839992403984	0.31122928857803345	-0.06646458804607391	0.21759963035583496	0.2882095277309418	0.3214606046676636	0.011123145930469036	-0.014060277491807938	0.00455307774245739	-0.4094623029232025	-0.1374831348657608	0.15955302119255066	0.040745727717876434	-0.24810586869716644	-0.15431904792785645	0.009563697502017021	-0.18508395552635193	0.07854890078306198	0.25918570160865784	-0.08988995105028152	-0.15502029657363892	-0.09091424942016602	-0.10892583429813385	0.08875520527362823	-0.09959279745817184	0.14659680426120758	-0.012870674952864647	-0.18082016706466675	-0.08290688693523407	-0.027951523661613464	-0.06399472057819366	-0.17371542751789093
assa1263	0.023646436631679535	0.2643986940383911	-0.20272371172904968	0.11899980157613754	0.009044441394507885	0.15236517786979675	-0.15163959562778473	0.003033093176782131	0.04103745147585869	-0.1708434820175171	-0.13844528794288635	-0.08856023848056793	-0.16326001286506653	0.06238193437457085	-0.117109514772892	-0.047095756977796555	-0.03849782422184944	-0.07686783373355865	0.03493986278772354	-0.083170086145401	-0.13877367973327637	-0.1210923120379448	-0.08120638877153397	0.18196545541286469	0.045602284371852875	0.05554268881678581	0.0646984875202179	0.17570042610168457	-0.0016993265599012375	-0.19398775696754456	0.392102986574173	-0.048408232629299164	0.0503387451171875	-0.03791109472513199	0.03267427533864975	-0.029556503519415855	-0.12761197984218597	-0.0941418781876564	0.037533584982156754	0.12159726023674011	0.03173523768782616	0.11824700981378555	0.1364687830209732	0.31625112891197205	0.12456769496202469	-0.04122669994831085	0.1003023236989975	0.08504796773195267	0.2270916998386383	0.18537291884422302	-0.022875435650348663	0.1861933022737503	0.009273003786802292	-0.021100560203194618	-0.19633154571056366	-0.04990812763571739	0.07309582084417343	-0.014660011976957321	-0.1643097698688507	-0.33829227089881897	0.1322239339351654	-0.1699288785457611	0.18856242299079895	0.12229391187429428	0.1113155409693718	0.24355871975421906	0.004546826239675283	0.08767956495285034	0.11704757809638977	0.02269599214196205	0.01332766655832529	0.01518885139375925	0.07275505363941193	-0.1283728927373886	-0.051172785460948944	-0.09458718448877335	-0.020789863541722298	0.07730896770954132	-0.1361813098192215	0.060837868601083755	-0.20142197608947754	-0.2620090842247009	-0.19010934233665466	-0.23687782883644104	-0.11926377564668655	0.07981006056070328	-0.07341847568750381	-0.017294038087129593	-0.0639541894197464	0.07248436659574509	0.11177097260951996	0.05926132947206497	0.3518250584602356	0.010403282009065151	0.028145521879196167	-0.027097683399915695	-0.04298051446676254	-0.08498954772949219	-0.04672151058912277	-0.06518921256065369	0.05816191807389259	-0.02471184730529785	-0.04996073618531227	-0.05522098019719124	0.06352818012237549	0.05108380690217018	-0.16149213910102844	0.11189960688352585	0.10444201529026031	-0.08305486291646957	-0.11711589992046356	-0.017568090930581093	-0.023444876074790955	0.055223237723112106	-0.006853479892015457	0.06300120800733566	0.0005124815506860614	0.024840358644723892	0.1005173772573471	0.1491614133119583	0.008409129455685616	0.09952732175588608	0.0617167130112648	0.11576442420482635	-0.20074282586574554	0.23080340027809143	0.15374229848384857	0.34410011768341064
bagh1251	-0.24646855890750885	0.2810210883617401	0.035337936133146286	-0.18104857206344604	-0.18006668984889984	0.04690935090184212	-0.21959102153778076	-0.036477040499448776	-0.1620735377073288	0.09390121698379517	-0.05684169381856918	-0.132850781083107	0.1030755266547203	0.24134652316570282	0.07817388325929642	-0.0013404088094830513	0.049528397619724274	-0.09119614958763123	-0.038220614194869995	-0.063315749168396	0.42179712653160095	-0.3169040083885193	0.21385186910629272	0.13719329237937927	-0.03964045271277428	-0.008006945252418518	-0.07722106575965881	0.21400868892669678	-0.06676315516233444	-0.04471014067530632	-0.019809454679489136	0.13145919144153595	0.09776540100574493	0.083740234375	-0.15502282977104187	-0.15679985284805298	0.05549824982881546	0.012514939531683922	-0.3017734885215759	0.1487835794687271	0.05442601442337036	-0.007405416574329138	-0.20673896372318268	0.035678431391716	0.16313046216964722	0.013078400865197182	-0.10308124125003815	-0.057009365409612656	0.2185095250606537	0.07863715291023254	0.041194528341293335	0.06964842975139618	0.06374158710241318	0.07617835700511932	0.24615170061588287	0.024376286193728447	0.08101127296686172	0.03513878211379051	-0.16458089649677277	0.026806332170963287	0.14480163156986237	0.07399117201566696	-0.14836443960666656	-0.25161126255989075	0.19784289598464966	0.037837669253349304	-0.11005706340074539	0.11785201728343964	-0.2697906494140625	-0.05404522269964218	0.140777587890625	-0.022690696641802788	0.08482201397418976	-0.121575266122818	-0.2979971170425415	0.06690547615289688	-0.0964026004076004	-0.11088446527719498	0.013889879919588566	-0.1921396106481552	0.10550805181264877	-0.3214660882949829	0.019173884764313698	0.017156824469566345	0.011345639824867249	0.24870549142360687	-0.1937483847141266	0.17500485479831696	-0.17146587371826172	0.07440544664859772	0.1882646083831787	0.06627155840396881	0.14112207293510437	0.1216445192694664	0.17030735313892365	0.04947255924344063	0.3195176124572754	-0.18068094551563263	-0.18180020153522491	0.09592647105455399	-0.10626300424337387	0.1776568591594696	0.03555918484926224	0.08968039602041245	0.0736195519566536	-0.04766039550304413	0.1124393567442894	0.31898272037506104	0.047576215118169785	0.0074682473205029964	-0.18069131672382355	0.00626725098118186	-0.006262206472456455	-0.19331687688827515	0.12435073405504227	-0.08040807396173477	0.18920116126537323	0.2405538558959961	0.15672487020492554	-0.023657800629734993	0.1233966201543808	0.10103131830692291	-0.07527653127908707	0.06386188417673111	-0.00845375470817089	-0.02702002041041851	-0.03663197159767151	-0.004105298314243555
beng1280	0.16027024388313293	0.12307668477296829	-0.038874562829732895	0.11666406691074371	-0.09955034404993057	0.0001304998149862513	0.23287127912044525	-0.0703776478767395	0.25384604930877686	-0.06355125457048416	-0.06284017115831375	-0.05282917618751526	-0.026259690523147583	0.06517385691404343	0.05720008909702301	0.07788635045289993	-0.20565949380397797	0.061296988278627396	0.15052929520606995	-0.09755704551935196	-0.24189232289791107	-0.19626972079277039	-0.1678970903158188	-0.0951787456870079	-0.010672595351934433	-0.04293328523635864	0.038192324340343475	0.016236785799264908	0.03794548660516739	0.2243068516254425	0.3018887937068939	0.05828907713294029	-0.0933443009853363	-0.000152783642988652	-0.17966298758983612	0.06935683637857437	0.01872834376990795	0.08577420562505722	0.04024847596883774	0.06932654976844788	0.007261031772941351	0.1921035647392273	0.17715445160865784	-0.18527740240097046	-0.25201377272605896	-0.10613831877708435	-0.040855772793293	-0.05509039759635925	0.16067814826965332	-0.210585355758667	-0.0632600411772728	-0.05720340088009834	0.05873376131057739	0.18907427787780762	-0.07869630306959152	0.04650609567761421	0.24371899664402008	-0.04539275914430618	-0.03866998478770256	-0.14027096331119537	-0.027863280847668648	0.10931961238384247	-0.04848095029592514	0.005219912622123957	-0.008871703408658504	-0.03005104325711727	0.06828691810369492	-0.22705495357513428	-0.18054625391960144	-0.09028512984514236	-0.00980482529848814	0.05711470916867256	0.010430609807372093	-0.019675344228744507	-0.1173524484038353	-0.07632149010896683	0.18202245235443115	-0.11762450635433197	0.04385657235980034	0.026265300810337067	-0.019347233697772026	-0.22273632884025574	-0.17109227180480957	-0.2560376226902008	0.17909181118011475	0.013773520477116108	-0.12086652964353561	-0.035940736532211304	-0.18408899009227753	-0.02758079580962658	0.08926607668399811	0.10600840300321579	0.1383172571659088	0.0646795779466629	-0.006642154883593321	0.04494130611419678	-0.03760306537151337	0.07032331824302673	0.14063195884227753	-0.028144296258687973	-0.034694429486989975	0.07805468887090683	0.11842237412929535	0.047313202172517776	-0.05419500917196274	-0.06185023486614227	0.1054462119936943	0.023845087736845016	-0.052533335983753204	-0.03157589212059975	-0.07744678854942322	-0.07917766273021698	-0.019900154322385788	0.12355858832597733	0.073826365172863	0.007739120163023472	0.10382483899593353	0.07981468737125397	-0.05844466760754585	0.16950684785842896	-0.018173756077885628	0.15810193121433258	-0.10127079486846924	-0.0923364907503128	-0.06612226366996765	-0.028613334521651268	0.0990964025259018	-0.05079248920083046
bhad1241	0.16283048689365387	0.03747778385877609	0.17458584904670715	-0.03935898095369339	0.03546367213129997	0.0185540858656168	-0.01591380313038826	0.03848337009549141	0.22835154831409454	-0.1393665373325348	0.21850179135799408	0.043253615498542786	-0.1190519854426384	-0.09612362086772919	-0.22232580184936523	0.07338257133960724	0.10378941893577576	0.024380501359701157	-0.20966032147407532	0.17347745597362518	-0.23198656737804413	0.10002030432224274	0.26094281673431396	-0.276488721370697	0.014197107404470444	0.01105260569602251	-0.41332051157951355	0.15624554455280304	-0.21253438293933868	0.2309695929288864	0.04470415785908699	0.05599003657698631	0.022814437747001648	-0.27686136960983276	0.17038869857788086	0.024661509320139885	-0.007067026570439339	0.28066501021385193	0.11773984879255295	0.1491430401802063	-0.09123450517654419	0.010597401298582554	-0.05677745118737221	0.3058203160762787	-0.03548672795295715	0.19451239705085754	0.06268592923879623	0.35499176383018494	-0.018944183364510536	-0.13541153073310852	-0.017801936715841293	0.09752810001373291	0.015454773791134357	-0.32377520203590393	-0.0616852305829525	-0.06265203654766083	-0.0653848871588707	0.035110559314489365	-0.07425154745578766	0.1766424924135208	-0.261137992143631	-0.05904388800263405	0.09198840707540512	-0.05734333395957947	0.0681363195180893	0.035154253244400024	0.17045442759990692	0.24985632300376892	-0.011382129043340683	0.20909777283668518	0.21018901467323303	0.13497713208198547	0.0399724580347538	-0.21464243531227112	0.0867195725440979	0.09587986022233963	-0.1436089277267456	-0.053722530603408813	-0.22966769337654114	-0.0224893968552351	0.17509420216083527	-0.20309898257255554	-0.13027803599834442	0.12250424921512604	-0.1910383403301239	0.024257363751530647	0.17357635498046875	-0.10288804769515991	-0.11934946477413177	-0.25990691781044006	0.09551788866519928	0.0753093808889389	-0.14372998476028442	0.1692621111869812	0.025743333622813225	0.05972081795334816	0.22594314813613892	0.15637513995170593	0.08277228474617004	0.11637439578771591	-0.19615553319454193	0.022006724029779434	-0.3060932755470276	-0.02768552489578724	0.14760135114192963	0.0749555379152298	0.15972007811069489	0.07611803710460663	0.11592511087656021	-0.20153926312923431	0.1850297898054123	0.03561966121196747	-0.29775622487068176	-0.1208900585770607	0.09412233531475067	-0.18866994976997375	-0.05884250998497009	0.06732623279094696	-0.10736189037561417	-0.2774560749530792	0.1210099309682846	-0.12363431602716446	-0.1184370145201683	0.05533062294125557	0.12823988497257233	-0.030542021617293358	0.11475323140621185	-0.17565609514713287
bhal1244	0.2520517110824585	0.03915084898471832	0.1872892677783966	-0.02628811076283455	0.15356040000915527	0.09692057222127914	0.09295675903558731	-0.12969011068344116	0.026951517909765244	-0.009052104316651821	0.03702004253864288	0.21309605240821838	-0.1944168508052826	0.09724438935518265	-0.1679566204547882	0.1801452487707138	0.10139285027980804	0.10361028462648392	-0.18465858697891235	0.09922630339860916	-0.3070842921733856	0.09628244489431381	0.021611232310533524	-0.20530493557453156	-0.24388611316680908	0.08291961997747421	-0.005675259046256542	-0.06128804385662079	-0.10055151581764221	-0.05887549743056297	-0.08473443239927292	0.010302324779331684	-0.11904729902744293	-0.16588370501995087	0.006998714990913868	-0.022779082879424095	0.10609898716211319	0.14905831217765808	0.060074582695961	-0.05014593526721001	-0.20973265171051025	-0.05075959116220474	0.047774720937013626	-0.14299266040325165	-0.09387866407632828	0.14015504717826843	-0.20610679686069489	0.16485680639743805	-0.12559126317501068	0.020923178642988205	-0.12290431559085846	-0.005391047801822424	-0.05085768923163414	-0.2210148721933365	-0.057753171771764755	0.14654402434825897	0.19498637318611145	-0.13053837418556213	-0.11375853419303894	0.044322043657302856	-0.11066382378339767	-0.2369748204946518	0.10426785051822662	-0.25348323583602905	-0.1303166151046753	-0.07572246342897415	0.20167440176010132	0.07377444207668304	0.0210330281406641	0.20614442229270935	0.1174691915512085	0.11140533536672592	0.0014630196383222938	-0.04479602351784706	-0.08097314089536667	0.03258345648646355	-0.09375596046447754	0.09432900696992874	-0.103494793176651	0.04621097445487976	0.2934146225452423	-0.05025869980454445	-0.2216501384973526	0.27030277252197266	0.14934702217578888	0.06052456796169281	0.03935731574892998	-0.0451691560447216	-0.0410403348505497	-0.1044655293226242	-0.1419585943222046	-0.24200788140296936	-0.12197888642549515	-0.09337553381919861	0.005707823671400547	0.035784948617219925	0.10732202976942062	0.16260384023189545	-0.2054300159215927	0.16890323162078857	-0.3594304919242859	0.2419106513261795	-0.339877188205719	0.0026191244833171368	-0.08029165863990784	0.26326486468315125	0.14590711891651154	-0.21649998426437378	0.1814613938331604	-0.09317971765995026	0.18091674149036407	-0.020789390429854393	0.02244534343481064	0.1602599322795868	-0.010102203115820885	-0.18545684218406677	-0.17468157410621643	0.09742481261491776	-0.1002233698964119	0.22848990559577942	-0.015271279029548168	-0.07089518010616302	-0.3625349700450897	0.12135375291109085	0.3696838319301605	0.009304485283792019	-0.18893425166606903	0.06485982984304428
bhoj1244	-0.18922081589698792	0.12273335456848145	-0.10103251039981842	-0.273654967546463	-0.19957585632801056	-0.1376994550228119	-0.02990270033478737	0.002602019812911749	0.26317542791366577	0.2350292056798935	-0.021037640050053596	-0.22852692008018494	-0.26403552293777466	0.1313217729330063	-0.10189325362443924	-0.07200685143470764	-0.03015541471540928	-0.14910781383514404	-0.03132900223135948	0.08355193585157394	0.10706046223640442	0.10413359850645065	-0.168047234416008	0.16232937574386597	-0.12181185930967331	0.2537785470485687	0.2505028247833252	-0.0940670445561409	-0.007564851548522711	0.13375873863697052	0.1694674789905548	-0.18411880731582642	0.13769088685512543	-0.09981904178857803	0.07796113938093185	-0.05973632633686066	-0.11631638556718826	-0.13609866797924042	-0.24789409339427948	-0.02464768849313259	-0.13999158143997192	0.006616558413952589	-0.14872924983501434	-0.22782522439956665	0.0749787762761116	-0.20185405015945435	-0.06790529936552048	-0.16474689543247223	0.23302918672561646	-0.23545892536640167	0.37676310539245605	-0.14991922676563263	0.0652541071176529	0.2173793762922287	-0.0024477269034832716	0.09584188461303711	0.1374761015176773	0.005151047836989164	-0.15833406150341034	-0.2223661243915558	0.019042976200580597	-0.10281932353973389	0.17890314757823944	-0.24641256034374237	0.38819998502731323	-0.1347934603691101	-0.1061251312494278	0.3842160999774933	-0.2887502908706665	-0.3331734240055084	0.22538191080093384	0.22226080298423767	-0.13718800246715546	-0.2099543660879135	-0.2816508710384369	0.07205269485712051	-0.11260176450014114	0.03130370005965233	0.18074317276477814	0.1161089837551117	0.003940241876989603	-0.204647496342659	-0.010669919662177563	-0.046478718519210815	0.08997342735528946	-0.0929550975561142	0.01851053535938263	-0.07283908873796463	0.20879359543323517	-0.11122172325849533	0.28382930159568787	-0.10147029161453247	0.09240967035293579	-0.2167428433895111	-0.04409540444612503	-0.04786371812224388	0.08851848542690277	-0.2993873953819275	-0.1435030698776245	-0.0909675732254982	0.10225456953048706	0.2541818916797638	0.10985364764928818	-0.01778263784945011	0.02096739038825035	0.003012118162587285	0.28996458649635315	-0.08117438852787018	-0.1155928373336792	0.14608247578144073	-0.23878462612628937	0.17532239854335785	-0.20419026911258698	0.1940363198518753	0.15652485191822052	-0.29868704080581665	0.09392394870519638	0.08288389444351196	0.08743959665298462	0.21614402532577515	0.30575647950172424	-0.04758705571293831	-0.0881902202963829	0.25049644708633423	-0.2548036575317383	0.30913931131362915	-0.09197910130023956	0.03518157824873924
braj1242	-0.148619145154953	0.0005294430302456021	0.0444837249815464	0.1022864431142807	-0.25499865412712097	0.0035852426663041115	-0.2805541753768921	-0.10463965684175491	-0.05082196369767189	0.21764805912971497	-0.07359960675239563	0.0322900265455246	-0.02780088782310486	0.26165318489074707	-0.3455735146999359	-0.3217284083366394	0.05846807360649109	-0.11379778385162354	0.20104509592056274	-0.2814321517944336	0.016352303326129913	0.022212352603673935	0.14885000884532928	0.028001900762319565	-0.036847759038209915	-0.17744842171669006	0.3092927932739258	-0.08496517688035965	-0.3876875638961792	0.1897692084312439	-0.31552791595458984	-0.08820851892232895	0.09514733403921127	0.2315644472837448	0.2803872227668762	0.007255499716848135	0.184276282787323	0.04764697700738907	-0.19054970145225525	-0.019740218296647072	0.06966717541217804	-0.0831841379404068	0.036645904183387756	0.006313452962785959	0.114643394947052	-0.009288055822253227	-0.02153055928647518	0.21115954220294952	-0.07135892659425735	-0.26772090792655945	0.07578554004430771	-0.1929258555173874	-0.3816604018211365	0.1684970110654831	0.05356346443295479	-0.14728905260562897	0.14633534848690033	0.025694631040096283	-0.22967956960201263	-0.13067954778671265	-0.3822598159313202	0.020908871665596962	0.22078168392181396	-0.22500067949295044	0.09225621074438095	0.18314708769321442	-0.31291550397872925	0.2450135201215744	0.2628953158855438	-0.04450443759560585	-0.060970231890678406	-0.04870788753032684	-0.24664802849292755	0.249900221824646	-0.14775124192237854	0.11693223565816879	0.1879996508359909	-0.21927586197853088	-0.0671583041548729	-0.1173919141292572	-0.13610698282718658	-0.24068668484687805	0.15426406264305115	-0.11845459043979645	-0.014907553791999817	0.22154827415943146	0.057851921766996384	0.11658331751823425	-0.2180078774690628	-0.01663215644657612	0.09618683159351349	-0.029613913968205452	-0.12355171144008636	-0.037516314536333084	0.08109541237354279	0.14509281516075134	0.16824449598789215	-0.41577398777008057	0.10134553909301758	0.08479390293359756	0.08749819546937943	0.16055619716644287	-0.2103520929813385	0.37886354327201843	0.14343510568141937	0.2951006293296814	0.4272715747356415	0.3617841899394989	-0.22728604078292847	0.15358291566371918	-0.15530239045619965	0.268281489610672	-0.20698490738868713	-0.16379591822624207	-0.1611095517873764	0.029930105432868004	0.003267404157668352	-0.04091998189687729	0.10400458425283432	-0.3601416349411011	0.3099493086338043	-0.11022662371397018	0.18238724768161774	0.27878838777542114	0.025397242978215218	0.252454549074173	-0.10073252022266388	0.2150997370481491
cham1307	0.01852763071656227	-0.15330971777439117	0.11212108284235	-0.4786747992038727	-0.2704050838947296	-0.005445965565741062	0.1559828668832779	-0.00040329451439902186	0.06525754183530807	-0.15172721445560455	0.031053870916366577	0.013484673574566841	0.28259339928627014	-0.07444377988576889	-0.09805698692798615	0.20926533639431	0.08968248963356018	0.3110846281051636	-0.5667372941970825	0.306881844997406	-0.019065532833337784	-0.2512500286102295	0.04400572180747986	-0.2318643033504486	-0.3121045231819153	0.17678305506706238	0.009298626333475113	-0.4594584107398987	-0.1892479658126831	0.00903937965631485	0.08813238888978958	-0.1889224499464035	-0.013277499005198479	0.16747675836086273	0.15466801822185516	-0.02714644744992256	0.039833374321460724	-0.05496795102953911	-0.08452824503183365	0.34695690870285034	-0.38795241713523865	0.11528466641902924	0.10972535610198975	-0.1001802533864975	0.013605641201138496	0.1407802551984787	0.32888779044151306	0.2719423770904541	-0.14116168022155762	0.017840061336755753	0.14541003108024597	0.013332067057490349	-0.09618959575891495	0.0243544764816761	0.26938173174858093	0.1647426038980484	0.23384755849838257	-0.20047356188297272	0.21626202762126923	-0.031025899574160576	0.187103733420372	-0.14192518591880798	-0.29274725914001465	0.1322735846042633	0.3750658929347992	-0.04494303837418556	0.0171612948179245	0.07750418037176132	-0.04500546306371689	0.10340279340744019	0.34821462631225586	0.03141207620501518	0.005445328541100025	0.2732807397842407	0.006568135693669319	0.01329104695469141	-0.26372256875038147	-0.015560507774353027	0.2104492038488388	-0.37321630120277405	0.48688510060310364	0.08951914310455322	0.46897080540657043	0.16204634308815002	-0.16415676474571228	0.11021435260772705	-0.059067048132419586	0.07454843819141388	-0.1774316430091858	-0.011251598596572876	-0.25598299503326416	0.30167075991630554	0.08625785261392593	-0.12872152030467987	-0.3025669753551483	-0.5307294726371765	0.2935243546962738	-0.23374637961387634	0.11133076250553131	0.25493934750556946	0.1153792068362236	0.28003865480422974	-0.012441439554095268	0.17995207011699677	-0.12065007537603378	-0.23055213689804077	-0.15933598577976227	0.032031621783971786	0.2602517306804657	0.24000829458236694	0.20889684557914734	-0.006766098085790873	0.10722693800926208	-0.10655959695577621	-0.06285005062818527	0.06126489117741585	-0.22924506664276123	0.030575832352042198	-0.25503993034362793	-0.18626709282398224	-0.36342012882232666	0.32740703225135803	-0.02628977596759796	0.132465198636055	0.1457637995481491	-0.09282761067152023	-0.027982007712125778	-0.04883608967065811
chur1258	-0.11432725936174393	0.1055559515953064	0.1607082635164261	0.2441953718662262	0.05412010848522186	-0.011771250516176224	0.3334847390651703	-0.12722279131412506	-0.011091429740190506	-0.12214073538780212	-0.03678831458091736	0.02952294424176216	0.1554856300354004	-0.17387375235557556	-0.2404767870903015	0.1615685522556305	0.12386403232812881	0.19449585676193237	-0.3359081447124481	0.023348363116383553	0.2989163100719452	-0.37643733620643616	-0.008383262902498245	-0.08707748353481293	0.14883270859718323	-0.22905664145946503	0.024650050327181816	-0.07097801566123962	0.0722263753414154	-0.28863754868507385	-0.20155246555805206	0.042370688170194626	0.02170715294778347	-0.12377744913101196	-0.1882721185684204	0.14150796830654144	-0.1305844634771347	-0.09970632195472717	0.35158485174179077	0.2693958878517151	-0.27559924125671387	-0.22992384433746338	0.0867268294095993	0.25027891993522644	0.2301976978778839	0.39341527223587036	0.1965889036655426	-0.056848470121622086	-0.06208614259958267	-0.0228804349899292	0.1852755844593048	-0.06139639392495155	-0.1815102994441986	0.14725495874881744	0.18246053159236908	0.4140353798866272	0.08725890517234802	0.043541088700294495	-0.09197206795215607	0.04969174414873123	-0.3361876904964447	0.07513386011123657	-0.256491094827652	-0.03147949278354645	-0.0712624341249466	-0.14623607695102692	-0.17593640089035034	0.25478121638298035	0.1730993390083313	0.1618231236934662	0.21033458411693573	0.3622714579105377	0.09434963017702103	0.266886442899704	0.19764646887779236	-0.14651115238666534	-0.4059907793998718	-0.062329020351171494	0.003317064605653286	-0.18533867597579956	0.5131184458732605	0.2729351222515106	-0.17205661535263062	0.019407248124480247	-0.043878257274627686	-0.13252198696136475	0.0782545730471611	0.13161282241344452	-0.12071960419416428	-0.09721841663122177	0.0751204714179039	0.016303982585668564	-0.08272140473127365	0.050598591566085815	-0.23324353992938995	-0.04365448281168938	0.23576468229293823	0.31843724846839905	0.033970825374126434	0.2548069655895233	-0.14207647740840912	0.04228072240948677	-0.13444817066192627	0.347339928150177	0.05086258798837662	-0.06966494023799896	-0.27418503165245056	0.15812095999717712	0.47610804438591003	0.0067674750462174416	0.0974324643611908	0.09228082001209259	-0.21927890181541443	0.13555897772312164	0.09895316511392593	-0.025931907817721367	-0.14415307343006134	0.03965328633785248	-0.13437949120998383	-0.2165466994047165	-0.08585208654403687	0.005277224816381931	0.21997202932834625	0.15988405048847198	-0.242012619972229	-0.07225019484758377	0.10984088480472565	-0.267503947019577
dame1241	-0.21582652628421783	-0.1958579421043396	0.0032508685253560543	0.30079787969589233	0.21571949124336243	-0.21854233741760254	-0.15250714123249054	0.0048804255202412605	0.05357591062784195	0.28948408365249634	-0.18430811166763306	0.237448051571846	-0.03756774961948395	-0.13148470222949982	-0.38171663880348206	0.18748237192630768	-0.3199358880519867	-0.12720276415348053	0.11738566309213638	-0.28697654604911804	-0.16149289906024933	-0.2076287567615509	-0.21383540332317352	-0.22097083926200867	0.2096499502658844	-0.049596548080444336	-0.3530261814594269	0.23046642541885376	0.06634988635778427	0.001804886618629098	-0.03261168301105499	-0.04568341001868248	-0.21435081958770752	0.36716797947883606	-0.009316322393715382	-0.1252785325050354	-0.12262877076864243	0.22593173384666443	0.2594376504421234	0.21629127860069275	0.011843387968838215	-0.17737194895744324	0.0272951852530241	-0.10363378375768661	0.1771811991930008	0.15209022164344788	-0.07083877921104431	0.019823715090751648	0.043765757232904434	0.12456727772951126	0.1734617054462433	-0.06113642826676369	-0.0961495116353035	-0.03663182631134987	-0.13434743881225586	0.11309850960969925	-0.0913439616560936	0.009868282824754715	-0.10635965317487717	-0.15587115287780762	0.08050554990768433	-0.15749716758728027	0.21351075172424316	-0.0808233767747879	-0.287878155708313	0.08849519491195679	0.18708379566669464	-0.1977957934141159	0.051933106034994125	0.25716641545295715	-0.10911809653043747	-0.20492182672023773	0.1785716861486435	0.14870110154151917	0.33523234724998474	0.16463589668273926	0.17228662967681885	-0.24415317177772522	0.09669304639101028	0.25820082426071167	0.18204009532928467	0.24926471710205078	-0.16887329518795013	-0.1373923271894455	0.17765463888645172	-0.16203169524669647	-0.09686120599508286	-0.3190620243549347	-0.12171119451522827	-0.03386750444769859	0.03336412087082863	-0.08170339465141296	0.33375537395477295	-0.3299058675765991	0.1848282516002655	0.0022297136019915342	-0.060721658170223236	0.16663186252117157	-0.08468573540449142	0.23839977383613586	-0.011056015267968178	0.08516006916761398	-0.23011550307273865	-0.07096903771162033	-0.12085926532745361	-0.16638118028640747	0.017333505675196648	-0.02400992624461651	-0.15225253999233246	-0.20172052085399628	0.09446468949317932	-0.045666903257369995	-0.096033476293087	-0.11950063705444336	-0.1267421543598175	0.011957745999097824	0.21482104063034058	0.04488437622785568	-0.028733763843774796	-0.055979952216148376	0.03719138354063034	0.13169978559017181	0.023944873362779617	-0.35439327359199524	-0.2288254350423813	0.07633139193058014	0.09876759350299835	-0.23168064653873444
dhiv1236	0.5939112901687622	0.3825962543487549	-0.5331332087516785	0.14295245707035065	0.11298321932554245	0.13898588716983795	-0.03319409489631653	0.09731565415859222	-0.32883912324905396	0.27324071526527405	-0.16266004741191864	0.19499078392982483	-0.2882729172706604	-0.3333272635936737	0.3274187445640564	0.19495370984077454	-0.022054826840758324	-0.1440201848745346	-0.2893441915512085	-0.026079153642058372	-0.31228160858154297	-0.02211996726691723	-0.041135694831609726	0.28586483001708984	0.021172096952795982	-0.04601994901895523	0.3531545400619507	-0.14890162646770477	0.07800053060054779	-0.06357698887586594	-0.024240363389253616	0.2776385545730591	0.05974718555808067	0.18277622759342194	-0.06646215915679932	-0.07664661854505539	0.031472790986299515	-0.22587503492832184	0.19743762910366058	0.20005826652050018	-0.09177763760089874	-0.403241902589798	0.08178619295358658	0.2790297567844391	0.33888182044029236	0.29737260937690735	-0.18925099074840546	0.18263685703277588	0.0014769610716030002	0.017533665522933006	-0.14040441811084747	-0.0035290231462568045	0.22711880505084991	0.08381181955337524	-0.35679736733436584	-0.057389747351408005	0.21664974093437195	0.03384333476424217	0.028120720759034157	0.19936968386173248	0.14072544872760773	-0.020792407914996147	-0.20781944692134857	0.19322121143341064	0.19228826463222504	0.22564227879047394	0.18735024333000183	0.1152409240603447	-0.057869888842105865	-0.23084105551242828	-0.1425953507423401	-0.13534680008888245	-0.2575016915798187	0.2693306803703308	0.004918431863188744	-0.20087486505508423	0.23165492713451385	-0.14629106223583221	0.0930655375123024	-0.015690220519900322	0.039225250482559204	0.3170406222343445	-0.12558236718177795	-0.38863605260849	-0.5599642395973206	0.11502072960138321	-0.24462561309337616	0.020501811057329178	-0.03097466006875038	-0.04250587150454521	-0.38244855403900146	0.08943987637758255	0.07410608977079391	-0.022721679881215096	-0.04568561166524887	0.04395098239183426	-0.5292752981185913	0.01944672502577305	-0.31649598479270935	0.07205473631620407	0.05709734186530113	-0.09040338546037674	0.00041596736991778016	-0.020640306174755096	-0.2242307811975479	-0.04650669917464256	0.19522881507873535	-0.0065560173243284225	0.04955482855439186	-0.060549553483724594	0.331863135099411	0.16377054154872894	0.38087910413742065	0.21127252280712128	0.17185194790363312	0.1914164423942566	-0.09947773814201355	-0.053165730088949203	0.14838716387748718	-0.4752204716205597	-0.05269277095794678	-0.331119567155838	0.073649562895298	0.14897426962852478	0.26288920640945435	0.18704114854335785	-0.11428891867399216	-0.0293358713388443
doma1260	0.19107238948345184	-0.0658973827958107	-0.10781966149806976	-0.1619688868522644	-0.03074047900736332	0.26221922039985657	-0.21031810343265533	0.11018328368663788	-0.25819557905197144	0.295088529586792	0.06524915248155594	0.25518837571144104	-0.30028724670410156	0.07957111299037933	0.06873214244842529	0.2487318515777588	0.03362267091870308	-0.39519479870796204	0.007914489135146141	-0.07839203625917435	-0.15073777735233307	0.49952611327171326	0.05403438210487366	0.029508080333471298	-0.29318690299987793	-0.3041835129261017	-0.06644588708877563	0.10798785090446472	-0.08156777918338776	-0.2647625505924225	0.3181871473789215	-0.19228163361549377	-0.2473594844341278	-0.041429515928030014	-0.01434401236474514	0.15271992981433868	-0.19367186725139618	-0.06867916136980057	-0.14771822094917297	0.10158421099185944	0.15061593055725098	0.10719120502471924	0.2988177239894867	-0.07362855225801468	-0.17667877674102783	0.15952043235301971	0.056951142847537994	0.13532306253910065	-0.22198061645030975	0.25074175000190735	0.06031431257724762	-0.017041020095348358	-0.30113133788108826	-0.12222010642290115	0.22767232358455658	-0.04274822399020195	-0.1300605982542038	0.05347654968500137	0.27036789059638977	-0.0013011033879593015	-0.2068953514099121	-0.05705771595239639	-0.555907666683197	-0.3994963467121124	-0.11895986646413803	0.21679484844207764	-0.23542964458465576	-0.18500927090644836	-0.08431381732225418	0.013906718231737614	0.239644855260849	-0.09907341003417969	0.037473294883966446	0.4461807310581207	0.6010804176330566	0.15772122144699097	0.21649624407291412	-0.05154922232031822	0.08543410897254944	0.18337099254131317	-0.17875441908836365	-0.12339655309915543	0.055676430463790894	-0.06693769991397858	0.4322546720504761	-0.36358487606048584	0.11117754876613617	-0.15964777767658234	-0.41533997654914856	-0.02030523493885994	-0.2100500464439392	0.053723230957984924	0.22547383606433868	-0.0034295949153602123	0.2525732219219208	-0.3773361146450043	-0.1736946851015091	-0.03490585833787918	-0.04206911846995354	-0.15177911520004272	-0.2689060568809509	0.006573090795427561	0.0006649852148257196	0.0885314792394638	-0.1563650369644165	-0.09162616729736328	0.14111988246440887	-0.18088437616825104	0.17341303825378418	-0.18755419552326202	0.008927421644330025	-0.099881112575531	0.06567215919494629	-0.10163538157939911	0.05498885735869408	0.43755364418029785	-0.0534333698451519	0.07035326957702637	-0.040077049285173416	-0.27583587169647217	0.12406699359416962	-0.19601795077323914	-0.012881260365247726	-0.20333947241306305	-0.14914003014564514	-0.2719128727912903	-0.1809670776128769	0.10150227695703506
gang1265	-0.19024541974067688	-0.15421094000339508	-0.1295394003391266	0.2713898718357086	-0.016303110867738724	-0.24486146867275238	-0.08363176882266998	0.21834838390350342	0.26627272367477417	0.14786235988140106	-0.14779512584209442	-0.123318150639534	0.11137095093727112	-0.08756889402866364	-0.3358853757381439	-0.09713790565729141	-0.1616937220096588	-0.17825600504875183	0.4544977843761444	-0.3917052149772644	0.2621264159679413	-0.13893166184425354	0.019743727520108223	0.31935569643974304	-0.21431417763233185	0.07297534495592117	0.2946312725543976	0.23588815331459045	-0.10805798321962357	0.10645860433578491	0.06970436125993729	-0.06713270395994186	0.12341493368148804	0.007476396393030882	-0.1539624035358429	0.10059810429811478	-0.01621299237012863	0.16566058993339539	-0.3053719401359558	0.07014798372983932	0.010473835282027721	-0.2199351042509079	-0.023469556123018265	0.14455322921276093	0.2251543402671814	-0.15455691516399384	0.008746914565563202	0.07926103472709656	-0.05553200840950012	0.0756537988781929	-0.07366900146007538	0.15890273451805115	-0.030449289828538895	0.03323465585708618	-0.021927006542682648	-0.10661547631025314	0.4191793203353882	0.1416294127702713	-0.30076494812965393	0.05377713590860367	-0.06519626080989838	0.01464230939745903	-0.014771472662687302	-0.010081049054861069	0.0777311623096466	0.21689929068088531	-0.3499077558517456	0.044976167380809784	0.07338899374008179	-0.04711168259382248	-0.04978080093860626	0.05215749144554138	-0.1488891839981079	0.22031518816947937	-0.022423474118113518	0.11771570891141891	-0.20907442271709442	0.06431017816066742	0.009149977937340736	-0.13443432748317719	-0.15791864693164825	-0.10822291672229767	-0.1758655160665512	-0.37975242733955383	0.21884360909461975	-0.09447905421257019	-0.1822398453950882	-0.0750337541103363	0.3431582450866699	0.21097803115844727	0.050773825496435165	-0.011258279904723167	0.08657930046319962	-0.009266954846680164	0.10690397024154663	-0.18657119572162628	0.4087972640991211	-0.36023902893066406	0.11105690896511078	0.004674989730119705	-0.12592177093029022	0.28233134746551514	0.1702510565519333	0.2444167286157608	-0.10317569226026535	-0.2392626851797104	0.22932030260562897	0.2527487874031067	0.13131259381771088	0.21372219920158386	-0.30606070160865784	0.05130346864461899	-0.045238859951496124	-0.03634331375360489	-0.15135736763477325	-0.17306014895439148	0.2156093567609787	0.07699233293533325	0.1675809919834137	-0.08817767351865768	0.04041901230812073	0.07309509068727493	-0.07906497269868851	0.07332862168550491	0.022109253332018852	0.3278195261955261	0.18039454519748688	0.20124121010303497
garh1243	0.20739218592643738	0.25069382786750793	-0.014813140965998173	0.4443705677986145	-0.2701629102230072	-0.4741846024990082	0.2511320412158966	-0.20685026049613953	0.17941893637180328	0.002936763223260641	0.0030147593934088945	0.2950124144554138	0.5527755618095398	0.06653010100126266	-0.09909574687480927	0.019735490903258324	0.258445680141449	0.1287030428647995	-0.35844406485557556	0.18975770473480225	0.010459410026669502	-0.19436608254909515	-0.09329921752214432	0.0725880116224289	0.19388288259506226	-0.07599199563264847	-0.0961315929889679	0.20233790576457977	-0.27679193019866943	0.21786175668239594	0.09545866400003433	-0.3385070264339447	0.2503458559513092	-0.22838857769966125	-0.1504574567079544	0.24999655783176422	-0.01782858930528164	-0.19899187982082367	0.21990634500980377	-0.09898677468299866	-0.22541363537311554	0.17694170773029327	-0.09456463158130646	-0.11583283543586731	-0.3781103193759918	0.0736246407032013	-0.233178973197937	0.26160433888435364	0.0609547384083271	-0.26558423042297363	0.004234327003359795	0.23492242395877838	-0.3466767370700836	-0.002551173558458686	-0.15459977090358734	-0.06641949713230133	0.07831232249736786	-0.023708010092377663	0.2061614692211151	-0.21439026296138763	0.2409197837114334	0.2665630280971527	0.29478874802589417	0.11580915749073029	-0.18452344834804535	0.06709789484739304	-0.11449876427650452	-0.1784914880990982	0.2878955006599426	-0.23857609927654266	0.14874130487442017	0.21155372262001038	-0.15513208508491516	0.016071194782853127	-0.1212538555264473	-0.09301505237817764	-0.09639294445514679	-0.14675311744213104	0.0865013375878334	-0.22336681187152863	0.39411771297454834	0.115786612033844	-0.02308080904185772	-0.07131337374448776	0.13945642113685608	0.2915894091129303	-0.000242606271058321	0.09772112220525742	0.12958654761314392	-0.0360652394592762	-0.10203583538532257	0.03888988122344017	-0.19621731340885162	-0.03602219000458717	-0.2273976355791092	-0.0792798176407814	-0.031457796692848206	-0.004241130780428648	0.10350923985242844	0.06072458624839783	-0.15123334527015686	0.03901829570531845	0.2813197076320648	-0.07384391129016876	0.14192810654640198	-0.4225372076034546	-0.05320976674556732	0.0732792466878891	0.09689787030220032	-0.06471498310565948	0.15734010934829712	0.19013190269470215	-0.16196535527706146	-0.0137094147503376	-0.0017439172370359302	-0.12888862192630768	-0.11602139472961426	-0.014776324853301048	0.03201361373066902	-0.1741863638162613	-0.15054626762866974	0.19158627092838287	0.07247452437877655	-0.032041747123003006	0.0608559288084507	0.007805951870977879	0.15381740033626556	0.12702281773090363
gawa1247	0.11070267111063004	0.16687849164009094	-0.23612388968467712	0.03362302854657173	0.16174641251564026	0.12583738565444946	0.03521959111094475	0.06191154941916466	-0.26729631423950195	-0.045191287994384766	-0.08177130669355392	-0.2939826548099518	-0.0035176805686205626	-0.12945036590099335	-0.4094522297382355	-0.012763598933815956	0.06309948861598969	0.2021976262331009	0.07064210623502731	-0.09714531153440475	-0.0588672012090683	0.1834128350019455	0.17756357789039612	-0.1679375171661377	0.33817797899246216	-0.11317667365074158	-0.08202456682920456	0.11739841103553772	0.08200199902057648	-0.0110832080245018	0.03428320586681366	0.012845047749578953	0.10756807774305344	0.1499488651752472	0.22394464910030365	0.12263009697198868	-0.04393037036061287	0.037929657846689224	0.12154199928045273	0.13682270050048828	0.17577438056468964	-0.06807693839073181	-0.018305012956261635	0.37432825565338135	0.1859191507101059	-0.03360924869775772	0.09820728749036789	-0.07239017635583878	-0.002713235327973962	-0.16467933356761932	-0.03489986062049866	-0.0444360226392746	0.042547937482595444	-0.032756123691797256	-0.004071185830980539	-0.31206387281417847	0.023645341396331787	-0.08874789625406265	0.2515560984611511	-0.11130320280790329	-0.15603475272655487	-0.289501428604126	-0.12955805659294128	-0.40468963980674744	0.12443392723798752	-0.2932959794998169	-0.20544330775737762	0.26208415627479553	-0.36625203490257263	-0.04640652611851692	0.169264018535614	0.16321732103824615	-0.014184238389134407	-0.05410609394311905	-0.1191374808549881	0.13459476828575134	-0.0618152916431427	-0.1377616673707962	0.1379692554473877	0.19096451997756958	0.007655381225049496	0.22614960372447968	-0.27711498737335205	0.24186153709888458	0.10812366008758545	-0.0025764929596334696	-0.2203141450881958	-0.21714523434638977	-0.011709784157574177	-0.22985099256038666	-0.10982814431190491	0.025693535804748535	0.27042052149772644	-0.2901361286640167	0.08442184329032898	0.055518634617328644	-0.13184508681297302	0.11509489268064499	0.1841796636581421	0.046284858137369156	-0.17891377210617065	0.09562517702579498	-0.042983297258615494	0.08553197979927063	0.23772858083248138	-0.05848829075694084	0.15383611619472504	-0.3385864496231079	0.17207203805446625	-0.1490747183561325	-0.134342223405838	-0.023077473044395447	-0.09462416917085648	-0.13534995913505554	-0.10707952827215195	0.09568200260400772	-0.16304951906204224	-0.007395565509796143	-0.09717842936515808	0.0020862941164523363	-0.1375666856765747	0.16467750072479248	-0.17149756848812103	-0.10423103719949722	0.13399933278560638	0.1883944272994995	-0.016824789345264435	-0.032736636698246
guja1252	-0.007822923362255096	-0.2314452826976776	-0.11856233328580856	0.07343049347400665	-0.1309141218662262	-0.055736035108566284	-0.028459684923291206	-0.19811321794986725	-0.1710231900215149	-0.10822134464979172	0.055496230721473694	0.23385204374790192	0.07383739203214645	0.172408327460289	-0.05307694897055626	0.021386880427598953	0.013722090981900692	0.07411619275808334	-0.016523752361536026	0.06547332555055618	0.1925538331270218	-0.17580628395080566	0.1223798468708992	0.1258360594511032	0.02014702558517456	0.10695245116949081	0.045767493546009064	-0.07151909172534943	0.001996465027332306	-0.03042498603463173	-0.11363809555768967	-0.007434196304529905	0.11234546452760696	0.169572651386261	-0.03921547159552574	0.01699204184114933	0.008280926384031773	0.01095518283545971	-0.08198618143796921	-0.10456840693950653	0.12106188386678696	0.14733768999576569	-0.1627560555934906	-0.1494050920009613	-0.14019717276096344	-0.120444655418396	-0.03627772629261017	0.08794871717691422	-0.10310045629739761	-0.0418066568672657	-0.0790066048502922	-0.0031261846888810396	0.15865583717823029	0.030347637832164764	0.024840092286467552	0.05291992053389549	-0.06357726454734802	-0.03965694084763527	-0.20005382597446442	0.17145290970802307	0.06470116227865219	-0.09584915637969971	0.13787922263145447	-0.06050782650709152	0.08540891110897064	0.02267698012292385	0.12101152539253235	0.02716335467994213	0.08779583871364594	-0.005660001188516617	-0.11709627509117126	0.08854713290929794	0.07737445086240768	-0.16535934805870056	0.014764519408345222	0.06384778767824173	-0.05540444329380989	0.10271322727203369	-0.05085214227437973	0.008562186732888222	-0.034786731004714966	-0.11114000529050827	0.07591879367828369	-0.20447956025600433	-0.26625555753707886	0.013128485530614853	0.10649876296520233	-0.014174418523907661	0.02439183183014393	0.005544315557926893	0.25190868973731995	0.14271262288093567	-0.25638794898986816	0.08988681435585022	-0.10733059793710709	0.0087398337200284	-0.1124391108751297	0.13524207472801208	0.08773566782474518	0.04113297536969185	0.19688495993614197	-0.07454901933670044	0.088555708527565	-0.13250747323036194	0.14797256886959076	-0.08284392207860947	-0.09030258655548096	-0.06838752329349518	0.001911037601530552	0.16989845037460327	0.1300305426120758	-0.003329882863909006	0.02018352411687374	0.05973157286643982	0.032129328697919846	-0.08641677349805832	0.09827679395675659	0.050111934542655945	0.11139244586229324	-0.044400617480278015	-0.09087987244129181	-0.09992828965187073	-0.18530765175819397	0.043271902948617935	-0.043979711830616	0.09242268651723862	0.008198327384889126	0.049700744450092316
hind1269	-0.1815154254436493	0.017794298008084297	0.1333933025598526	0.012758458964526653	0.08887235820293427	0.06601184606552124	-0.013715237379074097	-0.06995799392461777	0.10691141337156296	-0.07641585916280746	-0.12758445739746094	0.09491804987192154	0.08741831034421921	0.07986736297607422	0.05807159096002579	0.07499118149280548	-0.12308867275714874	-0.004766968544572592	-0.035375550389289856	-0.057652246206998825	0.10621405392885208	-0.06066093593835831	-0.12058651447296143	0.1116192489862442	-0.01770399510860443	0.04512816295027733	-0.10296236723661423	0.12032391875982285	0.018320074304938316	0.12323593348264694	-0.029531463980674744	0.04910368099808693	0.02205200120806694	-0.031360916793346405	-0.018886609002947807	-1.6314181266352534e-05	0.01980978064239025	-0.004405884072184563	0.018889663740992546	-0.09578389674425125	0.0787644237279892	-0.035492975264787674	0.061717648059129715	-0.11871115118265152	-0.052587974816560745	0.08250012248754501	0.00963788852095604	-0.017515117302536964	0.05204101651906967	0.00207488308660686	0.0403069444000721	-0.03189060091972351	0.021787257865071297	0.09304618835449219	0.0583241768181324	-0.09388343244791031	0.12541785836219788	-0.044108014553785324	-0.10362324118614197	0.1341710239648819	-0.12473472952842712	0.11689832806587219	0.11932165175676346	0.05248306319117546	0.09354695677757263	0.17987461388111115	-0.07932233065366745	0.035763032734394073	-0.061455998569726944	-0.04643285647034645	0.017715368419885635	-0.02594335377216339	-0.007499165367335081	0.026362989097833633	-0.16030311584472656	-0.021711133420467377	-0.03354125842452049	-0.12486758828163147	-0.04810236394405365	0.0009678605129010975	0.11194530129432678	-0.11911273002624512	0.06090638041496277	0.100526362657547	-0.1067042276263237	-0.0032944625709205866	-0.0416853204369545	-0.01258244551718235	0.06481907516717911	0.0645812377333641	-0.11506922543048859	0.12408958375453949	0.06376902759075165	0.10123938322067261	-0.15670034289360046	0.03138504922389984	0.2277914434671402	-0.2261476367712021	-0.026348914951086044	-0.11020976305007935	-0.004167376551777124	0.03179503604769707	0.10662677884101868	0.13034465909004211	-0.08121167123317719	0.15539167821407318	-0.049165237694978714	0.109865702688694	-0.008619572967290878	0.048810385167598724	0.10199359059333801	0.04776506498456001	-0.00981414970010519	0.017896508798003197	0.05817084759473801	0.16788223385810852	-0.08713449537754059	0.10834445059299469	-0.004201994743198156	-0.012041979469358921	-0.14703957736492157	0.12573015689849854	0.01080179214477539	0.12346532195806503	-0.1066385805606842	0.10805366933345795	0.006165940780192614	-0.05466771870851517
indu1241	0.4455627501010895	-0.20289283990859985	0.211450457572937	-0.04431035369634628	-0.5384868383407593	-0.3297399580478668	0.3240281045436859	-0.0775836780667305	0.20148050785064697	0.1525295078754425	0.160835400223732	-0.14476235210895538	-0.04613489657640457	-0.10997965931892395	-0.16067302227020264	0.17127692699432373	-0.3988947570323944	-0.17708122730255127	-0.15041768550872803	0.5742945075035095	-0.15114733576774597	0.0894293561577797	-0.03253840655088425	-0.24358350038528442	0.20153649151325226	-0.1867479383945465	0.20655864477157593	-0.03077554889023304	0.17486797273159027	0.24136953055858612	0.15430545806884766	-0.31058526039123535	-0.23208242654800415	0.31429585814476013	0.11415743082761765	-0.017849110066890717	-0.02488614059984684	-0.45186617970466614	0.5006853342056274	0.14734609425067902	0.11264894157648087	0.03686521202325821	0.44267794489860535	-0.09547396749258041	0.07989282160997391	0.04304279014468193	0.14203080534934998	0.1623958796262741	-0.0393981859087944	0.29134878516197205	-0.09951956570148468	0.1530008465051651	-0.1400434374809265	-0.08571368455886841	-0.05133965238928795	0.020403753966093063	0.14413046836853027	-0.008511411026120186	-0.34802788496017456	-0.06335483491420746	-0.0835808515548706	-0.17220258712768555	-0.3146957755088806	-0.08531183749437332	-0.27945902943611145	0.28769415616989136	-0.16662311553955078	0.20877662301063538	0.004719113931059837	-0.13809730112552643	0.13949525356292725	0.3364339768886566	0.23417489230632782	-0.07809020578861237	0.4141087532043457	0.07110798358917236	-0.0920940414071083	-0.06757320463657379	0.3636714518070221	0.06719522178173065	0.34179240465164185	0.059792667627334595	-0.1887061595916748	0.32542064785957336	0.4423845112323761	0.0812469944357872	0.13727408647537231	0.05601651966571808	-0.04989511892199516	0.004983683116734028	0.2543489336967468	-0.20422333478927612	0.396289199590683	-0.039090175181627274	-0.3638058006763458	0.05860913544893265	0.01051500253379345	0.20730309188365936	0.16195723414421082	-0.14195039868354797	-0.1479031890630722	-0.15962766110897064	-0.2023843377828598	-0.25785526633262634	-0.027941608801484108	0.2535807192325592	0.1786939650774002	0.09232349693775177	0.14222322404384613	0.3192092180252075	-0.10853487998247147	-0.027597254142165184	-0.3211377263069153	-0.10004404932260513	0.047364603728055954	-0.1013982817530632	0.08358730375766754	0.13929475843906403	-0.1056496873497963	0.09423058480024338	0.5750735998153687	0.035485878586769104	-0.02268802560865879	0.12768155336380005	-0.2481028139591217	0.42558032274246216	0.24391669034957886	-0.052243899554014206
jaun1243	-0.2695384919643402	-0.117558553814888	0.21980972588062286	-0.0015185193624347448	-0.2676868736743927	0.16633901000022888	0.24177904427051544	0.04939862713217735	0.05312434583902359	-0.3231707811355591	0.19455690681934357	-0.5627698302268982	-0.07372307032346725	0.06857869029045105	-0.3175830543041229	0.38719743490219116	-0.13725300133228302	0.47298339009284973	0.11666710674762726	-0.5194083452224731	-0.05611323565244675	-0.006157202180474997	0.027569247409701347	0.09580065310001373	0.0005239787278696895	-0.13131017982959747	0.0435701385140419	-0.1398894041776657	-0.3591262996196747	0.11602112650871277	-0.5632199048995972	0.15910042822360992	0.30593711137771606	-0.00983024388551712	0.0032512121833860874	-0.06901810318231583	0.31144338846206665	-0.08667674660682678	-0.12592412531375885	-0.18652448058128357	0.11129925400018692	0.16860336065292358	-0.2688034176826477	0.22371071577072144	0.2323671579360962	0.080974280834198	0.0359102264046669	0.1099579706788063	0.14166498184204102	0.17203640937805176	0.0783575177192688	0.19585905969142914	-0.23150309920310974	-0.019575132057070732	0.13020186126232147	-0.05993499234318733	0.020248394459486008	-0.23571927845478058	-0.12014404684305191	-0.021270135417580605	-0.15782895684242249	0.05770757049322128	0.16612650454044342	0.003172109369188547	-0.2949916124343872	-0.13746580481529236	-0.2117352932691574	0.21860480308532715	-0.3610726594924927	-0.2985129952430725	-0.06271593272686005	-0.1727505326271057	0.3936937153339386	0.35816845297813416	0.0014620756264775991	0.09268242865800858	-0.3089464604854584	-0.5002937316894531	0.24259884655475616	0.030778327956795692	-0.01097226794809103	-0.2556379437446594	0.018162168562412262	0.32628872990608215	0.16403858363628387	-0.07344770431518555	0.2549046277999878	0.08997134119272232	-0.21025003492832184	0.15017493069171906	0.05140850692987442	-0.17089726030826569	-0.05213495343923569	-0.2134149670600891	-0.15001121163368225	-0.1780143827199936	0.22046999633312225	0.33615750074386597	0.19762957096099854	-0.0823214128613472	0.15945932269096375	0.16744109988212585	-0.1575080007314682	0.09498674422502518	0.035858336836099625	-0.16191932559013367	0.32372039556503296	0.4787942171096802	-0.06546176224946976	0.008004816249012947	0.0725192278623581	0.11857422441244125	-0.11387907713651657	0.0453503355383873	0.11390157788991928	-0.07527957856655121	-0.058462921530008316	0.10991047322750092	0.01104007288813591	-0.33192697167396545	0.0421084426343441	0.3835420310497284	0.14129169285297394	0.10211057215929031	-0.0340692363679409	-0.14102834463119507	-0.23798160254955292	-0.08767887204885483
kach1277	-0.15282858908176422	-0.16889309883117676	0.25497737526893616	-0.2702959477901459	0.0564437173306942	0.40546515583992004	0.20656989514827728	0.019348520785570145	-0.325434148311615	-0.10880092531442642	-0.08754517138004303	-0.07204589992761612	-0.07603304833173752	0.10290908068418503	-0.11838991194963455	0.02513175457715988	0.16987557709217072	0.1945786029100418	0.045407384634017944	0.11033759266138077	0.10477618873119354	0.08557304739952087	0.1567770540714264	-0.1871328353881836	0.08294988423585892	0.056812141090631485	0.15096400678157806	0.10156571120023727	0.142781600356102	0.2083849459886551	-0.11338173598051071	-0.1642950177192688	0.0069697205908596516	-0.30748870968818665	-0.09897171705961227	0.08496017009019852	0.11580873280763626	-0.05073489621281624	-0.4091334044933319	0.09723939746618271	0.07815304398536682	-0.19297043979167938	-0.22536969184875488	-0.01666640117764473	-0.18245069682598114	-0.19119827449321747	-0.06350880116224289	0.476251482963562	-0.060980718582868576	0.12833310663700104	-0.19589881598949432	0.0601896233856678	-0.15074144303798676	0.12232904136180878	-0.13753660023212433	0.20823512971401215	-0.0422527939081192	-0.2256525754928589	0.034850772470235825	0.0513581857085228	-0.10498371720314026	0.43631473183631897	-0.2166411578655243	0.11168514937162399	0.1052858978509903	-0.26950955390930176	0.13509038090705872	0.08681007474660873	0.04364144429564476	0.04023735597729683	0.1750984787940979	0.2779238522052765	-0.052299514412879944	0.39099571108818054	0.2518625557422638	0.00341205601580441	0.45320138335227966	0.007794186007231474	-0.30770617723464966	-0.23307259380817413	-0.11309105902910233	-0.007073733955621719	-0.1883414089679718	-0.011773142963647842	0.0897815078496933	-0.03593187406659126	-0.23815439641475677	-0.19012129306793213	-0.004144781269133091	0.044854797422885895	-0.2015375941991806	-0.24692174792289734	-0.4252816140651703	0.11998914182186127	-0.07274958491325378	0.13483785092830658	0.09997591376304626	0.0651620551943779	-0.17465952038764954	-0.04501191899180412	-0.0017535019433125854	-0.10349204391241074	0.04543798416852951	0.0992744117975235	-0.02297716960310936	-0.2366480529308319	-0.296532541513443	0.4296780228614807	-0.029996514320373535	0.1652960181236267	-0.13083352148532867	-0.09958516061306	-0.13660432398319244	0.24699456989765167	-0.25166141986846924	-0.20666539669036865	-0.033752016723155975	-0.13606813549995422	-0.003388798562809825	-0.08193237334489822	-0.11131352186203003	0.1456843763589859	0.12535612285137177	-0.22917769849300385	0.01061219908297062	-0.0648333802819252	0.05895539000630379	0.04677823558449745
kala1372	0.1998637318611145	-0.24808155000209808	0.06525707244873047	-0.2845832109451294	-0.01682235859334469	0.12634530663490295	-0.18162484467029572	-0.2050257921218872	0.06624142080545425	-0.05273053050041199	-0.007140446919947863	-0.06706727296113968	-0.14095564186573029	-0.3927336037158966	-0.35926902294158936	-0.11579113453626633	0.030278369784355164	0.17440438270568848	0.3460157513618469	-0.14479900896549225	-0.4781811237335205	0.05981185659766197	0.35784727334976196	0.14357349276542664	-0.11369036883115768	-0.030121242627501488	-0.31609758734703064	0.5965158343315125	0.06172114610671997	-0.1259484589099884	0.0391819030046463	0.0907105803489685	0.06322021782398224	0.10705305635929108	0.06717589497566223	0.03638555482029915	0.009235430508852005	0.33206596970558167	0.5855926871299744	0.247027188539505	0.17854176461696625	0.3093693256378174	-0.16725575923919678	-0.12294487655162811	0.4068435728549957	0.2127194106578827	0.17192573845386505	0.015925582498311996	-0.2435440868139267	-0.12452079355716705	0.3674657642841339	-0.1096097007393837	-0.14286457002162933	0.18586649000644684	0.08369823545217514	0.18796463310718536	-0.09262312948703766	0.10068050771951675	-0.22107261419296265	-0.060782331973314285	-0.06460051238536835	-0.11890732496976852	0.17767389118671417	-0.035365618765354156	-0.05179249122738838	0.07652299106121063	0.23996320366859436	-0.13915888965129852	-0.03346916660666466	-0.10496500134468079	-0.2392815500497818	-0.17341263592243195	0.031655844300985336	0.19762006402015686	0.18357816338539124	-0.023949015885591507	0.159124955534935	-0.00826148223131895	-0.022003352642059326	-0.1731749027967453	-0.2249765396118164	0.30698227882385254	0.24297304451465607	0.07786712795495987	0.20582139492034912	-0.06091374158859253	-0.2611628472805023	-0.020022951066493988	-0.18182013928890228	-0.14863424003124237	0.3631429076194763	-0.18489599227905273	0.13513384759426117	0.04142036288976669	0.09160692244768143	-0.09895498305559158	0.050368648022413254	0.30383673310279846	-0.06954199075698853	0.2122485190629959	0.11628754436969757	0.2503168284893036	0.13042108714580536	0.030403422191739082	0.09967408329248428	-0.1368834525346756	0.3492741882801056	-0.27884259819984436	-0.13936707377433777	0.03460707515478134	0.346735417842865	0.022063978016376495	-0.28042569756507874	-0.15554068982601166	0.11893399804830551	0.1591474860906601	-0.0766277089715004	0.017439033836126328	0.06275517493486404	-0.16243720054626465	-0.07138726115226746	-0.3756043314933777	-0.12752026319503784	-0.09247352182865143	-0.09229571372270584	0.27403098344802856	-0.13128484785556793	-0.29373598098754883
kala1373	-0.04777713119983673	-0.15223973989486694	-0.23996573686599731	-0.16641923785209656	0.057079121470451355	-0.08787108957767487	0.058536596596241	0.29416194558143616	0.2001422494649887	0.12966597080230713	0.04973956197500229	-0.10772676020860672	0.05213413015007973	-0.09317637979984283	-0.11600128561258316	-0.21613726019859314	-0.5492619276046753	0.028774704784154892	-0.12130850553512573	-0.1567608118057251	0.009064699523150921	0.13590940833091736	-0.34526360034942627	0.01699765957891941	0.07534085959196091	0.06236092001199722	0.08705861866474152	0.053575821220874786	0.06184256076812744	-0.3231411278247833	0.14424720406532288	0.06831599026918411	-0.004983530845493078	0.04357577860355377	-0.15371808409690857	-0.04229041561484337	-0.02027161419391632	0.13722042739391327	-0.011136829853057861	-0.029891518875956535	0.19541841745376587	0.10050809383392334	-0.014195824973285198	0.05305708572268486	-0.0240473710000515	0.3773828148841858	0.16945739090442657	0.07145971059799194	-0.11555483192205429	-0.21816419064998627	-0.07725220173597336	0.40331897139549255	-0.04428963363170624	-0.11635644733905792	0.014914789237082005	-0.06566096842288971	-0.2971997559070587	0.14657056331634521	0.03776326775550842	0.3407977521419525	0.02295459248125553	-0.1373869776725769	-0.05955258384346962	0.0016008084639906883	-0.09127949923276901	0.031124858185648918	-0.1220836266875267	0.08271853625774384	-0.0452849455177784	-0.06781002134084702	0.11524373292922974	-0.07822734117507935	0.13772356510162354	-0.05453367158770561	0.26833102107048035	0.14153888821601868	0.3755970001220703	0.006699916906654835	0.21232306957244873	-0.11769223213195801	0.3418779671192169	0.10964023321866989	-0.28843387961387634	0.16492468118667603	-0.030006617307662964	-0.4228062629699707	-0.08602610230445862	-0.08163978904485703	0.2837255895137787	-0.2139798104763031	0.014928803779184818	-0.07750847935676575	0.02233550138771534	-0.36039456725120544	-0.26576778292655945	0.08576487004756927	-0.31451600790023804	0.18307802081108093	-0.07959476113319397	0.37585607171058655	-0.038499489426612854	0.2580537796020508	-0.45519256591796875	0.1564655601978302	0.04352330416440964	-0.201252743601799	0.08974862098693848	-0.15415112674236298	0.33483022451400757	0.02649482525885105	0.13208551704883575	0.12621089816093445	-0.05375096946954727	0.0333419106900692	0.36318695545196533	-0.26639533042907715	0.10723448544740677	-0.1326097548007965	0.1563076227903366	-0.16872617602348328	0.09155507385730743	-0.09765346348285675	-0.4049014747142792	-0.12124353647232056	-0.17068374156951904	-0.07363945990800858	-0.00700714997947216	-0.3365088999271393
kash1277	-0.09970531612634659	-0.19993701577186584	-0.05075076222419739	-0.03367625176906586	0.06717493385076523	-0.3445567488670349	-0.0754506066441536	-0.23551170527935028	-0.1754685789346695	-0.10070393234491348	0.11155366897583008	0.022974355146288872	0.0019322301959618926	-0.13806962966918945	-0.05935642495751381	0.0707065612077713	-0.14234742522239685	-0.08378949761390686	-0.185609832406044	0.0412081815302372	-0.0035025624092668295	0.038969170302152634	0.13180260360240936	-0.13639557361602783	-0.04584663361310959	-0.1874358057975769	-0.28033122420310974	0.17406772077083588	0.04744033142924309	0.15993225574493408	0.08270807564258575	0.10166405141353607	-0.02364516444504261	0.039457015693187714	0.08951181173324585	-0.034419670701026917	-0.027228130027651787	-0.09328288584947586	-0.08111987262964249	0.1674099564552307	-0.030396394431591034	-0.237434521317482	-0.1980237513780594	0.1524074375629425	0.10244423896074295	0.08858171850442886	0.012624518014490604	0.02057007886469364	0.10653748363256454	-0.22219502925872803	-0.06671073287725449	-0.08823760598897934	0.10813919454813004	-0.13861428201198578	-0.14002014696598053	0.0492420494556427	-0.09182049334049225	0.06602743268013	-0.20962871611118317	-0.04202010855078697	0.01388417650014162	0.31885674595832825	0.04162456840276718	0.1428094506263733	-0.26919975876808167	0.07272587716579437	-0.08462099730968475	-0.05049736052751541	-0.0366852693259716	0.19641326367855072	-0.0997854471206665	-0.06251227855682373	0.09143512696027756	0.08754845708608627	-0.0351630263030529	-0.07920485734939575	-0.13768360018730164	0.15153056383132935	0.12449224293231964	0.20881767570972443	-0.21506261825561523	0.2910171449184418	0.10121145844459534	0.09260155260562897	0.1088980957865715	-0.010063938796520233	-0.1535056084394455	0.09151683747768402	0.1162949651479721	-0.08947589993476868	-0.33068475127220154	0.09969648718833923	0.15359783172607422	-0.10061860829591751	0.0362580344080925	0.03465047478675842	-0.27547401189804077	-0.05349074304103851	-0.2444199025630951	-0.1760694533586502	0.1768738031387329	-0.014405135996639729	-0.16353727877140045	0.025661204010248184	-0.10624147206544876	0.006679707672446966	0.17237399518489838	0.015441675670444965	0.14459702372550964	-0.20052789151668549	0.09301085770130157	-0.008254141546785831	0.03259197622537613	0.13197998702526093	0.032456159591674805	-0.4692416489124298	0.012415958568453789	-0.12935703992843628	-0.10990896075963974	-0.05492172762751579	0.20389167964458466	-0.03903947398066521	0.06652601808309555	0.0233612097799778	-0.09644486755132675	0.07954296469688416	0.056090451776981354	0.17987270653247833
khet1238	0.3399773836135864	-0.2586260437965393	-0.20446719229221344	0.2168123424053192	0.26242244243621826	-0.0618731863796711	0.12420965731143951	0.09712561219930649	0.00045584834879264235	-0.05396035313606262	0.39101889729499817	0.259447306394577	0.42218124866485596	-0.04830428212881088	0.14942754805088043	0.05357329174876213	-0.11212334781885147	-0.17536459863185883	-0.2425936758518219	-0.09525929391384125	0.13731397688388824	-0.3838118612766266	0.18756870925426483	-0.47585275769233704	0.42102351784706116	-0.09841812402009964	0.40243321657180786	0.14840294420719147	0.4932900667190552	-0.0516962893307209	-0.10057688504457474	-0.13821060955524445	0.10685849189758301	-0.11079985648393631	0.1234489381313324	-0.1219198927283287	-0.009756442159414291	-0.07904540747404099	0.02514631859958172	0.48529043793678284	-0.1795714944601059	-0.09043637663125992	-0.24381178617477417	0.3965805470943451	-0.09416484832763672	0.004604916088283062	0.19083061814308167	-0.07309024780988693	0.058278754353523254	0.13537202775478363	-0.12728576362133026	-0.10697918385267258	0.05485796928405762	0.06630055606365204	0.021347420290112495	0.1798161119222641	0.32993409037590027	0.12865039706230164	-0.03207817301154137	-0.028821077197790146	0.0829552412033081	0.28805097937583923	0.4036523401737213	-0.01538410596549511	0.36038628220558167	0.11212706565856934	0.13525629043579102	0.3368622064590454	0.19431746006011963	-0.17828068137168884	0.027675475925207138	-0.07795913517475128	-0.04473254084587097	0.2240179479122162	0.3696421682834625	0.125514954328537	0.023627540096640587	0.050088755786418915	0.29369431734085083	-0.16122546792030334	-0.03155898675322533	-0.14983491599559784	0.3627438247203827	0.009756932966411114	0.3032448887825012	-0.14540737867355347	-0.18660885095596313	-0.4144836664199829	-0.18495230376720428	-0.2366732656955719	0.12382324039936066	0.01061621680855751	0.09168121963739395	-0.31316831707954407	0.3606620728969574	0.0529639832675457	0.2461748719215393	0.19591358304023743	-0.19637762010097504	-0.07263780385255814	-0.042924653738737106	-0.31430795788764954	-0.07660742104053497	-0.1621486246585846	0.22051051259040833	0.20503592491149902	0.4137117564678192	0.49087417125701904	0.3736037611961365	0.24134032428264618	0.005083589348942041	0.17492413520812988	-0.3600453734397888	0.31663450598716736	-0.19115163385868073	-0.17816199362277985	0.017916332930326462	-0.014805404469370842	0.07023321092128754	0.1511159986257553	-0.11838391423225403	-0.029294487088918686	0.15760307013988495	-0.07754050940275192	0.0954282134771347	-0.271235853433609	0.20290330052375793	-0.2050371766090393
khow1242	-0.1034020408987999	0.14167483150959015	0.0435592345893383	-0.2319348156452179	0.00025775807444006205	-0.05401700735092163	0.04842861741781235	0.30334827303886414	0.06465782970190048	0.24538986384868622	-0.18820978701114655	0.06150463968515396	-0.06470493972301483	-0.1719476282596588	-0.13056036829948425	0.1424434781074524	0.42614278197288513	0.1841437965631485	-0.23672522604465485	0.14527301490306854	-0.38115358352661133	0.18842366337776184	-0.08979504555463791	-0.08138853311538696	0.051658619195222855	0.09130235761404037	-0.0754655972123146	0.44209036231040955	0.06979940831661224	0.014079703949391842	0.014803003519773483	0.22562392055988312	-0.09210443496704102	0.04155668616294861	0.0006242408417165279	-0.21865102648735046	0.005168534815311432	-0.08130715042352676	-0.035352468490600586	0.2912704348564148	0.3418090343475342	0.07581166177988052	-0.21680998802185059	0.1732104867696762	0.28410816192626953	0.3374209702014923	-0.15443353354930878	0.22709710896015167	-0.20882567763328552	-0.093490369617939	0.44535738229751587	-0.08645042777061462	0.21581034362316132	-0.16453109681606293	0.021736666560173035	0.3384435176849365	0.1555502861738205	-0.025592034682631493	0.26245296001434326	-0.011899573728442192	0.07279590517282486	-0.30008378624916077	-0.20076163113117218	0.03586443513631821	-0.29195475578308105	-0.03668439760804176	0.18882636725902557	-0.19189715385437012	-0.20116618275642395	-0.09145187586545944	-0.2513791024684906	0.1544131338596344	-0.04378179460763931	0.11769875138998032	-0.19309651851654053	0.18182776868343353	-0.18975737690925598	0.23164966702461243	-0.09960515052080154	0.1285083144903183	-0.01684720627963543	0.12568068504333496	-0.05454720929265022	-0.04804977774620056	-0.09800399094820023	-0.03799106553196907	-0.056013528257608414	-0.3005330562591553	0.022859632968902588	-0.09371009469032288	0.14056165516376495	-0.23836980760097504	0.2146323025226593	0.07971982657909393	0.060748111456632614	-0.17725113034248352	-0.36456090211868286	0.22556018829345703	-0.07592983543872833	0.027564847841858864	0.07069145143032074	-0.11086288839578629	0.11103303730487823	-0.42756688594818115	0.054910365492105484	-0.08079421520233154	-0.22009459137916565	-0.2813802659511566	0.0008913407800719142	0.10776376724243164	-0.0015530266100540757	0.11907792836427689	0.07413063198328018	0.09233441948890686	0.2910533547401428	0.2680387496948242	0.11979218572378159	-0.07802506536245346	-0.11625156551599503	-0.2804640829563141	0.10936436802148819	-0.13632968068122864	-0.052653711289167404	-0.31686338782310486	0.09685860574245453	0.14889700710773468	0.12856735289096832	0.28583407402038574
kohi1248	-0.38903796672821045	-0.4351760745048523	0.19777032732963562	-0.19075118005275726	-0.16252648830413818	-0.06477785855531693	-0.1837090700864792	0.04411064833402634	-0.16061358153820038	0.20358195900917053	0.23287087678909302	0.034090038388967514	0.08426511287689209	0.07135814428329468	-0.11799971014261246	-0.03738371282815933	0.10364367067813873	-0.07017546892166138	-0.10186385363340378	0.10726866126060486	-0.03026387467980385	0.3613797724246979	0.23841643333435059	-0.32202833890914917	0.27130958437919617	0.021954048424959183	-0.13231071829795837	0.09223636239767075	0.25111088156700134	0.27199089527130127	-0.04356171935796738	-0.0076382760889828205	-0.07066991180181503	0.19097377359867096	0.08438020944595337	0.03358553349971771	0.19492794573307037	-0.43791985511779785	0.24410444498062134	-0.13151590526103973	-0.03690844401717186	0.07956001162528992	-0.04357214644551277	0.18469595909118652	0.2675517201423645	-0.23542220890522003	0.08778190612792969	0.5192437171936035	-0.012031669728457928	0.1778876632452011	-0.2502027153968811	0.05150429159402847	-0.04864666238427162	-0.34110409021377563	-0.055743567645549774	-0.39685752987861633	-0.27014046907424927	-0.20629103481769562	0.3172587454319	-0.1715746819972992	-0.048159465193748474	-0.07301083952188492	0.03579072281718254	0.05292550101876259	-0.12809167802333832	0.0894407331943512	-0.16014234721660614	0.008085662499070168	0.05450653284788132	-0.21949352324008942	0.1374022215604782	-0.26204001903533936	-0.02820567600429058	-0.10822312533855438	0.28252995014190674	-0.07793556153774261	0.390585720539093	-0.1617714911699295	0.10504429042339325	-0.12851734459400177	-0.23642803728580475	0.3827061355113983	0.21800298988819122	0.18963071703910828	0.34219059348106384	0.050929997116327286	-0.26856881380081177	-0.08585964143276215	-0.326443076133728	-0.06728485971689224	0.2118181437253952	0.09801528602838516	0.15758495032787323	0.09918718039989471	-0.3320271670818329	-0.15207640826702118	-0.2982463836669922	0.11136884987354279	-0.007067347411066294	0.285921186208725	-0.2378586232662201	0.041474971920251846	-0.09521618485450745	0.003641414688900113	-0.12506859004497528	0.5120081901550293	0.10270274430513382	0.4439864456653595	0.4836113750934601	-0.1041397675871849	0.2540883421897888	-0.01734154485166073	-0.19199833273887634	-0.20193888247013092	-0.13822247087955475	0.2812454104423523	0.1289408802986145	-0.27923551201820374	-0.3581598699092865	-0.11366450786590576	0.23977047204971313	0.10749411582946777	-0.09387785196304321	-0.25574344396591187	0.22775058448314667	-0.08354271948337555	-0.12819436192512512	0.09584979712963104
konk1267	-0.03519545495510101	-0.11684533953666687	-0.2311391830444336	0.3053257167339325	-0.009787457063794136	0.15185728669166565	0.18255017697811127	-0.46915459632873535	0.11223335564136505	0.2242744266986847	0.03693784773349762	-0.0004784749762620777	0.16996517777442932	-0.07247345894575119	-0.11513114720582962	0.04517297446727753	0.3146560788154602	0.13700546324253082	0.0022753546945750713	0.07679467648267746	0.07126786559820175	-0.040951527655124664	0.034026287496089935	-0.18238236010074615	-0.18766342103481293	-0.16571606695652008	-0.1810040920972824	0.0967998057603836	-0.11819770932197571	-0.04875672236084938	0.07262268662452698	-0.2747429609298706	-0.012253720313310623	0.1616038680076599	-0.0855054184794426	0.03012322261929512	0.03012268990278244	-0.02227768674492836	-0.16326138377189636	-0.12540389597415924	0.2177474945783615	-0.03984617441892624	0.09903862327337265	-0.23966491222381592	0.09275516867637634	-0.1754133403301239	-0.1796678751707077	-0.20889617502689362	0.12983332574367523	0.13778550922870636	-0.24410958588123322	-0.1665298342704773	-0.04136839881539345	-0.07450606673955917	-0.22659283876419067	-0.2058410346508026	-0.2736537754535675	0.1171811893582344	-0.1578485369682312	-0.19122731685638428	-0.20327873528003693	0.037613820284605026	-0.263747900724411	-0.015684667974710464	0.030509741976857185	-0.2858113646507263	0.11090463399887085	-0.07452232390642166	0.18888583779335022	-0.10492714494466782	-0.027587099000811577	0.008176492527127266	0.09268549829721451	0.21059857308864594	0.11287067085504532	0.06282716244459152	-0.11804724484682083	0.05409057438373566	-0.013612844981253147	-0.2610783278942108	0.19910411536693573	-0.1152828261256218	-0.16276411712169647	0.07054997235536575	0.18394947052001953	-0.05308091267943382	0.3988807201385498	-0.12599292397499084	-0.21536529064178467	0.03486547991633415	-0.2247578501701355	0.14549806714057922	-0.3915444016456604	-0.12132888287305832	0.15981002151966095	0.021805571392178535	-0.3813494145870209	-0.14294680953025818	0.06088041514158249	-0.14721433818340302	0.19982261955738068	-0.2673880159854889	0.2715483605861664	0.12787772715091705	-0.09889687597751617	-0.4123532176017761	0.16958726942539215	-0.179964080452919	-0.27877601981163025	-0.4580778479576111	-0.3079562485218048	-0.03354160860180855	0.18109409511089325	-0.019022801890969276	-0.05093848705291748	0.061134908348321915	-0.1289055049419403	0.1258566975593567	0.12786337733268738	-0.1481342613697052	-0.04158827289938927	-0.04552890360355377	-0.17869602143764496	-0.018831489607691765	0.2232554852962494	0.18687844276428223	0.23801515996456146	-0.07376597821712494
kuma1273	-0.06928449869155884	0.1556994915008545	-0.05730510130524635	0.07164053618907928	0.04953042417764664	-0.0938427522778511	0.14572985470294952	-0.04493186995387077	0.14602741599082947	-0.06737646460533142	0.07015468925237656	-0.0918617770075798	-0.00608938280493021	0.13674046099185944	-0.0468146875500679	0.045468345284461975	-0.042492542415857315	-0.011373518966138363	0.034303873777389526	-0.08635245263576508	0.028769804164767265	0.184478297829628	0.03252490609884262	-0.061185579746961594	0.10192190855741501	0.14672602713108063	-0.13212066888809204	0.06697091460227966	0.0017237782012671232	0.11664228141307831	-0.15408103168010712	0.029582267627120018	-0.07854192703962326	-0.016641847789287567	0.0517403669655323	0.08338703215122223	0.04670988768339157	-0.1197478324174881	-0.0807613953948021	-0.20892225205898285	-0.023779500275850296	0.18478640913963318	0.11310414224863052	0.12499605864286423	-0.08752568811178207	-0.23495668172836304	0.014902500435709953	-0.1271718144416809	-0.09105832874774933	-0.2932218909263611	0.11719080805778503	0.16243453323841095	-0.17361481487751007	-0.054316457360982895	-0.04796992614865303	0.08950897306203842	-0.06855183839797974	-0.13105764985084534	0.18507803976535797	-0.11772889643907547	0.014261266216635704	-0.025876641273498535	-0.023884925991296768	0.028345415368676186	0.06267354637384415	0.08108755201101303	-0.262123167514801	-0.04405271261930466	-0.022803982719779015	-0.09758301079273224	0.0016050625126808882	0.060704123228788376	-0.12843698263168335	-0.11283903568983078	-0.04422783479094505	-0.05433410406112671	0.05865577235817909	-0.1923978328704834	-0.03242827579379082	-0.20458920300006866	-0.12695223093032837	0.18534085154533386	0.09243711084127426	0.10374221950769424	0.11642666906118393	0.16629791259765625	0.12290772050619125	0.06873495876789093	-0.12401317059993744	0.08930271863937378	0.053535278886556625	-0.19906672835350037	-0.20850253105163574	-0.04326649755239487	0.04246054217219353	0.041122883558273315	0.20156686007976532	-0.08812341094017029	-0.16427600383758545	0.01734950579702854	0.15043525397777557	0.15069764852523804	-0.13471101224422455	0.015441836789250374	0.17115840315818787	-0.096605084836483	0.036842118948698044	0.005960509181022644	-0.12283919751644135	0.03505568206310272	0.0209235530346632	-0.04443088546395302	0.0742458924651146	0.15641777217388153	0.09404745697975159	0.1325610727071762	-0.02501155063509941	0.021076342090964317	0.062224168330430984	0.0826009213924408	-0.005429933778941631	0.005687342956662178	-0.003153877565637231	0.06205040588974953	-0.1045941412448883	-0.05295015126466751	-0.1323985904455185	0.20005984604358673
kura1247	-0.09034863859415054	-0.12389273941516876	-0.01653083972632885	-0.11329585313796997	0.011846097186207771	-0.0549156628549099	0.07279471307992935	0.12799271941184998	0.022031346336007118	0.4303938150405884	0.06788473576307297	0.21381913125514984	-0.2032451331615448	-0.3463231921195984	0.024021180346608162	0.006828645244240761	-0.05976644903421402	-0.12489873170852661	0.16704311966896057	0.2921106815338135	-0.42166370153427124	0.06030876189470291	-0.06517551094293594	-0.22677414119243622	-0.22877031564712524	-0.35667893290519714	0.01994899846613407	0.04604683443903923	0.30876293778419495	0.2782911956310272	-0.08961518108844757	-0.4879169464111328	0.012989149428904057	-0.027061162516474724	-0.0032204098533838987	0.051241435110569	0.07250417768955231	-0.32304081320762634	0.15875503420829773	0.048203032463788986	0.3936357796192169	0.22352612018585205	0.06869330257177353	0.14759424328804016	0.42677074670791626	-0.12606659531593323	-0.10579173266887665	-0.31160977482795715	-0.2698061764240265	0.041782863438129425	0.06557091325521469	0.2163088619709015	0.005656864959746599	-0.024844011291861534	0.40409377217292786	-0.2961873710155487	-0.22282548248767853	0.12094903737306595	0.4684295952320099	-0.11474604904651642	-0.13101494312286377	-0.27002665400505066	-0.4703843891620636	0.07785288244485855	-0.10353945940732956	0.1969013661146164	-0.24617689847946167	0.222232386469841	-0.33703726530075073	-0.15533962845802307	0.1831384003162384	-0.2587841749191284	0.13124658167362213	0.10580401122570038	-0.014162551611661911	-0.051254503428936005	-0.1153237596154213	0.0006165753002278507	0.07029682397842407	0.3410148620605469	0.20034749805927277	-0.160224050283432	-0.10624630004167557	-0.09736067801713943	0.16895906627178192	0.05024095997214317	-0.10997474193572998	0.027570998296141624	-0.010244924575090408	0.10672362893819809	0.02943444438278675	-0.11729835718870163	-0.11938599497079849	-0.24991218745708466	-0.30112195014953613	0.15946514904499054	-0.19390182197093964	0.07222855091094971	-0.1472819298505783	-0.1493891179561615	0.02311810664832592	0.14123041927814484	0.01617627963423729	0.13054092228412628	0.4706477224826813	-0.3934248983860016	0.03895237296819687	-0.28772279620170593	-0.008819188922643661	-0.068442702293396	-0.4508163332939148	0.12556283175945282	0.11576440185308456	0.07391994446516037	0.1740831583738327	-0.10075893998146057	0.013467841781675816	-0.4342893660068512	-0.11084699630737305	0.03813610225915909	0.054850317537784576	0.14572584629058838	-0.09501360356807709	-0.21363531053066254	-0.2508126497268677	0.17623890936374664	0.2490178793668747	-0.06714718043804169
laur1248	0.39412620663642883	0.026740925386548042	-0.06818151473999023	-0.15220759809017181	0.25714990496635437	-0.01408148743212223	-0.12780100107192993	0.06073182076215744	-0.029095077887177467	-0.04051881656050682	-0.0864734873175621	-0.21161580085754395	0.2419022172689438	-0.3925192952156067	-0.03787556290626526	-0.012189891189336777	0.22640295326709747	0.2188168317079544	0.055296335369348526	-0.3322049081325531	-0.24124614894390106	0.03553584963083267	-0.09720021486282349	-0.07807674258947372	0.4893571436405182	-0.0962890014052391	0.25199443101882935	-0.14817248284816742	0.31987810134887695	0.23679094016551971	0.08115482330322266	-0.21365486085414886	-0.16136254370212555	-0.11107566952705383	0.2259034514427185	0.014604716561734676	0.18706940114498138	-0.24540646374225616	0.04094343259930611	-0.11372936517000198	-0.13032664358615875	0.009907491505146027	0.17691843211650848	-0.16726085543632507	0.21955928206443787	-0.05337224528193474	0.03561314940452576	-0.31851455569267273	-0.1899770200252533	0.2066849023103714	0.2009071260690689	0.19583840668201447	-0.08610986173152924	0.07892294973134995	0.18309716880321503	0.3255857229232788	0.10175617039203644	0.02922702766954899	-0.3074272572994232	0.22677727043628693	-0.11991363763809204	-0.17030659317970276	-0.1797521859407425	-0.07177897542715073	-0.017573652788996696	-0.31519338488578796	0.2078181505203247	0.025295941159129143	-0.25958189368247986	0.18778765201568604	-0.3677288889884949	-0.16135001182556152	0.086739182472229	-0.1454443484544754	-0.048545077443122864	0.24279586970806122	-0.2545322775840759	0.10327201336622238	0.07931987196207047	0.22609730064868927	0.12363190948963165	-0.08595360070466995	0.5350212454795837	0.33602219820022583	0.23742607235908508	0.13702493906021118	-0.11123249679803848	-0.2406805157661438	-0.10738924890756607	-0.14621809124946594	0.1509481966495514	0.03069368191063404	0.49809038639068604	0.23753072321414948	-0.05148925632238388	-0.01724141463637352	-0.10355881601572037	0.3026740252971649	0.0703064352273941	-0.27015262842178345	0.16935797035694122	0.08927033841609955	0.1318078637123108	0.14961299300193787	0.020886510610580444	-0.31698012351989746	0.28409016132354736	-0.16615411639213562	0.10836419463157654	-0.14837031066417694	0.21320682764053345	-0.1318420171737671	-0.09760311245918274	-0.28301775455474854	0.25916916131973267	-0.053893398493528366	-0.05530092120170593	-0.009989154525101185	0.16608579456806183	-0.05311333388090134	-0.0032163693103939295	0.2686469554901123	0.45228055119514465	-0.3407864272594452	-0.40776821970939636	-0.24918927252292633	0.1585191786289215	0.16456317901611328
loma1235	0.5785887241363525	-0.4020848274230957	0.25286269187927246	0.4984235465526581	0.41678401827812195	-0.4348229765892029	-0.007688321638852358	-0.2951984107494354	0.1388591229915619	0.26346006989479065	-0.15740063786506653	0.3977976441383362	0.2318018525838852	0.11730051040649414	0.3067699372768402	-0.4114130139350891	0.2798081040382385	-0.00887724943459034	-0.2952207326889038	0.17964185774326324	-0.05657221004366875	0.3465573191642761	0.09227751195430756	0.22400294244289398	0.04671837389469147	0.05003150552511215	0.29156965017318726	0.3593021333217621	0.4467240273952484	-0.007752519100904465	0.0012344922870397568	-0.09148843586444855	-0.2434789389371872	0.46525073051452637	0.5874997973442078	-0.22561776638031006	-0.5060043334960938	0.1290002465248108	0.011689022183418274	-0.202149897813797	0.4242513179779053	0.3301384747028351	-0.29726576805114746	-0.3234192430973053	-0.5284757614135742	0.5123239755630493	-0.0450824536383152	-0.3061670660972595	-0.6407865881919861	-0.1632593423128128	0.2679476737976074	-0.20709705352783203	0.057885754853487015	0.42643725872039795	-0.5385692715644836	0.3774249851703644	0.10514233261346817	-0.49948549270629883	0.5069897174835205	0.2584647238254547	0.4597574770450592	-0.2119714319705963	0.5412717461585999	-0.4514240026473999	-0.18235169351100922	-0.4897143542766571	0.6036918759346008	0.2387182116508484	-0.0953819677233696	-0.30429592728614807	0.050503551959991455	0.2646027207374573	-0.2696358859539032	0.17893722653388977	0.15579946339130402	0.19382822513580322	0.13207975029945374	0.709551215171814	-0.2753685414791107	0.40538302063941956	0.12325436621904373	0.35052934288978577	-0.23587241768836975	0.04532766342163086	-0.2879945933818817	-0.03164079785346985	0.04429204761981964	-0.11939352750778198	-0.06775934994220734	-0.27471697330474854	0.3871396780014038	-0.04857846722006798	0.17093032598495483	-0.08427108824253082	0.12390004843473434	0.013617698103189468	-0.09202581644058228	0.09197775274515152	-0.29468512535095215	0.08060028403997421	0.08350571244955063	-0.12304100394248962	0.334565669298172	-0.2223188877105713	-0.43375787138938904	-0.19393865764141083	0.07895314693450928	-0.15111136436462402	-0.19782660901546478	-0.14140263199806213	0.31440669298171997	-0.13601872324943542	-0.5124359130859375	-0.2794282138347626	0.4895727336406708	-0.26374179124832153	-0.009409226477146149	-0.08585073053836823	0.25053152441978455	-0.26908230781555176	0.02595478668808937	-0.10649119317531586	-0.08808372914791107	-0.04794894531369209	-0.0690702274441719	0.2105957418680191	0.09650267660617828	-0.28170204162597656
maha1287	-0.17598387598991394	-0.1675201654434204	0.049709271639585495	-0.14970748126506805	-0.10385076701641083	-0.24670550227165222	-0.058660030364990234	0.007981906644999981	-0.12191145122051239	0.2833852171897888	-0.10218877345323563	0.026285385712981224	-0.10019805282354355	0.1666419506072998	-0.22407574951648712	0.048571012914180756	-0.07265795022249222	0.3138069212436676	-0.40464937686920166	-0.20051315426826477	0.20624884963035583	0.15784096717834473	0.02920752763748169	-0.25830549001693726	0.25667113065719604	-0.08493940532207489	-0.23612087965011597	-0.0715126022696495	-0.03422905504703522	0.40968284010887146	-0.3030775189399719	-0.24060000479221344	-0.07614778727293015	0.016752051189541817	-0.24535003304481506	-0.08341682702302933	0.14600691199302673	-0.04710259661078453	-0.15592166781425476	-0.11795783787965775	-0.2530103623867035	0.20235201716423035	0.10511297732591629	-0.003581885015591979	0.029537413269281387	-0.0828009620308876	0.1338236927986145	-0.12125489115715027	-0.29762551188468933	-0.16028542816638947	-0.026539670303463936	0.07378918677568436	-0.16061702370643616	0.1130741536617279	-0.22940975427627563	-0.09626707434654236	0.3969646692276001	-0.1691822111606598	0.1475456953048706	-0.18612192571163177	-0.0006813491927459836	-0.41798463463783264	-0.013224063441157341	-0.18856236338615417	-0.0809822529554367	-0.2681855857372284	-0.08880152553319931	-0.3274451196193695	0.24603456258773804	0.09987294673919678	0.049595292657613754	-0.00976536888629198	-0.031176691874861717	0.2753106951713562	-0.0246823038905859	0.05406636372208595	-0.029629884287714958	-0.2796282172203064	-0.2751796841621399	-0.05876384675502777	0.12509332597255707	-0.11257362365722656	-0.008672821335494518	-0.26432907581329346	0.0044524590484797955	0.0185855682939291	-0.020110400393605232	-0.1872505396604538	-0.34604454040527344	0.01633213646709919	0.2654086649417877	-0.3227453827857971	-0.2307635098695755	0.35131821036338806	0.15905718505382538	-0.25403928756713867	0.24870677292346954	0.08396077901124954	-0.08353716880083084	-0.15585120022296906	-0.14185896515846252	-0.09720060974359512	-0.23143327236175537	0.07944892346858978	-0.04823247343301773	0.14039795100688934	0.2803846597671509	-0.2788655161857605	-0.1284935176372528	-0.25160959362983704	0.20125487446784973	0.09205169975757599	-0.18251200020313263	0.15605109930038452	-0.006848497781902552	0.30243122577667236	-0.2751086354255676	-0.17074792087078094	0.04608822986483574	-0.3478710949420929	0.16600191593170166	-0.4363786578178406	-0.011914637871086597	-0.0845525935292244	0.142303466796875	-0.01389450766146183	0.14032883942127228	0.17950378358364105
maha1305	0.15505573153495789	0.1961233913898468	-0.055259354412555695	-0.08467774838209152	-0.0831230878829956	0.12004228681325912	0.09166538715362549	0.08113294839859009	0.1574585735797882	0.15717704594135284	-0.11414212733507156	-0.2021111696958542	-0.16047319769859314	0.10457707196474075	0.1432647556066513	-0.11883425712585449	-0.04225994646549225	-0.19563168287277222	0.023729246109724045	0.14861471951007843	0.12114208936691284	-0.03897946700453758	0.13266445696353912	0.004190636333078146	0.029324203729629517	0.05503440648317337	-0.0611477829515934	-0.17789123952388763	0.062491998076438904	0.08549386262893677	-0.1864938586950302	0.08895543962717056	0.033945050090551376	-0.11638469249010086	-0.018578654155135155	0.05076577514410019	-0.03152354806661606	0.05756903812289238	0.09751980751752853	0.07992246001958847	0.029281506314873695	0.09016414731740952	0.10852808505296707	-0.005600608419626951	0.0744263082742691	0.032922402024269104	0.01618271693587303	-0.09027320146560669	-0.10622545331716537	0.17115476727485657	-0.031177522614598274	-0.11699633300304413	0.009174571372568607	0.000851794146001339	-0.07297040522098541	-0.003724781097844243	-0.05773533880710602	-0.042935390025377274	-0.014040599577128887	0.12541793286800385	0.017156526446342468	-0.011056083254516125	-0.032619696110486984	0.03229215368628502	-0.06803708523511887	-0.1361343115568161	0.12444419413805008	-0.08063407242298126	0.20653988420963287	-0.08482562750577927	0.09963051974773407	0.07629849761724472	-0.0597602054476738	-0.16051054000854492	0.054259177297353745	-0.051665302366018295	-0.07707776129245758	0.1886448711156845	-0.016754787415266037	0.09932627528905869	-0.11534464359283447	-0.06214865297079086	-0.0232976283878088	0.19328325986862183	-0.0007298036362044513	-0.038767050951719284	0.1853613257408142	0.02078130468726158	0.19363050162792206	0.11152761429548264	-0.08394841849803925	0.042552463710308075	-0.08747638761997223	-0.09507070481777191	0.07954835146665573	0.02595544420182705	-0.12105607986450195	-0.0007176256622187793	0.23227694630622864	0.1123214066028595	-0.10987987369298935	-0.03562229126691818	0.13069121539592743	0.08885575830936432	-0.23575976490974426	-0.015416374430060387	-0.20189179480075836	0.00851411186158657	-0.0654592216014862	0.07169105112552643	0.05734103545546532	-0.052445653825998306	0.042786646634340286	-0.09673254191875458	-0.154555544257164	-0.07159370929002762	-0.034907132387161255	0.08004643023014069	0.008154427632689476	0.10243833810091019	-0.08420717716217041	-0.045982081443071365	0.11203742772340775	-0.06869497150182724	0.1323462277650833	-0.30343616008758545	-0.003160592634230852	-0.15996383130550385
mait1250	-0.2718196213245392	-0.028683971613645554	-0.16735470294952393	-0.02180379070341587	-0.18372118473052979	-0.12876102328300476	-0.1107901856303215	0.14122739434242249	0.1977110058069229	-0.010376892052590847	0.06576844304800034	-0.08854635059833527	-0.1695382297039032	0.18404479324817657	0.06782925873994827	-0.1344766765832901	-0.004499488510191441	-0.005042099393904209	0.1222207173705101	-0.09532243758440018	0.2565101385116577	-0.3020789325237274	-0.12137740105390549	0.01199563778936863	-0.2284921258687973	0.03769173473119736	0.14763902127742767	0.23476161062717438	0.02639080211520195	-0.07673541456460953	0.06830941885709763	0.16513052582740784	-0.04971542954444885	0.13266335427761078	-0.1119222342967987	-0.15615832805633545	0.08141661435365677	-0.1512739211320877	0.044574249535799026	-0.024441620334982872	-0.0766138955950737	0.18990381062030792	-0.05481807142496109	0.0029974805656820536	-0.09016744047403336	0.18075121939182281	-0.027562696486711502	0.046623967587947845	0.21131837368011475	-0.050910353660583496	0.03760119155049324	0.027281010523438454	-0.057945720851421356	0.10672549903392792	0.23314960300922394	0.08560612052679062	0.11872153729200363	0.17564250528812408	-0.27392107248306274	-0.20980782806873322	-0.031631357967853546	0.08172821998596191	-0.06588500738143921	-0.09682054817676544	0.2136632353067398	-0.06071484088897705	0.07403638958930969	-0.12123064696788788	-0.040030527859926224	0.020101025700569153	-0.21390405297279358	0.1505824327468872	0.1365373283624649	-0.03941745683550835	-0.22758489847183228	0.013172829523682594	-0.04472598060965538	0.05918414518237114	-0.0326741561293602	-0.06440425664186478	0.13686908781528473	0.09858924895524979	-0.1355300098657608	-0.32499533891677856	0.3902386724948883	-0.030137715861201286	-0.17895376682281494	0.026862578466534615	0.15514859557151794	0.09329470247030258	0.18367207050323486	-0.06698329001665115	-0.1159457191824913	0.02719702199101448	0.11980631947517395	-0.08534247428178787	0.29154661297798157	-0.2858620882034302	-0.04667225852608681	-0.10595971345901489	-0.12910060584545135	-0.08785146474838257	-0.24075345695018768	0.006625932175666094	-0.09597732126712799	-0.11212655901908875	-0.06201358139514923	0.1838507056236267	-0.10925772041082382	0.24983596801757812	-0.08180172741413116	-0.1360197216272354	0.014043370261788368	-0.10136254131793976	-0.03572731837630272	0.11631223559379578	0.10952840745449066	0.08053704351186752	0.05883920565247536	0.05777280777692795	-0.07951948791742325	-0.20082460343837738	-0.07896324247121811	-0.071104496717453	-0.010287272743880749	0.15202288329601288	-0.16041980683803558	0.07757169753313065
mara1378	0.21077556908130646	0.15479138493537903	0.044404610991477966	0.17738620936870575	0.10030513256788254	0.028567587956786156	0.10168906301259995	-0.04038615897297859	-0.06240067631006241	0.11289824545383453	0.11906303465366364	-0.037660375237464905	0.0864265039563179	0.16652043163776398	-0.10217038542032242	-0.13499701023101807	-0.06131112575531006	0.12574522197246552	-0.059022676199674606	-0.01521140243858099	-0.08966389298439026	-0.07042302191257477	-0.0735497772693634	0.045700814574956894	-0.005395334213972092	0.005937022157013416	0.08583416789770126	-0.2107260376214981	-0.04954121634364128	-0.052446987479925156	0.12838423252105713	-0.016368554905056953	-0.02305402047932148	0.029009496793150902	0.06205759570002556	-0.07661649584770203	-0.027330081909894943	-0.0034100159537047148	0.14259007573127747	-0.1822512447834015	-0.06103252246975899	-0.09726130217313766	0.04205624386668205	0.033176273107528687	-0.06715993583202362	-0.02815546840429306	-0.036360014230012894	-0.0199416596442461	0.042056452482938766	0.020519685000181198	-0.07210338860750198	-0.10113577544689178	-0.039756156504154205	0.1661858707666397	-0.08279985189437866	-0.1341664344072342	-0.05330290645360947	0.003756321733817458	-0.06950367242097855	0.19246430695056915	0.07722316682338715	-0.0010296145919710398	-0.0362817645072937	0.10394369810819626	0.028943311423063278	-0.21165192127227783	-0.11712948232889175	-0.1747829169034958	0.08565303683280945	-0.04273384436964989	-0.15646621584892273	-0.1380707323551178	0.11990147083997726	-0.05460602790117264	0.11896985024213791	0.011348375119268894	-0.08666978031396866	-0.1168501228094101	-0.07081710547208786	-0.07090184837579727	-0.1109146699309349	-0.13081857562065125	0.04751567915081978	0.1228451207280159	-0.2074531763792038	-0.13609081506729126	0.0811595767736435	0.07118652760982513	0.02681192383170128	0.06986289471387863	0.13880547881126404	-0.09669400751590729	-0.10990148782730103	0.11080088466405869	0.02971794828772545	-0.052264101803302765	0.1984633356332779	0.03167007863521576	-0.10168107599020004	-0.05675264075398445	0.31046226620674133	-0.10215882211923599	0.005521844141185284	0.019082851707935333	0.005545304622501135	-0.07694397866725922	-0.0570223368704319	0.05805188789963722	0.01175326481461525	-0.1467060148715973	0.06485126912593842	-0.059989094734191895	-0.06299770623445511	-0.007594584953039885	0.07032880187034607	0.026069898158311844	0.000952713075093925	0.10230988264083862	-0.018787629902362823	0.03757787495851517	-0.08371450006961823	-0.0947263315320015	0.11419261991977692	0.10206036269664764	0.01725687086582184	0.20880559086799622	-0.05028056353330612	-0.1606995314359665
marw1260	-0.23734726011753082	-0.028778228908777237	-0.06774286180734634	0.011441303417086601	-0.29105499386787415	-0.20869281888008118	0.095401331782341	-0.2099984586238861	-0.03502267226576805	-0.07581758499145508	-0.1733327955007553	0.3617119789123535	-0.11548351496458054	0.3830687701702118	0.23912686109542847	0.035962723195552826	-0.031128641217947006	0.3826632797718048	-0.25474077463150024	0.07095066457986832	-0.24187017977237701	-0.1045307144522667	-0.14869648218154907	0.11164654791355133	0.21943756937980652	0.0781664103269577	0.027173275128006935	0.009985585696995258	-0.24646465480327606	-0.010328867472708225	0.1129525899887085	-0.3942718803882599	-0.05926798656582832	-0.06347614526748657	-0.1762724369764328	-0.6195695996284485	0.3943714499473572	0.12561248242855072	-0.05715706944465637	-0.40571144223213196	0.13202889263629913	-0.023582905530929565	-0.20651324093341827	0.057190511375665665	0.18127745389938354	-0.3073122501373291	0.19791409373283386	0.15559054911136627	0.23525448143482208	-0.14268752932548523	0.3162485957145691	-0.18350882828235626	-0.13716597855091095	-0.08562073856592178	-0.2553964853286743	0.23641885817050934	0.07726550847291946	-0.23104463517665863	0.08223867416381836	0.2528247535228729	-0.4290291368961334	-0.028293335810303688	-0.30303046107292175	-0.2789914309978485	-0.23632895946502686	0.3657764792442322	-0.10267774015665054	0.0022653385531157255	0.02200063318014145	-0.35107114911079407	-0.06126986816525459	-0.21580591797828674	-0.25194811820983887	0.2773926854133606	0.04617197811603546	-0.08192134648561478	-0.05212146043777466	-0.1666565239429474	0.13779491186141968	-0.7326567769050598	-0.20638076961040497	-0.10556281358003616	0.06664658337831497	-0.1200282871723175	0.057748258113861084	0.22321437299251556	0.14681465923786163	0.27615320682525635	0.03724662587046623	0.3080733120441437	-0.27279308438301086	0.02555416338145733	-0.029047559946775436	0.1260002851486206	0.23190119862556458	0.13535001873970032	0.05881425738334656	0.04255854710936546	-0.19356973469257355	-0.22615009546279907	0.04074469581246376	-0.09406773000955582	-0.2956264615058899	0.10364129394292831	0.23888574540615082	-0.06795673072338104	-0.0395604744553566	0.06541239470243454	-0.4299016296863556	-0.16514134407043457	-0.12982496619224548	-0.29647642374038696	-0.1596599966287613	0.18908828496932983	-0.06041392683982849	0.1304187774658203	-0.08992484211921692	-0.21109560132026672	0.0826624259352684	-0.2696066200733185	-0.009739428758621216	0.027818456292152405	0.17868010699748993	-0.0026220986619591713	-0.10552671551704407	-0.28874507546424866	-0.2127547413110733	-0.0096889678388834
mult1243	0.15245527029037476	-0.39738133549690247	-0.12385018169879913	0.2596118450164795	-0.17350347340106964	-0.19088114798069	-0.08220843225717545	-0.07483074069023132	-0.016382668167352676	-0.1862151175737381	0.3132733404636383	-0.13102687895298004	-0.19421780109405518	0.08774080872535706	-0.25676992535591125	0.05889539793133736	0.4531603157520294	-0.05032126232981682	-0.3405289947986603	-0.10367019474506378	0.2165886014699936	0.009529605507850647	-0.11552799493074417	0.0896998718380928	0.005147355608642101	-0.018555397167801857	0.4009036421775818	-0.1273786872625351	-0.06388350576162338	-0.5088193416595459	0.11536303162574768	-0.10322467237710953	0.3443204462528229	-0.3563825786113739	0.36229589581489563	-0.11736983060836792	-0.1974809169769287	-0.22582806646823883	-0.23003244400024414	0.1729515939950943	0.2005368322134018	-0.09653732925653458	-0.03856522962450981	-0.11574886739253998	0.0010294890962541103	0.2442646324634552	0.42686158418655396	0.09396319091320038	-0.16208162903785706	0.47507035732269287	-0.01492286380380392	0.20042476058006287	0.04469122365117073	0.19282379746437073	-0.4127465784549713	0.06971047073602676	-0.2082229107618332	0.10175905376672745	-0.10760599374771118	0.15768647193908691	-0.2522558569908142	-0.13673287630081177	0.32491546869277954	-0.12922444939613342	0.26873549818992615	0.0756000503897667	0.26794594526290894	-0.03567323833703995	-0.1953311264514923	-0.025876807048916817	0.4294675886631012	0.08917855471372604	0.061384592205286026	0.11220691353082657	-0.05706128850579262	0.08076006174087524	0.008919981308281422	0.31361377239227295	-0.06836751848459244	-0.18755783140659332	0.0923081561923027	0.1046602800488472	-0.018298793584108353	0.04799070209264755	-0.1892900913953781	-0.24400226771831512	0.04851917177438736	0.19091995060443878	-0.1573132872581482	-0.1447729468345642	-0.2622582018375397	-0.2256922572851181	-0.13583996891975403	0.11365004628896713	0.4660946726799011	-0.3061365485191345	0.16038227081298828	-0.13095858693122864	-0.02264093980193138	-0.13236753642559052	-0.349346786737442	-0.39980611205101013	-0.09280964732170105	0.10932320356369019	-0.1603025496006012	0.16649183630943298	-0.22253698110580444	0.32579049468040466	-0.03862256556749344	-0.07478353381156921	0.0345330573618412	0.04222499206662178	-0.1406499594449997	0.35683807730674744	0.0596085786819458	-0.031936660408973694	0.06310765445232391	0.17671671509742737	0.11887228488922119	0.17308388650417328	-0.02030756324529648	-0.11934250593185425	-0.11678501963615417	0.36324387788772583	0.11443869024515152	-0.14126063883304596	-0.29434260725975037	-0.00949072279036045
