aret1240	-0.07310444116592407	0.15845203399658203	-0.17999090254306793	-0.2263743132352829	-0.37273263931274414	-0.1379213184118271	0.10844346135854721	-0.20641668140888214	0.17769816517829895	0.017026536166667938	0.021857863292098045	0.04643980413675308	-0.06972508132457733	0.17940036952495575	-0.017954126000404358	-0.046404898166656494	0.3138030767440796	-0.2764311730861664	0.19153113663196564	-0.14765998721122742	-0.11874720454216003	0.1630030870437622	0.15744903683662415	0.07928170263767242	0.22492791712284088	0.14520154893398285	0.07303490489721298	0.21824757754802704	0.019367774948477745	-0.2600100040435791	0.13777874410152435	-0.06476312130689621	0.08127731829881668	-0.19850406050682068	0.1276283711194992	0.18676233291625977	-0.49761709570884705	0.27638572454452515	0.19024969637393951	0.19239823520183563	0.3181624114513397	-0.08146791905164719	0.20727825164794922	0.08496702462434769	0.3064182698726654	0.024950360879302025	0.18323877453804016	-0.05695614963769913	0.17641231417655945	0.17600910365581512	-0.1238323226571083	-0.03399943187832832	-0.1759335845708847	0.16343902051448822	0.2570771872997284	0.20550911128520966	0.24599267542362213	-0.2454024702310562	-0.1345805823802948	0.09295088052749634	-0.0007760589360259473	-0.1816936880350113	-0.04454377666115761	0.07431387901306152	-0.3074042797088623	0.4185848534107208	0.24585479497909546	0.1490934193134308	0.23518294095993042	0.12873747944831848	0.18163394927978516	-0.08344509452581406	0.1579640507698059	0.09640366584062576	-0.0448346808552742	-0.12294302135705948	0.1578742414712906	-0.4381888508796692	0.189094677567482	0.3500751852989197	-0.031475476920604706	-0.20908422768115997	0.10381031036376953	-0.3536377549171448	-0.5005872249603271	0.32313233613967896	0.3074110746383667	-0.049639567732810974	0.2743537425994873	0.026715869084000587	-0.16668806970119476	0.20870164036750793	-0.05897092446684837	0.07008273899555206	-0.35943469405174255	-0.11187360435724258	0.02923964336514473	0.31770727038383484	0.006383311934769154	-0.1661938577890396	0.03205673396587372	-0.10435906052589417	0.13767074048519135	-0.3240315914154053	0.08674483001232147	0.03708416596055031	0.09771918505430222	0.1726052463054657	-0.11957717686891556	0.25952816009521484	-0.2709527313709259	0.17214451730251312	-0.18962082266807556	0.2667950689792633	0.4148824214935303	0.05038934201002121	0.1082533672451973	-0.2681801915168762	0.1844698041677475	-0.2236921787261963	0.016851594671607018	0.3599797487258911	-0.2502933740615845	-0.33806312084198	-0.040827199816703796	-0.05555444210767746	0.21250875294208527	0.23653848469257355
assa1263	0.04092016443610191	-0.0011392529122531414	-0.22901423275470734	0.06124204024672508	-0.29903024435043335	0.18718628585338593	-0.060182299464941025	0.1774044930934906	-0.017414510250091553	0.2394127994775772	-0.005042305216193199	0.07940029352903366	-0.09267834573984146	-0.01753065548837185	-0.003469046438112855	-0.09532136470079422	0.1889977902173996	-0.1208890751004219	-0.07169022411108017	-0.05895155295729637	0.09649211913347244	0.13782109320163727	0.036271337419748306	-0.11699602007865906	-0.07405925542116165	-0.023086000233888626	-0.13460972905158997	0.05258382484316826	-0.11728905141353607	-0.07781948894262314	-0.11103811860084534	0.06648039072751999	0.041333913803100586	-0.27249211072921753	0.06645787507295609	0.08560392260551453	-0.008319872431457043	0.05818167328834534	-0.061521004885435104	0.031223662197589874	-0.20208784937858582	0.11363797634840012	-0.0027685563545674086	-0.007123605813831091	-0.05509810522198677	-0.11097943037748337	0.14308036863803864	0.009708422236144543	0.2265174686908722	0.0769122913479805	-0.1834823042154312	0.05874219164252281	0.07717324048280716	0.041245512664318085	0.13871072232723236	-0.04439458250999451	0.05653581768274307	0.2328675091266632	0.145028218626976	0.11138428002595901	-0.20341017842292786	0.05786450579762459	0.13277629017829895	-0.11253152042627335	0.04173740744590759	0.23084048926830292	0.0037374384701251984	-0.14932675659656525	-0.04163258895277977	0.006777855101972818	-0.044887419790029526	0.33641207218170166	0.04097137227654457	-0.19025777280330658	0.05701424926519394	-0.12286296486854553	0.05986867845058441	-0.10901324450969696	-0.1817472279071808	-0.17534823715686798	0.1791974902153015	0.08247748017311096	0.0710207149386406	0.11483359336853027	-0.12747985124588013	-0.0707789808511734	0.09422909468412399	0.15824458003044128	-0.009248252958059311	0.02440822124481201	0.029897304251790047	-0.2121638059616089	-0.11174861341714859	0.15601424872875214	0.13168109953403473	0.1312626302242279	0.1502806395292282	0.05027007311582565	-0.05315933749079704	0.10448005795478821	0.0873093456029892	0.09376782178878784	0.06448765099048615	-0.057177118957042694	0.02849791944026947	0.06189114600419998	-0.2909494936466217	0.025418102741241455	0.04826485365629196	-0.025341203436255455	-0.19106151163578033	0.11155122518539429	0.07119818031787872	0.05839954689145088	0.10450538992881775	0.02821679599583149	0.14235152304172516	-0.09807568788528442	0.004847369156777859	0.24851246178150177	0.12561407685279846	-0.08341924101114273	-0.10883893072605133	-0.052877310663461685	0.09092941880226135	-0.11244572699069977	0.20916777849197388	-0.13715791702270508
bagh1251	0.20086397230625153	0.1794508844614029	0.1259242445230484	0.020873649045825005	0.07431206107139587	0.11161498725414276	-0.1456443816423416	-0.13448837399482727	-0.17744286358356476	0.11073103547096252	0.05603455379605293	-0.11639736592769623	0.10866344720125198	-0.10430468618869781	-0.01840571127831936	0.18467359244823456	0.2383304387331009	0.14661724865436554	0.05938452482223511	0.014263303950428963	-0.07791830599308014	-0.14225682616233826	-0.0754140242934227	-0.29792824387550354	-0.12158994376659393	-0.05967535078525543	0.06481583416461945	-0.01861615478992462	-0.16674482822418213	0.004608422052115202	-0.0933971181511879	-0.022878548130393028	0.13083809614181519	-0.006578521337360144	0.20636098086833954	-0.2265789806842804	-0.06575683504343033	-0.07080657035112381	-0.052619386464357376	-0.031562164425849915	0.051709145307540894	0.2384006232023239	0.11147580295801163	0.2670011520385742	-0.1543688029050827	-0.06271815299987793	-0.156478613615036	0.045420922338962555	0.10995597392320633	-0.036220747977495193	-0.05689332261681557	-0.09629611670970917	0.1851048320531845	-0.09811778366565704	0.09632501006126404	0.2518745958805084	0.03719637542963028	-0.05771699920296669	-0.03733488917350769	-0.17143096029758453	0.12184333056211472	0.00608988618478179	-0.00965806469321251	-0.03596973046660423	-0.09051350504159927	0.176089346408844	-0.1103086769580841	-0.11941489577293396	0.07070472091436386	-0.12178623676300049	-0.08823218196630478	-0.04019666463136673	0.11118918657302856	-0.11880943179130554	0.20802782475948334	0.17561472952365875	-0.12969890236854553	-0.03956300765275955	0.06807027012109756	0.07585855573415756	0.10232219845056534	0.1463828831911087	0.24234016239643097	0.10475882887840271	-0.15374387800693512	-0.17028091847896576	0.15356600284576416	0.004610053729265928	-0.006677752826362848	-0.04682100936770439	-0.02280917763710022	-0.12146700918674469	0.0566183403134346	0.0785955861210823	0.07410003989934921	0.07406493276357651	-0.0988459587097168	-0.15160787105560303	0.016355521976947784	-0.17257635295391083	0.14791762828826904	0.18464994430541992	-0.13179491460323334	-0.2355862259864807	0.2363162487745285	0.03923993930220604	-0.18550457060337067	0.07978864014148712	0.032803863286972046	-0.005988170858472586	-0.26858171820640564	0.13330033421516418	-0.3243706524372101	0.04000888764858246	-0.27680450677871704	0.14279021322727203	0.12870967388153076	0.07109104841947556	0.2204282283782959	0.10382367670536041	0.11636633425951004	0.011245663277804852	-0.03997223079204559	0.020885884761810303	-0.09804429113864899	-0.16863059997558594	-0.14814680814743042	0.08935586363077164
beng1280	0.1268627941608429	0.1446343958377838	-0.04928154870867729	0.09437844157218933	-0.1650240272283554	-0.12550143897533417	-0.11828747391700745	0.12280019372701645	-0.02988959290087223	-0.020280389115214348	0.13332639634609222	0.15134242177009583	0.05105861648917198	0.06010989099740982	0.019934765994548798	0.12802278995513916	-0.002334362594410777	0.03765282779932022	-0.09729987382888794	-0.14889010787010193	0.1736041009426117	-0.03645579516887665	0.11698184162378311	0.0522497296333313	-0.10503493249416351	-0.13152743875980377	-0.21821963787078857	0.1263343095779419	0.19679319858551025	-0.10104081779718399	-0.028153959661722183	0.07815641164779663	0.037932634353637695	-0.04998477175831795	0.10582466423511505	0.10765305161476135	0.01331863272935152	0.007954105734825134	0.030344516038894653	0.0016632602782920003	0.05052667856216431	-0.014252487570047379	-0.19499258697032928	-0.09665560722351074	0.16389262676239014	0.1717202067375183	-0.12089280039072037	-0.06669633835554123	-0.06372646242380142	-0.08796925842761993	0.0308077409863472	0.11487726867198944	0.08256858587265015	-0.03902529552578926	-0.08063444495201111	0.18720579147338867	-0.18849094212055206	0.05947668105363846	0.08581274002790451	0.06361770629882812	-0.1599103808403015	0.292167067527771	0.16388647258281708	-0.16376538574695587	0.10195113718509674	0.08294742554426193	-0.06923360377550125	-0.0066440524533391	0.11322122067213058	-0.06250803172588348	0.10812188684940338	0.11503476649522781	-0.05920662730932236	0.10279355198144913	0.08339228481054306	-0.024203266948461533	0.06935470551252365	0.0295097716152668	-0.08125194907188416	0.12423433363437653	0.007046266458928585	-0.17681962251663208	-0.06139775365591049	-0.07358390837907791	-0.12347881495952606	0.04986173287034035	0.12436363101005554	-0.06334559619426727	0.015063175931572914	0.08789244294166565	-0.11338850110769272	0.044346511363983154	-0.026184674352407455	0.054996196180582047	0.04463094845414162	0.10700306296348572	-0.21756890416145325	-0.008272720500826836	-0.03197412192821503	-0.06349093466997147	0.0720926895737648	0.05069475993514061	-0.12210223078727722	-0.08282112330198288	-0.04755551367998123	0.09659340232610703	0.06858853250741959	-0.07578985393047333	0.11346526443958282	0.019113950431346893	-0.17035894095897675	-0.07335329055786133	-0.04308903217315674	-0.21944959461688995	-0.09910653531551361	-0.04195832088589668	0.03785496577620506	-0.11282631754875183	0.06126802787184715	-0.04149186611175537	0.05406414344906807	0.09136701375246048	-0.12801188230514526	0.19942741096019745	-0.10054470598697662	-0.0049542272463440895	0.2292563021183014	-0.08506505936384201
bhad1241	-0.06898414343595505	0.09327858686447144	-0.10108546912670135	0.039613429456949234	-0.05221838131546974	0.12269987165927887	-0.09048082679510117	0.09190589189529419	0.16988998651504517	-0.1517421156167984	0.12247929722070694	-0.03649783879518509	0.07795388996601105	0.23688280582427979	-0.2357831448316574	-0.09562885761260986	-0.16191516816616058	0.1870104968547821	-0.110192209482193	-0.021766964346170425	-0.09851096570491791	0.16404177248477936	0.19101262092590332	0.1606912463903427	0.09368747472763062	0.05602439120411873	0.19078999757766724	0.22916322946548462	-0.05934419855475426	0.247356116771698	-0.19170957803726196	-0.03568354249000549	-0.14563652873039246	0.24098451435565948	0.2464829683303833	-0.05870861932635307	0.0281298216432333	0.08595943450927734	-0.009168028831481934	0.14252716302871704	0.08208619058132172	0.011176763102412224	0.08485212177038193	-0.05555407702922821	-0.2816004753112793	0.25901252031326294	-0.1756477802991867	0.021446367725729942	0.1910538226366043	0.16888339817523956	0.07205282896757126	0.1605658084154129	-0.0007655732333660126	0.008076254278421402	0.10998377948999405	-0.10756576061248779	0.15837527811527252	-0.02272196300327778	-0.15431274473667145	-0.1183629110455513	-0.20022821426391602	0.20334599912166595	0.021494951099157333	0.096900075674057	-0.17182785272598267	0.12034951150417328	-0.09781410545110703	-0.2278817594051361	-0.05559065565466881	0.015319065190851688	-0.007020098157227039	-0.10184638947248459	2.4979817681014538e-05	0.16921108961105347	0.026022154837846756	-0.0008516617235727608	-0.16026544570922852	-0.02201373130083084	0.07784304022789001	-0.11511220782995224	0.05221857130527496	-0.264329195022583	0.22838172316551208	-0.07277370989322662	0.03833078220486641	0.09028088301420212	0.12441227585077286	-0.029401591047644615	0.10119792819023132	-0.03038867935538292	-0.17129722237586975	0.1637801080942154	0.19816158711910248	-0.1261805295944214	-0.23499242961406708	0.06872449815273285	0.1590452492237091	0.0982755720615387	-0.28399157524108887	-0.25649482011795044	0.21384623646736145	0.03831232339143753	-0.12131700664758682	0.2583862543106079	-0.039882730692625046	-0.03327310085296631	0.20451126992702484	-0.009242959320545197	-0.18647678196430206	-0.22285273671150208	-0.06815636157989502	0.15893541276454926	-0.05992329865694046	-0.04627939686179161	0.17580094933509827	0.18957482278347015	-0.14232061803340912	-0.051012638956308365	-0.024724094197154045	-0.12923043966293335	0.028528612107038498	0.15953035652637482	0.008832836523652077	-0.1965978741645813	-0.18945817649364471	-0.00649039912968874	-0.24287694692611694	-0.15995104610919952
bhal1244	0.0783960148692131	-0.2125886231660843	-0.049261368811130524	0.140428364276886	-0.0509650781750679	0.13726183772087097	-0.19540081918239594	0.11968646943569183	0.028556404635310173	-0.18850016593933105	0.047697629779577255	-0.21372808516025543	-0.07384805381298065	0.2022371143102646	-0.1421286165714264	-0.26706814765930176	-0.08935825526714325	0.13154995441436768	-0.060314785689115524	-0.035311970859766006	0.04520409554243088	-0.017474990338087082	0.17536917328834534	-0.07846695929765701	-0.12893009185791016	0.22438722848892212	0.1493755429983139	0.009147893637418747	-0.20160263776779175	0.14169296622276306	-0.14640100300312042	0.14188051223754883	-0.04154251515865326	0.09663133323192596	0.16445650160312653	0.31456461548805237	0.12318520247936249	-0.060656242072582245	0.17816422879695892	0.00043130037374794483	-0.12302105128765106	-0.1279297024011612	0.1970982700586319	0.0031343712471425533	-0.11637728661298752	0.14804613590240479	-0.006615920457988977	0.2366207242012024	0.10434189438819885	0.13228663802146912	0.1197475790977478	-0.07553716003894806	-0.12082111090421677	0.07273130118846893	-0.10087170451879501	0.015384923666715622	0.1375809758901596	-0.3006126284599304	-0.07673614472150803	0.16219832003116608	-0.2709597945213318	-0.24164623022079468	-0.28141099214553833	-0.13824179768562317	-0.0035275251138955355	0.1483934074640274	-0.0896671861410141	-0.049939777702093124	0.07703886926174164	0.12486192584037781	0.1135677918791771	-0.14660967886447906	0.06936566531658173	-0.03178499639034271	0.13798823952674866	-0.1125820055603981	0.05491917207837105	0.14377686381340027	-0.08885139971971512	0.01915687508881092	0.02503589540719986	-0.04714794084429741	-0.11107916384935379	0.08118059486150742	0.3106258809566498	0.08015474677085876	0.10965361446142197	-0.08762280642986298	0.1643742024898529	0.14495716989040375	-0.1397172510623932	0.07595456391572952	-0.02721845731139183	-0.0014671019744127989	-0.006184400990605354	-0.011827636510133743	-0.06847815215587616	0.21447788178920746	-0.07450878620147705	0.040090423077344894	0.18321794271469116	-0.02384408563375473	-0.08834347128868103	0.2719140648841858	-0.26008671522140503	-0.049528367817401886	0.22281001508235931	-0.021552328020334244	-0.0892188549041748	-0.09114036709070206	0.19790002703666687	-0.03733734413981438	-0.1091683879494667	-0.09372486919164658	0.00915516447275877	0.09228003025054932	-0.053558237850666046	-0.05573360621929169	-0.03199099004268646	0.2533843219280243	-0.04343831539154053	0.08881522715091705	0.11870937049388885	-0.16816455125808716	-0.04354209080338478	0.01110855396836996	-0.29131144285202026	-0.23214709758758545
bhoj1244	-0.07233593612909317	-0.02211890183389187	-0.05505568906664848	-0.15115967392921448	0.2268199324607849	-0.1047455221414566	0.005890681874006987	0.056214433163404465	-0.05779654532670975	0.1900375634431839	0.38624176383018494	-0.1062450110912323	0.10685232281684875	-0.34359249472618103	0.010112511925399303	0.058487728238105774	-0.18795469403266907	0.20371560752391815	-0.009781992994248867	0.21616213023662567	-0.010890897363424301	0.07619395852088928	-0.00587855139747262	-0.26114827394485474	0.14199601113796234	-0.26053786277770996	0.04957745969295502	0.09541160613298416	-0.13004952669143677	0.05625152960419655	0.06732361018657684	-0.18180125951766968	0.056183960288763046	-0.056586723774671555	-0.045510150492191315	0.04940513148903847	0.1465063840150833	-0.20973330736160278	-0.003098296234384179	0.0019230125471949577	0.24895457923412323	0.2800785005092621	0.006675028707832098	0.14744187891483307	0.030261410400271416	0.15883950889110565	-0.04883553460240364	0.26537829637527466	0.10418357700109482	0.14836019277572632	0.14035716652870178	0.032330919057130814	-0.020782869309186935	-0.06505521386861801	0.24645128846168518	0.411152720451355	0.13664115965366364	0.27563443779945374	0.21202099323272705	-0.0764123946428299	-0.15249201655387878	0.15085604786872864	0.11600504070520401	0.04532736912369728	0.03197483718395233	0.06124381348490715	-0.0895213782787323	0.07643548399209976	-0.031838659197092056	-0.0066267866641283035	0.12520454823970795	0.018638355657458305	-0.030225001275539398	-0.14914722740650177	0.21070779860019684	-0.08439071476459503	-0.029385659843683243	0.10259634256362915	-0.13373836874961853	0.27507370710372925	0.017714902758598328	0.16929800808429718	-0.05656997859477997	0.004914822988212109	-0.2122507095336914	-0.059548959136009216	-0.2221214920282364	0.2717129588127136	0.14004017412662506	-0.21533292531967163	0.09531015157699585	-0.2884347438812256	-0.054329801350831985	0.2094803899526596	-0.03146803379058838	0.1868530809879303	-0.12617114186286926	-0.18970981240272522	-0.20050115883350372	-0.151380255818367	0.07683556526899338	-0.05205710977315903	-0.08894143253564835	0.08051139861345291	0.2515784502029419	-0.15475071966648102	-0.16414326429367065	0.17972254753112793	0.0929049625992775	0.00669931760057807	0.10571228712797165	0.16889332234859467	-0.1715264767408371	0.007711402140557766	-0.16970615088939667	-0.20474623143672943	-0.23149794340133667	-0.22576618194580078	-0.06377018243074417	-0.09675905108451843	0.178596630692482	0.16793961822986603	0.21566148102283478	0.32542723417282104	-0.036034561693668365	-0.1608504056930542	0.18013006448745728	0.11897941678762436
braj1242	0.3828551173210144	0.0663290023803711	0.5003955364227295	0.04658755660057068	0.059977248311042786	0.09874149411916733	0.050968725234270096	0.10678070038557053	-0.041161395609378815	0.09722353518009186	0.2509670555591583	-0.24411873519420624	-0.004080544225871563	0.09101913869380951	-0.12770390510559082	-0.05797044560313225	0.03689292073249817	-0.0268157459795475	-0.029842395335435867	0.30116358399391174	-0.12539562582969666	0.047759488224983215	0.28049689531326294	-0.09210845082998276	0.10051992535591125	0.04117538779973984	0.2358713150024414	0.201411172747612	-0.3057939112186432	0.07552549988031387	-0.10801109671592712	-0.09850454330444336	-0.03599444404244423	-0.18323253095149994	0.1309603899717331	-0.023361971601843834	0.04765813797712326	-0.04983717203140259	-0.1647653430700302	0.07054640352725983	-0.3973829746246338	-0.2725752294063568	-0.041330862790346146	0.32544222474098206	0.26656121015548706	-0.16173028945922852	-0.28712499141693115	-0.0011478676460683346	0.14534319937229156	-0.09636487066745758	-0.43886598944664	0.02532707154750824	0.05814896523952484	-0.19060751795768738	0.2798493802547455	0.35617372393608093	-0.027902113273739815	-0.202567458152771	-0.15946663916110992	-0.216254323720932	0.002582307904958725	-0.07781600207090378	0.12909600138664246	-0.26173272728919983	-0.1432991623878479	0.1323910802602768	-0.11260700970888138	0.37841883301734924	-0.15708677470684052	0.32678887248039246	0.26536715030670166	-0.04102306440472603	0.045846883207559586	-0.15533900260925293	0.34956616163253784	0.1103234812617302	-0.39014333486557007	0.009603874757885933	0.045389123260974884	-0.07629843801259995	-0.24054118990898132	-0.22185756266117096	-0.25441691279411316	-0.02114720828831196	0.3221128582954407	0.20046496391296387	-0.30714476108551025	0.07751455903053284	-0.005100990179926157	-0.04195467382669449	-0.31153520941734314	-0.16203123331069946	0.018422415480017662	0.22458435595035553	0.2508644163608551	0.0768074244260788	-0.15903186798095703	-0.37133416533470154	-0.013494695536792278	-0.2461816817522049	0.11548294872045517	-0.07896725088357925	0.340721994638443	0.2394290417432785	0.10597973316907883	-0.022377775982022285	-0.2449645698070526	-0.1388171911239624	0.23727655410766602	0.2906496226787567	0.36019691824913025	-0.3152160942554474	-0.1899852603673935	-0.045765865594148636	-0.11120010912418365	0.28353655338287354	0.17597652971744537	0.09132929146289825	0.4363836944103241	-0.03584512323141098	0.19733795523643494	-0.039407748728990555	0.16714803874492645	-0.25429344177246094	0.036306340247392654	-0.15211056172847748	0.11554938554763794	-0.2149045616388321
cham1307	-0.06836547702550888	-0.29247114062309265	0.1390499323606491	-0.15434153378009796	0.35041695833206177	0.040827274322509766	0.019408464431762695	-0.20460277795791626	-0.027484538033604622	-0.07960016280412674	0.018346218392252922	0.08745275437831879	0.1867639124393463	-0.02120465599000454	0.09087248891592026	0.1341094970703125	-0.16186214983463287	-0.013836800120770931	-0.4468356668949127	-0.14104996621608734	0.09443403780460358	-0.14616402983665466	-0.012430086731910706	0.0786297395825386	0.15832415223121643	0.23280447721481323	-0.2834695875644684	-0.0021389294415712357	-0.38249099254608154	0.19490571320056915	-0.5921218991279602	0.012000022456049919	-0.16108520328998566	-0.10703131556510925	-0.04387542977929115	0.05054889991879463	0.04081879183650017	0.11430424451828003	0.22923758625984192	-0.21668870747089386	-0.19767379760742188	-0.0017384906532242894	0.14806446433067322	-0.22908328473567963	-0.46112319827079773	0.09421096742153168	-0.14226274192333221	-0.22104860842227936	0.6242608428001404	0.2190179079771042	0.337149977684021	0.30171656608581543	0.34551823139190674	0.10808457434177399	-0.14761720597743988	-0.01780272088944912	0.01579037308692932	0.13265053927898407	-0.29964303970336914	-0.17274907231330872	0.013827651739120483	0.25652849674224854	-0.21668139100074768	-0.1423874795436859	0.17059879004955292	-0.029105495661497116	-0.132290318608284	0.01627168618142605	-0.026936640962958336	-0.22900086641311646	0.4160746932029724	-0.13156968355178833	0.07280115783214569	-0.050830792635679245	0.33090829849243164	0.14418728649616241	-0.1501653641462326	0.026368508115410805	-0.12084884941577911	-0.20179465413093567	0.12067218869924545	-0.09515048563480377	-0.013690909370779991	-0.19132959842681885	-0.05912443622946739	-0.04548099637031555	0.1875661015510559	0.5000942945480347	0.015835445374250412	-0.33367428183555603	0.10922722518444061	0.18924453854560852	0.430654913187027	-0.005249351728707552	0.19803765416145325	0.04056691750884056	-0.04945480078458786	-0.3039730489253998	0.5208121538162231	0.048988502472639084	-0.2248859405517578	0.24293091893196106	0.11417284607887268	0.13233643770217896	-0.07324352860450745	-0.09683232754468918	0.5507846474647522	0.23990420997142792	0.04657282680273056	-0.05315958335995674	-0.09240566939115524	-0.1438843160867691	-0.08768994361162186	-0.07457870244979858	-0.17909057438373566	-0.008187797851860523	-0.1694609820842743	-0.034448664635419846	-0.2793308198451996	0.013423947617411613	-0.2685104310512543	0.014245945028960705	-0.08317890763282776	0.13796347379684448	0.2498861700296402	0.1585807204246521	-0.02931392751634121	0.18094974756240845
chur1258	0.0524388924241066	-0.31941258907318115	0.00527811236679554	-0.03730163350701332	0.0637495145201683	0.06012740731239319	-0.15717583894729614	-0.04184635356068611	-0.13993605971336365	-0.09306570887565613	0.10492123663425446	0.27819326519966125	0.20760010182857513	0.16576123237609863	0.07961545139551163	0.10011845827102661	-0.27096548676490784	0.33878183364868164	0.0058675198815763	-0.034132059663534164	-0.015970196574926376	0.01484193466603756	-0.19630295038223267	-0.008166691288352013	0.34213218092918396	0.016974491998553276	-0.08042576164007187	-0.21667031943798065	0.020586395636200905	0.4024415612220764	-0.013933406211435795	0.11489666998386383	-0.08970633149147034	0.3503287136554718	0.11975780874490738	-0.33060359954833984	0.0697016641497612	-0.3815206289291382	0.03669620677828789	0.03370388224720955	0.20452354848384857	-0.06585948169231415	-0.15255169570446014	0.04705432802438736	-0.3272090256214142	0.41335347294807434	-0.13273681700229645	-0.23524802923202515	0.08640454709529877	-0.0325649119913578	0.2472820281982422	0.19225862622261047	0.04909516125917435	-0.2160479575395584	-0.17004889249801636	-0.24399495124816895	0.423229843378067	-0.005578347481787205	-0.18557538092136383	-0.1640569120645523	-0.035759273916482925	0.19104580581188202	-0.3230111002922058	0.18271207809448242	-0.21395663917064667	-0.182892307639122	0.2913323938846588	-0.30361470580101013	0.014250797219574451	-0.20160210132598877	0.11708062142133713	0.009318442083895206	0.14280594885349274	0.05607921630144119	0.29798224568367004	0.20371390879154205	0.0503346212208271	0.12241261452436447	-0.2922356426715851	-0.32562676072120667	0.116416797041893	-0.010220092721283436	0.09033907204866409	-0.23744329810142517	0.030519630759954453	-0.07002885639667511	-0.1553252637386322	0.14363202452659607	-0.17784830927848816	0.03860440105199814	-0.1707080602645874	-0.04670083150267601	0.0519166961312294	0.010175245814025402	-0.06413909792900085	0.25719723105430603	0.16092759370803833	0.025054147467017174	0.09119810163974762	-0.004802004899829626	0.10540328919887543	0.11380422115325928	0.04939481243491173	0.19460317492485046	-0.19027864933013916	0.1465795338153839	0.25704506039619446	0.1896176040172577	-0.24793539941310883	0.21840205788612366	-0.04482834413647652	-0.004720406606793404	-0.05840194597840309	-0.06602708995342255	0.21011009812355042	-0.0034001998137682676	-0.3007398247718811	-0.033694636076688766	-0.11717730760574341	0.04679514840245247	0.20700407028198242	-0.0471840538084507	-0.21534259617328644	0.036876942962408066	0.4590156376361847	0.17532022297382355	-0.35106247663497925	0.23457537591457367
dame1241	-0.030017584562301636	-0.2567405700683594	-0.12040665745735168	-0.090272456407547	0.4469163715839386	-0.37890395522117615	0.09053988754749298	-0.24071004986763	0.1281614750623703	-0.046758510172367096	-0.23281434178352356	0.2273552417755127	-0.2908574938774109	0.23341843485832214	0.15218982100486755	-0.06622278690338135	0.35169845819473267	0.06061315909028053	-0.15640504658222198	0.029039524495601654	-0.18889546394348145	-0.10053548216819763	0.043549105525016785	0.04328427091240883	-0.12628839910030365	0.16581673920154572	0.17173603177070618	0.02073080465197563	0.13276183605194092	0.20010040700435638	-0.1080198660492897	-0.01314611453562975	0.018852759152650833	0.24874930083751678	0.10633031278848648	0.16272832453250885	0.07862833142280579	-0.016139628365635872	0.11220679432153702	-0.08326123654842377	0.06591121107339859	-0.0676637813448906	-0.08192427456378937	0.1436644047498703	0.1343948245048523	0.0479503870010376	-0.041015058755874634	0.20080706477165222	0.29128310084342957	-0.31662505865097046	0.17328821122646332	-0.2937563359737396	0.17843855917453766	0.2336486130952835	0.07329662889242172	0.2710227966308594	-0.10827884078025818	-0.23878981173038483	0.12001079320907593	0.09909117966890335	0.11635800451040268	0.17343170940876007	0.3122015595436096	-0.1723855435848236	-0.19662019610404968	0.0530509352684021	-0.028668668121099472	-0.20595985651016235	0.031540874391794205	0.1768486201763153	-0.18974408507347107	-0.20256924629211426	0.048969075083732605	0.16807429492473602	0.11414700746536255	-0.23066602647304535	-0.07441705465316772	0.04735507071018219	0.12263493239879608	-0.1012735515832901	-0.1879345327615738	-0.09436967968940735	0.0769534781575203	0.013966147787868977	0.16091036796569824	-0.15820863842964172	-0.01860637031495571	-0.3292197585105896	0.3183988034725189	-0.03587883338332176	-0.08247698098421097	-0.1784035563468933	-0.16070030629634857	-0.25318607687950134	-0.06842727214097977	-0.008519044145941734	0.10379868745803833	0.16777294874191284	0.15168777108192444	-0.09251145273447037	0.1002315953373909	0.06744088977575302	0.02761378511786461	-0.1882592737674713	0.09733333438634872	0.14242613315582275	-0.26815229654312134	-0.024652814492583275	-0.06958360224962234	-0.054353319108486176	-0.07047247886657715	0.07083654403686523	-0.29466161131858826	-0.09083935618400574	0.1421947330236435	0.03518829867243767	0.10143883526325226	0.2024720311164856	0.020565785467624664	-0.13077904284000397	-0.285476952791214	0.1605847328901291	-0.41922515630722046	0.027377566322684288	0.11713437736034393	-0.26766905188560486	-0.13419970870018005	0.25911110639572144
dhiv1236	-0.3126426339149475	0.03064832091331482	0.04026482626795769	0.15066176652908325	0.23842017352581024	-0.039453551173210144	-0.03188059851527214	0.05754854157567024	0.08818858861923218	-0.22577901184558868	0.16022689640522003	0.03388545289635658	0.13344591856002808	0.14483152329921722	-0.2929922640323639	0.3232424855232239	-0.10608607530593872	-0.326974093914032	-0.1328868865966797	-0.05046242102980614	-0.2007690817117691	0.07160154730081558	-0.10878221690654755	0.0052013639360666275	-0.10389315336942673	0.04146060347557068	-0.22027058899402618	0.008362083695828915	-0.20537304878234863	-0.3227773606777191	0.2603950798511505	0.12684370577335358	-0.0693160742521286	0.000630625756457448	-0.12304898351430893	-0.3090248107910156	-0.057407379150390625	-0.23500627279281616	0.19371888041496277	-0.0783824622631073	0.3582536578178406	-0.04701182246208191	-0.3718557059764862	-0.2810850739479065	0.16463954746723175	0.08130881935358047	0.30470141768455505	-0.058028336614370346	0.27977731823921204	0.3267029821872711	-0.042998384684324265	-0.42888134717941284	0.03155966103076935	0.32339704036712646	0.10518885403871536	-0.03626034036278725	-0.39272910356521606	0.09314089268445969	0.09904701262712479	0.08927930891513824	0.23170360922813416	0.12412849813699722	-0.04491909220814705	0.19143879413604736	-0.1398613005876541	-0.1650792956352234	0.17836320400238037	-0.19873522222042084	-0.01904364302754402	-0.135635107755661	-0.07454610615968704	-0.21912109851837158	-0.049638260155916214	-0.28695550560951233	-0.03478831797838211	0.029791006818413734	-0.012216908857226372	-0.2246813178062439	0.043719932436943054	0.10706893354654312	-0.03594152256846428	0.018770677968859673	0.11042731255292892	0.3007069528102875	-0.1080237478017807	-0.41395360231399536	-0.16964705288410187	0.15793867409229279	-0.18976689875125885	0.029575146734714508	-0.3234338164329529	-0.10592637211084366	-0.10247978568077087	0.16118818521499634	0.1028519943356514	0.11226076632738113	0.0347246490418911	-0.0971275344491005	0.12079877406358719	0.3339977264404297	0.10814882814884186	0.0021595319267362356	-0.03837127611041069	0.10409069806337357	0.018556229770183563	-0.09429250657558441	-0.3968711495399475	-0.00963283609598875	0.3705831468105316	-0.0593709833920002	-0.10738089680671692	-0.2634948492050171	0.350795716047287	-0.13604937493801117	-0.02386609837412834	0.16069965064525604	0.06090793386101723	-0.060293737798929214	-0.23609302937984467	0.23986497521400452	-0.2555260956287384	0.20871499180793762	-0.10354357212781906	-0.3254125714302063	-0.14397747814655304	-0.08160506188869476	-0.21850953996181488	0.11283281445503235
doma1260	0.06966958940029144	0.3636293411254883	-0.28686824440956116	-0.06961125880479813	0.24953044950962067	-0.023341389372944832	0.16595597565174103	0.2117052525281906	0.22497986257076263	-0.20591025054454803	-0.0035491720773279667	0.07220085710287094	-0.2200000137090683	0.3047509789466858	0.07080099731683731	0.07877539098262787	-0.15719953179359436	-0.12027193605899811	0.013966838829219341	-0.28364744782447815	0.39330172538757324	-0.299992173910141	0.3730853199958801	0.3390193581581116	0.2619657814502716	-0.24009397625923157	0.4140496850013733	-0.06752100586891174	-0.15131928026676178	0.29429763555526733	0.18374238908290863	-0.18143509328365326	0.050492752343416214	0.14243647456169128	0.017014682292938232	0.10216469317674637	-0.2488168329000473	-0.1387031376361847	-0.13685660064220428	0.11796921491622925	0.25037723779678345	-0.11793891340494156	-0.16093885898590088	-0.26357439160346985	0.06528431922197342	-0.3551712930202484	0.08877965807914734	0.061415549367666245	-0.38498756289482117	0.2290773242712021	-0.10684962570667267	-0.434790700674057	0.059680115431547165	-0.1237623393535614	-0.044289443641901016	-0.22815896570682526	0.17362603545188904	0.01287413202226162	0.1918046772480011	0.24891220033168793	0.2353990077972412	-0.1520915925502777	0.11160044372081757	-0.179075226187706	0.18037086725234985	-0.2515098452568054	0.06471563130617142	0.4479981064796448	0.2090982347726822	-0.29176127910614014	0.12352283298969269	-0.23814542591571808	0.03656330332159996	0.2404388189315796	0.31998300552368164	-0.04845079779624939	-0.04356444254517555	-0.002576078986749053	0.10910529643297195	-0.1694098860025406	0.22841641306877136	-0.1310148984193802	-0.13742755353450775	-0.16380751132965088	-0.0389707013964653	0.23278751969337463	0.055333759635686874	0.2812218964099884	-0.17646870017051697	0.053018875420093536	-0.2974323332309723	0.15371209383010864	-0.008440941572189331	0.04043986275792122	-0.061235811561346054	0.25755903124809265	-0.2353047877550125	0.39268597960472107	0.028813233599066734	0.19742682576179504	0.011150423437356949	-0.08342606574296951	-0.004827451892197132	-0.08239083737134933	0.2951635420322418	-0.020874707028269768	-0.29742175340652466	0.1196373850107193	0.07512056082487106	0.2519725561141968	0.24938686192035675	0.1931210607290268	-0.1141311377286911	-0.2673889100551605	-0.28574541211128235	0.2602708637714386	0.06519904732704163	0.19347378611564636	-0.2485978603363037	-0.13539355993270874	-0.042634572833776474	-0.027025099843740463	-0.30039969086647034	-0.020559905096888542	0.3237544000148773	-0.23601987957954407	0.20117561519145966	-0.13632623851299286
gang1265	0.25903624296188354	0.21410977840423584	0.1022440642118454	0.15827596187591553	0.2685399651527405	-0.08857371658086777	-0.26569920778274536	0.1038568988442421	-0.24444720149040222	0.21337367594242096	0.13477276265621185	0.05274612829089165	-0.023605497553944588	-0.41158872842788696	0.041584547609090805	0.08878881484270096	0.03135225549340248	0.31813541054725647	0.07447189837694168	-0.13070335984230042	0.2095704972743988	-0.1308584362268448	0.19554224610328674	-0.2237395942211151	-0.19804713129997253	-0.11628073453903198	0.31761133670806885	0.16094829142093658	0.17434704303741455	0.17214743793010712	0.10017383843660355	0.06891277432441711	0.08619207888841629	-0.05527800694108009	-0.07072805613279343	0.07077949494123459	0.23494966328144073	-0.01603376865386963	-0.3563366234302521	0.17595134675502777	-0.26548293232917786	-0.13544248044490814	-0.14934022724628448	-0.06563062965869904	-0.07848284393548965	0.16991889476776123	-0.06146842986345291	0.03910123184323311	0.1277122050523758	-0.00943082757294178	-0.05817026272416115	0.2842367887496948	-0.0369550958275795	-0.23172549903392792	0.07465828955173492	0.0953599065542221	-0.15896759927272797	0.0344158373773098	0.11339778453111649	-0.14651291072368622	0.008145845495164394	-0.18663926422595978	-0.18930192291736603	0.24165552854537964	-0.3186914622783661	6.644729000981897e-05	0.1952114850282669	-0.2407817542552948	0.10032446682453156	-4.803201591130346e-05	-0.03468853607773781	0.11752501130104065	-0.13051463663578033	-0.1529865860939026	0.1393609344959259	0.23092636466026306	-0.056826621294021606	-0.05157852917909622	-0.3425140678882599	0.18793287873268127	0.006310622673481703	0.03375805914402008	-0.05929331108927727	-0.035246286541223526	0.06457143276929855	0.06334423273801804	-0.34574034810066223	0.2612076699733734	0.123993881046772	-0.12284122407436371	-0.052526865154504776	-0.20845039188861847	0.15165041387081146	0.11884716898202896	0.22290536761283875	0.019446928054094315	0.17941933870315552	0.09887851774692535	-0.12742754817008972	0.16879159212112427	0.09444792568683624	0.011888564564287663	0.1326170563697815	0.14506162703037262	0.3733404576778412	0.039963267743587494	-0.25378674268722534	0.12014041095972061	0.16144146025180817	0.050779808312654495	-0.18784579634666443	0.14241644740104675	-0.27618172764778137	-0.1059739738702774	-0.24202865362167358	0.11071435362100601	0.023317066952586174	0.005480716470628977	0.1811533272266388	0.21025140583515167	-0.1326819658279419	-0.23582319915294647	-0.08754421025514603	0.09124094992876053	0.029648462310433388	0.06275991350412369	-0.09875796735286713	-0.02278815768659115
garh1243	0.008098003454506397	0.09597139060497284	0.06769546866416931	-0.21427589654922485	0.16143886744976044	-0.051316194236278534	-0.011023638769984245	0.06345118582248688	0.17671258747577667	0.1671811044216156	0.060943860560655594	0.05588807910680771	0.05753094330430031	-0.12861940264701843	-0.16921643912792206	0.08303225785493851	0.1387990117073059	0.15166355669498444	0.36700499057769775	0.02225980907678604	0.04268665611743927	-0.22024230659008026	0.2593865692615509	-0.27318453788757324	0.12231521308422089	0.21392841637134552	-0.2667773365974426	0.02019338682293892	0.29435083270072937	-0.3593372106552124	-0.19766661524772644	-0.28407904505729675	0.2047707587480545	-0.12185447663068771	0.07533226907253265	0.11247638612985611	0.16512827575206757	0.09785714000463486	0.210394948720932	-0.057071253657341	0.11887241154909134	-0.19805124402046204	0.12593646347522736	-0.17206445336341858	-0.15660002827644348	0.11373311281204224	-0.10053155571222305	-0.17588293552398682	0.09267476946115494	0.023931408300995827	-0.15593019127845764	-0.08343137055635452	0.03252320736646652	-0.1797366887331009	-0.34926673769950867	-0.0892578512430191	-0.2020823061466217	-0.28814247250556946	0.20126692950725555	-0.23634761571884155	-0.09411490708589554	-0.10758201777935028	-0.08184447139501572	0.21651676297187805	0.09298921376466751	-0.012738022953271866	0.23757821321487427	0.28228598833084106	-0.21224293112754822	-0.11758588254451752	0.08011823147535324	0.011996324174106121	0.16153113543987274	-0.2018645852804184	-0.0935564786195755	0.19533038139343262	0.011041500605642796	0.2963219881057739	-0.06127408519387245	-0.21352291107177734	-0.082112617790699	-0.10179884731769562	0.17868047952651978	-0.22714731097221375	-0.009037904441356659	0.08748303353786469	0.056649692356586456	-0.019420670345425606	0.2053104043006897	0.17870192229747772	0.1383752077817917	-0.20819123089313507	0.33557772636413574	-0.27373600006103516	0.05949427932500839	-0.14866280555725098	0.13506299257278442	-0.2463880330324173	-0.03360528498888016	0.12661555409431458	-0.008762074634432793	-0.08560913801193237	0.27183496952056885	0.04215805605053902	-0.23712415993213654	-0.18204137682914734	-0.05491051450371742	-0.051951516419649124	0.13034747540950775	-0.0627596452832222	0.031235424801707268	0.10333248227834702	0.15056823194026947	-0.09144969284534454	0.04366059973835945	0.29326826333999634	0.0029595831874758005	0.1889527142047882	-0.09143402427434921	0.2371724247932434	-0.2371588498353958	0.19253113865852356	-0.22285278141498566	0.19358576834201813	0.14128172397613525	0.18840569257736206	0.09652243554592133	0.10760220885276794
gawa1247	-0.1338641494512558	0.15529347956180573	-0.022226758301258087	-0.18897485733032227	-0.17335884273052216	-0.07040976732969284	0.16346515715122223	-0.18748323619365692	-0.0892229676246643	-0.12934650480747223	-0.0406663604080677	-0.053545691072940826	-0.0039576576091349125	-0.02243863232433796	-0.25490835309028625	-0.4113806486129761	0.20329873263835907	0.041540272533893585	0.030700817704200745	-0.0862923189997673	0.15503700077533722	-0.19672638177871704	0.046023741364479065	-0.09309760481119156	-0.05056695267558098	-0.05039326474070549	0.10850512236356735	0.23862850666046143	0.21854855120182037	-0.15620450675487518	0.12088972330093384	-0.16383512318134308	-0.07914883643388748	0.28353631496429443	-0.10055793076753616	-0.13468310236930847	0.3419005274772644	0.010799781419336796	0.22673606872558594	-0.1505967080593109	0.3540390133857727	0.054974209517240524	0.11451748758554459	-0.03917163237929344	-0.16067251563072205	-0.04466457664966583	0.24539072811603546	0.06250020116567612	-0.027061449363827705	-0.09268597513437271	0.14148543775081635	-0.0227073784917593	-0.24187786877155304	0.04400506615638733	-0.04215626046061516	0.007064998149871826	0.387531578540802	-0.25078341364860535	0.18111498653888702	0.043364085257053375	-0.20890125632286072	-0.07176809012889862	0.1356564313173294	-0.07165439426898956	0.24386124312877655	0.027038676664233208	-0.2244822084903717	0.07568386197090149	-0.10082117468118668	-0.12651485204696655	0.017347384244203568	0.1919064223766327	0.23671574890613556	0.14852866530418396	0.06565601378679276	0.19443237781524658	-0.07074133306741714	0.010666034184396267	-0.07883468270301819	-0.18456527590751648	0.20481576025485992	0.09090428799390793	0.051763612776994705	0.1656319946050644	0.28368523716926575	0.024029375985264778	0.24593232572078705	-0.26030007004737854	0.0628986805677414	-0.01534454245120287	0.01289005484431982	0.12234070152044296	-0.2588517665863037	0.041914839297533035	-0.27535900473594666	0.00969794113188982	0.07192201912403107	0.2165084034204483	0.28590458631515503	0.08472281694412231	0.1065281331539154	-0.044774603098630905	-0.07817986607551575	-0.06849431991577148	0.12596331536769867	-0.13180138170719147	0.10745617002248764	0.08067939430475235	0.0901668518781662	-0.2151966392993927	-0.26641353964805603	-0.03783348202705383	0.01659294217824936	0.2045782506465912	-0.06401588767766953	-0.12236833572387695	0.19092121720314026	-0.2981301546096802	0.24519163370132446	0.03214403614401817	-0.08258534222841263	-0.026382431387901306	-0.07853977382183075	-0.23163855075836182	0.1087845042347908	-0.14495106041431427	-0.03389911353588104	-0.09782536327838898
guja1252	-0.08878325670957565	-0.13659542798995972	0.16723209619522095	0.039400260895490646	-0.06846871972084045	-0.07630188018083572	-0.004668388981372118	0.012618876993656158	0.038222238421440125	0.12951233983039856	-0.0638277605175972	0.028862906619906425	0.057751309126615524	0.003976074978709221	-0.015724552795290947	-0.13834887742996216	-0.015367995947599411	-0.04069193825125694	0.047907549887895584	-0.027335643768310547	-0.13011915981769562	-0.04406840726733208	0.07439688593149185	-0.1378243863582611	-0.0406092070043087	0.2043367475271225	-0.07777947187423706	-0.09854983538389206	0.18659041821956635	-0.14913852512836456	0.13701097667217255	-0.03996090963482857	0.0014156235847622156	0.17656612396240234	-0.004064943175762892	0.08258164674043655	-0.11803002655506134	0.04868363216519356	-0.044369447976350784	0.04502435028553009	-0.04145418852567673	0.0836542397737503	0.1810833066701889	-0.023671720176935196	-0.01618815027177334	0.13654711842536926	-0.044257208704948425	0.01267983578145504	-0.041215792298316956	-0.09275598078966141	0.044231683015823364	0.1286429911851883	-0.09330356121063232	-0.03595316782593727	0.13112062215805054	-0.045694269239902496	-0.05783084034919739	-0.12056636065244675	-0.08941952139139175	-0.1447066366672516	0.040452972054481506	0.07522532343864441	-0.14492666721343994	-0.0037744578439742327	-0.03247910737991333	-0.05103004351258278	0.04274739697575569	-0.0621429942548275	-0.0925690233707428	0.0037658181972801685	-0.06748341023921967	-0.02404564432799816	-0.06524641811847687	-0.06654208153486252	-0.08916086703538895	-0.034242160618305206	-0.012409614399075508	0.09689318388700485	-0.07690383493900299	-0.10091543942689896	-0.1532731056213379	-0.11260201781988144	-0.025887977331876755	0.1250362992286682	0.008967587724328041	-0.03580348193645477	-0.11722497642040253	-0.1730659455060959	0.14421328902244568	0.07916872948408127	0.04074402153491974	-0.029780283570289612	0.03097146563231945	-0.1495148241519928	0.12636181712150574	-0.03359160199761391	-0.140769362449646	-0.03839588537812233	-0.1953616738319397	0.008749566040933132	-0.08804440498352051	-0.11558424681425095	0.041074492037296295	-0.09996683895587921	0.10989753901958466	0.004139041993767023	-0.12366899847984314	-0.06850293278694153	-0.033703308552503586	0.013290558941662312	0.10207238048315048	0.025096671655774117	-0.12767504155635834	-0.00023730560496915132	0.061337947845458984	-0.16441255807876587	-0.0006804175791330636	-0.008236903697252274	-0.08776294440031052	-0.16477380692958832	0.0707949846982956	-0.15100616216659546	0.1342751532793045	0.08142329007387161	-0.040023598819971085	-0.16336801648139954	0.0449301116168499	-0.03477054461836815
hind1269	0.028239471837878227	0.08558855950832367	0.08021242171525955	0.006225293967872858	-0.035244446247816086	0.047221094369888306	-0.04411333426833153	0.052906207740306854	-0.03796795755624771	-0.025743039324879646	-0.03269373998045921	-0.0723230317234993	-0.06799837946891785	-0.061735816299915314	0.05635657161474228	0.15908144414424896	0.06358535587787628	0.09769678115844727	-0.008534017018973827	-0.023155948147177696	0.06379099190235138	-0.07595454901456833	-0.06020870804786682	-0.09530476480722427	-0.004055056720972061	-0.08170202374458313	-0.031168106943368912	-0.027366988360881805	0.09722667187452316	0.04498932138085365	-0.06369895488023758	-0.09830015152692795	-0.04239977151155472	-0.07049921154975891	0.15996812283992767	-0.12475590407848358	-0.16924011707305908	-0.06476219743490219	-0.1065937727689743	0.015285131521522999	-0.09903534501791	-0.044775284826755524	-0.04794614762067795	0.08701525628566742	-0.16350233554840088	-0.07362393289804459	-0.06548622250556946	-0.015144945122301579	-0.010306702926754951	-0.03104301169514656	0.05498509854078293	0.15282386541366577	0.08374025672674179	-0.15695257484912872	0.06712687015533447	0.1045268103480339	0.07428527623414993	-0.02015400491654873	0.045134738087654114	-0.048327308148145676	0.021650543436408043	-0.05777912959456444	0.06378379464149475	0.10395382344722748	-0.02829456329345703	-0.02855878323316574	-0.024010997265577316	0.057383835315704346	0.04944015294313431	0.06758205592632294	0.06102871894836426	0.010316953994333744	0.04703572392463684	-0.10097048431634903	0.09718329459428787	-0.0065093147568404675	-0.0037852113600820303	-0.03606010973453522	0.09896044433116913	0.11567305028438568	0.05829155072569847	-0.048750560730695724	0.07915905863046646	0.06041569262742996	0.10859066247940063	-0.022097669541835785	-0.008388981223106384	-0.09502792358398438	-6.924111949047074e-05	0.07398398965597153	-0.11079511046409607	-0.09994574636220932	0.011761205270886421	-0.04496367275714874	0.1384589821100235	0.05130437761545181	-0.019022593274712563	-0.1571134626865387	0.12742219865322113	-0.07586032152175903	-0.1080949455499649	0.060645125806331635	0.06812727451324463	0.06459905207157135	0.018069438636302948	0.019953815266489983	0.1169782355427742	0.0747433453798294	0.06930046528577805	-0.04638553038239479	-0.032975587993860245	-0.13996648788452148	-0.08090336620807648	-0.07594085484743118	-0.022700026631355286	-0.11636834591627121	-0.06388889998197556	0.005143404938280582	0.04338625818490982	-0.011747562326490879	0.11272686719894409	-0.0055124592036008835	0.03905108943581581	-0.030995100736618042	-0.1079028844833374	0.03515924885869026	0.02476600743830204	0.05469212681055069
indu1241	0.34209275245666504	0.24539996683597565	-0.1489991992712021	0.0459568127989769	-0.026514749974012375	0.008251741528511047	0.07722367346286774	0.16165223717689514	0.017995620146393776	-0.16867366433143616	0.02234238013625145	0.06611201912164688	-0.3716038763523102	-0.038712672889232635	-0.15746623277664185	-0.011106183752417564	0.09451865404844284	0.1595047563314438	0.056565605103969574	-0.17727605998516083	-0.15995970368385315	-0.12375081330537796	-0.08901499956846237	0.17846105992794037	0.12785957753658295	0.05392608791589737	0.051638972014188766	0.025337090715765953	0.06312379240989685	-0.013039295561611652	-0.25322654843330383	-0.3695414066314697	-0.01759191043674946	0.45824626088142395	0.09610574692487717	0.2170685976743698	0.5838572382926941	-0.10546718537807465	-0.11019373685121536	0.2735844552516937	-0.11371002346277237	-0.07791311293840408	-0.06110166758298874	0.09418192505836487	-0.2621537148952484	-0.23928797245025635	-0.09357811510562897	0.24650241434574127	0.027868768200278282	-0.08785717934370041	0.03768061473965645	-0.20135048031806946	0.014101486653089523	0.08071266114711761	-0.440348744392395	-0.4353029131889343	0.37405285239219666	-0.014472197741270065	-0.025795506313443184	0.21871671080589294	-0.273480623960495	-0.19382880628108978	0.0903782919049263	-0.3136773705482483	0.04696052893996239	-0.03952476754784584	0.11948762089014053	-0.3050745129585266	-0.1128908097743988	0.016792118549346924	-0.12050198018550873	-0.28950318694114685	-0.31132152676582336	0.2896740138530731	0.47423622012138367	-0.2306884080171585	-0.11688780784606934	-0.024367015808820724	-0.34372276067733765	0.12943926453590393	-0.10929417610168457	0.16102632880210876	-0.2205243706703186	0.005090244114398956	-0.2193422019481659	0.018011093139648438	-0.10451366007328033	-0.0060393172316253185	-0.28571897745132446	0.08454523980617523	0.07812042534351349	-0.17771629989147186	0.07667692750692368	-0.07510101795196533	0.06983114778995514	0.45231157541275024	-0.05209891498088837	0.05319518223404884	0.21542349457740784	0.22852395474910736	0.4568138122558594	0.15574540197849274	-0.03822461515665054	0.07631929218769073	0.3358325660228729	-0.20925839245319366	0.20853950083255768	0.06526781618595123	0.06565182656049728	0.038093775510787964	-0.02912197634577751	0.3170742988586426	-0.0015479198191314936	0.05945470556616783	0.30076614022254944	-0.051378436386585236	0.20792952179908752	-0.19479410350322723	0.22856663167476654	0.05944736301898956	-0.02620409056544304	-0.021549513563513756	0.26370421051979065	0.17197845876216888	-0.07296761870384216	0.1348506212234497	0.7178339958190918	0.03608069568872452
jaun1243	0.3106805086135864	0.07745003700256348	0.3486243784427643	-0.06002458930015564	0.18376080691814423	0.2299368977546692	0.04950087144970894	0.1531587541103363	-0.3266020119190216	-0.061846453696489334	0.16073906421661377	-0.13721011579036713	-0.2723539173603058	-0.07520884275436401	0.09774547815322876	-0.017639627680182457	-0.0830354243516922	0.26755043864250183	-0.26844730973243713	-0.009141148068010807	-0.11563867330551147	0.08379735797643661	0.007207415532320738	0.22090284526348114	0.018302828073501587	-0.19075191020965576	0.19106525182724	0.17452943325042725	0.23264126479625702	-0.010441253893077374	0.1948145478963852	-0.014342709444463253	-0.023780401796102524	0.1614404171705246	0.2470419853925705	0.08681856840848923	-0.2368680238723755	-0.43053561449050903	-0.0790431797504425	-0.22711630165576935	-0.030504057183861732	-0.1694078892469406	0.09448743611574173	-0.152205228805542	-0.0708441212773323	0.29046523571014404	0.17360559105873108	-0.08695429563522339	0.357404887676239	-0.01735662668943405	-0.03428409621119499	0.26628902554512024	-0.06829888373613358	-0.3334119915962219	-0.11222785711288452	-0.2494169920682907	0.29941508173942566	-0.1039850264787674	0.09780125319957733	-0.10612096637487411	-0.09589003771543503	-0.02330545336008072	-0.07174530625343323	0.15944629907608032	0.02682679519057274	-0.06916207075119019	-0.25017550587654114	-0.026815706863999367	0.051834914833307266	-0.021068619564175606	0.4049172103404999	-0.14281457662582397	0.09061465412378311	0.2647518813610077	0.383698433637619	-0.04189474880695343	0.02973542921245098	-0.19528836011886597	-0.13397793471813202	-0.26072418689727783	-0.25882580876350403	0.0109479408711195	-0.01689940318465233	-0.295675665140152	0.21331363916397095	-0.3183475434780121	-0.0902799516916275	0.6048584580421448	-0.19041159749031067	-0.029162824153900146	-0.0771806389093399	0.2842041552066803	0.03884102776646614	0.11790395528078079	-0.054864201694726944	-0.12047236412763596	-0.109810471534729	0.11011198908090591	0.3038542866706848	-0.27928563952445984	-0.2771650552749634	-0.16354389488697052	0.07901471108198166	-0.5670092701911926	0.3052920997142792	0.054854169487953186	0.10590863972902298	0.12786348164081573	0.0826866552233696	0.0864846259355545	-0.13762708008289337	0.21770189702510834	0.017681770026683807	0.21385394036769867	0.017375659197568893	0.37708500027656555	0.020256195217370987	-0.23496845364570618	-0.10736241936683655	-0.34836262464523315	0.03079231083393097	0.05421339347958565	0.022078625857830048	0.0030642792116850615	0.23875068128108978	-0.05079028755426407	0.07743364572525024	0.12445162981748581
kach1277	-0.06613332778215408	0.061880141496658325	0.01891832984983921	-0.06648391485214233	0.2426706999540329	0.03727433830499649	-0.04396022856235504	-0.06809934973716736	0.1874295026063919	-0.19685521721839905	0.27089229226112366	-0.07641403377056122	-0.1230231449007988	-0.12504303455352783	0.08697367459535599	-0.046571604907512665	-0.35522371530532837	0.19452062249183655	0.08178748935461044	-0.15336252748966217	0.06085124984383583	0.2633313834667206	-0.03838324546813965	-0.05188995972275734	-0.11549977213144302	0.0660887286067009	0.2264077216386795	-0.10598889738321304	-0.2036558836698532	-0.2843042314052582	0.03014979138970375	0.17386546730995178	-0.09602496027946472	-0.03143508359789848	0.30282828211784363	-0.08197866380214691	0.13042333722114563	-0.12480811774730682	-0.09093454480171204	-0.007608115207403898	0.10514277219772339	0.01190869975835085	-0.05133451521396637	-0.05652083829045296	-0.16354866325855255	0.07175807654857635	0.014541837386786938	-0.2817113995552063	0.04204070195555687	0.14142107963562012	0.2864353656768799	-0.06664004176855087	-0.11465874314308167	-0.027500150725245476	-0.03403696417808533	-0.2692233920097351	0.036929305642843246	-0.27204424142837524	-0.0067300074733793736	-0.29225531220436096	0.2246248722076416	-0.36321842670440674	0.052099037915468216	-0.18962229788303375	-0.13357439637184143	0.032802168279886246	0.13413341343402863	0.29525700211524963	0.023022722452878952	-0.09827417135238647	0.11314497888088226	-0.18824131786823273	-0.14140309393405914	0.06619278341531754	-0.21563592553138733	0.11274345964193344	0.09738989174365997	0.15449409186840057	0.07809145748615265	-0.1683289259672165	0.22790861129760742	-0.08456474542617798	0.12723027169704437	-0.12477003037929535	-0.1974366158246994	-0.14893460273742676	-0.019802682101726532	0.02171310782432556	-0.09765972197055817	0.1343175768852234	-0.327642560005188	0.29030171036720276	0.0844561830163002	-0.1837140917778015	0.24247707426548004	-0.07029739767313004	-0.05433350428938866	-0.1503416895866394	0.12389211356639862	0.028873689472675323	0.016168970614671707	-0.13986101746559143	0.32612285017967224	0.10031662881374359	0.32188162207603455	0.11273984611034393	0.27173858880996704	-0.05724921077489853	-0.28569337725639343	0.021889636293053627	0.4654850363731384	0.015367078594863415	-0.16870614886283875	0.22756025195121765	-0.2263239175081253	-0.1612064689397812	-0.060951512306928635	0.024785025045275688	-0.26727861166000366	0.12723638117313385	-0.13728450238704681	-0.00541507825255394	0.025860443711280823	0.14972418546676636	0.06058826297521591	-0.15799911320209503	-0.02737218141555786	-0.17173965275287628
kala1372	0.20911955833435059	0.0415346585214138	0.12718720734119415	-0.04001326486468315	0.10875766724348068	-0.15526330471038818	0.24419021606445312	-0.20757272839546204	0.06392396241426468	-0.20260363817214966	0.11059191823005676	0.31277671456336975	-0.055456966161727905	-0.36143553256988525	0.27658310532569885	-0.16004130244255066	0.40946224331855774	-0.13888701796531677	-0.3527374565601349	0.07552561163902283	-0.07670074701309204	0.3984651565551758	0.33974671363830566	-0.07069266587495804	0.17884424328804016	0.1831234246492386	0.24626712501049042	-0.0892709270119667	0.03250827640295029	0.08536697179079056	0.029031788930296898	0.04294861853122711	-0.06814435124397278	0.28210100531578064	-0.009400550276041031	0.20580743253231049	0.23184001445770264	0.09108878672122955	0.2113344371318817	-0.11606767028570175	0.046776123344898224	0.09328064322471619	0.5817026495933533	0.17641420662403107	0.08168274164199829	-0.16605445742607117	0.019731037318706512	0.10880618542432785	-0.13527512550354004	0.333421915769577	-0.20309163630008698	-0.3845084607601166	-0.14272603392601013	0.29322442412376404	0.20689073204994202	0.17711597681045532	0.31469184160232544	0.11395160108804703	-0.20842373371124268	0.06926491111516953	0.2590888738632202	0.03016101010143757	0.19222819805145264	0.13824041187763214	-0.1982268989086151	-0.026087772101163864	-0.07424256205558777	0.22302407026290894	-0.15328702330589294	0.05823346599936485	-0.09360209107398987	0.17883151769638062	-0.10969250649213791	-0.041515838354825974	0.008374513126909733	0.0508674681186676	-0.11386451125144958	-0.1175040602684021	0.07431674003601074	-0.035206787288188934	-0.10750693082809448	-0.0221630297601223	-0.2841382324695587	0.17191924154758453	0.1649935245513916	0.332054078578949	-0.0509721115231514	-0.06953442841768265	0.0059665292501449585	-0.07131990790367126	-0.23491059243679047	0.22305136919021606	-0.010129604488611221	0.1962835192680359	0.09539401531219482	0.1775035411119461	0.22476539015769958	0.09996672719717026	-0.11095762997865677	-0.12777496874332428	0.13155284523963928	0.09729406237602234	-0.3050838112831116	-0.32503917813301086	0.2591269016265869	-0.19870182871818542	0.17459727823734283	0.02698928490281105	0.04903833568096161	-0.0164958368986845	-0.023518526926636696	0.1739322394132614	-0.2551828622817993	-0.021557845175266266	-0.23695054650306702	-0.12861107289791107	0.2502215504646301	0.050688259303569794	0.009560572914779186	-0.21304622292518616	-0.260187029838562	-0.07470835745334625	-0.21516147255897522	0.13245952129364014	0.24252168834209442	-0.14970053732395172	-0.08143933862447739	-0.08037491142749786
kala1373	0.1526586264371872	0.06433949619531631	-0.10172479599714279	-0.1829075664281845	-0.03914431482553482	0.1388373225927353	0.05508948862552643	-0.26388269662857056	0.24085451662540436	-0.2983715236186981	-0.4228668212890625	0.05664795637130737	-0.17780499160289764	-0.1745237559080124	0.077919140458107	0.27310770750045776	-0.20040573179721832	-0.0732974112033844	0.2725737392902374	-0.10733478516340256	0.14542832970619202	0.1494007557630539	-0.18638363480567932	-0.13399548828601837	0.06681136041879654	0.16677071154117584	-0.018737195059657097	0.0033602071925997734	0.21594838798046112	-0.15126711130142212	-0.12444828450679779	0.19670671224594116	-0.030594365671277046	0.3468196392059326	0.0013788945507258177	-0.17009975016117096	0.24820271134376526	0.13075599074363708	0.40544652938842773	0.27333441376686096	0.29175639152526855	-0.30865734815597534	-0.12475694715976715	0.00025490327971056104	-0.09125220030546188	-0.022630613297224045	-0.1589425504207611	0.25830262899398804	0.013661550357937813	-0.232558012008667	0.00771190645173192	0.028231853619217873	0.023336272686719894	-0.08318283408880234	-0.08124116063117981	-0.024874728173017502	0.06840033084154129	0.1894771158695221	-0.08786449581384659	0.05051790177822113	0.1442059874534607	0.37073591351509094	-0.1870705932378769	-0.35549768805503845	0.06182006374001503	-0.040813472121953964	0.09425587207078934	0.092718206346035	-0.2661403715610504	0.1353577971458435	-0.1138167455792427	-0.16225844621658325	0.061488594859838486	-0.026448847725987434	0.0908682644367218	-0.02129516750574112	-0.14253146946430206	0.08848123997449875	-0.10956843197345734	0.3500557839870453	0.21029900014400482	-0.11398500949144363	-0.18238520622253418	0.11385475099086761	-0.016302164644002914	-0.07641302049160004	0.19040699303150177	-0.21730561554431915	-0.036203429102897644	-0.006467767525464296	-0.45397716760635376	0.2244824916124344	0.05400402843952179	-0.19016896188259125	-0.08152478188276291	0.008892218582332134	0.0724000632762909	0.2104203850030899	0.11518064141273499	-0.11737734079360962	-0.2709449529647827	0.007195449434220791	-0.2691692113876343	0.284148633480072	0.10736854374408722	-0.11977312713861465	-0.10269365459680557	-0.0718720331788063	-0.10743198543787003	0.32208335399627686	-0.13461652398109436	0.33786922693252563	-0.16995887458324432	0.16131740808486938	0.11023171246051788	-0.1843944489955902	0.041826386004686356	0.1899644285440445	-0.10784912109375	0.09355360269546509	-0.20779454708099365	-0.07391053438186646	0.2384594827890396	0.016928179189562798	0.05611497908830643	-0.14440156519412994	0.08882079273462296	0.28776973485946655
kash1277	-0.09662509709596634	-0.004579171072691679	0.15745458006858826	-0.0755290538072586	0.30662280321121216	0.0827704519033432	0.2137565314769745	-0.05046212673187256	0.12927033007144928	-0.24146555364131927	-0.01629217155277729	-0.0833127424120903	-0.1375855803489685	-0.04082780331373215	-0.06593628227710724	0.0009454849059693515	0.13661198318004608	-0.16693249344825745	-0.05935123190283775	0.014138652943074703	0.1131458729505539	0.11732667684555054	-0.07410870492458344	0.06721309572458267	0.04001132771372795	-0.13688021898269653	0.10461997985839844	0.12166992574930191	-0.026526492089033127	-0.023451654240489006	0.11465725302696228	0.11669374257326126	0.12802830338478088	-0.13437813520431519	-0.07375264912843704	-0.015353505499660969	0.09715781360864639	-0.08991682529449463	0.0966792032122612	0.012523297220468521	0.06982088088989258	-0.06393270194530487	0.150968998670578	-0.1669578105211258	0.036026354879140854	-0.17806781828403473	0.029288195073604584	0.15066057443618774	0.10148116201162338	-0.2966088056564331	0.08798280358314514	-0.18637794256210327	-0.00931721180677414	0.12279830127954483	-0.07461738586425781	-0.068235844373703	-0.08090712130069733	0.2139589786529541	0.12918631732463837	-0.06663927435874939	-0.16168369352817535	0.05963490530848503	0.02579502761363983	0.15562528371810913	-0.0300990529358387	0.013245558366179466	-0.0222102589905262	-0.22351393103599548	-0.027468370273709297	-0.057771798223257065	-0.13962481915950775	-0.045868437737226486	-0.018767867237329483	0.011993984691798687	-0.04550503194332123	0.02274736948311329	-0.06303703039884567	-0.057160891592502594	0.12154114991426468	0.06449876725673676	-0.1283913403749466	-0.17237316071987152	-0.032055001705884933	-0.20189757645130157	0.08028955012559891	-0.15906567871570587	0.15947191417217255	-0.048800669610500336	0.16338327527046204	0.15300752222537994	0.12665261328220367	0.1429031938314438	0.1653439998626709	-0.12211039662361145	0.0513429269194603	-0.0543750561773777	0.05591430887579918	-0.003441442037001252	-0.11462812125682831	0.0042191920801997185	0.13434655964374542	0.058069270104169846	-0.028135037049651146	-0.01329489704221487	-0.06087840348482132	0.14731734991073608	-0.1548822671175003	-0.08816713839769363	0.0745023638010025	-0.1145595833659172	0.37423446774482727	0.1511833220720291	0.2628213167190552	0.14608068764209747	0.15540605783462524	0.14061841368675232	-0.0361986868083477	-0.05404170975089073	-0.07211551070213318	0.1421968638896942	0.047107428312301636	-0.012150545604526997	-0.13870671391487122	-0.1881820261478424	-0.050195492804050446	0.04887941852211952	-0.127008318901062	-0.036915604025125504
khet1238	-0.14734727144241333	-0.06624996662139893	-0.17444530129432678	0.3086159825325012	0.3282882273197174	0.04421287775039673	0.12492430955171585	-0.10395589470863342	0.28449559211730957	0.13664685189723969	-0.005776615813374519	0.15918123722076416	-0.06568445265293121	-0.3521451950073242	-0.03057553619146347	0.37747907638549805	0.06731162220239639	-0.0718202069401741	0.011484895832836628	0.15216059982776642	-0.002777914749458432	0.3994925618171692	0.29414695501327515	-0.035401128232479095	-0.06557787209749222	-0.04073387011885643	0.3037722706794739	0.3445614278316498	-0.16564548015594482	0.03419918939471245	-0.24462881684303284	0.09120112657546997	0.01353451143950224	0.05691412836313248	0.18854187428951263	-0.38550496101379395	-0.0817144587635994	-0.5095610618591309	-0.10171771049499512	-0.0638878121972084	-0.019517144188284874	-0.1206481009721756	-0.014365489594638348	0.009631429798901081	0.04022183269262314	-0.17456816136837006	-0.16169430315494537	-0.268158882856369	-0.0844431146979332	-0.10487589240074158	0.04558698832988739	0.0956682339310646	0.04133351892232895	0.1449863761663437	-0.026179073378443718	-0.1833113431930542	0.04835887998342514	0.14263178408145905	-0.03667830303311348	-0.13993139564990997	-0.12315668165683746	0.23031669855117798	-0.23777151107788086	-0.13458941876888275	-0.09056975692510605	0.03303782641887665	0.04916828125715256	-0.021683931350708008	0.02213134430348873	-0.38286247849464417	-0.026986490935087204	-0.07104315608739853	0.13352063298225403	0.2793475091457367	0.01772439479827881	-0.13309752941131592	-0.1037406325340271	-0.019004851579666138	0.027019811794161797	0.07865796238183975	0.17065751552581787	-0.17727713286876678	0.1674201637506485	-0.15954168140888214	-0.025042502209544182	-0.2934681475162506	0.15180246531963348	0.32199394702911377	-0.34550178050994873	-0.0080442288890481	-0.15686854720115662	0.17819398641586304	-0.005208293441683054	0.09322403371334076	-0.09900122135877609	-0.19295914471149445	-0.22058916091918945	0.13113056123256683	-0.2812819182872772	0.03308776021003723	-0.07045750319957733	0.25084614753723145	0.17240406572818756	-0.07891292124986649	-0.07885413616895676	-0.3464530408382416	0.03441387414932251	0.1616089940071106	-0.1223636195063591	0.2167370319366455	0.06047123298048973	-0.33318617939949036	-0.07419493794441223	-0.2527860701084137	0.04204992949962616	-0.14837081730365753	0.1933467537164688	0.07931599020957947	-0.17854590713977814	-0.17943516373634338	-0.07106401026248932	0.45773306488990784	-0.02617170475423336	0.3290242850780487	-0.18166789412498474	0.06980721652507782	-0.2377864271402359	0.17913664877414703
khow1242	0.050235942006111145	-0.26053929328918457	-0.2543923258781433	0.2358843982219696	0.029587242752313614	-0.4764103591442108	0.16009651124477386	-0.09528376907110214	-0.2718152701854706	0.1959168165922165	-0.3429085612297058	-0.1563604772090912	0.08317721635103226	0.3866152763366699	0.04459826275706291	-0.047274477779865265	0.10269534587860107	-0.15997183322906494	-0.09631259739398956	0.08554299175739288	-0.024793099611997604	0.14433316886425018	0.008553368970751762	0.14834026992321014	0.28626686334609985	0.13840582966804504	-0.16784875094890594	-0.09457197785377502	0.10696312040090561	0.015241601504385471	-0.1743297129869461	-0.19943560659885406	0.28164029121398926	0.23266839981079102	0.09359174221754074	-0.11813434213399887	0.25983336567878723	0.02674119919538498	-0.16789975762367249	0.08274585008621216	0.40276026725769043	-0.09263214468955994	0.18426482379436493	-0.13948529958724976	0.07007092237472534	-0.05912373960018158	0.19252635538578033	0.1756601780653	-0.10537480562925339	0.4342179000377655	-0.14832375943660736	-0.24870064854621887	0.07389827072620392	0.1272970288991928	0.06489603966474533	-0.15913496911525726	0.1365680694580078	-0.037894390523433685	0.05781447887420654	0.26261118054389954	-0.10603167861700058	-0.4070791006088257	0.19711610674858093	-0.008653117343783379	0.11232701689004898	0.1360676884651184	-0.002085532061755657	0.3392794132232666	-9.548255184199661e-05	-0.25076332688331604	-0.2967371940612793	-0.19246408343315125	0.08779062330722809	-0.23180463910102844	-0.26426759362220764	-0.13823500275611877	-0.19485504925251007	-0.12708163261413574	0.041535381227731705	-0.053290244191884995	-0.16803723573684692	-0.26722225546836853	-0.1912810057401657	-0.1729506552219391	-0.041766565293073654	0.20695672929286957	-0.04132431745529175	0.037024907767772675	0.07457999140024185	0.11156118661165237	0.08941198140382767	0.16256001591682434	0.11181038618087769	-0.017920833081007004	0.2893834710121155	0.2957792580127716	-0.08752172440290451	0.1755305975675583	0.20783355832099915	0.207271009683609	-0.0026890349108725786	0.2673027515411377	-0.036420390009880066	-0.000959375174716115	0.2077419012784958	-0.20969873666763306	-0.18375860154628754	0.1814422756433487	0.029483139514923096	0.1961299329996109	-0.11396848410367966	-0.06496579200029373	0.059462770819664	-0.15213365852832794	0.04045068100094795	-0.004693687427788973	-0.034302376210689545	-0.12164636701345444	0.06667458266019821	-0.08459461480379105	0.0824912041425705	0.03987838327884674	-0.2928676903247833	-0.21950089931488037	0.02242499403655529	-0.173238605260849	-0.27881690859794617	0.0020745417568832636
kohi1248	0.46962788701057434	-0.1237630844116211	-0.03711503744125366	-0.14397183060646057	0.3304412066936493	-0.3924593925476074	-0.14990569651126862	0.33064040541648865	0.2931850254535675	-0.2615431845188141	0.18213264644145966	-0.06856367737054825	-0.3985064923763275	0.08660252392292023	-0.005294348578900099	-0.20207346975803375	-0.13293802738189697	0.16746653616428375	-0.029590601101517677	-0.39740562438964844	0.07820555567741394	-0.42066746950149536	-0.2519080638885498	0.2816985845565796	-0.009322701953351498	-0.013519409112632275	0.24943162500858307	0.31026941537857056	0.4695829749107361	0.3120563328266144	-0.07508641481399536	0.1370472013950348	0.21712277829647064	0.1969243884086609	-0.024894624948501587	0.112929567694664	0.5030050873756409	-0.055481359362602234	0.0892341211438179	-0.0726882591843605	0.2149295210838318	-0.2673008143901825	0.0002600089355837554	-0.25644245743751526	0.32086992263793945	-0.26404085755348206	0.05946386605501175	-0.3886278569698334	0.19530631601810455	-0.025201505050063133	0.2882562279701233	0.07721412926912308	0.10651934146881104	0.27570050954818726	-0.2698385417461395	-0.2907683849334717	-0.11546619236469269	0.026857756078243256	0.24185161292552948	-0.10985340178012848	-0.052582960575819016	-0.21620918810367584	-0.05317596718668938	-0.024117620661854744	-0.050757188349962234	0.22684310376644135	0.02245747484266758	0.004289700649678707	-0.42979127168655396	0.39069241285324097	0.07403161376714706	0.07425522059202194	-0.026557542383670807	0.07620687037706375	-0.20484314858913422	-0.20947353541851044	-0.10833971947431564	-0.23732250928878784	0.15893179178237915	-0.13765867054462433	-0.1060498058795929	-0.2209823876619339	-0.15796740353107452	-0.17791056632995605	-0.16066499054431915	-0.09626097977161407	0.02868024818599224	0.3272334039211273	0.12441560626029968	-0.39167091250419617	0.2009126842021942	0.2663205564022064	-0.17257632315158844	-0.0013866431545466185	-0.18975086510181427	0.10893627256155014	-0.1652618795633316	0.16565696895122528	-0.2543693482875824	-0.20724983513355255	0.09355369955301285	-0.1185980960726738	0.25640976428985596	0.14364545047283173	0.11261622607707977	-0.15537378191947937	-0.0049639795906841755	0.03031856007874012	-0.04520048946142197	0.08412273228168488	0.12006177753210068	-0.143644779920578	0.4033038914203644	0.38909003138542175	0.08897742629051208	0.07633421570062637	0.29760056734085083	0.1522008627653122	0.08681952208280563	-0.021792421117424965	0.005847962107509375	-0.2711409628391266	-0.11017189174890518	-0.1155414804816246	0.13010641932487488	0.08467797935009003	0.22250820696353912	0.1656092405319214
konk1267	0.10937553644180298	-0.07502134144306183	-0.2573756277561188	0.03412501513957977	-0.21166211366653442	0.07734384387731552	0.14297151565551758	0.060365352779626846	0.25057610869407654	-0.3500079810619354	0.1717960089445114	0.06389063596725464	-0.0368737131357193	-0.03729996085166931	-0.06910581886768341	-0.05703818053007126	0.07297150045633316	-0.045318134129047394	0.18519002199172974	-0.012371649965643883	-0.04938852787017822	-0.08384834975004196	0.25866204500198364	-0.011685896664857864	0.025891471654176712	-0.05872049182653427	-0.12277417629957199	0.02082902565598488	0.2575850188732147	0.26460710167884827	0.16963787376880646	0.01889832504093647	-0.05202700197696686	0.11548439413309097	-0.1509196162223816	-0.11640866100788116	0.00853654369711876	-0.11644251644611359	-0.10463918000459671	0.21741707623004913	-0.1116601750254631	-0.12966106832027435	0.02230350486934185	0.09745386987924576	0.3529519736766815	0.18460410833358765	-0.07119333744049072	-0.09064748138189316	-0.16645634174346924	0.47114837169647217	0.0033203186467289925	0.18288134038448334	-0.23806680738925934	0.2534715533256531	-0.1803044080734253	-0.37368398904800415	-0.06742024421691895	-0.03623141348361969	0.03770900517702103	0.011053308844566345	0.12383376806974411	-0.06300853192806244	0.2094414085149765	-0.016414502635598183	-0.02838055230677128	-0.16081401705741882	-0.09263862669467926	-0.1886267513036728	0.010111198760569096	-0.16929768025875092	0.34204933047294617	0.21589349210262299	-0.2058326154947281	0.19467733800411224	0.13595503568649292	0.23069818317890167	0.034764364361763	-0.020916204899549484	0.19059306383132935	0.13402767479419708	-0.23749181628227234	0.003033231943845749	0.02540464885532856	0.20966272056102753	-0.06335073709487915	0.2446274608373642	-0.24618257582187653	0.16384512186050415	0.0051628947257995605	-0.08564545214176178	-0.03166051581501961	-0.17897571623325348	0.16323252022266388	-0.27913400530815125	-0.14172831177711487	-0.01933934912085533	0.008768186904489994	0.25124403834342957	0.1952149122953415	0.062334172427654266	-0.12803828716278076	-0.003984507173299789	0.04658368229866028	-0.21851299703121185	-0.1278548538684845	-0.2487049698829651	0.13636617362499237	0.01651613600552082	-0.1311606913805008	-0.10909212380647659	0.2119867354631424	-0.019844692200422287	0.0645315945148468	-0.2644865810871124	0.23631694912910461	0.007038013078272343	0.21207305788993835	0.1323217749595642	-0.14977167546749115	-0.143906831741333	-0.37245410680770874	0.17909416556358337	0.010939477942883968	0.35422253608703613	-0.11821979284286499	-0.2185150384902954	0.11477658897638321	-0.09675826132297516
kuma1273	0.12452597171068192	0.18292926251888275	-0.06543628126382828	-0.026259617879986763	-0.03392405807971954	-0.0437665618956089	-0.09486180543899536	0.08908861875534058	-0.010427186265587807	-0.010368180461227894	0.02982332929968834	-0.09998081624507904	-0.07139207422733307	-0.065367691218853	0.004907333292067051	0.09160899370908737	-0.10811356455087662	-0.02184152603149414	0.09391787648200989	0.048175912350416183	-0.15195952355861664	-0.04535083845257759	-0.13066183030605316	0.03585309907793999	0.03535950556397438	0.16657577455043793	-0.007773654535412788	-0.10659573972225189	-0.0471724309027195	-0.11254128813743591	-0.116218701004982	-0.0036233654245734215	0.16314193606376648	-0.10000458359718323	0.02923526242375374	0.15162943303585052	-0.1926802694797516	-0.09033901244401932	-0.020037656649947166	-0.052702367305755615	0.019983306527137756	0.10913049429655075	-0.11794708669185638	-0.0135792326182127	0.035122208297252655	-0.056119129061698914	-0.0004268281045369804	0.02638460323214531	-0.05662798509001732	-0.050391312688589096	-0.05207204073667526	0.03677508607506752	-0.1228531002998352	-0.01254399586468935	-0.10018625110387802	-0.07067585736513138	-0.15950168669223785	-0.0394902378320694	-0.06236182898283005	-0.021047551184892654	-0.2138548493385315	-0.1298290640115738	0.06460162252187729	-0.104939766228199	-0.008806814439594746	0.06748584657907486	0.06672263145446777	0.04783342406153679	-0.13249440491199493	0.07931143790483475	0.05871168524026871	-0.11205094307661057	0.0021288578864187002	0.14277248084545135	0.0359189510345459	0.10926785320043564	-0.03675951808691025	0.023338831961154938	-0.10930216312408447	-0.08037183433771133	0.09508116543292999	0.20196208357810974	0.03722930699586868	-0.09423840790987015	-0.020563337951898575	0.11045902967453003	-0.08295922726392746	0.09688542038202286	0.1453268826007843	-0.05843553692102432	0.11519012600183487	-0.03809644281864166	0.16345123946666718	0.01510422583669424	0.05678336322307587	0.01443783100694418	-0.17157891392707825	-0.21975776553153992	-0.00867172796279192	-0.1900528222322464	0.034807901829481125	-0.11844077706336975	-0.13056789338588715	-0.0619497150182724	0.08922434598207474	0.010299026034772396	0.16021041572093964	0.05987249314785004	0.04727025702595711	0.02388315461575985	0.16832157969474792	-0.14546585083007812	0.12344416975975037	0.1720910519361496	-0.05050482973456383	0.20860207080841064	0.04526863992214203	0.03836841136217117	0.10670589655637741	0.03508755564689636	0.052270617336034775	0.029642775654792786	-0.03972480446100235	-0.07805533707141876	-0.033267248421907425	0.0028637568466365337	0.2887965440750122	0.011716995388269424
kura1247	-0.2512640953063965	0.07434485107660294	-0.08300475776195526	-0.03181612864136696	-0.09693526476621628	-0.07280057668685913	-0.07417640089988708	-0.03765736520290375	-0.15197095274925232	-0.2677135467529297	-0.15337328612804413	0.06955776363611221	-0.11087662726640701	-0.37893691658973694	0.029889339581131935	-0.011928175576031208	0.009988173842430115	-0.03868749737739563	0.08416792750358582	-0.20545873045921326	0.20415464043617249	0.38836100697517395	-0.11294378340244293	0.04757280647754669	0.036889221519231796	0.015376443974673748	0.3543955385684967	0.17872431874275208	-0.0349746011197567	-0.2102830708026886	0.2378266155719757	-0.07861632108688354	0.0673232302069664	-0.23556683957576752	-0.1725730299949646	0.35416746139526367	-0.19116507470607758	0.17927952110767365	0.11262761801481247	0.16265393793582916	0.3404468595981598	-0.2061457484960556	0.11893698573112488	0.1558987945318222	-0.03263219818472862	-0.2386179268360138	0.08570130169391632	0.5086837410926819	-0.08267541974782944	-0.17417044937610626	0.10742124915122986	0.13666188716888428	-0.061953090131282806	0.1712276190519333	-0.08212142437696457	-0.26566722989082336	0.36842647194862366	0.11051754653453827	-0.12861429154872894	0.3088669180870056	-0.003673115512356162	-0.05319651588797569	0.04300384968519211	-0.10335617512464523	0.2774239182472229	0.07016037404537201	-0.020883655175566673	0.1388818621635437	-0.09909286350011826	0.06174733117222786	0.12202375382184982	0.5657291412353516	-0.020192403346300125	-0.00343703618273139	-0.3114800751209259	-0.27180957794189453	0.06127767264842987	0.15920770168304443	0.24815359711647034	0.03406751528382301	0.16388662159442902	0.13927121460437775	-0.21711501479148865	-0.3913893699645996	-0.09720844030380249	0.3341364860534668	0.19753138720989227	0.1381838023662567	-0.13467024266719818	0.06103820353746414	0.07790744304656982	0.04988078773021698	-0.04691716656088829	-0.09554541110992432	-0.20491011440753937	0.05100274831056595	0.09408729523420334	0.0348450168967247	0.3851105868816376	0.1542951911687851	-0.056128304451704025	-0.003928724210709333	-0.17518340051174164	-0.16718946397304535	0.10920378565788269	0.06378685683012009	-0.12564916908740997	0.45084258913993835	0.009899064898490906	0.24451693892478943	-0.13233454525470734	0.32501420378685	-0.131996288895607	0.01522874366492033	0.13575245440006256	0.3094269931316376	0.43232011795043945	-0.3272688686847687	0.37012529373168945	-0.33316534757614136	-0.11515403538942337	0.1889360398054123	0.022452861070632935	-0.35375481843948364	0.2239181399345398	-0.05219106748700142	-0.12820911407470703	0.44634339213371277
laur1248	-0.12529538571834564	0.21646296977996826	-0.15285120904445648	-0.13611793518066406	0.525837779045105	-0.17847289144992828	-0.12607060372829437	-0.3968346118927002	-0.04368629679083824	0.15982700884342194	-0.08987081795930862	0.17193125188350677	0.01696379855275154	0.06947291642427444	-0.2024909108877182	-0.0038613874930888414	-0.1447184532880783	0.0933312177658081	0.10166510939598083	0.09500326961278915	-0.4873639941215515	0.08302849531173706	0.14273519814014435	-0.13649864494800568	0.2833693027496338	-0.11216031014919281	0.2065577358007431	0.08549089729785919	0.3473759889602661	-0.3937753438949585	0.40688493847846985	0.17454084753990173	-0.3019244372844696	0.04549985006451607	0.0508953332901001	0.14267487823963165	0.0176813043653965	0.2683810293674469	0.2895663380622864	0.15999209880828857	0.23257267475128174	-0.2768755555152893	0.03983965888619423	-0.02455652505159378	-0.2608562111854553	-0.13234293460845947	-0.055215489119291306	-0.15478873252868652	-0.09377631545066833	0.09955725818872452	0.07296246290206909	-0.060719236731529236	0.12213443219661713	0.0547504648566246	-0.10224499553442001	0.08844930678606033	0.39246082305908203	0.08661538362503052	-0.03360237181186676	0.024808254092931747	-0.045280855149030685	-0.3523273468017578	0.0942034050822258	0.153852641582489	0.04360991716384888	-0.31211477518081665	0.011397880502045155	-0.036267973482608795	-0.13245341181755066	0.21198581159114838	-0.27150875329971313	-0.2354722023010254	-0.09595926851034164	0.2822871804237366	-0.21058745682239532	-0.2355419546365738	0.16829699277877808	-0.11321575939655304	0.07938002794981003	-0.012768225744366646	0.23876717686653137	0.04779187962412834	-0.15587353706359863	-0.045662883669137955	-0.1695243865251541	-0.2710038721561432	0.3696023225784302	0.2657679617404938	-0.06425734609365463	0.07046794891357422	-0.15229417383670807	0.033231984823942184	0.05743171274662018	0.22556249797344208	-0.19751214981079102	0.14490212500095367	0.2974339425563812	0.07664474099874496	0.3168349862098694	0.22105026245117188	0.11907577514648438	-0.1071406677365303	-0.11838345974683762	-0.10478013753890991	-0.0519816018640995	-0.004258693661540747	0.349452406167984	0.02062157355248928	-0.06831725686788559	0.0788443461060524	-0.10692650824785233	-0.23610146343708038	-0.36602583527565	-0.13193988800048828	0.05105960741639137	-0.15223897993564606	0.07529174536466599	0.07856278866529465	0.13819047808647156	-0.127507284283638	0.02618330530822277	0.3999617099761963	-0.028607964515686035	0.1232166588306427	-0.12462307512760162	0.08341957628726959	-0.028827108442783356	0.1588919460773468
loma1235	0.15170837938785553	0.18481943011283875	-0.5622692704200745	-0.3420925438404083	-0.06414313614368439	0.22354207932949066	0.18561039865016937	-0.12803234159946442	-0.0251435749232769	-0.23691529035568237	0.009090855717658997	0.29063552618026733	0.27816808223724365	-0.12303471565246582	-0.09041596949100494	-0.028106436133384705	-0.19544465839862823	-0.49501124024391174	0.32343244552612305	-0.07898176461458206	0.20886817574501038	0.1251307725906372	0.3733612298965454	0.051752109080553055	0.1764656901359558	-0.1131293848156929	-0.04965219646692276	0.434618204832077	-0.22970972955226898	0.22301717102527618	0.4023682773113251	0.39420753717422485	0.11843787878751755	0.21637080609798431	-0.3769550323486328	-0.08537688106298447	0.1380433440208435	-0.05063128098845482	0.3119908571243286	0.5650535225868225	-0.01914719119668007	-0.16649402678012848	0.29919952154159546	-0.5023882389068604	-0.048902373760938644	-0.1164756491780281	0.0844227746129036	0.3264831602573395	0.004133420996367931	0.38638144731521606	-0.2890704572200775	0.15789732336997986	-0.3282392919063568	0.0936962440609932	0.12317820638418198	0.3407016396522522	-0.28426432609558105	0.30000242590904236	-0.37057119607925415	-0.22760911285877228	0.11218366026878357	-0.4799038767814636	0.3521616458892822	0.507002592086792	0.39853912591934204	-0.15090908110141754	0.34480589628219604	0.14281713962554932	-0.26072439551353455	-0.10469129681587219	-0.5345448851585388	-0.28939759731292725	0.06792078167200089	-0.3054388165473938	-0.6002416610717773	-0.330717533826828	-0.025780530646443367	-0.08647219091653824	-0.0463968887925148	-0.2785416841506958	-0.08046148717403412	-0.059766367077827454	-0.055869173258543015	-0.02847423404455185	-0.021902253851294518	0.4414581060409546	-0.0038682203739881516	-0.23188893496990204	-0.2987026274204254	0.007503454107791185	0.007198461797088385	-0.15768398344516754	-0.11686547100543976	-0.43520599603652954	-0.23464210331439972	-0.012704674154520035	-0.3395189046859741	0.15504087507724762	-0.504584550857544	-0.12734337151050568	0.04711494222283363	0.03347855061292648	-0.10153927654027939	0.18948307633399963	-0.3998963534832001	-0.17807582020759583	0.1279342919588089	0.0905214175581932	0.00493679940700531	0.0907474234700203	0.1655994951725006	0.2410847544670105	-0.21663349866867065	-0.29791393876075745	-0.0666898563504219	-0.15228186547756195	0.3141343891620636	0.2847476005554199	-0.2576243579387665	0.013688233681023121	0.2850266695022583	-0.21534933149814606	0.09719479829072952	-0.04271019995212555	-0.7344351410865784	-0.1317448914051056	-0.40420785546302795	-0.13203972578048706
maha1287	0.09389296919107437	-0.1818123310804367	0.0879480168223381	-0.2420734018087387	-0.05360844358801842	0.118265300989151	0.1457890421152115	0.009015674702823162	0.0707426518201828	-0.19452661275863647	0.09307113289833069	0.057170551270246506	0.22849725186824799	-0.027492303401231766	-0.026868848130106926	-0.20337209105491638	0.2965821921825409	0.01523616723716259	0.2727617621421814	-0.07656050473451614	-0.07856875658035278	-0.12757915258407593	0.1382608860731125	0.009364861994981766	0.14109879732131958	-0.09088297933340073	-0.12254782766103745	0.04411270096898079	-0.297246515750885	0.00034324111766181886	-0.16504275798797607	0.09862618893384933	0.012055531144142151	0.34868916869163513	-0.17731569707393646	0.0034970887936651707	-0.11264374107122421	-0.1849443018436432	0.0818968266248703	-0.16079895198345184	0.07711993902921677	-0.139785036444664	-0.047530993819236755	-0.2831895649433136	0.006655081175267696	0.26467135548591614	-0.22957085072994232	0.04900222644209862	0.133901908993721	0.12159392237663269	-0.36506468057632446	-0.07166045159101486	0.02291874960064888	-0.014152010902762413	0.12697865068912506	-0.3667651116847992	0.010224991478025913	-0.1636243313550949	-0.0984172374010086	0.06934075802564621	-0.23166105151176453	-0.08799613267183304	-0.1641446053981781	-0.16467231512069702	0.08049633353948593	-0.13975447416305542	0.04230152815580368	0.05134094879031181	-0.11670978367328644	0.04437211900949478	0.13921292126178741	0.061470188200473785	0.011650907807052135	0.2677178382873535	0.15769743919372559	-0.21666687726974487	0.04102308675646782	-0.09520400315523148	0.3862471580505371	-0.49473443627357483	0.4825828969478607	0.2370012402534485	-0.15139314532279968	-0.43607091903686523	0.5554348826408386	0.13936129212379456	0.0876612439751625	-0.26675960421562195	0.18285301327705383	-0.13800357282161713	0.0698954313993454	-0.23093625903129578	0.24025532603263855	0.29707086086273193	-0.07867893576622009	0.09357265383005142	-0.342504620552063	-0.1367763727903366	0.08930902183055878	-0.22606636583805084	-0.21474617719650269	-0.17565003037452698	0.1660275161266327	0.4147140383720398	0.0038148711901158094	-0.170678973197937	0.06521954387426376	-0.18151046335697174	-0.06059719994664192	-0.0004884799127466977	0.04919581860303879	0.09659727662801743	0.13387352228164673	0.1557205617427826	-0.04578022658824921	0.10810233652591705	0.16773320734500885	0.25923067331314087	-0.18412111699581146	-0.2794806659221649	-0.2807895243167877	-0.08240053057670593	-0.1061764732003212	-0.1587245762348175	-0.2240455150604248	-0.08616425096988678	0.2366417795419693	0.13586975634098053
maha1305	-0.23243118822574615	-0.1571996659040451	-0.05898348242044449	0.1364065259695053	-0.09030821174383163	-0.12439008057117462	-0.02645212411880493	-0.1122799888253212	-0.03837629035115242	0.19042862951755524	-0.13009478151798248	0.13726702332496643	-0.011220299638807774	0.10984180122613907	0.1743514984846115	0.0482664592564106	-0.13424551486968994	0.009014253504574299	0.012320587411522865	-0.0069285668432712555	0.0945931077003479	-0.049178075045347214	-0.03856201842427254	0.1111232116818428	-0.09458772838115692	-0.21235235035419464	0.023728491738438606	-0.08486407995223999	-0.13792695105075836	0.009632100351154804	0.06609570235013962	0.023966338485479355	-0.13626573979854584	-0.06733977049589157	-0.10121773183345795	-0.007361067924648523	0.06331886351108551	0.16478106379508972	-0.05530234053730965	-0.048089850693941116	-0.18815411627292633	0.14481277763843536	0.18557995557785034	-0.055928267538547516	0.010920984670519829	0.018625877797603607	0.03791064769029617	-0.07223867624998093	-0.07302249222993851	-0.024272233247756958	0.021457988768815994	-0.033317338675260544	-0.05137345939874649	-0.04089275747537613	-0.09248066693544388	0.05214768275618553	-0.04470571130514145	-0.09231877326965332	0.04677417874336243	0.12385524064302444	0.08439020067453384	-0.04456545040011406	0.09435822069644928	-0.11685999482870102	-0.05415421351790428	-0.20092253386974335	-0.027153247967362404	0.08294267952442169	0.02056642435491085	-0.06882522255182266	-0.05592093616724014	-0.2202821522951126	0.045398421585559845	-0.01663106679916382	0.11767753213644028	0.016269540414214134	0.045216530561447144	0.09304767847061157	-0.07513761520385742	0.2101779729127884	-0.22014431655406952	0.03318820893764496	-0.008539059199392796	-0.06900850683450699	-0.07586114853620529	-0.07399323582649231	0.05548880994319916	-0.07154441624879837	-0.21328558027744293	0.0028372593224048615	0.11423946171998978	-0.05566065385937691	0.0891537144780159	0.1590322107076645	-0.12900492548942566	-0.04800187051296234	0.12789103388786316	0.16081739962100983	0.06550592184066772	-0.04749393090605736	-0.0570409893989563	-0.03917665034532547	-0.026020020246505737	0.0039899349212646484	-0.1535070389509201	0.04889018461108208	-0.13054975867271423	-0.021121446043252945	0.04361337423324585	-0.07040172070264816	-0.008623994886875153	-0.06280524283647537	-0.032415591180324554	-0.025459671393036842	0.13259415328502655	-0.0432257242500782	-0.0879526361823082	0.029772726818919182	-0.02023661695420742	-0.08329752832651138	-0.0029979420360177755	-0.11453091353178024	0.07433103024959564	0.09546376019716263	-0.029642611742019653	0.2636311948299408	0.02299157716333866	-0.10867484658956528
mait1250	0.25060921907424927	0.12260432541370392	-0.13778430223464966	0.1873503029346466	0.007649306673556566	-0.02545158751308918	-0.10760845243930817	0.10018811374902725	0.013304204680025578	0.15088169276714325	-0.01684321090579033	-0.09113021194934845	0.09437078982591629	-0.039755694568157196	0.023908521980047226	0.07619229704141617	0.28656962513923645	0.09626160562038422	-0.08243291079998016	0.16435810923576355	-0.04892614483833313	-0.1506393849849701	-0.0703870877623558	-0.0971163809299469	-0.05813144892454147	0.09170746058225632	0.1657191663980484	-0.1013825386762619	-0.02283094823360443	-0.1434871405363083	-0.045935794711112976	0.11261095851659775	-0.06643874198198318	-0.07483600825071335	-0.0028019752353429794	-0.1891900897026062	-0.07115346938371658	-0.1066943109035492	-0.23409080505371094	0.021841417998075485	0.05407832935452461	0.008541070856153965	0.011762473732233047	0.044198568910360336	-0.14145787060260773	0.12029387056827545	0.019361695274710655	0.10255341231822968	-0.05917878821492195	-0.005631344858556986	0.018882572650909424	-0.13474318385124207	0.22212056815624237	0.021365579217672348	0.00425161374732852	0.20446786284446716	-0.05702517554163933	0.25907397270202637	0.10981053113937378	-0.10479151457548141	0.09915768355131149	0.05733279883861542	-0.003910447936505079	-0.15349683165550232	-0.046305086463689804	0.19101987779140472	-0.19602733850479126	-0.02020835503935814	0.17795328795909882	-0.20509213209152222	-0.0402141809463501	0.03194555640220642	-0.14034408330917358	-0.031019583344459534	-0.09018383920192719	0.25754228234291077	-0.12437678128480911	-0.223203644156456	-0.3194052577018738	0.2413254827260971	-0.019733523949980736	-0.10864562541246414	-0.013026193715631962	-0.1973671317100525	0.016202863305807114	0.011832463555037975	-0.1680203527212143	-0.06088890880346298	0.10738953948020935	-0.10458644479513168	0.09970887750387192	0.07616353034973145	-0.1704922765493393	0.18206217885017395	-0.006450123619288206	-0.0524846576154232	-0.22239993512630463	-0.14864392578601837	-0.20396313071250916	-0.14345410466194153	0.0004255299281794578	-0.0072925519198179245	0.22965316474437714	0.09266390651464462	0.1777954250574112	0.039707478135824203	0.051204413175582886	0.028804825618863106	-0.06517104804515839	-0.05089067667722702	-0.17706364393234253	0.0407828763127327	-0.33005425333976746	0.1544158011674881	0.009156105108559132	0.10817499458789825	0.1100732833147049	0.162181556224823	-0.04309726879000664	0.03515121713280678	-0.15014883875846863	-0.09121810644865036	-0.07186903059482574	0.019774727523326874	0.06971938908100128	0.20935478806495667	0.03902878984808922	0.0099633252248168
mara1378	-0.012973431497812271	-0.1213386133313179	-0.03719913586974144	-0.1598152071237564	-0.14356738328933716	0.04150112718343735	-0.05852063372731209	0.09182944148778915	0.05624372139573097	-0.0767664909362793	-0.14137861132621765	0.09032229334115982	0.09811572730541229	0.005873444490134716	-0.09175822883844376	-0.05584032088518143	-0.08960195630788803	0.11283615976572037	-0.09435263276100159	0.03448474407196045	0.039240192621946335	0.061943959444761276	-0.10994576662778854	0.03741607442498207	0.024804560467600822	0.04046197608113289	-0.14579178392887115	-0.08657537400722504	0.016136500984430313	-0.018807299435138702	0.04321366548538208	0.17122359573841095	-0.012628608383238316	0.1424178183078766	0.03154177591204643	-0.10858268290758133	-0.17337045073509216	0.005870472174137831	0.057007260620594025	-0.018756838515400887	-0.24835442006587982	0.019245846197009087	0.089857317507267	0.01573639176785946	-0.1574636995792389	0.10189919918775558	-0.06816533952951431	0.03833118826150894	-0.11073281615972519	0.06469777226448059	0.03167503699660301	0.10073529183864594	0.031313471496105194	-0.027402622625231743	-0.033789295703172684	-0.14170493185520172	-0.11881498992443085	-0.1939469873905182	-0.04828197881579399	0.026690619066357613	-0.027858631685376167	0.08917023241519928	0.10083074122667313	0.09331582486629486	0.05664311349391937	0.10817744582891464	-0.07552893459796906	0.10507339984178543	-0.03891335427761078	0.06841235607862473	-0.057248443365097046	0.1979609578847885	0.006347420625388622	-0.1747603714466095	-0.0866226851940155	0.026694737374782562	0.021829448640346527	-0.07211609184741974	-0.1307365447282791	0.03543581813573837	-0.059002917259931564	0.19741812348365784	-0.08285094797611237	-0.024964556097984314	0.07713700085878372	-0.08749275654554367	-0.026594916358590126	0.02402624301612377	-0.031785838305950165	0.0839812308549881	0.024156659841537476	-0.01344175823032856	-0.05594994127750397	-0.05587127059698105	-0.08806080371141434	-0.0533909872174263	0.1408223956823349	-0.23533497750759125	-0.011059284210205078	-0.04050397872924805	-0.10716266185045242	0.034019142389297485	0.1223306655883789	-0.19268198311328888	-0.06959569454193115	-0.025809790939092636	0.08060219138860703	0.06036031246185303	-0.021514710038900375	0.10365288704633713	-0.014306517317891121	0.09219512343406677	0.10428202152252197	-0.137059286236763	0.18475143611431122	0.04303191602230072	0.0312768816947937	0.03860671445727348	0.11317022144794464	-0.08602870255708694	0.0008384836837649345	0.07391547411680222	0.175157368183136	0.1496894210577011	-0.006265735719352961	-0.12669627368450165	-0.023822927847504616	0.009345630183815956
marw1260	-0.2512476146221161	0.030200080946087837	0.48758721351623535	0.030138060450553894	-0.03331262990832329	-0.31908950209617615	-0.01768757961690426	0.17221184074878693	-0.14839798212051392	-0.05376274511218071	-0.06147368624806404	0.1028183177113533	0.05118115618824959	-0.013331917114555836	0.09774646162986755	-0.024074001237750053	-0.08899155259132385	0.11862199008464813	0.13006891310214996	-0.0493229441344738	-0.011995096690952778	-0.013281699270009995	-0.14324085414409637	0.054506056010723114	-0.14360184967517853	0.14249683916568756	0.06341353803873062	0.07174882292747498	-0.1755588948726654	-0.09983312338590622	-0.05914933234453201	-0.10325361788272858	0.07138195633888245	-0.13818220794200897	-0.10660534352064133	0.22223377227783203	-0.2927353084087372	-0.35571569204330444	-0.06303326040506363	-0.11044721305370331	-0.26165884733200073	-0.1306677907705307	-0.14005063474178314	0.04194975271821022	-0.21934686601161957	0.368172824382782	0.27993714809417725	-0.15092305839061737	0.11184530705213547	-0.1639721393585205	-0.2344571352005005	0.35719412565231323	-0.3921082317829132	-0.09913455694913864	0.2925903797149658	-0.1258561611175537	-0.12682639062404633	0.014061094261705875	-0.2854459583759308	0.013795488514006138	-0.1434948742389679	0.009500652551651001	0.11973735690116882	-0.36072850227355957	-0.11096940189599991	0.010376493446528912	-0.3728240132331848	0.24589383602142334	0.06854013353586197	-0.006112329661846161	0.4968049228191376	0.1608688235282898	-0.25322118401527405	0.11934558302164078	-0.21711917221546173	0.2009921818971634	-0.039742108434438705	-0.2109013795852661	0.2402862310409546	0.01085673924535513	-0.2800946533679962	-0.09187822043895721	0.051353100687265396	-0.08072824031114578	0.1738646775484085	0.2507949769496918	-0.3410293459892273	0.24518339335918427	0.2405901998281479	-0.07417605817317963	0.004086151719093323	0.005555431824177504	0.02174529805779457	-0.022761264815926552	-0.04013754799962044	0.11123619228601456	-0.2630572021007538	-0.0007811002433300018	0.4776378571987152	0.17054161429405212	-0.028540877625346184	-0.10044680535793304	0.2197398841381073	-0.02869839034974575	0.005984445568174124	0.05294716730713844	0.021588193252682686	-0.2968195974826813	0.02480786107480526	0.23857255280017853	0.3439699411392212	-0.0795302540063858	0.10711619257926941	0.059153925627470016	0.1403682976961136	0.070241279900074	-0.2605331242084503	-0.003973252139985561	0.14773868024349213	-0.09162577986717224	0.44806915521621704	-0.019244860857725143	-0.13758309185504913	-0.019228698685765266	0.4605388939380646	0.130902960896492	0.3515006899833679	-0.012470681220293045
mult1243	-0.28686079382896423	-0.04767827317118645	-0.17572760581970215	-0.048961155116558075	-0.028407299891114235	0.3032464385032654	-0.20298022031784058	0.04216064512729645	0.3142366111278534	0.05290265753865242	0.12876155972480774	0.19948042929172516	-0.1836356520652771	-0.007546079810708761	-0.25406414270401	-0.027013473212718964	-0.22809162735939026	-0.072919562458992	0.21654221415519714	0.30077385902404785	0.15357166528701782	0.04473298043012619	0.16679364442825317	0.15541598200798035	-0.09400992840528488	0.2524295747280121	0.5361524820327759	0.2307937741279602	-0.21685947477817535	0.17514243721961975	0.05135223641991615	0.03659016638994217	-0.3193854093551636	0.056936606764793396	-0.38567379117012024	-0.4384362995624542	0.01844359003007412	-0.06599970906972885	-0.011646775528788567	-0.04551464691758156	-0.12716884911060333	0.37358254194259644	0.03985819220542908	-0.06969916075468063	-0.2748897969722748	0.05645359307527542	-0.4316099286079407	-0.302694708108902	0.10508477687835693	-0.008279499597847462	0.08902683109045029	0.2517523467540741	-0.2971494197845459	0.286062091588974	0.04684414714574814	0.1067032590508461	0.07942883670330048	0.08280555158853531	-0.35870054364204407	-0.09952446073293686	0.1039508730173111	-0.05707057565450668	-0.29698169231414795	-0.27897122502326965	0.0725191980600357	-0.07900410145521164	-0.24265149235725403	0.03744139149785042	0.1540507823228836	-0.30751851201057434	-0.13160142302513123	-0.719818115234375	-0.09876934438943863	-0.1035589948296547	0.3183777630329132	0.3345058560371399	-0.1415022611618042	0.08373604714870453	0.19520467519760132	-0.2478799670934677	0.20537669956684113	-0.08192284405231476	0.030672580003738403	-0.011666989885270596	0.22260580956935883	0.1747799664735794	0.18375277519226074	0.1422845870256424	0.1632043421268463	0.09639547020196915	0.27215149998664856	-0.13982175290584564	-0.23665931820869446	0.317039430141449	0.37162506580352783	-0.10768195986747742	0.005969519726932049	-0.16886481642723083	0.07083344459533691	0.11526229977607727	0.2462485283613205	-0.03737927973270416	-0.16686250269412994	-0.2978927195072174	-0.1584988534450531	-0.19580954313278198	-0.001563216676004231	0.011618427000939846	-0.38324254751205444	-0.21655577421188354	-0.18452003598213196	0.05598439648747444	-0.29490000009536743	-0.29405394196510315	-0.08553473651409149	0.07081350684165955	-0.12487625330686569	0.25733721256256104	-0.3433172106742859	-0.007721817586570978	-0.10002776235342026	-0.14725133776664734	-0.055069368332624435	0.28353872895240784	-0.09031907469034195	-0.2692033052444458	-0.03930550441145897	0.04516788199543953
