aret1240	0.0009716255008243024	-0.009119336493313313	-0.14126023650169373	-0.016773302108049393	0.017095182090997696	0.19094762206077576	-0.06990398466587067	-0.01898045465350151	0.21147844195365906	0.15623244643211365	0.166947603225708	-0.033811915665864944	-0.07753337174654007	0.14155130088329315	-0.181117445230484	0.00519716227427125	0.06808027625083923	-0.009997697547078133	0.09734190255403519	-0.15245278179645538	0.34524911642074585	0.19645050168037415	-0.040823183953762054	-0.0692586675286293	-0.003131888108327985	0.2096436321735382	0.05235433951020241	0.0029401215724647045	-0.2075158655643463	0.12940692901611328	-0.0023884843103587627	-0.008555463515222073	0.013968839310109615	0.003996473271399736	-0.07872690260410309	-0.08304469287395477	0.20237311720848083	0.12554483115673065	-0.09768348187208176	-0.1702519655227661	-0.014829064719378948	0.18319812417030334	0.01937478967010975	-0.0324423648416996	-0.25077661871910095	-0.07300318032503128	-0.03519556671380997	-0.06493646651506424	-0.02677447348833084	0.01467457227408886	-0.05142823979258537	0.0023997649550437927	-0.004950678441673517	0.0010431077098473907	0.2027440071105957	0.04340719059109688	-0.020782120525836945	-0.03292837738990784	0.07354088127613068	-0.006976182572543621	-0.06924737989902496	0.0069642807357013226	0.4545757472515106	0.11744748055934906	-0.03603893145918846	0.09749851375818253	0.09285096079111099	-0.14945249259471893	-0.000749103375710547	-0.13948629796504974	-0.27230527997016907	-0.08210498839616776	-0.1552012711763382	0.0005724201910197735	-0.37635111808776855	0.03186080977320671	-0.03423387557268143	0.08948452770709991	0.01845577359199524	0.22788359224796295	-0.09553524106740952	0.2682114839553833	-0.22655588388442993	0.137917160987854	0.03093983419239521	0.020322714000940323	-0.03313390165567398	0.1058681309223175	-0.3835829496383667	-0.026532737538218498	-0.11435849964618683	-0.12429329007863998	0.5375254154205322	-0.32544222474098206	0.0697769969701767	-0.006634398363530636	0.06019587814807892	-0.03323132544755936	-0.3227846026420593	0.006079775746911764	-0.00235834252089262	-0.16770237684249878	-0.0012842492433264852	-0.10883760452270508	-0.003644488984718919	0.39966949820518494	-0.16445454955101013	-0.24288888275623322	-0.15196625888347626	0.0389990471303463	-0.0027663190849125385	-0.07218509167432785	0.007150332909077406	-0.07780136913061142	0.010565480217337608	0.11080178618431091	0.11296368390321732	-0.03333253040909767	0.16459712386131287	0.008641939610242844	-0.11450891941785812	-0.0889955461025238	-0.057602547109127045	0.10174063593149185	-0.043161746114492416	-0.5229565501213074	-0.05472579225897789	-0.01695569045841694
assa1263	0.010045581497251987	0.008064215071499348	-0.15870784223079681	-0.022049659863114357	-0.04137781262397766	-0.06136389449238777	0.010543160140514374	0.020645329728722572	0.04918454959988594	-0.054304659366607666	0.15342551469802856	0.0566391721367836	-0.1578146517276764	0.18116404116153717	-0.02482730709016323	0.00042128784116357565	0.0005982472212053835	-0.012018495239317417	0.24089324474334717	0.13975650072097778	-0.1986241191625595	0.022557726129889488	0.0783216804265976	0.09745799005031586	0.0008763273945078254	0.031753286719322205	0.09295862913131714	-0.006393639370799065	-0.014625591225922108	0.07313231378793716	0.05316339060664177	0.0006821609567850828	0.0012835238594561815	-0.009286439046263695	-0.17395341396331787	-0.014583146199584007	-0.05672953277826309	-0.06615252047777176	-0.07842232286930084	0.05104805901646614	-0.042658623307943344	-0.015893569216132164	0.0033017252571880817	0.020962247624993324	0.025029459968209267	0.0194642785936594	-0.03520992025732994	-0.02015659213066101	0.013253381475806236	0.017833607271313667	-0.0027526188641786575	0.1339428573846817	0.021084047853946686	-0.012940635904669762	-0.13012509047985077	-0.027533525601029396	0.009663209319114685	0.035480037331581116	0.03174315765500069	0.008521018549799919	-0.14066611230373383	0.029442593455314636	-0.025381308048963547	0.014459448866546154	-0.0010180575773119926	-0.02311433106660843	0.005871042143553495	0.007402884773910046	0.0073359040543437	0.18948139250278473	0.07434055209159851	-0.034719690680503845	0.03748348727822304	-0.11991961300373077	0.05010060593485832	-0.015704123303294182	0.01044511515647173	0.031432028859853745	0.005204131826758385	0.024593953043222427	-0.07813628017902374	0.11503004282712936	-0.04313304275274277	-0.049706634134054184	0.020924460142850876	0.1567673534154892	-0.002604716457426548	0.03634701296687126	0.036176491528749466	0.014543620869517326	0.006599592510610819	0.006464316044002771	0.0021574203856289387	-0.06828988343477249	0.202184796333313	0.017314361408352852	-0.08855319023132324	-0.11554425954818726	0.015023799613118172	0.1885780543088913	0.03115909919142723	0.0006191011052578688	-0.0012233401648700237	0.013363187201321125	-0.0013790242373943329	-0.009385709650814533	0.016805583611130714	0.06219753995537758	-0.06543849408626556	0.046346213668584824	-0.009434203617274761	-0.01804242841899395	0.00017745947116054595	-0.20540659129619598	0.009756832383573055	-0.07291211187839508	-0.04575784131884575	-0.03354407846927643	-0.19606032967567444	0.002759381663054228	-0.02662164717912674	0.07668329775333405	0.005926130339503288	0.004285444505512714	0.0001639279944356531	0.14219427108764648	0.008814467117190361	-0.009452552534639835
bagh1251	-0.015240698121488094	0.0005860883393324912	0.09070683270692825	0.011235423386096954	0.03463870659470558	0.0023468469735234976	-0.012234501540660858	0.07644940912723541	-0.18141299486160278	-0.05745978653430939	0.1919773817062378	-0.004465777892619371	-0.13341350853443146	0.06475210934877396	0.04727582260966301	0.012247639708220959	-0.10341222584247589	-0.002622955711558461	0.030067067593336105	0.1145649179816246	-0.0924292728304863	-0.06197905167937279	-0.04518194869160652	0.028605615720152855	0.027123088017106056	-0.04089229553937912	-0.13729938864707947	0.012440352700650692	0.027590414509177208	0.20453490316867828	-0.11210624128580093	-0.008401799947023392	-0.007118659093976021	0.019519273191690445	-0.005910185165703297	0.10090416669845581	-0.06292819231748581	0.04763808101415634	-0.13338884711265564	-0.025330131873488426	-0.10337568819522858	-0.037908270955085754	-0.00536745460703969	0.0024993112310767174	-0.07599718868732452	-0.07127080112695694	0.03253571316599846	-0.03924964368343353	0.003953141625970602	-0.015250368043780327	0.013309899717569351	-0.1438908725976944	0.00854241382330656	0.0035349074751138687	-0.12591299414634705	0.011553536169230938	0.000392021203879267	0.04161638393998146	0.06948008388280869	0.014452347531914711	-0.19401325285434723	0.22692576050758362	-0.200398787856102	-0.00998878013342619	-0.0037672908511012793	-0.0634881854057312	0.009054847061634064	-0.06929244101047516	0.007105771452188492	-0.09429340809583664	-0.11767209321260452	0.01715380884706974	0.014062567614018917	0.025454485788941383	0.1258065104484558	-0.0004476251779124141	-0.008810441941022873	0.08762331306934357	0.025207094848155975	-0.07058702409267426	-0.1592952311038971	0.0677168220281601	0.11623351275920868	-0.13424566388130188	-0.19925068318843842	-0.22985917329788208	0.0018054352840408683	-0.13168847560882568	-0.16547207534313202	0.008049004711210728	0.1301816701889038	-0.015211972407996655	0.1361243575811386	0.15745282173156738	-0.0799819752573967	0.18559806048870087	0.0237213633954525	0.08771131932735443	0.004479493945837021	0.18482621014118195	-0.027358530089259148	0.04403400421142578	-0.002467201091349125	-0.0037344463635236025	0.017775006592273712	0.018093327060341835	0.057839419692754745	0.06038346886634827	-0.017680536955595016	0.07977030426263809	0.01159893348813057	0.04784465208649635	-0.16545534133911133	0.011907828971743584	7.130260928533971e-05	0.10008709132671356	-0.04516061767935753	-0.09432439506053925	-0.06441297382116318	0.23065191507339478	0.05663654953241348	-0.10570073872804642	0.031158924102783203	0.00889617670327425	0.00830212514847517	-0.05340935289859772	0.025889810174703598	0.08021896332502365
beng1280	-0.0002399858203716576	-0.007576078176498413	0.02828666754066944	-0.006843922194093466	-0.042999643832445145	-0.15786319971084595	-0.006465275771915913	-0.022856473922729492	-0.08396805822849274	-0.033086150884628296	0.06568089127540588	0.19105003774166107	0.12953266501426697	-0.17085523903369904	0.012685563415288925	-0.00776257086545229	-0.056054290384054184	-0.027700701728463173	0.1610078364610672	-0.1438101977109909	-0.11375463008880615	0.027487298473715782	0.1249595656991005	0.07107280939817429	0.0022389760706573725	0.014766853302717209	-0.014478727243840694	0.027289200574159622	0.02911701425909996	-0.07181613892316818	0.007312587928026915	0.002335523022338748	0.007936492562294006	0.00046396959805861115	0.11470864713191986	-0.028831737115979195	0.03794184699654579	0.018294159322977066	-0.06839802116155624	-0.021543161943554878	0.007305929437279701	-0.004459340125322342	-0.01574551686644554	-0.0007650327170267701	-0.011382296681404114	-0.01701097935438156	-0.06621260195970535	0.005610678810626268	0.0035965684801340103	0.004079069010913372	-0.004523561801761389	-0.1517394781112671	0.0007304828031919897	-0.015343448147177696	0.006875948514789343	0.02017376571893692	-0.0038358571473509073	0.013691527768969536	-0.04042584449052811	0.0024771394673734903	-0.19477297365665436	0.07814694941043854	-0.04759926348924637	-0.014989838004112244	0.005366787780076265	-0.16938327252864838	-0.008440898731350899	-0.01740993745625019	-0.022625863552093506	0.08587575703859329	-0.03315849229693413	0.022991443052887917	-0.04519449174404144	-0.02938602864742279	0.13685916364192963	-0.002612523501738906	-0.00011333302245475352	-0.017358694225549698	0.008315053768455982	0.0273381769657135	-0.0595354326069355	-0.029054995626211166	-0.0011707725934684277	0.08245667815208435	0.10037654638290405	-0.012581253424286842	-0.012302703224122524	-0.062389589846134186	0.1374538540840149	0.002105441875755787	-0.022632651031017303	-0.011923638172447681	-0.020042862743139267	-0.12673264741897583	0.060528192669153214	0.06969200074672699	-0.06654069572687149	-0.12831443548202515	-0.002009803894907236	0.07079881429672241	0.024862386286258698	0.02307422086596489	-0.0006297866348177195	0.0023913299664855003	0.014960371889173985	-0.1363133043050766	-0.06246770918369293	-0.038149215281009674	0.00917818397283554	-0.07299906015396118	-0.001678556203842163	0.002841996494680643	0.038542017340660095	-0.13289883732795715	0.02515670284628868	-0.018745234236121178	-0.03749839588999748	0.03357281535863876	-0.08127790689468384	-0.036686137318611145	-0.06942582875490189	0.030032549053430557	-0.002896825782954693	0.02576139010488987	-0.011435338295996189	-0.1556856781244278	0.02103038690984249	-0.013168088160455227
bhad1241	-0.010907366871833801	-0.0022675783839076757	0.1341758370399475	0.007004730869084597	0.03365754708647728	0.014335659332573414	0.018545789644122124	-0.12415580451488495	0.1353217214345932	-0.04839945584535599	0.260241836309433	-0.16059280931949615	-0.12081655114889145	-0.1550530344247818	-0.011523788794875145	-0.015986967831850052	0.07763250172138214	0.004100887104868889	-0.18890869617462158	0.08027739822864532	0.01848457381129265	0.2768031358718872	-0.20404069125652313	-0.09432990849018097	-0.025701289996504784	0.16479180753231049	-0.10996821522712708	0.002874889876693487	0.029710272327065468	0.17805126309394836	0.018800733610987663	-0.01811632513999939	0.0065118130296468735	-0.019488392397761345	0.13540305197238922	0.027141347527503967	-0.11635726690292358	0.052610211074352264	-0.12564495205879211	0.08841011673212051	-0.024368036538362503	-0.19830338656902313	0.006327387876808643	0.009698132053017616	-0.10580640286207199	0.11726865917444229	0.09181885421276093	-0.044686466455459595	-0.021778790280222893	0.0005556036485359073	0.014523900113999844	-0.06989409029483795	-0.002962801605463028	0.01542834285646677	-0.052735596895217896	-0.01414971612393856	0.012063009664416313	-0.19987724721431732	-0.08986275643110275	0.0011995279928669333	-0.004597230814397335	-0.022888710722327232	0.027981702238321304	-0.006547624245285988	0.009799226187169552	0.1344567984342575	0.00451904721558094	-0.03686952590942383	0.013107896782457829	0.16604295372962952	0.06238831207156181	-0.018646642565727234	-0.11735884845256805	0.005544555839151144	0.006109141744673252	-0.0019949576817452908	0.011445185169577599	-0.09201458841562271	0.005104610230773687	0.06976710259914398	0.10910989344120026	-0.03220555558800697	-0.00408870680257678	-0.0909435823559761	0.07896214723587036	-0.022351425141096115	-0.010538113303482533	-0.05083500221371651	-0.16388651728630066	0.0027287406846880913	0.05095622316002846	-0.011771253310143948	-0.11083298921585083	0.015676770359277725	0.1090942919254303	-0.2777307331562042	-0.06734717637300491	0.15053068101406097	-0.03958407789468765	0.06345444917678833	-0.08919954299926758	0.10693435370922089	-0.012858680449426174	-0.007934680208563805	0.0071868994273245335	-0.16180860996246338	-0.14950861036777496	0.017999054864048958	-0.07354540377855301	-0.11589748412370682	0.008739258162677288	0.06533146649599075	0.21841269731521606	-0.21044407784938812	-0.009223072789609432	0.4456463158130646	-0.1753082573413849	0.09517260640859604	0.1992475986480713	-0.10892490297555923	0.05935118719935417	-0.060847267508506775	-0.019126206636428833	-0.03410505875945091	-0.032851289957761765	0.011108661070466042	-0.0246847216039896	0.052171338349580765
bhal1244	0.0010154333431273699	0.011245550587773323	0.07666449248790741	-0.009138824418187141	0.046034470200538635	0.07250764220952988	0.0095719238743186	0.035485606640577316	-0.03009217232465744	0.00956156849861145	0.2865440845489502	-0.06337857991456985	0.18220306932926178	-0.0017315074801445007	0.13508917391300201	0.0002333264274057001	-0.07135152816772461	-0.0262560173869133	-0.07564243674278259	-0.1410188227891922	0.03448314964771271	0.35063600540161133	-0.0661882534623146	0.15365731716156006	-0.0012902403250336647	0.118590347468853	0.054347071796655655	0.011912789195775986	-0.030764613300561905	-0.19939574599266052	0.08546607196331024	-0.01882944442331791	0.01418218296021223	-0.001114698825404048	-0.18002957105636597	0.01234674546867609	0.08208724111318588	-0.026215199381113052	0.1901465803384781	-0.025358805432915688	0.09372421354055405	-0.21921862661838531	5.4951542551862076e-05	0.010122778825461864	-0.07415373623371124	-0.012064110487699509	0.02997741848230362	0.06076367199420929	0.002628718502819538	0.025677166879177094	0.0014631766825914383	0.02457684837281704	0.0270684864372015	-0.004757624585181475	0.026701824739575386	0.002277831546962261	-0.004236550536006689	-0.04104625806212425	-0.003281119279563427	-0.004127286374568939	-0.05412542447447777	-0.3354446291923523	0.033036187291145325	-0.005670037120580673	-0.006109126377850771	-0.19038157165050507	-0.0159265398979187	0.056924834847450256	-0.015668870881199837	-0.09438071399927139	0.09244239330291748	0.010837106965482235	0.0373033843934536	-0.07584585249423981	-0.13243740797042847	-0.002940980950370431	-0.002839163178578019	-0.010765057988464832	-0.04870309680700302	-0.12479100376367569	-0.126863032579422	0.12791775166988373	-0.06540632247924805	0.08739645034074783	-0.029573170468211174	0.10012240707874298	-0.02175901271402836	-0.04111671820282936	0.08054294437170029	0.007660909090191126	0.08621704578399658	-0.0010605102870613337	0.10031692683696747	0.05548868700861931	0.09229733794927597	-0.31521841883659363	0.21377570927143097	0.09732309728860855	0.03407002240419388	0.15349207818508148	0.04295390099287033	-0.021082650870084763	-0.0246417373418808	-0.028835199773311615	-0.005394787061959505	-0.314533531665802	-0.0941559225320816	0.21988902986049652	-0.02721833810210228	0.000482385657960549	0.013030788861215115	-0.030268998816609383	-0.10812404751777649	0.08824397623538971	0.008022526279091835	0.32516875863075256	0.052939582616090775	-0.10346856713294983	0.18032687902450562	0.011753345839679241	-0.02594415843486786	0.04483623430132866	-0.024519359692931175	0.009517249651253223	-0.020212838426232338	-0.10010857880115509	-0.021467002108693123	0.0023365512024611235
bhoj1244	-0.0032946961000561714	0.005284516606479883	0.1516512930393219	-0.007871409878134727	0.02484756149351597	0.1041305735707283	0.020117804408073425	0.07735119760036469	0.15200984477996826	-0.053356610238552094	0.308491587638855	0.1260472685098648	0.04162399470806122	0.07866433262825012	-0.003621112322434783	-0.001792351482436061	-0.04470939561724663	0.027150090783834457	0.0817047506570816	0.034794338047504425	-0.12182582914829254	-0.24696974456310272	0.034776121377944946	-0.1554412543773651	-0.0031916743610054255	-0.05384649708867073	-0.11488983035087585	0.035409510135650635	-0.0434894822537899	0.07153292000293732	0.024823131039738655	-0.006675565615296364	-0.024564718827605247	-0.006259487476199865	0.11233027279376984	-0.05543389916419983	-0.013425090350210667	0.0425228513777256	-0.04455013945698738	-0.03516838699579239	0.008945127949118614	-0.1222740039229393	0.008050563745200634	0.012006275355815887	0.15751181542873383	0.06380850076675415	0.1435326188802719	0.0036805509589612484	-0.02725934609770775	-0.0019625015556812286	0.006365844048559666	0.01745246909558773	-0.006173985544592142	0.03705297037959099	0.14435623586177826	0.00228669960051775	-0.030142957344651222	0.08978389948606491	0.042884938418865204	0.01744713820517063	-0.2754536271095276	-0.0008760425262153149	0.06274565309286118	-4.0741746488492936e-05	-0.001957518747076392	0.026982074603438377	0.013332626782357693	0.04188691824674606	0.005174648482352495	-0.11724526435136795	-0.009318860247731209	-0.0294650811702013	0.03731130063533783	0.2209208607673645	-0.0335039347410202	-0.0018402233254164457	0.014723342843353748	0.13672299683094025	-0.06075768545269966	-0.1336102932691574	-0.09117239713668823	0.06725738197565079	-0.1305542290210724	0.16882546246051788	0.0932164415717125	-0.32763567566871643	-0.08127393573522568	0.251872181892395	0.0821622982621193	-0.02025068923830986	0.019749807193875313	-0.013925515115261078	-0.249837264418602	0.3054060637950897	0.10930856317281723	-0.030347568914294243	-0.17388415336608887	0.14194338023662567	-0.11399254947900772	0.09020797908306122	-0.054678600281476974	0.14535701274871826	-0.018329143524169922	-0.08691534399986267	0.028608471155166626	-0.11661158502101898	-0.03436826914548874	0.07261070609092712	-0.16170461475849152	0.10536893457174301	0.020116915926337242	0.013573559001088142	-0.16139748692512512	-0.15968571603298187	-0.020693929865956306	-0.17134611308574677	-0.025981739163398743	-0.11396848410367966	-0.21795795857906342	-0.1281985491514206	-0.0313740149140358	-0.21163581311702728	0.011246150359511375	-0.07316519320011139	-0.03364388272166252	0.204834446310997	0.03860446810722351	-0.08556228876113892
braj1242	-0.1883639395236969	0.005975008476525545	-0.1462467461824417	-0.018379349261522293	-0.055118389427661896	0.08485673367977142	-0.05706664174795151	-0.11059632152318954	0.101385198533535	0.13444729149341583	0.17013590037822723	-0.20006275177001953	-0.17762742936611176	-0.30757004022598267	0.036287758499383926	-0.0319078229367733	0.2139163315296173	-0.021686624735593796	0.15496432781219482	-0.14742279052734375	-0.46725648641586304	0.3611222207546234	0.09942599385976791	0.22567987442016602	0.06230570748448372	-0.3545965552330017	-0.005254815798252821	0.006267259828746319	-0.5072347521781921	0.1396779865026474	-0.3848237097263336	0.013063871301710606	-0.018371103331446648	0.02808353491127491	0.16357482969760895	-0.12412648648023605	-0.08983621746301651	0.2149789035320282	-0.08160907030105591	-0.28438904881477356	-0.20982226729393005	0.23827072978019714	0.024788709357380867	0.04011689871549606	0.1414058804512024	0.07823081314563751	-0.3133925795555115	-0.07997971028089523	0.009694724343717098	-0.015798913314938545	0.03372201696038246	-0.13038098812103271	0.023383764550089836	0.0005529970512725413	-0.009786323644220829	0.018047424033284187	0.012863324955105782	-0.06166115030646324	0.23807428777217865	0.06953541189432144	0.026913819834589958	-0.02730916254222393	0.02498161420226097	-0.07900886982679367	-0.05302019417285919	-0.06133623421192169	-0.11999485641717911	0.4430522620677948	0.017310932278633118	-0.019744133576750755	-0.3264842927455902	0.28289464116096497	0.07981009036302567	0.09815739840269089	-0.10734434425830841	-0.017614373937249184	-0.12296411395072937	0.02463800646364689	0.00036561579327099025	0.3133537769317627	-0.020855633541941643	-0.1199861690402031	-0.0807463750243187	0.35299310088157654	-0.060619156807661057	-0.3077765107154846	0.10935480147600174	-0.3417885899543762	-0.06200767308473587	-0.021615998819470406	0.12143032252788544	-0.014471977017819881	-0.11028654873371124	0.2045632302761078	0.0759657546877861	-0.09003651142120361	0.14552363753318787	0.30506858229637146	0.04502616077661514	0.11175397038459778	-0.08108816295862198	-0.1132761687040329	-0.03895064815878868	-0.037126701325178146	-0.005072887521237135	0.026958879083395004	-0.10802194476127625	-0.058199625462293625	0.038844622671604156	0.23218943178653717	0.01659572310745716	-0.20881932973861694	-0.0899428129196167	-0.14473958313465118	0.038611773401498795	-0.1649017632007599	0.33944350481033325	0.3503669798374176	-0.05344991385936737	0.16269710659980774	0.03439446911215782	0.1568392962217331	-0.2374608814716339	0.04594754800200462	0.027467675507068634	-0.055141013115644455	0.03876357525587082	-0.14829902350902557
cham1307	0.03340233117341995	0.08112940192222595	-0.14797541499137878	-0.005842945072799921	0.42593491077423096	0.4564835727214813	0.0157095305621624	0.04381956160068512	0.4059549570083618	-0.09425800293684006	0.1238514855504036	-0.24949871003627777	0.08987578004598618	0.22192081809043884	0.015899764373898506	0.015053649432957172	0.0690263882279396	0.009275891818106174	-0.34436601400375366	0.1885322779417038	0.14127379655838013	-0.29695525765419006	0.13893374800682068	0.15047404170036316	-0.010489091277122498	0.051845818758010864	-0.074781134724617	-0.00755514157935977	0.12552392482757568	-0.017779117450118065	-0.15565451979637146	-0.02692011371254921	0.004089691210538149	-0.02412855438888073	0.2846376299858093	0.1745569407939911	0.20454473793506622	-0.10153413563966751	0.28020432591438293	0.0065049524419009686	-0.5008026361465454	0.14850379526615143	0.029423903673887253	0.02392158843576908	-0.03196384757757187	-0.05526643618941307	0.09390630573034286	0.15536265075206757	0.049562059342861176	0.05010193958878517	0.03285430371761322	0.26412472128868103	0.03147720545530319	0.0026125966105610132	-0.18635782599449158	0.14281930029392242	-0.0012069816002622247	-0.1635076105594635	-0.16962966322898865	0.010282128117978573	-0.15554499626159668	-0.14211909472942352	0.15919063985347748	0.11220771074295044	-0.06244063749909401	-0.05794893950223923	-0.16941802203655243	-0.0972243994474411	0.013987204991281033	-0.13203904032707214	-0.04321891814470291	0.07658790051937103	-0.2632381021976471	0.17895439267158508	0.16945937275886536	-0.018946992233395576	-0.09059582650661469	-0.3290971517562866	0.013638234697282314	0.20009370148181915	0.11530286818742752	-0.09543522447347641	-0.028170783072710037	0.07978211343288422	0.040419939905405045	0.06654392927885056	0.20004887878894806	-0.17556720972061157	0.12613190710544586	0.013427111320197582	-0.24029169976711273	0.1696321666240692	-0.25547724962234497	0.1505543291568756	0.05595783889293671	0.03876614570617676	0.17006857693195343	-0.04627049341797829	-0.17919829487800598	0.11384255439043045	-0.27162572741508484	-0.14885149896144867	-0.03417167812585831	-0.11640366911888123	-0.012183334678411484	-0.26779666543006897	0.07279132306575775	0.20727528631687164	0.3988513648509979	0.15615332126617432	0.0265182051807642	0.09002465754747391	-0.036196134984493256	-0.08297526836395264	0.018152104690670967	0.11162478476762772	-0.0006444613100029528	-0.14653067290782928	0.043481942266225815	-0.05985220894217491	-0.032965436577796936	0.3706730604171753	-0.07382044941186905	0.10416200757026672	0.13968412578105927	-0.12278462946414948	-0.4433014988899231	-0.2313397228717804
chur1258	0.022143691778182983	0.014094904065132141	0.12191604822874069	0.011495575308799744	-0.2311910092830658	-0.17739178240299225	0.07111339271068573	-0.1769263744354248	-0.09988856315612793	-0.09447462856769562	0.1503002792596817	-0.2221139669418335	-0.2191823273897171	0.07245247066020966	-0.06707927584648132	-0.010459335520863533	0.23802298307418823	0.00628234725445509	-0.14585500955581665	-0.1816147118806839	0.1668478548526764	-0.2764444053173065	0.2569040358066559	0.020304087549448013	0.07204834371805191	0.18307727575302124	-0.19587260484695435	0.012282459065318108	0.1937725841999054	0.24950017035007477	0.12937088310718536	-0.02190450392663479	0.002690619323402643	-0.0026958517264574766	-0.02440720424056053	-0.23113249242305756	0.011682671494781971	-0.06236124411225319	-0.07966967672109604	-0.1264277994632721	2.7281203074380755e-05	-0.018540166318416595	-0.005982758477330208	0.005083165131509304	-0.17851021885871887	0.014300700277090073	0.1857440024614334	-0.03112662211060524	-0.03814209997653961	-0.05299576744437218	0.04783782735466957	0.11666004359722137	-0.0015526192728430033	0.001970095792785287	-0.11851053684949875	0.00829575676470995	0.003948428202420473	-0.11052724719047546	-0.34950146079063416	-0.08113834261894226	-0.17619960010051727	-0.23735325038433075	-0.2456219345331192	-0.00282528018578887	0.0238149743527174	0.25345557928085327	-0.11249537020921707	-0.10611432045698166	0.002976192394271493	-0.031173819676041603	-0.0409419909119606	0.03450067713856697	0.026337748393416405	-0.14765827357769012	-0.3426682651042938	0.01931069977581501	0.016579803079366684	-0.03972124680876732	0.10486631095409393	0.22663985192775726	-0.030599167570471764	-0.2207038849592209	0.002356531098484993	0.07708055526018143	0.12964928150177002	-0.09180372208356857	-0.0012360881082713604	-0.177255779504776	0.15867841243743896	0.028309011831879616	0.05230012536048889	-0.009719912894070148	-0.2812626361846924	0.20783129334449768	0.15322691202163696	0.1322856843471527	0.020575687289237976	0.12163343280553818	0.018583672121167183	0.2390279620885849	0.2556197941303253	-0.23075029253959656	-0.007381802424788475	0.1207946315407753	-0.012700343504548073	-0.26840001344680786	0.08852078765630722	0.06457962840795517	-0.02038099803030491	-0.010476009920239449	-0.02924337424337864	0.02468784525990486	0.04427725449204445	-0.0391441285610199	-0.006466273218393326	-0.01857857033610344	-0.08100792020559311	-0.2529211938381195	0.2149013876914978	-0.052193064242601395	-0.18220384418964386	0.233393132686615	-0.04726084694266319	0.07262221723794937	-0.06689688563346863	-0.4007359445095062	-0.16990473866462708	-0.09072872996330261
dame1241	0.002676155185326934	-0.02015828900039196	0.13610805571079254	0.005832335911691189	-0.04268327355384827	-0.16126245260238647	0.003988596610724926	-0.041696034371852875	0.17151911556720734	0.12406802177429199	0.12154438346624374	-0.01570655032992363	0.2205883264541626	0.11880888789892197	-0.1632518768310547	0.010987491346895695	0.14753928780555725	0.0034264621790498495	-0.05581144616007805	-0.14985087513923645	-0.10186329483985901	-0.033612437546253204	-0.050201743841171265	-0.27169346809387207	0.043074969202280045	0.08852989226579666	0.25596028566360474	0.008848168887197971	0.0050697592087090015	0.1584659069776535	0.06485900282859802	0.006256460677832365	0.010684400796890259	0.0012413444928824902	-0.10597383230924606	-0.06071799248456955	-0.03982166200876236	-0.06252207607030869	0.031759921461343765	-0.05635473132133484	-0.2259063720703125	-0.016898147761821747	-0.015018483623862267	-0.006077620666474104	-0.21928299963474274	-0.059567149728536606	0.137557253241539	-0.007428031414747238	-0.0025355143006891012	0.0002036002988461405	0.011254347860813141	0.1045762449502945	0.005476648453623056	0.004441267345100641	-0.1094065010547638	-0.02899806760251522	0.01080325897783041	0.19940422475337982	0.05408439412713051	0.008297808468341827	-0.46462514996528625	0.20434297621250153	-0.07969795167446136	-0.011291293427348137	0.0017238154541701078	0.25185126066207886	0.03284287080168724	0.0603104829788208	-0.0011114621302112937	0.12151768803596497	0.06714750826358795	0.03833768144249916	-0.038028765469789505	0.13100722432136536	0.0171634703874588	-0.006506405305117369	-0.0033005853183567524	0.03344719484448433	-0.0005779537605121732	-0.0044331783428788185	-0.11079377681016922	-0.126203253865242	0.16911347210407257	-0.14916826784610748	0.1332588493824005	0.18018800020217896	0.05953972041606903	-0.03752830997109413	-0.14209358394145966	-0.028814027085900307	0.023208944126963615	0.07369363307952881	0.3776213824748993	0.19462889432907104	-0.13174255192279816	-0.2541249692440033	0.12808841466903687	-0.3544793725013733	0.01975063420832157	-0.14851950109004974	-0.055283982306718826	0.06084781885147095	-0.004387481138110161	0.06460018455982208	-0.01021505892276764	-0.147440105676651	-0.024757927283644676	-0.1304989606142044	-0.29413121938705444	0.20708009600639343	0.015291278250515461	0.01398882083594799	-0.043146222829818726	0.1437465101480484	-0.007387984078377485	0.10830871015787125	0.11299192160367966	0.20723964273929596	0.15195146203041077	-0.08291345834732056	0.17505453526973724	-0.08421136438846588	-0.008323024027049541	0.014727799221873283	0.03275598585605621	-0.09603244811296463	-0.052258580923080444	-0.0919274240732193
dhiv1236	0.01864938624203205	0.00158313091378659	-0.00599174527451396	0.01956736110150814	-0.13039810955524445	-0.05029023066163063	0.002473290544003248	0.003958901856094599	-0.04361424967646599	-0.04853648692369461	-0.0705091804265976	-0.23362942039966583	0.1189926266670227	0.13780373334884644	-0.08049865067005157	0.001153046963736415	-0.07933927327394485	0.021807707846164703	0.337887704372406	0.1840483844280243	0.29840776324272156	-0.10137408971786499	0.10349685698747635	0.08150806277990341	-0.02047542855143547	-0.08987770974636078	-0.16798368096351624	0.006571728270500898	0.024279490113258362	-0.11122564971446991	-0.13614106178283691	0.007437004707753658	-0.006485882215201855	0.002316951984539628	0.3121008276939392	-0.03529408946633339	0.06612782180309296	-0.0678345337510109	0.1138698160648346	0.01817065104842186	0.04544445872306824	0.13346974551677704	0.007034927140921354	0.014052574522793293	-0.17671096324920654	0.028544368222355843	-0.03692121431231499	0.014928184449672699	-0.0035836300812661648	-0.000826737261377275	0.010616777464747429	-0.07016243040561676	0.013572419993579388	-0.014990827068686485	-0.2897195816040039	-0.015219159424304962	0.017846815288066864	-0.014061995781958103	0.0333714596927166	-0.0027548600919544697	0.2650512456893921	-0.12382566183805466	0.20985448360443115	0.023887619376182556	-0.0064084492623806	0.30275776982307434	0.02994123287498951	-0.031219203025102615	0.010717927478253841	0.06628963351249695	-0.19013558328151703	-0.015497257933020592	0.07988037168979645	-0.10468580573797226	-0.06503567844629288	-0.00015926783089525998	0.01983569748699665	0.04589847847819328	0.00033219397300854325	0.19478119909763336	0.08748704195022583	-0.3032020926475525	0.07651560753583908	0.07895638048648834	0.037880104035139084	0.003092222847044468	-0.05216985568404198	-0.2474222332239151	-0.0981198325753212	0.009964095428586006	-0.04237396642565727	0.007441817782819271	0.12290399521589279	-0.0062175351195037365	0.17516061663627625	-0.16002416610717773	0.16793866455554962	-0.2626858949661255	0.08307674527168274	0.29798075556755066	0.05478551983833313	0.20524615049362183	-0.006394147407263517	0.012186028063297272	0.025070801377296448	0.016489515081048012	0.046647343784570694	0.0397021658718586	-0.2994351387023926	-0.17827445268630981	-0.004927583504468203	0.051449768245220184	-0.14420711994171143	0.07918292284011841	-0.016926562413573265	-0.24821268022060394	0.0475403293967247	-0.047046203166246414	0.1458299160003662	0.10311548411846161	-0.21752230823040009	-0.10053230077028275	-0.013592629693448544	-0.00895101297646761	0.015241209417581558	0.1774442344903946	0.029618339613080025	0.024137796834111214
doma1260	-0.012575071305036545	-0.038491036742925644	-0.02782611921429634	-0.010723053477704525	0.13534042239189148	0.2696627378463745	-0.033116329461336136	-0.3703534007072449	-0.06219572201371193	-0.14799021184444427	-0.1273987591266632	-0.2421293705701828	0.06718984991312027	-0.3074512183666229	-0.4274115264415741	-0.018758589401841164	-0.26896384358406067	0.016856489703059196	0.45368680357933044	-0.10887670516967773	0.08521555364131927	0.1928965151309967	0.09737931191921234	-0.21377283334732056	0.008297941647469997	-0.09238291531801224	0.1409839391708374	0.010073892772197723	0.11252184957265854	0.07434062659740448	0.20934051275253296	0.008654006756842136	-0.008870798163115978	0.004550885874778032	-0.022369714453816414	-0.0316261388361454	-0.32353389263153076	0.04346303641796112	0.27500125765800476	0.032413300126791	-0.12611158192157745	0.04793749377131462	-0.0022362598683685064	-0.008909574709832668	-0.15261459350585938	-0.1238471195101738	-0.08065475523471832	0.042617157101631165	-0.0031305623706430197	-0.015669001266360283	0.017760496586561203	0.2525268495082855	-0.01876218616962433	0.022890856489539146	-0.04084841161966324	0.03236071765422821	-0.016458190977573395	5.288385000312701e-05	-0.23040275275707245	0.011266208253800869	-0.22112838923931122	0.13440223038196564	0.17705556750297546	0.06406198441982269	-0.01370603870600462	0.033820945769548416	-0.026769541203975677	-0.14213180541992188	-0.04005659371614456	0.06793055683374405	-0.08402839303016663	0.12214405089616776	-0.0766773447394371	-0.09827952086925507	-0.048337195068597794	-0.013598483055830002	-0.05967545881867409	0.309589147567749	-0.07218649983406067	0.17996200919151306	0.15312756597995758	-0.38302791118621826	-0.16341426968574524	-0.03350866585969925	-0.03260107710957527	0.05657745525240898	0.05620584636926651	0.056251998990774155	0.1575041115283966	0.00760160805657506	0.10205090045928955	0.09239179641008377	0.15334667265415192	-0.16752450168132782	-0.08065429329872131	-0.0016532260924577713	0.41804537177085876	0.3212428390979767	-0.12488534301519394	0.40618178248405457	0.25469064712524414	0.018296610563993454	0.029691969975829124	-0.030757669359445572	0.0039490144699811935	0.10738547891378403	0.04869723692536354	0.1635383665561676	0.18052232265472412	-0.19414041936397552	-0.03493538126349449	-0.02837502770125866	-0.01145093236118555	-0.05619899183511734	0.015003331005573273	-0.054561108350753784	-0.012015555053949356	0.17148274183273315	0.13866060972213745	-0.24462974071502686	-0.2359618842601776	0.052730873227119446	0.013184132985770702	0.025523139163851738	0.09820928424596786	0.09231586754322052	-0.10042711347341537	-0.02770848013460636
gang1265	0.02967384085059166	0.027241310104727745	0.1436193883419037	0.01371440477669239	0.1824924647808075	-0.09364369511604309	0.025790074840188026	-0.09566017240285873	-0.18688704073429108	-0.023505957797169685	0.2319931536912918	-0.07628949731588364	-0.11235115677118301	-0.057760193943977356	-0.0837591141462326	-0.009349982254207134	0.275117963552475	0.01994464173913002	0.2312418520450592	-0.05162980034947395	-0.36778438091278076	-0.20314855873584747	-0.2743631601333618	-0.02957846410572529	-0.04246462136507034	-0.057332511991262436	-0.1255665272474289	0.01114895474165678	0.13667675852775574	0.05709473788738251	-0.03459930419921875	0.004000567831099033	0.0004874861624557525	-0.0016044771764427423	0.05509975925087929	-0.0402727834880352	0.07478081434965134	-0.055532678961753845	0.019258884713053703	-0.03835193067789078	-0.23592567443847656	0.14930573105812073	-0.0265058483928442	0.0062833563424646854	-0.03331749886274338	0.18694360554218292	0.04225829243659973	0.01877451315522194	-0.009887737222015858	-0.016448577865958214	0.035755760967731476	-0.08881548792123795	-0.007661452516913414	0.004783261101692915	-0.12806443870067596	0.03738008067011833	0.018692847341299057	-0.020416054874658585	0.10020547360181808	0.0053599681705236435	-0.184698686003685	-0.09757548570632935	0.003463716944679618	-0.005880989134311676	0.012492633424699306	-0.019012652337551117	-0.03134201094508171	0.0020443680696189404	0.003106669057160616	-0.006427206099033356	0.1990625262260437	0.05782097578048706	0.059051502496004105	0.08000581711530685	-0.02547777071595192	-0.025792831555008888	-0.016470974311232567	-0.06461846083402634	-0.03162217140197754	-0.010530747473239899	-0.09849196672439575	0.15937767922878265	0.09216033667325974	0.22871087491512299	-0.11443721503019333	0.023961858823895454	0.05054871365427971	0.14367614686489105	-0.02115628682076931	0.004819577559828758	-0.15690934658050537	0.05035272240638733	-0.09495119750499725	-0.05572772026062012	-0.21808385848999023	0.15016524493694305	-0.09779072552919388	0.16818256676197052	0.08271431177854538	0.2257138043642044	0.0779886245727539	0.07521548867225647	0.003942642826586962	-0.015600196085870266	-0.004197651520371437	0.18005488812923431	0.18804433941841125	0.09011240303516388	-0.1449783444404602	0.08116230368614197	-0.005467419046908617	-0.031426653265953064	-0.023831788450479507	0.08666874468326569	-0.022382833063602448	-0.06627118587493896	0.2521418035030365	0.1977866291999817	-0.16143207252025604	-0.0728677436709404	0.14870062470436096	-0.03360622376203537	0.020082978531718254	-0.07816760241985321	0.041620757430791855	0.02675219066441059	-0.08151727169752121	0.16317346692085266
garh1243	0.026349999010562897	0.013762014918029308	-0.021790223196148872	-0.003686025273054838	0.01981823891401291	0.15335765480995178	0.025863610208034515	0.09686113148927689	0.16857606172561646	0.10482072830200195	-0.16711978614330292	0.045104045420885086	-0.0309040118008852	-0.3036559522151947	-0.08031979948282242	-0.016448035836219788	0.2029413878917694	-0.006735725793987513	0.08125365525484085	0.015299499034881592	-0.00291820359416306	-0.07683656364679337	0.04820927605032921	0.13861341774463654	-0.056259945034980774	0.04134632647037506	-0.28469330072402954	0.0329747311770916	-0.08000487089157104	-0.10287638008594513	-0.2513277232646942	-0.004531148821115494	0.005828944034874439	-5.19782624905929e-05	-0.02209312468767166	0.046111900359392166	-0.025615334510803223	-0.0028615219052881002	0.21735700964927673	-0.11554223299026489	-0.008655214682221413	-0.08494742959737778	0.006126073654741049	0.002977539785206318	-0.24707701802253723	-0.20267367362976074	-0.020317576825618744	-0.05377894639968872	-0.02082236111164093	-0.010421681217849255	-0.0058766319416463375	-0.09202782064676285	0.01149201113730669	0.012460209429264069	-0.13728250563144684	0.012941466644406319	-0.031021282076835632	0.14628444612026215	-0.02791132777929306	-0.008946928195655346	-0.17872369289398193	-0.1253405064344406	0.09864229708909988	0.029379600659012794	-0.002469609724357724	-0.3713724911212921	-0.061169859021902084	-0.11094200611114502	-0.02333245426416397	-0.12691184878349304	0.09768974781036377	0.03626449406147003	-0.20578926801681519	-0.056445349007844925	-0.08947236835956573	0.008785467594861984	0.029640348628163338	0.0701826736330986	0.034549299627542496	-0.14866305887699127	0.14674174785614014	0.0615820586681366	0.0916367843747139	-0.08666476607322693	0.021982451900839806	-0.041157618165016174	0.010992308147251606	0.030375013127923012	-0.26961368322372437	0.009516534395515919	0.13982410728931427	0.016944780945777893	-0.19114112854003906	0.13902011513710022	0.005810047499835491	-0.03779261186718941	0.17325951159000397	-0.12722522020339966	0.23429973423480988	-0.1167679876089096	-0.07517765462398529	-0.10841964930295944	-0.011770493350923061	0.01867845468223095	0.005497045814990997	-0.14144043624401093	0.09467436373233795	-0.0602727010846138	-0.11518334597349167	0.032515380531549454	0.029681440442800522	0.0005701873451471329	0.25279664993286133	0.029828213155269623	0.0033331606537103653	-0.297018826007843	-0.3393769860267639	-0.0781654492020607	-0.046680156141519547	-0.16118067502975464	0.32113489508628845	-0.017800001427531242	-0.02101617120206356	-0.01429036632180214	-0.008479101583361626	-0.058666449040174484	0.023311207070946693	0.05679241567850113
gawa1247	0.043978773057460785	0.06822015345096588	0.06752034276723862	-0.01518056821078062	0.042592525482177734	-0.1416865438222885	-0.003978212829679251	0.07954024523496628	-0.02271326258778572	0.18229103088378906	0.381239652633667	0.08641257882118225	-0.053816333413124084	0.034109652042388916	0.08403254300355911	-0.0012208819389343262	-0.042741551995277405	-0.015505379997193813	-0.21067164838314056	-0.027501240372657776	0.2935086190700531	-0.05997093394398689	-0.2079399675130844	0.03911813348531723	0.012408453971147537	-0.12193841487169266	-0.12023752927780151	-0.021063964813947678	0.09898729622364044	0.3045493960380554	0.005520495120435953	-0.015248842537403107	-0.009340059943497181	-0.003591387765482068	-0.3046377897262573	0.019474156200885773	0.0654483214020729	-0.11437473446130753	0.22293108701705933	0.017149681225419044	0.09263081103563309	-0.11666129529476166	0.011764743365347385	0.01377777848392725	-0.20489536225795746	0.06905804574489594	0.15440671145915985	0.07662661373615265	0.011768011376261711	-0.00026809866540133953	-6.11333452980034e-05	0.18030421435832977	-0.0030621744226664305	-0.010839720256626606	0.02937103435397148	0.03437859192490578	-0.020912915468215942	0.009239254519343376	0.04465444013476372	0.0010186964645981789	-0.24930866062641144	0.10044046491384506	-0.1278785914182663	0.056137487292289734	-0.003220196347683668	-0.057027190923690796	-0.019626807421445847	0.008819199167191982	0.002169511280953884	0.03406083583831787	0.04175708442926407	-0.006706566549837589	0.1679273396730423	0.03263702988624573	-0.036922503262758255	-0.003638854017481208	-0.032376788556575775	0.009868345223367214	-0.006809764076024294	0.439693421125412	0.22588472068309784	-0.08485223352909088	0.05099289491772652	0.011902056634426117	-0.00821112934499979	-0.0026382645592093468	0.013486752286553383	-0.07879321277141571	0.10176701843738556	0.003291117260232568	-0.08976379036903381	0.009770125150680542	0.1854579895734787	-0.02550816722214222	0.12600962817668915	-0.4646669924259186	-0.007083327509462833	-0.05468416213989258	0.07557995617389679	-0.20433038473129272	0.006230850704014301	0.0878104567527771	-0.014749227091670036	0.02402479574084282	0.009505112655460835	0.1446157693862915	-0.08714282512664795	-0.10314875096082687	0.1774747520685196	-0.05369573086500168	0.014108401723206043	-0.014502787962555885	-0.08299516141414642	-0.21696874499320984	0.002297385362908244	-0.20024065673351288	-0.09683593362569809	0.13557091355323792	0.15672415494918823	-0.20251797139644623	0.17104603350162506	0.06355690956115723	0.07425836473703384	-0.01493586041033268	0.03655111789703369	-0.15957088768482208	0.045532021671533585	0.15672774612903595
guja1252	0.009894587099552155	0.003643704578280449	-0.04051189869642258	-0.008027184754610062	-0.03266093507409096	0.12119989097118378	0.004210317507386208	-0.0180647149682045	0.018312785774469376	-0.0074263098649680614	0.09259036183357239	0.07400921732187271	-0.10193585604429245	-0.16267797350883484	-0.025466805323958397	-0.0005140242865309119	-0.03828635811805725	0.0030333942268043756	-0.11098700761795044	-0.13153430819511414	0.03836490586400032	0.024389466270804405	-0.043285854160785675	0.07443851232528687	-0.014984969049692154	-0.04550454020500183	-0.054564766585826874	0.005093973595649004	-0.013967552222311497	-0.06503105163574219	-0.03801622986793518	-0.010608101263642311	-0.0020334634464234114	-0.0007558573270216584	-0.06960413604974747	-0.010718117468059063	0.01904851198196411	0.015124005265533924	0.028606902807950974	0.019284624606370926	0.01870838738977909	0.07989801466464996	-0.002587270690128207	-0.0033635874278843403	0.05914952605962753	0.03707481548190117	-0.012586242519319057	0.014121375046670437	0.00539330393075943	0.005434150341898203	-0.004459134768694639	-0.13014675676822662	0.006792071741074324	-0.003433166304603219	0.02305292896926403	-0.007189054973423481	-0.005219842307269573	-0.014605063945055008	-0.036146849393844604	-0.007176661863923073	0.14223872125148773	0.056571293622255325	-0.1049659475684166	0.013860980980098248	-0.0010060279164463282	0.1577920764684677	0.0011709624668583274	-0.011288048699498177	-0.005694575607776642	-0.08354143798351288	-0.011656416580080986	-0.017773335799574852	-0.05288773775100708	0.004021471366286278	-0.02971538156270981	-0.014043912291526794	-0.004104104358702898	0.0009453688398934901	-0.010641676373779774	-0.05905807763338089	0.11106077581644058	0.058381613343954086	-0.03851960971951485	0.023219600319862366	0.0785282552242279	-0.11052621901035309	0.005572949536144733	-0.03069852665066719	-0.03640959411859512	-0.0036693522706627846	0.004476058762520552	0.01194317452609539	0.03017996810376644	0.012313593178987503	-0.07790148258209229	0.1968855857849121	0.1081245020031929	-0.1830264776945114	0.03669308125972748	-0.07020077854394913	-0.024534303694963455	0.014194619841873646	-0.006486067082732916	0.011435389518737793	-0.003219150472432375	0.014810711145401001	-0.031972210854291916	-0.007303532678633928	-0.03855523467063904	-0.012177062220871449	-0.005464788060635328	0.015658074989914894	0.06449806690216064	0.17755545675754547	0.0028931740671396255	-0.030296707525849342	-0.0585818774998188	0.0784849151968956	-0.07329355180263519	-0.1087668240070343	0.04432215169072151	0.012193755246698856	-0.010943864472210407	-0.00561107462272048	-0.0075050657615065575	0.10740026831626892	0.002368859713897109	-0.007264161482453346
hind1269	0.0005487724556587636	-0.00040017443825490773	0.02044827491044998	0.012624327093362808	-0.026887197047472	0.0888742059469223	0.007992821745574474	-0.021449116989970207	0.05858410894870758	0.03369034826755524	0.007462880574166775	-0.021035529673099518	-0.025655975565314293	-0.04541436582803726	0.03256193548440933	0.013152815401554108	-0.07680897414684296	0.006815021391957998	0.027817193418741226	0.10944507271051407	-0.08997251093387604	-0.058596476912498474	0.020683571696281433	0.00679427944123745	0.006276655476540327	0.049789510667324066	-0.031595490872859955	-0.0035917479544878006	0.016746867448091507	0.06098118796944618	-0.02848658338189125	0.014795470051467419	-0.006489900406450033	-0.004070605151355267	0.013304775580763817	0.005589587148278952	-0.009468874894082546	-0.010683408938348293	-0.046908631920814514	0.005142969079315662	0.0015505525516346097	0.10843590646982193	-0.010058843530714512	-0.00428577559068799	0.04251830652356148	-0.02636859379708767	0.016793977469205856	0.0038679572753608227	-0.008774925954639912	-0.008653062395751476	0.007403871044516563	-0.22715339064598083	-0.011010934598743916	-0.013723517768085003	0.05416685342788696	0.005129582714289427	0.01211723405867815	-0.0362396314740181	-0.002060037339106202	0.004425031132996082	-0.058620136231184006	-0.07467573136091232	-0.016928741708397865	-0.010270285420119762	0.0033476543612778187	-0.025983447209000587	-0.0016788981156423688	0.011405610479414463	0.0013858904130756855	-0.021513715386390686	-0.06399573385715485	-0.01289487723261118	-0.023598860949277878	0.0077722626738250256	-0.03216515854001045	0.011056655086576939	-0.008339351043105125	-0.03693907707929611	0.0011630149092525244	0.022879701107740402	-0.05010735243558884	0.028761746361851692	-0.0029197249095886946	-0.029227253049612045	-0.0074070473201572895	-0.016629278659820557	0.022272735834121704	-0.056968651711940765	-0.01966867223381996	0.002969695022329688	-0.024905510246753693	0.008125321008265018	-0.025121401995420456	-0.033903997391462326	-0.1448880136013031	-0.03017287142574787	-0.12017218768596649	0.037306640297174454	0.020359326153993607	0.02425399236381054	-0.004290620796382427	-0.014863140881061554	0.01668062061071396	0.004959446843713522	0.0055969334207475185	-0.03033139929175377	-0.08893319219350815	0.03706593066453934	0.025437962263822556	-0.02684534527361393	-0.006899174302816391	0.013435380533337593	-0.04955504462122917	0.06901891529560089	0.0007611738983541727	-0.10082841664552689	-0.08550482243299484	-0.04154590517282486	-0.05282945558428764	0.011666299775242805	0.047144848853349686	0.013318166136741638	0.011359426192939281	-0.01488907914608717	0.01496294979006052	0.06948013603687286	-0.03817375376820564	-0.026562925428152084
indu1241	-0.04629835858941078	-0.025768281891942024	-0.3010599613189697	0.0014160630526021123	0.03252049535512924	0.053082700818777084	0.05420073866844177	0.08670007437467575	-0.19737271964550018	0.3995358645915985	0.11186093837022781	-0.0590963214635849	0.09517767280340195	-0.010246987454593182	0.02849053405225277	-0.012530159205198288	0.4469536542892456	0.020700665190815926	0.06530436128377914	-0.338891863822937	0.21524833142757416	-0.2478082925081253	-0.023388031870126724	-0.05532090738415718	-0.055058643221855164	0.093759685754776	0.3114885985851288	-0.013720585964620113	0.059106647968292236	0.1969892680644989	0.05262909457087517	0.014206589199602604	-0.016148582100868225	-0.020869243890047073	-0.1366226226091385	-0.031248975545167923	0.18273596465587616	0.03217751532793045	-0.15954865515232086	0.1950281858444214	-0.051160622388124466	-0.12617303431034088	-0.019391730427742004	-0.006929250434041023	-0.0056155058555305	-0.27984389662742615	-0.12499862164258957	0.16413629055023193	-0.018487678840756416	-0.030957423150539398	0.02250499837100506	0.1288263201713562	-0.036090947687625885	0.03206431865692139	-0.09052085131406784	-0.024786949157714844	-0.004745179321616888	0.023859234526753426	0.12054093927145004	-0.03834029287099838	-0.138657346367836	0.025436287745833397	-0.07924028486013412	-0.06624320894479752	0.0042400844395160675	0.18823620676994324	-0.010344810783863068	0.10847609490156174	0.004519565496593714	-0.06994795054197311	0.045516882091760635	0.04959623143076897	-0.06775345653295517	-0.0900038629770279	0.19089239835739136	0.020053766667842865	-0.05637020617723465	0.09375979751348495	-0.10366664081811905	-0.08114984631538391	0.490322083234787	-0.05746305733919144	0.09795717895030975	0.23268848657608032	-0.2936643958091736	-0.022791175171732903	0.0527883917093277	-0.08945009112358093	-0.22480839490890503	-0.04441816359758377	-0.15068715810775757	0.0569586418569088	-0.43315497040748596	-0.029254531487822533	0.20987334847450256	-0.22689732909202576	0.22215336561203003	0.187809556722641	-0.1401224583387375	0.28037166595458984	-0.1681758314371109	0.20617221295833588	0.013347053900361061	-0.005527409724891186	0.004293186590075493	0.28113478422164917	-0.10828806459903717	-0.017487961798906326	0.15282344818115234	-0.1382005363702774	-0.002002640161663294	-0.25047314167022705	-0.08419211208820343	-0.14374922215938568	-0.03460860997438431	0.176035076379776	-0.053009990602731705	-0.04256746545433998	-0.19829557836055756	-0.1782478392124176	0.07581786066293716	-0.14658136665821075	-0.1702667772769928	0.018338050693273544	-0.1585598737001419	-0.29084283113479614	0.006584940478205681	-0.1348550170660019
jaun1243	0.008552501909434795	-0.014257710427045822	-0.29439955949783325	0.002636166289448738	-0.1842840313911438	0.09652803093194962	0.017737602815032005	0.18369099497795105	0.0724448561668396	0.002644988941028714	0.2371799647808075	-0.20411013066768646	-0.014620795845985413	-0.24334824085235596	0.045133888721466064	-0.010702386498451233	-0.27733737230300903	-0.011986865662038326	-0.2942604422569275	-0.47672364115715027	-0.25639793276786804	-0.07900705933570862	0.062047939747571945	-0.02426297776401043	-0.07139427959918976	-0.2266356647014618	-0.2154756337404251	-0.009220601990818977	-0.10189460217952728	0.3799608647823334	0.2438167929649353	0.009484181180596352	-0.012386907823383808	0.018360715359449387	0.2445598542690277	-0.1350376307964325	0.10072283446788788	-0.13808053731918335	0.012837802059948444	-0.04741574823856354	0.06669497489929199	-0.10682599991559982	-0.021266233175992966	-0.007247600704431534	-0.1327468752861023	-0.05873732641339302	-0.02182714082300663	-0.009625314734876156	-0.017797887325286865	-0.03986421972513199	-0.03249893710017204	0.09678666293621063	4.4295869884081185e-05	0.006290004588663578	0.06480450183153152	-0.04539143666625023	-0.02092585526406765	-0.09181607514619827	-0.18996906280517578	0.022862698882818222	-0.2190733402967453	0.1726667284965515	0.24649961292743683	0.06741832941770554	-0.0031329512130469084	-0.23561160266399384	-0.036173272877931595	-0.05823127180337906	0.009235003963112831	0.18399828672409058	0.22215086221694946	0.008074350655078888	0.2157221883535385	0.01262377854436636	0.07128949463367462	-0.017527561634778976	0.025668850168585777	-0.30452218651771545	0.06456933170557022	0.25373655557632446	-0.2916004955768585	-0.2647351026535034	-0.09954670816659927	0.014157245866954327	-0.2039470672607422	-0.06846413761377335	-0.055033955723047256	0.22348719835281372	-0.1541910171508789	-0.009391975589096546	-0.03336810693144798	-0.0058178347535431385	-0.1687818318605423	-0.10014055669307709	-0.09617272764444351	0.05141177400946617	0.16736583411693573	0.1427883505821228	0.0006568439421243966	0.15383842587471008	-0.1115945428609848	-0.030407993122935295	0.0026176178362220526	0.03883231803774834	0.020912395790219307	0.3011372685432434	-0.07460644841194153	0.0026142385322600603	0.12580324709415436	0.1815851479768753	0.016427097842097282	0.039673011749982834	0.0851668268442154	-0.12884826958179474	-0.028617527335882187	-0.006257546599954367	0.05609883368015289	0.009762494824826717	0.0345630869269371	0.09582547843456268	0.002635037526488304	-0.10909689962863922	-0.052230946719646454	0.019254064187407494	0.06732476502656937	0.3475930988788605	0.09265784174203873	0.06020115688443184
kach1277	0.012336448766291142	-0.012390716932713985	-0.2217756062746048	0.019792545586824417	0.055415183305740356	0.06188037991523743	0.007120000664144754	0.06879611313343048	-0.07627446204423904	-0.05476725473999977	-0.11249351501464844	-0.23672592639923096	0.045425500720739365	-0.32420480251312256	0.05061326548457146	0.005028443410992622	-0.021488137543201447	0.014535291120409966	-0.20842334628105164	0.2620033621788025	-0.08664625138044357	0.284489244222641	0.12017593532800674	0.07932794839143753	-0.013192898593842983	0.027383549138903618	0.06251633167266846	-0.028045475482940674	0.08877599984407425	-0.04938511550426483	-0.124490886926651	0.025913134217262268	0.0009092577383853495	-0.007603699341416359	0.04108266904950142	-0.01863458938896656	0.07805171608924866	-0.0011898993980139494	0.24874775111675262	0.003407284151762724	-0.08169183880090714	-0.06595581024885178	0.02743617258965969	-0.0042546517215669155	-0.0602848120033741	-0.15560609102249146	-0.1240096315741539	0.006808873265981674	0.008679511956870556	0.009139575064182281	0.0062438067980110645	-0.15227781236171722	-0.0035980744287371635	0.004170981701463461	-0.20625215768814087	0.013657860457897186	0.010196645744144917	0.08750788122415543	0.05737410485744476	0.0005837997887283564	0.08822613209486008	-0.2454322725534439	0.15205726027488708	-0.012324081733822823	0.002157459268346429	0.14242157340049744	-0.018045399338006973	-0.07319767028093338	0.02193956822156906	-0.15845410525798798	0.07501910626888275	0.035092681646347046	0.17232710123062134	-0.045661475509405136	-0.21124911308288574	0.0174648966640234	0.007404983043670654	0.061465680599212646	0.019374050199985504	0.2316713184118271	-0.06524170935153961	0.031459346413612366	0.12286600470542908	0.10651467740535736	0.07288343459367752	-0.2147906869649887	-0.002072361996397376	0.198330357670784	-0.04273638129234314	0.008513439446687698	-0.04318217188119888	0.02528471313416958	-0.08040623366832733	0.16913840174674988	-0.27024170756340027	0.14397767186164856	-0.04491831734776497	-0.1700005829334259	-0.014034389518201351	-0.3601698577404022	0.05413297936320305	-0.0653858408331871	0.005050757899880409	0.023178284987807274	-0.00792031642049551	-0.050169847905635834	0.024022819474339485	0.06371035426855087	0.12801367044448853	-0.10113915055990219	-0.01538055669516325	0.02127045765519142	-0.041866280138492584	-0.29045891761779785	0.0034112920984625816	0.24005994200706482	0.0953897014260292	0.09233710914850235	-0.09715376794338226	-0.13439087569713593	-0.027781251817941666	-0.04812295734882355	-0.028298620134592056	0.029673077166080475	-0.032989226281642914	-0.0796269029378891	0.059931837022304535	0.08863181620836258
kala1372	-0.05897250398993492	-0.04560788720846176	-0.06556998938322067	0.00043222744716331363	0.05852312967181206	0.12298352271318436	-0.019726164638996124	-0.08497224748134613	0.1491965502500534	0.11108379065990448	0.005307075567543507	0.08288290351629257	0.003127604490146041	0.12954214215278625	-0.22644053399562836	0.017893457785248756	0.00888300035148859	-0.00793405994772911	-0.4306146800518036	0.15059074759483337	0.08462579548358917	-0.23778408765792847	-0.011662762612104416	-0.13113118708133698	0.027408670634031296	0.01574881747364998	0.08650515973567963	-0.02776915207505226	-0.06344117969274521	0.025226300582289696	-0.03564028814435005	-0.012931820936501026	-0.021014004945755005	0.021433765068650246	-0.11600470542907715	0.08278947323560715	0.0881330817937851	0.1355869174003601	0.2265438735485077	-0.07887222617864609	0.19736303389072418	0.2697053551673889	0.015180888585746288	0.014072996564209461	0.2057998776435852	0.10977131128311157	-0.17001499235630035	0.0006576089654117823	0.03769337385892868	0.01100966427475214	0.02091275155544281	0.2902444899082184	0.03567984700202942	-0.01136713195592165	0.19424298405647278	0.005786586087197065	0.005777996499091387	-0.05660016089677811	-0.07708535343408585	0.024934133514761925	-0.42595070600509644	0.03647622838616371	-0.41871270537376404	-0.010491273365914822	-0.029572784900665283	-0.15754719078540802	0.017271844670176506	-0.06322089582681656	0.009134187363088131	-0.060086511075496674	0.19985155761241913	0.11820049583911896	-0.02372637763619423	0.08759131282567978	-0.04333717003464699	-0.02589144930243492	0.024135779589414597	0.13065937161445618	0.01726274937391281	0.20134280622005463	-0.07649634033441544	0.059157148003578186	0.050812650471925735	0.25032633543014526	0.08567231893539429	-0.0567312128841877	0.01924632303416729	-0.025466466322541237	-0.0027463450096547604	0.013064395636320114	0.12400341033935547	0.02648100070655346	0.1391933560371399	-0.04871499910950661	0.04053792729973793	-0.11428089439868927	0.2794647514820099	-0.2569373846054077	0.028209947049617767	-0.06138766556978226	0.1341598480939865	-0.1722453385591507	0.00028244187706150115	-0.011600355617702007	0.0004638618556782603	0.27788788080215454	-0.14085310697555542	-0.13432611525058746	-0.36103981733322144	-0.1432943344116211	0.009344333782792091	0.09792733937501907	0.24743065237998962	-0.2396773397922516	0.0021341375540941954	0.2757042348384857	0.15358932316303253	-0.018793344497680664	0.1741490215063095	0.2550716698169708	-0.05671962350606918	-0.06625630706548691	-0.04069533571600914	-0.04990367591381073	-0.010024650022387505	0.28119421005249023	-0.042704809457063675	0.026335591450333595
kala1373	-0.006525024306029081	0.005508654285222292	0.13950404524803162	-0.00840082485228777	0.012829597108066082	0.3318965435028076	-0.0001248397893505171	0.027921948581933975	0.05733039230108261	-0.05329521372914314	0.3082955479621887	0.14504748582839966	-0.059889428317546844	0.08776365965604782	-0.06705347448587418	-0.010899164713919163	0.03823089599609375	0.0010879276087507606	0.13051901757717133	0.018714556470513344	-0.014084518887102604	0.015472101978957653	0.14818288385868073	-0.2836311161518097	-0.016096899285912514	0.1400722861289978	0.10369373857975006	-0.0019472022540867329	0.013084224425256252	-0.10770273208618164	0.0997655987739563	0.027929892763495445	0.008155333809554577	0.01166411954909563	-0.034095920622348785	0.19885919988155365	0.04391690343618393	0.07682260870933533	0.06124800443649292	-0.08458396047353745	0.16532331705093384	0.03143690526485443	-0.013652961701154709	0.012821015901863575	-0.3452144265174866	0.0369517058134079	-0.19757947325706482	0.014865436591207981	0.020244328305125237	-0.0018748539732769132	0.002132063964381814	0.14805349707603455	0.011781541630625725	-0.0003378727997187525	-0.09016424417495728	-0.027667725458741188	0.014039241708815098	0.03684980422258377	0.019936805590987206	0.02092360332608223	-0.08649509400129318	-0.05229305475950241	0.013945451937615871	-0.10447191447019577	-0.004260854795575142	0.3426964282989502	-0.02493363618850708	0.005064631812274456	0.0014728382229804993	-0.1040048897266388	0.22268295288085938	0.08283916860818863	-0.10299541056156158	-0.13547785580158234	0.013337465934455395	-0.011225206777453423	0.001125619513913989	-0.17704936861991882	0.019844330847263336	0.04946472868323326	0.23289959132671356	-0.14223186671733856	0.20316991209983826	-0.07829149067401886	0.1579509973526001	-0.12821419537067413	-0.05434544384479523	-0.05704141780734062	0.09221383184194565	-0.008390373550355434	-0.1308595985174179	-0.010306439362466335	0.040570199489593506	-0.457592636346817	-0.06486975401639938	-0.29580071568489075	0.23372088372707367	0.29055309295654297	0.04853891208767891	-0.3881944417953491	-0.3493400812149048	-0.06237681955099106	0.014988450333476067	0.028987467288970947	-0.007233959622681141	0.1375741809606552	0.23548953235149384	0.13836975395679474	-0.026935970410704613	0.14497576653957367	0.004065657500177622	-0.051775410771369934	-0.07432907819747925	0.08460363000631332	0.011687327176332474	0.1663600355386734	-0.06393173336982727	-0.17370913922786713	-0.037233367562294006	-0.08990257233381271	-0.24682991206645966	-0.22736166417598724	0.05818535014986992	-0.03152499720454216	0.09039284288883209	-0.30258795619010925	0.09248664230108261	-0.055149395018815994
kash1277	-0.011885611340403557	-0.007711764890700579	0.20970360934734344	-0.003591859946027398	-0.0327436663210392	-0.10089541971683502	-0.004664718639105558	0.04862003028392792	-0.05658750236034393	-0.036683425307273865	-0.1062922328710556	-0.136755108833313	-0.05917012318968773	-0.22353509068489075	0.05451499670743942	0.004066453315317631	0.047919150441884995	-0.011486792005598545	-0.08426284790039062	0.04323019087314606	0.0323190912604332	0.16003763675689697	0.12578783929347992	-0.001512697315774858	-0.0069069284945726395	0.03457461670041084	0.05565923452377319	-0.012402678839862347	0.0076964907348155975	-0.09142285585403442	0.060474518686532974	-0.0018268690910190344	0.00012265844270586967	0.007342429831624031	0.0024384334683418274	0.0486924983561039	-0.012312937527894974	-0.019826460629701614	0.05287628248333931	0.002301502041518688	0.06454148888587952	-0.031171660870313644	-0.0021331533789634705	-0.004639696795493364	-0.02637203224003315	-0.0184700358659029	0.07882902026176453	0.03535313159227371	-0.002305186353623867	0.008065583184361458	-0.0049065821804106236	0.18854466080665588	0.0021411743946373463	-0.006459649186581373	0.03186849504709244	0.0009974496206268668	0.01450333558022976	-0.04493711143732071	-0.013486664742231369	0.004925166722387075	-0.14015258848667145	-0.08939886093139648	0.05700421333312988	0.0026136937085539103	0.0012973048724234104	0.22087039053440094	0.017675139009952545	0.02518446370959282	0.009122728370130062	0.1201186552643776	-0.016183538362383842	-0.007499707862734795	-0.044949036091566086	0.04185918718576431	0.08880330622196198	-0.004291465040296316	0.0012865958269685507	0.007285329047590494	-0.011480347253382206	0.0131915882229805	-0.2801538407802582	0.005676895380020142	-0.009175378829240799	-0.09469050168991089	0.05935411900281906	0.08437924832105637	-0.0052987937815487385	-0.026338249444961548	-0.005137869156897068	0.006773867644369602	0.014734071679413319	0.0018350215395912528	-0.2239144742488861	-0.05205286294221878	0.2139585167169571	-0.05504089966416359	0.02370075322687626	-0.06026265397667885	-0.03920842334628105	-0.13886436820030212	-0.01619410514831543	-0.057287368923425674	0.005388999357819557	-0.008910689502954483	-0.006634767632931471	0.1785341501235962	0.1413172036409378	-0.01756419613957405	-0.1334361433982849	0.012482241727411747	-0.011321811936795712	-0.007207571528851986	-0.19112761318683624	0.09650897979736328	-0.004167466890066862	0.05140857771039009	0.16740216314792633	-0.08738496899604797	0.15991458296775818	-0.07163804024457932	0.11692371219396591	0.10548971593379974	0.00742755550891161	-0.01335718110203743	0.008675897493958473	0.08676784485578537	0.012780428864061832	-0.026530835777521133
khet1238	-0.0565173514187336	0.016646521165966988	0.13357475399971008	-0.0025545868556946516	-0.15176203846931458	-0.008268943056464195	-0.06301305443048477	-0.21717871725559235	0.1401868611574173	-0.3071693480014801	0.04450031742453575	-0.2409885674715042	0.0793045237660408	0.2784017324447632	0.0408305749297142	0.0054510487243533134	-0.06573940068483353	-0.010244809091091156	-0.09328383952379227	0.016371292993426323	0.11689921468496323	0.12959054112434387	0.04040003940463066	0.21896833181381226	0.04281206429004669	-0.3286094665527344	0.012914326973259449	-0.03421735763549805	0.08426044136285782	-0.2484263777732849	0.181002676486969	-0.0026501158718019724	-0.02037283405661583	-0.010068333707749844	0.13849017024040222	-0.15491779148578644	-0.10333864390850067	-0.016810068860650063	-0.2261049896478653	0.2269262820482254	-0.11551668494939804	0.2077234983444214	0.006960667669773102	-0.027693498879671097	0.053000759333372116	-0.35469353199005127	0.23981614410877228	-0.23891617357730865	0.008537698537111282	-0.007285378407686949	-0.04628973826766014	-0.12955501675605774	-0.0030683507211506367	0.017625516280531883	-0.2840617597103119	-0.05707518383860588	-0.00043996944441460073	-0.4130483865737915	0.14157788455486298	0.006095106713473797	-0.2106158435344696	-0.031543564051389694	0.1486687958240509	-0.020440401509404182	-0.010057028383016586	-0.07658994197845459	-0.010130589827895164	-0.10116688162088394	0.001844653277657926	-0.09146197140216827	0.28850123286247253	-0.09581650048494339	-0.22146731615066528	0.09338319301605225	0.4495863616466522	0.0182124562561512	0.006922824773937464	-0.10764092952013016	0.10645654797554016	-0.01715615577995777	0.08460743725299835	-0.1832951456308365	0.01760370470583439	0.3349526524543762	-0.26392585039138794	-0.033443011343479156	-0.1339893490076065	-0.06462019681930542	0.3927403390407562	-0.05312054976820946	-0.11127198487520218	-0.21436567604541779	0.14839713275432587	0.36846959590911865	-0.16520056128501892	-0.08639451861381531	0.06829466670751572	0.044027503579854965	0.2568991184234619	-0.2712351083755493	-0.033941421657800674	0.009720733389258385	0.002043632324784994	0.06251061707735062	0.0014569656923413277	0.4104141294956207	-0.03228370100259781	-0.04275057464838028	-0.053464971482753754	-0.123481884598732	-0.012526407837867737	0.13368767499923706	0.14921250939369202	0.02992539294064045	0.030294647440314293	-0.018713336437940598	0.12487240135669708	-0.3696977496147156	-0.037375714629888535	-0.4423518180847168	0.0852653980255127	-0.021962394937872887	0.09182330220937729	0.21356481313705444	-0.11542582511901855	-0.37599560618400574	0.01973220705986023	-0.30938276648521423
khow1242	0.013917113654315472	-0.0022824183106422424	-0.01856905035674572	-0.004560435656458139	-0.018247315660119057	0.11896469444036484	0.02028588391840458	-0.0258625540882349	0.006873175967484713	-0.12050019949674606	-0.1636894792318344	-0.09100505709648132	0.2757735252380371	0.2507348954677582	0.0677218809723854	-0.013318353332579136	-0.07557027041912079	0.0082201287150383	0.1177695095539093	0.11927741765975952	0.2027517855167389	-0.21583901345729828	-0.34796831011772156	0.0477488748729229	-0.011250951327383518	0.06213602051138878	0.1333353966474533	0.018971385434269905	0.02557220868766308	-0.048737820237874985	-0.10099345445632935	-0.0014511048793792725	-0.0021180626936256886	-0.007579529657959938	-0.023824794217944145	-0.038298480212688446	-0.06423724442720413	0.07161403447389603	-0.09703793376684189	0.040677715092897415	-0.020593099296092987	0.0014148136833682656	-0.019532356411218643	-0.010411232709884644	0.1093553900718689	0.2289956510066986	0.013245762325823307	-0.05031585320830345	-0.018787357956171036	-0.012948457151651382	-0.013660811819136143	0.1299792379140854	-0.009543300606310368	-0.02288881503045559	0.08110882341861725	-0.020285045728087425	-0.0174246933311224	0.03762240335345268	-0.014430598355829716	0.005120754707604647	-0.4147926867008209	-0.12870851159095764	0.044438574463129044	-0.00913412868976593	0.015974676236510277	0.1486818492412567	0.009144322946667671	-0.016889339312911034	-0.011585446074604988	-0.17755624651908875	0.07235510647296906	-0.03506126627326012	-0.2717656195163727	-0.15937745571136475	-0.076863132417202	-0.0015932860551401973	0.013707235455513	0.020433790981769562	0.0199898611754179	0.04175401106476784	-0.3037841022014618	-0.3668561577796936	-0.13062399625778198	-0.0014033790212124586	-0.11019899696111679	-0.2570957839488983	0.016267070546746254	-0.03157336264848709	-0.17424269020557404	0.015401795506477356	-0.12510038912296295	0.014900624752044678	0.23098225891590118	-0.11067143827676773	0.4293924868106842	-0.19526493549346924	0.18821363151073456	0.12147697061300278	0.10314858704805374	-0.2165052443742752	0.11902931332588196	-0.015379834920167923	0.006586900446563959	0.02349047362804413	0.012355048209428787	0.08286464214324951	0.06778576225042343	-0.03887659311294556	0.09758099913597107	0.012267484329640865	-0.008211172185838223	0.02015008218586445	0.05979657545685768	-0.024663427844643593	0.006940850988030434	0.04095035791397095	0.10442764312028885	0.22517074644565582	0.09989703446626663	0.12846307456493378	0.036170411854982376	0.034378644078969955	-0.0035813869908452034	-0.02749330922961235	0.024707354605197906	0.061270248144865036	-0.011033971793949604	0.0026623422745615244
kohi1248	-0.06176785007119179	0.08965493738651276	-0.045244112610816956	0.0016765312757343054	-0.0028247751761227846	-0.22442667186260223	0.07115763425827026	-0.17664551734924316	-0.3144371807575226	-0.19856689870357513	-0.26787108182907104	-0.14912794530391693	-0.1490236222743988	-0.42888155579566956	0.06119893491268158	-0.011440427042543888	-0.131118044257164	-0.029949722811579704	-0.02979254350066185	-0.39361461997032166	0.3249381482601166	-0.18030865490436554	0.3839801251888275	-0.08196556568145752	0.12219821661710739	-0.07214182615280151	0.2789972722530365	0.036626171320676804	-0.1508367359638214	-0.06822720915079117	0.1471826732158661	-0.013707633130252361	-0.007696152664721012	0.013935236260294914	-0.4389810264110565	-0.09085195511579514	-0.06643150001764297	0.028008386492729187	-0.03722415491938591	-0.07178672403097153	-0.21576997637748718	0.05768091231584549	-0.012282026931643486	0.012944357469677925	0.06294221431016922	-0.24057623744010925	-0.30150482058525085	-0.09711482375860214	-0.005422718822956085	0.005954372696578503	0.03087950497865677	0.13216336071491241	0.02106299065053463	0.0030817927327007055	-0.10093756020069122	-0.00782039761543274	0.023287799209356308	0.2511066794395447	-0.1194080039858818	0.013355421833693981	-0.0703960731625557	-0.09694577008485794	0.22137247025966644	0.13487067818641663	-0.02273445762693882	-0.12094596028327942	-0.11034075170755386	-0.14079593122005463	0.029430624097585678	0.14229540526866913	0.19473421573638916	-0.052162591367959976	-0.14699633419513702	0.007270687725394964	-0.24855977296829224	-0.0024692967999726534	-0.040930770337581635	-0.21155795454978943	0.03533325344324112	0.050018128007650375	-0.124995157122612	-0.12048893421888351	0.23345942795276642	0.08763615787029266	-0.05382659286260605	-0.06770283728837967	-0.015746409073472023	0.1943388730287552	-0.15478500723838806	0.02650127001106739	-0.03503604605793953	0.05277366563677788	-0.07608731091022491	-0.10865495353937149	-0.2372417449951172	-0.5336443185806274	-0.07058516889810562	0.13559044897556305	-0.3579471707344055	0.11697322875261307	-0.34577125310897827	0.4361546039581299	-0.032344307750463486	-0.03159670531749725	-0.02692919224500656	0.2154158502817154	-0.08796241134405136	-0.019103476777672768	-0.044462740421295166	0.12525531649589539	0.0042019314132630825	0.1116224154829979	0.15257607400417328	-0.10790927708148956	-0.014006300829350948	0.2134326994419098	0.0593261793255806	-0.08504606783390045	0.09278307855129242	0.09899678081274033	0.04943793639540672	-0.1347961276769638	-0.05324503034353256	0.08357711136341095	-0.15920154750347137	0.25473809242248535	-0.05399663373827934	-0.005398515611886978
konk1267	0.016714412719011307	-0.0011703124037012458	-0.21219678223133087	-0.0074700540862977505	0.1112518385052681	-0.13625098764896393	-0.015613959170877934	0.031842466443777084	0.011194751597940922	-0.12552566826343536	0.023832112550735474	0.21358197927474976	-0.02980196103453636	-0.31553956866264343	0.034086309373378754	0.0009653932065702975	0.06670718640089035	0.0014398189960047603	-0.10032540559768677	-0.38527700304985046	-0.07334933429956436	-0.3184993863105774	0.08106716722249985	-0.06893756240606308	0.0221028421074152	0.2040380835533142	0.07466299086809158	-0.0038180428091436625	-0.05206712335348129	0.10003088414669037	0.05800732225179672	0.003480869811028242	-0.00029529022867791355	0.004209748934954405	0.1613113284111023	0.0909384936094284	-0.16509084403514862	-0.05096084624528885	-0.02953709475696087	0.014319363050162792	0.13200585544109344	-0.02520066313445568	-0.010716590099036694	-0.015322414226830006	0.15342427790164948	-0.13203632831573486	0.13859114050865173	-0.012088918127119541	0.015566271729767323	-0.0032357419840991497	-0.012117189355194569	-0.09937012940645218	0.0018610713304951787	-0.006613232661038637	-0.17618592083454132	-0.018925568088889122	-0.014471183530986309	0.020941708236932755	0.04917639493942261	0.0030721183866262436	0.30891215801239014	-0.21484826505184174	-0.08449893444776535	0.006499829236418009	0.005657400004565716	0.011135623790323734	0.019022047519683838	-0.04719573259353638	0.009813984856009483	0.024041075259447098	0.013065356761217117	-0.03996444121003151	-0.004528350196778774	0.019734062254428864	-0.20552180707454681	-0.021378103643655777	-0.015111420303583145	0.05482447147369385	0.011212118901312351	0.14868271350860596	0.06552314758300781	0.2310587763786316	0.08901549130678177	-0.14633359014987946	-0.16104786098003387	-0.05331878364086151	0.003625971032306552	-0.08483058214187622	0.27703729271888733	0.011440514586865902	-0.10866505652666092	-0.019598843529820442	-0.023348091170191765	0.12063822895288467	0.20565961301326752	-0.10893488675355911	0.15016016364097595	-0.25744399428367615	0.031423021107912064	-0.06969162821769714	0.02750319242477417	-0.05576855316758156	0.008110438473522663	0.016375955194234848	-0.004881922621279955	0.21015670895576477	-0.049952831119298935	0.06535027921199799	0.14401094615459442	0.15273208916187286	-0.015902433544397354	-0.04340822622179985	0.1756429672241211	-0.19289429485797882	-0.007561630569398403	-0.08072029799222946	0.022553106769919395	0.10681448131799698	0.15820865333080292	0.027993973344564438	0.005653992295265198	-0.1483493149280548	0.07361115515232086	0.002474825596436858	0.011784167028963566	-0.0967855229973793	0.015507549978792667	-0.02002272754907608
kuma1273	0.010651879012584686	0.0013736961409449577	-0.13473692536354065	-0.00568280229344964	0.01306773442775011	0.1660005748271942	-0.00020679307635873556	0.054405707865953445	-0.02748872898519039	-0.033933766186237335	-0.1397102326154709	-0.026715781539678574	-0.012227743864059448	0.015700871124863625	-0.03439341112971306	-0.004768549930304289	-0.0611276775598526	-0.009785979054868221	-0.0939495638012886	-0.12077132612466812	0.14710211753845215	0.03843008726835251	0.0209791399538517	-0.041619911789894104	-0.004425165243446827	0.022831028327345848	0.03269103541970253	-0.008030910976231098	-0.04044758155941963	0.06746113300323486	-0.07284978032112122	0.00038797507295385003	-0.0013730444479733706	0.01128826942294836	0.11265569925308228	0.060836467891931534	-0.004299784079194069	0.0006961022736504674	0.014558237046003342	-0.016634942963719368	0.007465651724487543	-0.07045012712478638	0.0030419952236115932	-0.001162758213467896	0.06860952079296112	0.08085686713457108	-0.061826277524232864	0.029430899769067764	0.016645658761262894	0.01603532023727894	-0.00507311150431633	-0.10134810209274292	-0.0019352514063939452	-0.005693862214684486	-0.023817818611860275	-0.01570657640695572	-0.00820213183760643	0.11018809676170349	0.005123978015035391	0.00348868640139699	-0.05521128326654434	-0.03644590452313423	-0.0385730154812336	-0.01951710321009159	-0.01253463327884674	-0.1804107427597046	0.010646249167621136	0.03781041502952576	-0.013045703060925007	0.014925639145076275	0.048355456441640854	-0.015572240576148033	0.14494048058986664	0.04907912760972977	0.018389638513326645	-0.005251165479421616	-0.0037306773010641336	-0.06446091830730438	-0.0014984941808506846	0.14038629829883575	-0.04169193282723427	0.05820553004741669	0.03845009580254555	-0.04715055972337723	0.16010355949401855	-0.019163040444254875	-0.0205773264169693	0.09875854104757309	-0.058121006935834885	0.012734371237456799	0.025949373841285706	0.014979987405240536	0.08715807646512985	0.054630305618047714	0.02787206880748272	0.06066505238413811	-0.08765093237161636	0.16968345642089844	0.01718825101852417	0.01567436195909977	-0.016840185970067978	0.034265533089637756	-0.0010454067960381508	0.011180163361132145	-0.008566394448280334	-0.1142895370721817	-0.020698854699730873	-0.0326756127178669	-0.028058135882019997	0.07382609695196152	-0.005674355197697878	0.03728516399860382	0.05495496466755867	0.2244599163532257	0.007856206968426704	-0.0373053215444088	0.06836678087711334	-0.06966544687747955	-0.0792911946773529	-0.0667286217212677	0.06354208290576935	0.022956926375627518	0.008848009631037712	-0.0072899432852864265	0.02142358385026455	-0.10451098531484604	0.035816892981529236	-0.011126789264380932
kura1247	0.10766346007585526	0.056572847068309784	0.004140928853303194	0.019159862771630287	0.06369176506996155	-0.2324899137020111	0.04836089164018631	-0.1790299117565155	0.2599382996559143	0.12578560411930084	0.10307231545448303	0.12305009365081787	0.12000530958175659	-0.30263301730155945	0.2987741529941559	0.036891646683216095	-0.05002501979470253	0.01375188585370779	0.16563944518566132	0.046694256365299225	-0.01269302424043417	-0.017800994217395782	-0.32860076427459717	-0.12023786455392838	0.018014656379818916	0.18905946612358093	0.11651149392127991	0.026649534702301025	-0.16951850056648254	0.14694064855575562	0.2839781641960144	-0.006563221570104361	0.021406594663858414	0.017608119174838066	0.20728790760040283	-0.02272448129951954	-0.20105622708797455	0.07631856203079224	0.32275882363319397	0.25259023904800415	0.23120194673538208	-0.06131448596715927	0.03519193455576897	0.022445794194936752	0.055790867656469345	0.13177312910556793	0.1218801885843277	-0.21464797854423523	0.021971384063363075	0.01724669151008129	0.007412594743072987	-0.08439129590988159	0.019092675298452377	-0.016933904960751534	0.31332749128341675	0.009484382346272469	0.029625874012708664	0.49901464581489563	0.12784147262573242	-0.07018402963876724	-0.08053175359964371	-0.1276451051235199	0.0006811645580455661	0.13158544898033142	0.05181583762168884	0.21559759974479675	-0.02979058027267456	-0.15464819967746735	-0.0067406343296170235	-0.012020740658044815	0.24578619003295898	-0.010141834616661072	-0.005702139809727669	0.11557202786207199	0.09721367061138153	-0.01538014318794012	0.07689003646373749	0.23645004630088806	0.04485343396663666	0.4144192039966583	0.17800737917423248	0.2436428666114807	-0.08387632668018341	0.13714371621608734	-0.29061654210090637	0.19141922891139984	-0.15182040631771088	-0.09843795001506805	-0.4703886806964874	0.017418401315808296	0.10648885369300842	-0.0514456108212471	0.21600721776485443	-0.27812957763671875	0.16487547755241394	0.09500905126333237	0.374195396900177	0.19840678572654724	-0.15982834994792938	-0.2912052571773529	0.04312144219875336	0.053524333983659744	-0.029031382873654366	-0.032307401299476624	-0.003779919585213065	0.3680007755756378	-0.21837221086025238	-0.14404772222042084	0.1551308035850525	0.0008279347093775868	0.016051361337304115	-0.09363048523664474	-0.11270986497402191	0.03147319331765175	0.02210042253136635	-0.1392541527748108	0.10408636182546616	0.11634214967489243	-0.05566821247339249	-0.01602322794497013	-0.26652413606643677	0.20510146021842957	-0.0873415619134903	0.06687388569116592	-0.12318989634513855	-0.24460192024707794	0.12351630628108978	-0.06793342530727386
laur1248	0.03441371023654938	-0.017715398222208023	-0.08315575867891312	0.02744986303150654	-0.19809448719024658	0.08515065908432007	-0.045137226581573486	-0.06273248791694641	-0.02416447177529335	-0.32002145051956177	-0.19134335219860077	-0.08557549864053726	0.006250078324228525	0.10961166769266129	0.017506515607237816	0.036457452923059464	0.2061000019311905	-0.0019581643864512444	-0.15800505876541138	-0.06651152670383453	-0.20154346525669098	-0.45615145564079285	-0.037700653076171875	-0.103213831782341	0.07700332999229431	0.1825391799211502	-0.08706154674291611	0.010224292054772377	0.04740556702017784	-0.3385601341724396	0.035818442702293396	0.010933645069599152	-0.00074503303039819	0.016122713685035706	-0.16359633207321167	0.05450617894530296	0.11250670999288559	-0.020461430773139	0.01629042811691761	-0.10699504613876343	0.04412492737174034	-0.19059285521507263	0.010760823264718056	-0.00525108864530921	0.19615516066551208	-0.05533662438392639	0.033911578357219696	0.17309801280498505	0.0038173175416886806	0.0013688493054360151	-0.012154322117567062	0.09391744434833527	0.012278548441827297	-0.016285261139273643	0.03030298836529255	0.0033714603632688522	0.006048533599823713	0.02480560541152954	0.017723988741636276	-0.01883568987250328	-0.11076037585735321	0.4224068820476532	0.31515973806381226	-0.02743537537753582	-0.015008627437055111	0.06081279367208481	0.031596001237630844	0.14429287612438202	-0.00125886092428118	-0.08737550675868988	0.18979963660240173	0.0016155509511008859	0.058675140142440796	-0.08540261536836624	-0.39451223611831665	0.0072290366515517235	-0.017222270369529724	-0.022992191836237907	-0.02939106896519661	0.16115514934062958	0.08126872032880783	0.30977335572242737	-0.14707840979099274	0.03350990638136864	0.10919448733329773	0.07412581145763397	0.02428319863975048	-0.15324200689792633	-0.2924196124076843	0.022279703989624977	0.03382943570613861	0.017741037532687187	0.1918649822473526	-0.3311969041824341	-0.09335526078939438	-0.09040503948926926	0.28319165110588074	0.16576026380062103	0.3028312027454376	0.05157646909356117	0.13049237430095673	-0.01949002780020237	0.01666714809834957	0.11303391307592392	-0.015116534195840359	0.0415833480656147	0.062090203166007996	-0.018379615619778633	-0.12090948969125748	-0.13462701439857483	-0.002753285691142082	0.039686817675828934	-0.12232447415590286	-0.3331666886806488	0.017256611958146095	-0.10361510515213013	-0.3105108141899109	-0.17563872039318085	0.4183776378631592	-0.16556663811206818	-0.07193835079669952	0.09561656415462494	0.01886036992073059	0.056524958461523056	-0.024655910208821297	0.04166203364729881	-0.07233312726020813	-0.23582318425178528
loma1235	0.14472275972366333	0.20207582414150238	-0.0589410625398159	0.0014599587302654982	0.6214388012886047	0.28497451543807983	-0.07400834560394287	-0.22196435928344727	0.317730575799942	0.3372160792350769	-0.051342520862817764	0.2207377403974533	-0.09632037580013275	0.3705187439918518	-0.058751754462718964	0.010662670247256756	0.2015562802553177	-0.019168896600604057	0.44349420070648193	-0.16469480097293854	-0.07656387239694595	-0.13589096069335938	-0.3161906898021698	-0.03569446876645088	0.09562372416257858	-0.23562392592430115	-0.1358031928539276	0.0043068756349384785	-0.006159357260912657	-0.476870596408844	-0.22464312613010406	0.0023564277216792107	0.04267062246799469	0.011405556462705135	0.060752492398023605	0.33868491649627686	0.00201528612524271	-0.19256243109703064	0.29095035791397095	-0.14411723613739014	-0.07388263940811157	-0.2232653647661209	-0.03186885267496109	-0.01035310048609972	-0.11972635239362717	-0.12749914824962616	0.26246196031570435	0.2518293857574463	-0.011743370443582535	0.016706516966223717	-0.04123220965266228	-0.12229089438915253	0.03980454429984093	0.03931707143783569	0.4190045893192291	-0.02538404054939747	0.044999945908784866	-0.33368396759033203	0.46340563893318176	-0.07419527322053909	-0.06005828082561493	-0.028938399627804756	-0.07794183492660522	0.1235240027308464	0.04923058673739433	0.2770369350910187	-0.0646643340587616	0.011347225867211819	0.033446457237005234	0.24063698947429657	-0.013537975028157234	-0.18876363337039948	-0.12307804077863693	0.019349489361047745	0.09707830101251602	0.0070077902637422085	-0.08144942671060562	-0.021364232525229454	-0.006313697434961796	-0.11592432856559753	-0.36543533205986023	-0.08007778227329254	0.18455587327480316	-0.05400695279240608	0.1542203426361084	-0.2761037349700928	-0.06307685375213623	-0.2506745755672455	0.03128080442547798	-0.047908928245306015	0.0342143177986145	-0.002269602846354246	0.08737947046756744	0.3267148435115814	-0.04021269828081131	-0.04636633023619652	-0.3588356077671051	0.3148753046989441	-0.06786040961742401	-0.024293052032589912	0.6444585919380188	0.580610990524292	-0.02535732463002205	-0.04472614824771881	0.0017782278591766953	0.07911218702793121	-0.15238414704799652	0.16016370058059692	-0.07743444293737411	-0.015114133246243	0.029987728223204613	-0.20128683745861053	0.22207659482955933	0.32448330521583557	-0.03740690276026726	0.47606828808784485	-0.5143342614173889	0.29403164982795715	-0.1327267438173294	0.19953249394893646	-0.26386669278144836	0.2293909192085266	0.07958333194255829	0.13564470410346985	-0.5057030320167542	0.18623022735118866	0.16229590773582458	0.0682419165968895
maha1287	-0.034230682998895645	-0.006735983304679394	-0.22998695075511932	-0.0017151432111859322	-0.045228928327560425	0.21908751130104065	0.036366354674100876	0.20353780686855316	0.023754708468914032	0.12351613491773605	-0.14089173078536987	0.20262736082077026	0.022651582956314087	-0.05452447384595871	0.04668867215514183	0.0022789621725678444	-0.08556491881608963	-0.005420781206339598	0.12806911766529083	-0.29489895701408386	-0.07993140071630478	-0.018599631264805794	0.132577046751976	-0.14534279704093933	-0.003657916095107794	0.08079585433006287	-0.23637297749519348	-0.0021980064921081066	0.08136464655399323	0.10209371149539948	0.16128556430339813	-0.016785578802227974	-0.008602445013821125	0.012090768665075302	0.05842200666666031	-0.1344032734632492	-0.06538649648427963	-0.10407663136720657	0.14312249422073364	-0.03588579222559929	0.11572858691215515	0.00503437127918005	-0.008999159559607506	-0.009948980063199997	0.14099563658237457	-0.229068323969841	-0.2466978281736374	-0.03405027091503143	-0.0007136632921174169	0.009453984908759594	0.010387128219008446	0.05558495223522186	0.005127362906932831	0.03386537358164787	0.02944842539727688	0.00982824806123972	0.01793326437473297	-0.3716621994972229	-0.04237747564911842	0.022059494629502296	-0.041619665920734406	-0.14531677961349487	-0.012540609575808048	-0.008809828199446201	-0.00861368514597416	0.1904117614030838	-0.03799554333090782	-0.04401921108365059	0.014371935278177261	0.15350736677646637	0.12022005021572113	0.008513569831848145	-0.12068168073892593	-0.16182498633861542	-0.20151187479496002	-0.0014478571247309446	-0.010805502533912659	0.04405968636274338	-0.020277442410588264	0.23421013355255127	0.10765451192855835	-0.10808786749839783	0.08500975370407104	0.05814181640744209	0.04603082314133644	0.18387499451637268	0.04179691895842552	0.014102233573794365	-0.14063332974910736	-0.02412395179271698	-0.020288389176130295	-0.005913593806326389	-0.2606389820575714	0.2603422999382019	0.13768212497234344	0.049201492220163345	-0.04588116332888603	-0.01776246540248394	0.22629840672016144	0.17465892434120178	0.12840403616428375	0.02309533767402172	-0.016933856531977654	0.014595549553632736	-0.011679341085255146	-0.20664401352405548	0.296610563993454	-0.26991039514541626	0.27330127358436584	0.08607606589794159	0.020590297877788544	0.06049180403351784	0.07088324427604675	0.3191317319869995	-0.006588914897292852	0.4577179551124573	-0.006346304900944233	0.0793624296784401	0.274630606174469	-0.00906829908490181	0.018538527190685272	-0.04093044251203537	-0.039106838405132294	-0.043212682008743286	0.033076412975788116	-0.2782718241214752	-0.05233895406126976	0.049085833132267
maha1305	0.011522226966917515	0.009041506797075272	0.05414249375462532	0.01791941188275814	-0.005631935317069292	-0.11172138154506683	-0.0031486835796386003	-0.02620917744934559	0.035000741481781006	0.0011573209194466472	-0.00548480125144124	0.06100821495056152	0.15214823186397552	0.1771455854177475	0.014696531929075718	0.003963961731642485	-0.009088382124900818	0.005776260048151016	-0.0005999764543958008	0.018750512972474098	0.09165584295988083	0.02683718129992485	-0.02240758016705513	-0.08251481503248215	0.010980541817843914	0.007123859599232674	-0.022779056802392006	0.0027747114654630423	0.018216241151094437	0.07806158065795898	-0.024510087445378304	0.0037506488151848316	0.00990305095911026	0.008115994744002819	-0.011577919125556946	0.005643132142722607	-0.0262464489787817	0.0005477542872540653	0.014355451799929142	-0.000868370640091598	-0.009653406217694283	0.021074237301945686	-0.004242381080985069	-0.005742412526160479	-0.017392469570040703	0.0003714603080879897	0.013555781915783882	0.0011530497577041388	-0.003518714103847742	-0.010767048224806786	0.0016122721135616302	0.17943215370178223	0.008781622163951397	-0.024148793891072273	0.027985719963908195	-0.013798821717500687	0.02370665781199932	-0.02908989042043686	-0.005599115043878555	-0.004324737004935741	0.32489100098609924	0.041575245559215546	0.02055669017136097	0.009722569026052952	0.006407264154404402	-0.11509169638156891	0.0038777668960392475	-0.003836065996438265	0.003400080371648073	-0.008243479765951633	0.022219611331820488	-0.00892415177077055	-0.021815070882439613	-0.002548402873799205	0.007997916080057621	-0.0014115619705989957	0.0070066568441689014	-0.007720123045146465	0.006883779540657997	-0.25023016333580017	-0.07572569698095322	0.026780076324939728	0.03825800120830536	-0.037343889474868774	0.03592527657747269	0.08293826878070831	-0.01518345344811678	-0.014939012937247753	-0.009900414384901524	0.0007692128419876099	0.003107169410213828	0.0032234599348157644	-0.06804636120796204	-0.015416488982737064	-0.08000747859477997	0.1712155044078827	0.06353770941495895	0.11344132572412491	0.0004239302361384034	-0.04234199598431587	-0.042791154235601425	0.03296377882361412	-0.002731392392888665	0.008426842279732227	-0.007004234939813614	-0.023450562730431557	-0.05642266571521759	0.0001167480368167162	0.05105244368314743	-0.03631509840488434	-0.008516660891473293	0.006666019558906555	0.0334932804107666	-0.21326959133148193	-0.013794776983559132	-0.13251398503780365	0.09503541886806488	0.03008425422012806	0.03487234562635422	-0.0069609093479812145	0.03537294268608093	-0.04734262824058533	0.019324684515595436	0.003666830947622657	-0.0007521240622736514	-0.00901259295642376	0.011705668643116951	-0.00564751448109746
mait1250	0.015192476101219654	-0.01541317068040371	-0.10110299289226532	0.006238441448658705	-0.02332874946296215	0.029823416844010353	-0.018701307475566864	0.05789654329419136	-0.0974104031920433	-0.01846318133175373	0.0829387754201889	0.25249114632606506	-0.021903395652770996	0.07138361781835556	-0.06292060017585754	0.006794347427785397	0.0023156420793384314	-0.0016459192847833037	0.20745913684368134	0.028754059225320816	-0.1416582465171814	-0.09131695330142975	0.14277490973472595	0.10445539653301239	-0.01513158343732357	-0.11656351387500763	-0.09962115436792374	-0.011834204196929932	-0.06805424392223358	0.00947484653443098	-0.06744164228439331	-0.01108552422374487	0.005188269540667534	-0.01241573877632618	-0.05557699128985405	0.02441519871354103	0.03582530468702316	0.021427096799016	0.050820887088775635	-0.024773884564638138	-0.022322140634059906	0.1027020812034607	0.009706948883831501	0.003550441237166524	0.07500272244215012	0.06763149797916412	-0.03992360457777977	0.06613530963659286	-0.006014281418174505	0.009127405472099781	-0.024881722405552864	-0.17716196179389954	-0.0030136220157146454	0.005569726228713989	-0.012438781559467316	-0.02538963221013546	-0.008396808989346027	0.02740595117211342	-0.10703617334365845	-0.006105151958763599	-0.1353559046983719	-0.11087927967309952	-0.07743345946073532	-0.010892249643802643	-0.014086462557315826	-0.08975869417190552	0.02282068505883217	-0.01568698324263096	0.00706537114456296	0.07106908410787582	-0.23156756162643433	0.020221658051013947	-0.05422850325703621	0.10455956310033798	0.051463451236486435	0.012648930773139	0.009181094355881214	-0.05303887277841568	0.0035041342489421368	-0.10502700507640839	0.16316762566566467	-0.17173071205615997	0.0015723846154287457	-0.009732548147439957	-0.07012142241001129	0.03426114469766617	-0.02216135710477829	0.08197204768657684	-0.11236817389726639	0.02191840671002865	0.004914540331810713	0.006847774144262075	0.21897722780704498	0.14380472898483276	-0.024998739361763	0.022019121795892715	-0.06387349963188171	0.20522122085094452	0.06602725386619568	0.029472364112734795	-0.044003501534461975	0.026353279128670692	0.012231148779392242	0.03611928969621658	-0.014896783046424389	0.02684219367802143	0.17393772304058075	0.017185643315315247	-0.18604956567287445	-0.07957632094621658	-0.007306601852178574	0.021546626463532448	-0.19224253296852112	-0.2008436620235443	0.013815151527523994	0.15760402381420135	0.061247680336236954	0.04373631626367569	-0.05680041387677193	0.03177845850586891	0.15738913416862488	0.09540174901485443	-0.040216267108917236	0.01467097643762827	0.027045462280511856	0.05288228392601013	0.058105241507291794	-0.03202934190630913
mara1378	-0.008544082753360271	-0.015592023730278015	0.04365359619259834	-0.003279011696577072	-0.007201852276921272	0.02762100100517273	0.002947429660707712	-0.010156124830245972	-0.02578098513185978	-0.0018572963308542967	-0.03191663324832916	0.1065063327550888	0.03470692038536072	0.15735064446926117	0.019208399578928947	0.006048058159649372	0.028838567435741425	0.007316159084439278	-0.09776977449655533	-0.09444351494312286	-0.045164868235588074	-0.013519195839762688	0.04463384300470352	0.053819719702005386	0.013727362267673016	0.021235359832644463	0.05382438749074936	-0.00021586699585895985	-0.011725764721632004	0.07278677821159363	0.0454687662422657	-0.00941061694175005	-0.0012227339902892709	-0.0018218543846160173	0.024455195292830467	-0.02591283991932869	0.0215129554271698	0.00669304421171546	-0.05541625991463661	-0.016799937933683395	-0.018337851390242577	-0.08200703561306	0.005085678771138191	0.004441014025360346	-0.06367235630750656	0.04505502060055733	-0.007598184514790773	-0.0015956633724272251	0.0020106735173612833	0.00015878651174716651	0.00798020139336586	-0.20460845530033112	-0.005079976283013821	-0.0034227545838803053	-0.02883404865860939	-0.00834881141781807	-0.0001231932983500883	-0.0520055778324604	-0.0024537036661058664	-0.0042248559184372425	0.12984725832939148	-0.05209796130657196	0.014944810420274734	-0.0048462706618011	0.007966793142259121	-0.042433373630046844	0.003971158526837826	0.011369703337550163	0.00398354372009635	-0.057976506650447845	-0.020511554554104805	0.013531884178519249	0.03848041221499443	-7.183043635450304e-05	-0.007244467735290527	0.008827400393784046	0.010455811396241188	0.0009992057457566261	-0.007440362591296434	0.06061571091413498	0.14234550297260284	0.07783805578947067	-0.01529261376708746	0.034645259380340576	-0.05567061901092529	-0.013949304819107056	-0.00901073683053255	-0.034100841730833054	0.1392877995967865	-0.007518675643950701	-0.029510438442230225	0.018891362473368645	-0.0976940169930458	0.002313564531505108	0.08126693964004517	0.073079913854599	0.0768917128443718	-0.07428149878978729	-0.05026925727725029	-0.1712854653596878	0.010772119276225567	0.009764429181814194	-0.010025051422417164	0.001922994153574109	-0.004086518194526434	0.11369156092405319	-0.0029576567467302084	0.026121679693460464	0.016181515529751778	0.004319398198276758	0.0011970589403063059	0.006958408746868372	-0.08424902707338333	0.1296224147081375	-0.00016532100562471896	-0.08982886373996735	-0.21744418144226074	0.11952775716781616	0.06974459439516068	0.13546638190746307	0.013130472041666508	0.024257367476820946	-0.022341785952448845	0.002367515116930008	-0.003518445650115609	0.118266262114048	-0.003901734249666333	0.01730123534798622
marw1260	-0.020959818735718727	0.02005411870777607	-0.19742567837238312	0.012574362568557262	-0.015445900149643421	0.5170277953147888	-0.05427376553416252	-0.16439208388328552	-0.10169659554958344	-0.06900569051504135	-0.013250590302050114	0.06757458299398422	-0.07696230709552765	-0.3624524474143982	0.14452899992465973	0.02772790938615799	-0.12925463914871216	-0.007401991635560989	-0.0027021148707717657	-0.07104824483394623	0.10421115905046463	0.1293613314628601	-0.007812819443643093	0.10563775897026062	-0.009860571473836899	0.12345194071531296	0.1382073163986206	0.01377816405147314	-0.044285185635089874	-0.028722165152430534	0.043816227465867996	0.028214195743203163	0.00019764748867601156	0.017934903502464294	-0.050905101001262665	-0.10271020233631134	0.315593957901001	0.3313581645488739	0.03806913271546364	0.3626776933670044	0.0705072358250618	0.03059171326458454	0.007021882571280003	-0.01501559466123581	-0.21731364727020264	0.1422756165266037	-0.1863463670015335	-0.2359306961297989	-0.004198011942207813	-0.01599065586924553	0.0630268007516861	-0.1223072037100792	0.007623889949172735	0.05758319050073624	-0.23008671402931213	-0.041853658854961395	-0.010290076956152916	-0.2423665076494217	0.029820742085576057	-0.09503640234470367	-0.1791428178548813	-0.30263930559158325	0.2221272736787796	-0.06257397681474686	0.029070956632494926	-0.19012591242790222	0.21004508435726166	0.03731716796755791	0.014051176607608795	-0.03973542898893356	0.24174454808235168	0.10663364082574844	-0.26338496804237366	0.18127775192260742	-0.016856985166668892	0.024864042177796364	-0.06326822936534882	0.2327444851398468	-0.011678376235067844	-0.13886846601963043	0.055095378309488297	-0.28865206241607666	0.06075146049261093	-0.3181404173374176	-0.018958544358611107	-0.005993814207613468	0.014265709556639194	-0.008285650983452797	0.15784315764904022	-0.0217365063726902	0.16337057948112488	-0.15795905888080597	-0.24132610857486725	0.26215681433677673	0.029746931046247482	0.2806573510169983	-0.12690509855747223	-0.018786123022437096	0.1468910276889801	0.2799679934978485	-0.15566127002239227	-0.012413659133017063	-0.014202586375176907	0.013357935473322868	-0.02509368769824505	0.1503686159849167	0.04370385780930519	-0.15024730563163757	0.23257485032081604	0.0014665836934000254	0.0008921177359297872	-0.1803041398525238	-0.23414771258831024	0.0210897084325552	-0.028299549594521523	-0.4506537914276123	0.10488279163837433	0.1667259931564331	0.0759705975651741	-0.08137291669845581	-0.1668366640806198	-0.22751061618328094	0.012938963249325752	-0.03212292119860649	-0.01017871592193842	0.03050360456109047	0.033824075013399124	0.010259784758090973
