aret1240	0.3724742829799652	-0.1280839443206787	-0.41381052136421204	-0.21491368114948273	-0.3261999785900116	-0.037475258111953735	0.3883352279663086	-0.09132276475429535	-0.08806025981903076	-0.0010951538570225239	0.17609930038452148	0.020909100770950317	0.08877920359373093	-0.5069741606712341	0.04533493146300316	-0.07755985110998154	-0.1790233850479126	0.01396037358790636	0.17472665011882782	-0.16441227495670319	0.23133422434329987	0.213698148727417	-0.14912371337413788	-0.24820612370967865	0.032895978540182114	0.170172780752182	0.10172662138938904	0.00210114405490458	0.05443371459841728	-0.044297829270362854	-0.11773305386304855	-0.14404185116291046	0.23078113794326782	0.015015690587460995	-0.11918409168720245	0.2979048788547516	0.04947720468044281	-0.0019687528256326914	0.06047271192073822	-0.10712471604347229	0.036685336381196976	-0.1361360102891922	0.025145092979073524	-0.1686171442270279	-0.09960959851741791	0.08156444877386093	-0.35656577348709106	0.10401447862386703	0.04958505555987358	-0.06964994221925735	0.1425042599439621	-0.4297599494457245	-0.027881791815161705	-0.057849038392305374	-0.3654446005821228	0.1836618185043335	0.26024213433265686	-0.059081800282001495	-0.1307012140750885	0.21538248658180237	0.18784759938716888	-0.02426953800022602	0.009192612022161484	0.20805884897708893	0.08010539412498474	-0.08093059808015823	-0.09837515652179718	-0.03769254311919212	0.011016481555998325	-0.1515279859304428	0.3376167118549347	0.013609473593533039	0.09486264735460281	0.15218721330165863	-0.1921275109052658	0.3044329583644867	0.026288172230124474	0.056629788130521774	0.11247115582227707	0.2389671802520752	-0.27908337116241455	0.07311360538005829	0.21714332699775696	-0.09553250670433044	0.198317751288414	-0.26145923137664795	0.1591615527868271	-0.15307112038135529	0.07191259413957596	0.1543503701686859	0.1615794450044632	0.04064644128084183	0.16388331353664398	-0.03511311486363411	0.24851569533348083	-0.0877312645316124	0.13544675707817078	0.16658331453800201	0.059521034359931946	0.05547292158007622	-0.2484106868505478	0.06271696835756302	0.4998147189617157	0.3032960593700409	-0.1928621381521225	-0.1430078148841858	0.1369076520204544	0.08704885840415955	-0.11778026819229126	-0.13888217508792877	0.24393773078918457	0.034995824098587036	-0.017372235655784607	0.07519420981407166	0.027818402275443077	-0.06628788262605667	-0.24710531532764435	0.15616610646247864	0.16463269293308258	-0.22268058359622955	-0.11350136250257492	-0.11117330193519592	0.02926279418170452	-0.2954150140285492	-0.0019348823698237538	-0.023301342502236366	0.25829532742500305	-0.3546489477157593
assa1263	-0.013686531223356724	0.19754943251609802	0.13243594765663147	-0.094209223985672	0.11360911279916763	0.12111561745405197	0.055252622812986374	-0.22956590354442596	-0.2137851119041443	0.08127846568822861	0.011284014210104942	0.19607828557491302	0.2439546138048172	-0.03391708806157112	-0.012773541733622551	-0.05648791044950485	-0.11064331233501434	-0.04535360261797905	-0.024651458486914635	-0.19948913156986237	-0.008315520361065865	-0.002556754043325782	0.14234164357185364	-0.052319370210170746	-0.1984669268131256	-0.06076279655098915	0.08587904274463654	0.0067368377931416035	-0.033314429223537445	-0.06302310526371002	0.13278120756149292	-0.009084346704185009	0.11329326033592224	-0.11980067938566208	-0.059199415147304535	0.21712522208690643	0.05792056396603584	0.0063507347367703915	-0.014624522998929024	-0.10799940675497055	0.10315798968076706	0.010724227875471115	-0.08292929083108902	0.0158486757427454	-0.230727881193161	-0.04081949219107628	0.09896500408649445	-0.0006307971780188382	0.009154760278761387	-0.05605896934866905	0.1240646168589592	0.0943438783288002	-0.09616413712501526	0.014226628467440605	-0.07093889266252518	0.012267191894352436	-0.0356910340487957	-0.04063798859715462	-0.02584722265601158	0.02418241836130619	-0.19648636877536774	-0.11246071755886078	-0.02163163758814335	-0.16271334886550903	0.13829456269741058	0.22685451805591583	0.09086830168962479	0.03387442231178284	0.0027036184910684824	0.06497763097286224	-0.004763677250593901	0.015889698639512062	0.11035670340061188	0.07115310430526733	0.06777933239936829	0.12591154873371124	-0.046449046581983566	0.015424929559230804	0.014309726655483246	0.02970551699399948	-0.0013246319722384214	0.23376096785068512	-0.08531550318002701	0.06970752030611038	0.016885673627257347	0.09720838069915771	-0.03232720121741295	0.2132912278175354	-0.13456442952156067	-0.10560815781354904	0.011350898072123528	-0.043090373277664185	-0.20088835060596466	-0.012058066204190254	-0.147731751203537	-0.08990754187107086	-0.06920374929904938	-0.03852972760796547	0.10373394191265106	0.0022050240077078342	0.140370175242424	-0.036284226924180984	-0.08881954848766327	-0.034734923392534256	0.002660342724993825	0.021298736333847046	0.16905653476715088	-0.11185922473669052	-0.011630669236183167	0.07951907813549042	-0.09614191949367523	-0.039686352014541626	-0.20450502634048462	-0.019016489386558533	0.03964497148990631	-0.007444747723639011	-0.0582522451877594	-0.07274972647428513	0.007451923564076424	-0.043788257986307144	0.013126220554113388	0.0875680223107338	-0.09849834442138672	-0.04029584676027298	-0.021094895899295807	0.03585221245884895	0.019371453672647476	-0.02533244527876377
bagh1251	0.07114305347204208	-0.011476170271635056	-0.05053236708045006	0.20885369181632996	-0.03305795416235924	-0.04518996179103851	-0.009336219169199467	-0.28990960121154785	-0.22286143898963928	-0.15563100576400757	0.060128744691610336	0.14720335602760315	-0.055394306778907776	0.14838063716888428	0.26194146275520325	-1.9144870748277754e-05	0.010494205169379711	-0.015245425514876842	-0.017023414373397827	-0.2149258852005005	0.10249768942594528	0.06797478348016739	0.1515703648328781	-0.12094008177518845	-0.07693841308355331	-0.07525485008955002	-0.20432361960411072	0.1418323963880539	-0.15738050639629364	-0.12533442676067352	-0.11742068827152252	-0.14249075949192047	-0.025463910773396492	-0.1991461217403412	0.25627052783966064	-0.3009481430053711	-0.013610686175525188	0.02246626280248165	-0.23224180936813354	-0.029250238090753555	0.027593867853283882	0.15286555886268616	-0.04163037985563278	0.02633802406489849	0.02071288600564003	-0.002860659034922719	-0.1010117381811142	0.02588239312171936	-0.0003380667476449162	0.21579863131046295	0.1719953715801239	-0.04101219028234482	0.04382333531975746	-0.021237798035144806	0.058877307921648026	0.1287461370229721	0.13378097116947174	0.04915891960263252	-0.014859671704471111	0.21364997327327728	-0.13453343510627747	-0.17525377869606018	0.00020205110195092857	0.1754325032234192	0.28158900141716003	0.288627952337265	0.008526149205863476	-0.0240583885461092	0.009405309334397316	0.15861864387989044	-0.1567254215478897	-0.003440961940214038	0.07286841422319412	0.17430676519870758	-0.01907898299396038	0.048685427755117416	0.12240075320005417	-0.08658259361982346	0.03507005795836449	-0.14694443345069885	0.025971829891204834	-0.02661227062344551	-0.15238386392593384	-0.017599230632185936	0.09872807562351227	0.1049380898475647	-0.1063704639673233	-0.11212002485990524	-0.045694947242736816	0.030754458159208298	-0.09019652009010315	-0.006210972089320421	0.07035314291715622	0.0015218062326312065	-0.14850448071956635	-0.2058442384004593	0.09776099026203156	0.01775132305920124	-0.07320325821638107	0.030585432425141335	0.0594271719455719	-0.12333963811397552	0.07558935880661011	-0.009818434715270996	-0.257159560918808	-0.06464856117963791	0.17495284974575043	0.07776440680027008	0.02275589294731617	-0.17179355025291443	-0.041096050292253494	0.0006422204314731061	0.04120633378624916	0.22812026739120483	0.07498457282781601	-0.07431796938180923	-0.1357409954071045	-0.2513486444950104	-0.04103756323456764	-0.03815537318587303	-0.008852330967783928	0.08507224917411804	-0.12696580588817596	0.05019990727305412	0.016028577461838722	-0.038623884320259094	0.06818626821041107	0.05945933610200882
beng1280	-0.09268250316381454	-0.11885473877191544	-0.06478535383939743	-0.08846519887447357	0.2375318855047226	0.007575384806841612	0.035390205681324005	-0.15016867220401764	-0.10104645043611526	-0.11450734734535217	-0.07993807643651962	-0.015433442778885365	-0.07310573756694794	-0.06565051525831223	-0.037723734974861145	0.01381946261972189	-0.1269875019788742	0.20715592801570892	0.06261448562145233	-0.18646422028541565	-0.053177930414676666	-0.034933194518089294	0.01948118954896927	0.000927816319745034	-0.15925708413124084	0.027685659006237984	0.0024987917859107256	0.013429796323180199	-0.027814609929919243	0.0381997749209404	0.028202027082443237	-0.014087039977312088	0.13238422572612762	-0.03274054080247879	0.067928746342659	-0.10983681678771973	-0.006909019313752651	-0.003613597946241498	-0.02222267910838127	-0.11636638641357422	0.11182013899087906	-0.12637445330619812	0.05483013391494751	-0.04860929399728775	-0.15363527834415436	-0.07946344465017319	0.15038421750068665	0.04585559293627739	0.010026844218373299	0.04596129059791565	-0.0863582119345665	0.0001613956701476127	-0.09307480603456497	-0.050850480794906616	-0.1048605889081955	-0.043408822268247604	0.03656814247369766	-0.08147776126861572	0.022964881733059883	-0.051133546978235245	-0.11958669871091843	0.13328790664672852	0.00721086747944355	0.14423345029354095	-0.04018289968371391	0.031043704599142075	0.059427786618471146	0.04084881767630577	0.03298000246286392	-0.13788679242134094	-0.06726089864969254	-6.972562550799921e-05	0.11192529648542404	0.04798229783773422	0.061627861112356186	-0.13977551460266113	0.015991335734725	0.009577440097928047	0.11556228995323181	-0.09014520049095154	0.07248697429895401	0.26242661476135254	-0.17643855512142181	-0.06997952610254288	0.11101170629262924	-0.028571752831339836	0.05503518879413605	-0.0029532313346862793	0.09866169840097427	0.11505663394927979	-0.026301734149456024	0.025879906490445137	-0.1618073582649231	0.007187615614384413	-0.03345765545964241	-0.22204263508319855	0.010237607173621655	0.04943453520536423	0.055251725018024445	-0.06474290788173676	0.13274560868740082	-0.09765254706144333	-0.008700650185346603	0.14446783065795898	0.17873749136924744	-0.00737889064475894	-0.12024194002151489	0.2212616205215454	-0.012309027835726738	0.07200142741203308	-0.15298067033290863	0.08289710432291031	-0.0786951333284378	0.03888486698269844	-0.10454296320676804	-0.09201379120349884	0.038408488035202026	0.16745148599147797	-0.0710802897810936	0.23982276022434235	0.03214104473590851	0.10496215522289276	-0.01928640529513359	0.042897891253232956	-0.0030654529109597206	-0.025942804291844368	-0.029700513929128647	0.010867436416447163
bhad1241	-0.039630595594644547	0.186577707529068	-0.19655638933181763	-0.03335178270936012	-0.11066022515296936	-0.07920635491609573	-0.1310601383447647	0.1143963411450386	-0.06989229470491409	0.14547891914844513	-0.10076241195201874	0.017948327586054802	-0.10893016308546066	0.14680396020412445	0.1476186364889145	-0.004554403480142355	0.21344171464443207	-0.1274435669183731	0.18103677034378052	0.0005186154739931226	0.13481613993644714	-0.06505145877599716	0.26875072717666626	-0.04500877484679222	0.3504544198513031	-0.03998761624097824	-0.06469512730836868	-0.09401371330022812	0.13588155806064606	-0.10131349414587021	0.13919566571712494	0.11892778426408768	-0.12088965624570847	0.059946589171886444	0.3982622027397156	-0.2522033751010895	0.004690865986049175	0.010655493475496769	-0.004312362987548113	0.06157451495528221	-0.16444258391857147	-0.09722182154655457	-0.16804532706737518	-0.03125210106372833	-0.04012768343091011	-0.043877024203538895	0.15232285857200623	0.10377351194620132	-0.006974874995648861	-0.08840007334947586	0.21315710246562958	-0.3757902681827545	-0.04184054955840111	-0.1061754897236824	-0.0008209605002775788	-0.004818052053451538	-0.0675797313451767	0.010031450539827347	-0.030138634145259857	0.19073602557182312	-0.04377865046262741	0.1427508145570755	-0.012025550939142704	-0.1984376460313797	-0.3491208255290985	-0.17643003165721893	-0.1306893676519394	0.1114392802119255	-0.1500917375087738	0.0040435572154819965	-0.14768297970294952	-0.015204153954982758	0.015011809766292572	-0.029194029048085213	0.1626501977443695	-0.03405625373125076	0.10561840981245041	0.07362217456102371	-0.012430085800588131	-0.11067161709070206	-0.15981322526931763	-0.0602758564054966	0.1971874237060547	0.059787455946207047	-0.19749689102172852	0.13424207270145416	0.15229226648807526	-0.15937909483909607	0.103115975856781	-0.14429359138011932	-0.01415066234767437	0.00193223066162318	0.09515596181154251	-0.01214655116200447	0.07937926054000854	-0.19888001680374146	0.13582217693328857	0.04739866033196449	0.11847810447216034	-0.0840151458978653	-0.07983550429344177	0.04164179414510727	0.18280433118343353	-0.17433148622512817	0.08183291554450989	0.054391179233789444	0.16011452674865723	-0.027335150167346	-0.028556684032082558	0.11198048293590546	-0.121160589158535	-0.06799107044935226	0.006073356606066227	0.02232798933982849	0.08206643909215927	0.2301279604434967	0.055675383657217026	0.27215057611465454	0.02903711050748825	-0.04564967751502991	-0.028853293508291245	-0.09007926285266876	-0.007688373792916536	-0.12465739250183105	-0.010556075721979141	-0.006420933175832033	0.1447409987449646	0.05503436550498009
bhal1244	-0.059956829994916916	0.10016126930713654	-0.09097836911678314	0.026753459125757217	0.05132121220231056	0.20924200117588043	-0.21586957573890686	0.13971272110939026	-0.10248509049415588	0.12163779884576797	-0.06546790897846222	-0.09963443875312805	-0.18964198231697083	-0.11016568541526794	-0.007682414725422859	0.0723155289888382	0.2924549877643585	0.055819690227508545	0.07571887969970703	0.020069142803549767	0.034738022834062576	-0.03119760937988758	0.08190958946943283	0.030027177184820175	0.23433561623096466	0.05893423408269882	-0.18724478781223297	-0.20538289844989777	0.19268743693828583	0.00671629561111331	0.009051735512912273	0.1349291354417801	0.03980931639671326	-0.11860769987106323	0.20046189427375793	0.05365896224975586	0.060471486300230026	-0.0008766078390181065	0.2532651424407959	0.031263142824172974	0.03873797878623009	-0.04029705375432968	-0.12409607321023941	-0.09179279953241348	0.08678225427865982	-0.07324288040399551	-0.04675622284412384	0.1383219063282013	0.08401146531105042	0.24323759973049164	0.08960875123739243	-0.3847094178199768	-0.30388063192367554	0.047483816742897034	0.0743706002831459	0.16732735931873322	0.19173693656921387	-0.10487109422683716	0.01981476880609989	-0.10615956783294678	-0.2588811218738556	0.1074364110827446	0.02161446586251259	-0.02414741925895214	-0.2773512005805969	-0.06477033346891403	0.018783532083034515	0.03160257637500763	-0.052589185535907745	0.29506370425224304	-0.07508761435747147	0.03057975322008133	-0.1926172524690628	-0.06004287302494049	-0.30385762453079224	0.10503485053777695	0.009162385016679764	-0.09103131294250488	0.15253865718841553	0.05096670240163803	-0.019803527742624283	-0.17801329493522644	0.3108345866203308	0.05314302816987038	0.008405335247516632	0.15010063350200653	0.15842965245246887	-0.029922636225819588	-0.14344578981399536	0.00791980605572462	0.08840013295412064	0.04581177234649658	-0.012889171950519085	0.06770984828472137	-0.292868047952652	-0.22388304769992828	0.04777655377984047	0.028547311201691628	0.16760382056236267	0.04068466275930405	0.006494641769677401	0.15687204897403717	0.044977590441703796	-0.0503021664917469	-0.04771532118320465	-0.038648296147584915	0.06547550857067108	0.20319563150405884	-0.0834939181804657	0.23121608793735504	0.23823928833007812	0.038999754935503006	0.12463849037885666	-0.0790313184261322	0.07142437994480133	0.09860432893037796	0.21789687871932983	0.04317128285765648	0.052064936608076096	-0.15834061801433563	-0.04751181975007057	-0.042208246886730194	-0.06927527487277985	-0.19161126017570496	0.007790836505591869	-0.04327094927430153	-0.0728505328297615	0.05254253000020981
bhoj1244	-0.11556188762187958	0.1754203587770462	-0.0006166449165903032	-0.2507268488407135	0.254821240901947	0.16446341574192047	-0.11928936094045639	0.015620008111000061	0.08202259242534637	-0.11092495173215866	-0.1010829359292984	0.0015264828689396381	0.16650572419166565	0.016693029552698135	0.10888077318668365	-0.10109947621822357	0.19205598533153534	-0.1987113654613495	-0.14056819677352905	0.03219745308160782	0.1436842978000641	0.03755826875567436	0.058720629662275314	0.13347841799259186	-0.2264082133769989	-0.016439251601696014	-0.2945595979690552	0.08203685283660889	0.14095570147037506	-0.08599957823753357	-0.07737988233566284	-0.13466496765613556	0.10001277923583984	-0.3525305390357971	0.25903674960136414	0.11644095182418823	0.02296438068151474	0.00048792033339850605	-0.13845543563365936	0.07290863245725632	-0.09764911234378815	0.07288997620344162	0.048365045338869095	0.018915235996246338	-0.011711258441209793	-0.19285765290260315	-0.017911992967128754	0.12718206644058228	-0.025482334196567535	0.14635303616523743	0.1170215830206871	-0.07281326502561569	-0.10806285589933395	-0.03502438962459564	0.08241281658411026	0.14183683693408966	-0.08134625107049942	-0.1771577149629593	0.06270778924226761	-0.025728190317749977	-0.08086089789867401	-0.1494005173444748	-0.012124640867114067	-0.02579311840236187	0.31659963726997375	-0.09856852144002914	0.16480182111263275	-0.063402459025383	0.30558478832244873	0.04042036086320877	0.07866973429918289	0.024955034255981445	0.45766496658325195	-0.06796100735664368	0.18563956022262573	-0.07778357714414597	0.09939005970954895	0.016611985862255096	0.03507540747523308	0.04018443450331688	-0.01587686687707901	0.31941697001457214	-0.31451117992401123	-0.04620062932372093	0.12639249861240387	-0.1738172173500061	-0.3862186074256897	-0.2473946213722229	-0.07393646240234375	0.04818129539489746	0.052833475172519684	-0.002703053643926978	0.1631668210029602	-0.06406115740537643	0.0632048100233078	-0.18380111455917358	-0.03971497341990471	-0.040594205260276794	0.12870939075946808	0.03487638011574745	-0.1636510044336319	-0.04531183838844299	0.1537187546491623	-0.18053068220615387	-0.09341701865196228	0.010118028149008751	0.20149590075016022	0.12301566451787949	0.02486375905573368	0.15917684137821198	0.1015646830201149	0.07226984947919846	0.08234559744596481	-0.03631890192627907	-0.24175116419792175	-0.038993000984191895	-0.12064702808856964	-0.0921161025762558	-0.08291365951299667	0.09908692538738251	-0.051002465188503265	0.04712735861539841	0.1927385926246643	0.0725855752825737	-0.007168213836848736	0.11298249661922455	-0.30491986870765686	0.07714366167783737
braj1242	-0.06815820932388306	0.13198183476924896	-0.41409456729888916	0.20565693080425262	0.2801741659641266	-0.3514290153980255	0.04333190992474556	-0.0692010372877121	-0.15483561158180237	-0.18799835443496704	0.05695429444313049	0.10920171439647675	0.020481063053011894	-0.26395079493522644	-0.08879157155752182	-0.18472178280353546	0.1318584829568863	-0.3913542330265045	0.0496676042675972	-0.19606779515743256	-0.09144696593284607	-0.2857225239276886	0.07554091513156891	0.15653660893440247	-0.29408037662506104	0.2551615536212921	-0.4870270788669586	0.12244350463151932	0.12033692002296448	-0.25754302740097046	-0.003704949514940381	-0.015877628698945045	-0.008548467420041561	-0.01671578176319599	0.033338334411382675	-0.18611285090446472	0.2394520342350006	0.09252059459686279	-0.13379432260990143	-0.20339632034301758	0.06382190436124802	0.033446233719587326	-0.2882910370826721	0.16701601445674896	0.06557562947273254	-0.11590922623872757	-0.13704825937747955	0.0012599023757502437	0.07068634778261185	0.2541917562484741	0.45377933979034424	0.17334385216236115	0.01337447389960289	-0.04248429089784622	-0.18320544064044952	-0.2664226293563843	0.2114861160516739	0.010302381590008736	-0.04693029820919037	0.29240942001342773	0.042441897094249725	-0.013965004123747349	-0.014833570457994938	0.036069195717573166	0.256039023399353	-0.21813519299030304	-0.1535550206899643	0.13093025982379913	-0.24488680064678192	0.017210671678185463	0.031026996672153473	-0.06365909427404404	0.21720370650291443	-0.05086466670036316	-0.009327988140285015	-0.319366991519928	0.15905776619911194	-0.009938882663846016	0.03287747502326965	0.24942193925380707	0.25283434987068176	-0.10819673538208008	0.05653407797217369	0.17500533163547516	0.14587001502513885	0.08826736360788345	-0.24533583223819733	-0.1547011435031891	0.1372976452112198	0.1855931431055069	-0.006546167656779289	-0.21154411137104034	0.19504281878471375	0.07237699627876282	-0.23769265413284302	0.17572177946567535	-0.11183849722146988	0.0929652750492096	0.17757374048233032	-0.022472864016890526	-0.22616226971149445	-0.2605420649051666	-0.03152334690093994	0.08341754972934723	-0.2468845397233963	-0.06627874076366425	0.41915953159332275	-0.5088230967521667	-0.2416132688522339	0.008339843712747097	0.18475466966629028	0.034968506544828415	0.052757661789655685	-0.10249064862728119	0.04283345863223076	0.10433948785066605	0.20062556862831116	-0.047272901982069016	0.2551005184650421	0.053691137582063675	-0.12081564962863922	-0.11164306849241257	0.044752299785614014	0.03594706952571869	-0.03663937747478485	-0.0019300044514238834	0.16138285398483276	-0.07665281742811203
cham1307	0.12411721050739288	0.07835867255926132	0.13772733509540558	0.07264451682567596	-0.03272966668009758	0.4867718517780304	-0.2892654240131378	-0.19271069765090942	0.353529155254364	-0.18523672223091125	0.10275503993034363	-0.30461135506629944	-0.3228348195552826	0.1036127507686615	0.33397120237350464	0.3381112813949585	0.04293297231197357	-0.04276364669203758	-0.0811711922287941	-0.20569024980068207	0.183585524559021	-0.014809579588472843	-0.20415717363357544	0.47880592942237854	0.07501732558012009	-0.04326452687382698	0.2824092507362366	0.013145620003342628	0.34282803535461426	-0.4842466413974762	0.08017101138830185	-0.0876348614692688	-0.2140326052904129	0.35843271017074585	-0.09857186675071716	-0.3116997480392456	0.025924699380993843	-0.03294936567544937	-0.287519246339798	-0.06466230005025864	-0.14874465763568878	-0.010905235074460506	-0.06159961223602295	-0.18876221776008606	-0.052554547786712646	-0.008415501564741135	0.2047307938337326	-0.17920412123203278	0.03786775842308998	-0.14046551287174225	-0.17544448375701904	-0.26908472180366516	-0.0038570892065763474	0.2131555825471878	-0.1552322506904602	0.003983404487371445	0.23143573105335236	0.044888053089380264	-0.01911817118525505	0.28715041279792786	-0.05710284411907196	0.2710157632827759	0.01540037989616394	-0.3266458511352539	-0.15623342990875244	0.06980109959840775	-0.31554004549980164	0.14060662686824799	0.22001656889915466	0.08567484468221664	-0.22880063951015472	0.052485182881355286	-0.3355675935745239	-0.23787616193294525	-0.31227076053619385	-0.08102716505527496	0.06819681823253632	0.1398509442806244	-0.06305781751871109	-0.4623832702636719	0.030813349410891533	0.10115663707256317	0.1871422529220581	0.22925981879234314	-0.2513207495212555	0.033902209252119064	-0.15163762867450714	0.07472236454486847	0.047219712287187576	0.1102452203631401	0.32812824845314026	-0.1257242113351822	-0.07082901149988174	-0.040522411465644836	-0.01705590821802616	0.17976373434066772	-0.04647810757160187	0.04002945125102997	-0.1356165111064911	-0.2749033272266388	0.134893998503685	0.0034511478152126074	-0.28241077065467834	-0.24978545308113098	-0.2207263559103012	-0.009305443614721298	-0.15802176296710968	-0.2284807413816452	-0.3935469090938568	-0.11194510757923126	-0.225880429148674	-0.12105649709701538	0.41517317295074463	0.21357816457748413	0.09205149114131927	0.08838574588298798	-0.30898982286453247	0.023271121084690094	0.1222931295633316	0.12618504464626312	-0.05541398003697395	-0.24439260363578796	0.17209111154079437	0.0030613120179623365	0.02037915028631687	0.0893811360001564	0.024628207087516785	-0.005521050654351711
chur1258	-0.12983620166778564	-0.12928324937820435	-0.16998499631881714	-0.10906635224819183	0.2759566605091095	0.2814643681049347	0.17267099022865295	-0.09717284142971039	0.302616685628891	-0.20778930187225342	-0.15940511226654053	-0.3093508780002594	-0.15503425896167755	0.020616378635168076	0.32125645875930786	0.102351114153862	0.1735410988330841	0.08403049409389496	-0.22037994861602783	-0.009039378724992275	0.17943182587623596	0.06286019831895828	0.23277178406715393	-0.01641702651977539	0.3145930767059326	0.10575855523347855	0.07317081093788147	-0.22212235629558563	0.08916880190372467	-0.47807782888412476	0.20739015936851501	-0.0833633616566658	-0.019369732588529587	0.35755592584609985	-0.04137056693434715	0.15187205374240875	0.313622385263443	-0.004090487491339445	-0.03805648162961006	0.18137098848819733	-0.3319152593612671	-0.18090704083442688	-0.060051314532756805	-0.06605227291584015	0.12871070206165314	0.03554455563426018	-0.006681859027594328	0.08532960712909698	-0.020374594256281853	-0.2567739486694336	0.11801046878099442	-0.17674069106578827	-0.10137595981359482	-0.18965467810630798	0.25660353899002075	-0.01479815412312746	0.09889765828847885	0.08885195851325989	0.04109826311469078	0.16680455207824707	0.08633489906787872	-0.09146596491336823	-0.0001527313725091517	-0.019524112343788147	-0.2121870368719101	0.18492774665355682	-0.3088773488998413	-0.10957863181829453	-0.02403685636818409	0.13677483797073364	0.04064210504293442	-0.047111235558986664	0.10056629776954651	-0.06280776113271713	0.3416568338871002	0.13824579119682312	-0.05361993610858917	-0.04408619925379753	-0.07906371355056763	-0.3116416037082672	-0.041804369539022446	0.10571817308664322	0.23211079835891724	-0.342939168214798	-0.06794701516628265	0.3182009756565094	0.14178572595119476	0.156369149684906	0.2627803683280945	-0.23859155178070068	0.19765374064445496	0.10078295320272446	0.2392916977405548	0.05200108513236046	0.19193148612976074	-0.01298429910093546	-0.13068901002407074	0.24102678894996643	-0.1907515823841095	-0.10108446329832077	0.11033718287944794	-0.15783914923667908	0.03491899371147156	-0.08842919766902924	0.037172362208366394	0.08614747226238251	0.2367633432149887	0.02576478384435177	-0.12958231568336487	-0.08975306153297424	-0.2279907613992691	-0.09402462840080261	0.2752651870250702	0.06462123990058899	0.03639531508088112	0.13160885870456696	-0.014788917265832424	0.16146127879619598	0.029915442690253258	0.2470506727695465	0.01686731167137623	-0.06510356068611145	0.07380043715238571	-0.2941981256008148	-0.023371443152427673	0.08093932271003723	0.08377514034509659	-0.09221125394105911
dame1241	0.04985682666301727	0.012141363695263863	-0.08887816965579987	-0.13746294379234314	-0.3676947355270386	-0.04098440706729889	0.0273430198431015	-0.21561622619628906	0.04449773207306862	0.233281672000885	0.08587884157896042	-0.2014876902103424	0.32200729846954346	-0.4268001616001129	0.055393464863300323	0.11539997905492783	0.004016342107206583	-0.18166302144527435	-0.2266053408384323	0.06263791769742966	0.14873789250850677	-0.02108248695731163	-0.049266401678323746	0.057531651109457016	0.2821931540966034	0.04717307537794113	-0.04098324477672577	0.25270646810531616	0.11217740923166275	-0.1949891299009323	0.14590217173099518	-0.0715918093919754	0.012518140487372875	0.16945654153823853	0.19804397225379944	-0.058286309242248535	-0.08252748847007751	-0.018819330260157585	-0.13106495141983032	0.21599867939949036	0.07062235474586487	0.09753918647766113	0.21655131876468658	0.08249033987522125	-0.18927793204784393	-0.12015602737665176	-0.004896785132586956	0.20933066308498383	0.05142310634255409	-0.29942789673805237	0.07170585542917252	0.007545687258243561	0.2946447730064392	0.033001940697431564	-0.16066226363182068	-0.1219896674156189	0.11594554781913757	0.21893055737018585	0.0617961548268795	0.1690775603055954	-0.17762966454029083	-0.07797084003686905	-0.015824593603610992	0.16884298622608185	-0.13178886473178864	0.20062929391860962	0.18212036788463593	-0.10044492036104202	0.0054626790806651115	0.1065765917301178	-0.029072437435388565	0.007051564287394285	0.05291174724698067	-0.1286265105009079	-0.031418681144714355	-0.16077882051467896	0.02309349738061428	0.06031222268939018	0.1312098652124405	-0.0521056242287159	-0.08893480151891708	0.228566974401474	0.20146727561950684	0.14126288890838623	0.005471071228384972	-0.0606670118868351	0.01500493474304676	0.1347547024488449	-0.2649769186973572	0.030504005029797554	0.05550836771726608	0.04875125363469124	0.09492558240890503	0.015478651039302349	-0.2824091613292694	-0.28342974185943604	-0.07447157055139542	0.04524938389658928	0.34627753496170044	0.01198984682559967	-0.3742051422595978	0.19593192636966705	-0.03122219257056713	0.11684864014387131	-0.1914924532175064	-0.007048319093883038	-0.11162001639604568	0.07629338651895523	0.046553391963243484	0.029682409018278122	-0.11529862880706787	0.17218148708343506	0.09877321869134903	0.07207095623016357	0.031256407499313354	-0.13776364922523499	0.10561645776033401	0.1972164362668991	-0.19292141497135162	-0.018572643399238586	0.028294311836361885	0.07692920416593552	-0.03574052453041077	0.30033212900161743	-0.013157535344362259	0.05930672958493233	0.18578563630580902	-0.06066770479083061
dhiv1236	-0.008062874898314476	0.03614364564418793	0.01667153090238571	0.2986525297164917	-0.030468618497252464	0.0796302855014801	-0.11559159308671951	0.16254964470863342	0.24566075205802917	-0.18929164111614227	-0.11476241797208786	-0.040974490344524384	0.14040745794773102	-0.34127238392829895	0.25635939836502075	-0.15155915915966034	-0.07571783661842346	0.15302057564258575	0.14956563711166382	0.259419709444046	0.1751205325126648	0.016143236309289932	-0.2405444234609604	-0.16913484036922455	-0.07754173874855042	-0.020468778908252716	0.1790759116411209	-0.04430155083537102	-0.07669252902269363	0.0357486829161644	0.3029607832431793	0.002982768230140209	0.07983794063329697	0.20340073108673096	-0.4728594720363617	-0.20993633568286896	-0.07466386258602142	-0.011510556563735008	-0.04484046250581741	-0.06663431227207184	0.036432329565286636	0.28120556473731995	0.273157000541687	-0.14786100387573242	0.032030824571847916	0.05193217471241951	0.14147616922855377	0.03623569384217262	-0.02407968044281006	0.12572313845157623	-0.01880037598311901	0.19230005145072937	-0.33438119292259216	-0.052967369556427	-0.10557045787572861	0.17508476972579956	-0.23228207230567932	0.01257180143147707	0.022573528811335564	-0.20530658960342407	-0.13590946793556213	-0.37472185492515564	0.005529811605811119	0.15916584432125092	-0.19974374771118164	-0.1514771431684494	-0.1584261953830719	0.001415744423866272	-0.30222317576408386	0.15977035462856293	0.15185436606407166	-0.05786403268575668	-0.029985763132572174	0.1348922699689865	0.11260323971509933	-0.12415532767772675	-0.07462505996227264	-0.0029485411942005157	0.008098640479147434	0.24999640882015228	0.2089441418647766	0.1812344640493393	0.17313340306282043	-0.07554817199707031	0.12216731905937195	0.15870986878871918	-0.06338192522525787	0.3849603235721588	-0.13289831578731537	0.10384216904640198	-0.17302896082401276	0.048178546130657196	-0.34337887167930603	-0.004891734104603529	0.255464643239975	0.10310627520084381	0.1549852043390274	0.04617787152528763	-0.12354589998722076	0.01605578139424324	-0.28336113691329956	0.03840060159564018	-0.13577349483966827	-0.03259210288524628	0.18586163222789764	-0.09209783375263214	-0.018749715760350227	0.07401290535926819	-0.03645257651805878	-0.19295169413089752	0.027886908501386642	-0.4430406093597412	-0.23025891184806824	-0.1332044154405594	-0.06779806315898895	0.05075792223215103	-0.1573178917169571	-0.3046981990337372	0.039627548307180405	0.10366861522197723	-0.04972459375858307	-0.14725270867347717	-0.10567968338727951	0.1921578198671341	-0.012278213165700436	-0.1766052395105362	-0.20684948563575745	-0.13129685819149017
doma1260	0.13330872356891632	-0.05584608018398285	0.10907386988401413	0.14728139340877533	-0.13986551761627197	0.18250888586044312	0.4480438530445099	-0.13447512686252594	0.2065296173095703	0.39119237661361694	-0.16018210351467133	-0.23706522583961487	0.2309284657239914	-0.37892916798591614	0.38890689611434937	0.3982844352722168	0.05612586811184883	0.1626194715499878	-0.03221014514565468	0.09168020635843277	0.1945611834526062	0.1177014410495758	-0.040387216955423355	0.6372338533401489	0.1863352209329605	-0.07115951180458069	-0.01714365929365158	0.02930181473493576	0.03531525656580925	0.19562149047851562	-0.10210400819778442	0.04752868786454201	0.284308522939682	0.2344801127910614	-0.28193768858909607	-0.30938220024108887	0.04490158334374428	0.01971493661403656	0.04331512004137039	-0.16716134548187256	-0.1666475087404251	-0.06879717856645584	0.1787809282541275	-0.09849262982606888	0.02148718386888504	0.050483088940382004	0.07286792993545532	0.3477994501590729	0.059934549033641815	0.011806892231106758	-0.18298842012882233	-0.1621544361114502	-0.08384401351213455	0.12942387163639069	0.06858878582715988	-0.0011945442529395223	-0.3998207747936249	-0.052996788173913956	-0.028129087761044502	0.19296418130397797	0.2011221945285797	0.3273790776729584	0.0033008840400725603	0.03394540026783943	0.3823673725128174	0.003992327488958836	-0.12933087348937988	0.001975263934582472	-0.22588704526424408	0.16002395749092102	0.2048192173242569	0.10210663825273514	-0.3349345624446869	0.3625023066997528	-0.2773536145687103	-0.165014386177063	-0.015502487309277058	-0.33149728178977966	0.05917472019791603	0.117393359541893	0.2347927689552307	-0.13455703854560852	0.1617058366537094	-0.25397834181785583	0.08158410340547562	-0.1278809905052185	0.10749047994613647	-0.13656647503376007	0.05688534304499626	0.036785025149583817	-0.407381147146225	-0.18968497216701508	-0.274772971868515	0.03066142089664936	-0.11107521504163742	0.21221037209033966	0.1897527575492859	-0.14555053412914276	-0.05592481419444084	-0.06910791993141174	-0.07902219891548157	0.05062415823340416	-0.027381040155887604	0.060666926205158234	0.08341103047132492	-0.04830365255475044	0.0851547122001648	-0.16392460465431213	-0.036215975880622864	-0.19977736473083496	0.2548339366912842	0.23123356699943542	-0.020413625985383987	0.18649505078792572	-0.38862529397010803	-0.26046913862228394	0.05242032930254936	0.0669703409075737	0.02391965314745903	0.28984007239341736	0.048614948987960815	-0.4225074052810669	-0.09662136435508728	-0.004170686472207308	0.017263004556298256	-0.13878406584262848	0.05502207949757576	-0.11173024028539658
gang1265	-0.07958804816007614	0.048051849007606506	0.2383425384759903	-0.026467792689800262	0.052342627197504044	-0.004519113805145025	-0.029601721093058586	-0.19511869549751282	0.028638457879424095	-0.06458474695682526	-0.19696259498596191	0.19654084742069244	0.14317326247692108	0.2853768467903137	0.017237847670912743	0.1850978136062622	-0.07280395179986954	0.044428132474422455	-0.1941167563199997	-0.23859219253063202	-0.1503877341747284	-0.05628012493252754	0.09084241837263107	0.260263055562973	0.13583862781524658	-0.047874949872493744	-0.006948370486497879	0.09912429749965668	0.2861616909503937	0.02531374804675579	0.08787568658590317	-0.1645960956811905	0.09240331500768661	-0.09873709827661514	0.45513686537742615	-0.320697158575058	0.09445637464523315	-0.02149834856390953	-0.08369728177785873	0.22556722164154053	0.09359567612409592	0.08966022729873657	0.14101116359233856	-0.03361295536160469	-0.2183256596326828	-0.07794111967086792	0.011272081173956394	0.17478688061237335	0.18033462762832642	0.16471998393535614	0.19059747457504272	0.19614048302173615	-0.031934987753629684	-0.033836480230093	0.09290099143981934	0.047693490982055664	-0.003907454200088978	-0.08140531927347183	0.017927095293998718	0.1937618851661682	0.18464180827140808	0.07980471849441528	-0.03580246493220329	0.008564863353967667	0.17839890718460083	0.29172664880752563	0.011964677833020687	-0.1719978004693985	0.019687725231051445	-0.09485604614019394	0.19436520338058472	0.06281551718711853	0.2903241813182831	0.014881039969623089	0.15216250717639923	-0.16829931735992432	-0.02986481785774231	-0.02600106969475746	0.023643216118216515	0.17483559250831604	0.08536805212497711	0.07428640127182007	0.05961693823337555	0.07308747619390488	0.24728603661060333	-0.009251110255718231	-0.03527217358350754	0.2979484498500824	-0.14463701844215393	-0.035808756947517395	-0.14591707289218903	-0.06268621981143951	0.21452002227306366	0.022967951372265816	0.23900197446346283	0.10489082336425781	0.07528126984834671	-0.04614812135696411	0.29205867648124695	0.059204161167144775	0.15304052829742432	-0.1403263509273529	-0.1029731035232544	0.08058779686689377	0.020963195711374283	0.058623142540454865	0.023636609315872192	-0.12693136930465698	-0.00993561651557684	0.05755649134516716	0.09280689805746078	0.22610348463058472	-0.1082303524017334	-0.003762810258194804	0.024748342111706734	0.024394961073994637	-0.08972128480672836	-0.19131794571876526	0.023365957662463188	0.02727559395134449	0.11709526926279068	-0.20174740254878998	0.13078844547271729	0.07785093784332275	0.031146995723247528	0.13482660055160522	0.013560152612626553	-0.004937630146741867
garh1243	-0.23656290769577026	0.07282373309135437	0.1581837385892868	-0.1280059814453125	-0.045977815985679626	-0.1096816137433052	-0.2434941679239273	-0.290668785572052	-0.028979886323213577	-0.33010926842689514	0.06251873075962067	-0.026908021420240402	0.026543036103248596	0.5429425835609436	-0.09744708985090256	0.07174092531204224	-0.11694763600826263	0.13177624344825745	0.2525883913040161	-0.08295657485723495	-0.17953035235404968	-0.11318445205688477	-0.16245360672473907	0.06230534240603447	0.08501235395669937	0.07039123773574829	0.01823035068809986	-0.2577783763408661	-0.10430308431386948	-0.16676943004131317	-0.10634607076644897	-0.01892801560461521	-0.0057748365215957165	-0.1989503651857376	-0.19517141580581665	0.10777430236339569	0.018906906247138977	0.019917234778404236	0.2736368775367737	-0.24743768572807312	0.06796430051326752	0.011021795682609081	0.05822208151221275	-0.18990108370780945	-0.15350104868412018	0.07219620794057846	0.06948845833539963	0.03173202648758888	0.021587327122688293	0.022936606779694557	0.31748145818710327	-0.15202398598194122	0.2009515017271042	0.12732332944869995	-0.05384738743305206	0.31843656301498413	-0.3065490424633026	-0.006371707655489445	-0.0798860639333725	0.018775762990117073	-0.046368956565856934	0.07120444625616074	-0.005808488465845585	0.11242759227752686	-0.14416560530662537	-0.3188702464103699	-0.09491291642189026	-0.15656134486198425	-0.008963636122643948	-0.21600230038166046	-0.01607709564268589	0.07294312119483948	0.010527495294809341	-0.12630000710487366	0.07021762430667877	-0.14600270986557007	-0.1179383248090744	-0.014161931350827217	-0.08819276094436646	-0.19067241251468658	-0.1520131677389145	-0.06608422100543976	0.02601204439997673	0.0744219496846199	-0.0014863472897559404	0.15542928874492645	-0.24247364699840546	0.022536832839250565	-0.049515966325998306	-0.12513814866542816	0.20930233597755432	-0.05999128147959709	0.14131203293800354	-0.032192837446928024	0.022707296535372734	0.029485005885362625	-0.049064669758081436	0.05407356470823288	-0.23779624700546265	0.012180688790977001	-0.2182624191045761	-0.18137121200561523	-0.2489933967590332	-0.1773676723241806	0.026995088905096054	-0.04692873731255531	-0.2041836827993393	-0.0619843527674675	0.08593592792749405	-0.0803578570485115	0.28912580013275146	-0.09858857840299606	0.17179282009601593	-0.15094952285289764	0.14770609140396118	-0.09644987434148788	0.0076368809677660465	0.13549983501434326	-0.07854393869638443	-0.12030672281980515	0.00973481684923172	-0.20367217063903809	0.01275639422237873	-0.12513135373592377	-0.02038898691534996	-0.2162289321422577	0.18330256640911102	0.0429241806268692
gawa1247	0.122078537940979	0.00039551284862682223	-0.1688302755355835	0.21276964247226715	-0.347526490688324	-0.026818061247467995	-0.09541691094636917	0.40485838055610657	-0.10893101990222931	0.10324239730834961	-0.028570475056767464	-0.024164116010069847	0.35924816131591797	-0.32438674569129944	0.23059064149856567	0.21972939372062683	-0.16708436608314514	-0.06301434338092804	-0.08506004512310028	-0.10398051142692566	-0.05749884620308876	0.2632574737071991	0.14064373075962067	0.016621941700577736	0.22876030206680298	0.005382285453379154	-0.03319144994020462	0.12018261849880219	0.13406695425510406	0.043424930423498154	0.008953395299613476	0.021730104461312294	0.1337505578994751	0.17367452383041382	-0.11351542174816132	0.04313988238573074	-0.05976499989628792	-4.2720523197203875e-05	0.049246057868003845	-0.08793618530035019	-0.007714677602052689	0.12518326938152313	-0.2249085009098053	-0.26136577129364014	-0.21673882007598877	0.06996391713619232	-0.12416253983974457	0.19606518745422363	0.013414079323410988	0.12448431551456451	0.01701744645833969	-0.1592000424861908	0.18683531880378723	0.11103472858667374	0.08490743488073349	-0.11976906657218933	0.009247766807675362	-0.06629139184951782	-0.11377297341823578	0.16050827503204346	-0.05555763468146324	-0.14755213260650635	-0.02098226733505726	-0.09397552162408829	-0.08304274082183838	0.17385494709014893	0.02233096957206726	0.1867159605026245	-0.29254305362701416	-0.3084767758846283	-0.0029954209458082914	0.02505437657237053	-0.05258260294795036	0.08193090558052063	0.08325126022100449	0.13453643023967743	-0.0964263379573822	0.13878783583641052	-0.21620529890060425	-0.15710918605327606	0.04899891838431358	0.3816121518611908	0.15122704207897186	0.04179774597287178	-0.044627778232097626	-0.19046251475811005	0.11584681272506714	-0.11674907803535461	-0.04907267540693283	-0.2588267922401428	0.12561435997486115	-0.05040314793586731	-0.0413532629609108	-0.033395856618881226	-0.2076546847820282	0.028127949684858322	-0.2113143652677536	0.0880209282040596	-0.033279333263635635	0.1392122358083725	0.04797627031803131	0.16863811016082764	0.2994256913661957	0.015691468492150307	-0.08511344343423843	-0.04038144275546074	-0.09947749227285385	0.13917754590511322	-0.035841863602399826	-0.03993334248661995	-0.17661485075950623	0.13927924633026123	-0.01659305766224861	-0.17606954276561737	0.12405228614807129	0.022115185856819153	-0.008675447665154934	0.17458632588386536	-0.03767559304833412	-0.2947777211666107	-0.13672339916229248	0.017461176961660385	0.136436328291893	0.17460815608501434	0.022613942623138428	-0.1722298264503479	-0.05047645792365074	0.12036297470331192
guja1252	-0.07542262226343155	-0.016596393659710884	0.01597350835800171	0.020450960844755173	0.1570451855659485	-0.11274934560060501	-0.01710529252886772	-0.08914007991552353	0.2240433543920517	-0.25185757875442505	-0.02963118627667427	0.19360005855560303	-0.1393250674009323	0.34589311480522156	-0.09730931371450424	0.10449793189764023	-0.016275208443403244	-0.025593606755137444	0.02029171958565712	-0.04533860459923744	-0.13499602675437927	-0.0611182376742363	-0.004917647689580917	-0.12637904286384583	-0.17463606595993042	-0.002030509291216731	0.07946033030748367	0.024409299716353416	0.05800943449139595	-0.03333323076367378	0.09522432088851929	-0.03392113000154495	0.12365052103996277	-0.11190363764762878	0.06276506930589676	0.17957675457000732	0.011663325130939484	0.0023729053791612387	0.056581370532512665	-0.05333581566810608	0.029193870723247528	0.027863305062055588	0.055789679288864136	0.025096789002418518	0.07543568313121796	0.023718802258372307	0.08292017877101898	0.057951100170612335	0.011991378851234913	-0.11193328350782394	0.05369284376502037	-0.033139392733573914	0.18227683007717133	-0.013973131775856018	0.10064848512411118	-0.09090030193328857	-0.12306266278028488	0.01716698333621025	0.004677850753068924	-0.11015661060810089	0.14978136122226715	-0.018018122762441635	-0.00028481060871854424	0.0427863709628582	-0.095316581428051	-0.11972329765558243	-0.048463162034749985	0.02975302003324032	0.07432427257299423	-0.028102999553084373	0.05836579576134682	-0.023657606914639473	-0.068114273250103	-0.08624546229839325	-0.0911300778388977	0.06742607057094574	0.008809875696897507	0.038093823939561844	0.0016525096725672483	0.09656902402639389	0.005249026231467724	-0.0930245891213417	0.02635510265827179	0.015834469348192215	-0.06487618386745453	0.040124259889125824	0.11471322923898697	-0.12559282779693604	0.07179444283246994	-0.04723126068711281	0.004326482769101858	0.004763819742947817	-0.03432708606123924	0.011723192408680916	-0.05510418489575386	-0.033402781933546066	-0.008088456466794014	-0.04811881110072136	-0.08964955061674118	-0.05855041742324829	-0.10927042365074158	0.15113575756549835	-0.04749482870101929	0.03325094282627106	0.016104593873023987	-0.005028978921473026	0.050466183573007584	0.03453533351421356	0.01253693737089634	-0.00545351579785347	-0.00922293309122324	0.041987527161836624	-0.029857700690627098	0.025451086461544037	-0.047654926776885986	0.007843781262636185	-0.005973766557872295	-0.06206247955560684	0.0640985369682312	-0.04861200600862503	-0.014137421734631062	0.168989896774292	-0.007716945372521877	0.12011948972940445	0.007815039716660976	0.049999166280031204	-0.015951121225953102	0.05473725497722626
hind1269	-0.06063627079129219	-0.07657638192176819	-0.06529994308948517	-0.12267739325761795	0.06914165616035461	-0.014224163256585598	0.09769697487354279	-0.01260392926633358	0.12176067382097244	-0.14435987174510956	-0.04594839736819267	0.08566387742757797	-0.042638394981622696	0.12491109222173691	0.020188042894005775	-0.16426189243793488	0.15347996354103088	-0.05099889636039734	-0.038560912013053894	-0.28042593598365784	0.04290970414876938	0.016212617978453636	-0.0025391639210283756	0.08173469454050064	0.10714508593082428	0.027869505807757378	-0.04261806979775429	-0.027641454711556435	-0.061329491436481476	-0.007762867026031017	-0.18695013225078583	0.01921825483441353	-0.03898721933364868	-0.17328444123268127	0.030740447342395782	-0.16122424602508545	0.02911311201751232	0.00013073621084913611	-0.03434634208679199	-0.07577752321958542	0.00499955378472805	0.026503639295697212	0.029932880774140358	0.0387808196246624	-0.014973175711929798	-0.02811911143362522	0.03236910328269005	-0.12367525696754456	-0.010720192454755306	-0.03745672106742859	-0.06911956518888474	0.07278277724981308	-0.01887541636824608	0.0032790694385766983	0.028420375660061836	-0.04187555983662605	0.01746450550854206	-0.031614527106285095	-0.008326491340994835	-0.08067335188388824	-0.005210359580814838	0.009535854682326317	0.010424869135022163	0.004245448857545853	0.14822112023830414	0.12869374454021454	0.002446430968120694	-0.023480171337723732	0.043252479285001755	0.012866202741861343	0.03074231930077076	-0.0062495325691998005	-0.02916628122329712	-0.020543072372674942	-0.02327713370323181	-0.0843791738152504	-0.03332575410604477	0.025805212557315826	0.018490198999643326	-0.007396126165986061	-0.016390908509492874	0.09240555763244629	-0.14576639235019684	-0.00823584757745266	-0.02545432560145855	-0.021329203620553017	-0.11494924128055573	0.17836463451385498	0.05842401832342148	0.032464414834976196	0.005503516178578138	-0.00697563961148262	0.06962386518716812	0.00258163851685822	-0.10358107835054398	-0.05993135645985603	-0.006556651555001736	-0.03141305223107338	0.0977867990732193	0.024799099192023277	-0.06135948374867439	0.07200851291418076	-0.037867818027734756	0.06648826599121094	-0.016235854476690292	0.004989988170564175	-0.008162235841155052	-0.07573052495718002	-0.021303534507751465	-0.05132522061467171	-0.058405645191669464	-0.04802454635500908	0.005534627940505743	0.08821401000022888	-0.0022448422387242317	0.007489335257560015	0.056855179369449615	-0.06929653882980347	0.04987026005983353	0.0035686995834112167	-0.034550316631793976	-0.04698172211647034	0.03376412019133568	-0.04663735255599022	0.0012176334857940674	-0.0014142108848318458	-0.01602667197585106	-0.04921954870223999
indu1241	-0.13792885839939117	0.012725629843771458	-0.02048550732433796	0.018717221915721893	-0.3849264681339264	0.07701478898525238	0.06822609156370163	0.10507423430681229	-0.10236143320798874	0.1306484192609787	-0.04561209678649902	-0.1570446938276291	0.1799006462097168	-0.07717932015657425	0.06624460965394974	0.22507250308990479	-0.20704063773155212	0.07152616232633591	0.11165837943553925	0.20423908531665802	0.22313836216926575	0.07864917814731598	0.16247837245464325	0.17635351419448853	0.06924720108509064	-0.0024389030877500772	-0.22057108581066132	0.02451341412961483	-0.2375539094209671	-0.12012536078691483	0.2394239753484726	0.030161235481500626	-0.20565767586231232	0.33795657753944397	0.21208849549293518	0.1616603434085846	-0.3166147470474243	-0.028254155069589615	-0.05460008978843689	-0.15531617403030396	-0.10000049322843552	-0.20508217811584473	-0.31796738505363464	-0.3502275347709656	-0.07030202448368073	0.017785748466849327	0.2347869575023651	0.21414142847061157	-0.030815036967396736	0.0695924460887909	-0.15537908673286438	-0.05895505100488663	0.01245484221726656	0.06721454113721848	0.05759643018245697	0.03540030121803284	-0.015375642105937004	-0.1775052845478058	0.13242881000041962	0.18322211503982544	-0.23964320123195648	-0.07899279147386551	0.03126966580748558	0.021451398730278015	-0.21625687181949615	-0.05796373635530472	0.1338047981262207	0.07886162400245667	-0.17952236533164978	-0.09061235934495926	0.005761036649346352	0.06068882346153259	-0.12019038200378418	-0.041890691965818405	0.5055803656578064	0.02581200562417507	0.05205465108156204	-0.26482251286506653	0.027525246143341064	0.2414800226688385	-0.05322078615427017	-0.013264758512377739	-0.3277337849140167	-0.06071969494223595	-0.07114064693450928	-0.14129595458507538	-0.01432078517973423	-0.16266922652721405	-0.07682758569717407	0.05533896014094353	0.006891143042594194	0.09806711226701736	-0.007729117292910814	0.06632959842681885	0.11463513225317001	-0.08561182022094727	-0.042657554149627686	-0.21192236244678497	0.19218024611473083	-0.14162316918373108	-0.11132807284593582	-0.10660345107316971	0.12321305274963379	0.12351606786251068	-0.3051382899284363	0.18031784892082214	0.07577330619096756	-0.07157301157712936	-0.347103089094162	-0.2779727876186371	-0.32187896966934204	0.2290675938129425	0.14310915768146515	-0.4025193750858307	-0.09745381027460098	0.05743059515953064	-0.09028322994709015	-0.27988889813423157	-0.08244788646697998	-0.21107181906700134	0.09599269181489944	-0.019184252247214317	-0.19459396600723267	0.3954346776008606	0.03644746541976929	-0.0589728020131588	-0.44575801491737366	-0.19733591377735138
jaun1243	0.09002049267292023	-0.416595458984375	-0.12162970751523972	0.026263928040862083	-0.06482724100351334	0.43160480260849	0.16174115240573883	0.09282778948545456	-0.03446684405207634	-0.35162290930747986	0.04382242634892464	-0.3301001787185669	0.05274014547467232	0.046648554503917694	-0.0811004787683487	0.249534010887146	0.21135064959526062	-0.10294543206691742	0.2424129992723465	-0.3334629237651825	0.21907947957515717	0.03232681006193161	0.37137269973754883	0.29539528489112854	0.016790054738521576	0.031067583709955215	0.14747025072574615	0.007195941638201475	0.00042026679147966206	0.13605643808841705	0.09984690696001053	0.021112466230988503	0.19688120484352112	-0.06316059827804565	-0.11088480055332184	-0.12602733075618744	-0.1553666740655899	0.0025020441971719265	-0.215586319565773	-0.37913060188293457	0.13020721077919006	-0.047623056918382645	-0.09075017273426056	-0.1276286244392395	-0.054974231868982315	0.12624742090702057	-0.01124423649162054	-0.05718417093157768	0.051490418612957	-0.15926826000213623	0.05413919314742088	-0.3209892809391022	-0.20882610976696014	0.0065694269724190235	0.23222653567790985	-0.15517239272594452	0.17669227719306946	-0.018316226080060005	-0.0066351620480418205	0.07586969435214996	0.14308635890483856	-0.20804552733898163	0.01651715859770775	-0.07122009992599487	-0.12136127799749374	-0.07486878335475922	-0.19515766203403473	-0.14041543006896973	0.04874163120985031	-0.05748575180768967	-0.3749253749847412	0.005076111759990454	0.12192697823047638	0.14489400386810303	0.15723025798797607	-0.10229120403528214	0.0594424232840538	0.21678046882152557	0.12956945598125458	-0.3164732754230499	0.15905021131038666	-0.32240328192710876	0.14906778931617737	0.04991443082690239	0.2462110072374344	0.08435974270105362	-0.13110798597335815	-0.1549629420042038	-0.05994439870119095	0.006060993764549494	-0.03052525781095028	-0.12129352986812592	0.2187439203262329	-0.036188755184412	0.17590799927711487	0.0369623601436615	0.03802662342786789	0.09032224118709564	0.10433359444141388	-0.18484075367450714	-0.013862954452633858	-0.0037707965821027756	0.20152267813682556	-0.025431472808122635	-0.03618336096405983	0.13531869649887085	0.3597787916660309	-0.3620278835296631	0.1683458834886551	-0.07274807244539261	0.07910670340061188	0.048263534903526306	-0.10074211657047272	-0.011282894760370255	0.129206582903862	-0.24869781732559204	-0.03477737307548523	0.026149500161409378	0.265713095664978	-0.03873123601078987	0.03864472359418869	0.3223564028739929	0.055984001606702805	-0.07952135056257248	0.011827969923615456	0.11391706019639969	0.399261474609375	-0.19540084898471832
kach1277	-0.16887089610099792	-0.20714853703975677	0.08991985768079758	0.10673961788415909	0.0008805254474282265	-0.001965812174603343	0.1253601312637329	0.009835082106292248	-0.049596596509218216	0.11369568854570389	-0.04254831373691559	0.018810726702213287	-0.3148033320903778	0.06078338623046875	-0.18830478191375732	-0.18371635675430298	-0.0834115520119667	-0.08305249363183975	-0.011524567380547523	-0.09019429236650467	-0.10572884976863861	-0.18459796905517578	0.28364840149879456	-0.18709410727024078	0.1947614699602127	-0.029180284589529037	0.12473855912685394	0.1947442889213562	-0.03363722562789917	0.06301607191562653	0.13033871352672577	0.19145098328590393	-0.25546199083328247	0.2378266155719757	0.03255976736545563	0.21258120238780975	-0.0818672776222229	-0.04191949963569641	-0.12431284040212631	0.07823069393634796	0.06958003342151642	-0.12845200300216675	0.3443469703197479	0.03966230899095535	0.5784849524497986	-0.14742544293403625	-0.07442259788513184	0.0680786594748497	0.1108410432934761	0.03556184098124504	0.048362426459789276	-0.18265843391418457	-0.13876508176326752	-0.1028977558016777	-0.04928770661354065	0.03412345051765442	-0.1195167526602745	0.1627046763896942	-0.04229351878166199	-0.14131128787994385	-0.15773382782936096	0.06179079785943031	-0.012485409155488014	0.10753773897886276	0.16200104355812073	0.10025651007890701	-0.2617639899253845	-0.0312359519302845	-0.008892918936908245	-0.05764654278755188	-0.26980024576187134	-0.012005744501948357	-0.277654230594635	0.0025338511914014816	-0.21156670153141022	0.07014874368906021	-0.0703929141163826	-0.07166550308465958	-0.13904120028018951	-0.2736785411834717	0.0197694543749094	0.13862790167331696	0.038784727454185486	0.13588713109493256	0.22730518877506256	0.36360183358192444	0.050305452197790146	0.056880004703998566	0.004107997752726078	0.027943966910243034	0.008335106074810028	-0.14122650027275085	0.1402602344751358	-0.0009972273837774992	0.23418231308460236	0.13542570173740387	0.0050126854330301285	0.162312313914299	-0.14680474996566772	-0.12710916996002197	-0.11629825085401535	0.13307765126228333	0.07756917178630829	-0.22888785600662231	0.05320253595709801	0.022287284955382347	-0.11804025620222092	-0.15878231823444366	-0.04094081372022629	0.11735216528177261	0.33287543058395386	0.13220997154712677	0.09670785814523697	-0.14038491249084473	0.1786309778690338	0.13231158256530762	0.17534221708774567	-0.2457992285490036	0.08118303120136261	-0.06593364477157593	0.0043083177879452705	-0.0740358829498291	0.09335867315530777	-0.06122276932001114	-0.0018657208420336246	0.11896546930074692	-0.03814562037587166	-0.04857129603624344
kala1372	0.28163662552833557	-0.07408811897039413	-0.1740836352109909	-0.30950480699539185	-0.09901178628206253	-0.08753945678472519	0.16762550175189972	-0.23353822529315948	0.08095724880695343	0.12591838836669922	0.2953806519508362	-0.19990701973438263	-0.12417098879814148	-0.45139431953430176	0.3504403233528137	0.055754125118255615	-0.2416542023420334	-0.22887809574604034	-0.23375211656093597	-0.011654643341898918	0.14687971770763397	0.06703592836856842	0.14822247624397278	-0.16050347685813904	0.06946130841970444	-0.019872868433594704	-0.08250588923692703	0.09072400629520416	-0.01012538280338049	-0.03482211008667946	-0.01344781182706356	-0.057800889015197754	0.13648347556591034	-0.02528042532503605	-0.13572648167610168	0.11524346470832825	-0.22600528597831726	0.009239518083631992	-0.1385522186756134	-0.16390390694141388	-0.07170167565345764	-0.06437177956104279	0.06640689820051193	0.08227653056383133	0.07862621545791626	0.00347027275711298	0.02209840528666973	0.23490306735038757	-0.13864313066005707	-0.3653511106967926	-0.2504352033138275	-0.1618412882089615	-0.050842493772506714	-0.07207848131656647	-0.09353789687156677	-0.23532593250274658	-0.22853456437587738	0.03259773179888725	0.08588729053735733	0.24074861407279968	-0.133397176861763	0.07000184059143066	0.05067989602684975	-0.272342711687088	-0.02385222725570202	0.06589464098215103	0.024806763976812363	0.21958740055561066	-0.3270396590232849	0.18353228271007538	0.0777982845902443	-0.07556912302970886	-0.03449959307909012	0.05743476748466492	0.22303356230258942	-0.01535873208194971	-0.11783409118652344	0.14752081036567688	-0.020854676142334938	0.3454417288303375	-0.171675905585289	0.007755243685096502	-0.29288965463638306	0.010358266532421112	-0.1078479215502739	0.25934672355651855	0.2792242467403412	-0.029275478795170784	-0.2130504846572876	0.03917362913489342	-0.10478553175926208	-0.052047692239284515	0.002155853668227792	0.029759066179394722	-0.24012812972068787	-0.0005853871116414666	-0.15878774225711823	-0.27626797556877136	0.12068284302949905	0.1554105579853058	-0.0898619294166565	0.4363921284675598	0.06635849177837372	-0.017558714374899864	0.06712150573730469	0.06339995563030243	0.006068809423595667	0.08889419585466385	-0.10179447382688522	0.07064766436815262	0.11837153881788254	0.07888461649417877	0.10197648406028748	0.13892893493175507	-0.02774076908826828	-0.1587502807378769	-0.014529329724609852	0.30220332741737366	-0.06597048044204712	-0.2075382024049759	-0.027663344517350197	0.024376099929213524	-0.16044315695762634	0.29048168659210205	-0.015340453013777733	-0.041307851672172546	-0.08774564415216446	0.029056109488010406
kala1373	0.05440682917833328	0.034073956310749054	-0.03849749639630318	-0.06693621724843979	-0.13714060187339783	0.24570323526859283	-0.22557401657104492	0.13274873793125153	0.09684785455465317	0.2912868857383728	0.04522817209362984	-0.2255401313304901	0.003941691946238279	-0.1517530232667923	0.1503227949142456	0.2434181421995163	0.024358976632356644	-0.17514511942863464	0.174298956990242	-0.037613581866025925	0.0018470615614205599	-0.08252232521772385	-0.08567961305379868	-0.05644393712282181	0.21452546119689941	-0.017365265637636185	0.009480522945523262	0.14596791565418243	0.0652087926864624	0.004397518467158079	-0.11617253720760345	0.2251238077878952	-0.02325197122991085	-0.03387117013335228	0.21310992538928986	0.014594203792512417	0.006313271354883909	-0.012894117273390293	0.0052921585738658905	-0.06759585440158844	0.20262855291366577	-0.006126954685896635	0.25844308733940125	-0.15579411387443542	0.06668812036514282	0.05604548752307892	-0.07511182874441147	0.22089563310146332	0.03997640311717987	0.13426390290260315	-0.19995960593223572	-0.007568478584289551	0.45941945910453796	-0.1220463439822197	-0.10105058550834656	0.09118757396936417	-0.3536469042301178	0.06390221416950226	-0.07000679522752762	0.12704600393772125	0.12325263023376465	0.16048574447631836	-0.011968770995736122	0.30051445960998535	0.11509335786104202	-0.05018329620361328	0.06681293994188309	0.03914613276720047	-0.31481194496154785	0.035204559564590454	0.12588143348693848	0.027737366035580635	0.14978395402431488	-0.16825129091739655	0.3018551766872406	0.014780154451727867	-0.08299347013235092	-0.16612118482589722	0.16654033958911896	0.1690674126148224	-0.03471314534544945	-0.13685257732868195	0.30093976855278015	-0.018991630524396896	-0.08495025336742401	0.29462701082229614	0.38139450550079346	0.056064315140247345	0.028056133538484573	0.2146342694759369	0.04860918968915939	-0.10542738437652588	0.10946745425462723	-0.003877554554492235	-0.04126894101500511	-0.5792045593261719	0.049587003886699677	0.1537378430366516	0.09883736073970795	-0.02232234738767147	0.03919052332639694	0.4636782109737396	0.1700764298439026	0.23537695407867432	0.07907584309577942	-0.0813746303319931	0.1561678647994995	0.07817932218313217	0.05885904282331467	-0.21105322241783142	0.17691940069198608	0.20622119307518005	0.26207002997398376	-0.3281099498271942	-0.15511709451675415	-0.027367936447262764	-0.19792120158672333	-0.2244124859571457	-0.09855397045612335	-0.1260388046503067	0.04056476801633835	-0.11612257361412048	0.1855430155992508	0.13608062267303467	-0.018779641017317772	-0.07376834005117416	-0.18650653958320618	0.017216777428984642
kash1277	-0.2319360375404358	0.1921492964029312	-0.17897726595401764	0.1673392951488495	0.20355017483234406	-0.06656546145677567	-0.0908198356628418	0.09360872209072113	-0.060290105640888214	0.09753799438476562	-0.14701592922210693	-0.18285249173641205	0.30309584736824036	0.004888123832643032	-0.13893991708755493	-0.02102736383676529	-0.002079470083117485	-0.01802762970328331	-0.19088682532310486	0.2802318334579468	0.003380059963092208	-0.020386170595884323	0.02131529524922371	0.0385967455804348	0.10863038152456284	0.009175046347081661	-0.10940436273813248	-0.008613171055912971	0.09964633733034134	0.04731083661317825	0.03113332763314247	-0.03866453096270561	0.02828264981508255	0.0725763589143753	-0.2190350890159607	-0.183180034160614	-0.008235077373683453	0.01910303719341755	0.21804766356945038	0.1267043650150299	-0.0743291899561882	0.01938532665371895	0.2788853049278259	0.12355035543441772	-0.06440668553113937	-0.013508477248251438	-0.08863530308008194	-0.11121130734682083	0.02559792250394821	-0.23349086940288544	0.19205021858215332	-0.331635057926178	0.10530444979667664	0.028793370351195335	-0.053771890699863434	0.028554260730743408	-0.0974719449877739	-0.07954775542020798	0.027909165248274803	0.09011813253164291	-0.05443700775504112	0.06679406017065048	-0.014160696417093277	0.05597136542201042	-0.15778827667236328	-0.05144141986966133	0.04901062324643135	-0.011539595201611519	-0.07513712346553802	0.04007274657487869	-0.11822272837162018	-0.007888318039476871	0.05884062871336937	0.05314226076006889	0.121918223798275	0.043552279472351074	0.037688903510570526	0.026608170941472054	-0.008466995321214199	0.11978889256715775	0.06773873418569565	-0.21581479907035828	0.1879204511642456	-0.04298220947384834	-0.04887097328901291	0.06922916322946548	0.03555983677506447	0.0589124970138073	-0.10551614314317703	0.07573313266038895	-0.0813579261302948	-0.010867860168218613	0.1282311975955963	-0.017743606120347977	0.27248719334602356	-0.12040859460830688	0.041059814393520355	0.07108001410961151	-0.15211926400661469	0.030935661867260933	-0.07653937488794327	-0.1269121766090393	-0.1504409909248352	-0.03961031883955002	-0.11639324575662613	-0.012988340109586716	-0.09553128480911255	0.08712469786405563	0.0777730718255043	0.17784982919692993	-0.19627970457077026	0.03542931005358696	-0.10862445831298828	-0.04756126180291176	-0.048585228621959686	-0.061904191970825195	0.0696374922990799	-0.032383594661951065	-0.06924322247505188	-0.06640549004077911	0.004934202879667282	0.030632205307483673	0.08193027973175049	-0.030314333736896515	0.0011512204073369503	-0.06437226384878159	0.042816001921892166	0.06870336085557938
khet1238	0.332111656665802	-0.08437373489141464	-0.17226043343544006	-0.05817970260977745	0.1859644204378128	-0.026781542226672173	0.3321366310119629	0.3654142916202545	0.3119922876358032	-0.14463181793689728	-0.052822891622781754	0.06752317398786545	0.2596120238304138	-0.02497541531920433	0.30855628848075867	-0.029502227902412415	0.18094298243522644	0.024870941415429115	0.2237413078546524	0.15223878622055054	0.3985809087753296	-0.05267363414168358	-0.15349827706813812	-0.08628111332654953	0.09503494948148727	-0.3585094213485718	0.019862079992890358	-0.028898131102323532	0.24620433151721954	-0.19573616981506348	-0.06695912033319473	0.05383928120136261	-0.21946051716804504	-0.15192019939422607	0.24445751309394836	0.1603720337152481	0.13472725450992584	-0.0009669988648965955	-0.28511878848075867	0.36204877495765686	-0.043048448860645294	-0.05340883880853653	0.5060675740242004	-0.07781898230314255	0.06888248771429062	-0.3819967210292816	-0.032075561583042145	0.25999754667282104	-0.06085352972149849	-0.27945566177368164	-0.253462016582489	-0.008572947233915329	0.0014351358404383063	-0.18830201029777527	-0.14940497279167175	-0.27484560012817383	-0.16202419996261597	-0.20300553739070892	-0.20572485029697418	0.01021835207939148	-0.28587520122528076	0.06258206069469452	-0.026906954124569893	0.1952214241027832	0.11593975126743317	0.12075302004814148	-0.21388116478919983	0.057773444801568985	-0.2206936627626419	-0.3200846314430237	-0.2428998202085495	0.06251008808612823	-0.02909591980278492	-0.2398441731929779	0.00416687224060297	0.17942960560321808	0.117714062333107	-0.027165215462446213	-0.17208701372146606	0.18622320890426636	-0.24983659386634827	-0.09069357067346573	0.41627830266952515	0.06206387281417847	-0.21354012191295624	0.04253493994474411	-0.19338898360729218	0.27597784996032715	0.08635252714157104	0.048291053622961044	-0.009182813577353954	0.14196841418743134	0.010869038291275501	-0.1836595982313156	0.40746861696243286	-0.014425652101635933	0.13588464260101318	-0.042503856122493744	0.19786658883094788	0.04165923222899437	0.005307206884026527	0.23673659563064575	-0.27348294854164124	-0.11428982764482498	-0.11967853456735611	0.013679460622370243	0.017115646973252296	-0.06960558146238327	0.11547248810529709	0.10402204096317291	0.05783762410283089	0.13306567072868347	-0.22396619617938995	0.026198677718639374	0.3092232942581177	0.14484503865242004	-0.2073267102241516	0.05366501212120056	-0.05253925547003746	0.18960998952388763	0.04558771103620529	0.06696388125419617	0.014005035161972046	-0.04998675733804703	0.02941572293639183	-0.2450137883424759	-0.15976330637931824	0.10781984776258469
khow1242	0.3779240846633911	0.11582587659358978	0.20039883255958557	-0.13368341326713562	-0.30178987979888916	0.15242822468280792	0.0884614959359169	-0.03225589543581009	-0.21805649995803833	0.17785803973674774	-0.12253616005182266	0.2438456267118454	-0.17739127576351166	-0.573135256767273	0.16147327423095703	0.21717841923236847	-0.28885117173194885	-0.09964478015899658	0.1630285531282425	0.20151963829994202	-0.16668017208576202	-0.040685467422008514	-0.17859213054180145	0.017938954755663872	0.11751232296228409	-0.05013033002614975	-0.05746028572320938	-0.04042980819940567	0.13423070311546326	0.20783743262290955	-0.1550077199935913	0.004410966299474239	0.1246001347899437	-0.0751459151506424	-0.21722474694252014	-0.11884515732526779	-0.06332208216190338	0.006425885949283838	0.0484430268406868	-0.04607457295060158	0.09876788407564163	0.021933604031801224	-0.15189185738563538	0.1510896384716034	0.06371644139289856	0.1358381062746048	-0.18798422813415527	0.20091882348060608	-0.07858806103467941	-0.23027196526527405	0.051569078117609024	0.0824151486158371	0.27769142389297485	-0.010028079152107239	-0.1317022144794464	0.3085007965564728	-0.2809978425502777	-0.11978179961442947	-0.009371275082230568	0.4569581151008606	-0.3060176968574524	0.10207593441009521	-0.01329390425235033	-0.060933180153369904	-0.30228471755981445	-0.06470899283885956	-0.10403598099946976	0.06410003453493118	0.002495544496923685	0.04660717025399208	0.04687831550836563	-0.01231788843870163	-0.08579770475625992	0.02308795042335987	-0.35070478916168213	-0.08688116818666458	0.024105774238705635	0.0019865771755576134	-0.04496006667613983	0.21249288320541382	-0.11462149024009705	-0.010097326710820198	-0.04608123004436493	0.05991667881608009	0.07977322489023209	0.05641962215304375	-0.09948848187923431	-0.13774827122688293	-0.20531021058559418	-0.1755579113960266	0.011682464741170406	-0.06986964493989944	-0.07522092759609222	0.012028983794152737	0.07619521766901016	0.17082644999027252	0.004861104302108288	0.12755438685417175	0.012823105789721012	-0.03210536763072014	-0.31488150358200073	0.23752997815608978	0.14986534416675568	0.11507607996463776	0.14670611917972565	0.013434186577796936	-0.2625434398651123	0.1968139111995697	0.05926535651087761	0.05008544772863388	0.23361223936080933	-0.2733147442340851	-0.003966711461544037	0.03141959756612778	-0.03605767711997032	0.019712312147021294	0.09839441627264023	-0.19260387122631073	0.03725136071443558	-0.11922597140073776	-0.034403618425130844	0.26311540603637695	0.059983618557453156	-0.13877876102924347	-0.013258668594062328	0.0789250060915947	0.045974209904670715	0.012569844722747803
kohi1248	-0.11158404499292374	0.016037361696362495	0.11502832919359207	0.09069231897592545	0.046884361654520035	0.13412053883075714	0.29336825013160706	0.3968333601951599	-0.1888652741909027	0.22027193009853363	-0.10275939106941223	-0.3870299756526947	0.11999225616455078	-0.32309573888778687	-0.3014388978481293	-0.03515821322798729	-0.1385074406862259	-0.0938534364104271	0.4354836940765381	0.03731847554445267	-0.17131264507770538	-0.02327382005751133	0.039931975305080414	0.13506902754306793	0.13596172630786896	0.09795451909303665	-0.2883961796760559	0.10930655151605606	-0.2148151993751526	-0.2488020807504654	-0.046396404504776	0.1377699077129364	0.04464561492204666	0.22527006268501282	0.1035374104976654	0.13728535175323486	0.27662116289138794	0.03040563501417637	0.41887620091438293	-0.22004182636737823	0.18573519587516785	0.067271888256073	-0.24659529328346252	0.2623567283153534	0.20612980425357819	0.16856853663921356	0.25150227546691895	0.17904484272003174	-0.1419910490512848	-0.18281212449073792	-0.31738680601119995	0.12072160094976425	0.24221758544445038	-0.258480966091156	0.028035618364810944	-0.26543062925338745	-0.019024623557925224	0.14514735341072083	-0.04501408711075783	0.06285504251718521	-0.05140111595392227	0.17829236388206482	0.042168449610471725	0.1663995087146759	0.051149919629096985	0.15469157695770264	-0.27690306305885315	0.030962258577346802	-0.22373302280902863	0.09359965473413467	0.11402257531881332	0.06237311661243439	-0.29735860228538513	-0.06456724554300308	0.258160263299942	0.004840233828872442	0.002961981575936079	0.3111678659915924	-0.26807695627212524	0.21391034126281738	-0.12119460850954056	-0.05005936697125435	-0.1347518414258957	-0.22528846561908722	-0.025215523317456245	-0.19389881193637848	0.1736351102590561	-0.0544905923306942	-0.06156272068619728	0.1928035169839859	0.0691659227013588	0.12939339876174927	0.1708148568868637	0.07367946952581406	0.08666173368692398	-0.30205345153808594	-0.19664423167705536	0.29597580432891846	-0.21803466975688934	-0.15342684090137482	-0.37685713171958923	-0.1618880182504654	-0.28281763195991516	-0.2513222396373749	-0.20407861471176147	0.016380980610847473	-0.126490980386734	-0.20068246126174927	-0.0007572813192382455	0.24957451224327087	0.0476914681494236	-0.30876660346984863	0.134518101811409	0.04080343246459961	0.02509474940598011	-0.10238166898488998	-0.09725159406661987	0.18573638796806335	0.3357994556427002	0.03681311383843422	0.03194263204932213	-0.0925825983285904	-0.3760683238506317	0.21564510464668274	0.019020497798919678	-0.3503471612930298	0.25970321893692017	0.010442196391522884
konk1267	-0.4547153115272522	-0.07394116371870041	0.11396537721157074	0.03435876592993736	-0.010246340185403824	0.15203514695167542	0.2186780720949173	-0.18197393417358398	0.06789518147706985	-0.08424392342567444	0.25159981846809387	-0.059300750494003296	-0.2328185886144638	0.1671316772699356	-0.02517903968691826	0.16914963722229004	-0.13795755803585052	0.24091003835201263	-0.08271361887454987	-0.000723413482774049	0.11542760580778122	-0.11644620448350906	0.07611540704965591	-0.020081404596567154	-0.13489709794521332	-0.020391350612044334	0.016466449946165085	-0.0755889043211937	-0.07262618839740753	0.11141032725572586	-0.1842975914478302	0.0776781365275383	-0.0029138862155377865	0.13742367923259735	-0.2763024866580963	0.21212393045425415	0.04842652007937431	0.048354387283325195	-0.04559642821550369	-0.10354936122894287	-0.16946382820606232	0.060377880930900574	-0.1094525158405304	0.04314397647976875	0.009645887650549412	-0.05406933277845383	-0.05963650345802307	-0.06161483749747276	0.011354873888194561	-0.01594737358391285	-0.0885903537273407	0.15889178216457367	-0.44167429208755493	0.13353866338729858	0.12944799661636353	-0.2813167870044708	-0.25098225474357605	-0.1223084107041359	0.07218784838914871	0.10845126211643219	-0.3212076425552368	-0.20748090744018555	-0.0037028687074780464	0.03177299350500107	-0.08462858945131302	-0.15918733179569244	-0.11401679366827011	0.05534704402089119	-0.18976548314094543	-0.3668191432952881	0.09225348383188248	-0.0015720560913905501	-0.16929186880588531	-0.07019703090190887	0.015635289251804352	0.0858880802989006	0.03516488894820213	0.019236218184232712	0.16709156334400177	0.19753406941890717	0.022040845826268196	-0.3435485064983368	0.19759462773799896	0.005823895335197449	-0.021147599443793297	-0.14683470129966736	-0.006244372110813856	0.1177600771188736	0.27324631810188293	-0.015016219578683376	-0.21657639741897583	-0.013321205973625183	0.11358426511287689	-0.031551722437143326	0.22261163592338562	0.007127109915018082	-0.18962045013904572	0.24031184613704681	0.03851685672998428	0.09702236205339432	0.01697598583996296	0.09847737103700638	0.43094363808631897	0.14314548671245575	-0.0336136594414711	0.0049183666706085205	-0.1731387972831726	-0.014983056113123894	0.004632741212844849	-0.09763453155755997	-0.1522681713104248	0.24821865558624268	-0.01670992001891136	-0.23711931705474854	0.041096560657024384	0.0461999885737896	0.19498883187770844	0.5137841701507568	0.0008464234415441751	-0.18366515636444092	0.0358363501727581	-0.050555262714624405	0.03961531072854996	0.013225273229181767	-0.03542865812778473	-0.1152644008398056	-0.1283303052186966	-0.030118929222226143
kuma1273	-0.19358369708061218	-0.05759615823626518	-0.0019600228406488895	-0.12846025824546814	-0.10904939472675323	-0.022064749151468277	-0.019189637154340744	0.1803378015756607	-0.19023577868938446	0.03466463461518288	0.07485167682170868	-0.1352008581161499	-0.08226930350065231	0.20920217037200928	0.07980912923812866	0.13044163584709167	0.098966084420681	-0.0257360078394413	0.015237427316606045	0.014860184863209724	-0.07388962060213089	-0.08054497838020325	-0.08799431473016739	0.07541161775588989	0.023380188271403313	0.01827143132686615	0.03990108147263527	0.01564992405474186	-0.06528659164905548	-0.10555398464202881	0.0033439802937209606	0.029426302760839462	0.14289221167564392	0.08089295029640198	-0.04381747916340828	0.14111365377902985	-0.019346870481967926	-0.013130162842571735	0.011502251960337162	0.01930275186896324	-0.049881547689437866	-0.09217200428247452	0.04082620143890381	-0.05521780252456665	0.13802658021450043	0.00318292248994112	-0.048117849975824356	-0.15172187983989716	-0.01101249735802412	0.08338240534067154	0.05076667293906212	0.012609284371137619	-0.061156537383794785	0.027506420388817787	0.06652546674013138	-0.03610796481370926	0.11807908862829208	0.0307100098580122	0.0018659892957657576	0.09837884455919266	-0.0044812895357608795	0.037815216928720474	-0.000764153606723994	0.00014365887909661978	0.11813995987176895	-0.09089381992816925	0.03886399045586586	0.04213826730847359	0.15679392218589783	-0.09963860362768173	-0.04567647725343704	0.015225081704556942	0.0669068843126297	0.0894806906580925	-0.12527447938919067	-0.1575307995080948	0.0031651800964027643	-0.07184084504842758	-0.10155007988214493	0.05382632091641426	0.03307872265577316	0.052791159600019455	-0.35323113203048706	0.03965245932340622	-0.028614867478609085	0.110801562666893	-0.1171848401427269	-0.15835532546043396	-0.009397504851222038	-0.019225699827075005	0.10892409831285477	-0.012903692200779915	-0.16301144659519196	-0.016727568581700325	-0.037554554641246796	0.1347084790468216	-0.03579157963395119	-0.06735188513994217	0.0005817028577439487	-0.018100325018167496	0.04998612776398659	-0.09560136497020721	0.03216235339641571	0.06629601866006851	-0.05512353405356407	-0.008787008933722973	-0.06499577313661575	-0.15491755306720734	0.043767139315605164	0.0546545572578907	0.12613041698932648	-0.06326113641262054	-0.08104333281517029	-0.08171482384204865	-0.07987179607152939	-0.013257267884910107	-0.0064981174655258656	-0.03549625724554062	-0.08470133692026138	-0.009008156135678291	0.02311166748404503	0.0008383807726204395	-0.011605540290474892	0.007791527081280947	0.01503685675561428	-0.1107383593916893	0.18664883077144623	-0.022939197719097137
kura1247	0.11872547119855881	-0.03936466947197914	0.027230415493249893	0.10562127083539963	-0.40039485692977905	-0.11541800200939178	0.15588048100471497	-0.11587702482938766	-0.07647921144962311	0.3924058973789215	0.3448128402233124	-0.3107002377510071	0.23314429819583893	-0.26932650804519653	-0.05520816892385483	-0.24447046220302582	-0.29750022292137146	-0.44143083691596985	0.3058818280696869	-0.22569012641906738	0.1064043715596199	-0.1272677332162857	0.07032947987318039	-0.16658557951450348	0.27334609627723694	0.018672902137041092	0.013070180080831051	0.4709988236427307	0.15983496606349945	0.2957558333873749	-0.09325885027647018	0.021526558324694633	0.2238113433122635	-0.12982097268104553	0.019789639860391617	0.044765789061784744	-0.022850845009088516	-0.034751906991004944	0.13593508303165436	-0.013806669041514397	0.09158360213041306	0.1575005054473877	-0.08808654546737671	0.10110489279031754	0.24754537642002106	0.08038449287414551	-0.1320326179265976	-0.12842409312725067	0.1382867842912674	0.06638740748167038	-0.32985299825668335	-0.4611007273197174	-0.07648909091949463	-0.24035921692848206	-0.15747052431106567	0.058047112077474594	-0.045523252338171005	-0.23900657892227173	-0.011904586106538773	0.12478267401456833	0.3888617157936096	-0.044216495007276535	-0.08286341279745102	0.0388212651014328	0.07982096076011658	-0.09837964177131653	-0.27333536744117737	0.0713563859462738	-0.2104686200618744	0.037705857306718826	-0.09297177940607071	-0.05657794699072838	-0.016559157520532608	-0.05009952932596207	-0.06254834681749344	0.055838920176029205	0.055383823812007904	0.08754242211580276	-0.07791730761528015	-0.16964863240718842	0.30981913208961487	0.434785932302475	-0.3016083538532257	0.06912007927894592	-0.0887969508767128	-0.3091493844985962	0.41968658566474915	-0.15544961392879486	-0.3061982989311218	-0.09811381995677948	0.31818872690200806	0.07280318439006805	-0.0711858868598938	-0.07833369076251984	0.39294877648353577	-0.07703225314617157	0.05322728306055069	0.3929903209209442	-0.0895145982503891	-0.24977834522724152	0.08498267084360123	-0.1018785610795021	0.44489577412605286	0.42121925950050354	-0.21206162869930267	-0.0619204081594944	-0.008322883397340775	-0.0791112557053566	0.03505102917551994	-0.11254008114337921	-0.17628780007362366	0.17367883026599884	-0.008256934583187103	0.027072466909885406	-0.03287254273891449	0.026041433215141296	-0.2004825323820114	-0.09193944931030273	0.16962061822414398	-0.3938743472099304	0.04995754733681679	-0.2622832655906677	0.2603881061077118	-0.06669607758522034	-0.00867591891437769	-0.07019863277673721	-0.23969724774360657	-0.06663697212934494
laur1248	0.21117335557937622	-0.23566603660583496	-0.1674376130104065	-0.09582369029521942	-0.04627576470375061	-0.26878151297569275	-0.08830872178077698	-0.07439710944890976	0.03318193554878235	0.12370757013559341	-0.3423728942871094	0.007513219024986029	0.0471741259098053	-0.43207788467407227	0.13467910885810852	0.21074078977108002	-0.17553554475307465	0.08123482763767242	0.35710960626602173	-0.007133948151022196	0.2385556399822235	-0.012712604366242886	-0.03696141019463539	-0.12433566153049469	0.2461550086736679	-0.142159104347229	0.20652638375759125	0.23596587777137756	0.09859009087085724	0.03577432408928871	0.020942388102412224	-0.16819483041763306	0.2504747807979584	-0.119362972676754	-0.18644055724143982	0.19230088591575623	-0.02820303849875927	-0.025116901844739914	-0.24252694845199585	-0.22521081566810608	0.12412219494581223	0.13749469816684723	0.09582687169313431	-0.005968546029180288	-0.17102788388729095	0.01752123050391674	-0.019297916442155838	0.0033989809453487396	-0.02796861343085766	0.20789273083209991	0.1183050274848938	-0.3509199321269989	0.05528218671679497	-0.18662740290164948	-0.0002831619349308312	0.09079203009605408	0.24396595358848572	0.10440000891685486	-0.023876748979091644	0.1541248857975006	0.20201030373573303	-0.13853387534618378	-0.028967486694455147	0.14523513615131378	-0.06787944585084915	0.2976018488407135	0.16685079038143158	-0.12135346233844757	0.023470506072044373	-0.05341470241546631	0.011457709595561028	0.13167665898799896	0.16467216610908508	-0.09008268266916275	0.3955303728580475	0.16147002577781677	0.07382144033908844	0.28353753685951233	-6.537811714224517e-05	0.09721215814352036	0.020202623680233955	0.23449808359146118	-0.07655712962150574	-0.026895908638834953	-0.40773284435272217	-0.25084230303764343	-0.05962827056646347	-0.10851318389177322	0.10184355080127716	-0.06449107080698013	-0.08124538511037827	0.21028827130794525	0.3709263205528259	-0.08910086750984192	0.18553873896598816	0.05741243436932564	0.1824188083410263	0.09537017345428467	0.01757955178618431	0.10505075007677078	-0.25008589029312134	0.1438945084810257	-0.008953914046287537	-0.1344091147184372	-0.1699591428041458	0.06788257509469986	-0.3198120892047882	0.13067783415317535	-0.22023780643939972	-0.1593475639820099	0.20607884228229523	0.1903047263622284	0.24579231441020966	0.16822126507759094	-0.004068427253514528	-0.0969114676117897	-0.22143831849098206	-0.0514209158718586	0.16577742993831635	-0.33096078038215637	0.013052928261458874	-0.255405455827713	-0.18472887575626373	-0.048723138868808746	0.019946260377764702	-0.1599159836769104	-0.37990161776542664	0.051555782556533813
loma1235	-0.2055508941411972	0.05031408369541168	0.3231044113636017	0.36575862765312195	-0.3689265549182892	-0.020039143040776253	-0.46955010294914246	0.0862361341714859	0.4105416238307953	-0.1684322953224182	0.7529526352882385	0.2524806559085846	-0.25221970677375793	0.0368596687912941	-0.07507951557636261	-0.4765333831310272	-0.33034050464630127	0.08273016661405563	0.33130860328674316	0.18232180178165436	-0.2359897792339325	0.3712611794471741	-0.25389426946640015	0.24273183941841125	0.08334227651357651	0.21482881903648376	0.0910455510020256	0.28668633103370667	0.07494595646858215	0.16441574692726135	-0.18046803772449493	-0.07547029852867126	0.14023607969284058	-0.41045650839805603	0.16394607722759247	-0.21961376070976257	-0.039451587945222855	-0.0043109324760735035	0.13804610073566437	0.2040279358625412	-0.034564487636089325	0.12426697462797165	-0.12111872434616089	0.038001902401447296	-0.006271970458328724	0.21575167775154114	0.09053263813257217	0.15979135036468506	-0.019518675282597542	-0.2500026226043701	0.46979478001594543	-0.06367024034261703	0.017880883067846298	-0.042304277420043945	-0.2898207902908325	0.10058275610208511	-0.669145405292511	-0.01687709055840969	-0.04458950459957123	0.1444442719221115	-0.13672326505184174	0.18618178367614746	0.0012640099739655852	-0.1113571897149086	-0.08317947387695312	-0.3274894058704376	0.15890684723854065	0.22853684425354004	-0.02999778278172016	0.26830345392227173	0.5503084063529968	0.09318042546510696	0.7076669335365295	0.09630336612462997	0.24058471620082855	0.31170132756233215	-0.11720342189073563	-0.24989944696426392	0.0176223311573267	0.5081595778465271	-0.249881312251091	-0.26867222785949707	-0.06818407028913498	0.2862240970134735	-0.39039427042007446	-0.23685045540332794	0.0808357521891594	-0.3142718970775604	0.018886402249336243	-0.07209652662277222	-0.06402841955423355	0.15799309313297272	-0.1259077787399292	0.1708669662475586	-0.22789806127548218	0.20970994234085083	0.2815130352973938	-0.07724495232105255	-0.058067262172698975	0.21298156678676605	-0.1902303546667099	0.25449615716934204	0.38192009925842285	-0.06339714676141739	-0.296729177236557	0.19076445698738098	0.01741650328040123	0.29512321949005127	-0.12437165528535843	0.2615552842617035	0.07274216413497925	0.23170031607151031	-0.1504468023777008	0.38529184460639954	0.28604716062545776	-0.5361786484718323	0.04731404781341553	0.32798466086387634	-0.32156285643577576	-0.09921515733003616	0.004651353228837252	-0.42565789818763733	-0.21673345565795898	0.20211336016654968	0.014280913397669792	0.1477539837360382	-0.41858816146850586	0.26430797576904297
maha1287	-0.04587638005614281	-0.1911463588476181	-0.09770932048559189	0.07632248848676682	0.26000452041625977	0.42521408200263977	-0.08072111755609512	0.22062072157859802	-0.37248513102531433	-0.013677404262125492	0.4313695430755615	-0.1644279658794403	-0.06818057596683502	-0.18350835144519806	0.2025270164012909	0.0757531002163887	0.0797211155295372	-0.005859846714884043	-0.179488405585289	-0.17679858207702637	-0.18544909358024597	-0.03858821466565132	-0.14044144749641418	0.3437029719352722	-0.008478213101625443	0.16190089285373688	-0.003106822492554784	0.18523353338241577	-0.0675850510597229	0.12603789567947388	0.05965400114655495	0.052778031677007675	-0.04494050145149231	-0.07351802289485931	-0.049812864512205124	0.06677611172199249	0.04178289324045181	0.006376300472766161	-0.18134421110153198	0.11698444187641144	-0.10923776030540466	-0.12655285000801086	-0.20638640224933624	0.18281853199005127	-0.30092161893844604	0.09464705735445023	-0.21478413045406342	-0.02258024550974369	-0.0783979669213295	-0.0353459008038044	0.21611766517162323	-0.10636495053768158	0.25512269139289856	-0.07682400196790695	0.20520462095737457	-0.03723754361271858	-0.09076347202062607	0.2771925926208496	-0.05525605008006096	0.17712143063545227	0.24265944957733154	0.1159089207649231	-0.009210173971951008	-0.10650181025266647	0.035567495971918106	-0.4032253623008728	-0.13078778982162476	0.11014954000711441	0.11369188874959946	-0.12965507805347443	0.24475547671318054	-0.0596507228910923	-0.350612610578537	-0.0565061941742897	-0.1816624104976654	-0.3122902810573578	0.013501670211553574	-0.15712030231952667	-0.19939102232456207	-0.06192911043763161	-0.08134280145168304	-0.11184760183095932	0.3308984637260437	-0.049118321388959885	0.010454093106091022	0.2659798264503479	-0.03935830295085907	-0.2501526176929474	0.2549131214618683	-0.23682202398777008	-0.116203673183918	0.16246825456619263	-0.16934973001480103	0.01809033378958702	-0.10707946866750717	-0.07104397565126419	-0.08176224678754807	-0.11005720496177673	-0.14351174235343933	0.07255972176790237	-0.3025594651699066	0.054352544248104095	-0.02205337956547737	-0.06319686025381088	-0.03376335650682449	-0.05508409067988396	-0.041711535304784775	-0.03655032068490982	-0.057262007147073746	-0.05208031088113785	0.33847400546073914	0.21460342407226562	0.044487934559583664	0.220048189163208	-0.013577058911323547	-0.24300029873847961	-0.03785081207752228	0.3032914698123932	-0.11483781784772873	-0.1939135193824768	0.0061887637712061405	-0.24123238027095795	-0.23806266486644745	-0.08194530010223389	-0.03211003169417381	-0.08828384429216385	0.16976597905158997	-0.020032169297337532
maha1305	-0.0830472782254219	-0.07088275998830795	0.010500416159629822	-0.1166054904460907	-0.045307788997888565	-0.13792476058006287	0.09417954832315445	-0.13513514399528503	-0.01055188849568367	0.11657965183258057	-0.042673882097005844	-0.056699737906455994	0.1522376388311386	0.11007338762283325	0.08860183507204056	-0.05087842419743538	-0.16646221280097961	-0.0784476175904274	-0.07537491619586945	0.2569985091686249	0.03851863741874695	0.023633742704987526	-0.07378086447715759	-0.02227208949625492	-0.17241381108760834	0.03448108956217766	0.09391643106937408	-0.07731983810663223	-0.06122457981109619	0.04829489439725876	-0.08825662732124329	-0.036573462188243866	-0.20298252999782562	0.10551029443740845	0.05733535438776016	-0.15777964890003204	-0.01782279647886753	0.0014278935268521309	0.04261147230863571	0.13146770000457764	0.03946186229586601	0.11625532060861588	-0.03435015305876732	-0.007069860119372606	-0.02847186289727688	0.010567962191998959	-0.009091752581298351	0.03178953379392624	-0.021794961765408516	0.07234057784080505	-0.01679736003279686	0.13186338543891907	-0.018655234947800636	-0.0016711987555027008	-0.009099454618990421	-0.08868459612131119	0.052014343440532684	0.03758632019162178	-0.005028568673878908	-0.3137986361980438	0.12144589424133301	0.0785059705376625	0.001831668778322637	-0.12293986231088638	-0.14775104820728302	-0.05848213657736778	0.01157713308930397	-0.03451986983418465	-0.04915686324238777	0.11721237003803253	-0.025372261181473732	-0.003760190214961767	0.07771235704421997	0.07079305499792099	0.06737082451581955	0.16099727153778076	-0.027851391583681107	-0.006161950528621674	-0.03636694699525833	-0.06237145513296127	-0.005902712699025869	-0.18468767404556274	0.1219574585556984	0.008866221643984318	0.1170465350151062	-0.12613701820373535	-0.06791593879461288	-0.0906958058476448	-0.0743178129196167	0.005029271822422743	-0.05949630215764046	0.020078904926776886	0.032759420573711395	-0.005713156424462795	-0.0199514739215374	0.05412546172738075	-0.034277770668268204	-0.02639365755021572	-0.09662774950265884	0.03643161058425903	0.267067015171051	-0.07140080630779266	-0.07490551471710205	0.027457142248749733	0.12361039966344833	0.0023311113473027945	0.03713340312242508	-0.06943975389003754	-0.006205475889146328	-0.023854536935687065	0.08508646488189697	-0.07654285430908203	0.15901599824428558	-0.02614608220756054	0.01997893862426281	0.03800753876566887	0.0313432477414608	-0.033020924776792526	0.0007300264551304281	-0.06768247485160828	-0.008060802705585957	0.051284898072481155	-0.004612409044057131	0.002829187083989382	0.006673755124211311	0.027178097516298294	-0.07099946588277817	0.010435042902827263
mait1250	0.09857608377933502	0.2417735606431961	0.02053290233016014	-0.19023992121219635	0.21229277551174164	0.219774529337883	-0.01668277196586132	-0.09559054672718048	0.07177085429430008	-0.04719708487391472	-0.043439384549856186	-0.06234266981482506	-0.18387877941131592	0.04325340315699577	0.03661030903458595	0.12688858807086945	-0.022787315770983696	0.09392394125461578	-0.10638204216957092	-0.10167966037988663	0.023024538531899452	0.14281734824180603	0.13800330460071564	-0.1576271653175354	-0.14445118606090546	0.02228398621082306	-0.12881751358509064	0.1682162880897522	0.07590688765048981	0.07123786211013794	0.19605442881584167	0.056198298931121826	0.022573821246623993	-0.0068264552392065525	0.23156477510929108	-0.05596156045794487	0.020890748128294945	-0.030939534306526184	0.07550925761461258	0.11469194293022156	-0.06607260555028915	-0.08738040924072266	0.12376411259174347	0.08030688017606735	0.05685032159090042	0.05242686718702316	-0.1978895217180252	0.03051886335015297	-0.03999289125204086	0.1747884601354599	0.024021590128540993	0.023092646151781082	0.30184587836265564	0.061283111572265625	-0.0486958771944046	0.29641368985176086	-0.18206946551799774	0.07124760746955872	0.0016246902523562312	0.027859654277563095	0.14728352427482605	-0.11279600858688354	0.026517648249864578	-0.06194880232214928	-0.000992071465589106	0.07454602420330048	0.09882979094982147	-0.05421745032072067	0.025192029774188995	0.03756839036941528	-0.16732054948806763	-0.033165622502565384	0.1957782655954361	0.0724683478474617	-0.0455709733068943	-0.029297195374965668	0.05035516992211342	0.015733689069747925	-0.029187874868512154	-0.07633403688669205	0.04554196074604988	-0.056878458708524704	-0.28741490840911865	0.10209105163812637	0.039291877299547195	-0.06621331721544266	-0.11830700933933258	0.1290537416934967	0.00585747929289937	0.17379219830036163	-0.07770812511444092	-0.004135161638259888	0.06511954218149185	-0.0004555130726657808	-0.24695678055286407	-0.09100881218910217	0.10626542568206787	-0.05686797574162483	0.19142651557922363	0.061683062463998795	0.037979912012815475	-0.2581857740879059	0.021842019632458687	0.010762840509414673	-0.025805767625570297	-0.03210556507110596	0.12628862261772156	-0.21030336618423462	0.07423564791679382	0.01763860136270523	-0.14076955616474152	0.10602500289678574	-0.10121957212686539	0.2288021445274353	0.09350305795669556	-0.05581853166222572	0.09606164693832397	-0.1055539920926094	-0.014224591664969921	0.1022057756781578	-0.025545891374349594	-0.12073004245758057	-0.026167593896389008	0.013776225969195366	0.008787802420556545	-0.033096399158239365	-0.01907731220126152	0.06835394352674484
mara1378	-0.058814894407987595	-0.0035307842772454023	0.0942220613360405	0.04682518169283867	-0.12467379868030548	-0.006027534604072571	-0.0091820377856493	-0.07642998546361923	0.04653574526309967	-0.21777665615081787	0.026764731854200363	0.05202952027320862	-0.08674892783164978	0.05158589035272598	-0.16810381412506104	0.07461442053318024	0.04709362983703613	0.07310410588979721	-0.019254012033343315	0.15254417061805725	0.008357140235602856	-0.07199885696172714	0.024663535878062248	0.11710718274116516	-0.08087605983018875	0.008895670995116234	0.07915166765451431	-0.01188972033560276	-0.08397334069013596	-0.012869143858551979	-0.05161450803279877	0.026001188904047012	-0.048850879073143005	-0.13508795201778412	0.0199299156665802	0.25353214144706726	-0.04034886509180069	-0.003129239659756422	-0.19522824883460999	-0.035925041884183884	0.1136016920208931	-0.08811337500810623	-0.05128715559840202	0.05074913799762726	-0.06212613731622696	0.06475277990102768	-0.08332113921642303	-0.12005744129419327	0.0018612743588164449	0.12222185730934143	0.024433191865682602	-0.13961206376552582	0.046552371233701706	-0.03907889127731323	0.003522342536598444	-0.11499831825494766	0.12206833064556122	0.05145610123872757	-0.0235674437135458	-0.2153819352388382	0.048125751316547394	0.09222802519798279	0.009536745958030224	-0.014714145101606846	0.07777140289545059	-0.04966146498918533	0.06735891848802567	0.04672233760356903	-0.02775140479207039	0.11334182322025299	0.07370730489492416	0.014639301225543022	-0.08935101330280304	-0.08556044846773148	-0.042565349489450455	-0.09293615818023682	-0.019053779542446136	-0.0651143491268158	0.0042908284813165665	0.007637813687324524	-0.026338238269090652	-0.17802755534648895	-0.04447413235902786	0.046475641429424286	-0.06930100917816162	-0.08014479279518127	-0.04654194414615631	-0.08516048640012741	0.09136926382780075	0.054923851042985916	0.0033987730275839567	-0.0106327123939991	-0.08154504001140594	0.005923502147197723	0.1489199697971344	-0.009556123986840248	0.008041954599320889	-0.0534655898809433	0.02540411800146103	0.020304204896092415	0.22183017432689667	0.11726321280002594	0.03394884616136551	0.017579220235347748	0.03418297693133354	-0.006597601342946291	0.00012098537990823388	-0.011125024408102036	-0.008712629787623882	-0.08500045537948608	-0.2702878713607788	0.0031173108145594597	-0.14803476631641388	-0.05738045275211334	0.03727897256612778	0.0601789765059948	-0.072118379175663	0.08761738985776901	0.0014558531111106277	-0.11840347945690155	0.01215389370918274	-0.0776381716132164	0.017941173166036606	-0.068543441593647	0.0350373201072216	-0.009350704029202461	-0.017957063391804695	-0.04816135764122009
marw1260	-0.04839206114411354	-0.32744473218917847	0.17088913917541504	0.2748034596443176	0.2235899418592453	0.060968250036239624	0.20707906782627106	-0.0602838434278965	-0.10599946230649948	-0.31093132495880127	0.20172181725502014	0.07802599668502808	0.13278374075889587	0.14605674147605896	0.1538681536912918	-0.13326548039913177	0.09574391692876816	-0.07565966993570328	0.1357053518295288	0.10201691836118698	-0.1500924974679947	0.1530541479587555	-0.14979693293571472	0.254138708114624	-0.03749408945441246	0.1483304500579834	-0.017329005524516106	0.33827105164527893	-0.27368783950805664	-0.039051320403814316	0.4399559497833252	0.11185245960950851	0.10190307348966599	-0.4882130026817322	-0.15839867293834686	0.11327069997787476	-0.16278952360153198	-0.07184077799320221	-0.19431127607822418	0.11306320130825043	0.08449900895357132	0.005472675897181034	-0.4842272102832794	-0.22669175267219543	0.5448977947235107	0.15039147436618805	-0.18917767703533173	0.017940662801265717	-0.10799285769462585	0.005382968578487635	0.16501787304878235	-0.18168380856513977	0.08055882900953293	0.207580104470253	0.11417680233716965	0.023593710735440254	-0.17627300322055817	0.03496970981359482	-0.17905475199222565	-0.06299282610416412	0.14463694393634796	-0.03414355590939522	-0.021936587989330292	-0.05350019782781601	0.09311367571353912	-0.21819142997264862	-0.270995557308197	-0.12882792949676514	-0.15394337475299835	0.1523461490869522	-0.17071795463562012	0.11109224706888199	0.18913103640079498	-0.04457233473658562	0.023916946724057198	-0.34809860587120056	0.04344234615564346	-0.21687699854373932	0.21364885568618774	-0.3439584970474243	-0.044540878385305405	0.12191575020551682	-0.15932077169418335	0.3040063679218292	0.1487819403409958	-0.21534429490566254	-0.22926442325115204	0.061306726187467575	0.022155409678816795	0.17139066755771637	0.1044776439666748	0.1305304765701294	-0.2792188823223114	0.07783470302820206	-0.04203910380601883	0.14687436819076538	-0.22485484182834625	0.01008926797658205	-0.3117660880088806	-0.1992061585187912	-0.1289088875055313	-0.11135785281658173	-0.09332440048456192	-0.0011276360601186752	-0.04502599313855171	-0.028948478400707245	-0.06744489818811417	-0.30973687767982483	-0.04058774933218956	-0.10927941650152206	0.03711389750242233	0.23942823708057404	0.04750015214085579	-0.017474517226219177	0.082858607172966	0.09881435334682465	0.2164657711982727	0.2765067219734192	0.03587726876139641	0.2019539624452591	-0.11230851709842682	0.045710451900959015	0.19389110803604126	-0.23912642896175385	-0.05063202232122421	0.2217624932527542	0.14359129965305328	-0.2544948160648346
