aret1240	0.028610974550247192	0.013008837588131428	0.12786345183849335	0.05723552778363228	-0.002234485698863864	-0.34161511063575745	0.018961099907755852	-0.013993299566209316	0.06524982303380966	-0.018907485529780388	-0.3045955002307892	0.005927969701588154	0.09658225625753403	0.009355846792459488	0.09466870129108429	0.15842193365097046	-0.13868258893489838	-0.001998302061110735	-0.19668643176555634	-0.06291890889406204	-0.06615740805864334	0.09696896374225616	0.10010813176631927	-0.040821343660354614	-0.31547585129737854	-0.008687912486493587	0.012135390192270279	-0.11173620820045471	-0.15955115854740143	-0.20901338756084442	0.26200535893440247	0.0196378231048584	-0.16987591981887817	-0.17896075546741486	-0.25528496503829956	-0.0018391269259154797	-0.053301628679037094	0.08449205011129379	0.0068975030444562435	0.02239755168557167	0.05673364922404289	-0.07609693706035614	-0.24598172307014465	-0.2205313891172409	-0.08479879796504974	-0.039382945746183395	0.21896269917488098	0.20083053410053253	-0.022027138620615005	-0.06266685575246811	-0.13561348617076874	0.2748536765575409	0.09984564036130905	0.04785441607236862	-0.181453138589859	0.2617623507976532	0.07801119238138199	0.07176246494054794	0.28245434165000916	-0.19718113541603088	-0.16134203970432281	-0.035251688212156296	-0.14904271066188812	-0.006093503907322884	0.05707452818751335	0.2567299008369446	-0.016927283257246017	-0.03376524895429611	0.012912241742014885	-0.006469696760177612	-0.020227894186973572	-0.1593129187822342	-0.035189930349588394	0.2126469910144806	-0.26434510946273804	0.02568334899842739	0.2150370478630066	0.21799355745315552	0.07383223623037338	-0.15903601050376892	-0.1061873510479927	-0.02045990340411663	0.12798526883125305	-0.24223291873931885	0.11416731029748917	-0.192703977227211	-0.26025813817977905	0.09491901844739914	0.026013366878032684	0.1867910921573639	0.300303190946579	0.005459231790155172	0.24162159860134125	-0.17115528881549835	0.038865551352500916	0.028734130784869194	-0.030071232467889786	0.004909059032797813	0.01581452414393425	0.047849416732788086	0.013039660640060902	-0.0354333221912384	0.16070158779621124	-0.20004791021347046	-0.40175342559814453	-0.1457812786102295	-0.17295034229755402	0.031637102365493774	-0.08448351174592972	0.0014887629076838493	0.008143679238855839	0.041724637150764465	-0.4727093577384949	-0.00330118159763515	-0.1655454784631729	0.20000877976417542	-0.1963527947664261	-0.3909006714820862	0.4090946614742279	-0.24273261427879333	0.049684859812259674	-0.016827531158924103	-0.20609109103679657	0.06778138130903244	-0.08541722595691681	-0.04961363598704338	0.15218940377235413	0.0012488600332289934
assa1263	-0.001975162187591195	0.014920766465365887	-0.2795719504356384	-0.007171974051743746	0.013682507909834385	0.09316326677799225	-0.016434796154499054	0.022211166098713875	-0.0818256214261055	-0.001958361826837063	0.04188746213912964	-0.009574047289788723	-0.029407478868961334	-0.007955421693623066	-0.11563674360513687	0.17372998595237732	-0.0626416951417923	-0.08377812802791595	-0.22102181613445282	-0.0030943239107728004	0.07701689004898071	-0.0529361255466938	-0.010319420136511326	0.08330927044153214	-0.037289999425411224	0.0005820174119435251	0.002721027936786413	-0.0415547639131546	0.001507117529399693	-0.06542359292507172	0.019877120852470398	-0.007966985926032066	-0.023630686104297638	0.1496170312166214	0.2009074091911316	-0.02686569280922413	-0.0037226181011646986	-0.049016088247299194	0.008395369164645672	-0.09854940325021744	0.002676465781405568	0.05898445472121239	-0.07464104145765305	-0.1835990697145462	0.008284012787044048	0.1337321698665619	0.03512867912650108	-0.11678995192050934	-0.030663371086120605	0.1422235667705536	-0.18061542510986328	-0.047174010425806046	0.1971399486064911	0.013810528442263603	0.12598438560962677	0.05417938902974129	-0.04891384020447731	0.016771551221609116	-0.04910342022776604	-0.011157171800732613	0.09669006615877151	2.071549533866346e-05	0.1720435470342636	-0.1814269721508026	0.07434415072202682	-0.18297366797924042	0.18585366010665894	-0.018221039324998856	-0.003809441113844514	0.007857119664549828	0.00018134676793124527	0.015959886834025383	0.08397959917783737	0.013645957224071026	-0.13505259156227112	-0.017581386491656303	0.08213911205530167	-0.07756357640028	0.013118346221745014	-0.04603372886776924	0.02361280657351017	-0.006443208083510399	0.05282782018184662	-0.07334170490503311	-0.06742233037948608	-0.045394957065582275	0.13575631380081177	0.01681489124894142	0.0176285058259964	-0.03662730008363724	-0.06357637792825699	0.00406770221889019	-0.095023512840271	-0.03476236015558243	-0.04941153898835182	-0.04777587950229645	0.006077507510781288	-0.009007382206618786	-0.0021050460636615753	0.10528013110160828	0.09184335172176361	0.057127851992845535	0.026299674063920975	-0.06315956264734268	0.1799091249704361	-0.028615836054086685	0.06545110046863556	0.0006054374971427023	0.11193044483661652	-0.003534466726705432	-0.008128076791763306	-0.008889209479093552	0.010345015674829483	0.01582896150648594	0.061907824128866196	-0.0687805637717247	-0.012359851971268654	0.0023303660564124584	-0.02212645672261715	0.00028870493406429887	-0.01848236843943596	-0.039992041885852814	-0.13291959464550018	0.06303253024816513	-0.0016901995986700058	-0.1064377874135971	-0.008545393124222755	0.008368754759430885
bagh1251	0.01897142082452774	-0.15142564475536346	0.02446889504790306	-0.10789254307746887	-0.022965069860219955	0.08418957889080048	-0.00019100241479463875	0.005687597673386335	-0.06307386606931686	-0.07176513969898224	0.0311454888433218	0.008251506835222244	0.11407504975795746	-0.013274404220283031	0.012285050936043262	-0.1205201968550682	-0.011975451372563839	0.057987406849861145	-0.20934921503067017	-0.0012660864740610123	0.162115678191185	-0.06972765922546387	-0.015081950463354588	-0.25180336833000183	-0.04763991758227348	0.0022950356360524893	-0.012268563732504845	0.037500374019145966	-0.11733196675777435	0.1302633434534073	-0.061160821467638016	0.002346789464354515	-0.01609322614967823	-0.02120712213218212	0.15870025753974915	-0.005430973134934902	-0.021866504102945328	-0.006320324260741472	-0.010438372381031513	0.08392277359962463	0.013832490891218185	0.05695882812142372	0.12036516517400742	0.1270434856414795	-0.021938666701316833	-0.12945391237735748	0.14835205674171448	-0.2580157220363617	0.05057784169912338	0.07120819389820099	-0.11067577451467514	0.028755556792020798	0.024571387097239494	-0.030921032652258873	0.1222815066576004	0.1236371397972107	0.04602016508579254	-0.036169204860925674	-0.03790147602558136	-0.055533334612846375	0.1767139583826065	0.024220800027251244	0.22715985774993896	0.2903226912021637	0.032012637704610825	-0.0887083113193512	-0.2036353200674057	-0.033431194722652435	0.0033343229442834854	0.00016720040002837777	-0.016124943271279335	-0.1634792536497116	-0.033449701964855194	0.07595265656709671	-0.08506733179092407	-0.011111516505479813	0.03416665643453598	0.09657583385705948	-0.02012171596288681	-0.03907708451151848	0.02190319448709488	-0.033582720905542374	0.04875393584370613	-0.07121633738279343	0.07311830669641495	0.18464432656764984	-0.06489010155200958	0.029579516500234604	0.016874711960554123	-0.024318259209394455	-0.04738222062587738	-0.0027223883662372828	-0.19275614619255066	-0.06427004933357239	-0.009974710643291473	-0.18180716037750244	-0.0019658426754176617	-0.011951925233006477	0.011581966653466225	0.04269878566265106	-0.03320130705833435	-0.002059933030977845	0.015388497151434422	0.2859923839569092	0.13812848925590515	0.017457259818911552	-0.09092772752046585	-0.10714823752641678	-0.06953185051679611	-0.0010293192462995648	0.022422978654503822	-0.014065142720937729	0.08727392554283142	-0.016066603362560272	-0.0034093414433300495	-0.017738251015543938	-0.04111689701676369	-0.08694514632225037	0.029605505988001823	-0.09251247346401215	0.1452726274728775	-0.07033383101224899	0.0635739117860794	-0.03043404035270214	-0.051873087882995605	-0.16687238216400146	-0.2099682241678238	-0.00834023766219616
beng1280	0.02075304090976715	0.08899752795696259	0.033304471522569656	0.05636586993932724	-0.00021893021767027676	0.13446044921875	0.00803433358669281	0.01383442897349596	-0.08159910887479782	0.05091789364814758	0.18151599168777466	0.010587012395262718	0.21563880145549774	-0.006606814917176962	0.03686407208442688	-0.07765904068946838	-0.05499546229839325	0.24797995388507843	-0.08761195093393326	-0.0010902165668085217	-0.04461974650621414	0.05401007831096649	0.02007608860731125	-0.041883133351802826	-0.02739054523408413	0.009091077372431755	-0.0010670031188055873	-0.012077121064066887	-0.021707763895392418	-0.010956482030451298	0.057458434253931046	-0.01868908666074276	-0.0680314302444458	0.12674304842948914	-0.1762271225452423	0.015761544927954674	0.0029663732275366783	-0.007561087608337402	-0.006204646080732346	0.03707700967788696	-0.01639479584991932	0.09331411868333817	0.02393290400505066	-0.024155892431735992	-0.00330120837315917	0.05187622085213661	0.08278986066579819	0.08537229895591736	0.013428010046482086	0.11747104674577713	0.041582852602005005	-0.14166393876075745	0.15810388326644897	-0.01762772910296917	0.048018358647823334	-0.09939798712730408	-0.01872592233121395	-0.011972539126873016	0.020632367581129074	0.03212026506662369	-0.014081508852541447	0.04692751541733742	-0.0483601838350296	-0.18110860884189606	-0.07878822088241577	-0.20468421280384064	-0.07504409551620483	-0.04990692809224129	-0.005654813256114721	-0.010993290692567825	0.008868448436260223	-0.057463180273771286	0.052949510514736176	0.020549757406115532	0.024173475801944733	-0.020285548642277718	0.1197211891412735	-0.02109944261610508	-0.006301954388618469	0.009943883866071701	-0.030517930164933205	-0.0739181637763977	0.15087026357650757	-0.061933793127536774	-0.09928639978170395	-0.17270469665527344	0.1399742215871811	0.010661851614713669	0.006956659257411957	-0.005043439567089081	0.06285078078508377	-0.007795446552336216	0.059248968958854675	-0.010103728622198105	0.04808066040277481	-0.001776787918061018	0.007253312040120363	-0.02075730450451374	-0.003098414745181799	-0.056297216564416885	0.04730314761400223	-0.02115754969418049	-0.0038647635374218225	0.07899655401706696	-0.12566572427749634	-0.05524280667304993	-0.020613068714737892	-0.024284495040774345	-0.04327083006501198	-0.009011901915073395	-0.008697456680238247	-0.10004235059022903	0.08848696202039719	0.004069999326020479	0.0931142270565033	-0.04201795160770416	0.052875082939863205	0.0379483625292778	-0.10329164564609528	0.004916537087410688	0.09530583024024963	0.03448434919118881	0.03548932448029518	0.02513771690428257	-0.0011642026947811246	-0.005098301451653242	-0.11952392756938934	-0.029297253116965294
bhad1241	0.0745333731174469	-0.11461611092090607	0.13335946202278137	0.009958772920072079	0.0039461334235966206	0.2559570074081421	0.03302127495408058	0.016158489510416985	0.22071394324302673	-0.02813892997801304	-0.2008516937494278	0.011223264038562775	0.01809394545853138	-0.0030916775576770306	0.08145153522491455	-0.10508609563112259	0.004828675650060177	0.12552547454833984	0.10829466581344604	0.012825430370867252	-0.30050674080848694	0.18711663782596588	0.005826951004564762	0.07181935012340546	-0.05392584949731827	0.011997475288808346	0.012811599299311638	0.0015203501097857952	0.07865829020738602	0.0838586762547493	0.21392357349395752	-0.01284811645746231	-0.08937986940145493	-0.017144782468676567	-0.03855777531862259	0.046382203698158264	0.06660547852516174	-0.023115558549761772	-0.009794906713068485	-0.07823621481657028	0.021949663758277893	-0.06151674687862396	-0.21240253746509552	0.06154092028737068	-0.00989939458668232	-0.21158960461616516	-0.010185092687606812	0.17456981539726257	-0.0159438569098711	-0.19445234537124634	-0.08812849223613739	0.040632084012031555	0.08985181152820587	0.022706488147377968	-0.16662102937698364	0.29455018043518066	-0.16582581400871277	0.08676396310329437	-0.009529088623821735	0.11492528766393661	0.08382672071456909	0.0563877634704113	-0.0858241617679596	0.13458006083965302	-0.20525701344013214	-0.08280140906572342	-0.12107672542333603	0.08030881732702255	-0.013652737252414227	-0.03587023913860321	-0.0031090318225324154	0.12021627277135849	-0.124913290143013	0.05282485485076904	-0.15440253913402557	0.07706574350595474	-0.029499802738428116	-0.024078233167529106	0.02848200500011444	-0.010870080441236496	-0.08517278730869293	-0.008571394719183445	-0.08294063806533813	-0.20632149279117584	0.177822545170784	0.011782841756939888	0.047525253146886826	-0.09909234941005707	-0.013662646524608135	-0.10061299055814743	0.04517476633191109	-0.0004266141913831234	0.013631409034132957	0.019383970648050308	0.015176208689808846	0.011927230283617973	-0.023317847400903702	-0.0236892681568861	-0.004727121442556381	0.057891830801963806	0.1491493284702301	-0.07978493720293045	0.1515130251646042	-0.2505495250225067	0.21672657132148743	-0.11082343012094498	0.0011223888723179698	-0.36141011118888855	-0.07721434533596039	-0.007149890530854464	-0.017077023163437843	-0.06008867919445038	-0.03880898281931877	0.02598480135202408	0.07813350856304169	0.005903417244553566	-0.02963925153017044	-0.38249361515045166	-0.08122537285089493	0.13982632756233215	-0.1210656464099884	-0.014600462280213833	0.19063642621040344	0.013250690884888172	-0.015014835633337498	0.02195301093161106	-0.016762446612119675	-0.04926631599664688
bhal1244	-0.025739045813679695	0.14753128588199615	0.21571378409862518	0.09429220855236053	-0.02163349837064743	-0.03247135132551193	-0.047287169843912125	-0.06688445806503296	0.026026958599686623	0.14466901123523712	0.012033612467348576	-0.005650848150253296	0.14647933840751648	0.00560520775616169	0.016594450920820236	-0.1773327887058258	-0.08134148269891739	0.03757596015930176	0.042624667286872864	-0.010077559389173985	0.08721941709518433	-0.09576539695262909	0.04366759583353996	-0.11334511637687683	-0.11224530637264252	0.006462415214627981	-0.002389422617852688	0.12733128666877747	0.09824642539024353	0.055788520723581314	-0.018079685047268867	0.016623467206954956	0.01758364588022232	0.1070452332496643	0.27299976348876953	-0.06939417123794556	-0.03062865510582924	0.037391457706689835	0.013558302074670792	-0.004301643930375576	0.0017010224983096123	0.037298209965229034	-0.07043958455324173	-0.15087950229644775	-0.042962875217199326	-0.10439074039459229	-0.10171008855104446	0.15020842850208282	0.008908873423933983	-0.029416151344776154	0.0780416876077652	-0.06044498458504677	-0.005207699723541737	-0.0372244156897068	0.0536869652569294	0.15376676619052887	-0.0959145724773407	-0.04504428803920746	0.10993024706840515	-0.010853217914700508	0.1001269593834877	-0.1136050671339035	-0.07842718064785004	0.056436989456415176	-0.16638809442520142	0.15511099994182587	-0.010218791663646698	0.11291709542274475	0.023114342242479324	0.02813859097659588	-0.003243671730160713	0.04775311052799225	0.16801872849464417	-0.012092933058738708	-0.16833354532718658	-0.0040930528193712234	0.19259080290794373	-0.12153372913599014	-0.03410283476114273	0.08703754097223282	0.00995144434273243	0.06541918218135834	-0.2556966245174408	0.10197267681360245	0.06426985561847687	0.04558870568871498	0.013532944023609161	0.06914731115102768	-0.058812178671360016	0.09355267137289047	0.08860126882791519	-0.00018101916066370904	0.16724328696727753	-0.06808463484048843	0.0010704235173761845	-0.013999384827911854	-0.016744190827012062	0.00423459941521287	0.012619543820619583	0.17562060058116913	-0.031946003437042236	0.05163329839706421	-0.013827623799443245	-0.03149019554257393	0.24270987510681152	0.1001644879579544	0.07257843017578125	-0.1622394323348999	-0.03672076761722565	-0.005468632560223341	-0.00448314193636179	0.007063619326800108	-0.12211667001247406	0.006614876911044121	0.06061428412795067	0.24462644755840302	0.09263398498296738	-0.13744471967220306	-0.10238686949014664	0.2673727571964264	-0.15629076957702637	-0.1002466157078743	0.29760414361953735	-0.024874912574887276	0.06218848004937172	0.04423804581165314	0.06366778910160065	-0.12290502339601517
bhoj1244	0.059998441487550735	0.013435077853500843	0.10143394023180008	0.031168416142463684	-0.015413209795951843	-0.11896425485610962	0.02540825493633747	-0.0429413765668869	0.08219466358423233	0.10640273988246918	0.19025826454162598	0.0064145964570343494	-0.005011189728975296	-0.01304151676595211	0.04300570487976074	-0.035485509783029556	0.08914665132761002	-0.07208568602800369	0.25884705781936646	-0.0021229612175375223	-0.08979706466197968	-0.08889738470315933	-0.043215587735176086	-0.2777843773365021	-0.09386580437421799	-0.012449471279978752	0.002191467909142375	0.230291947722435	0.12267909198999405	0.0863204225897789	0.1291688233613968	0.0060628075152635574	0.035501204431056976	-0.07941944152116776	-0.15736106038093567	0.06296935677528381	-0.01045120507478714	-0.021496567875146866	0.0021792706102132797	-0.09581968188285828	0.017614400014281273	0.0688633993268013	0.20875515043735504	-0.06754590570926666	0.09533589333295822	-0.12179353088140488	0.28396153450012207	-0.2644624710083008	-0.08886119723320007	0.1638670712709427	0.012524222023785114	-0.06022825464606285	-0.0995788425207138	-0.008567827753722668	0.1598309427499771	0.04841368645429611	0.1173694059252739	0.05141429603099823	-0.035957690328359604	0.012832782231271267	0.16949939727783203	-0.1719578206539154	0.1543048620223999	-0.1317083239555359	-0.09707195311784744	-0.0359613373875618	0.15399117767810822	0.21600626409053802	-0.012881355360150337	-0.009336784482002258	-0.018118824809789658	0.17590652406215668	-0.03845972567796707	0.19696728885173798	-0.11502084881067276	0.015204036608338356	0.11213935911655426	0.21485112607479095	0.13790841400623322	-0.116268090903759	0.11858414858579636	0.22408543527126312	0.20753821730613708	-0.26259538531303406	-0.12431466579437256	0.0005056364461779594	0.08183272927999496	-0.028958702459931374	-0.0521765872836113	-0.12799367308616638	-0.09050150215625763	0.005469314754009247	-0.1591147780418396	0.11766151338815689	-0.04814283177256584	-0.08779071271419525	0.028120700269937515	0.011544274166226387	-0.0004929489805363119	0.10371855646371841	0.07983396202325821	-0.11319680511951447	0.0838303193449974	0.08099646866321564	-0.05775333195924759	0.1436740756034851	-0.04580139368772507	0.1195116862654686	-0.049239352345466614	0.0010358965955674648	0.011944510042667389	-0.10339974611997604	0.11678574234247208	-0.02885303646326065	0.05618835985660553	-0.16072732210159302	0.028650976717472076	-0.0357954204082489	-0.11433586478233337	-0.1575012356042862	-0.14284749329090118	0.010516159236431122	-0.20070739090442657	0.10925469547510147	-0.013651172630488873	0.049271468073129654	-0.023458676412701607	0.1257316619157791
braj1242	0.19074133038520813	-0.18407805263996124	0.1192949041724205	-0.2287437468767166	0.0027811583131551743	0.13704048097133636	0.09168121218681335	0.12155814468860626	-0.2876935601234436	-0.38045361638069153	-0.05022409185767174	0.04692421853542328	-0.007163551170378923	-0.010105215013027191	0.10732149332761765	0.1097380742430687	-0.08359396457672119	-0.2566673457622528	0.21081414818763733	0.00822852086275816	0.10519808530807495	-0.0033962090965360403	0.21297021210193634	0.015495479106903076	0.21122343838214874	0.036795590072870255	-0.01893182471394539	-0.0036931373178958893	0.03762970119714737	0.04295957460999489	-0.046993304044008255	0.04406719282269478	0.16483424603939056	-0.3616167902946472	0.4342876672744751	-0.17737215757369995	0.05626225471496582	0.06729162484407425	0.048918820917606354	-0.16491484642028809	-0.08653223514556885	0.3936389088630676	-0.0043100761249661446	0.2713525891304016	0.019256429746747017	0.10252293944358826	0.03638339042663574	0.10855410993099213	-0.17961204051971436	-0.25196102261543274	-0.033813200891017914	-0.17026378214359283	0.1830006241798401	0.071044921875	-0.28467902541160583	0.050421614199876785	0.5568452477455139	-0.08183377236127853	-0.07716014981269836	-0.12164875864982605	0.2726426124572754	-0.19365695118904114	0.061478812247514725	0.0067952824756503105	-0.22356382012367249	0.011238236911594868	0.10372760891914368	-0.11258145421743393	-0.024806484580039978	-0.054190732538700104	0.029189934954047203	0.16231675446033478	0.2690505385398865	-0.015042662620544434	-0.050453558564186096	0.010053369216620922	0.2746361196041107	0.10924254357814789	0.06909697502851486	0.1348390281200409	-0.09299306571483612	-0.11119531840085983	-0.02133774571120739	-0.09346774220466614	-0.059887561947107315	0.0720008909702301	-0.45836037397384644	0.00168007449246943	0.010848947800695896	-0.06344491243362427	-0.2934041917324066	0.004384580999612808	0.33284592628479004	-0.19364455342292786	-0.2802661657333374	-0.19556687772274017	-0.06758300215005875	-0.013597960583865643	0.008775499649345875	0.08262688666582108	0.09462151676416397	-0.19840508699417114	0.12390469014644623	0.1316496580839157	-0.11510460823774338	0.2150520533323288	-0.38125982880592346	0.10561258345842361	-0.08695969730615616	0.009814517572522163	-0.01876053772866726	0.023798594251275063	-0.3130597472190857	0.08196283876895905	-0.04917265474796295	-0.33684661984443665	-0.2075945883989334	-0.32431483268737793	-0.01909010112285614	0.28696197271347046	0.27996525168418884	0.006577300373464823	0.1516515463590622	-0.07548297196626663	0.08910278230905533	-0.05249607563018799	0.17121471464633942	-0.01716490276157856
cham1307	0.22119440138339996	0.1796427071094513	-0.0028842047322541475	0.37831544876098633	-0.06182339787483215	0.08747875690460205	-0.0007922109798528254	0.1977090984582901	0.2173803597688675	0.10436036437749863	0.05747852101922035	-0.0016746651381254196	0.10307198017835617	-0.12450891733169556	-0.2753966152667999	-0.44948261976242065	-0.15504319965839386	-0.06710240989923477	0.07446977496147156	0.04005638509988785	-0.10119424760341644	0.15367254614830017	0.05278811603784561	-0.021233340725302696	0.06757747381925583	0.022336972877383232	0.029763197526335716	-0.26345470547676086	-0.17441099882125854	-0.25228583812713623	0.09816793352365494	0.0057296049781143665	-0.2464684695005417	-0.08710971474647522	0.05548177286982536	-0.03510701283812523	0.15567456185817719	-0.04444856569170952	0.046326346695423126	0.01735510863363743	0.03785762935876846	-0.31551384925842285	0.13651901483535767	-0.19143760204315186	0.008155593648552895	-0.42005565762519836	-0.11513723433017731	0.04067929461598396	-0.18402348458766937	-0.05642959848046303	0.14601245522499084	-0.25305262207984924	-0.22226391732692719	-0.07981862127780914	-0.18826232850551605	0.03564330190420151	0.04831062629818916	0.00875331461429596	-0.04631246253848076	0.11454267054796219	-0.1318642497062683	-0.23670442402362823	0.4751085937023163	-0.07584550976753235	0.10897326469421387	-0.07852435857057571	-0.014512654393911362	-0.11847375333309174	0.013716396875679493	0.10073868930339813	-0.01617433689534664	-0.0651804730296135	0.22018501162528992	-0.1827976405620575	-0.0990893766283989	-0.17532816529273987	-0.09062144160270691	0.00045421908725984395	0.11985838413238525	0.0021676840260624886	0.020538026466965675	0.15456417202949524	-0.08860000222921371	-0.11895129829645157	0.6184918284416199	-0.16858650743961334	-0.24194535613059998	0.22998271882534027	0.14649663865566254	-0.13203096389770508	0.06511526554822922	0.0027076033875346184	-0.08518680930137634	0.11350399255752563	-0.011529650539159775	-0.053921137005090714	-0.10018439590930939	0.004097465891391039	0.05729827657341957	0.18283481895923615	-0.20998209714889526	-0.19075684249401093	-0.026083817705512047	0.07030800729990005	0.10869193077087402	0.11047303676605225	-0.09631341695785522	-0.07983925938606262	0.346078485250473	-0.0009545414941385388	-0.0023176989052444696	0.0962989330291748	0.07964343577623367	-0.06171611696481705	-0.13357487320899963	0.08924366533756256	-0.18501725792884827	0.047722771763801575	0.06036793440580368	0.23413532972335815	0.1606551855802536	0.21504954993724823	-0.1387598067522049	-0.13420000672340393	-0.017140960320830345	0.23751379549503326	-0.10653313249349594	0.2207348793745041
chur1258	-0.18816830217838287	0.07313085347414017	0.3170735836029053	-0.05557494983077049	-0.007593699265271425	0.15709343552589417	-0.03113517351448536	0.23328784108161926	0.08570093661546707	-0.1431390345096588	-0.1435624063014984	0.0070097618736326694	-0.045085012912750244	0.012837394140660763	0.028486326336860657	-0.3619014024734497	-0.15556640923023224	0.20244361460208893	0.18516267836093903	0.006992192938923836	-0.42890381813049316	0.2848508358001709	-0.09797751158475876	0.22407472133636475	-0.06436504423618317	-0.03082071617245674	-0.003010630141943693	-0.37293991446495056	0.05043790861964226	-0.1630602926015854	-0.009798950515687466	0.012670583091676235	-0.02456183172762394	0.03431544825434685	0.40838077664375305	-0.06184161454439163	-0.1187073215842247	0.003983798902481794	-0.001649380661547184	-0.01667541265487671	-0.01680765114724636	0.0877503901720047	-0.05170244351029396	-0.22288915514945984	0.040072351694107056	-0.23647905886173248	0.1659226417541504	0.0239081010222435	0.03192138671875	-0.049920160323381424	-0.18388836085796356	0.11718032509088516	0.012451507151126862	0.04555854946374893	0.23265179991722107	-0.1486787497997284	0.1528099626302719	0.16806259751319885	-0.0414993092417717	-0.16023699939250946	0.14238610863685608	-0.1456836313009262	0.31712308526039124	0.008193924091756344	-0.13529932498931885	0.1022319570183754	-0.02761157602071762	0.17974857985973358	-0.0019722634460777044	0.11557072401046753	0.004089616239070892	-0.12435665726661682	-0.2334907501935959	-0.04903244227170944	-0.23992851376533508	-0.13335618376731873	-0.0893806517124176	0.11385619640350342	-0.07916681468486786	-0.2370937615633011	-0.01123748254030943	-0.13513526320457458	0.037621594965457916	0.15164269506931305	-0.0989677682518959	-0.11357054859399796	-0.2410663366317749	0.003360594157129526	0.15894578397274017	-0.13249751925468445	0.003672656835988164	0.01262633502483368	-0.05176780745387077	0.10683578997850418	0.2322191298007965	0.050423745065927505	0.032637957483530045	-0.002090345835313201	-0.026881717145442963	0.06352222710847855	-0.14386413991451263	0.09588221460580826	0.048779819160699844	-0.10293659567832947	-0.24688827991485596	-0.0901598185300827	0.0581667497754097	0.0902356281876564	0.1103394404053688	0.005965986289083958	0.019932115450501442	0.21203868091106415	0.13479775190353394	0.016706818714737892	-0.08666595816612244	0.024925054982304573	0.1818554848432541	-0.02720213308930397	0.03363404795527458	-0.213617205619812	-0.3884982764720917	0.27720966935157776	0.2014978975057602	-0.014056543819606304	-0.08910101652145386	0.2747618556022644	-0.1899387091398239	0.15864282846450806
dame1241	-0.05805598199367523	-0.13909004628658295	-0.07298428565263748	0.009009863249957561	0.0034964634105563164	-0.024633774533867836	0.015748281031847	0.015352520160377026	0.02270745486021042	-0.13330543041229248	0.08851512521505356	-0.018368933349847794	0.03299412503838539	-0.008469076827168465	0.16054654121398926	0.26070863008499146	-0.033019497990608215	-0.16693557798862457	-0.10502118617296219	0.009459461085498333	-0.12645529210567474	-0.21790733933448792	0.07058317214250565	-0.11281333863735199	-0.04929186776280403	0.002824028953909874	0.01303877867758274	0.1323612928390503	0.010033564642071724	-0.25200244784355164	-0.028665738180279732	-0.011655307374894619	0.04212271049618721	-0.16196271777153015	0.0322517491877079	0.05422268435359001	0.015237446874380112	-0.05611485615372658	0.0012791489716619253	-0.02430874854326248	0.012431701645255089	-0.138261616230011	-0.1524229496717453	0.04421074688434601	-0.1068543791770935	-0.4252971112728119	0.053048063069581985	-0.026026563718914986	-0.03508792817592621	0.1761569231748581	0.2684021294116974	-0.12276516109704971	-0.3190930485725403	0.017799627035856247	-0.06094083935022354	0.01135458704084158	-0.2409045547246933	0.02760215848684311	-0.0908956527709961	0.11629661172628403	0.14664700627326965	0.07996301352977753	-0.16532644629478455	0.17082016170024872	0.1080426499247551	0.08160842955112457	-0.1227588877081871	-0.11443818360567093	-0.016817104071378708	-0.02553398720920086	-0.006021447945386171	-0.011911164037883282	-0.026192709803581238	0.14504799246788025	-0.2866004705429077	-0.02274809218943119	0.26201489567756653	-0.0035170582123100758	-0.05269031226634979	0.09751342236995697	-0.035537801682949066	-0.3807316720485687	0.10526406764984131	0.037642817944288254	-0.2142091989517212	-0.1688244640827179	-0.11955557018518448	-0.03900539129972458	0.028322143480181694	-0.05315043404698372	0.07634731382131577	0.023373425006866455	0.061947423964738846	-0.04724855720996857	0.06827741116285324	0.0834302082657814	-0.007589328568428755	-0.01200168952345848	-0.03966781124472618	0.035819027572870255	0.20830278098583221	-0.01471331063657999	0.04456114023923874	-0.20425021648406982	0.19744327664375305	-0.02100619673728943	-0.04166480153799057	0.21713480353355408	-0.140690878033638	-0.01666869968175888	0.0017598888371139765	0.02236475795507431	-0.2911885678768158	0.015471897087991238	0.07843772321939468	0.07395558059215546	0.05899219959974289	0.24323031306266785	0.044928617775440216	-0.32749050855636597	-0.006540966685861349	0.03787485510110855	0.0126054547727108	-0.03703694045543671	-0.011593119241297245	-0.0027027784381061792	-0.11321105808019638	0.05534692108631134
dhiv1236	0.011838385835289955	0.13970191776752472	0.10321511328220367	0.11436042189598083	0.008001497946679592	0.1881999522447586	0.023409828543663025	0.04676969349384308	-0.1625632345676422	0.1065860316157341	-0.3245609998703003	0.02617197297513485	0.0455084852874279	-0.0299358107149601	-0.026271767914295197	0.22314944863319397	-0.05808515101671219	0.01844136230647564	0.16426721215248108	0.009857178665697575	0.05914696678519249	-0.016466539353132248	0.054545555263757706	-0.11598402261734009	-0.05703018605709076	-0.008518854156136513	-0.02351626195013523	-0.0771113857626915	0.13542871177196503	0.0167592391371727	-0.19310951232910156	-0.01736055128276348	-0.12901005148887634	-0.2585011124610901	0.2618381381034851	-0.0020010406151413918	-0.05844837427139282	0.09579229354858398	-0.0009388532489538193	0.11408182978630066	0.04785991087555885	0.055273763835430145	-0.10419448465108871	0.0902014896273613	0.03544159233570099	-0.0015878748381510377	0.15616843104362488	0.006171350833028555	0.03990694135427475	-0.1967371553182602	-0.23283645510673523	0.10077734291553497	-0.21488885581493378	0.012985642068088055	-0.1904090940952301	0.15279345214366913	-0.21305423974990845	0.07177632302045822	-0.005065292585641146	-0.033133380115032196	0.05828901380300522	-0.08393437415361404	0.06806974112987518	-0.3950444459915161	0.310574471950531	-0.03387011960148811	-0.244073748588562	-0.08423643559217453	0.006810976192355156	-0.0006472376408055425	-0.0011505684815347195	0.22447842359542847	-0.14652960002422333	0.02979590930044651	-0.1472298502922058	0.03957477957010269	-0.17886705696582794	-0.16062571108341217	0.03589322417974472	0.12999622523784637	-0.009901017881929874	-0.3299236297607422	0.11316273361444473	0.006898059044033289	-0.15545552968978882	-0.10329461097717285	0.26061975955963135	-0.06628923863172531	-0.002462087431922555	0.12368004769086838	0.1648753583431244	-0.01617569290101528	0.09028152376413345	0.006558150518685579	0.017551621422171593	0.05924094095826149	-0.006976413074880838	-0.006169436499476433	0.00020798188052140176	-0.05067740008234978	-0.09143330901861191	-0.14622215926647186	-0.04701288789510727	0.3311646580696106	-0.35238558053970337	0.044258616864681244	-0.002870438853278756	-0.19578129053115845	-0.007059860043227673	-0.0030353800393640995	-0.00037856699782423675	0.035519059747457504	0.05927404761314392	-0.006124621722847223	0.12466684728860855	0.08901572972536087	-0.05870884284377098	0.30119404196739197	0.11737675219774246	0.2505439519882202	0.06200500577688217	0.07342773675918579	-0.11617138236761093	0.01772794872522354	-0.019083894789218903	0.11672244220972061	0.01575990952551365	0.06363476067781448
doma1260	-0.029155004769563675	-0.13741034269332886	-0.148275226354599	-0.04495832696557045	0.011386128142476082	-0.13616298139095306	-0.06808584183454514	0.1641739010810852	-0.1803949922323227	0.19333747029304504	0.2785639464855194	0.00528036430478096	0.181186705827713	0.02374338172376156	-0.2903425991535187	-0.26061323285102844	0.06435953825712204	-0.45957663655281067	0.10617292672395706	-0.004811911378055811	0.300367534160614	0.21374203264713287	0.1355646401643753	0.050596754997968674	-0.019409334287047386	-0.021746911108493805	-0.03281814232468605	0.03975702077150345	0.071192167699337	0.09634140133857727	-0.060332562774419785	0.018631350249052048	0.30433177947998047	-0.2232031524181366	-0.24909216165542603	-0.16407333314418793	0.08881790935993195	-0.09758582711219788	0.015418647788465023	-0.2353200614452362	0.062339719384908676	-0.09257008880376816	0.23284399509429932	0.2125610113143921	0.05298466607928276	0.10464286059141159	0.3144941031932831	0.01482714805752039	-0.06205978989601135	-0.030991164967417717	0.20309506356716156	0.017436929047107697	-0.08232227712869644	0.010272884741425514	-0.3739534020423889	-0.22042596340179443	-0.06776372343301773	0.1788661777973175	0.004708237014710903	0.1667817085981369	0.05269356071949005	0.3098560571670532	-0.22296912968158722	-0.09875261783599854	0.3440588414669037	0.17745588719844818	-0.2098148763179779	0.08439493924379349	-0.015639586374163628	-0.04007241129875183	0.007918241433799267	0.07139485329389572	-0.06815703213214874	0.06393499672412872	0.06977403908967972	-0.0007254816591739655	-0.05495684966444969	0.1356201171875	0.17463423311710358	-0.18953296542167664	0.12344540655612946	-0.3114491105079651	0.15656378865242004	-0.01159301120787859	0.00896729901432991	-0.13975690305233002	-0.25857287645339966	-0.03522985801100731	-0.10022920370101929	0.07000473886728287	0.35725724697113037	0.007278103847056627	0.22168467938899994	-0.06956644356250763	0.08900102972984314	0.17976360023021698	-0.019678574055433273	-0.026596354320645332	-0.01303495466709137	-0.055225349962711334	-0.08305536210536957	0.19280396401882172	-0.12404944747686386	-0.13024358451366425	0.12135530263185501	0.20050325989723206	-0.20379076898097992	-0.06462613493204117	-0.03760107606649399	0.012893025763332844	-0.017780374735593796	-0.03860864043235779	-0.27915194630622864	0.06701350212097168	0.30447906255722046	0.24408961832523346	-0.10130471736192703	0.025616735219955444	0.19233164191246033	0.32955166697502136	-0.19551804661750793	0.025900864973664284	0.009584445506334305	0.15218009054660797	-0.017955709248781204	-0.09221955388784409	-0.10565908998250961	0.1394219696521759
gang1265	0.07268352061510086	-0.024689678102731705	0.11491614580154419	0.11352439969778061	-0.023442745208740234	0.21335779130458832	0.02996569499373436	-0.02890191599726677	-0.03649566322565079	0.1142212375998497	0.3312003016471863	0.013263501226902008	-0.04285450652241707	0.003737467108294368	-0.04157377406954765	0.10576120018959045	0.021313397213816643	-0.022161003202199936	0.22497369349002838	-0.025972574949264526	0.019879216328263283	-0.08511646836996078	-0.013058563694357872	0.005232874304056168	-0.16025009751319885	0.0022427139338105917	0.023148825392127037	-0.05542178079485893	-0.01314325351268053	-0.07552940398454666	0.06623038649559021	0.026366131380200386	0.14303113520145416	-0.14242719113826752	0.12173577398061752	-0.07045304775238037	-0.0017899137455970049	0.04871036112308502	0.008689913898706436	-0.035416461527347565	-0.07137496769428253	-0.1291077584028244	0.021210776641964912	-0.1253102719783783	0.07116401195526123	0.20536434650421143	-0.0844167023897171	0.0632023736834526	0.03842753544449806	0.1378568559885025	-0.21516519784927368	0.0030822977423667908	0.1499306559562683	0.029328860342502594	0.15365462005138397	0.17755576968193054	0.0772104561328888	-0.14786629378795624	0.11068286001682281	0.04946768283843994	0.06936350464820862	0.0384490042924881	0.04759589582681656	0.28240838646888733	-0.19085924327373505	0.06264641880989075	-0.24031731486320496	0.16092024743556976	0.012465684674680233	0.03596159443259239	-0.010786139406263828	0.19665223360061646	-0.09717126935720444	-0.16910941898822784	-0.09382006525993347	0.032438013702631	0.05377276986837387	0.09245966374874115	0.05563062056899071	0.042841922491788864	-0.05969861149787903	0.12528029084205627	0.0033223943319171667	-0.06137942522764206	-0.16615477204322815	0.09675093740224838	-0.11438588052988052	-0.12535132467746735	-0.06755388528108597	0.05455533415079117	0.03805463761091232	0.02765817940235138	-0.13920874893665314	0.12983113527297974	0.10391505807638168	-0.041580114513635635	0.001468151924200356	0.0217202827334404	0.006030879449099302	-0.14937934279441833	0.09556172788143158	-0.05825824290513992	-0.24794763326644897	0.14573873579502106	0.07727343589067459	0.005246659275144339	0.1679261326789856	-0.0449473075568676	0.03330392763018608	-0.003570451634004712	0.001799826044589281	-0.06773445755243301	-0.2017732560634613	-0.01182050071656704	0.07949239760637283	-0.2905506491661072	0.027992455288767815	-0.053888577967882156	-0.1216714084148407	0.02483968995511532	0.15391908586025238	-0.07248850911855698	-0.4259481430053711	-0.11948786675930023	0.06587255746126175	-0.19848573207855225	-0.25617140531539917	0.037639085203409195
garh1243	-0.03229454532265663	0.10198329389095306	-0.006831884849816561	0.17744740843772888	-0.014525559730827808	-0.07762256264686584	0.025160538032650948	0.04896274954080582	-0.10058141499757767	0.17771048843860626	-0.001306351856328547	0.006922480650246143	0.05702302232384682	-0.0022612982429564	0.05163886398077011	0.13330480456352234	0.07152798026800156	0.35789111256599426	-0.031734541058540344	0.011345542967319489	-0.11100392788648605	0.06686609238386154	0.018311968073248863	0.2700393497943878	0.13105854392051697	-0.015285113826394081	0.014222528785467148	-0.07769090682268143	0.04175560176372528	-0.050733208656311035	-0.208382710814476	0.004906269256025553	-0.14389945566654205	-0.18124639987945557	-0.02664078213274479	0.11412364989519119	0.045112498104572296	-0.014220653101801872	-0.009606385603547096	-0.08290538191795349	0.07840288430452347	0.19670042395591736	0.09137322008609772	0.21729044616222382	0.10255307704210281	0.09709535539150238	0.0812709629535675	0.175308957695961	-0.00350299128331244	0.2479763925075531	0.10611055791378021	-0.025857560336589813	-0.04650554805994034	-0.00985728483647108	0.07576584070920944	-0.0473339706659317	-0.029447242617607117	0.13309040665626526	0.017793504521250725	-0.1706085354089737	0.07949651777744293	0.047474127262830734	-0.06554706394672394	0.1413077563047409	0.07814159989356995	0.09511946886777878	-0.04494648426771164	-0.07507319748401642	0.018009178340435028	0.007905088365077972	-0.012311778962612152	0.221332386136055	-0.13647900521755219	0.13424180448055267	-0.1436941921710968	0.022638853639364243	-0.2034076452255249	0.045988161116838455	0.024351822212338448	0.20463062822818756	0.09408964216709137	0.23840469121932983	-0.007604135200381279	0.17195801436901093	-0.025703849270939827	-0.24187734723091125	-0.014822914265096188	-0.014021588489413261	-0.02746657282114029	0.10188969224691391	-0.070162333548069	-0.012497472576797009	-0.40265965461730957	0.172477588057518	0.04368829354643822	0.18998195230960846	-0.03461305797100067	0.015438231639564037	0.0016434844583272934	0.049684833735227585	0.13370001316070557	-0.12150829285383224	-0.13196580111980438	0.07691563665866852	0.14030128717422485	0.15926121175289154	0.10494397580623627	0.018799683079123497	0.018355105072259903	-0.00012861730647273362	0.011550042778253555	0.15568047761917114	-0.06304996460676193	-0.04350689798593521	-0.28255656361579895	0.0914212167263031	-0.04634685814380646	-0.3921782076358795	0.21024145185947418	0.13369722664356232	0.06228257715702057	-0.04145972058176994	0.1933942586183548	-0.12189745903015137	0.026995467022061348	0.03446214646100998	-0.18175658583641052	0.03402195870876312
gawa1247	0.11260766535997391	-0.10334905982017517	-0.1966116577386856	-0.0825861319899559	0.007270743604749441	0.078328438103199	0.023470081388950348	-0.02921801060438156	-0.046746693551540375	-0.14104755222797394	-0.01132669672369957	-0.0006234172033146024	0.24915620684623718	-0.014271238818764687	0.13288958370685577	-0.1663123220205307	-0.03821089491248131	-0.1470467448234558	-0.1692684143781662	0.02159867063164711	-0.07503701001405716	0.03965602070093155	0.02087933011353016	0.2095562070608139	-0.06809186190366745	0.006745480000972748	0.014586417935788631	-0.11786901950836182	0.020192865282297134	0.18629328906536102	0.11398977786302567	-0.013742110691964626	-0.045971889048814774	0.16397008299827576	-0.13224735856056213	0.026551533490419388	0.03776850178837776	-0.0042684441432356834	-0.009978234767913818	-0.0034723221324384212	-0.006743998732417822	-0.3285701274871826	-0.3586874008178711	-0.2740817964076996	0.12104371935129166	0.18450267612934113	0.04723058640956879	0.003188010770827532	-0.08405788242816925	0.14608819782733917	-0.09297284483909607	-0.1017756536602974	-0.15818555653095245	0.0021309128496795893	-0.23976270854473114	0.09012719988822937	0.021989991888403893	-0.06335610151290894	-0.13064327836036682	-0.07872524857521057	0.1502186805009842	0.11056886613368988	-0.0021694337483495474	0.2725369930267334	-0.00818013958632946	0.19538620114326477	0.10436493903398514	0.013555753044784069	0.01714262366294861	-0.0004723992315120995	0.012440307065844536	0.29486706852912903	-0.06058989092707634	0.03488883748650551	-0.253413587808609	-0.003828241489827633	-0.11214229464530945	0.20286406576633453	0.0872190073132515	-0.015371174551546574	0.0454774834215641	-0.1794346123933792	-0.13390421867370605	-0.013569526374340057	-0.22768068313598633	0.08592737466096878	0.06740877032279968	0.0005068526370450854	0.041228167712688446	-0.026219027116894722	0.030519185587763786	-0.02033938840031624	0.007467715535312891	0.03480466455221176	-0.06828335672616959	0.23156020045280457	-0.0018853334477171302	-0.004124675877392292	-0.016515586525201797	0.019271038472652435	-0.19405385851860046	-0.06374531984329224	-0.06843212246894836	-0.06514148414134979	-0.0888199508190155	-0.1356188952922821	0.07712429761886597	0.21438224613666534	-0.06905554980039597	-0.009193513542413712	0.018878307193517685	0.008088863454759121	-0.18307650089263916	0.01952645741403103	-0.039082858711481094	0.2398015856742859	-0.05474947765469551	0.1636326014995575	0.11489535123109818	-0.009388809092342854	-0.2261023074388504	-0.10026048123836517	0.22059494256973267	0.1165805459022522	0.04548383504152298	0.08209722489118576	0.13841599225997925	0.02645230107009411
guja1252	-0.005132745951414108	-0.06308222562074661	-0.06756360828876495	0.016602398827672005	0.01941589266061783	-0.03603814169764519	-0.00819811038672924	-0.05832645297050476	-0.013799936510622501	0.05110377073287964	-0.07084023207426071	0.007107516285032034	-0.15637464821338654	0.003368208184838295	0.01534647773951292	-0.03471441939473152	0.04375004023313522	0.10910529643297195	0.058836132287979126	0.009302070364356041	-0.025126582011580467	0.01708381250500679	-0.004269781056791544	0.039180856198072433	0.001174848759546876	-0.006522114854305983	-0.0071737621910870075	0.009773696772754192	0.023063136264681816	-0.09826794266700745	-0.08509749919176102	-0.010912341997027397	0.023049911484122276	0.041529566049575806	0.0057309712283313274	0.007040819153189659	0.01787729002535343	0.0033508078195154667	-0.004064945504069328	0.175021231174469	-0.0027939751744270325	0.031008126214146614	-0.07168298214673996	0.10128752142190933	-0.01885046437382698	0.12002255022525787	-0.11919469386339188	0.010375067591667175	-0.004970075562596321	0.03340451419353485	0.10702147334814072	0.10284219682216644	0.03851507976651192	0.016385363414883614	0.044210292398929596	-0.050325907766819	0.008848587982356548	0.029398273676633835	0.017633106559515	0.033121105283498764	-0.16162078082561493	-0.0038448271807283163	-0.022534409537911415	0.07717453688383102	-0.07792727649211884	-0.12550780177116394	-0.07195542007684708	0.013059818185865879	-0.005294515751302242	0.01983497105538845	-0.0016809373628348112	0.06326568126678467	0.05736803263425827	-0.010010521858930588	-0.0068257334642112255	0.010273664258420467	-0.04900182783603668	-0.05016353353857994	-0.01784113235771656	0.022150622680783272	-0.007639843039214611	-0.046508122235536575	0.038585640490055084	-0.09828431904315948	0.026463273912668228	-0.08955907076597214	-0.08790834248065948	0.0023917059879750013	0.007843377068638802	0.0063062491826713085	-0.06182258576154709	0.0028038781601935625	-0.08504363894462585	0.00033652730053290725	0.007608726155012846	0.04355448856949806	0.005412697326391935	0.0021351035684347153	-0.0023669246584177017	0.03646440431475639	0.02346455119550228	-0.014615880325436592	0.042880553752183914	0.21743303537368774	-0.06475982815027237	0.0077387443743646145	-0.014727090485394001	0.12921619415283203	-0.02223711647093296	-0.00612444756552577	-0.010167381726205349	-0.008692828007042408	0.11128941178321838	0.004729501903057098	0.05610727146267891	0.015585051849484444	0.04203661158680916	-0.12174373865127563	0.020342379808425903	-0.00035063581890426576	-0.1742614060640335	-0.038488153368234634	-0.005972060840576887	0.03098328411579132	0.0013382581528276205	-0.0880262702703476	0.1527455598115921	0.011908973567187786
hind1269	-0.01441128272563219	0.0382632277905941	0.071662537753582	-0.05258673429489136	-0.017664922401309013	0.044408682733774185	-0.0009991234401240945	0.04791979864239693	0.0029166953172534704	0.005818942561745644	-0.07489392161369324	-0.001654447871260345	-0.0905725508928299	-0.0019833010155707598	0.009992864914238453	-0.015393433161079884	-0.012334801256656647	0.03013257309794426	0.03820432722568512	0.003234418574720621	0.034344349056482315	-0.004345790017396212	-0.009384790435433388	-0.0754377618432045	0.03580648824572563	-0.009523559361696243	-0.0015950207598507404	-0.010364090092480183	-0.034136850386857986	0.02950114756822586	0.07591218501329422	0.019116146489977837	0.054369594901800156	-0.06986228376626968	-0.026520702987909317	-0.022983357310295105	0.009906681254506111	-0.013259190134704113	-0.007782405707985163	-0.01916644349694252	0.0029738829471170902	-0.002732720924541354	0.09530980885028839	-0.06802309304475784	0.013005304150283337	0.026697680354118347	-0.023630347102880478	-0.01668064296245575	0.016327474266290665	0.020855631679296494	0.06762193888425827	-0.060546230524778366	0.0845867469906807	-0.009791875258088112	0.007393681909888983	0.048436205834150314	0.05692988261580467	0.018637845292687416	0.004857743624597788	-0.029673494398593903	0.06301217526197433	0.06215399503707886	0.08820296078920364	-0.023055419325828552	-0.0307640228420496	0.08522725850343704	-0.03424079716205597	0.020380819216370583	0.01663477160036564	0.003663577837869525	-0.010964768938720226	-0.03600182384252548	-0.007660518866032362	-0.003126249648630619	-0.014330431818962097	0.00044347441871650517	-0.051536284387111664	-0.024801962077617645	-0.0020965631119906902	-0.048554908484220505	7.646284939255565e-05	0.042153771966695786	0.08580233156681061	0.02806653268635273	-0.049266040325164795	-0.06885779649019241	-3.920908784493804e-05	0.007707169279456139	0.010210614651441574	-0.014372569508850574	-0.011796345002949238	0.0070291501469910145	-0.001192697323858738	-0.021708114072680473	0.00625414215028286	0.04052124544978142	0.003923306707292795	0.0015554447891190648	0.010873938910663128	0.025903740897774696	-0.006407837383449078	0.014184931293129921	0.053617924451828	0.1491815745830536	0.08420376479625702	-0.043662458658218384	-0.0470786914229393	-0.030187224969267845	0.06010203808546066	-0.001503277337178588	0.004929033573716879	0.0053808498196303844	0.1543610692024231	0.009453806094825268	-0.019065529108047485	-0.06868501007556915	-0.029386743903160095	0.03801091015338898	0.03964846208691597	-0.05684465542435646	0.10634742677211761	-0.020304890349507332	0.03606569766998291	0.012441309168934822	0.002622021362185478	0.006208143662661314	0.055626094341278076	-0.03735954686999321
indu1241	0.02559470757842064	0.24798060953617096	0.2535457909107208	-0.13660727441310883	-0.0016688393661752343	-0.13874413073062897	0.06421469897031784	-0.14062383770942688	0.06294696778059006	-0.049197446554899216	0.09251055866479874	0.008332534693181515	0.03435995429754257	-0.017956307157874107	0.10526394098997116	-0.10071664303541183	0.10440168529748917	0.17407475411891937	0.0996708795428276	0.01706143096089363	0.2886980175971985	-0.035905733704566956	0.0025952295400202274	0.16960638761520386	-0.25924593210220337	-0.013631846755743027	0.012498153373599052	-0.08097399771213531	-0.00024322587705682963	0.14867733418941498	-0.1500491350889206	0.043988265097141266	0.19033771753311157	0.06759610027074814	0.18517917394638062	0.1623818725347519	0.1848122924566269	-0.02581513673067093	-0.028876546770334244	-0.46629294753074646	0.22193947434425354	-0.35524478554725647	0.0218898244202137	0.09376964718103409	0.038378626108169556	-0.03310820832848549	-0.20820286870002747	-0.272176057100296	0.07626580446958542	0.1810394674539566	-0.16864784061908722	-0.3780464828014374	-0.4091116189956665	0.15656383335590363	0.12535443902015686	-0.14039607346057892	0.16968964040279388	0.17093928158283234	-0.0909820944070816	-0.041287861764431	-0.02132803574204445	0.00038341881008818746	0.13484379649162292	0.2474082112312317	0.21833878755569458	-0.10033126920461655	-0.2018274962902069	0.0034742956049740314	0.015763619914650917	-0.022777482867240906	0.015510758385062218	0.25073373317718506	-0.2705000638961792	-0.21271595358848572	0.10008919984102249	0.03536398708820343	0.17108109593391418	0.1920613795518875	0.038839664310216904	-0.04909006506204605	-0.05196696147322655	0.1513603925704956	0.1595069319009781	-0.5051935315132141	0.06091252714395523	0.03730442002415657	0.0784837156534195	0.11162850260734558	0.126528799533844	-0.0345483124256134	-0.03781432658433914	-0.011350151151418686	0.20891965925693512	-0.269462525844574	-0.1102542132139206	0.017207767814397812	-0.0015295546036213636	0.05075979605317116	0.003959272988140583	0.018634721636772156	0.34749531745910645	0.23086881637573242	-0.1309533715248108	-0.25130465626716614	-0.01904640533030033	-0.05759808421134949	-0.28058868646621704	0.030763978138566017	-0.10551702976226807	-0.019208518788218498	-0.004450982436537743	-0.07503392547369003	-0.01604182831943035	-0.04198412969708443	0.19766885042190552	-0.010982359759509563	0.0035287581849843264	-0.08253969252109528	-0.10326912999153137	0.25496459007263184	-0.30916982889175415	-0.17586195468902588	0.07038433104753494	0.09595228731632233	-0.0025668544694781303	-0.029525665566325188	0.183392733335495	-0.03759254142642021
jaun1243	0.10985828936100006	-0.06869257241487503	0.11834485828876495	-0.08067840337753296	0.001420576823875308	0.049727294594049454	0.03512777015566826	-0.05993266776204109	0.07720828056335449	-0.025240883231163025	-0.15560001134872437	-0.033162496984004974	0.2382746934890747	0.026044489815831184	-0.030637413263320923	-0.23585069179534912	0.16487523913383484	0.16562482714653015	6.271681922953576e-05	0.01987512968480587	-0.2635551393032074	0.1449800282716751	-0.07544822245836258	0.11971550434827805	0.06442103534936905	0.02208135649561882	0.019450346007943153	-0.13813145458698273	0.23197905719280243	-0.2794520854949951	-0.16222138702869415	-0.007870732806622982	-0.06384435296058655	0.27772995829582214	0.09959744662046432	-0.05873646214604378	0.11695896089076996	0.014380335807800293	-0.023544548079371452	-0.28842997550964355	0.041912492364645004	0.10379748791456223	-0.16446073353290558	0.25564947724342346	0.1256040781736374	-0.3284679055213928	0.057601138949394226	-0.13602207601070404	-0.1351369172334671	0.08751258999109268	-0.2966456711292267	0.13021042943000793	-0.014452175237238407	0.08962686359882355	-0.1360195428133011	0.0036581079475581646	0.4423671066761017	0.04384636506438255	-0.2516551911830902	0.05292916297912598	-0.30534106492996216	-0.10457978397607803	-0.12560591101646423	-0.10597572475671768	-0.04378702864050865	0.3758208453655243	-0.27832508087158203	-0.06409832835197449	-0.017410025000572205	-0.00807016622275114	-0.02440374158322811	-0.31715044379234314	0.17837391793727875	0.15421074628829956	0.17741116881370544	0.03268205747008324	0.2919113039970398	0.2868534028530121	0.11186368763446808	-0.023614084348082542	0.0674944743514061	0.09136177599430084	-0.1854097694158554	0.14417020976543427	-0.17034099996089935	-0.14478662610054016	-0.27978214621543884	0.004797622095793486	-0.08806579560041428	-0.20068272948265076	-0.05186033248901367	-0.007363326381891966	0.11378047615289688	-0.09799902141094208	0.017572518438100815	-0.07886527478694916	0.08413349837064743	-0.012090212665498257	0.008934334851801395	0.14916691184043884	-0.03997525945305824	0.024342123419046402	-0.17555363476276398	0.29670432209968567	0.2711077928543091	0.019327882677316666	0.2683575451374054	-0.1807861030101776	0.07824590057134628	-0.007971668615937233	-0.0007458689506165683	-0.010901331901550293	0.025948725640773773	-0.006988509092479944	0.1754339337348938	-0.23362402617931366	0.025460287928581238	-0.07337594032287598	0.13136908411979675	0.08075970411300659	0.05773244425654411	-0.05888323485851288	-0.2599221467971802	0.10854335129261017	0.038183413445949554	0.10721814632415771	-0.047632258385419846	0.21017703413963318
kach1277	-0.011533621698617935	0.07522736489772797	0.0013414255809038877	-0.17349617183208466	0.0005945516750216484	0.028592154383659363	0.04443876072764397	-0.12470599263906479	-0.12183843553066254	0.0770116075873375	0.17559905350208282	-0.014072686433792114	-0.04702500253915787	-0.0064470479264855385	0.011394521221518517	0.10937409102916718	-0.055407192558050156	-0.17994071543216705	-0.15126043558120728	-0.01587730087339878	-0.21061868965625763	0.13170640170574188	-0.03348581865429878	0.31804531812667847	-0.07742704451084137	0.0007491185097023845	0.0019225787837058306	0.028604697436094284	-0.16552644968032837	0.12439017742872238	-0.16106688976287842	-0.006748036481440067	0.09533824026584625	-0.2208203822374344	0.2788519561290741	-0.02764509804546833	-0.046326324343681335	0.04487989842891693	0.009063339792191982	0.06191479414701462	0.04362645745277405	-0.07963753491640091	-0.0019668962340801954	0.2513478994369507	0.027712546288967133	-0.1693580150604248	-0.06374775618314743	0.16706714034080505	0.07792092859745026	0.0442846305668354	-0.07641258835792542	-0.042357370257377625	-0.08302244544029236	0.029756920412182808	-0.1400764137506485	0.007663688622415066	0.25412389636039734	0.05752371624112129	0.18163146078586578	0.09922343492507935	-0.17715589702129364	-0.06824448704719543	-0.041999951004981995	-0.12953010201454163	-0.17373041808605194	-0.026872744783759117	-0.33718299865722656	-0.03223977982997894	-0.01896437257528305	-0.0011793992016464472	-0.03898442164063454	-0.3143064081668854	-0.2759190499782562	-0.01635032147169113	-0.09349513798952103	0.05334755778312683	0.16075751185417175	-0.17587241530418396	0.03877224773168564	0.028007490560412407	-0.019395947456359863	0.18597574532032013	-0.1520538628101349	-0.06325463205575943	0.2521430552005768	0.0682775154709816	-0.01924249157309532	-0.02019219473004341	-0.011745253577828407	0.1722680777311325	0.1659615933895111	0.025924084708094597	-0.25347137451171875	0.09003616124391556	0.05192892253398895	-0.05532212182879448	0.008324653841555119	-0.0161750391125679	0.005257927812635899	0.036781322211027145	-0.03060850128531456	-0.02181411348283291	0.11471204459667206	-0.14857254922389984	0.1945388913154602	0.021750368177890778	0.04506843537092209	0.29984965920448303	-0.04610363766551018	-0.01974296383559704	-0.02457543835043907	0.013630429282784462	0.048345573246479034	0.0028172312304377556	-0.12847739458084106	-0.02595839463174343	-0.16816657781600952	0.15047504007816315	-0.09628751128911972	-0.06653370708227158	0.029720619320869446	-0.027608398348093033	0.2271677851676941	-0.08438108116388321	0.013315791264176369	0.21644358336925507	0.06803622096776962	0.040709834545850754
kala1372	0.047722890973091125	-0.33282342553138733	0.1674949675798416	0.04153439775109291	0.004218711517751217	-0.1263623684644699	-0.014322974719107151	0.07294362783432007	0.10710199922323227	-0.0018048897618427873	0.040248800069093704	-0.0027380622923374176	0.36793991923332214	0.019974229857325554	-0.13914364576339722	0.02581625245511532	-0.08987584710121155	-0.06886827200651169	-0.3920740783214569	0.0036014278884977102	0.13698342442512512	-0.07604850828647614	-0.04747387021780014	0.15033894777297974	-0.1300552785396576	-0.0025818003341555595	0.004514039494097233	-0.011752258986234665	0.0458780899643898	-0.17806825041770935	-0.144459530711174	0.0058534773997962475	-0.10586579889059067	-0.03276657313108444	-0.043028417974710464	0.05201609060168266	0.04628783091902733	0.00991916749626398	-0.023934798315167427	0.08956559002399445	0.03973553329706192	-0.279996395111084	0.17810837924480438	0.06060541421175003	-0.007853318005800247	-0.30798208713531494	0.12097426503896713	0.07704051584005356	0.07502356171607971	-0.12415053695440292	0.381069540977478	0.1849612146615982	-0.24089841544628143	0.0037907452788203955	0.06806286424398422	0.3336634933948517	0.27923959493637085	-0.008066384121775627	0.061846330761909485	0.0102153941988945	-0.18823100626468658	0.10301516205072403	0.30105113983154297	0.08576371520757675	-0.05712035298347473	-0.023908689618110657	0.1826343834400177	-0.06509014219045639	0.0012174281291663647	-0.008314795792102814	-0.0025219996459782124	-0.01995740830898285	0.00886828638613224	0.07025159150362015	-0.3532260060310364	0.0961751639842987	-0.060719821602106094	0.011831389740109444	0.04226348176598549	0.17032386362552643	-0.073379285633564	-0.27628713846206665	-0.16831783950328827	0.053031548857688904	-0.19982323050498962	-0.006296577397733927	0.09558849781751633	-0.03997916728258133	-0.03111344203352928	-0.09263486415147781	0.1024254709482193	-0.0007052215514704585	0.001023090211674571	-0.052023470401763916	-0.003489717375487089	0.055313896387815475	-0.05429432541131973	0.013723008334636688	-0.0019463114440441132	-0.04928630590438843	0.09477277845144272	-0.1331179291009903	-0.02879909984767437	-0.46662572026252747	0.03547954931855202	0.16359448432922363	0.13031820952892303	0.5100693702697754	0.30267325043678284	0.014478693716228008	-0.011136375367641449	-0.0013960731448605657	-0.21456219255924225	-0.08526314049959183	0.07215443253517151	0.3380984663963318	0.04410818964242935	0.061755575239658356	0.07326271384954453	-0.07941322028636932	-0.07573159039020538	0.03690330684185028	-0.31444498896598816	0.19716079533100128	-0.024459026753902435	-0.12503552436828613	-0.004137771669775248	-0.0588429756462574
kala1373	-0.02155114896595478	-0.29300087690353394	-0.11521414667367935	-0.25456881523132324	-0.01971447467803955	-0.01570112258195877	-0.025126641616225243	0.03312797471880913	0.2351820468902588	-0.049473732709884644	0.16953420639038086	0.014793992042541504	-0.33176639676094055	0.028073254972696304	-0.06559030711650848	0.08060038834810257	0.009365346282720566	0.10330656915903091	0.03717106953263283	0.006583149544894695	-0.14810854196548462	0.12490909546613693	-0.04982348158955574	-0.08499961346387863	-0.09701067954301834	0.008997662924230099	-0.010416208766400814	-0.06006377562880516	-0.12283450365066528	0.27524152398109436	-0.1445290446281433	0.018635105341672897	-0.046520132571458817	-0.14836160838603973	0.014819673262536526	0.0388716422021389	0.06328907608985901	0.0719517320394516	0.016497556120157242	0.12424733489751816	-0.013008714653551579	-0.21283303201198578	-0.1890367567539215	0.1517125368118286	-0.04194977879524231	-0.34259751439094543	0.13385239243507385	0.1484069973230362	0.019066642969846725	0.1987754851579666	0.26720383763313293	-0.28129541873931885	-0.23564255237579346	0.0269515011459589	-0.26717373728752136	0.17197561264038086	-0.21639896929264069	-0.09422696381807327	0.09629478305578232	-0.24330030381679535	-0.24372777342796326	-0.10454531013965607	0.064915232360363	0.041950780898332596	0.006237990688532591	0.047771155834198	-0.1872839480638504	0.17661313712596893	0.005780049134045839	-0.014492548070847988	0.00041755905840545893	0.09264525771141052	-0.07744134217500687	-0.02963697351515293	0.002133134752511978	0.01162280049175024	-0.09482171386480331	0.08830350637435913	-0.10675150901079178	-0.20405705273151398	-0.004893760662525892	0.18475814163684845	-0.0420280396938324	0.10213307291269302	-0.39904269576072693	0.001828570500947535	-0.03423633053898811	-0.03143802657723427	0.018653206527233124	0.07700726389884949	-0.011562168598175049	0.0011104479199275374	0.1305704563856125	-0.04030400887131691	0.00371239660307765	-0.11077132076025009	-0.007494074758142233	0.020032525062561035	0.009334228001534939	0.24632833898067474	-0.23259583115577698	0.15181896090507507	0.06253933161497116	-0.12639044225215912	-0.2350759506225586	0.03828676789999008	-0.18698085844516754	-0.025002114474773407	-0.08128451555967331	0.01377703808248043	-0.008894232101738453	0.06118791177868843	-0.2723728120326996	-0.047244731336832047	0.23629365861415863	-0.012918996624648571	0.16669771075248718	-0.022969990968704224	0.10134115070104599	0.25237447023391724	-0.14769306778907776	0.0849648118019104	-0.12363610416650772	-0.004080998245626688	0.00947678741067648	0.05745921656489372	-0.09074831753969193	-0.0575113482773304
kash1277	-0.0028235260397195816	0.08171755820512772	-0.16411186754703522	-0.012554202228784561	-0.005747213028371334	0.06973211467266083	-0.0009438192355446517	0.06502705067396164	0.03845569118857384	-0.01713649183511734	-0.25537633895874023	-0.0127214714884758	-0.014159450307488441	0.0063272262923419476	0.02678753435611725	0.041975971311330795	0.02329343557357788	0.15255002677440643	0.04510139301419258	0.002817370928823948	-0.05104649439454079	0.12470172345638275	-0.015801886096596718	0.061337910592556	-0.019024234265089035	-0.012094653211534023	0.004437719006091356	-0.014713476411998272	-0.0548451691865921	0.013892857357859612	-0.11303336173295975	0.012437001802027225	0.03194217011332512	0.13981880247592926	0.0583643764257431	-0.030180376023054123	-0.007614480797201395	-0.00038642529398202896	-0.0011704062344506383	-0.0854460820555687	-0.011053632013499737	0.047125332057476044	0.07219712436199188	0.07129555195569992	-0.0038359719328582287	-0.07158014923334122	0.03330180421471596	-0.0971374362707138	-0.011674278415739536	-0.21141555905342102	0.0647057592868805	0.023253535851836205	0.023829130455851555	0.001685087219811976	0.1585540771484375	-0.12267649918794632	-0.25977861881256104	-0.02369021438062191	7.838478632038459e-05	0.023462770506739616	-0.08075423538684845	-0.00025960736093111336	-0.004581345245242119	-0.0906275138258934	0.0053640371188521385	-0.08667811006307602	-0.07284924387931824	0.03561839088797569	-0.006267269141972065	-0.0019303548615425825	-0.01694910228252411	0.0655444860458374	-0.09456266462802887	0.030086860060691833	0.04576263204216957	-0.01954185962677002	-0.051335688680410385	0.12273454666137695	0.006369343493133783	-0.07393237948417664	-0.0049242619425058365	0.17049625515937805	-0.06653182953596115	-0.11088090389966965	0.05982569232583046	0.05290890112519264	-0.050131261348724365	0.0010100179351866245	-0.006888329051434994	0.007635473273694515	0.07516460865736008	0.0030584027990698814	0.07664898782968521	-0.0077764177694916725	-0.0029547885060310364	-0.09465125948190689	0.012693861499428749	0.0082090487703681	-0.005534056108444929	-0.028081746771931648	-0.009044310078024864	0.021854860708117485	0.0300105232745409	0.01988602802157402	0.09485015273094177	-0.018080946058034897	0.00808638520538807	0.2712898552417755	-0.072147898375988	-0.0027414823416620493	0.003564143553376198	-0.05477599799633026	-0.3511101007461548	0.0021441758144646883	0.06849716603755951	0.14013664424419403	0.007224987726658583	0.17646920680999756	-0.056959591805934906	-0.1050795242190361	0.016826922073960304	-0.007745381444692612	0.020362719893455505	0.0014893605839461088	-0.004160594195127487	0.02754347212612629	-0.08574185520410538	0.00881231389939785
khet1238	-0.030696477741003036	0.22650226950645447	-0.013492344878613949	-0.20736634731292725	0.01495165005326271	-0.1850256323814392	0.008069050498306751	0.17707902193069458	-0.10521247982978821	-0.08349605649709702	-0.020135222002863884	0.00012246202095411718	-0.1948971301317215	0.011576520279049873	-0.021187830716371536	-0.21614404022693634	-0.24854543805122375	-0.05632447078824043	0.36510372161865234	-0.016036387532949448	-0.4101697504520416	0.10250528156757355	-0.023682953789830208	0.09719133377075195	0.2384265512228012	-0.0007730414508841932	0.008443913422524929	-0.1140979528427124	0.005091791972517967	0.0636032372713089	-0.2943747639656067	0.012861115857958794	-0.08322134613990784	0.14971192181110382	0.24945589900016785	0.034694425761699677	-0.015454495325684547	-0.030424518510699272	-0.06093645095825195	0.09668853878974915	0.13177885115146637	-0.2288864254951477	0.0635690689086914	-0.029476840049028397	-0.0027018447872251272	-0.2081218957901001	-0.04237794503569603	-0.17151916027069092	0.11522386223077774	-0.13124452531337738	-0.22789226472377777	-0.08233936131000519	0.028942599892616272	-0.13878625631332397	0.03613054379820824	0.21211914718151093	0.25624778866767883	-0.06987325102090836	-0.030338795855641365	-0.1832752227783203	0.004587023984640837	-0.01890663057565689	0.23306579887866974	-0.08143354952335358	-0.2684907615184784	-0.1754334270954132	0.0032760784961283207	-0.05643212050199509	-0.032182928174734116	-0.09318055212497711	-0.03813842684030533	0.039372339844703674	0.2672075927257538	0.0231431033462286	0.11596143245697021	0.13898421823978424	0.14012445509433746	0.3406717777252197	0.019819222390651703	0.38861173391342163	-0.0816848874092102	0.04033529758453369	-0.0440581776201725	0.14845529198646545	0.18890772759914398	-0.1305895894765854	0.14611949026584625	-0.25080761313438416	-0.1499340534210205	-0.04438183456659317	0.28018254041671753	0.0076215085573494434	0.15732869505882263	0.09418684244155884	0.09047029167413712	0.044008247554302216	-0.01730928383767605	-0.0016074861632660031	-0.013102236203849316	0.2344961315393448	0.10315358638763428	0.17217333614826202	-0.1480409801006317	0.22641636431217194	-0.3777361214160919	0.3008899688720703	-0.1021384745836258	0.10262376815080643	-0.09333554655313492	0.004903208464384079	-0.00527852913364768	0.15548177063465118	-0.1349133849143982	-0.09666188061237335	0.1514834314584732	-0.017267145216464996	-0.08782535046339035	-0.10954594612121582	-0.24191734194755554	-0.08007112145423889	-0.19807586073875427	0.0678524449467659	-0.13072355091571808	-0.3826999068260193	-0.08954034745693207	-0.08671314269304276	0.06755432486534119	-0.17496676743030548
khow1242	-0.03399847447872162	-0.06965018808841705	0.16168515384197235	0.009872482158243656	-0.0148801663890481	-0.2848663032054901	0.05210757255554199	0.03316131979227066	0.1444396823644638	0.06658946722745895	-0.23880535364151	-0.0006553606363013387	-0.22386851906776428	-0.0026412857696413994	-0.020137060433626175	0.13630078732967377	-0.05822863057255745	-0.2854166030883789	-0.025563593953847885	0.015063723549246788	0.19425594806671143	-0.021243588998913765	-0.01373736746609211	-0.02839745208621025	-0.11492180079221725	0.003952902276068926	-0.0011614372488111258	0.0306257251650095	-0.014058856293559074	-0.037116214632987976	0.2576560378074646	-0.00996746588498354	-0.1267695128917694	0.378866970539093	-0.10700061917304993	-0.09173043072223663	-0.049218133091926575	0.038674142211675644	0.0064343116246163845	0.17627371847629547	-0.021827399730682373	-0.02193601243197918	0.24506686627864838	0.1881519854068756	0.002307935617864132	-0.24230307340621948	0.01479780487716198	0.12816694378852844	-0.01214640587568283	0.0878501832485199	-0.15800514817237854	0.024173349142074585	-0.2298889011144638	-0.04393811523914337	-0.14734256267547607	-0.12436626106500626	0.11987482756376266	-0.05579981952905655	0.08723003417253494	0.023578563705086708	0.07661557197570801	-0.2581026554107666	0.07411835342645645	0.28055912256240845	0.18513377010822296	-0.40147772431373596	-0.1820218563079834	-0.06554245948791504	-0.007113907486200333	0.008634536527097225	-0.0033940996509045362	0.10694030672311783	0.19251838326454163	0.1047884076833725	-0.15217769145965576	-0.04540068283677101	-0.23231114447116852	-0.11089435964822769	-0.003440581727772951	-0.09429111331701279	0.02614634484052658	-0.0641094520688057	-0.1597345918416977	0.13205750286579132	-0.23686309158802032	-0.11727777868509293	0.025532077997922897	0.09459859132766724	-0.0019578938372433186	0.08291316777467728	-0.020245982334017754	-0.015938568860292435	0.03481396287679672	-0.024807611480355263	0.0034999188501387835	0.14975574612617493	0.020234588533639908	-0.005964543670415878	0.006020284723490477	-0.1380648910999298	0.04808587580919266	0.02749260701239109	-0.12408410757780075	-0.3129817247390747	-0.15376989543437958	-0.141689270734787	0.25513955950737	-0.02406197600066662	0.1548794060945511	0.01237503718584776	-0.009931515902280807	-0.06490352004766464	-0.4105081558227539	-0.017409510910511017	-0.13340602815151215	0.09980139136314392	-0.08017805963754654	0.17052744328975677	-0.11976137012243271	-0.2856234014034271	-0.005534711759537458	-0.025009742006659508	-0.016458870843052864	-0.03546450659632683	0.011221307329833508	-0.09867707639932632	0.0930132269859314	-0.07109716534614563
kohi1248	0.04380442947149277	0.22976085543632507	0.13085076212882996	-0.43825724720954895	0.008752740919589996	-0.2774631381034851	-0.0762336328625679	-0.0780545026063919	-0.05729396641254425	0.025303995236754417	0.08118148148059845	0.008434857241809368	0.24942760169506073	-0.023453177884221077	0.2099703997373581	-0.07778704911470413	0.2459324151277542	-0.3080447316169739	-0.022701064124703407	0.017185566946864128	0.18379509449005127	-0.09408070147037506	0.12960825860500336	0.01652487739920616	0.2817990779876709	-0.027676424011588097	-0.035424936562776566	-0.1444777250289917	0.21107496321201324	0.1503087282180786	-0.3895423710346222	-0.018730558454990387	0.0037984990049153566	0.19981582462787628	-0.20520515739917755	-0.15861551463603973	0.1340792328119278	0.08503120392560959	0.00935366377234459	0.030767159536480904	0.07063955068588257	-0.1355976015329361	-0.2759934663772583	-0.15428286790847778	-0.04507669806480408	-0.04266941174864769	-0.2770068049430847	0.17722578346729279	-0.0866730585694313	0.04261238873004913	0.07501089572906494	-0.11093451827764511	-0.18451586365699768	-0.0031342075672000647	0.045097142457962036	0.021726258099079132	-0.19308732450008392	0.3189559876918793	0.08815096318721771	0.021464383229613304	0.16230101883411407	0.15940512716770172	0.07068327069282532	0.1037459671497345	-0.11606720089912415	-0.14935395121574402	0.02592085674405098	0.024201525375247	0.017342854291200638	-0.00801679864525795	-0.0006998020107857883	-0.08938988298177719	-0.12866146862506866	-0.12735603749752045	0.09109126776456833	0.12815439701080322	0.18365702033042908	0.06376760452985764	0.12003981322050095	-0.06429070234298706	0.06596701592206955	0.23184910416603088	0.1570575088262558	0.04337870702147484	-0.07367328554391861	0.03781991824507713	0.008028523065149784	-0.1009884849190712	-0.04494596645236015	-0.09480548650026321	0.20237943530082703	-0.020169636234641075	0.16997282207012177	-0.0542081817984581	-0.046647798269987106	-0.16006721556186676	-0.039388783276081085	0.007825902663171291	-0.043570585548877716	-0.11225710809230804	-0.16760960221290588	0.06937327235937119	0.08023466914892197	-0.07452133297920227	-0.09380687028169632	0.14659427106380463	-0.3109598457813263	-0.10241135209798813	0.16298116743564606	0.01811870187520981	0.006109238136559725	0.2723137140274048	-0.4975111484527588	-0.04927763342857361	0.0043107895180583	-0.03232113644480705	-0.12905177474021912	-0.07622990757226944	0.01808665692806244	-0.32806774973869324	0.33532047271728516	-0.11316147446632385	-0.2018907070159912	0.08197664469480515	-0.20766040682792664	0.08948825299739838	-0.08623290061950684	0.30830803513526917
konk1267	0.030138088390231133	0.09845240414142609	0.09864724427461624	-0.12426809221506119	-0.023949449881911278	-0.11210890859365463	0.034587860107421875	0.10261903703212738	0.03277966007590294	-0.21381621062755585	0.3031667172908783	-0.006696369033306837	0.23198500275611877	-0.010615314356982708	0.07639746367931366	0.10861925780773163	-0.013712059706449509	0.14499497413635254	-0.16185054183006287	-0.006548112258315086	-0.13149258494377136	0.25368475914001465	-0.028433097526431084	0.21008940041065216	0.11209796369075775	0.011129619553685188	-0.005196428392082453	-0.007232754956930876	-0.07380037754774094	-0.07659532129764557	0.011881355196237564	0.019140029326081276	0.07633429020643234	0.2374870330095291	-0.12468435615301132	-0.06719529628753662	0.04556810483336449	-0.011639905162155628	0.005045546218752861	-0.12709546089172363	-0.02363036945462227	0.2380957454442978	-0.24391333758831024	0.09065349400043488	-0.02440461330115795	0.13198886811733246	0.11844579875469208	0.2767360210418701	0.07846776396036148	-0.022057175636291504	-0.1300220489501953	0.008283250965178013	-0.16407516598701477	0.012084226123988628	0.22782358527183533	0.0777464210987091	-0.13906583189964294	-0.0558302104473114	0.1560087352991104	0.1388320028781891	0.07485596090555191	0.09638125449419022	0.024020137265324593	-0.008008022792637348	0.02286376990377903	0.3077268898487091	0.24230781197547913	-0.10228436440229416	0.00562515901401639	0.0016575685003772378	-0.00270268227905035	-0.16205920279026031	-0.09934598952531815	0.03669183701276779	0.05235340818762779	-0.008727424778044224	-0.11790677905082703	-0.2587743103504181	-0.04204865172505379	0.0018077291315421462	-0.0215073861181736	-0.24360457062721252	0.029649851843714714	-0.1485244780778885	0.04991510882973671	-0.0812850371003151	-0.18333828449249268	0.027294347062706947	0.008278429508209229	0.020189370959997177	-0.056072309613227844	0.0007440671906806529	-0.23079757392406464	-0.054249901324510574	0.011996716260910034	0.09984231740236282	-0.02103218249976635	0.010211492888629436	0.02875530533492565	-0.13880348205566406	-0.06469445675611496	-0.16539758443832397	-0.08082360774278641	0.3855834901332855	-0.26292380690574646	-0.013177606277167797	0.14101412892341614	0.23485028743743896	0.131051167845726	0.0073280478827655315	0.005211431998759508	-0.03562653809785843	0.07449237257242203	0.04232863336801529	0.1520753651857376	0.03843802213668823	0.07527051866054535	-0.027464648708701134	-0.020147662609815598	0.27936896681785583	0.013129145838320255	-0.03133804723620415	0.04709973558783531	-0.07468532770872116	0.026206234470009804	-0.05837762728333473	0.355925053358078	-0.008043177425861359
kuma1273	-0.0087160374969244	-0.017902253195643425	0.12171106040477753	0.015485108830034733	0.007692832499742508	-0.0954216718673706	0.0036146731581538916	-0.012682909145951271	0.03560764715075493	0.08290421962738037	0.06414218246936798	-0.017209095880389214	0.09168609231710434	0.007451651152223349	0.008728699758648872	0.05552177503705025	-0.01198537740856409	-0.023714441806077957	-0.0676463320851326	-0.0007068880368024111	0.05399308726191521	0.01680915616452694	0.007703449577093124	0.15539799630641937	-0.05519106239080429	-0.018986770883202553	-0.002624792978167534	-0.007222955580800772	-0.028045766055583954	0.03128843382000923	0.012179594486951828	0.006887619849294424	-0.04127287492156029	-0.09704206138849258	0.12260546535253525	0.00718097435310483	-0.021655168384313583	-0.0006555793806910515	-0.004312644246965647	-0.17473705112934113	0.006226919591426849	0.04043407738208771	-0.04011441767215729	-0.09957834333181381	-0.012678239494562149	0.09928936511278152	0.05114847794175148	-0.019496841356158257	-0.010672369040548801	-0.012453793548047543	0.10168900340795517	0.0022349010687321424	-0.24000154435634613	-0.0033244858495891094	-0.17492370307445526	-0.15022651851177216	0.13437749445438385	-0.01085259485989809	-0.013745710253715515	-0.008998146280646324	-0.15331049263477325	-0.007102982606738806	-0.03818588703870773	-0.08594920486211777	0.03783879801630974	-0.01730312779545784	0.09578356891870499	0.02719876915216446	-0.0006150812259875238	9.098302689380944e-05	-0.011699060909450054	-0.0025492003187537193	0.03834543377161026	0.0452783927321434	-0.021009013056755066	-0.012161488644778728	-0.021697061136364937	0.09047283232212067	-0.008682926185429096	0.02393815480172634	-0.0031230796594172716	0.05866536870598793	0.05407049134373665	0.12168140709400177	0.043768271803855896	0.11337830126285553	0.0018570690881460905	-0.009047049097716808	0.009316794574260712	-0.019431056454777718	-0.09780900180339813	0.0111561743542552	-0.0016871123807504773	0.03626810759305954	0.0022690764162689447	-0.025888243690133095	-3.125562216155231e-05	-0.004895021673291922	0.006556792184710503	0.030493544414639473	-0.04909394681453705	-0.020488284528255463	0.008363792672753334	0.19725118577480316	0.10533002763986588	-0.03454064950346947	0.02532367594540119	-0.08470980077981949	-0.057484086602926254	-0.0037868956569582224	-0.0029840769711881876	-0.014997197315096855	0.07289231568574905	0.0004667184839490801	0.014047587290406227	-0.02815808169543743	0.033882785588502884	-0.20978757739067078	-0.04985992982983589	-0.07993900775909424	0.03884594514966011	-0.007900547236204147	0.025092247873544693	-0.020216913893818855	-0.005634448025375605	-0.0328727625310421	-0.06970874965190887	-0.00879571121186018
kura1247	-0.05360714718699455	0.013750658370554447	0.032619211822748184	-0.15805938839912415	-0.037506915628910065	-0.2734207808971405	0.15633606910705566	0.11304241418838501	-0.07376453280448914	0.2661062777042389	-0.22045667469501495	-0.017700299620628357	0.409121572971344	-0.017214786261320114	-0.2807970345020294	0.3085079789161682	0.06569940596818924	-0.14983779191970825	-0.3102317154407501	0.014718763530254364	0.02046746015548706	0.04422113671898842	-0.10216187685728073	0.02098652720451355	0.18085230886936188	0.02587909623980522	0.019469065591692924	-0.004153286572545767	-0.43738895654678345	0.3023415207862854	0.21896621584892273	0.0406394898891449	0.18956075608730316	0.1452806293964386	-0.27695825695991516	-0.2668552100658417	0.017710518091917038	-0.24958321452140808	0.044887956231832504	-0.12404876202344894	-0.022423891350626945	0.07432237267494202	0.07091310620307922	-0.40340811014175415	0.3127554655075073	-0.11285952478647232	-0.0008512737113051116	-0.17146383225917816	0.10804058611392975	0.16270379722118378	-0.29768332839012146	0.11405261605978012	-0.42404431104660034	0.13749000430107117	-0.1621345430612564	0.16924132406711578	-0.10706983506679535	-0.012171854265034199	-0.3203829228878021	-0.07833345979452133	-0.10138319432735443	-0.03610582277178764	-0.30852386355400085	-0.005931902211159468	-0.12873469293117523	0.38148656487464905	-0.4270634055137634	-0.13220469653606415	-0.010979711078107357	-0.14648427069187164	0.0019236068474128842	0.01664329133927822	-0.36656317114830017	-0.10590098053216934	-0.363073468208313	-0.08309830725193024	0.05457209423184395	0.06369052082300186	0.09522680193185806	0.15837793052196503	-0.05361562222242355	-0.039520014077425	-0.07432340830564499	-0.27020463347435	-0.2064775824546814	-0.10258154571056366	-0.2551891505718231	-0.0874805897474289	-0.08511140942573547	0.0719137042760849	-0.07883870601654053	0.0322796031832695	0.17733080685138702	0.13258399069309235	-0.3238946497440338	0.07336455583572388	-0.12551601231098175	0.05011267215013504	0.03514562547206879	0.15944638848304749	-0.19406333565711975	0.0431148037314415	0.035754092037677765	-0.23580308258533478	-0.22512057423591614	0.14836283028125763	-0.3353004455566406	0.060040876269340515	0.1833783984184265	0.004484948236495256	-0.003693042788654566	0.037156086415052414	-0.17753112316131592	-0.1786826252937317	0.08293019235134125	-0.03959153592586517	0.03692896291613579	-0.243019700050354	-0.06741994619369507	0.05388837307691574	-0.14688272774219513	0.3378487527370453	0.012200949713587761	0.01868925243616104	-0.011988222599029541	-0.1401302069425583	0.091290682554245	0.09713409841060638
laur1248	-0.06208942458033562	0.25139737129211426	0.08006531000137329	0.3418537378311157	-0.017719803377985954	0.2769576609134674	0.06025119498372078	-0.03838569298386574	-0.031122490763664246	-0.12640202045440674	-0.19802193343639374	-0.021261047571897507	-0.03571312874555588	0.007637884467840195	-0.11373108625411987	-0.23086756467819214	0.004963214974850416	-0.04164120927453041	0.16405664384365082	-0.0012281228555366397	-0.0709083080291748	0.04717719927430153	-0.0508224256336689	0.08775081485509872	0.31172946095466614	0.00019721713033504784	-0.057682495564222336	0.18673525750637054	-0.21407216787338257	0.1311791092157364	-0.08009842038154602	0.008097505196928978	-0.1613871157169342	-0.15399698913097382	-0.24722632765769958	0.02104024402797222	-0.07410875707864761	-0.0791006088256836	0.03169059380888939	-0.04710082337260246	0.051335278898477554	-0.3077693581581116	-0.27401334047317505	-0.3639962375164032	-0.10915174335241318	-0.2090521901845932	0.18518976867198944	-0.10546351224184036	0.0290897935628891	0.17768526077270508	0.27656134963035583	0.16587363183498383	-0.07662367820739746	0.011119182221591473	0.0607098750770092	0.12152887135744095	0.13203157484531403	0.14304481446743011	0.005024390295147896	-0.316537082195282	-0.23262013494968414	-0.3010222911834717	0.019036907702684402	0.2526783049106598	0.11688366532325745	0.27359381318092346	-0.23902583122253418	-0.12103717774152756	0.0003581671044230461	-0.00037236104253679514	-0.019872859120368958	0.11650823056697845	-0.0754702165722847	0.21237927675247192	0.08586902916431427	0.016394801437854767	-0.052124232053756714	0.12220451980829239	-0.2040870189666748	-0.25676342844963074	0.029352538287639618	-0.4035402536392212	-0.12656758725643158	-0.06331297010183334	0.13229723274707794	0.014742858707904816	-0.014160597696900368	-0.0950596034526825	0.08775361627340317	0.20355716347694397	-0.03908170014619827	0.004092653747648001	-0.10074037313461304	-0.2618945240974426	-0.2672487497329712	-0.19975417852401733	0.03276229649782181	-0.006954561453312635	0.022803373634815216	-0.1077573150396347	0.11472032964229584	-0.2362099438905716	0.28221169114112854	-0.1779264509677887	0.03150463104248047	0.10996879637241364	-0.07622957974672318	-0.22254672646522522	0.2129206359386444	0.004523098934441805	-0.0005060137482360005	-0.009215437807142735	-0.24587075412273407	0.0771496519446373	-0.027189968153834343	-0.021361572667956352	-0.13723720610141754	0.12837065756320953	-0.08113682270050049	-0.3041267991065979	-0.1701115220785141	-0.12875382602214813	-0.10744651407003403	-0.003142407163977623	-0.023421797901391983	-0.11297071725130081	-0.009647739119827747	-0.08252719044685364
loma1235	0.22209137678146362	-0.014256944879889488	0.2451244443655014	0.14779482781887054	-0.02983851730823517	-0.2800116539001465	-0.1681274175643921	-0.2803570032119751	-0.271650493144989	0.0208818968385458	0.150605246424675	-0.03083367645740509	-0.2164691686630249	0.019062643870711327	0.12732729315757751	-0.01766069047152996	0.13779161870479584	-0.09184695780277252	0.16273458302021027	0.043849725276231766	0.16110850870609283	0.01674121618270874	-0.01558999065309763	0.2921229600906372	-0.12082701176404953	-0.026773879304528236	0.08565129339694977	0.08400749415159225	0.3112575113773346	0.264466792345047	-0.08935463428497314	0.01647716574370861	-0.042562615126371384	-0.24479351937770844	0.1054397001862526	-0.027905389666557312	0.05020413175225258	-0.1541229784488678	-0.06317821145057678	0.43403929471969604	0.0026674570981413126	0.04090241342782974	0.18460631370544434	0.05339889973402023	0.1424018293619156	0.2825871706008911	0.16410593688488007	0.0653185322880745	0.15713970363140106	-0.21887820959091187	0.5583928823471069	-0.05097971856594086	0.2567019462585449	-0.09343797713518143	-0.018386611714959145	0.3208432197570801	-0.38043102622032166	-0.2346905916929245	0.02484235353767872	-0.0059158387593925	-0.3344804644584656	-0.2639727294445038	-0.34576159715652466	0.3080461025238037	-0.20728635787963867	-0.28372639417648315	0.21588879823684692	-0.17901894450187683	-0.014437024481594563	0.05219051614403725	-0.06777705252170563	0.3123118281364441	-0.16242460906505585	-0.17664572596549988	0.10355357080698013	0.1330084651708603	-0.40922093391418457	0.016517341136932373	-0.1445935070514679	-0.31166717410087585	0.0370149165391922	-0.4810876250267029	0.2364933043718338	-0.5355882048606873	-0.22197824716567993	-0.24854551255702972	0.30363917350769043	-0.06628431379795074	-0.1474904716014862	0.12883736193180084	-0.3467601239681244	-0.018042249605059624	0.13034588098526	-0.09555230289697647	0.15592177212238312	-0.46816229820251465	0.018120119348168373	0.013366390019655228	-0.002458063419908285	-0.026530420407652855	0.49023717641830444	0.2212388813495636	-0.1451290398836136	0.010333284735679626	-0.2692660987377167	0.14434011280536652	0.0035037945490330458	-0.08090051263570786	0.41128823161125183	-0.029324278235435486	0.02341027744114399	-0.21879537403583527	0.005735678598284721	-0.17749549448490143	0.10010284185409546	0.21351641416549683	-0.3823164701461792	-0.25507989525794983	0.047041114419698715	-0.5312497019767761	0.30134591460227966	0.10894843935966492	0.3490096926689148	0.19299113750457764	0.19379006326198578	-0.05586785823106766	0.07620421797037125	0.06727457046508789
maha1287	0.035285938531160355	-0.0876050516963005	0.26847541332244873	0.16528382897377014	-0.019414443522691727	-0.08647551387548447	-0.030247557908296585	0.08013217151165009	-0.14944744110107422	-0.014062621630728245	0.03441394865512848	0.005028658080846071	-0.1982128769159317	-0.02988317981362343	-0.21700693666934967	0.19802553951740265	-0.08005254715681076	-0.0793849378824234	-0.030032169073820114	0.007827446796000004	0.09460213780403137	-0.29306358098983765	-0.036323267966508865	0.059316571801900864	-0.04200884699821472	0.0029471886809915304	0.003984963055700064	-0.08547752350568771	0.1009112000465393	0.12678231298923492	-0.03278579190373421	-0.0029073527548462152	0.03387981280684471	0.20812824368476868	-0.1986851841211319	0.0001977338397409767	-0.04644118249416351	-0.06298191100358963	0.009721421636641026	-0.3504906892776489	-0.07149459421634674	0.21284149587154388	-0.27986910939216614	0.08766057342290878	0.012234010733664036	-0.10431427508592606	0.10502616316080093	0.355057954788208	0.10791275650262833	-0.22552286088466644	0.08174354583024979	-0.11330247670412064	-0.1869724541902542	-0.05472400411963463	-0.16388417780399323	-0.21537375450134277	0.15346522629261017	-0.005332211032509804	0.1848284900188446	-0.14448533952236176	0.006061326712369919	-0.12667551636695862	0.10974534600973129	0.21608486771583557	-0.07422512769699097	0.19726663827896118	-0.1622522473335266	-0.11047816276550293	0.003533716080710292	0.012320746667683125	0.004936329089105129	0.028136204928159714	-0.21522997319698334	-0.0026748194359242916	0.170439213514328	0.007045352831482887	-0.2895890474319458	0.16268865764141083	-0.03417982533574104	0.07257726043462753	0.064213827252388	0.05245707184076309	-0.08030667155981064	-0.09697667509317398	0.13184888660907745	0.15107609331607819	0.045370280742645264	-0.038314953446388245	0.015330617316067219	-0.1548628956079483	0.16790440678596497	0.0062490967102348804	0.011395363137125969	0.014953183010220528	-0.033962611109018326	0.23845401406288147	0.01907624490559101	-0.0043944185599684715	-0.0044763777405023575	-0.09354750066995621	-0.039018504321575165	-0.0624082125723362	-0.10819902271032333	0.05989770218729973	0.36713504791259766	0.2214832305908203	-0.2518526315689087	-0.010995589196681976	-0.02500355988740921	0.012285325676202774	0.010992703959345818	-0.01175480242818594	0.062420886009931564	-0.03428644314408302	0.0876382365822792	0.20860819518566132	-0.09616592526435852	-0.10242455452680588	0.08224453032016754	-0.14686499536037445	-0.17354713380336761	0.0017742534400895238	0.003728141076862812	0.07319570332765579	-0.05575640872120857	-0.09497155249118805	0.0878436267375946	0.11237361282110214
maha1305	0.012332241050899029	-0.06423889845609665	-0.1743491291999817	0.00672592967748642	-0.008115573786199093	-0.03709446266293526	0.002961290068924427	-0.021784039214253426	-0.038014017045497894	0.010560275055468082	-0.09567716717720032	-0.006529493723064661	0.06370611488819122	-0.0027911451179534197	0.01092683058232069	0.014244078658521175	-0.03103400394320488	-0.00702607911080122	0.022025300189852715	0.0009854801464825869	0.05123290419578552	0.026049036532640457	0.013112564571201801	-0.1631290316581726	-0.026921579614281654	0.0024433175567537546	-0.00044951547170057893	-0.013049361295998096	-0.004921902436763048	-0.0057271006517112255	-0.029405102133750916	0.007798552513122559	0.011185488663613796	-0.09063539654016495	-0.004807029385119677	-0.012426221743226051	0.008470104075968266	-0.012446952983736992	0.004238306079059839	0.03943311795592308	0.0025882129557430744	0.01261855848133564	-0.05188847705721855	-0.01586254872381687	0.0036394838243722916	0.003322628326714039	-0.037893492728471756	-0.06256162375211716	0.0207213182002306	0.0345202311873436	-0.0474456250667572	0.015123279765248299	-0.07088907808065414	-0.009294397197663784	0.08502457290887833	-0.13277645409107208	0.004943647887557745	-0.011937664821743965	0.003762606531381607	0.023834068328142166	0.029195161536335945	0.02994210459291935	-0.049165815114974976	0.16012437641620636	0.015366729348897934	0.09276507794857025	0.2289377748966217	-0.027670258656144142	0.0030118594877421856	-0.007671759929507971	-0.00846466887742281	-0.011705462820827961	0.024727974086999893	-0.020710168406367302	0.15302948653697968	0.015700843185186386	0.03861105814576149	0.016377029940485954	-0.002423414494842291	0.03645927831530571	0.003879279363900423	0.04307939112186432	-0.1142602413892746	0.08883427828550339	0.053521446883678436	-0.03730178251862526	-0.011390372179448605	0.002387175103649497	0.0023380042985081673	0.0027044289745390415	-0.0607047937810421	0.00575266033411026	0.019135398790240288	-0.005365664139389992	0.005907837301492691	-0.046154554933309555	-0.008442298509180546	0.0047139972448349	0.014711775816977024	-0.012974139302968979	0.0163703802973032	0.013415594585239887	-0.0627666562795639	-0.3155325651168823	-0.12685756385326385	-0.007214217912405729	0.019599253311753273	0.011048194020986557	-0.03512333333492279	0.002123513724654913	-0.008404199033975601	-0.025271210819482803	0.22477994859218597	-0.004598358646035194	0.07768313586711884	-0.03205041214823723	0.008192707784473896	0.22641652822494507	-0.059878528118133545	0.09565229713916779	0.09510265290737152	0.0055596050806343555	-0.010194260627031326	0.01398871187120676	0.009063202887773514	0.016219740733504295	0.013182050548493862	-0.010962972417473793
mait1250	-0.09081704169511795	0.08366911858320236	0.004445292521268129	-0.004190788604319096	0.009758930653333664	0.032651882618665695	0.009984212927520275	-0.0010931044816970825	-0.043136365711688995	-0.21517819166183472	0.12755310535430908	-0.027129147201776505	0.1759241223335266	0.022353554144501686	0.097470223903656	0.12098076194524765	-0.03804963827133179	-0.14860884845256805	0.1463138312101364	-0.025779958814382553	0.02804129384458065	0.07662180811166763	-0.029008550569415092	-0.11120310425758362	0.0029621520079672337	-0.0007072024745866656	0.005765862297266722	0.06112339347600937	0.05407022684812546	0.06749773770570755	0.03864153474569321	0.011238331906497478	0.06623735278844833	0.11856378614902496	0.028716081753373146	-0.023171184584498405	-0.03877526521682739	-0.026244699954986572	-0.006309530232101679	0.017216084524989128	-0.02997943013906479	-0.04531441628932953	0.08056268841028214	0.08604849874973297	0.035018108785152435	-0.02283652313053608	-0.0290780421346426	-0.08482524752616882	0.010271705687046051	0.2427571564912796	-0.023853084072470665	0.01871423050761223	0.26407280564308167	0.010840821079909801	-0.1408342868089676	0.00990100484341383	0.04839111119508743	-0.1408873051404953	-0.005895769223570824	0.021724728867411613	0.24671296775341034	-0.06126886233687401	0.10486661642789841	0.026241730898618698	-0.03488137945532799	-0.047284260392189026	-0.14955243468284607	-0.07044297456741333	0.0036059704143553972	0.015340515412390232	0.006639712490141392	0.16103747487068176	-0.08294107764959335	-0.048461224883794785	0.03792019188404083	-0.001112147350795567	-0.13572542369365692	-0.017988724634051323	-0.09905802458524704	0.053400132805109024	0.047797512263059616	0.11842019110918045	0.07706349343061447	0.002575787017121911	0.08543674647808075	0.13202254474163055	-0.048381660133600235	0.03585805371403694	0.006208009086549282	0.026504160836338997	0.07156045734882355	0.0015627203974872828	0.05841028690338135	0.06391526013612747	0.0007219810504466295	-0.09994688630104065	0.01832713559269905	0.024581754580140114	0.03399281948804855	0.02999352104961872	0.09688141942024231	0.09325945377349854	-0.006558046210557222	0.03685149922966957	-0.00457552308216691	0.04382887855172157	0.050695858895778656	0.025313090533018112	-0.09690709412097931	-0.00639038672670722	0.012322585098445415	0.02605203166604042	0.1709299385547638	0.05202575400471687	0.1604423075914383	0.14797379076480865	0.04692300409078598	-0.16659879684448242	0.12877242267131805	-0.09725794196128845	0.091634102165699	0.06623058021068573	-0.2134113907814026	0.05642396956682205	0.04184260964393616	0.06034190580248833	-0.19988146424293518	-0.04691031202673912
mara1378	-0.0037564150989055634	0.11082028597593307	-0.007828911766409874	-0.003875850699841976	0.00016217459051404148	-0.02546595223248005	0.002631531562656164	0.004748756997287273	0.030220303684473038	-0.004651637282222509	-0.06027538701891899	-0.004131533671170473	-0.10021787136793137	0.00019775530381593853	-0.03498160466551781	0.08816476166248322	0.012615811079740524	-0.0024043205194175243	-0.08443973958492279	0.007165808230638504	-0.011282102204859257	-0.008546743541955948	0.00011293728312011808	-0.06253832578659058	0.020985819399356842	-0.008775809779763222	0.00030874667572788894	0.017379216849803925	0.02137838490307331	0.008482802659273148	0.04616248235106468	0.004006417468190193	-0.0472182035446167	-0.038685642182826996	-0.1112755760550499	0.01057172566652298	-0.009203244000673294	0.011496804654598236	0.010700123384594917	-0.07017020136117935	0.0016489693662151694	-0.11994251608848572	-0.10158098489046097	0.08510646224021912	-0.007608342450112104	-0.0382341705262661	0.0033515954855829477	0.010458691976964474	-0.02159966714680195	-0.08471104502677917	0.043221618980169296	-0.0157538503408432	0.1245785802602768	-0.006049871910363436	0.0786723867058754	0.04553915187716484	0.10371676832437515	-0.0045364415273070335	-0.00020188935741316527	-0.019062187522649765	-0.08304181694984436	-0.02985110506415367	-0.08818401396274567	0.021273894235491753	-0.0006521195755340159	-0.10940446704626083	0.18490928411483765	0.008516594767570496	-0.0014520254917442799	0.012934381142258644	0.01136033795773983	0.05407259985804558	-0.0688094049692154	0.0013081316137686372	0.13985666632652283	-0.0072496808134019375	0.09045200794935226	-0.0812155157327652	-0.019332459196448326	-0.006393133196979761	0.018152739852666855	-0.09879042208194733	-0.09391480684280396	-0.02395208179950714	-0.07854381203651428	0.01106060016900301	-0.006765511352568865	0.01463173795491457	0.006280615925788879	0.059825606644153595	-0.06012751907110214	-0.008260280825197697	-0.0017292548436671495	-0.0020484996493905783	-0.00840657390654087	0.018232449889183044	-0.004893050994724035	0.014692176133394241	-0.0052497670985758305	-0.028787605464458466	-0.048590343445539474	-0.009448026306927204	-0.038725096732378006	0.2569802701473236	0.06309250742197037	0.01782434806227684	0.060368284583091736	0.07220244407653809	0.03454433009028435	0.004206227138638496	-0.004571457393467426	0.03431643545627594	0.19017353653907776	0.007202647626399994	-0.04469095915555954	-0.057184308767318726	0.02481047250330448	-0.21049658954143524	0.0073554120026528835	0.03572866693139076	-0.1176680251955986	0.015090933069586754	0.01583215221762657	-0.028150154277682304	0.01879207231104374	-0.029782351106405258	-0.05546542629599571	-0.00926306564360857
marw1260	0.36243709921836853	0.1955222487449646	-0.010418033227324486	-0.03828657045960426	-0.006685978267341852	-0.10557345300912857	0.2601070702075958	0.14559808373451233	-0.08925134688615799	0.03566053882241249	-0.08184070140123367	0.08913028240203857	-0.2256237417459488	-0.03145236521959305	0.3857131600379944	-0.26090872287750244	0.17118053138256073	-0.2318938672542572	-0.13424673676490784	0.009549758397042751	0.1574447900056839	-0.13217131793498993	0.0501449853181839	-0.11717702448368073	-0.03518703207373619	-0.057608313858509064	-0.12813778221607208	0.05588424205780029	0.015720032155513763	0.05162709206342697	-0.25741642713546753	0.029887689277529716	-0.29689598083496094	0.10936512053012848	0.4482964873313904	0.11198975145816803	0.24799838662147522	-0.14629900455474854	0.04926164075732231	-0.24142149090766907	0.02226913534104824	0.04048195481300354	0.01185875479131937	0.09860788285732269	0.10381608456373215	0.04390536621212959	0.13850489258766174	0.12440406531095505	0.07485221326351166	0.1378394067287445	0.1282086968421936	-0.026659436523914337	0.38681650161743164	0.19930870831012726	-0.3070656657218933	-0.12413741648197174	0.17244023084640503	-0.22213974595069885	0.05202718824148178	-0.14541131258010864	-0.24764348566532135	-0.09130582213401794	0.06197594106197357	-0.007618197239935398	0.08287461847066879	0.049516960978507996	0.12329718470573425	0.08224794268608093	0.02173500508069992	-0.18015369772911072	0.02498805709183216	-0.24702396988868713	-0.17474548518657684	0.21735934913158417	0.1285415142774582	0.22616000473499298	-0.05810727924108505	-0.21192283928394318	0.21033193171024323	0.06487006694078445	-0.019694674760103226	-0.019656751304864883	0.2612796425819397	0.05850274860858917	0.07376918196678162	0.03587334230542183	0.012532386928796768	-0.4504193067550659	0.0011434260522946715	-0.024074235931038857	-0.26502615213394165	-0.00522184744477272	0.06007033959031105	0.09970185160636902	-0.14811187982559204	-0.32850101590156555	-0.24563172459602356	0.01775209791958332	0.019998764619231224	0.001581042306497693	-0.1522095799446106	-0.2733898162841797	-0.13822156190872192	0.28721174597740173	0.20590953528881073	-0.18877451121807098	0.10438845306634903	-0.127863809466362	-0.05848383158445358	0.028548279777169228	-0.004391530063003302	0.06613557040691376	-0.04602699726819992	0.03405582532286644	-0.2817460596561432	-0.04676898941397667	-0.024070877581834793	0.14654941856861115	0.08968746662139893	0.11139443516731262	-0.08943425863981247	0.2864304184913635	-0.01949387416243553	0.11146596819162369	0.11567999422550201	-0.12160725891590118	-0.04112844914197922	0.19791385531425476
